\data\
ngram 1=1188
ngram 2=3489
ngram 3=3883

\1-grams:
-0.46815625	<unk>
-inf	<s>	-0.048939936
-3.9225845	</s>
-3.4119506	so	-0.048939936
-2.571829	may	-0.05928156
-3.6149056	notic	-0.048939936
-2.7398386	blog	-0.048939936
-3.9225845	fairli	-0.048939936
-3.9225845	inact	-0.048939936
-2.814242	recent	-0.048939906
-3.9225845	with	-0.048939936
-3.9225845	except	-0.048939936
-3.9225845	big	-0.048939936
-3.9225845	flurri	-0.048939936
-3.1713936	last	-0.077994004
-3.6149056	coupl	-0.048939936
-3.9225845	day	-0.048939936
-1.4445721	<eos>	-0.11223471
-3.4119506	sennkestra	-0.08812732
-3.9225845	nextstepcak	-0.048939936
-2.38581	work	-0.114802584
-3.6149056	full	-0.048939936
-2.571829	time	-0.066588186
-2.6209471	lot	-0.06032938
-3.1713936	less	-0.077994004
-3.0174882	track	-0.048939966
-3.9225845	record	-0.048939936
-2.1933982	paper	-0.05802748
-2.4171777	need	-0.08841889
-2.6209471	you	-0.13176091
-2.4876556	i	-0.22375683
-2.4876556	current	-0.05767442
-2.6209471	look	-0.05928156
-1.9262118	research	-0.06066895
-2.303369	interest	-0.05459735
-2.4509885	ace	-0.13339917
-2.2790341	help	-0.058410317
-3.1713936	updat	-0.07202564
-3.1713936	especi	-0.048939936
-2.4509885	post	-0.048939906
-2.4509885	new	-0.10343595
-1.5455275	asexu	-0.20001332
-3.4119506	relat	-0.048939936
-3.4119506	convers	-0.048939936
-3.1713936	come	-0.048939936
-3.6149056	across	-0.048939936
-2.4171777	the	-0.048939936
-3.1713936	main	-0.07202564
-2.9040823	thing	-0.048939906
-2.4876556	includ	-0.048939936
-3.0174882	keep	-0.068091765
-3.6149056	eye	-0.048939936
-2.38581	link	-0.048939966
-3.9225845	herekeep	-0.048939936
-2.676337	topic	-0.068091765
-3.9225845	reblog	-0.048939936
-3.9225845	hereaddit	-0.048939936
-3.9225845	wouldn	-0.048939936
-2.6209471	t	-0.048939966
-3.9225845	mind	-0.048939936
-3.0174882	anyon	-0.07202564
-2.676337	might	-0.06032938
-3.9225845	deeper	-0.048939936
-3.4119506	knowledg	-0.077994004
-3.0174882	note	-0.048939936
-2.9040823	don	-0.62084585
-3.9225845	worri	-0.048939936
-3.6149056	seem	-0.048939936
-3.9225845	daunt	-0.048939936
-3.0174882	definit	-0.07202564
-2.7398386	want	-0.06322405
-3.4119506	to	-0.048939936
-3.9225845	answer	-0.048939936
-2.9040823	question	-0.048939936
-3.9225845	inbox	-0.048939936
-3.6149056	ex	-0.048939936
-3.9225845	heard	-0.048939936
-3.9225845	stat	-0.048939936
-3.6149056	can	-0.10913205
-3.6149056	figur	-0.048939936
-2.3291488	it	-0.48415235
-2.234109	s	-0.08300705
-3.6149056	me	-0.048939936
-2.7398386	what	-0.13196982
-2.5277064	find	-0.048939936
-3.0174882	mean	-0.048939936
-3.9225845	do	-0.048939936
-3.0174882	know	-0.048939936
-3.0174882	there	-0.07202564
-3.9225845	x	-0.048939936
-3.9225845	subtop	-0.048939936
-3.6149056	summar	-0.048939936
-2.676337	exist	-0.121920556
-2.676337	access	-0.048939966
-3.9225845	formatprovid	-0.048939936
-2.7398386	bibliographi	-0.048939936
-3.0174882	recommend	-0.048939936
-2.5277064	specif	-0.14549504
-3.4119506	for	-0.23471746
-3.6149056	exampl	-0.068091765
-3.4119506	preval	-0.08812732
-2.571829	book	-0.05928156
-2.5277064	ident	-0.10146306
-2.6209471	good	-0.048939936
-2.7398386	sourc	-0.2032336
-3.9225845	high	-0.048939936
-3.9225845	school	-0.048939936
-3.6149056	etc	-0.10913205
-3.4119506	while	-0.048939936
-3.6149056	m	-0.048939906
-3.4119506	primarili	-0.048939936
-2.121899	peopl	-0.058683936
-2.676337	would	-0.114045285
-3.4119506	call	-0.048939936
-3.9225845	veri	-0.048939936
-3.1713936	familiar	-0.048939936
-2.7398386	actual	-0.06322405
-2.814242	involv	-0.06530356
-3.0174882	aim	-0.048939966
-3.9225845	reader	-0.048939936
-2.4876556	like	-0.057044666
-2.814242	follow	-0.048939906
-3.6149056	themselv	-0.048939936
-2.814242	if	-0.048939906
-3.9225845	aren	-0.048939936
-3.4119506	sure	-0.048939936
-3.1713936	appli	-0.048939936
-3.9225845	feel	-0.048939936
-3.4119506	free	-0.048939936
-3.1713936	ask	-0.048939936
-2.7398386	thi	-0.048939936
-2.7398386	pleas	-0.07466811
-3.0174882	submit	-0.048939966
-2.7398386	email	-0.13196982
-3.6149056	gmail	-0.08812732
-3.9225845	com	-0.048939936
-3.6149056	info	-0.048939936
-3.4119506	name	-0.048939936
-3.0174882	or	-0.048939906
-3.9225845	nicknam	-0.048939936
-3.0174882	tumblr	-0.048939966
-3.9225845	pronoun	-0.048939936
-3.9225845	best	-0.048939936
-2.7398386	way	-0.048939936
-3.4119506	contact	-0.048939936
-3.9225845	messeng	-0.048939936
-3.9225845	whi	-0.048939936
-2.676337	experi	-0.048939966
-3.4119506	doesn	-0.31981587
-3.4119506	formal	-0.048939936
-2.571829	read	-0.05928156
-2.356556	onlin	-0.069245085
-3.4119506	fun	-0.048939936
-3.9225845	everi	-0.048939936
-3.0174882	class	-0.07202564
-2.6209471	project	-0.048939936
-3.6149056	total	-0.10913205
-3.9225845	count	-0.048939936
-3.9225845	method	-0.048939936
-3.6149056	ani	-0.048939936
-2.17439	use	-0.057044666
-3.4119506	and	-0.31981587
-2.4509885	commun	-0.081290156
-3.6149056	favorit	-0.048939936
-3.0174882	least	-0.07202564
-3.0174882	run	-0.048939936
-3.9225845	prioriti	-0.048939936
-3.9225845	goe	-0.048939936
-2.571829	identifi	-0.32541546
-3.0174882	part	-0.068091765
-3.9225845	aro	-0.048939936
-3.9225845	strict	-0.048939936
-2.676337	requir	-0.06032938
-3.6149056	signal	-0.10913205
-3.9225845	boost	-0.048939936
-3.9225845	apprecisubmit	-0.048939936
-3.9225845	space	-0.048939936
-3.9225845	crayon	-0.048939936
-2.676337	much	-0.048939936
-2.6209471	inform	-0.048939966
-3.0174882	autism	-0.048939906
-3.1713936	although	-0.048939966
-3.4119506	found	-0.048939936
-3.9225845	numer	-0.048939936
-3.9225845	spectrum	-0.048939936
-3.6149056	statist	-0.048939936
-2.5277064	make	-0.068091765
-3.9225845	sens	-0.048939936
-2.676337	two	-0.048939936
-3.9225845	someon	-0.048939936
-3.9225845	characterist	-0.048939936
-3.6149056	could	-0.048939936
-3.1713936	present	-0.048939936
-3.1713936	relationship	-0.048939936
-3.6149056	anyth	-0.048939936
-3.9225845	btw	-0.048939936
-3.9225845	diognos	-0.048939936
-2.9040823	autist	-0.048939936
-3.0174882	though	-0.048939966
-2.814242	mani	-0.048939906
-3.9225845	trait	-0.048939936
-2.814242	hope	-0.048939906
-3.9225845	wasn	-0.048939936
-3.9225845	offens	-0.048939936
-3.4119506	hello	-0.048939936
-3.6149056	my	-0.048939936
-3.9225845	apolog	-0.048939936
-3.9225845	delay	-0.048939936
-3.0174882	respons	-0.048939906
-2.5277064	year	-0.048939906
-3.6149056	ago	-0.048939936
-3.6149056	touch	-0.048939936
-2.676337	url	-0.048939936
-3.4119506	awar	-0.048939936
-3.1713936	major	-0.048939936
-2.814242	chang	-0.048939936
-3.9225845	landscap	-0.048939936
-3.1713936	sinc	-0.048939936
-3.6149056	then	-0.048939936
-3.6149056	let	-0.10913205
-3.6149056	ll	-0.048939936
-2.814242	take	-0.06530356
-3.6149056	later	-0.048939936
-3.9225845	limit	-0.048939936
-2.2790341	librari	-0.048939936
-3.6149056	short	-0.048939936
-3.4119506	is	-0.048939936
-3.9225845	isn	-0.048939936
-3.6149056	potenti	-0.048939936
-3.9225845	asdl	-0.048939936
-2.303369	studi	-0.05459735
-3.9225845	tent	-0.048939936
-2.7398386	suggest	-0.048939936
-3.0174882	correl	-0.048939966
-2.9040823	addit	-0.048939936
-2.814242	possibl	-0.06530356
-3.4119506	asd	-0.048939936
-3.0174882	queer	-0.048939966
-2.9040823	gener	-0.048939936
-3.1713936	howev	-0.048939936
-2.7398386	still	-0.048939936
-3.9225845	weak	-0.048939936
-3.9225845	confirm	-0.048939936
-3.9225845	deni	-0.048939936
-2.3291488	also	-0.058410317
-3.9225845	indic	-0.048939936
-3.9225845	biolog	-0.048939936
-3.9225845	label	-0.048939936
-3.9225845	prefer	-0.048939936
-3.6149056	variou	-0.048939936
-3.9225845	reason	-0.048939936
-3.9225845	introspect	-0.048939936
-3.0174882	differ	-0.048939966
-3.9225845	decid	-0.048939936
-3.9225845	pursu	-0.048939936
-3.9225845	diagnosi	-0.048939936
-3.6149056	mostli	-0.048939936
-3.9225845	coincid	-0.048939936
-3.6149056	idea	-0.048939936
-1.9703953	digit	-0.16290212
-3.9225845	censu	-0.048939936
-2.7398386	data	-0.048939936
-3.6149056	analyz	-0.048939936
-3.0174882	give	-0.048939966
-3.6149056	insight	-0.048939936
-3.4119506	as	-0.048939936
-3.9225845	oppos	-0.048939936
-3.9225845	popul	-0.048939936
-3.6149056	won	-0.10913205
-3.4119506	tell	-0.08812732
-3.4119506	us	-0.048939936
-3.9225845	causal	-0.048939936
-3.9225845	sennkestrahello	-0.048939936
-3.0174882	conduct	-0.048939966
-2.356556	one	-0.048939936
-3.4119506	small	-0.048939936
-3.6149056	valid	-0.048939936
-3.9225845	scale	-0.048939936
-3.0174882	number	-0.048939966
-2.7398386	particip	-0.048939966
-3.9225845	qualtric	-0.048939936
-2.4171777	survey	-0.064193234
-3.4119506	complet	-0.048939936
-3.9225845	anonym	-0.048939936
-3.9225845	abid	-0.048939936
-3.9225845	ethic	-0.048939936
-3.9225845	guidelin	-0.048939936
-3.6149056	enforc	-0.048939936
-3.9225845	american	-0.048939936
-3.4119506	psycholog	-0.048939936
-3.4119506	associ	-0.048939936
-3.4119506	appreci	-0.08812732
-3.9225845	reach	-0.048939936
-3.9225845	jacobwhighsmith	-0.048939936
-3.6149056	thank	-0.048939936
-3.9225845	jwhsubmit	-0.048939936
-3.6149056	rafaelafranzen	-0.048939936
-2.9040823	write	-0.048939936
-3.9225845	autoethnographi	-0.048939936
-3.4119506	sociolog	-0.048939936
-3.4119506	devianc	-0.048939936
-3.4119506	focu	-0.048939936
-3.6149056	live	-0.10913205
-3.9225845	adopt	-0.048939936
-2.4876556	self	-0.27343318
-3.4119506	plan	-0.048939936
-3.6149056	frame	-0.048939936
-3.6149056	form	-0.048939936
-3.6149056	secondari	-0.10913205
-3.4119506	talk	-0.048939936
-3.1713936	implic	-0.048939936
-3.9225845	within	-0.048939936
-3.1713936	social	-0.048939936
-3.6149056	structur	-0.048939936
-3.4119506	consid	-0.048939936
-2.1387007	sexual	-0.15199801
-3.6149056	norm	-0.048939936
-3.6149056	ve	-0.048939936
-3.9225845	brief	-0.048939936
-3.9225845	scan	-0.048939936
-3.6149056	googl	-0.048939936
-3.6149056	scholar	-0.048939936
-3.6149056	academia	-0.10913205
-3.9225845	edu	-0.048939936
-3.1713936	due	-0.048939936
-2.9040823	person	-0.048939936
-3.9225845	natur	-0.048939936
-3.6149056	k	-0.048939936
-3.0174882	word	-0.048939966
-3.9225845	max	-0.048939936
-3.6149056	wonder	-0.048939936
-2.7398386	articl	-0.048939936
-3.1713936	on	-0.048939936
-3.6149056	outsid	-0.048939936
-3.9225845	aspect	-0.048939936
-3.9225845	alien	-0.048939936
-3.9225845	sanction	-0.048939936
-3.4119506	put	-0.08812732
-3.4119506	place	-0.048939936
-3.6149056	ideal	-0.048939936
-3.6149056	human	-0.048939936
-3.9225845	be	-0.048939936
-3.9225845	flipsid	-0.048939936
-2.6209471	understand	-0.06032938
-3.9225845	unabl	-0.048939936
-3.9225845	fit	-0.048939936
-3.9225845	domin	-0.048939936
-3.1713936	cultur	-0.048939936
-3.9225845	highli	-0.048939936
-3.1713936	societi	-0.048939966
-3.9225845	pertain	-0.048939936
-3.9225845	borrow	-0.048939936
-2.9040823	perspect	-0.068091765
-3.6149056	subcultur	-0.048939936
-3.0174882	focus	-0.048939966
-3.9225845	act	-0.048939936
-2.4171777	group	-0.08198723
-3.0174882	support	-0.06530356
-3.6149056	describ	-0.048939936
-3.9225845	behav	-0.048939936
-3.9225845	deviant	-0.048939936
-3.9225845	ever	-0.048939936
-2.5277064	a	-0.058410317
-3.6149056	rec	-0.048939936
-3.4119506	top	-0.08812732
-3.9225845	head	-0.048939936
-3.1713936	feminist	-0.048939936
-2.7398386	sever	-0.06322405
-3.6149056	off	-0.048939936
-3.9225845	ianna	-0.048939936
-3.9225845	hawkin	-0.048939936
-3.9225845	owen	-0.048939936
-3.9225845	megan	-0.048939936
-3.9225845	milk	-0.048939936
-2.9040823	other	-0.077994004
-2.6209471	well	-0.05928156
-3.6149056	scherrer	-0.048939936
-2.6209471	discuss	-0.048939966
-3.6149056	identif	-0.048939936
-3.9225845	influenc	-0.048939936
-3.9225845	subjectsloan	-0.048939936
-3.9225845	bdsm	-0.048939936
-3.9225845	club	-0.048939936
-2.5277064	provid	-0.06530356
-3.9225845	anglekristina	-0.048939936
-3.9225845	gupta	-0.048939936
-3.6149056	compulsori	-0.10913205
-3.4119506	overview	-0.048939936
-3.6149056	concept	-0.048939936
-3.4119506	affect	-0.048939936
-3.1713936	contain	-0.048939936
-3.1713936	subject	-0.048939936
-3.4119506	anoth	-0.048939936
-3.0174882	interview	-0.048939966
-3.9225845	style	-0.048939936
-3.4119506	littl	-0.048939936
-3.6149056	difficult	-0.048939936
-3.9225845	ela	-0.048939936
-3.9225845	przybylo	-0.048939936
-3.6149056	initi	-0.048939936
-3.6149056	think	-0.048939936
-3.4119506	get	-0.048939936
-3.6149056	back	-0.048939936
-3.9225845	home	-0.048939936
-3.1713936	messag	-0.048939936
-3.9225845	comment	-0.048939936
-3.9225845	tag	-0.048939936
-3.9225845	themmani	-0.048939936
-3.1713936	dr	-0.23471746
-3.6149056	lori	-0.10913205
-3.0174882	brotto	-0.06322405
-2.9040823	publish	-0.048939906
-3.4119506	investig	-0.048939936
-3.9225845	arous	-0.048939936
-3.0174882	women	-0.07202564
-3.6149056	further	-0.048939936
-3.9225845	scientif	-0.048939936
-3.4119506	orient	-0.048939936
-3.9225845	someth	-0.048939936
-3.9225845	dysfunct	-0.048939936
-3.4119506	recruit	-0.048939936
-3.6149056	partner	-0.048939936
-3.9225845	statement	-0.048939936
-3.1713936	team	-0.048939966
-3.4119506	goal	-0.048939936
-3.4119506	men	-0.048939936
-3.4119506	attract	-0.048939936
-3.9225845	desir	-0.048939936
-3.4119506	toward	-0.048939936
-2.814242	individu	-0.06530356
-3.9225845	physiolog	-0.048939936
-3.6149056	test	-0.048939936
-3.9225845	privat	-0.048939936
-3.9225845	room	-0.048939936
-3.4119506	locat	-0.048939936
-3.6149056	vancouv	-0.048939936
-3.9225845	hospit	-0.048939936
-3.9225845	questionnair	-0.048939936
-3.9225845	telephon	-0.048939936
-3.9225845	prescreen	-0.048939936
-3.6149056	establish	-0.048939936
-3.4119506	qualif	-0.048939936
-3.9225845	collect	-0.048939936
-3.9225845	confidenti	-0.048939936
-3.9225845	honorarium	-0.048939936
-3.0174882	send	-0.068091765
-3.9225845	re	-0.048939936
-3.9225845	appoint	-0.048939936
-3.6149056	again	-0.048939936
-3.6149056	low	-0.048939936
-3.9225845	libido	-0.048939936
-3.9225845	onli	-0.048939936
-3.9225845	hear	-0.048939936
-3.6149056	soon	-0.048939936
-3.9225845	elig	-0.048939936
-3.9225845	older	-0.048939936
-3.9225845	ci	-0.048939936
-3.9225845	male	-0.048939936
-3.9225845	editor	-0.048939936
-3.1713936	either	-0.048939936
-3.6149056	area	-0.048939936
-3.6149056	will	-0.048939936
-3.9225845	travel	-0.048939936
-3.6149056	directli	-0.048939936
-3.9225845	vch	-0.048939936
-3.9225845	ca	-0.048939936
-3.6149056	websit	-0.048939936
-3.9225845	sherlockedtighthi	-0.048939936
-3.1713936	start	-0.048939966
-3.6149056	thesi	-0.048939936
-3.4119506	journal	-0.048939936
-3.6149056	undergrad	-0.048939936
-3.0174882	invis	-0.068091765
-3.6149056	such	-0.048939936
-3.9225845	divid	-0.048939936
-3.9225845	demisexu	-0.048939936
-2.7398386	bisexu	-0.077994004
-3.9225845	pansexu	-0.048939936
-3.9225845	obvious	-0.048939936
-2.9040823	abl	-0.068091765
-3.0174882	univers	-0.07202564
-3.9225845	anyway	-0.048939936
-3.9225845	clauxx	-0.048939936
-2.6209471	first	-0.05928156
-3.6149056	d	-0.048939936
-3.1713936	check	-0.048939966
-2.571829	list	-0.06530356
-2.7398386	here	-0.16359296
-3.4119506	kind	-0.048939936
-3.6149056	hard	-0.048939936
-3.6149056	pretti	-0.048939936
-3.6149056	decent	-0.048939936
-3.6149056	bogaert	-0.048939936
-3.0174882	academ	-0.048939966
-3.1713936	summari	-0.048939966
-3.9225845	decker	-0.048939936
-3.9225845	invisbl	-0.048939936
-3.9225845	orientaion	-0.048939936
-3.9225845	wherea	-0.048939936
-3.0174882	realli	-0.048939966
-3.9225845	reaction	-0.048939936
-3.6149056	just	-0.048939936
-3.1713936	chapter	-0.048939936
-3.9225845	bogart	-0.048939936
-3.1713936	move	-0.048939936
-3.9225845	away	-0.048939936
-3.9225845	untest	-0.048939936
-3.9225845	hypothes	-0.048939936
-3.4119506	go	-0.048939936
-3.9225845	essay	-0.048939936
-3.9225845	epistem	-0.048939936
-3.9225845	contract	-0.048939936
-3.6149056	erasur	-0.048939936
-3.9225845	kenji	-0.048939936
-3.9225845	yoshino	-0.048939936
-3.9225845	draw	-0.048939936
-3.9225845	parallel	-0.048939936
-3.9225845	side	-0.048939936
-3.9225845	sf	-0.048939936
-3.6149056	right	-0.048939936
-3.9225845	commiss	-0.048939936
-3.0174882	report	-0.048939936
-3.9225845	worth	-0.048939936
-3.6149056	mention	-0.10913205
-3.6149056	section	-0.048939936
-3.9225845	appli_	-0.048939936
-3.6149056	librarian	-0.048939936
-3.6149056	annot	-0.048939936
-3.9225845	longer	-0.048939936
-3.9225845	concern	-0.048939936
-3.9225845	grade	-0.048939936
-3.9225845	justic	-0.048939936
-3.9225845	equal	-0.048939936
-3.9225845	empower	-0.048939936
-3.9225845	minor	-0.048939936
-3.9225845	millennium	-0.048939936
-3.6149056	morrison	-0.048939936
-3.9225845	todd	-0.048939936
-3.6149056	g	-0.048939936
-3.9225845	melani	-0.048939936
-3.9225845	carrigan	-0.048939936
-3.9225845	mark	-0.048939936
-3.6149056	exclus	-0.048939936
-3.9225845	finish	-0.048939936
-3.4119506	student	-0.048939936
-3.1713936	tri	-0.048939936
-3.9225845	buy	-0.048939936
-3.9225845	amazon	-0.048939936
-3.9225845	million	-0.048939936
-3.9225845	buck	-0.048939936
-3.9225845	beg	-0.048939936
-3.9225845	plead	-0.048939936
-3.4119506	databas	-0.048939936
-3.9225845	mine	-0.048939936
-2.814242	allow	-0.06530356
-3.6149056	password	-0.048939936
-3.9225845	sorri	-0.048939936
-3.4119506	share	-0.048939936
-3.9225845	helpfirst	-0.048939936
-3.6149056	phase	-0.048939936
-2.9040823	analysi	-0.048939906
-3.9225845	preliminari	-0.048939936
-3.6149056	week	-0.048939936
-3.9225845	next	-0.048939936
-3.9225845	consist	-0.048939936
-3.9225845	begin	-0.048939936
-3.6149056	variabl	-0.048939936
-3.9225845	interact	-0.048939936
-3.4119506	detail	-0.048939936
-3.6149056	level	-0.048939936
-3.4119506	we	-0.08812732
-3.6149056	period	-0.048939936
-3.6149056	snippet	-0.048939936
-3.9225845	cours	-0.048939936
-3.1713936	view	-0.048939936
-3.6149056	wordpress	-0.048939936
-3.9225845	repli	-0.048939936
-3.4119506	page	-0.048939936
-3.4119506	necessarili	-0.048939936
-3.9225845	tumblrabstract	-0.048939936
-3.9225845	objectivesthi	-0.048939936
-3.9225845	contemporari	-0.048939936
-2.6209471	health	-0.124746226
-3.1713936	care	-0.048939906
-3.6149056	practic	-0.048939936
-3.9225845	backgroundindividu	-0.048939936
-3.9225845	belong	-0.048939936
-3.1713936	face	-0.048939936
-3.4119506	barrier	-0.08812732
-3.9225845	appropri	-0.048939936
-3.1713936	term	-0.048939936
-3.9225845	usual	-0.048939936
-2.9040823	refer	-0.048939936
-3.9225845	lesbian	-0.048939936
-3.9225845	gay	-0.048939936
-3.9225845	transgend	-0.048939936
-3.9225845	lgbt	-0.048939936
-3.9225845	anecdot	-0.048939936
-3.1713936	evid	-0.048939966
-3.1713936	similar	-0.048939936
-3.9225845	poor	-0.048939936
-3.9225845	methodsthi	-0.048939936
-3.9225845	systemat	-0.048939936
-3.4119506	review	-0.048939936
-3.4119506	qualit	-0.08812732
-3.1713936	construct	-0.048939936
-3.6149056	featur	-0.10913205
-3.6149056	practition	-0.048939936
-3.4119506	profession	-0.048939966
-2.9040823	develop	-0.048939906
-3.6149056	poorli	-0.10913205
-3.4119506	understood	-0.048939936
-3.9225845	ultim	-0.048939936
-3.6149056	facilit	-0.10913205
-3.6149056	compet	-0.048939936
-3.6149056	context	-0.048939936
-3.9225845	resultsqualit	-0.048939936
-3.9225845	produc	-0.048939936
-3.0174882	theme	-0.048939966
-2.9040823	posit	-0.048939906
-3.9225845	normalis	-0.048939936
-3.9225845	greater	-0.048939936
-3.1713936	romant	-0.048939936
-3.6149056	indiffer	-0.048939936
-3.4119506	engag	-0.048939936
-3.9225845	divers	-0.048939936
-2.814242	sub	-0.06530356
-3.9225845	conclusionshav	-0.048939936
-3.9225845	respect	-0.048939936
-3.9225845	choic	-0.048939936
-3.9225845	made	-0.048939936
-3.9225845	markedli	-0.048939936
-3.9225845	improv	-0.048939936
-3.9225845	embrac	-0.048939936
-3.1713936	healthcar	-0.068091765
-3.6149056	relev	-0.048939936
-3.6149056	clinic	-0.048939936
-3.9225845	practiceanecdot	-0.048939936
-3.6149056	taken	-0.048939936
-3.6149056	largest	-0.10913205
-3.4119506	forum	-0.048939936
-3.9225845	choos	-0.048939936
-3.9225845	disclos	-0.048939936
-3.6149056	fear	-0.048939936
-3.9225845	statu	-0.048939936
-3.9225845	pathologis	-0.048939936
-3.9225845	problematis	-0.048939936
-3.6149056	judg	-0.048939936
-3.6149056	given	-0.048939936
-3.1713936	lack	-0.048939936
-3.9225845	behalf	-0.048939936
-3.0174882	set	-0.048939966
-3.9225845	protect	-0.048939936
-3.9225845	copyright	-0.048939936
-3.9225845	reserv	-0.048939936
-3.0174882	literatur	-0.048939966
-3.9225845	excit	-0.048939936
-3.4119506	haven	-0.31981587
-3.9225845	chanc	-0.048939936
-3.9225845	dig	-0.048939936
-3.1713936	yet	-0.048939936
-3.9225845	sennabstract	-0.048939936
-3.9225845	increas	-0.048939936
-3.4119506	nation	-0.08812732
-3.6149056	probabl	-0.048939936
-3.4119506	explor	-0.048939936
-3.6149056	util	-0.048939936
-3.9225845	zealand	-0.048939936
-3.9225845	attitud	-0.048939936
-3.9225845	valu	-0.048939936
-3.6149056	past	-0.048939936
-3.9225845	typic	-0.048939936
-2.814242	base	-0.048939906
-3.4119506	measur	-0.048939936
-3.4119506	open	-0.048939936
-3.9225845	end	-0.048939936
-2.814242	item	-0.048939906
-3.6149056	n	-0.10913205
-3.6149056	compar	-0.048939936
-3.1713936	heterosexu	-0.048939936
-2.9040823	larg	-0.048939936
-3.9225845	demograph	-0.048939936
-3.9225845	rel	-0.048939936
-3.6149056	substanti	-0.048939936
-3.9225845	cisgend	-0.048939936
-3.9225845	seriou	-0.048939936
-3.9225845	parent	-0.048939936
-3.9225845	deleteri	-0.048939936
-2.4509885	mental	-0.6001617
-3.9225845	physic	-0.048939936
-3.9225845	effect	-0.048939936
-3.9225845	attempt	-0.048939936
-3.6149056	sampl	-0.048939936
-3.9225845	highlight	-0.048939936
-3.6149056	core	-0.048939936
-3.9225845	sit	-0.048939936
-3.6149056	fact	-0.048939936
-3.0174882	alreadi	-0.048939966
-3.9225845	sennkestraabstract	-0.048939936
-3.9225845	narr	-0.048939936
-3.4119506	celibaci	-0.048939936
-3.9225845	often	-0.048939936
-3.4119506	three	-0.048939936
-3.4119506	aﬀect	-0.048939936
-3.6149056	anxieti	-0.10913205
-3.6149056	shame	-0.048939936
-3.6149056	abject	-0.048939936
-3.9225845	experienc	-0.048939936
-3.9225845	celib	-0.048939936
-3.9225845	identiﬁ	-0.048939936
-3.9225845	onto	-0.048939936
-3.9225845	stephen	-0.048939936
-3.9225845	fri	-0.048939936
-3.9225845	column	-0.048939936
-3.9225845	impos	-0.048939936
-3.9225845	intersect	-0.048939936
-3.9225845	despit	-0.048939936
-3.6149056	western	-0.048939936
-3.9225845	liber	-0.048939936
-3.9225845	perceiv	-0.048939936
-3.6149056	problem	-0.048939936
-3.9225845	solv	-0.048939936
-3.4119506	argu	-0.048939936
-3.9225845	revalor	-0.048939936
-3.6149056	basi	-0.048939936
-3.9225845	cvetkovich	-0.048939936
-3.9225845	trauma	-0.048939936
-3.9225845	kosofski	-0.048939936
-3.9225845	sedgwick	-0.048939936
-3.9225845	neg	-0.048939936
-3.9225845	serv	-0.048939936
-3.9225845	identiﬁc	-0.048939936
-3.4119506	public	-0.048939936
-3.1713936	avail	-0.048939936
-3.1713936	paywal	-0.048939966
-3.6149056	appear	-0.048939936
-3.9225845	larger	-0.048939936
-3.9225845	antholog	-0.048939936
-3.9225845	sourcnote	-0.048939936
-2.9040823	discours	-0.048939936
-3.6149056	linguist	-0.048939936
-3.9225845	fight	-0.048939936
-3.9225845	abstract	-0.048939936
-3.4119506	technolog	-0.048939936
-3.9225845	econom	-0.048939936
-3.9225845	decad	-0.048939936
-3.9225845	led	-0.048939936
-3.9225845	tie	-0.048939936
-3.9225845	geograph	-0.048939936
-3.6149056	creat	-0.048939936
-3.9225845	opportun	-0.048939936
-3.9225845	challeng	-0.048939936
-3.0174882	languag	-0.07202564
-3.9225845	dissert	-0.048939936
-3.6149056	case	-0.048939936
-3.9225845	examin	-0.048939936
-3.9225845	of	-0.048939936
-3.0174882	in	-0.07202564
-3.9225845	english	-0.048939936
-3.6149056	second	-0.048939936
-3.9225845	half	-0.048939936
-3.9225845	late	-0.048939936
-3.9225845	lexic	-0.048939936
-3.9225845	multi	-0.048939936
-3.9225845	express	-0.048939936
-3.9225845	combin	-0.048939936
-3.6149056	approach	-0.048939936
-3.1713936	archiv	-0.077994004
-2.814242	corpu	-0.12730518
-3.6149056	machin	-0.048939936
-3.9225845	newspap	-0.048939936
-3.4119506	histor	-0.048939936
-3.4119506	conceptu	-0.08812732
-3.6149056	seen	-0.048939936
-3.9225845	emerg	-0.048939936
-3.6149056	organ	-0.048939936
-3.6149056	prior	-0.048939936
-3.6149056	account	-0.048939936
-3.6149056	shift	-0.048939936
-3.6149056	consider	-0.048939936
-2.356556	aven	-0.13184889
-3.6149056	rise	-0.10913205
-3.6149056	intermedi	-0.10913205
-3.9225845	categori	-0.048939936
-3.9225845	four	-0.048939936
-3.4119506	corpora	-0.048939936
-3.9225845	scrap	-0.048939936
-3.9225845	visibl	-0.048939936
-3.9225845	educ	-0.048939936
-3.9225845	network	-0.048939936
-3.9225845	size	-0.048939936
-3.9225845	board	-0.048939936
-3.9225845	control	-0.048939936
-2.9040823	non	-0.068091765
-3.9225845	subdivid	-0.048939936
-3.9225845	subforum	-0.048939936
-2.9040823	e	-0.068091765
-3.9225845	scrape	-0.048939936
-3.9225845	livejourn	-0.048939936
-3.9225845	compris	-0.048939936
-3.9225845	multinomi	-0.048939936
-3.9225845	naiv	-0.048939936
-3.9225845	bay	-0.048939936
-3.1713936	classifi	-0.048939936
-3.9225845	moder	-0.048939936
-3.6149056	distinguish	-0.10913205
-3.9225845	corpura	-0.048939936
-3.9225845	rule	-0.048939936
-3.6149056	vs	-0.048939936
-3.9225845	algorithm	-0.048939936
-3.9225845	remov	-0.048939936
-3.6149056	user	-0.048939936
-3.0174882	result	-0.068091765
-3.6149056	not	-0.048939936
-3.9225845	key	-0.048939936
-3.9225845	character	-0.048939936
-3.9225845	evolut	-0.048939936
-3.6149056	these	-0.048939936
-3.9225845	repuls	-0.048939936
-3.9225845	strong	-0.048939936
-3.6149056	hypothesi	-0.048939936
-3.9225845	terminolog	-0.048939936
-3.9225845	domain	-0.048939936
-3.9225845	earli	-0.048939936
-3.9225845	predict	-0.048939936
-3.9225845	monolith	-0.048939936
-3.9225845	illustr	-0.048939936
-3.4119506	methodolog	-0.048939936
-3.0174882	learn	-0.048939936
-3.6149056	novel	-0.048939936
-3.9225845	communabstract	-0.048939936
-2.814242	lgbtiq	-0.23053974
-3.4119506	seek	-0.077994004
-3.9225845	etool	-0.048939936
-3.9225845	fund	-0.048939936
-3.1713936	young	-0.077994004
-3.9225845	cooper	-0.048939936
-3.6149056	centr	-0.048939936
-3.6149056	collabor	-0.048939936
-3.9225845	organis	-0.048939936
-3.9225845	twenti	-0.048939936
-3.9225845	incorpor	-0.048939936
-3.9225845	glc	-0.048939936
-3.9225845	nsw	-0.048939936
-3.9225845	freedom	-0.048939936
-3.9225845	curtin	-0.048939936
-3.9225845	sydney	-0.048939936
-3.9225845	rang	-0.048939936
-3.9225845	socio	-0.048939936
-3.9225845	inequ	-0.048939936
-3.6149056	impact	-0.048939936
-3.9225845	wellb	-0.048939936
-3.9225845	particularli	-0.048939936
-3.6149056	higher	-0.048939936
-3.9225845	risk	-0.048939936
-3.1713936	issu	-0.077994004
-3.9225845	homophobia	-0.048939936
-3.9225845	transphobia	-0.048939936
-3.9225845	disclosur	-0.048939936
-2.9040823	gender	-0.4108087
-3.9225845	prevent	-0.048939936
-3.9225845	promot	-0.048939936
-3.9225845	reduc	-0.048939936
-3.9225845	empow	-0.048939936
-3.6149056	australian	-0.048939936
-3.9225845	assist	-0.048939936
-3.9225845	servic	-0.048939936
-3.9225845	optim	-0.048939936
-3.9225845	culmin	-0.048939936
-3.6149056	tool	-0.048939936
-3.9225845	prototyp	-0.048939936
-3.9225845	rad	-0.048939936
-3.9225845	australia	-0.048939936
-3.9225845	driven	-0.048939936
-3.6149056	directori	-0.048939936
-3.9225845	referr	-0.048939936
-3.9225845	process	-0.048939936
-3.9225845	worker	-0.048939936
-3.6149056	youth	-0.048939936
-3.9225845	receiv	-0.048939936
-3.6149056	feedback	-0.048939936
-3.1713936	tran	-0.077994004
-3.9225845	nonbinari	-0.048939936
-3.9225845	approx	-0.048939936
-3.9225845	respond	-0.048939936
-3.9225845	quot	-0.048939936
-3.9225845	indirectli	-0.048939936
-3.9225845	relevabstract	-0.048939936
-3.9225845	obstacl	-0.048939936
-3.6149056	poorer	-0.10913205
-3.9225845	outcom	-0.048939936
-3.4119506	tend	-0.048939936
-3.6149056	have	-0.048939936
-3.4119506	dispar	-0.048939936
-3.9225845	incid	-0.048939936
-3.9225845	symptom	-0.048939936
-3.9225845	connect	-0.048939936
-3.4119506	margin	-0.048939936
-3.6149056	stigma	-0.048939936
-3.9225845	weigh	-0.048939936
-3.9225845	heavili	-0.048939936
-3.9225845	whose	-0.048939936
-3.9225845	binari	-0.048939936
-3.4119506	even	-0.048939936
-3.9225845	determin	-0.048939936
-3.9225845	exactli	-0.048939936
-3.9225845	complex	-0.048939936
-3.9225845	fluid	-0.048939936
-3.9225845	therefor	-0.048939936
-3.9225845	defin	-0.048939936
-3.4119506	whether	-0.048939936
-3.9225845	attribut	-0.048939936
-3.9225845	factor	-0.048939936
-3.9225845	undetermin	-0.048939936
-3.9225845	represent	-0.048939936
-3.9225845	demonstr	-0.048939936
-3.9225845	ignor	-0.048939936
-3.9225845	broader	-0.048939936
-3.4119506	quick	-0.048939936
-3.9225845	glanc	-0.048939936
-3.1713936	far	-0.048939936
-3.9225845	quit	-0.048939936
-3.6149056	bit	-0.048939936
-3.9225845	discrimin	-0.048939936
-3.9225845	patholog	-0.048939936
-3.9225845	cliniciannew	-0.048939936
-3.6149056	rather	-0.048939936
-3.6149056	preview	-0.048939936
-3.9225845	pricey	-0.048939936
-3.9225845	ebook	-0.048939936
-3.9225845	whole	-0.048939936
-3.9225845	tip	-0.048939936
-3.9225845	counselornarr	-0.048939936
-3.9225845	explicitli	-0.048939936
-3.9225845	abovupdat	-0.048939936
-3.4119506	nomin	-0.048939936
-3.4119506	close	-0.048939936
-3.9225845	candid	-0.048939936
-3.9225845	q	-0.048939936
-3.6149056	thread	-0.048939936
-3.9225845	are	-0.048939936
-3.9225845	were	-0.048939936
-3.6149056	activ	-0.048939936
-3.1713936	miss	-0.048939966
-3.9225845	nominationa	-0.048939936
-3.6149056	applic	-0.048939936
-3.9225845	offic	-0.048939936
-3.0174882	resourc	-0.048939936
-3.9225845	director	-0.048939936
-3.9225845	charg	-0.048939936
-3.4119506	rest	-0.048939936
-3.6149056	staff	-0.048939936
-3.9225845	remain	-0.048939936
-3.9225845	same	-0.048939936
-3.0174882	primari	-0.3316275
-3.4119506	annual	-0.048939936
-3.9225845	expect	-0.048939936
-3.9225845	accomplish	-0.048939936
-3.9225845	togeth	-0.048939936
-3.6149056	lead	-0.10913205
-3.9225845	intend	-0.048939936
-3.9225845	ensur	-0.048939936
-3.6149056	document	-0.048939936
-3.9225845	state	-0.048939936
-3.9225845	address	-0.048939936
-3.1713936	confer	-0.048939936
-3.9225845	standard	-0.048939936
-3.9225845	reus	-0.048939936
-3.6149056	month	-0.048939936
-3.6149056	excel	-0.048939936
-3.9225845	skill	-0.048939936
-3.1713936	basic	-0.048939936
-3.6149056	must	-0.10913205
-2.9040823	member	-0.048939906
-3.9225845	welcom	-0.048939936
-3.9225845	cannot	-0.048939936
-3.9225845	warn	-0.048939936
-3.9225845	bio	-0.048939936
-3.9225845	vote	-0.048939936
-3.9225845	throw	-0.048939936
-3.9225845	cent	-0.048939936
-3.6149056	manag	-0.048939936
-3.6149056	role	-0.048939936
-3.6149056	nice	-0.048939936
-3.9225845	task	-0.048939936
-3.9225845	regularli	-0.048939936
-3.9225845	bonu	-0.048939936
-3.9225845	unfortun	-0.048939936
-3.9225845	urlnew	-0.048939936
-3.9225845	reviewtext	-0.048939936
-3.9225845	upcom	-0.048939936
-3.9225845	announc	-0.048939936
-3.6149056	chasin	-0.048939936
-2.814242	commentari	-0.06530356
-3.6149056	yule	-0.048939936
-3.9225845	came	-0.048939936
-3.6149056	novemb	-0.10913205
-3.9225845	forgot	-0.048939936
-3.6149056	c	-0.048939936
-3.9225845	acquir	-0.048939936
-3.9225845	femal	-0.048939936
-3.9225845	disord	-0.048939936
-3.9225845	behavior	-0.048939936
-3.9225845	doi	-0.048939936
-3.9225845	text	-0.048939936
-3.6149056	without	-0.10913205
-3.9225845	download	-0.048939936
-3.6149056	l	-0.048939936
-3.9225845	paraphilia	-0.048939936
-3.6149056	none	-0.10913205
-3.6149056	abov	-0.048939936
-3.9225845	below	-0.048939936
-3.6149056	forthcom	-0.048939936
-3.4119506	that	-0.048939936
-3.9225845	f	-0.048939936
-3.9225845	cranney	-0.048939936
-3.9225845	doe	-0.048939936
-3.9225845	meet	-0.048939936
-3.9225845	stabil	-0.048939936
-3.9225845	criterion	-0.048939936
-3.9225845	z	-0.048939936
-3.9225845	pfeffer	-0.048939936
-3.9225845	van	-0.048939936
-3.9225845	houdenhov	-0.048939936
-3.9225845	enzlin	-0.048939936
-3.9225845	p	-0.048939936
-3.9225845	gij	-0.048939936
-3.1713936	step	-0.048939936
-3.9225845	long	-0.048939936
-3.9225845	assign	-0.048939936
-3.4119506	singl	-0.048939936
-3.9225845	hasn	-0.048939936
-3.9225845	happen	-0.048939936
-3.9225845	origin	-0.048939936
-3.6149056	target	-0.048939936
-3.9225845	articlhelp	-0.048939936
-3.9225845	bibliographyhello	-0.048939936
-3.6149056	all	-0.048939936
-3.4119506	now	-0.048939936
-3.9225845	offici	-0.048939936
-3.9225845	retir	-0.048939936
-3.9225845	dearth	-0.048939936
-3.1713936	comprehens	-0.048939936
-3.9225845	fine	-0.048939936
-2.9040823	curat	-0.068091765
-3.9225845	discov	-0.048939936
-3.9225845	field	-0.048939936
-3.9225845	index	-0.048939936
-3.6149056	instead	-0.048939936
-3.9225845	leav	-0.048939936
-3.9225845	stumbl	-0.048939936
-3.9225845	around	-0.048939936
-3.9225845	search	-0.048939936
-3.9225845	engin	-0.048939936
-3.9225845	own	-0.048939936
-2.6209471	zotero	-0.05928156
-3.4119506	known	-0.048939936
-3.9225845	streamlin	-0.048939936
-3.9225845	see	-0.048939936
-3.9225845	super	-0.048939936
-3.9225845	greatli	-0.048939936
-3.6149056	about	-0.048939936
-3.9225845	zoterozotero	-0.048939936
-3.4119506	citat	-0.08812732
-3.9225845	softwar	-0.048939936
-3.9225845	build	-0.048939936
-3.6149056	manual	-0.10913205
-3.9225845	enter	-0.048939936
-3.9225845	automat	-0.048939936
-3.6149056	captur	-0.048939936
-3.9225845	catalog	-0.048939936
-3.6149056	pdf	-0.048939936
-3.9225845	metadata	-0.048939936
-3.9225845	browser	-0.048939936
-3.9225845	extens	-0.048939936
-3.9225845	easi	-0.048939936
-3.9225845	quickli	-0.048939936
-3.9225845	behind	-0.048939936
-2.6209471	entri	-0.06032938
-3.9225845	multipl	-0.048939936
-2.571829	ad	-0.11322252
-3.6149056	crowdsourc	-0.048939936
-3.9225845	never	-0.048939936
-3.9225845	befor	-0.048939936
-3.6149056	happi	-0.048939936
-3.9225845	walkthrough	-0.048939936
-3.9225845	shoot	-0.048939936
-3.9225845	libraryth	-0.048939936
-3.9225845	membership	-0.048939936
-3.9225845	thatin	-0.048939936
-3.4119506	order	-0.048939936
-3.6149056	click	-0.048939936
-3.9225845	login	-0.048939936
-3.9225845	prospect	-0.048939936
-3.6149056	edit	-0.048939936
-3.9225845	delet	-0.048939936
-3.9225845	becom	-0.048939936
-3.9225845	admin	-0.048939936
-3.6149056	invit	-0.048939936
-3.9225845	request	-0.048939936
-3.9225845	meant	-0.048939936
-3.9225845	safeti	-0.048939936
-3.9225845	block	-0.048939936
-3.9225845	troll	-0.048939936
-3.9225845	spammer	-0.048939936
-3.9225845	mess	-0.048939936
-3.6149056	content	-0.048939936
-3.4119506	activist	-0.048939936
-3.9225845	said	-0.048939936
-3.9225845	light	-0.048939936
-3.6149056	overal	-0.048939936
-3.9225845	audienc	-0.048939936
-3.9225845	laypeopl	-0.048939936
-3.9225845	contribut	-0.048939936
-3.9225845	stagesstag	-0.048939936
-3.6149056	stock	-0.048939936
-3.1713936	point	-0.048939966
-3.9225845	extant	-0.048939936
-3.4119506	hand	-0.048939936
-3.9225845	easiest	-0.048939936
-3.1713936	add	-0.048939936
-3.9225845	auto	-0.048939936
-3.1713936	import	-0.048939936
-3.9225845	at	-0.048939936
-3.6149056	volunt	-0.048939936
-3.9225845	minut	-0.048939936
-3.9225845	chat	-0.048939936
-3.9225845	walk	-0.048939936
-3.6149056	stage	-0.10913205
-3.9225845	fill	-0.048939936
-3.9225845	gapsonc	-0.048939936
-3.9225845	amount	-0.048939936
-3.6149056	correct	-0.048939936
-3.6149056	incorrectli	-0.048939936
-3.6149056	lesser	-0.048939936
-3.9225845	missingad	-0.048939936
-3.9225845	incomplet	-0.048939936
-3.6149056	author	-0.048939936
-3.9225845	compani	-0.048939936
-3.9225845	properli	-0.048939936
-3.6149056	incorrect	-0.048939936
-3.9225845	fix	-0.048939936
-3.9225845	swap	-0.048939936
-3.9225845	publicli	-0.048939936
-3.9225845	availableetc	-0.048939936
-3.9225845	vers	-0.048939936
-3.9225845	addedon	-0.048939936
-3.9225845	proofread	-0.048939936
-3.9225845	doubl	-0.048939936
-3.9225845	attent	-0.048939936
-3.9225845	volum	-0.048939936
-3.9225845	intens	-0.048939936
-3.9225845	instal	-0.048939936
-3.9225845	great	-0.048939936
-3.9225845	promo	-0.048939936
-3.9225845	guidesonc	-0.048939936
-3.9225845	raw	-0.048939936
-3.9225845	regardless	-0.048939936
-3.6149056	qualiti	-0.048939936
-3.9225845	craft	-0.048939936
-3.9225845	highest	-0.048939936
-3.9225845	particular	-0.048939936
-3.9225845	inher	-0.048939936
-3.9225845	sign	-0.048939936
-3.9225845	intern	-0.048939936
-3.9225845	extern	-0.048939936
-3.9225845	criticismstag	-0.048939936
-3.6149056	continu	-0.10913205
-3.9225845	final	-0.048939936
-3.9225845	releas	-0.048939936
-3.9225845	reli	-0.048939936
-3.9225845	spot	-0.048939936
-3.9225845	maintain	-0.048939936
-3.9225845	comnation	-0.048939936
-3.4119506	nwsa	-0.08812732
-3.9225845	submiss	-0.048939936
-3.9225845	scholarship	-0.048939936
-3.9225845	gather	-0.048939936
-3.9225845	coordin	-0.048939936
-3.9225845	propos	-0.048939936
-3.9225845	written	-0.048939936
-3.9225845	baltimor	-0.048939936
-3.9225845	md	-0.048939936
-3.9225845	combahe	-0.048939936
-3.9225845	movement	-0.048939936
-3.9225845	black	-0.048939936
-3.9225845	liveupcom	-0.048939936
-3.9225845	glasgow	-0.048939936

\2-grams:
-1.2725217	staff </s>
-0.9709533	<s> so	-0.015786072
-0.9709533	sherlockedtighthi so	-0.015786072
-1.4452724	even so	-0.015786072
-1.4211519	so may	-0.015786072
-2.4091578	research may	-0.015786072
-1.6250907	though may	-0.015786072
-1.8036591	suggest may	-0.015786072
-1.2543002	analyz may	-0.015786072
-1.8036591	articl may	-0.015786072
-1.8079624	other may	-0.015786072
-0.9627108	club may	-0.015786072
-1.2543002	concept may	-0.015786072
-1.7540185	item may	-0.015786072
-1.4211519	dispar may	-0.015786072
-2.0043643	may notic	-0.015786072
-3.0892012	<eos> notic	-0.015786072
-1.2603339	notic blog	-0.015786072
-2.5016534	research blog	-0.015786072
-1.0437251	updat blog	-0.015786072
-2.697239	asexu blog	-0.015786072
-1.6393958	tumblr blog	-0.015786072
-1.7124624	run blog	-0.015786072
-0.9657834	numer blog	-0.015786072
-1.2603339	wordpress blog	-0.015786072
-1.922705	blog fairli	-0.015786072
-0.9719262	fairli inact	-0.015786072
-0.9668125	inact recent	-0.015786072
-2.7419963	<eos> recent	-0.015786072
-2.1561878	link recent	-0.015786072
-1.8329287	chang recent	-0.015786072
-1.9198282	discuss recent	-0.015786072
-1.4330447	anoth recent	-0.015786072
-0.9668125	increas recent	-0.015786072
-1.8144239	recent with	-0.015786072
-0.9719262	with except	-0.015786072
-0.9719262	except big	-0.015786072
-0.9719262	big flurri	-0.015786072
-0.9699144	flurri last	-0.015786072
-1.4421831	awar last	-0.015786072
-1.9881675	first last	-0.015786072
-0.9699144	scholarship last	-0.015786072
-0.9534939	last coupl	-0.015786072
-1.666935	differ coupl	-0.015786072
-1.4481789	coupl day	-0.015786072
-1.1699095	so <eos>	-0.015786072
-0.8580184	day <eos>	-0.015786072
-1.1870525	time <eos>	-0.015786072
-1.174407	you <eos>	-0.015786072
-1.4227525	research <eos>	-0.015786072
-1.4316591	interest <eos>	-0.015786072
-1.4745592	ace <eos>	-0.015786072
-1.3630964	asexu <eos>	-0.015786098
-1.4066755	includ <eos>	-0.015786072
-1.4235696	link <eos>	-0.015786072
-1.1691079	topic <eos>	-0.015786072
-1.0686224	ex <eos>	-0.015786072
-1.4919492	s <eos>	-0.015786072
-1.3022429	know <eos>	-0.015786072
-1.2860794	there <eos>	-0.015786072
-0.8580184	subtop <eos>	-0.015786072
-1.3690047	access <eos>	-0.015786072
-1.3427519	bibliographi <eos>	-0.015786072
-0.82242376	ident <eos>	-0.015786098
-0.46478412	sourc <eos>	-0.05609332
-0.60180914	etc <eos>	-0.015786072
-1.4630445	peopl <eos>	-0.015786072
-1.2310551	com <eos>	-0.015786072
-1.3947326	project <eos>	-0.015786072
-1.0686224	count <eos>	-0.015786072
-1.0097815	commun <eos>	-0.015786072
-1.3775272	requir <eos>	-0.015786072
-1.3249263	autism <eos>	-0.015786072
-1.2310551	relationship <eos>	-0.015786072
-1.0686224	anyth <eos>	-0.015786072
-1.1699095	hello <eos>	-0.015786072
-1.4010898	year <eos>	-0.015786072
-1.2683846	studi <eos>	-0.015786072
-1.3427519	suggest <eos>	-0.015786072
-1.2723536	correl <eos>	-0.015786072
-1.3022429	gener <eos>	-0.015786072
-0.8580184	reason <eos>	-0.015786072
-0.8580184	diagnosi <eos>	-0.015786072
-0.8580184	coincid <eos>	-0.015786072
-1.0482682	digit <eos>	-0.14323796
-1.0686224	censu <eos>	-0.015786072
-1.4191245	survey <eos>	-0.015786072
-1.1699095	associ <eos>	-0.015786072
-0.7508933	appreci <eos>	-0.015786072
-1.2310551	thank <eos>	-0.015786072
-1.0686224	rafaelafranzen <eos>	-0.015786072
-1.3965161	sexual <eos>	-0.10052781
-1.0686224	norm <eos>	-0.015786072
-1.2723536	word <eos>	-0.015786072
-0.95064104	group <eos>	-0.015786072
-1.335958	support <eos>	-0.015786072
-0.8580184	deviant <eos>	-0.015786072
-1.3948321	a <eos>	-0.015786072
-1.3630813	other <eos>	-0.015786072
-1.144218	well <eos>	-0.015786072
-1.3690047	discuss <eos>	-0.015786072
-1.2030467	provid <eos>	-0.015786072
-1.2310551	subject <eos>	-0.015786072
-1.2860794	women <eos>	-0.015786072
-1.3427519	orient <eos>	-0.015786072
-1.0686224	dysfunct <eos>	-0.015786072
-1.0250394	individu <eos>	-0.015786072
-1.1699095	locat <eos>	-0.015786072
-0.8580184	questionnair <eos>	-0.015786072
-1.1699095	qualif <eos>	-0.015786072
-0.8580184	onli <eos>	-0.015786072
-1.0686224	soon <eos>	-0.015786072
-1.2723536	start <eos>	-0.015786072
-1.0686224	thesi <eos>	-0.015786072
-1.1699095	journal <eos>	-0.015786072
-1.0686224	such <eos>	-0.015786072
-1.0686224	pansexu <eos>	-0.015786072
-0.92329764	univers <eos>	-0.015786072
-1.3868806	first <eos>	-0.29138702
-0.8098287	here <eos>	-0.047727022
-1.1699095	go <eos>	-0.015786072
-0.8580184	yoshino <eos>	-0.015786072
-0.8580184	grade <eos>	-0.015786072
-0.8580184	millennium <eos>	-0.015786072
-1.0686224	g <eos>	-0.015786072
-1.0686224	password <eos>	-0.015786072
-0.8580184	sorri <eos>	-0.015786072
-1.1699095	share <eos>	-0.015786072
-1.3249263	analysi <eos>	-0.015786072
-1.0686224	variabl <eos>	-0.015786072
-1.0686224	level <eos>	-0.015786072
-1.2310551	view <eos>	-0.015786072
-1.3249263	care <eos>	-0.015786072
-1.1699095	review <eos>	-0.015786072
-1.2310551	construct <eos>	-0.015786072
-1.0686224	indiffer <eos>	-0.015786072
-0.9797189	healthcar <eos>	-0.015786072
-1.1699095	forum <eos>	-0.015786072
-1.0686224	judg <eos>	-0.015786072
-0.8580184	copyright <eos>	-0.015786072
-0.8580184	reserv <eos>	-0.015786072
-1.2310551	heterosexu <eos>	-0.015786072
-0.8580184	parent <eos>	-0.015786072
-1.2723536	paywal <eos>	-0.015786072
-1.3427519	discours <eos>	-0.015786072
-1.1699095	technolog <eos>	-0.015786072
-0.8580184	express <eos>	-0.015786072
-0.73719466	corpu <eos>	-0.015786072
-1.2310551	corpora <eos>	-0.015786072
-1.0686224	user <eos>	-0.015786072
-1.0686224	not <eos>	-0.015786072
-0.8580184	domain <eos>	-0.015786072
-0.8580184	monolith <eos>	-0.015786072
-1.2466902	seek <eos>	-0.015786072
-0.8504065	issu <eos>	-0.015786072
-1.0686224	youth <eos>	-0.015786072
-0.8580184	approx <eos>	-0.015786072
-1.0686224	have <eos>	-0.015786072
-0.8580184	undetermin <eos>	-0.015786072
-1.0686224	preview <eos>	-0.015786072
-1.3022429	resourc <eos>	-0.10052781
-0.8580184	warn <eos>	-0.015786072
-0.60180914	novemb <eos>	-0.015786072
-0.8580184	disord <eos>	-0.015786072
-1.1699095	abov <eos>	-0.015786072
-0.8580184	z <eos>	-0.015786072
-1.1699095	now <eos>	-0.015786072
-1.0686224	invit <eos>	-0.015786072
-0.8580184	audienc <eos>	-0.015786072
-1.0686224	incorrectli <eos>	-0.015786072
-0.8580184	releas <eos>	-0.015786072
-0.8580184	submiss <eos>	-0.015786072
-3.033395	<eos> sennkestra	-0.015786072
-0.7083572	email sennkestra	-0.059769433
-1.5688169	messag sennkestra	-0.015786072
-1.4482912	sennkestra nextstepcak	-0.015786072
-1.7235528	recent work	-0.015786072
-0.95763755	nextstepcak work	-0.015786072
-2.288679	research work	-0.015786072
-1.8436921	inform work	-0.015786072
-1.9474157	year work	-0.015786072
-1.2444268	later work	-0.015786072
-2.0450501	group work	-0.015786072
-1.2444268	initi work	-0.015786072
-1.6022488	team work	-0.015786072
-1.6688408	refer work	-0.015786072
-0.95763755	methodsthi work	-0.015786072
-1.2444268	practition work	-0.015786072
-0.95763755	ultim work	-0.015786072
-1.2444268	given work	-0.015786072
-1.6720645	result work	-0.015786072
-0.95763755	promo work	-0.015786072
-2.1900895	work full	-0.015786072
-2.0043643	read full	-0.015786072
-1.2543002	full time	-0.015786072
-0.9456183	less time	-0.015786072
-2.5933752	asexu time	-0.015786072
-2.3231845	s time	-0.015786072
-1.9178303	good time	-0.015786072
-1.4211519	free time	-0.015786072
-1.8466179	much time	-0.015786072
-1.4211519	as time	-0.015786072
-0.9627108	appoint time	-0.015786072
-1.9198604	first time	-0.015786072
-0.9627108	vote time	-0.015786072
-1.2563021	notic lot	-0.015786072
-1.9892285	time lot	-0.015786072
-2.0127275	like lot	-0.015786072
-2.1559796	librari lot	-0.015786072
-1.7011395	write lot	-0.015786072
-1.8929389	discuss lot	-0.015786072
-0.9637326	influenc lot	-0.015786072
-1.5408902	contain lot	-0.015786072
-0.9637326	reaction lot	-0.015786072
-1.2563021	captur lot	-0.015786072
-1.9490943	lot less	-0.015786072
-1.8006146	hope less	-0.015786072
-1.5647157	construct less	-0.015786072
-1.2685113	substanti less	-0.015786072
-2.0447087	time track	-0.015786072
-1.560653	especi track	-0.015786072
-1.7308848	keep track	-0.015786072
-1.7308848	abl track	-0.015786072
-1.560653	tri track	-0.015786072
-1.6691608	track record	-0.015786072
-1.678859	recent paper	-0.015786072
-0.9496417	record paper	-0.015786072
-1.916989	research paper	-0.015786072
-1.8975406	new paper	-0.015786072
-1.6292033	note paper	-0.015786072
-2.1062884	s paper	-0.015786072
-1.6292033	recommend paper	-0.015786072
-0.9496417	school paper	-0.015786072
-1.7202219	thi paper	-0.015786072
-1.8159593	read paper	-0.015786072
-1.5728159	class paper	-0.015786072
-1.6832691	take paper	-0.015786072
-2.1979	digit paper	-0.015786072
-0.9496417	scan paper	-0.015786072
-0.9496417	natur paper	-0.015786072
-1.5680304	check paper	-0.015786072
-1.4899077	tri paper	-0.015786072
-0.9496417	objectivesthi paper	-0.015786072
-1.2290819	context paper	-0.015786072
-0.9496417	identiﬁc paper	-0.015786072
-1.5680304	paywal paper	-0.015786072
-0.9496417	upcom paper	-0.015786072
-1.384606	known paper	-0.015786072
-0.9496417	liveupcom paper	-0.015786072
-1.6752224	paper need	-0.015786072
-2.3102481	research need	-0.015786072
-1.7294774	thing need	-0.015786072
-2.0444148	t need	-0.015786072
-2.244252	s need	-0.10052781
-1.8664608	would need	-0.015786072
-1.8515218	inform need	-0.015786072
-1.5219878	ll need	-0.015786072
-2.0828621	librari need	-0.015786072
-1.816443	still need	-0.015786072
-1.6603143	also need	-0.015786072
-1.6067221	realli need	-0.015786072
-1.6740597	resourc need	-0.015786072
-1.7294774	member need	-0.015786072
-1.6067221	point need	-0.015786072
-2.350411	<eos> you	-0.015786072
-2.121381	need you	-0.015786072
-2.1284628	interest you	-0.015786072
-2.0341754	the you	-0.015786072
-1.7603767	if you	-0.015786072
-1.8213756	email you	-0.015786072
-1.4262276	tell you	-0.015786072
-1.5408902	thank you	-0.015786072
-1.4240947	get you	-0.015786072
-1.7603767	item you	-0.015786072
-1.7546864	<eos> i	-0.047727022
-1.9175619	you i	-0.015786072
-1.2503239	ex i	-0.015786072
-1.4153253	while i	-0.015786072
-0.96067435	btw i	-0.015786072
-1.7897323	suggest i	-0.015786072
-1.2503239	rafaelafranzen i	-0.015786072
-1.6158093	societi i	-0.015786072
-1.9021668	first i	-0.015786072
-1.4153253	kind i	-0.015786072
-1.5294503	yet i	-0.015786072
-1.5294503	heterosexu i	-0.015786072
-1.5294503	basic i	-0.015786072
-2.1481686	paper current	-0.015786072
-2.0652895	i current	-0.015786072
-1.9995025	the current	-0.015786072
-1.5322237	knowledg current	-0.015786072
-1.7415746	m current	-0.015786072
-1.7415746	if current	-0.015786072
-1.2503239	ani current	-0.015786072
-1.7441568	take current	-0.015786072
-2.1106498	librari current	-0.015786072
-1.6158093	team current	-0.015786072
-1.2503239	activ current	-0.015786072
-0.96067435	admin current	-0.015786072
-0.96067435	vers current	-0.015786072
-2.6063576	<eos> look	-0.015786072
-1.9874283	current look	-0.015786072
-2.6253138	asexu look	-0.015786072
-1.928985	book look	-0.015786072
-1.4240947	primarili look	-0.015786072
-2.2893786	peopl look	-0.015786072
-1.4240947	fun look	-0.015786072
-1.1834595	take look	-0.015786072
-0.9637326	home look	-0.015786072
-1.2563021	preview look	-0.015786072
-1.5881572	recent research	-0.015786072
-2.0096755	<eos> research	-0.015786072
-1.3510293	current research	-0.015786072
-1.2946525	look research	-0.015786072
-1.8007339	ace research	-0.015786072
-0.91714734	new research	-0.015786072
-0.8035931	asexu research	-0.03594852
-1.3361814	convers research	-0.015786072
-1.3361814	eye research	-0.015786072
-1.7905431	link research	-0.015786072
-1.6909895	s research	-0.10052781
-1.656246	what research	-0.015786072
-1.1946737	summar research	-0.015786072
-0.73832506	exist research	-0.015786072
-1.181799	actual research	-0.015786072
-1.5947952	involv research	-0.015786072
-1.5881572	follow research	-0.015786072
-1.3361814	formal research	-0.015786072
-1.4290886	major research	-0.015786072
-1.6214167	chang research	-0.015786072
-1.4961681	conduct research	-0.015786072
-1.7612486	survey research	-0.015786072
-1.3361814	sociolog research	-0.015786072
-1.6276846	brotto research	-0.015786072
-1.4961681	start research	-0.015786072
-1.3773701	list research	-0.015786072
-1.4961681	academ research	-0.015786072
-1.5474368	report research	-0.015786072
-1.4290886	minor research	-0.015786072
-1.3361814	student research	-0.015786072
-1.4290886	face research	-0.015786072
-0.93122137	anecdot research	-0.015786072
-1.1946737	past research	-0.015786072
-1.4371558	archiv research	-0.015786072
-1.7100161	corpu research	-0.015786072
-0.93122137	cooper research	-0.015786072
-0.93122137	worker research	-0.015786072
-1.3361814	whether research	-0.015786072
-0.93122137	ignor research	-0.015786072
-1.3361814	known research	-0.015786072
-0.93122137	extant research	-0.015786072
-1.1946737	qualiti research	-0.015786072
-0.93122137	written research	-0.015786072
-1.3493177	may interest	-0.015786072
-2.2297387	research interest	-0.015786072
-1.6573149	keep interest	-0.015786072
-1.8816564	topic interest	-0.015786072
-1.5929947	anyon interest	-0.015786072
-1.8243363	might interest	-0.015786072
-1.6535497	question interest	-0.015786072
-2.1774826	s interest	-0.015786072
-1.5929947	there interest	-0.015786072
-1.7062492	if interest	-0.015786072
-0.9546218	whi interest	-0.015786072
-1.8816564	make interest	-0.015786072
-2.0125933	studi interest	-0.10052781
-1.9247793	provid interest	-0.015786072
-1.2386087	arous interest	-0.015786072
-1.2386087	re interest	-0.015786072
-1.2386087	again interest	-0.015786072
-1.5890989	academ interest	-0.015786072
-1.5890989	theme interest	-0.015786072
-1.8237925	blog ace	-0.015786072
-2.4735637	<eos> ace	-0.015786072
-2.3329446	research ace	-0.015786072
-2.073122	interest ace	-0.015786072
-1.4124411	convers ace	-0.015786072
-1.7354839	m ace	-0.015786072
-1.6112419	aim ace	-0.015786072
-2.0321147	onlin ace	-0.015786072
-1.6821835	part ace	-0.015786072
-1.5257031	present ace	-0.015786072
-1.9782809	digit ace	-0.015786072
-1.6821835	perspect ace	-0.015786072
-1.4124411	affect ace	-0.015786072
-1.6821835	non ace	-0.015786072
-2.1754816	<eos> help	-0.015786072
-1.986874	work help	-0.015786072
-1.0625803	need help	-0.015786072
-2.0014377	interest help	-0.015786072
-1.9596571	ace help	-0.015786072
-1.9868164	link help	-0.015786072
-0.9536212	mind help	-0.015786072
-1.221146	want help	-0.015786072
-2.1622794	s help	-0.015786072
-1.8895117	find help	-0.015786072
-1.8326203	would help	-0.015786072
-2.0747683	use help	-0.015786072
-1.9096915	year help	-0.015786072
-2.0014377	studi help	-0.015786072
-1.2366866	librarian help	-0.015786072
-1.3999269	barrier help	-0.015786072
-1.7371278	lgbtiq help	-0.015786072
-1.6525075	curat help	-0.015786072
-1.5038738	order help	-0.015786072
-0.9536212	instal help	-0.015786072
-2.2984695	help updat	-0.015786072
-2.024245	make updat	-0.015786072
-1.2685113	period updat	-0.015786072
-0.6522327	continu updat	-0.015786072
-1.9050639	blog especi	-0.015786072
-2.8912175	asexu especi	-0.015786072
-2.2511673	ident especi	-0.015786072
-1.7360345	report especi	-0.015786072
-1.6112419	track post	-0.015786072
-2.3329446	research post	-0.015786072
-1.4124411	eye post	-0.015786072
-1.8085928	sourc post	-0.015786072
-1.7856374	actual post	-0.015786072
-1.8290905	pleas post	-0.015786072
-1.6112419	submit post	-0.015786072
-1.9241879	make post	-0.015786072
-1.5257031	ll post	-0.015786072
-2.3594718	digit post	-0.015786072
-1.738255	individu post	-0.015786072
-0.95965976	concern post	-0.015786072
-1.2483493	past post	-0.015786072
-1.2483493	chasin post	-0.015786072
-1.6112419	track new	-0.015786072
-2.3329446	research new	-0.015786072
-1.6141568	updat new	-0.015786072
-1.9675822	post new	-0.015786072
-1.4124411	eye new	-0.015786072
-2.0569115	link new	-0.015786072
-1.7829329	bibliographi new	-0.015786072
-1.7354839	or new	-0.015786072
-1.6793423	addit new	-0.015786072
-2.3594718	digit new	-0.015786072
-1.5257031	contain new	-0.015786072
-0.95965976	led new	-0.015786072
-1.2483493	creat new	-0.015786072
-1.5257031	add new	-0.015786072
-1.4284993	blog asexu	-0.015786072
-1.6455549	<eos> asexu	-0.015786072
-1.1597534	lot asexu	-0.015786072
-1.5349604	paper asexu	-0.015786072
-1.4797508	current asexu	-0.015786072
-1.504479	research asexu	-0.015786072
-1.3248484	interest asexu	-0.015786072
-1.5520765	ace asexu	-0.015786072
-1.3425802	updat asexu	-0.015786072
-1.2661325	new asexu	-0.10052781
-1.7252473	asexu asexu	-0.015786072
-1.2832986	come asexu	-0.015786072
-1.4875072	the asexu	-0.015786072
-1.4875072	includ asexu	-0.015786072
-1.5079397	link asexu	-0.015786072
-1.2119964	topic asexu	-0.015786072
-0.8700054	knowledg asexu	-0.10052781
-0.879387	inbox asexu	-0.015786072
-1.5840434	s asexu	-0.015786072
-1.4642619	what asexu	-0.015786072
-1.4731611	find asexu	-0.015786072
-1.4769453	exist asexu	-0.015786072
-0.766042	preval asexu	-0.015786072
-1.185471	book asexu	-0.015786072
-1.5588126	ident asexu	-0.015786072
-1.2832986	familiar asexu	-0.015786072
-1.3907757	follow asexu	-0.015786072
-1.4425168	experi asexu	-0.015786072
-1.4617969	read asexu	-0.015786072
-1.2973973	onlin asexu	-0.10052781
-1.5409598	use asexu	-0.015786072
-1.1038797	favorit asexu	-0.015786072
-0.32140383	identifi asexu	-0.042237706
-1.3756642	part asexu	-0.015786072
-1.4425168	inform asexu	-0.015786072
-1.5165526	studi asexu	-0.015786072
-0.879387	scale asexu	-0.015786072
-1.330171	number asexu	-0.015786072
-1.2149225	associ asexu	-0.015786072
-0.879387	adopt asexu	-0.015786072
-1.1038797	frame asexu	-0.015786072
-1.2149225	consid asexu	-0.015786072
-1.1038797	edu asexu	-0.015786072
-1.4115907	articl asexu	-0.015786072
-0.879387	aspect asexu	-0.015786072
-0.879387	flipsid asexu	-0.015786072
-1.1597534	understand asexu	-0.015786072
-0.879387	pertain asexu	-0.015786072
-1.330171	focus asexu	-0.015786072
-1.5348281	group asexu	-0.015786072
-1.0960003	sever asexu	-0.015786072
-1.4425168	discuss asexu	-0.015786072
-1.1038797	identif asexu	-0.015786072
-1.2149225	overview asexu	-0.015786072
-1.1038797	arous asexu	-0.015786072
-1.2149225	toward asexu	-0.015786072
-0.879387	older asexu	-0.015786072
-1.2149225	websit asexu	-0.015786072
-1.4304391	bisexu asexu	-0.015786072
-0.879387	wherea asexu	-0.015786072
-1.2832986	chapter asexu	-0.015786072
-0.879387	parallel asexu	-0.015786072
-1.3644887	report asexu	-0.015786072
-0.6119907	mention asexu	-0.015786072
-1.1038797	exclus asexu	-0.015786072
-1.3907757	analysi asexu	-0.015786072
-1.1038797	snippet asexu	-0.015786072
-1.330171	evid asexu	-0.015786072
-0.6119907	featur asexu	-0.10052781
-1.3907757	develop asexu	-0.10052781
-1.1038797	context asexu	-0.015786072
-1.2149225	engag asexu	-0.015786072
-1.4009405	sub asexu	-0.015786072
-0.879387	made asexu	-0.015786072
-0.879387	embrac asexu	-0.015786072
-0.6119907	largest asexu	-0.015786072
-1.1038797	fear asexu	-0.015786072
-1.1038797	given asexu	-0.015786072
-0.879387	narr asexu	-0.015786072
-1.2149225	celibaci asexu	-0.015786072
-0.879387	celib asexu	-0.015786072
-1.1038797	basi asexu	-0.015786072
-1.3425802	languag asexu	-0.015786072
-0.766042	conceptu asexu	-0.015786072
-0.879387	emerg asexu	-0.015786072
-1.2832986	corpora asexu	-0.015786072
-1.0069606	non asexu	-0.015786072
-0.879387	compris asexu	-0.015786072
-1.3756642	result asexu	-0.015786072
-0.879387	character asexu	-0.015786072
-0.879387	quot asexu	-0.015786072
-1.2149225	annual asexu	-0.015786072
-0.879387	state asexu	-0.015786072
-0.879387	urlnew asexu	-0.015786072
-0.879387	doe asexu	-0.015786072
-1.2149225	now asexu	-0.015786072
-1.2149225	known asexu	-0.015786072
-1.1038797	about asexu	-0.015786072
-0.879387	libraryth asexu	-0.015786072
-1.1038797	overal asexu	-0.015786072
-0.766042	nwsa asexu	-0.10052781
-2.720327	research relat	-0.07040553
-2.957107	asexu relat	-0.10052781
-0.9709533	someth relat	-0.015786072
-2.099183	post convers	-0.015786072
-2.1014156	new convers	-0.015786072
-1.5688169	relat convers	-0.015786072
-2.2984695	help come	-0.015786072
-1.4421831	convers come	-0.015786072
-2.2639039	librari come	-0.015786072
-2.6196468	digit come	-0.015786072
-1.5709007	come across	-0.015786072
-2.6768608	digit across	-0.015786072
-2.445863	<eos> the	-0.015786072
-2.4849422	asexu the	-0.015786072
-1.2463837	across the	-0.015786072
-2.244252	s the	-0.015786072
-2.0828621	librari the	-0.015786072
-1.2463837	idea the	-0.015786072
-1.5219878	complet the	-0.015786072
-1.5219878	on the	-0.015786072
-1.6067221	team the	-0.015786072
-0.9586475	essay the	-0.015786072
-0.9586475	cours the	-0.015786072
-1.6098411	in the	-0.015786072
-0.9586475	communabstract the	-0.015786072
-1.2463837	directori the	-0.015786072
-1.2463837	applic the	-0.015786072
-2.1131244	the main	-0.015786072
-1.6218396	aven main	-0.015786072
-1.2685113	have main	-0.015786072
-1.659233	point main	-0.015786072
-1.0460638	main thing	-0.10052781
-0.967844	hereaddit thing	-0.015786072
-2.1317601	one thing	-0.015786072
-0.967844	whole thing	-0.015786072
-1.4202819	ad thing	-0.015786072
-1.5566279	import thing	-0.015786072
-2.2901673	<eos> includ	-0.015786072
-2.0571694	work includ	-0.015786072
-2.1376011	help includ	-0.015786072
-1.2503239	seem includ	-0.015786072
-1.4609761	like includ	-0.015786072
-1.7897323	chang includ	-0.015786072
-2.1376011	also includ	-0.015786072
-1.8676178	discuss includ	-0.015786072
-1.7441568	individu includ	-0.015786072
-1.4153253	qualif includ	-0.015786072
-1.9824885	list includ	-0.015786072
-1.8700335	entri includ	-0.015786072
-0.96067435	craft includ	-0.015786072
-2.098929	includ keep	-0.015786072
-2.4107194	peopl keep	-0.015786072
-2.332696	use keep	-0.015786072
-1.1255889	abl keep	-0.015786072
-1.7308848	result keep	-0.015786072
-1.1291623	keep eye	-0.015786072
-0.97147834	herekeep eye	-0.015786072
-2.2372715	<eos> link	-0.015786072
-2.1044846	paper link	-0.015786072
-1.9474157	post link	-0.015786072
-2.4615924	asexu link	-0.015786072
-1.9066724	topic link	-0.015786072
-1.8092158	two link	-0.015786072
-1.7235528	hope link	-0.015786072
-1.2444268	potenti link	-0.015786072
-1.7266868	possibl link	-0.015786072
-0.95763755	weak link	-0.015786072
-0.95763755	biolog link	-0.015786072
-1.518304	contain link	-0.015786072
-0.95763755	reviewtext link	-0.015786072
-1.2444268	see link	-0.015786072
-0.8746454	ad link	-0.015786072
-1.2444268	click link	-0.015786072
-2.242925	link herekeep	-0.015786072
-2.4685838	research topic	-0.015786072
-1.5447714	relat topic	-0.015786072
-1.9965303	find topic	-0.015786072
-0.66729444	specif topic	-0.05609332
-1.6345749	differ topic	-0.015786072
-1.2583133	mostli topic	-0.015786072
-1.2583133	directli topic	-0.015786072
-1.4270575	forum topic	-0.015786072
-0.9647568	particular topic	-0.015786072
-2.242925	link reblog	-0.015786072
-0.9719262	reblog hereaddit	-0.015786072
-1.8144239	thing wouldn	-0.015786072
-0.9637326	wouldn t	-0.015786072
-0.118526004	don t	-0.042237706
-0.64963233	can t	-0.015786072
-0.9637326	aren t	-0.015786072
-0.28206906	doesn t	-0.015786072
-0.9637326	wasn t	-0.015786072
-0.9637326	isn t	-0.015786072
-0.64963233	won t	-0.015786072
-0.28206906	haven t	-0.07040553
-0.9637326	hasn t	-0.015786072
-2.242925	t mind	-0.015786072
-2.2773569	help anyon	-0.015786072
-2.332696	use anyon	-0.015786072
-1.8483379	suggest anyon	-0.015786072
-1.7945018	allow anyon	-0.015786072
-1.2664526	edit anyon	-0.015786072
-2.1031191	work might	-0.015786072
-2.2142215	paper might	-0.015786072
-1.0425605	anyon might	-0.015786072
-1.2583133	figur might	-0.015786072
-1.7668295	if might	-0.015786072
-1.2583133	later might	-0.015786072
-1.6345749	correl might	-0.015786072
-0.9647568	milk might	-0.015786072
-1.2583133	case might	-0.015786072
-1.968143	might deeper	-0.015786072
-0.9709533	deeper knowledg	-0.015786072
-1.3489444	requir knowledg	-0.015786072
-2.3206613	also knowledg	-0.015786072
-2.474191	<eos> note	-0.015786072
-2.6193328	research note	-0.015786072
-2.2051187	it note	-0.015786072
-2.477448	s note	-0.015786072
-1.2664526	wordpress note	-0.015786072
-2.1787214	need don	-0.015786072
-2.5764644	research don	-0.015786072
-1.7240885	note don	-0.015786072
-1.6503195	definit don	-0.015786072
-1.840565	bibliographi don	-0.015786072
-2.3835874	peopl don	-0.015786072
-2.242925	t worri	-0.015786072
-0.97147834	worri seem	-0.015786072
-1.5709007	far seem	-0.015786072
-1.2725217	seem daunt	-0.015786072
-0.968878	daunt definit	-0.015786072
-2.2773569	also definit	-0.015786072
-1.7308848	invis definit	-0.015786072
-1.560653	d definit	-0.015786072
-1.2664526	section definit	-0.015786072
-2.5016534	research want	-0.015786072
-2.140539	t want	-0.015786072
-2.3339336	peopl want	-0.015786072
-1.5486877	sure want	-0.015786072
-1.5486877	com want	-0.015786072
-1.946359	url want	-0.015786072
-1.2603339	undergrad want	-0.015786072
-0.9657834	articlhelp want	-0.015786072
-1.8646702	want to	-0.015786072
-1.742133	learn to	-0.015786072
-1.4452724	nomin to	-0.015786072
-1.4481789	to answer	-0.015786072
-2.2572231	help question	-0.015786072
-0.967844	answer question	-0.015786072
-1.5566279	ask question	-0.015786072
-1.2644033	ani question	-0.015786072
-0.967844	apprecisubmit question	-0.015786072
-1.2644033	variou question	-0.015786072
-1.7479094	question inbox	-0.015786072
-2.0415123	topic ex	-0.015786072
-1.4468393	contact ex	-0.015786072
-2.171851	i heard	-0.015786072
-0.9719262	heard stat	-0.015786072
-0.97147834	stat can	-0.015786072
-0.97147834	crayon can	-0.015786072
-2.234641	t figur	-0.015786072
-2.0043643	book figur	-0.015786072
-1.7281897	<eos> it	-0.18470816
-2.2485106	research it	-0.015786072
-1.2405394	figur it	-0.015786072
-2.1463585	peopl it	-0.015786072
-2.0695584	commun it	-0.015786072
-1.511029	sinc it	-0.015786072
-2.0442538	librari it	-0.015786072
-1.511029	howev it	-0.015786072
-1.9806361	one it	-0.015786072
-1.511029	subject it	-0.015786072
-1.2405394	exclus it	-0.015786072
-1.2405394	week it	-0.015786072
-1.401092	even it	-0.015786072
-1.5934381	miss it	-0.015786072
-1.7119409	member it	-0.015786072
-0.95562476	download it	-0.015786072
-1.2405394	content it	-0.015786072
-1.5934381	point it	-0.015786072
-0.19089176	it s	-0.03547226
-0.6995304	what s	-0.07040553
-1.0276973	there s	-0.015786072
-1.7497537	peopl s	-0.015786072
-2.0236135	commun s	-0.015786072
-1.9975965	librari s	-0.015786072
-1.4889747	digit s	-0.24575813
-1.9400489	one s	-0.015786072
-1.6387788	person s	-0.015786072
-1.2328676	k s	-0.015786072
-1.73603	brotto s	-0.015786072
-1.0276973	women s	-0.10052781
-0.9516269	editor s	-0.015786072
-1.2328676	bogaert s	-0.015786072
-0.9516269	decker s	-0.015786072
-0.9516269	bogart s	-0.015786072
-0.9516269	fri s	-0.015786072
-0.9516269	cvetkovich s	-0.015786072
-0.9516269	sedgwick s	-0.015786072
-1.3900322	yule s	-0.015786072
-1.3900322	that s	-0.015786072
-0.9516269	cranney s	-0.015786072
-2.0751886	current me	-0.015786072
-2.3323019	help me	-0.015786072
-2.6919272	<eos> what	-0.015786072
-2.5016534	research what	-0.015786072
-1.7124624	question what	-0.015786072
-1.2603339	me what	-0.015786072
-2.2116086	commun what	-0.015786072
-2.1890614	librari what	-0.015786072
-2.4963918	digit what	-0.015786072
-0.9657834	availableetc what	-0.015786072
-2.5349047	<eos> find	-0.015786072
-2.0953207	need find	-0.015786072
-2.040228	research find	-0.015786072
-2.1528013	help find	-0.015786072
-2.083038	t find	-0.015786072
-1.99081	like find	-0.015786072
-2.0555933	onlin find	-0.015786072
-0.9616914	ca find	-0.015786072
-1.2523075	hard find	-0.015786072
-1.5332302	tri find	-0.015786072
-1.2523075	prior find	-0.015786072
-0.9616914	laypeopl find	-0.015786072
-2.474191	<eos> mean	-0.015786072
-2.0430667	find mean	-0.015786072
-1.8483379	chang mean	-0.015786072
-1.9395647	understand mean	-0.015786072
-1.2664526	not mean	-0.015786072
-1.7479094	mean do	-0.015786072
-2.8637009	<eos> know	-0.015786072
-0.968878	do know	-0.015786072
-0.65179825	let know	-0.015786072
-1.7936441	posit know	-0.015786072
-1.2664526	lesser know	-0.015786072
-2.8637009	<eos> there	-0.015786072
-2.0430667	find there	-0.015786072
-1.7300205	know there	-0.015786072
-0.968878	travel there	-0.015786072
-1.654188	alreadi there	-0.015786072
-3.0292587	asexu x	-0.015786072
-0.9719262	x subtop	-0.015786072
-3.0892012	<eos> summar	-0.015786072
-0.97147834	away summar	-0.015786072
-1.9034091	might exist	-0.015786072
-1.54663	knowledg exist	-0.015786072
-1.2583133	summar exist	-0.015786072
-2.2476635	use exist	-0.015786072
-1.2583133	touch exist	-0.015786072
-1.7686002	take exist	-0.015786072
-2.1434746	studi exist	-0.015786072
-1.7668295	analysi exist	-0.015786072
-1.706764	refer exist	-0.015786072
-2.4685838	research access	-0.015786072
-2.311085	peopl access	-0.015786072
-1.7668295	if access	-0.015786072
-2.1722054	librari access	-0.015786072
-1.6364032	univers access	-0.015786072
-0.82433355	barrier access	-0.015786072
-1.4270575	open access	-0.015786072
-0.9647568	streamlin access	-0.015786072
-0.9647568	publicli access	-0.015786072
-1.9680314	access formatprovid	-0.015786072
-2.6919272	<eos> bibliographi	-0.015786072
-1.6409926	updat bibliographi	-0.015786072
-2.697239	asexu bibliographi	-0.015786072
-0.9657834	formatprovid bibliographi	-0.015786072
-1.2603339	annot bibliographi	-0.015786072
-1.4300408	explor bibliographi	-0.015786072
-1.5486877	comprehens bibliographi	-0.015786072
-0.9657834	build bibliographi	-0.015786072
-1.047238	definit recommend	-0.10052781
-1.8483379	bibliographi recommend	-0.015786072
-1.9777266	book recommend	-0.015786072
-1.560653	d recommend	-0.015786072
-1.4871918	list recommend	-0.015786072
-2.5349047	<eos> specif	-0.015786072
-1.9109235	look specif	-0.015786072
-2.3822398	research specif	-0.015786072
-1.6901041	recommend specif	-0.015786072
-1.8758953	inform specif	-0.015786072
-1.7966399	chang specif	-0.015786072
-2.1252403	librari specif	-0.015786072
-1.2523075	wonder specif	-0.015786072
-1.9928988	list specif	-0.015786072
-0.9616914	tie specif	-0.015786072
-1.6229191	languag specif	-0.015786072
-0.9616914	sign specif	-0.015786072
-2.5356274	<eos> for	-0.015786072
-2.0356455	topic for	-0.10052781
-1.3489444	entri for	-0.10052781
-0.40780482	for exampl	-0.015786098
-1.666935	summari exampl	-0.015786072
-1.7424912	exampl preval	-0.015786072
-1.27058	insight preval	-0.015786072
-0.9709533	oppos preval	-0.015786072
-2.5933752	asexu book	-0.015786072
-2.3231845	s book	-0.015786072
-1.8843334	access book	-0.015786072
-1.8058054	actual book	-0.015786072
-1.2543002	googl book	-0.015786072
-1.2543002	wonder book	-0.015786072
-2.0035648	list book	-0.015786072
-0.9627108	finish book	-0.015786072
-0.9627108	larger book	-0.015786072
-1.6978183	e book	-0.015786072
-0.9627108	cliniciannew book	-0.015786072
-1.4125774	asexu ident	-0.03835885
-2.3020663	s ident	-0.015786072
-1.8156211	peopl ident	-0.015786072
-1.6204252	queer ident	-0.015786072
-1.4772482	self ident	-0.015786072
-1.7720093	sexual ident	-0.015786072
-1.4182287	toward ident	-0.015786072
-0.9616914	disclos ident	-0.015786072
-1.2523075	fact ident	-0.015786072
-1.2523075	basi ident	-0.015786072
-0.9616914	whose ident	-0.015786072
-0.9616914	attribut ident	-0.015786072
-1.8948218	lot good	-0.015786072
-2.121381	need good	-0.015786072
-2.1567845	ident good	-0.015786072
-2.1848977	also good	-0.015786072
-2.2807407	sexual good	-0.015786072
-1.4075376	a good	-0.015786072
-1.2563021	pretti good	-0.015786072
-1.4240947	necessarili good	-0.015786072
-0.9637326	task good	-0.015786072
-0.9637326	dearth good	-0.015786072
-2.1491055	need sourc	-0.015786072
-1.9478304	look sourc	-0.015786072
-1.9478304	book sourc	-0.015786072
-1.946359	good sourc	-0.015786072
-1.7733794	mani sourc	-0.015786072
-2.4963918	digit sourc	-0.015786072
-1.2603339	decent sourc	-0.015786072
-0.9657834	metadata sourc	-0.015786072
-1.8730178	sourc high	-0.015786072
-0.9719262	high school	-0.015786072
-1.7450086	paper etc	-0.10052781
-0.97147834	messeng etc	-0.015786072
-3.033395	<eos> while	-0.015786072
-2.2184143	it while	-0.015786072
-1.6643372	interview while	-0.015786072
-0.6519605	i m	-0.015786072
-1.4468393	yule m	-0.015786072
-1.9140944	blog primarili	-0.015786072
-2.5440404	s primarili	-0.015786072
-1.8076988	m primarili	-0.015786072
-2.189798	<eos> peopl	-0.015786072
-1.9292074	need peopl	-0.015786072
-1.7884185	look peopl	-0.015786072
-1.9212171	interest peopl	-0.015786072
-1.4536809	ace peopl	-0.015786072
-1.5999994	help peopl	-0.015786072
-1.759329	access peopl	-0.015786072
-1.9817519	use peopl	-0.015786072
-1.7637093	requir peopl	-0.015786072
-1.5518818	although peopl	-0.015786072
-1.6106637	autist peopl	-0.015786072
-1.6581264	mani peopl	-0.015786072
-2.1470304	digit peopl	-0.015786072
-1.9258288	group peopl	-0.015786072
-1.373953	affect peopl	-0.015786072
-1.373953	student peopl	-0.015786072
-1.9478443	health peopl	-0.015786072
-0.94569826	identiﬁ peopl	-0.015786072
-0.9302908	young peopl	-0.042237706
-1.221608	impact peopl	-0.015786072
-0.9302908	tran peopl	-0.015786072
-0.94569826	symptom peopl	-0.015786072
-0.94569826	heavili peopl	-0.015786072
-1.373953	even peopl	-0.015786072
-1.6106637	resourc peopl	-0.015786072
-0.94569826	leav peopl	-0.015786072
-1.373953	hand peopl	-0.015786072
-0.94569826	walk peopl	-0.015786072
-2.0774	research would	-0.015786072
-2.1434746	interest would	-0.015786072
-1.4270575	while would	-0.015786072
-2.311085	peopl would	-0.015786072
-1.8180474	way would	-0.015786072
-1.2583133	statist would	-0.015786072
-1.9017183	particip would	-0.015786072
-1.9383055	zotero would	-0.015786072
-0.9647568	propos would	-0.015786072
-2.5440404	s call	-0.015786072
-1.9603896	would call	-0.015786072
-1.27058	consider call	-0.015786072
-1.4481789	call veri	-0.015786072
-0.9699144	veri familiar	-0.015786072
-1.7360345	gener familiar	-0.015786072
-0.9699144	themmani familiar	-0.015786072
-1.8006146	posit familiar	-0.015786072
-1.9121697	lot actual	-0.015786072
-1.6393958	track actual	-0.015786072
-2.140539	t actual	-0.015786072
-1.7749323	involv actual	-0.015786072
-1.981419	make actual	-0.015786072
-1.7733794	respons actual	-0.015786072
-1.946359	url actual	-0.015786072
-2.1890614	librari actual	-0.015786072
-2.0216594	time involv	-0.015786072
-2.4197218	s involv	-0.015786072
-1.9267716	would involv	-0.015786072
-1.8342413	actual involv	-0.015786072
-1.4330447	formal involv	-0.015786072
-2.1751506	studi involv	-0.015786072
-1.6442708	alreadi involv	-0.015786072
-2.154512	work aim	-0.015786072
-2.2921543	paper aim	-0.015786072
-1.4391156	primarili aim	-0.015786072
-2.0430667	project aim	-0.015786072
-0.968878	tumblrabstract aim	-0.015786072
-2.143112	ace reader	-0.015786072
-1.5322237	less like	-0.015786072
-1.9021668	look like	-0.015786072
-1.7415746	thing like	-0.015786072
-1.6873327	keep like	-0.015786072
-1.8085663	peopl like	-0.015786072
-1.8807716	would like	-0.015786072
-0.96067435	reader like	-0.015786072
-1.2503239	anyth like	-0.015786072
-1.4153253	asd like	-0.015786072
-2.1376011	also like	-0.015786072
-2.3794994	digit like	-0.015786072
-1.2503239	such like	-0.015786072
-1.2503239	problem like	-0.015786072
-2.7419963	<eos> follow	-0.015786072
-2.0478284	like follow	-0.015786072
-1.5526396	com follow	-0.015786072
-1.9563007	url follow	-0.015786072
-2.2065978	librari follow	-0.015786072
-1.7813579	possibl follow	-0.015786072
-1.9211107	understand follow	-0.015786072
-2.0043643	may themselv	-0.015786072
-2.7499976	research themselv	-0.015786072
-1.7182366	question if	-0.015786072
-1.2623638	themselv if	-0.015786072
-0.9668125	method if	-0.015786072
-1.2623638	ago if	-0.015786072
-1.2623638	head if	-0.015786072
-0.9668125	hypothes if	-0.015786072
-0.9668125	great if	-0.015786072
-1.8144239	if aren	-0.015786072
-2.2251165	t sure	-0.015786072
-1.4275416	make sure	-0.015786072
-1.5688169	sinc sure	-0.015786072
-2.227469	interest appli	-0.015786072
-1.8568606	want appli	-0.015786072
-2.43966	peopl appli	-0.015786072
-1.2685113	util appli	-0.015786072
-1.572684	appli feel	-0.015786072
-0.9709533	feel free	-0.015786072
-1.4452724	just free	-0.015786072
-0.9709533	zoterozotero free	-0.015786072
-1.4421831	free ask	-0.015786072
-1.5647157	howev ask	-0.015786072
-2.2984695	also ask	-0.015786072
-1.7366493	send ask	-0.015786072
-2.6919272	<eos> thi	-0.015786072
-2.5016534	research thi	-0.015786072
-2.1590238	interest thi	-0.015786072
-2.0358102	like thi	-0.015786072
-1.7733794	autism thi	-0.015786072
-1.7733794	care thi	-0.015786072
-0.9657834	cent thi	-0.015786072
-1.5486877	step thi	-0.015786072
-2.3957818	<eos> pleas	-0.015786072
-1.981419	topic pleas	-0.015786072
-1.7124624	note pleas	-0.015786072
-1.8254242	thi pleas	-0.015786072
-1.2603339	then pleas	-0.015786072
-1.9106787	particip pleas	-0.015786072
-1.2603339	rec pleas	-0.015786072
-1.4300408	abov pleas	-0.015786072
-1.7945018	involv submit	-0.015786072
-1.8979087	pleas submit	-0.015786072
-1.654188	tumblr submit	-0.015786072
-1.8962173	much submit	-0.015786072
-1.9768943	url submit	-0.015786072
-2.6919272	<eos> email	-0.015786072
-2.0343943	post email	-0.015786072
-1.2603339	me email	-0.015786072
-1.6393958	tumblr email	-0.015786072
-1.7124624	us email	-0.015786072
-1.714037	send email	-0.015786072
-1.7733794	item email	-0.015786072
-0.9657834	shoot email	-0.015786072
-0.8287667	sennkestra gmail	-0.048348982
-0.97147834	jacobwhighsmith gmail	-0.015786072
-0.8290613	gmail com	-0.015786072
-1.811317	follow info	-0.015786072
-1.5709007	basic info	-0.015786072
-1.5691774	last name	-0.015786072
-1.27058	info name	-0.015786072
-1.27058	author name	-0.015786072
-2.8637009	<eos> or	-0.015786072
-1.9777266	book or	-0.015786072
-1.4391156	name or	-0.015786072
-0.28264004	and or	-0.015786072
-1.4391156	methodolog or	-0.015786072
-1.8144239	or nicknam	-0.015786072
-2.072097	post tumblr	-0.015786072
-1.8529361	email tumblr	-0.015786072
-0.968878	nicknam tumblr	-0.015786072
-0.968878	reach tumblr	-0.015786072
-1.8483379	discours tumblr	-0.015786072
-1.922705	blog pronoun	-0.015786072
-0.9719262	pronoun best	-0.015786072
-2.2195563	help way	-0.015786072
-0.9657834	best way	-0.015786072
-2.2674122	use way	-0.015786072
-1.8254242	data way	-0.015786072
-0.9657834	normalis way	-0.015786072
-1.4300408	explor way	-0.015786072
-0.9657834	long way	-0.015786072
-0.9657834	easiest way	-0.015786072
-2.2273147	need contact	-0.015786072
-1.9148043	pleas contact	-0.015786072
-1.8643142	way contact	-0.015786072
-1.6691608	tumblr messeng	-0.015786072
-3.1431603	<eos> whi	-0.015786072
-2.659789	asexu experi	-0.015786072
-1.8275069	what experi	-0.015786072
-1.9965303	find experi	-0.015786072
-0.65006465	live experi	-0.015786072
-1.2583133	describ experi	-0.015786072
-0.9647568	poor experi	-0.015786072
-0.9647568	improv experi	-0.015786072
-1.4270575	tend experi	-0.015786072
-1.2583133	excel experi	-0.015786072
-3.033395	<eos> doesn	-0.015786072
-1.9985131	good doesn	-0.015786072
-1.6643372	though doesn	-0.015786072
-2.2251165	t formal	-0.015786072
-1.9140944	much formal	-0.015786072
-1.27058	rather formal	-0.015786072
-2.5691633	<eos> read	-0.10052781
-1.9330368	you read	-0.015786072
-2.4091578	research read	-0.015786072
-2.0967155	t read	-0.015786072
-1.6955867	recommend read	-0.015786072
-1.2543002	difficult read	-0.015786072
-1.7540185	publish read	-0.059769433
-1.6250907	start read	-0.015786072
-0.9627108	worth read	-0.015786072
-0.9627108	sit read	-0.015786072
-1.2543002	see read	-0.015786072
-2.0908482	paper onlin	-0.015786072
-2.439434	asexu onlin	-0.015786072
-2.1329043	it onlin	-0.015786072
-1.916183	find onlin	-0.015786072
-1.919796	specif onlin	-0.015786072
-2.161864	peopl onlin	-0.015786072
-1.3541995	read onlin	-0.2816182
-2.0818462	commun onlin	-0.015786072
-2.0358026	studi onlin	-0.015786072
-1.7631509	data onlin	-0.015786072
-1.5978211	conduct onlin	-0.015786072
-1.7177081	develop onlin	-0.015786072
-1.6013362	languag onlin	-0.015786072
-1.6013362	in onlin	-0.015786072
-0.95663	driven onlin	-0.015786072
-1.5146513	far onlin	-0.015786072
-1.2424788	behavior onlin	-0.36079943
-2.099183	post fun	-0.015786072
-2.1805153	onlin fun	-0.015786072
-1.4452724	just fun	-0.015786072
-1.8730178	sourc everi	-0.015786072
-0.968878	everi class	-0.015786072
-2.1470904	one class	-0.015786072
-1.9387261	particip class	-0.015786072
-0.968878	autoethnographi class	-0.015786072
-1.2664526	undergrad class	-0.015786072
-1.9568124	<eos> project	-0.015786072
-2.1735582	it project	-0.015786072
-2.2893786	peopl project	-0.015786072
-1.0413989	class project	-0.015786072
-1.7011395	run project	-0.015786072
-1.9614922	make project	-0.015786072
-1.5408902	present project	-0.015786072
-1.7011395	report project	-0.015786072
-1.7011395	larg project	-0.015786072
-0.9637326	etool project	-0.015786072
-2.1062903	post total	-0.015786072
-2.074966	project total	-0.015786072
-0.6530743	total count	-0.015786072
-1.8725853	what method	-0.015786072
-2.3491879	paper ani	-0.015786072
-1.811317	if ani	-0.015786072
-1.6936169	<eos> use	-0.015786072
-1.9428271	work use	-0.015786072
-1.8520678	current use	-0.015786072
-2.1315048	research use	-0.015786072
-1.8832494	includ use	-0.015786072
-1.782993	might use	-0.015786072
-1.7187968	want use	-0.015786072
-2.0510108	peopl use	-0.015786072
-1.7187968	actual use	-0.015786072
-1.8484054	project use	-0.015786072
-1.2272013	could use	-0.015786072
-1.2272013	label use	-0.015786072
-1.7144215	articl use	-0.015786072
-1.7144215	orient use	-0.015786072
-1.4864852	view use	-0.015786072
-0.94865245	usual use	-0.015786072
-1.5639366	theme use	-0.015786072
-0.94865245	typic use	-0.015786072
-1.6244937	larg use	-0.015786072
-1.5639366	alreadi use	-0.015786072
-1.2272013	second use	-0.015786072
-1.2272013	novel use	-0.015786072
-1.2272013	tool use	-0.015786072
-1.852701	ad use	-0.015786072
-0.94865245	never use	-0.015786072
-2.720327	research and	-0.015786072
-1.27058	favorit and	-0.015786072
-1.5688169	understood and	-0.015786072
-0.7606908	ace commun	-0.015786072
-1.4085348	asexu commun	-0.015786072
-2.1036212	ident commun	-0.015786072
-1.8910607	good commun	-0.015786072
-1.5352199	onlin commun	-0.10052781
-0.95965976	aro commun	-0.015786072
-1.738255	possibl commun	-0.015786072
-1.2483493	form commun	-0.015786072
-1.2483493	outsid commun	-0.015786072
-0.95965976	scientif commun	-0.015786072
-2.0827453	health commun	-0.015786072
-2.0850153	aven commun	-0.015786072
-0.95965976	livejourn commun	-0.015786072
-1.5286955	tran commun	-0.015786072
-1.8696507	what favorit	-0.015786072
-1.6671615	least favorit	-0.015786072
-1.7936441	or least	-0.015786072
-1.8962173	much least	-0.015786072
-1.4391156	argu least	-0.015786072
-1.2664526	month least	-0.015786072
-1.7936441	member least	-0.015786072
-1.4391156	to run	-0.015786072
-1.191707	involv run	-0.015786072
-1.2664526	structur run	-0.015786072
-1.7936441	posit run	-0.015786072
-0.968878	cannot run	-0.015786072
-1.922705	blog prioriti	-0.015786072
-0.9719262	prioriti goe	-0.015786072
-1.6955867	mean identifi	-0.015786072
-2.2687058	peopl identifi	-0.015786072
-0.9627108	goe identifi	-0.015786072
-1.6955867	autist identifi	-0.015786072
-1.8036591	suggest identifi	-0.015786072
-1.6250907	differ identifi	-0.015786072
-0.39922202	self identifi	-0.29138702
-1.5370433	implic identifi	-0.015786072
-0.9627108	act identifi	-0.015786072
-1.5370433	classifi identifi	-0.015786072
-0.9627108	respond identifi	-0.015786072
-2.8340204	asexu part	-0.015786072
-2.4107194	peopl part	-0.015786072
-1.426115	identifi part	-0.015786072
-1.2664526	label part	-0.015786072
-1.654188	differ part	-0.015786072
-2.143112	ace aro	-0.015786072
-2.579034	s strict	-0.015786072
-2.3687763	s requir	-0.015786072
-0.9647568	strict requir	-0.015786072
-1.7668295	respons requir	-0.015786072
-2.0887716	one requir	-0.015786072
-0.9647568	prescreen requir	-0.015786072
-1.2583133	password requir	-0.015786072
-0.9647568	bio requir	-0.015786072
-1.2583133	role requir	-0.015786072
-1.9034091	entri requir	-0.015786072
-1.8684385	thi signal	-0.015786072
-1.9638371	requir signal	-0.015786072
-0.6530743	signal boost	-0.015786072
-1.2725217	boost apprecisubmit	-0.015786072
-1.7479094	question space	-0.015786072
-0.9719262	space crayon	-0.015786072
-2.659789	asexu much	-0.015786072
-2.1254344	t much	-0.015786072
-1.9965303	find much	-0.015786072
-1.8180474	bibliographi much	-0.015786072
-0.9647568	apolog much	-0.015786072
-1.706764	us much	-0.015786072
-1.5447714	thank much	-0.015786072
-0.9647568	ever much	-0.015786072
-1.2583133	pretti much	-0.015786072
-2.6063576	<eos> inform	-0.015786072
-1.9892285	time inform	-0.015786072
-2.0341754	includ inform	-0.015786072
-2.1108375	link inform	-0.015786072
-1.9856356	find inform	-0.015786072
-2.2893786	peopl inform	-0.015786072
-1.854501	much inform	-0.015786072
-1.7011395	gener inform	-0.015786072
-1.629807	miss inform	-0.015786072
-1.5408902	add inform	-0.015786072
-1.8789357	asexu autism	-0.015786072
-2.189286	link autism	-0.015786072
-2.4107194	peopl autism	-0.015786072
-1.560653	ask autism	-0.015786072
-0.968878	someon autism	-0.015786072
-2.5038235	<eos> although	-0.015786072
-1.6598511	there although	-0.015786072
-1.4421831	hypothesi although	-0.015786072
-0.9699144	defin although	-0.015786072
-1.6643372	although found	-0.015786072
-1.5688169	classifi found	-0.015786072
-0.9709533	spammer found	-0.015786072
-1.4481789	found numer	-0.015786072
-1.8144239	autism spectrum	-0.015786072
-0.97147834	spectrum statist	-0.015786072
-1.5709007	basic statist	-0.015786072
-2.5349047	<eos> make	-0.015786072
-1.6229191	anyon make	-0.015786072
-1.7989782	want make	-0.015786072
-2.2489724	peopl make	-0.015786072
-1.8881079	would make	-0.015786072
-1.7966399	way make	-0.015786072
-1.747752	hope make	-0.015786072
-0.9616914	comment make	-0.015786072
-1.6204252	alreadi make	-0.015786072
-1.747752	member make	-0.015786072
-0.9616914	forgot make	-0.015786072
-1.2523075	extens make	-0.015786072
-2.0465746	make sens	-0.015786072
-2.311085	peopl two	-0.015786072
-1.6364032	least two	-0.015786072
-0.9647568	sens two	-0.015786072
-2.0225205	year two	-0.015786072
-1.8180474	chang two	-0.015786072
-1.8180474	data two	-0.015786072
-0.9647568	divid two	-0.015786072
-1.9383055	first two	-0.015786072
-0.9647568	throw two	-0.015786072
-2.242925	link someon	-0.015786072
-1.8144239	autism characterist	-0.015786072
-1.811317	thing could	-0.015786072
-0.97147834	characterist could	-0.015786072
-2.3140373	paper present	-0.015786072
-2.086018	like present	-0.015786072
-1.2685113	could present	-0.015786072
-1.659233	theme present	-0.015786072
-2.1191626	ace relationship	-0.015786072
-2.8912175	asexu relationship	-0.015786072
-1.7366493	invis relationship	-0.015786072
-1.5647157	romant relationship	-0.015786072
-1.7452424	know anyth	-0.015786072
-1.5709007	tri anyth	-0.015786072
-3.1431603	<eos> btw	-0.015786072
-2.143112	ace diognos	-0.015786072
-2.7834868	asexu autist	-0.015786072
-1.4372107	preval autist	-0.015786072
-0.967844	diognos autist	-0.015786072
-1.7867836	mani autist	-0.015786072
-1.6492012	correl autist	-0.015786072
-1.5577574	young autist	-0.015786072
-1.9777266	read though	-0.015786072
-2.332696	use though	-0.015786072
-1.7300205	autist though	-0.015786072
-1.9777266	first though	-0.015786072
-1.560653	far though	-0.015786072
-2.1280556	work mani	-0.015786072
-2.163661	need mani	-0.015786072
-1.6442708	though mani	-0.015786072
-1.7800298	hope mani	-0.015786072
-1.4330447	get mani	-0.015786072
-1.5526396	face mani	-0.015786072
-1.5526396	add mani	-0.015786072
-1.7479094	autist trait	-0.015786072
-2.7419963	<eos> hope	-0.015786072
-1.8329287	thi hope	-0.015786072
-0.9668125	trait hope	-0.015786072
-1.9563007	url hope	-0.015786072
-2.2379816	also hope	-0.015786072
-1.5526396	step hope	-0.015786072
-1.2623638	crowdsourc hope	-0.015786072
-1.8144239	hope wasn	-0.015786072
-2.242925	t offens	-0.015786072
-3.033395	<eos> hello	-0.015786072
-0.9709533	offens hello	-0.015786072
-0.9709533	clauxx hello	-0.015786072
-3.0892012	<eos> my	-0.015786072
-1.4468393	hello my	-0.015786072
-1.2725217	my apolog	-0.015786072
-1.922705	much delay	-0.015786072
-1.654188	track respons	-0.015786072
-2.098929	includ respons	-0.015786072
-0.968878	delay respons	-0.015786072
-0.968878	same respons	-0.015786072
-0.28975755	primari respons	-0.05609332
-1.747752	recent year	-0.015786072
-1.4182287	coupl year	-0.015786072
-1.9887311	post year	-0.015786072
-2.3020663	s year	-0.015786072
-1.9948676	digit year	-0.015786072
-1.6204252	conduct year	-0.015786072
-1.3666499	first year	-0.015786072
-1.6204252	theme year	-0.015786072
-1.4182287	rest year	-0.015786072
-0.9616914	reus year	-0.015786072
-1.2523075	month year	-0.015786072
-0.9616914	compani year	-0.015786072
-1.9187224	two ago	-0.015786072
-2.1062903	year ago	-0.015786072
-1.2716273	ago touch	-0.015786072
-1.8684385	articl touch	-0.015786072
-2.6470382	<eos> url	-0.015786072
-2.2018814	help url	-0.015786072
-2.0463767	includ url	-0.015786072
-2.0495274	survey url	-0.015786072
-1.6345749	societi url	-0.015786072
-1.4270575	websit url	-0.015786072
-0.88029087	here url	-0.015786072
-0.9647568	mine url	-0.015786072
-1.2583133	thread url	-0.015786072
-2.957107	asexu awar	-0.015786072
-1.8076988	follow awar	-0.015786072
-1.4452724	just awar	-0.015786072
-1.9050639	two major	-0.015786072
-1.4421831	awar major	-0.015786072
-2.1629815	one major	-0.015786072
-1.4421831	three major	-0.015786072
-1.6442708	although chang	-0.015786072
-1.5526396	major chang	-0.015786072
-1.5526396	move chang	-0.015786072
-0.9668125	econom chang	-0.015786072
-1.0448929	languag chang	-0.015786072
-0.9668125	of chang	-0.015786072
-0.9668125	terminolog chang	-0.015786072
-2.7769842	research landscap	-0.015786072
-2.055524	project sinc	-0.015786072
-0.9699144	landscap sinc	-0.015786072
-1.5647157	plan sinc	-0.015786072
-1.4421831	detail sinc	-0.015786072
-2.1062903	post then	-0.015786072
-1.5709007	sinc then	-0.015786072
-1.9191718	pleas let	-0.015786072
-1.5709007	ll let	-0.015786072
-1.5540848	i ll	-0.015786072
-0.8287667	we ll	-0.015786072
-2.0204158	current take	-0.015786072
-2.2379816	help take	-0.015786072
-1.9211107	might take	-0.015786072
-2.192218	it take	-0.015786072
-1.5526396	ll take	-0.015786072
-2.1624808	group take	-0.015786072
-0.9668125	begin take	-0.015786072
-1.9638371	lot later	-0.015786072
-2.0043643	look later	-0.015786072
-2.0807955	current limit	-0.015786072
-1.8453658	look librari	-0.015786072
-2.2117448	research librari	-0.015786072
-1.7006313	thing librari	-0.015786072
-1.9868164	link librari	-0.015786072
-1.6885903	use librari	-0.015786072
-0.9536212	limit librari	-0.015786072
-1.1674198	possibl librari	-0.015786072
-2.0015705	group librari	-0.015786072
-1.3955269	go librari	-0.015786072
-1.3955269	share librari	-0.015786072
-1.3955269	necessarili librari	-0.015786072
-1.7044356	sub librari	-0.015786072
-1.5038738	basic librari	-0.015786072
-1.6525075	curat librari	-0.015786072
-1.8453658	zotero librari	-0.015786072
-1.8882805	ad librari	-0.015786072
-1.2366866	edit librari	-0.015786072
-0.9536212	mess librari	-0.015786072
-1.2366866	stock librari	-0.015786072
-0.9536212	guidesonc librari	-0.015786072
-2.1353953	the short	-0.015786072
-1.5709007	due short	-0.015786072
-3.033395	<eos> is	-0.015786072
-1.27058	then is	-0.015786072
-1.27058	short is	-0.015786072
-1.4481789	is isn	-0.015786072
-2.7499976	research potenti	-0.015786072
-1.4468393	aﬀect potenti	-0.015786072
-1.8144239	autism asdl	-0.015786072
-2.349939	<eos> studi	-0.015786072
-2.0125933	interest studi	-0.015786072
-2.3982453	asexu studi	-0.10052781
-1.6535497	note studi	-0.015786072
-2.1774826	s studi	-0.015786072
-1.821016	inform studi	-0.015786072
-0.9546218	asdl studi	-0.015786072
-1.2386087	valid studi	-0.015786072
-1.821016	particip studi	-0.015786072
-1.2386087	subcultur studi	-0.015786072
-1.7062492	publish studi	-0.015786072
-1.2386087	partner studi	-0.015786072
-1.3983006	goal studi	-0.015786072
-1.3983006	probabl studi	-0.015786072
-0.9546218	valu studi	-0.015786072
-1.3983006	linguist studi	-0.015786072
-0.9546218	challeng studi	-0.015786072
-1.2386087	case studi	-0.015786072
-1.705688	gender studi	-0.015786072
-1.9233057	exist tent	-0.015786072
-2.6919272	<eos> suggest	-0.015786072
-1.7124624	question suggest	-0.015786072
-0.9657834	tent suggest	-0.015786072
-1.2603339	initi suggest	-0.015786072
-1.6393958	evid suggest	-0.015786072
-1.4300408	forum suggest	-0.015786072
-0.9657834	receiv suggest	-0.015786072
-1.2603339	feedback suggest	-0.015786072
-1.9777266	may correl	-0.015786072
-0.968878	deni correl	-0.015786072
-0.968878	indic correl	-0.015786072
-1.4391156	explor correl	-0.015786072
-1.4391156	whether correl	-0.015786072
-1.9675308	may addit	-0.015786072
-2.7985992	<eos> addit	-0.015786072
-2.7834868	asexu addit	-0.015786072
-1.7867836	follow addit	-0.015786072
-1.6492012	give addit	-0.015786072
-1.2644033	crowdsourc addit	-0.015786072
-2.53745	research possibl	-0.015786072
-2.054486	new possibl	-0.015786072
-1.7182366	addit possibl	-0.015786072
-1.9904784	a possibl	-0.015786072
-2.0490587	list possibl	-0.015786072
-0.9668125	rule possibl	-0.015786072
-1.9211107	entri possibl	-0.015786072
-2.2251165	link asd	-0.015786072
-2.4706678	peopl asd	-0.015786072
-0.9709533	pursu asd	-0.015786072
-1.4391156	asd queer	-0.015786072
-1.560653	feminist queer	-0.015786072
-1.654188	realli queer	-0.015786072
-1.560653	face queer	-0.015786072
-1.4391156	argu queer	-0.015786072
-2.2173755	ident gener	-0.015786072
-2.3835874	peopl gener	-0.015786072
-2.082143	self gener	-0.015786072
-1.5566279	contain gener	-0.015786072
-1.5566279	either gener	-0.015786072
-1.936015	corpu gener	-0.015786072
-2.940312	<eos> howev	-0.015786072
-2.085429	year howev	-0.015786072
-2.2639039	librari howev	-0.015786072
-1.4421831	measur howev	-0.015786072
-1.9121697	might still	-0.015786072
-2.3935025	s still	-0.015786072
-1.7733794	m still	-0.015786072
-1.9106787	inform still	-0.015786072
-1.7733794	mani still	-0.015786072
-0.9657834	popul still	-0.015786072
-1.8254242	articl still	-0.015786072
-1.5486877	step still	-0.015786072
-1.922705	still weak	-0.015786072
-2.2436304	need confirm	-0.015786072
-0.9719262	confirm deni	-0.015786072
-1.6094004	<eos> also	-0.015786098
-1.5971454	definit also	-0.015786072
-2.1932375	s also	-0.015786072
-2.1463585	peopl also	-0.015786072
-0.7960042	would also	-0.015786072
-1.7567523	way also	-0.015786072
-1.2405394	boost also	-0.015786072
-1.2405394	censu also	-0.015786072
-0.95562476	przybylo also	-0.015786072
-1.2405394	re also	-0.015786072
-1.2405394	pansexu also	-0.015786072
-1.401092	erasur also	-0.015786072
-1.401092	hypothesi also	-0.015786072
-1.5148627	issu also	-0.015786072
-0.95562476	were also	-0.015786072
-1.8316264	entri also	-0.015786072
-0.95562476	said also	-0.015786072
-1.401092	hand also	-0.015786072
-2.3424728	also indic	-0.015786072
-1.9233057	exist biolog	-0.015786072
-2.4366047	asexu label	-0.015786072
-1.572684	relationship prefer	-0.015786072
-0.97147834	prefer variou	-0.015786072
-0.97147834	address variou	-0.015786072
-1.2725217	variou reason	-0.015786072
-2.1125507	like introspect	-0.015786072
-1.8962173	two differ	-0.015786072
-0.968878	introspect differ	-0.015786072
-1.560653	similar differ	-0.015786072
-1.560653	romant differ	-0.015786072
-0.968878	board differ	-0.015786072
-1.6691608	differ decid	-0.015786072
-0.9719262	decid pursu	-0.015786072
-1.4481789	asd diagnosi	-0.015786072
-3.0892012	<eos> mostli	-0.015786072
-2.0412889	a mostli	-0.015786072
-1.2725217	mostli coincid	-0.015786072
-3.0892012	<eos> idea	-0.015786072
-2.7499976	research idea	-0.015786072
-1.9633098	<eos> digit	-0.015786072
-1.8655252	paper digit	-0.015786072
-1.7780831	the digit	-0.015786072
-1.1556553	s digit	-0.21331246
-1.6057414	m digit	-0.015786072
-1.7505003	project digit	-0.015786072
-1.0089983	least digit	-0.015786072
-1.441204	relationship digit	-0.015786072
-1.7650586	year digit	-0.015786072
-1.6119822	take digit	-0.015786072
-0.8390059	digit digit	-0.29825455
-1.6404315	data digit	-0.015786072
-1.6941833	particip digit	-0.015786072
-0.93503493	max digit	-0.015786072
-1.2016945	scherrer digit	-0.015786072
-0.93503493	subjectsloan digit	-0.015786072
-0.93503493	gupta digit	-0.015786072
-1.5173607	women digit	-0.015786072
-0.93503493	honorarium digit	-0.015786072
-0.93503493	elig digit	-0.015786072
-1.441204	d digit	-0.015786072
-1.6057414	analysi digit	-0.015786072
-0.93503493	produc digit	-0.015786072
-1.5700256	healthcar digit	-0.015786072
-1.6057414	item digit	-0.015786072
-0.6372788	n digit	-0.015786072
-0.93503493	cisgend digit	-0.015786072
-0.93503493	half digit	-0.015786072
-0.93503493	late digit	-0.015786072
-1.2016945	prior digit	-0.015786072
-0.93503493	earli digit	-0.015786072
-1.6671492	lgbtiq digit	-0.015786072
-0.93503493	twenti digit	-0.015786072
-0.93503493	doi digit	-0.36079943
-1.2016945	l digit	-0.015786072
-0.93503493	f digit	-0.015786072
-0.93503493	stagesstag digit	-0.015786072
-0.6372788	stage digit	-0.015786072
-0.93503493	criticismstag digit	-0.015786072
-1.7117318	commun censu	-0.015786072
-1.9121697	lot data	-0.015786072
-1.7733794	autism data	-0.015786072
-1.6393958	interview data	-0.015786072
-1.2603339	phase data	-0.015786072
-1.2603339	util data	-0.015786072
-2.1578448	aven data	-0.015786072
-1.714037	curat data	-0.015786072
-1.4316844	citat data	-0.015786072
-2.2562873	interest analyz	-0.015786072
-1.8684385	data analyz	-0.015786072
-1.9777266	may give	-0.015786072
-1.4391156	websit give	-0.015786072
-1.7300205	report give	-0.015786072
-1.7945018	allow give	-0.015786072
-1.2664526	happi give	-0.015786072
-1.7452424	addit insight	-0.015786072
-1.666935	set insight	-0.015786072
-1.9988657	book as	-0.015786072
-2.304982	commun as	-0.015786072
-2.099882	list as	-0.015786072
-1.4481789	as oppos	-0.015786072
-1.7479094	autist popul	-0.015786072
-1.9187224	still won	-0.015786072
-1.666935	team won	-0.015786072
-2.957107	asexu tell	-0.015786072
-2.2251165	t tell	-0.015786072
-1.9988657	well tell	-0.015786072
-0.8284213	tell us	-0.015786072
-1.1284401	send us	-0.015786072
-1.1950505	allow us	-0.015786072
-1.922705	much causal	-0.015786072
-0.9719262	causal sennkestrahello	-0.015786072
-2.2093203	studi conduct	-0.015786072
-0.968878	sennkestrahello conduct	-0.015786072
-2.100547	survey conduct	-0.015786072
-1.4391156	hypothesi conduct	-0.015786072
-1.2664526	centr conduct	-0.015786072
-2.2681305	research one	-0.015786072
-2.439434	asexu one	-0.015786072
-1.9571985	includ one	-0.015786072
-1.4039017	contact one	-0.015786072
-1.1088636	part one	-0.10052781
-1.8390409	requir one	-0.015786072
-1.6636837	addit one	-0.015786072
-1.9914045	one one	-0.015786072
-1.7631509	articl one	-0.015786072
-1.5146513	on one	-0.015786072
-1.2424788	head one	-0.015786072
-1.5978211	start one	-0.015786072
-1.2424788	taken one	-0.015786072
-0.95663	relevabstract one	-0.015786072
-0.95663	assign one	-0.015786072
-1.8688056	zotero one	-0.015786072
-1.8390409	entri one	-0.015786072
-1.9988657	look small	-0.015786072
-1.6646965	class small	-0.015786072
-0.6526676	lead small	-0.10052781
-1.4468393	small valid	-0.015786072
-1.2716273	indiffer valid	-0.015786072
-2.264885	studi scale	-0.015786072
-1.8483379	suggest number	-0.015786072
-1.4391156	small number	-0.015786072
-1.4391156	page number	-0.015786072
-1.7300205	larg number	-0.015786072
-1.560653	confer number	-0.015786072
-2.6919272	<eos> particip	-0.015786072
-2.1590238	interest particip	-0.015786072
-2.324917	asexu particip	-0.015786072
-1.5486877	ask particip	-0.015786072
-1.6393958	interview particip	-0.015786072
-1.4300408	recruit particip	-0.015786072
-1.2603339	vancouv particip	-0.015786072
-0.9657834	collect particip	-0.015786072
-2.242925	link qualtric	-0.015786072
-2.3102481	research survey	-0.015786072
-2.020835	onlin survey	-0.015786072
-2.1075172	commun survey	-0.015786072
-1.6740597	run survey	-0.015786072
-1.957382	year survey	-0.015786072
-1.8824921	url survey	-0.015786072
-2.3403273	digit survey	-0.015786072
-0.9586475	qualtric survey	-0.015786072
-1.6067221	check survey	-0.015786072
-1.4095759	page survey	-0.015786072
-1.7294774	posit survey	-0.015786072
-1.6740597	resourc survey	-0.015786072
-1.4095759	rest survey	-0.015786072
-1.4095759	annual survey	-0.015786072
-0.9586475	ensur survey	-0.015786072
-1.958484	particip complet	-0.015786072
-1.5234474	survey complet	-0.015786072
-1.9988657	well complet	-0.015786072
-1.572684	complet anonym	-0.015786072
-0.9719262	anonym abid	-0.015786072
-0.9719262	abid ethic	-0.015786072
-0.9719262	ethic guidelin	-0.015786072
-0.97147834	guidelin enforc	-0.015786072
-1.4468393	place enforc	-0.015786072
-1.2725217	enforc american	-0.015786072
-0.9709533	american psycholog	-0.015786072
-1.5688169	lack psycholog	-0.015786072
-0.9709533	demograph psycholog	-0.015786072
-2.2464097	studi associ	-0.015786072
-1.4452724	psycholog associ	-0.015786072
-0.9709533	effect associ	-0.015786072
-2.3206613	help appreci	-0.015786072
-1.9603896	would appreci	-0.015786072
-0.9709533	greatli appreci	-0.015786072
-3.1431603	<eos> reach	-0.015786072
-1.8725853	email jacobwhighsmith	-0.015786072
-2.0275888	<eos> thank	-0.015786072
-2.2374594	aven thank	-0.015786072
-2.0098162	you jwhsubmit	-0.015786072
-0.97147834	jwhsubmit rafaelafranzen	-0.015786072
-1.5709007	messag rafaelafranzen	-0.015786072
-2.031993	current write	-0.015786072
-2.2572231	help write	-0.015786072
-2.4476266	s write	-0.015786072
-1.9664755	good write	-0.015786072
-2.2572231	also write	-0.015786072
-2.0872195	survey write	-0.015786072
-1.7479094	write autoethnographi	-0.015786072
-1.742133	recommend sociolog	-0.015786072
-1.6646965	class sociolog	-0.015786072
-1.7424912	perspect sociolog	-0.015786072
-1.4452724	sociolog devianc	-0.015786072
-0.6526676	secondari devianc	-0.015786072
-2.417335	sexual devianc	-0.015786072
-2.038201	specif focu	-0.015786072
-1.5688169	devianc focu	-0.015786072
-0.9709533	often focu	-0.015786072
-1.4468393	focu live	-0.015786072
-1.5709007	romant live	-0.015786072
-1.9680314	experi adopt	-0.015786072
-2.5357833	asexu self	-0.015786072
-1.877182	s self	-0.015786072
-2.176585	use self	-0.015786072
-1.6158093	correl self	-0.015786072
-2.3794994	digit self	-0.015786072
-1.7897323	data self	-0.015786072
-1.6158093	number self	-0.015786072
-0.96067435	behav self	-0.015786072
-1.4153253	measur self	-0.015786072
-1.2503239	compar self	-0.015786072
-1.5294503	heterosexu self	-0.015786072
-0.96067435	column self	-0.015786072
-0.96067435	explicitli self	-0.015786072
-2.5356274	<eos> plan	-0.015786072
-0.9709533	obvious plan	-0.015786072
-1.4452724	now plan	-0.015786072
-2.395888	use frame	-0.015786072
-1.5709007	plan frame	-0.015786072
-2.3156214	commun form	-0.015786072
-1.2716273	frame form	-0.015786072
-2.2562873	studi secondari	-0.015786072
-1.2716273	form secondari	-0.015786072
-1.8646702	want talk	-0.015786072
-1.5688169	devianc talk	-0.015786072
-1.4452724	go talk	-0.015786072
-2.8912175	asexu implic	-0.015786072
-1.4421831	talk implic	-0.015786072
-1.8562526	orient implic	-0.015786072
-1.2685113	section implic	-0.015786072
-2.0487885	identifi within	-0.015786072
-1.4421831	call social	-0.015786072
-0.9699144	within social	-0.015786072
-0.9699144	alien social	-0.015786072
-1.4421831	technolog social	-0.015786072
-1.9638371	might structur	-0.015786072
-1.5709007	social structur	-0.015786072
-3.033395	<eos> consid	-0.015786072
-2.099183	post consid	-0.015786072
-1.27058	structur consid	-0.015786072
-1.3765918	coupl sexual	-0.015786072
-1.7646405	asexu sexual	-0.07040553
-1.4797202	relat sexual	-0.015786072
-1.9095454	identifi sexual	-0.015786072
-1.6152248	us sexual	-0.015786072
-1.3765918	talk sexual	-0.015786072
-1.3765918	consid sexual	-0.015786072
-1.2234645	human sexual	-0.015786072
-0.9466807	highli sexual	-0.015786072
