\data\
ngram 1=781
ngram 2=1303
ngram 3=1398

\1-grams:
-0.29140642	<unk>
-inf	<s>	-0.02839979
-3.6199884	</s>
-3.6199884	scream	-0.02839979
-3.6199884	queen	-0.02839979
-3.6199884	cancel	-0.02839979
-3.6199884	foxus	-0.02839979
-2.6464553	find	-0.02839979
-3.6199884	twitch	-0.02839979
-3.6199884	stream	-0.02839979
-1.8610986	digit	-0.11118651
-3.6199884	episod	-0.02839979
-3.3763297	origin	-0.02839979
-2.8269277	power	-0.02839979
-3.6199884	ranger	-0.02839979
-2.5193422	tv	-0.081861936
-3.6199884	seribeyoncéstay	-0.02839979
-2.6464553	late	-0.09632308
-3.3763297	wait	-0.02839979
-3.3763297	recap	-0.02839979
-3.3763297	game	-0.02839979
-3.6199884	throne	-0.02839979
-3.6199884	mindi	-0.02839979
-3.3763297	project	-0.02839979
-2.421133	go	-0.02839979
-3.6199884	onlin	-0.02839979
-1.2640474	<eos>	-0.06895725
-2.5193422	love	-0.081861936
-2.6464553	take	-0.02839979
-3.3763297	deep	-0.02839979
-3.6199884	dive	-0.02839979
-3.6199884	weekend	-0.02839979
-3.6199884	box	-0.02839979
-3.3763297	offic	-0.02839979
-3.6199884	figur	-0.02839979
-3.6199884	still	-0.02839979
-3.3763297	complet	-0.02839979
-3.6199884	obsess	-0.02839979
-2.8269277	harri	-0.02839979
-3.6199884	potter	-0.02839979
-1.940566	we	-0.2654369
-2.6464553	re	-0.028399818
-2.8269277	entertain	-0.02839979
-3.6199884	geek	-0.02839979
-2.1635602	ew	-0.32919225
-2.6464553	look	-0.02839979
-2.8269277	recent	-0.2038975
-3.6199884	graduat	-0.02839979
-3.3763297	passion	-0.02839979
-3.3763297	pop	-0.1768751
-3.6199884	cultur	-0.02839979
-2.421133	well	-0.20419417
-3.6199884	vers	-0.02839979
-2.8269277	least	-0.121549375
-3.6199884	one	-0.02839979
-3.6199884	area	-0.02839979
-2.8269277	cover	-0.02839979
-2.6464553	movi	-0.02839979
-2.6464553	music	-0.02839979
-3.3763297	book	-0.02839979
-2.8269277	daili	-0.121549375
-3.6199884	respons	-0.02839979
-2.8269277	includ	-0.02839979
-3.6199884	usual	-0.02839979
-3.3763297	entri	-0.02839979
-3.6199884	level	-0.02839979
-3.3763297	task	-0.02839979
-3.6199884	transcrib	-0.02839979
-3.3763297	interview	-0.02839979
-3.6199884	assist	-0.02839979
-3.3763297	research	-0.02839979
-3.6199884	maintain	-0.02839979
-3.6199884	databas	-0.02839979
-3.3763297	motiv	-0.02839979
-2.6464553	intern	-0.02839979
-3.6199884	dispatch	-0.02839979
-3.6199884	short	-0.02839979
-3.6199884	order	-0.02839979
-3.3763297	move	-0.02839979
-3.6199884	excit	-0.02839979
-2.421133	write	-0.07248196
-3.6199884	blog	-0.02839979
-3.6199884	post	-0.02839979
-2.6464553	report	-0.02839979
-2.5193422	stori	-0.028399818
-3.3763297	red	-0.1768751
-3.6199884	carpet	-0.02839979
-3.6199884	attend	-0.02839979
-3.6199884	screen	-0.02839979
-3.6199884	on	-0.02839979
-3.6199884	expect	-0.02839979
-3.3763297	pitch	-0.02839979
-3.3763297	com	-0.02839979
-3.3763297	editor	-0.02839979
-3.6199884	print	-0.02839979
-3.6199884	ideal	-0.02839979
-2.8269277	candid	-0.02839979
-3.3763297	live	-0.02839979
-3.6199884	breath	-0.02839979
-3.6199884	self	-0.02839979
-3.6199884	impecc	-0.02839979
-3.3763297	skill	-0.02839979
-3.3763297	alreadi	-0.02839979
-3.3763297	internship	-0.02839979
-3.3763297	when	-0.02839979
-3.6199884	march	-0.02839979
-2.6464553	august	-0.09632308
-2.8269277	hour	-0.028399818
-3.3763297	week	-0.02839979
-3.6199884	hourwho	-0.02839979
-3.6199884	interest	-0.02839979
-3.6199884	career	-0.02839979
-3.6199884	journalismhow	-0.02839979
-2.8269277	appli	-0.121549375
-3.6199884	pleas	-0.02839979
-3.6199884	send	-0.02839979
-3.3763297	resum	-0.1768751
-3.6199884	letter	-0.02839979
-3.3763297	previous	-0.02839979
-3.6199884	publish	-0.02839979
-3.6199884	clip	-0.02839979
-3.6199884	molli	-0.02839979
-3.6199884	smith	-0.02839979
-3.6199884	noelen	-0.02839979
-3.6199884	clark	-0.02839979
-2.8269277	deadlin	-0.02839979
-3.6199884	feb	-0.02839979
-3.6199884	digitthe	-0.02839979
-3.6199884	academi	-0.02839979
-3.3763297	celebr	-0.02839979
-3.6199884	achiev	-0.02839979
-3.3763297	art	-0.02839979
-3.3763297	filmmak	-0.02839979
-3.6199884	seek	-0.02839979
-3.6199884	transcend	-0.02839979
-3.6199884	border	-0.02839979
-3.3763297	speak	-0.02839979
-3.6199884	audienc	-0.02839979
-2.8269277	around	-0.121549375
-2.421133	world	-0.02839979
-3.6199884	regardless	-0.02839979
-3.6199884	nation	-0.02839979
-3.6199884	ethnic	-0.02839979
-3.6199884	religi	-0.02839979
-3.3763297	differ	-0.02839979
-3.3763297	statement	-0.02839979
-3.6199884	obtain	-0.02839979
-2.8269277	read	-0.121549375
-3.6199884	as	-0.02839979
-3.3763297	support	-0.02839979
-2.5193422	and	-0.028399818
-3.6199884	human	-0.02839979
-2.421133	right	-0.02839979
-2.5193422	peopl	-0.028399818
-3.6199884	globe	-0.02839979
-3.3763297	extrem	-0.02839979
-3.6199884	troubl	-0.02839979
-3.6199884	asghar	-0.02839979
-3.6199884	farhadi	-0.02839979
-3.6199884	director	-0.02839979
-3.3763297	oscar	-0.02839979
-2.8269277	win	-0.02839979
-3.3763297	film	-0.02839979
-3.6199884	iran	-0.02839979
-3.6199884	separ	-0.02839979
-3.6199884	along	-0.02839979
-3.3763297	cast	-0.02839979
-3.6199884	crew	-0.02839979
-2.3410878	year	-0.057285286
-1.8860064	s	-0.03857864
-3.3763297	nomin	-0.02839979
-3.6199884	salesman	-0.02839979
-3.6199884	could	-0.02839979
-3.6199884	bar	-0.02839979
-3.6199884	enter	-0.02839979
-2.6464553	countri	-0.02839979
-3.6199884	religion	-0.02839979
-3.6199884	originstay	-0.02839979
-2.5193422	do	-0.07248196
-3.6199884	digitcarri	-0.02839979
-3.3763297	friend	-0.02839979
-3.6199884	adult	-0.02839979
-3.6199884	smart	-0.02839979
-3.6199884	talent	-0.02839979
-2.8269277	actress	-0.121549375
-3.6199884	writer	-0.02839979
-3.6199884	comedienn	-0.02839979
-3.3763297	color	-0.02839979
-3.3763297	person	-0.02839979
-3.6199884	everyon	-0.02839979
-3.3763297	in	-0.02839979
-3.6199884	star	-0.02839979
-3.3763297	war	-0.02839979
-3.3763297	great	-0.02839979
-3.6199884	princess	-0.02839979
-3.6199884	feisti	-0.02839979
-3.6199884	wise	-0.02839979
-2.8269277	full	-0.02839979
-2.5193422	hope	-0.028399818
-3.6199884	role	-0.02839979
-3.6199884	difficult	-0.02839979
-2.8269277	might	-0.02839979
-2.6464553	think	-0.02839979
-3.6199884	heart	-0.02839979
-3.6199884	prayer	-0.02839979
-3.6199884	billi	-0.02839979
-3.6199884	debbi	-0.02839979
-3.6199884	carri	-0.02839979
-2.6464553	famili	-0.02839979
-3.6199884	fanit	-0.02839979
-2.3410878	time	-0.028399818
-3.6199884	shine	-0.02839979
-3.3763297	submit	-0.02839979
-2.6464553	fan	-0.02839979
-3.6199884	favorit	-0.02839979
-3.6199884	celeb	-0.02839979
-2.6464553	show	-0.02839979
-3.3763297	fiction	-0.02839979
-3.6199884	charact	-0.02839979
-2.6464553	see	-0.02839979
-3.6199884	criticschoiceaward	-0.02839979
-3.3763297	a	-0.02839979
-3.6199884	ewe	-0.02839979
-3.6199884	messag	-0.02839979
-2.5193422	you	-0.081861936
-2.8269277	sir	-0.121549375
-3.6199884	hear	-0.02839979
-2.3410878	us	-0.02839979
-3.6199884	out	-0.02839979
-3.6199884	vice	-0.02839979
-2.8269277	presid	-0.02839979
-3.6199884	elect	-0.02839979
-3.6199884	penc	-0.02839979
-3.6199884	welcom	-0.02839979
-2.6464553	truli	-0.09632308
-3.6199884	thank	-0.02839979
-3.3763297	join	-0.02839979
-3.6199884	hamilton	-0.02839979
-2.2150714	american	-0.02839979
-3.3763297	realli	-0.02839979
-3.3763297	divers	-0.02839979
-2.6464553	america	-0.02839979
-3.6199884	alarm	-0.02839979
-3.6199884	anxiou	-0.02839979
-3.3763297	new	-0.02839979
-3.6199884	administr	-0.02839979
-3.3763297	protect	-0.1768751
-3.6199884	planet	-0.02839979
-3.3763297	children	-0.02839979
-3.6199884	parent	-0.02839979
-3.6199884	defend	-0.02839979
-3.3763297	uphold	-0.02839979
-3.6199884	inalien	-0.02839979
-3.6199884	inspir	-0.02839979
-3.6199884	valu	-0.02839979
-2.6464553	work	-0.02839979
-3.6199884	behalf	-0.02839979
-3.6199884	share	-0.02839979
-3.3763297	thi	-0.02839979
-3.6199884	wonder	-0.02839979
-3.6199884	told	-0.02839979
-3.3763297	group	-0.02839979
-2.6464553	men	-0.02839979
-3.3763297	women	-0.02839979
-3.6199884	creed	-0.02839979
-3.6199884	orientsorkin	-0.02839979
-3.6199884	girl	-0.02839979
-3.6199884	chang	-0.02839979
-2.5193422	last	-0.42574623
-3.6199884	night	-0.028399818
-2.5193422	way	-0.081861936
-3.6199884	couldn	-0.02839979
-2.2150714	t	-0.04819109
-3.6199884	from	-0.02839979
-3.6199884	that	-0.02839979
-3.6199884	terribl	-0.02839979
-2.8269277	feel	-0.121549375
-3.6199884	father	-0.02839979
-3.6199884	won	-0.02839979
-3.6199884	sugarcoat	-0.02839979
-2.1635602	it	-0.1831321
-3.6199884	horribl	-0.02839979
-3.6199884	hardli	-0.02839979
-2.421133	first	-0.10734349
-2.8269277	didn	-0.2038975
-3.6199884	fact	-0.02839979
-3.6199884	sixth	-0.02839979
-3.6199884	thoroughli	-0.02839979
-3.6199884	incompet	-0.02839979
-3.6199884	pig	-0.02839979
-3.6199884	danger	-0.02839979
-3.3763297	idea	-0.02839979
-3.6199884	seriou	-0.02839979
-3.6199884	psychiatr	-0.02839979
-3.6199884	disord	-0.02839979
-3.3763297	knowledg	-0.02839979
-3.6199884	curios	-0.02839979
-3.6199884	learn	-0.02839979
-3.6199884	ha	-0.02839979
-3.6199884	wasn	-0.02839979
-3.3763297	donald	-0.1768751
-2.8269277	trump	-0.09632308
-3.6199884	too	-0.02839979
-3.6199884	klan	-0.02839979
-3.3763297	white	-0.02839979
-3.6199884	nationalist	-0.02839979
-3.6199884	sexist	-0.02839979
-3.6199884	racist	-0.02839979
-3.6199884	buffoon	-0.02839979
-3.6199884	angri	-0.02839979
-3.3763297	young	-0.02839979
-3.6199884	rap	-0.02839979
-3.6199884	cinco	-0.02839979
-3.6199884	de	-0.02839979
-3.6199884	mayo	-0.02839979
-3.6199884	threat	-0.02839979
-3.3763297	life	-0.02839979
-3.6199884	or	-0.02839979
-3.6199884	reason	-0.02839979
-3.3763297	given	-0.02839979
-3.6199884	caus	-0.02839979
-3.6199884	call	-0.02839979
-3.6199884	aspir	-0.02839979
-3.6199884	hot	-0.02839979
-3.6199884	shrill	-0.02839979
-3.6199884	ugli	-0.02839979
-3.6199884	otherwis	-0.02839979
-3.6199884	worthi	-0.02839979
-3.6199884	scorn	-0.02839979
-3.6199884	rather	-0.02839979
-3.6199884	admir	-0.02839979
-3.6199884	struck	-0.02839979
-3.6199884	blow	-0.02839979
-3.6199884	misogynist	-0.02839979
-3.6199884	shithead	-0.02839979
-3.6199884	everywher	-0.02839979
-3.3763297	hate	-0.02839979
-3.6199884	abject	-0.02839979
-3.6199884	dumb	-0.02839979
-3.6199884	glamor	-0.02839979
-3.3763297	the	-0.02839979
-3.6199884	fresh	-0.02839979
-3.3763297	voic	-0.02839979
-3.6199884	outsid	-0.02839979
-2.8269277	who	-0.02839979
-3.3763297	shake	-0.02839979
-3.3763297	thing	-0.02839979
-2.8269277	up	-0.02839979
-3.6199884	did	-0.02839979
-3.6199884	anyon	-0.02839979
-3.6199884	bother	-0.02839979
-3.3763297	ask	-0.02839979
-3.6199884	how	-0.02839979
-3.6199884	arrang	-0.02839979
-3.6199884	chair	-0.02839979
-3.3763297	roosevelt	-0.02839979
-3.3763297	room	-0.02839979
-3.6199884	next	-0.02839979
-2.8269277	four	-0.2038975
-3.6199884	unit	-0.02839979
-3.3763297	state	-0.02839979
-3.3763297	held	-0.02839979
-3.3763297	washington	-0.02839979
-3.6199884	jefferson	-0.02839979
-3.6199884	lincoln	-0.02839979
-3.6199884	teddi	-0.02839979
-3.3763297	f	-0.02839979
-3.3763297	d	-0.02839979
-3.6199884	r	-0.02839979
-3.6199884	j	-0.02839979
-3.6199884	k	-0.02839979
-3.6199884	barack	-0.02839979
-3.6199884	obama	-0.02839979
-3.3763297	man	-0.02839979
-3.6199884	boy	-0.02839979
-2.421133	ll	-0.02839979
-3.6199884	spend	-0.02839979
-3.6199884	exact	-0.02839979
-3.6199884	twitter	-0.02839979
-3.6199884	vengeanc	-0.02839979
-3.6199884	critic	-0.02839979
-3.6199884	number	-0.02839979
-3.6199884	legion	-0.02839979
-3.6199884	ve	-0.02839979
-3.6199884	embarrass	-0.02839979
-3.6199884	front	-0.02839979
-3.6199884	took	-0.02839979
-3.6199884	react	-0.02839979
-3.6199884	dow	-0.02839979
-3.6199884	futur	-0.02839979
-3.6199884	drop	-0.02839979
-3.3763297	point	-0.02839979
-3.6199884	overnight	-0.02839979
-3.6199884	economist	-0.02839979
-3.3763297	predict	-0.02839979
-3.6199884	prolong	-0.02839979
-3.6199884	recess	-0.02839979
-3.6199884	nato	-0.02839979
-3.6199884	alli	-0.02839979
-3.6199884	legitim	-0.02839979
-3.3763297	fear	-0.02839979
-3.6199884	muslim	-0.02839979
-3.6199884	mexican	-0.02839979
-3.6199884	african	-0.02839979
-3.6199884	shoe	-0.02839979
-3.6199884	note	-0.02839979
-3.6199884	mani	-0.02839979
-3.6199884	jew	-0.02839979
-3.3763297	hand	-0.02839979
-3.3763297	parti	-0.02839979
-3.6199884	isi	-0.02839979
-3.3763297	headquart	-0.1768751
-3.6199884	wouldn	-0.02839979
-3.3763297	give	-0.02839979
-3.6199884	trade	-0.02839979
-3.6199884	small	-0.02839979
-3.6199884	fraction	-0.02839979
-3.6199884	richard	-0.02839979
-3.6199884	nixon	-0.02839979
-2.8269277	now	-0.121549375
-3.3763297	so	-0.02839979
-3.6199884	all	-0.02839979
-3.3763297	rememb	-0.02839979
-3.6199884	alon	-0.02839979
-3.6199884	hundr	-0.02839979
-3.6199884	million	-0.02839979
-3.6199884	billion	-0.02839979
-3.6199884	exactli	-0.02839979
-3.6199884	second	-0.02839979
-2.6464553	get	-0.02839979
-3.6199884	bed	-0.02839979
-3.6199884	trumpster	-0.02839979
-2.8269277	want	-0.02839979
-2.8269277	like	-0.02839979
-3.6199884	jewish	-0.02839979
-3.6199884	coastal	-0.02839979
-3.6199884	elit	-0.02839979
-3.6199884	educ	-0.02839979
-3.3763297	social	-0.02839979
-3.6199884	progress	-0.02839979
-3.6199884	hollywood	-0.02839979
-3.6199884	sob	-0.02839979
-3.6199884	wail	-0.02839979
-3.3763297	talk	-0.02839979
-3.6199884	canada	-0.02839979
-3.3763297	neither	-0.02839979
-3.3763297	here	-0.1768751
-3.6199884	fuck	-0.02839979
-2.5193422	fight	-0.02839979
-3.3763297	roxi	-0.02839979
-3.3763297	there	-0.02839979
-3.6199884	kind	-0.02839979
-3.6199884	languag	-0.02839979
-3.6199884	powerless	-0.02839979
-3.6199884	voiceless	-0.02839979
-2.8269277	don	-0.2038975
-3.6199884	major	-0.02839979
-3.3763297	hous	-0.02839979
-3.6199884	senat	-0.02839979
-3.6199884	repres	-0.02839979
-3.6199884	also	-0.02839979
-3.3763297	good	-0.02839979
-3.6199884	member	-0.02839979
-2.5193422	make	-0.028399818
-3.6199884	sure	-0.02839979
-3.6199884	sent	-0.02839979
-3.6199884	kamala	-0.02839979
-3.6199884	strength	-0.02839979
-3.3763297	never	-0.02839979
-2.8269277	day	-0.02839979
-3.6199884	off	-0.02839979
-3.6199884	involv	-0.02839979
-3.6199884	injustic	-0.02839979
-3.6199884	anywher	-0.02839979
-3.6199884	whether	-0.02839979
-3.3763297	check	-0.02839979
-3.6199884	roll	-0.02839979
-3.6199884	sleev	-0.02839979
-3.6199884	fairli	-0.02839979
-3.6199884	insul	-0.02839979
-3.6199884	effect	-0.02839979
-3.6199884	aren	-0.02839979
-3.6199884	woman	-0.02839979
-3.3763297	keep	-0.02839979
-3.6199884	choos	-0.02839979
-3.6199884	amend	-0.02839979
-3.6199884	mostli	-0.02839979
-2.8269277	equal	-0.02839979
-3.6199884	not	-0.02839979
-3.6199884	guarante	-0.02839979
-3.6199884	outcom	-0.02839979
-3.3763297	opportun	-0.02839979
-3.6199884	stand	-0.02839979
-3.6199884	stop	-0.02839979
-3.6199884	darkest	-0.02839979
-3.3763297	alway	-0.02839979
-3.6199884	been	-0.02839979
-3.6199884	follow	-0.02839979
-3.3763297	finest	-0.1768751
-3.6199884	know	-0.02839979
-3.6199884	let	-0.02839979
-3.3763297	past	-0.02839979
-3.3763297	guy	-0.02839979
-3.3763297	without	-0.02839979
-3.6199884	commit	-0.02839979
-3.6199884	impeach	-0.02839979
-3.3763297	crime	-0.1768751
-3.6199884	manag	-0.02839979
-3.6199884	douch	-0.02839979
-3.6199884	nozzl	-0.02839979
-3.6199884	break	-0.02839979
-3.6199884	law	-0.02839979
-3.6199884	three	-0.02839979
-3.6199884	hell	-0.02839979
-3.3763297	they	-0.1768751
-3.6199884	lose	-0.02839979
-3.6199884	honey	-0.02839979
-3.6199884	vote	-0.02839979
-3.6199884	battl	-0.02839979
-3.6199884	isn	-0.02839979
-3.6199884	over	-0.02839979
-3.6199884	begun	-0.02839979
-3.6199884	grandpa	-0.02839979
-3.6199884	fought	-0.02839979
-3.6199884	ii	-0.02839979
-3.6199884	came	-0.02839979
-3.6199884	home	-0.02839979
-3.6199884	granddaught	-0.02839979
-3.6199884	shape	-0.02839979
-3.6199884	stupid	-0.02839979
-3.6199884	tear	-0.02839979
-3.6199884	woke	-0.02839979
-3.3763297	i	-0.02839979
-3.6199884	sleep	-0.02839979
-3.6199884	again	-0.02839979
-3.6199884	dadthank	-0.02839979
-2.6464553	question	-0.15294272
-3.6199884	blast	-0.02839979
-3.6199884	michael	-0.02839979
-3.6199884	fassbend	-0.02839979
-3.6199884	alicia	-0.02839979
-3.6199884	vikandthank	-0.02839979
-2.8269277	much	-0.02839979
-3.6199884	harrison	-0.02839979
-3.6199884	fordthank	-0.02839979
-2.6464553	answer	-0.09632308
-3.3763297	can	-0.02839979
-3.6199884	theater	-0.02839979
-3.6199884	friday	-0.02839979
-3.6199884	best	-0.02839979
-3.6199884	chri	-0.02839979
-3.6199884	pinedefinit	-0.02839979
-3.6199884	rank	-0.02839979
-3.6199884	astra	-0.02839979
-3.6199884	zoom	-0.02839979
-3.6199884	simpson	-0.02839979
-3.6199884	jessica	-0.02839979
-3.6199884	jonesfish	-0.02839979
-3.6199884	mooney	-0.02839979
-3.6199884	gothamlash	-0.02839979
-3.3763297	agent	-0.02839979
-3.6199884	h	-0.02839979
-3.6199884	e	-0.02839979
-3.6199884	l	-0.02839979
-3.6199884	ddotti	-0.02839979
-3.6199884	underwood	-0.02839979
-3.6199884	cartertaylor	-0.02839979
-3.6199884	swift	-0.02839979
-3.3763297	squad	-0.02839979
-3.3763297	bigger	-0.02839979
-3.6199884	boast	-0.02839979
-3.6199884	supermodel	-0.02839979
-3.6199884	singer	-0.02839979
-3.6199884	quit	-0.02839979
-3.6199884	coven	-0.02839979
-3.6199884	place	-0.02839979
-3.6199884	quizthank	-0.02839979
-3.6199884	tomblr	-0.02839979
-3.3763297	tom	-0.1768751
-3.6199884	hank	-0.02839979
-3.6199884	blasthypothet	-0.02839979
-3.6199884	guardian	-0.02839979
-3.6199884	galaxi	-0.02839979
-3.6199884	awesom	-0.02839979
-3.6199884	mix	-0.02839979
-3.6199884	vol	-0.02839979
-3.6199884	enjoyew	-0.02839979
-3.6199884	paid	-0.02839979
-3.6199884	editori	-0.02839979
-3.6199884	websit	-0.02839979
-2.8269277	fall	-0.02839979
-2.6464553	applic	-0.02839979
-3.3763297	info	-0.02839979
-3.6199884	need	-0.02839979
-3.6199884	below	-0.02839979
-3.6199884	stay	-0.02839979
-3.6199884	tune	-0.02839979
-3.3763297	magazin	-0.02839979
-3.6199884	program	-0.02839979
-3.6199884	open	-0.02839979
-3.6199884	five	-0.02839979
-3.6199884	at	-0.02839979
-3.6199884	york	-0.02839979
-3.6199884	citi	-0.02839979
-3.6199884	strong	-0.02839979
-3.6199884	experi	-0.02839979
-3.6199884	media	-0.02839979
-3.6199884	internet	-0.02839979
-3.6199884	fluenci	-0.02839979
-3.6199884	gif	-0.02839979
-3.6199884	encycloped	-0.02839979
-3.6199884	meme	-0.02839979
-3.6199884	etc	-0.02839979
-3.6199884	are	-0.02839979
-3.6199884	pluse	-0.02839979
-3.6199884	what	-0.02839979
-3.6199884	edit	-0.02839979
-3.3763297	item	-0.02839979
-3.6199884	photo	-0.02839979
-3.6199884	galleri	-0.02839979
-3.6199884	may	-0.02839979
-3.6199884	end	-0.02839979
-3.6199884	bylin	-0.02839979
-3.6199884	assign	-0.02839979
-3.6199884	straightforward	-0.02839979
-3.3763297	news	-0.02839979
-3.6199884	other	-0.02839979
-3.6199884	creativ	-0.02839979
-3.6199884	opinion	-0.02839979
-3.6199884	base	-0.02839979
-3.3763297	piec	-0.02839979
-3.6199884	either	-0.02839979
-3.6199884	clear	-0.02839979
-3.6199884	factual	-0.02839979
-3.6199884	accur	-0.02839979
-3.3763297	line	-0.02839979
-3.6199884	decemb	-0.02839979
-3.6199884	juli	-0.02839979
-3.6199884	notifi	-0.02839979
-3.6199884	statu	-0.02839979
-3.6199884	within	-0.02839979
-3.6199884	pass	-0.02839979
-3.6199884	email	-0.02839979
-3.6199884	hillary_busi	-0.02839979
-3.6199884	comryan	-0.02839979
-3.6199884	seacrest	-0.02839979
-3.6199884	selena	-0.02839979
-3.6199884	song	-0.02839979
-3.6199884	head	-0.02839979
-3.6199884	honestliupdat	-0.02839979
-3.6199884	listen	-0.02839979
-3.6199884	feedback	-0.02839979
-3.6199884	updat	-0.02839979
-3.3763297	term	-0.1768751
-3.6199884	condit	-0.02839979
-3.6199884	fanuari	-0.02839979
-3.6199884	contest	-0.02839979
-3.6199884	our	-0.02839979
-3.6199884	longer	-0.02839979
-3.6199884	becom	-0.02839979
-3.6199884	sole	-0.02839979
-3.6199884	properti	-0.02839979
-3.6199884	sponsor	-0.02839979
-3.6199884	none	-0.02839979
-3.3763297	acknowledg	-0.1768751
-3.6199884	return	-0.02839979
-3.6199884	hard	-0.02839979
-3.6199884	winner	-0.02839979
-3.6199884	platform	-0.02839979
-3.6199884	showcas	-0.02839979
-3.6199884	innov	-0.02839979
-3.6199884	amaz	-0.02839979
-3.6199884	workmtv	-0.02839979
-3.6199884	award	-0.02839979
-3.6199884	drink	-0.02839979
-3.6199884	perfectdigit	-0.02839979
-3.6199884	untim	-0.02839979
-3.6199884	death	-0.02839979
-3.6199884	occupi	-0.02839979
-3.6199884	alt	-0.02839979
-3.6199884	rock	-0.02839979
-3.6199884	devote	-0.02839979
-3.6199884	two	-0.02839979
-3.6199884	decad	-0.02839979
-3.6199884	die	-0.02839979
-3.6199884	would	-0.02839979
-3.6199884	kurt	-0.02839979
-3.6199884	cobain	-0.02839979
-3.6199884	sound	-0.02839979
-3.6199884	cluebazingafinal	-0.02839979
-3.6199884	madelein	-0.02839979
-3.6199884	albright	-0.02839979
-3.6199884	forye	-0.02839979
-3.6199884	reasonamerican	-0.02839979
-3.3763297	hustl	-0.02839979
-3.3763297	graviti	-0.02839979
-3.6199884	tie	-0.02839979
-3.6199884	nod	-0.02839979
-3.6199884	apiec	-0.02839979
-3.6199884	slave	-0.02839979
-3.6199884	close	-0.02839979
-3.6199884	behind	-0.02839979
-3.6199884	nine	-0.02839979
-3.6199884	totalwe	-0.02839979
-3.6199884	lucki	-0.02839979
-3.6199884	ellen	-0.02839979
-3.6199884	danc	-0.02839979
-3.6199884	againthey	-0.02839979
-3.6199884	crack	-0.02839979
-3.6199884	tmz	-0.02839979
-3.6199884	cop	-0.02839979
-3.6199884	anyth	-0.02839979
-3.6199884	relev	-0.02839979
-3.3763297	egg	-0.02839979
-3.6199884	incid	-0.02839979
-3.6199884	greatest	-0.02839979
-3.6199884	storimove	-0.02839979
-3.6199884	rumor	-0.02839979
-3.6199884	month	-0.02839979
-3.6199884	mark	-0.02839979
-3.6199884	fox	-0.02839979
-3.6199884	confirm	-0.02839979
-3.6199884	ding	-0.02839979
-3.6199884	dong	-0.02839979
-3.6199884	choir	-0.02839979
-3.6199884	deadrowl	-0.02839979
-3.6199884	said	-0.02839979
-3.6199884	play	-0.02839979
-3.6199884	explor	-0.02839979
-3.6199884	untold	-0.02839979
-3.6199884	earli	-0.02839979
-3.6199884	orphan	-0.02839979
-3.6199884	outcast	-0.02839979
-3.6199884	oliv	-0.02839979
-3.6199884	repress	-0.02839979
-3.6199884	magicone	-0.02839979
-3.6199884	sick	-0.02839979
-3.6199884	gross	-0.02839979
-3.6199884	glib	-0.02839979
-3.6199884	tonal	-0.02839979
-3.6199884	gallow	-0.02839979
-3.6199884	humoryahoo	-0.02839979
-3.6199884	yahoo	-0.02839979
-3.6199884	answerfilm	-0.02839979
-3.6199884	ensembl	-0.02839979
-3.6199884	osag	-0.02839979
-3.6199884	counti	-0.02839979
-3.3763297	dalla	-0.1768751
-3.6199884	buyer	-0.02839979
-3.6199884	club	-0.02839979
-3.3763297	butler	-0.1768751
-3.6199884	lead	-0.02839979
-3.6199884	actor	-0.02839979
-3.6199884	bruce	-0.02839979
-3.6199884	dern	-0.02839979
-3.6199884	nebraska	-0.02839979
-3.6199884	chiwetel	-0.02839979
-3.6199884	ejiofor	-0.02839979
-3.6199884	captain	-0.02839979
-3.6199884	phillip	-0.02839979
-3.6199884	matthew	-0.02839979
-3.6199884	mcconaughey	-0.02839979
-3.6199884	forest	-0.02839979
-3.6199884	whitak	-0.02839979
-3.6199884	cate	-0.02839979
-3.6199884	blanchett	-0.02839979
-3.6199884	blue	-0.02839979
-3.6199884	jasmin	-0.02839979
-3.6199884	sandra	-0.02839979
-3.6199884	bullock	-0.02839979
-3.6199884	judi	-0.02839979
-3.6199884	dench	-0.02839979
-3.6199884	philomena	-0.02839979
-3.6199884	meryl	-0.02839979
-3.6199884	streep	-0.02839979
-3.6199884	emma	-0.02839979
-3.6199884	thompson	-0.02839979
-3.6199884	save	-0.02839979
-3.6199884	mr	-0.02839979
-3.6199884	bank	-0.02839979
-3.6199884	list	-0.02839979

\2-grams:
-2.0895202	com </s>
-1.1970528	<s> scream	-0.09120341
-1.1970528	scream queen	-0.09120341
-1.1970528	queen cancel	-0.09120341
-1.1970528	cancel foxus	-0.09120341
-1.1843235	foxus find	-0.09120341
-1.1843235	globe find	-0.09120341
-2.1040914	ll find	-0.09120341
-1.1843235	coven find	-0.09120341
-1.7945285	find twitch	-0.09120341
-1.1970528	twitch stream	-0.09120341
-1.1180562	stream digit	-0.09120341
-0.987127	digit digit	-0.06887897
-1.1180562	throne digit	-0.038034953
-1.9024158	<eos> digit	-0.09120341
-1.3511746	alreadi digit	-0.09120341
-1.1180562	march digit	-0.038034953
-1.570971	august digit	-0.038034953
-1.4685518	week digit	-0.038034953
-1.1180562	letter digit	-0.105769835
-1.1180562	feb digit	-0.09120341
-1.3511746	cast digit	-0.09120341
-1.1180562	drop digit	-0.09120341
-1.4685518	day digit	-0.09120341
-1.4685518	much digit	-0.09120341
-1.1180562	decemb digit	-0.09120341
-1.1180562	juli digit	-0.09120341
-1.1180562	nod digit	-0.09120341
-1.1180562	apiec digit	-0.09120341
-1.1180562	ejiofor digit	-0.09120341
-2.5319617	digit episod	-0.09120341
-1.1958983	episod origin	-0.09120341
-1.4942515	submit origin	-0.09120341
-1.4808857	origin power	-0.09120341
-1.4808857	great power	-0.09120341
-1.1891227	quit power	-0.09120341
-1.6711124	power ranger	-0.09120341
-1.1795769	ranger tv	-0.09120341
-1.6209974	cover tv	-0.038034953
-1.7291293	movi tv	-0.09120341
-1.4623898	post tv	-0.038034953
-1.1795769	galleri tv	-0.09120341
-1.8907992	tv seribeyoncéstay	-0.09120341
-1.1843235	seribeyoncéstay late	-0.09120341
-1.4715393	when late	-0.09120341
-1.1843235	originstay late	-0.09120341
-1.1843235	chang late	-0.09120341
-0.7757143	late wait	-0.038034953
-1.6676824	ve wait	-0.09120341
-0.8723693	tv recap	-0.05504467
-1.4942515	wait recap	-0.038034953
-1.6676824	recap game	-0.038034953
-1.1958983	drink game	-0.09120341
-1.4965492	game throne	-0.038034953
-2.5319617	digit mindi	-0.038034953
-1.1958983	mindi project	-0.038034953
-1.4942515	research project	-0.038034953
-1.4534291	project go	-0.038034953
-2.3971565	<eos> go	-0.09120341
-2.221726	s go	-0.09120341
-1.4534291	parti go	-0.09120341
-1.4534291	never go	-0.09120341
-1.4534291	can go	-0.09120341
-1.9675901	go onlin	-0.09120341
-1.3477619	digit <eos>	-0.09120341
-1.082766	onlin <eos>	-0.09120341
-0.9419589	figur <eos>	-0.038034953
-0.9419589	potter <eos>	-0.038034953
-1.1420757	entertain <eos>	-0.09120341
-0.41113648	well <eos>	-0.06914898
-1.1750731	music <eos>	-0.09120341
-1.1420757	book <eos>	-0.09120341
-0.9419589	on <eos>	-0.038034953
-1.2298069	com <eos>	-0.09120341
-1.082766	live <eos>	-0.09120341
-1.082766	celebr <eos>	-0.09120341
-1.205837	read <eos>	-0.09120341
-1.2616177	year <eos>	-0.09120341
-0.80247855	do <eos>	-0.09120341
-1.1961464	hope <eos>	-0.09120341
-1.1750731	think <eos>	-0.09120341
-1.1750731	famili <eos>	-0.09120341
-0.9419589	shine <eos>	-0.09120341
-1.082766	submit <eos>	-0.09120341
-1.2384388	you <eos>	-0.09120341
-0.5781053	sir <eos>	-0.09120341
-0.9419589	out <eos>	-0.09120341
-1.1750731	men <eos>	-0.09120341
-1.1961464	night <eos>	-0.09120341
-1.2708727	t <eos>	-0.09120341
-0.9419589	from <eos>	-0.09120341
-0.9419589	father <eos>	-0.09120341
-1.3763106	it <eos>	-0.09120341
-0.9419589	horribl <eos>	-0.09120341
-1.082766	idea <eos>	-0.09120341
-0.9419589	too <eos>	-0.09120341
-0.9419589	nationalist <eos>	-0.09120341
-0.9419589	buffoon <eos>	-0.09120341
-0.9419589	everywher <eos>	-0.09120341
-1.082766	voic <eos>	-0.09120341
-0.9419589	how <eos>	-0.09120341
-1.082766	room <eos>	-0.09120341
-0.9419589	k <eos>	-0.09120341
-0.9419589	legion <eos>	-0.09120341
-0.9419589	react <eos>	-0.09120341
-0.9419589	overnight <eos>	-0.09120341
-0.9419589	recess <eos>	-0.09120341
-1.082766	fear <eos>	-0.09120341
-0.9419589	shoe <eos>	-0.09120341
-0.9419589	jew <eos>	-0.09120341
-0.4308998	headquart <eos>	-0.09120341
-0.5781053	now <eos>	-0.09120341
-0.9419589	alon <eos>	-0.09120341
-0.9419589	bed <eos>	-0.09120341
-0.9419589	canada <eos>	-0.09120341
-1.2215526	fight <eos>	-0.09120341
-1.082766	there <eos>	-0.09120341
-0.9419589	voiceless <eos>	-0.09120341
-1.082766	good <eos>	-0.09120341
-0.9419589	involv <eos>	-0.09120341
-0.9419589	sleev <eos>	-0.09120341
-0.9419589	choos <eos>	-0.09120341
-1.082766	opportun <eos>	-0.09120341
-0.4308998	crime <eos>	-0.09120341
-0.9419589	begun <eos>	-0.09120341
-0.49581042	question <eos>	-0.09120338
-0.67596024	answer <eos>	-0.038034953
-0.9419589	friday <eos>	-0.09120341
-0.9419589	zoom <eos>	-0.09120341
-1.082766	bigger <eos>	-0.09120341
-1.082766	hank <eos>	-0.09120341
-0.9419589	vol <eos>	-0.09120341
-1.1420757	fall <eos>	-0.09120341
-1.082766	piec <eos>	-0.09120341
-0.9419589	pass <eos>	-0.09120341
-0.9419589	head <eos>	-0.09120341
-2.4746392	<eos> love	-0.09120341
-1.8824061	do love	-0.09120341
-1.1795769	everyon love	-0.09120341
-1.1795769	again love	-0.09120341
-1.1795769	sick love	-0.09120341
-0.86747295	love take	-0.038034953
-1.6342422	harri take	-0.09120341
-1.4715393	expect take	-0.09120341
-1.4715393	never take	-0.09120341
-1.789977	take deep	-0.038034953
-1.4942515	predict deep	-0.09120341
-1.4965492	deep dive	-0.038034953
-1.1970528	dive weekend	-0.038034953
-1.1970528	weekend box	-0.038034953
-1.1958983	box offic	-0.038034953
-1.4942515	state offic	-0.09120341
-1.4965492	offic figur	-0.038034953
-3.01027	<eos> still	-0.038034953
-1.1958983	still complet	-0.038034953
-1.4942515	alreadi complet	-0.038034953
-1.4965492	complet obsess	-0.038034953
-1.1891227	obsess harri	-0.038034953
-1.8521552	stori harri	-0.09120341
-1.1891227	kamala harri	-0.09120341
-1.6711124	harri potter	-0.038034953
-1.221297	<eos> we	-0.16537231
-1.9316889	ew we	-0.038034953
-1.4970138	candid we	-0.09120341
-1.0737048	year we	-0.038034953
-1.885257	s we	-0.09120341
-1.6934861	do we	-0.09120341
-1.5756754	show we	-0.09120341
-1.7292438	us we	-0.09120341
-1.6544925	way we	-0.09120341
-1.3727256	so we	-0.09120341
-1.3727256	rememb we	-0.09120341
-1.3727256	neither we	-0.09120341
-1.1305254	powerless we	-0.09120341
-1.1305254	off we	-0.09120341
-1.1305254	honestliupdat we	-0.09120341
-1.1305254	death we	-0.09120341
-1.8974186	go re	-0.09120341
-0.567173	we re	-0.12563764
-1.1843235	totalwe re	-0.09120341
-1.1843235	againthey re	-0.09120341
-2.11208	re entertain	-0.038034953
-1.4808857	passion entertain	-0.09120341
-1.1891227	career entertain	-0.038034953
-1.6711124	entertain geek	-0.038034953
-1.5602303	recap ew	-0.09120341
-1.1565919	geek ew	-0.038034953
-1.6526185	intern ew	-0.09120341
-1.4193281	pitch ew	-0.038034953
-1.1565919	smith ew	-0.038034953
-1.1565919	clark ew	-0.038034953
-1.1565919	obtain ew	-0.09120341
-1.4193281	line ew	-0.09120341
-1.1565919	hillary_busi ew	-0.09120341
-1.1565919	list ew	-0.09120341
-2.0734384	re look	-0.06380604
-1.9988385	com look	-0.09120341
-1.1843235	aspir look	-0.09120341
-1.1843235	cop look	-0.09120341
-1.9227983	look recent	-0.038034953
-1.1891227	hourwho recent	-0.038034953
-1.1891227	open recent	-0.09120341
-0.426166	recent graduat	-0.04816063
-1.6676824	graduat passion	-0.038034953
-1.4942515	skill passion	-0.09120341
-1.4942515	passion pop	-0.038034953
-1.1958983	breath pop	-0.038034953
-0.47535062	pop cultur	-0.038034953
-1.4534291	cultur well	-0.038034953
-1.4534291	editor well	-0.038034953
-1.4534291	internship well	-0.09120341
-1.1748816	girl well	-0.09120341
-1.4534291	magazin well	-0.09120341
-1.1748816	pluse well	-0.09120341
-1.9706155	well vers	-0.038034953
-1.4808857	complet least	-0.038034953
-1.1891227	vers least	-0.038034953
-1.7690796	answer least	-0.09120341
-0.65129614	least one	-0.038034953
-1.4965492	one area	-0.038034953
-1.1891227	area cover	-0.038034953
-1.8521552	stori cover	-0.038034953
-0.47427282	resum cover	-0.105769835
-1.8377508	tv movi	-0.038034953
-1.1843235	attend movi	-0.038034953
-1.1843235	celeb movi	-0.09120341
-1.1843235	workmtv movi	-0.09120341
-1.7461929	movi music	-0.038034953
-2.3375022	s music	-0.09120341
-2.0386927	american music	-0.09120341
-1.1843235	rap music	-0.09120341
-1.789977	music book	-0.09120341
-1.4942515	line book	-0.09120341
-2.6897593	<eos> daili	-0.09120341
-1.7639546	take daili	-0.09120341
-1.6479036	book daili	-0.09120341
-0.65129614	daili respons	-0.038034953
-1.1891227	respons includ	-0.038034953
-1.4808857	washington includ	-0.09120341
-1.1891227	incid includ	-0.09120341
-1.6711124	includ usual	-0.038034953
-1.1958983	usual entri	-0.038034953
-0.6510307	read entri	-0.09120341
-1.6711124	entri level	-0.038034953
-1.1958983	level task	-0.038034953
-1.1958983	excit task	-0.038034953
-1.4965492	task transcrib	-0.038034953
-1.1958983	transcrib interview	-0.038034953
-1.4942515	item interview	-0.09120341
-1.4965492	interview assist	-0.038034953
-1.1958983	assist research	-0.038034953
-1.1958983	impecc research	-0.038034953
-1.4965492	project maintain	-0.038034953
-1.1970528	maintain databas	-0.038034953
-1.1958983	databas motiv	-0.038034953
-1.1958983	self motiv	-0.038034953
-1.9963199	<eos> intern	-0.105769835
-1.4715393	motiv intern	-0.038034953
-1.1843235	editori intern	-0.09120341
-1.1843235	edit intern	-0.09120341
-1.7945285	intern dispatch	-0.038034953
-1.1970528	dispatch short	-0.038034953
-1.1970528	short order	-0.038034953
-1.1958983	order move	-0.038034953
-1.4942515	talk move	-0.09120341
-1.4965492	move excit	-0.038034953
-1.8507173	look write	-0.09120341
-1.4534291	task write	-0.038034953
-1.7127107	report write	-0.038034953
-1.9406435	com write	-0.09120341
-2.221726	s write	-0.09120341
-1.1748816	strong write	-0.09120341
-0.95188916	write blog	-0.105769835
-1.1970528	blog post	-0.05504467
-1.6342422	recap report	-0.038034953
-1.4715393	research report	-0.038034953
-1.9044735	write report	-0.09120341
-1.4715393	post report	-0.09120341
-1.8191557	love stori	-0.09120341
-1.7291293	report stori	-0.038034953
-2.0058377	american stori	-0.09120341
-1.4623898	news stori	-0.09120341
-1.1795769	untold stori	-0.09120341
-1.6676824	cover red	-0.038034953
-1.789977	see red	-0.09120341
-0.47535062	red carpet	-0.05504467
-1.4965492	carpet attend	-0.038034953
-1.7945285	movi screen	-0.038034953
-1.1970528	screen on	-0.038034953
-1.7945285	intern expect	-0.05504467
-1.4942515	expect pitch	-0.038034953
-1.1958983	assign pitch	-0.09120341
-0.29022065	ew com	-0.058528014
-1.1958983	enjoyew com	-0.09120341
-2.0805883	com editor	-0.038034953
-1.1958983	print editor	-0.038034953
-1.4965492	editor print	-0.038034953
-3.01027	<eos> ideal	-0.038034953
-1.1891227	ideal candid	-0.038034953
-2.11208	time candid	-0.09120341
-1.1891227	hell candid	-0.09120341
-1.6676824	candid live	-0.038034953
-1.1958983	adult live	-0.09120341
-1.4965492	live breath	-0.038034953
-1.4965492	cultur self	-0.038034953
-1.4965492	motiv impecc	-0.038034953
-1.9623386	write skill	-0.038034953
-1.789977	report skill	-0.09120341
-1.4942515	skill alreadi	-0.038034953
-1.4942515	news alreadi	-0.09120341
-1.4942515	one internship	-0.038034953
-1.4942515	magazin internship	-0.09120341
-2.946674	<eos> when	-0.09120341
-1.4942515	internship when	-0.038034953
-1.4965492	when march	-0.038034953
-2.346839	digit august	-0.038034953
-1.7536672	late august	-0.09120341
-1.4715393	hustl august	-0.09120341
-1.1843235	streep august	-0.09120341
-1.300818	digit hour	-0.102082185
-1.1891227	spend hour	-0.09120341
-0.47427282	finest hour	-0.09120341
-1.8842587	hour week	-0.05504467
-1.1958983	within week	-0.09120341
-2.5319617	digit hourwho	-0.038034953
-1.6711124	graduat interest	-0.038034953
-1.1970528	interest career	-0.038034953
-1.6711124	entertain journalismhow	-0.038034953
-2.6897593	<eos> appli	-0.09120341
-1.8521552	hour appli	-0.09120341
-1.1891227	journalismhow appli	-0.038034953
-0.65129614	appli pleas	-0.05504467
-1.4965492	pleas send	-0.038034953
-1.1958983	send resum	-0.038034953
-1.1958983	email resum	-0.09120341
-1.6711124	cover letter	-0.105769835
-2.5117803	digit previous	-0.105769835
-1.1958983	explor previous	-0.09120341
-1.4965492	previous publish	-0.105769835
-1.1970528	publish clip	-0.05504467
-1.4965492	clip molli	-0.038034953
-1.1970528	molli smith	-0.038034953
-2.0895202	com noelen	-0.038034953
-1.1970528	noelen clark	-0.038034953
-2.0311482	com deadlin	-0.038034953
-1.6479036	week deadlin	-0.09120341
-1.7639546	applic deadlin	-0.09120341
-1.6711124	deadlin feb	-0.038034953
-2.5319617	digit digitthe	-0.09120341
-1.1970528	digitthe academi	-0.09120341
-1.1958983	academi celebr	-0.09120341
-1.1958983	caus celebr	-0.09120341
-1.4965492	celebr achiev	-0.09120341
-1.1958983	achiev art	-0.09120341
-1.789977	fan art	-0.09120341
-1.4942515	art filmmak	-0.09120341
-1.4942515	support filmmak	-0.09120341
-1.4965492	filmmak seek	-0.09120341
-1.1970528	seek transcend	-0.09120341
-1.1970528	transcend border	-0.09120341
-2.946674	<eos> speak	-0.09120341
-1.1958983	border speak	-0.09120341
-1.4965492	speak audienc	-0.09120341
-1.1891227	audienc around	-0.09120341
-1.8521552	peopl around	-0.09120341
-1.1891227	billion around	-0.09120341
-1.8887476	well world	-0.09120341
-0.64610314	around world	-0.09120341
-1.790161	and world	-0.09120341
-1.4534291	children world	-0.09120341
-1.4534291	knowledg world	-0.09120341
-1.1748816	fought world	-0.09120341
-2.03303	world regardless	-0.09120341
-1.1970528	regardless nation	-0.09120341
-1.1970528	nation ethnic	-0.09120341
-1.1970528	ethnic religi	-0.09120341
-1.1958983	religi differ	-0.09120341
-1.4942515	women differ	-0.09120341
-1.4942515	differ statement	-0.09120341
-1.1958983	said statement	-0.09120341
-1.4965492	statement obtain	-0.09120341
-2.1531618	ew read	-0.09120341
-1.1891227	longer read	-0.09120341
-1.4808857	return read	-0.09120341
-3.01027	<eos> as	-0.09120341
-1.1958983	as support	-0.09120341
-2.1800725	it support	-0.09120341
-2.4746392	<eos> and	-0.09120341
-1.4623898	filmmak and	-0.09120341
-1.9253289	world and	-0.09120341
-1.1795769	ha and	-0.09120341
-1.1795769	critic and	-0.09120341
-1.8899211	and human	-0.09120341
-1.1748816	human right	-0.09120341
-1.1748816	inalien right	-0.09120341
-1.7127107	men right	-0.09120341
-1.4534291	d right	-0.09120341
-1.1748816	nixon right	-0.09120341
-1.4534291	keep right	-0.09120341
-1.8734405	right peopl	-0.09120341
-1.1795769	difficult peopl	-0.09120341
-1.7291293	see peopl	-0.09120341
-1.1795769	million peopl	-0.09120341
-1.1795769	sure peopl	-0.09120341
-1.6719967	around globe	-0.09120341
-1.789977	find extrem	-0.09120341
-2.946674	<eos> extrem	-0.09120341
-1.4965492	extrem troubl	-0.09120341
-1.1970528	troubl asghar	-0.09120341
-1.1970528	asghar farhadi	-0.09120341
-1.1970528	farhadi director	-0.09120341
-1.1958983	director oscar	-0.09120341
-2.5351083	s oscar	-0.09120341
-1.4808857	oscar win	-0.09120341
-2.2074375	t win	-0.09120341
-2.1456985	ll win	-0.09120341
-1.6676824	win film	-0.09120341
-1.4942515	nomin film	-0.09120341
-1.4965492	film iran	-0.09120341
-1.1970528	iran separ	-0.09120341
-1.1970528	separ along	-0.09120341
-1.1958983	along cast	-0.09120341
-1.1958983	ensembl cast	-0.09120341
-1.4965492	cast crew	-0.09120341
-1.2806615	digit year	-0.105769835
-1.1702365	crew year	-0.09120341
-0.42304757	four year	-0.09120338
-1.7713183	make year	-0.09120341
-1.1702365	three year	-0.09120341
-1.1702365	perfectdigit year	-0.09120341
-1.1702365	earli year	-0.09120341
-1.8922119	digit s	-0.09120341
-1.4778333	harri s	-0.09120341
-1.4778333	book s	-0.09120341
-1.6969966	com s	-0.09120341
-1.7345159	year s	-0.09120341
-1.1221728	carri s	-0.09120341
-1.1221728	fanit s	-0.09120341
-1.1221728	that s	-0.09120341
-0.4935867	it s	-0.09120338
-0.7503541	trump s	-0.09120341
-1.4778333	who s	-0.09120341
-1.35824	room s	-0.09120341
-0.46446854	here s	-0.09120341
-1.35824	there s	-0.09120341
-1.35824	agent s	-0.09120341
-1.1221728	swift s	-0.09120341
-1.1221728	selena s	-0.09120341
-1.1221728	cobain s	-0.09120341
-1.4942515	oscar nomin	-0.09120341
-1.1958983	nine nomin	-0.09120341
-1.4965492	film salesman	-0.09120341
-1.1970528	salesman could	-0.09120341
-1.1970528	could bar	-0.09120341
-1.1970528	bar enter	-0.09120341
-1.1843235	enter countri	-0.09120341
-1.1843235	religion countri	-0.09120341
-1.1843235	home countri	-0.09120341
-1.1843235	granddaught countri	-0.09120341
-1.7945285	countri religion	-0.09120341
-1.7945285	countri originstay	-0.09120341
-1.4623898	onlin do	-0.09120341
-1.4623898	realli do	-0.09120341
-1.8191557	way do	-0.09120341
-2.0661242	ll do	-0.09120341
-1.4623898	so do	-0.09120341
-2.5319617	digit digitcarri	-0.09120341
-1.1958983	digitcarri friend	-0.09120341
-1.789977	famili friend	-0.09120341
-1.4965492	friend adult	-0.09120341
-1.4965492	extrem smart	-0.09120341
-1.1970528	smart talent	-0.09120341
-1.1891227	talent actress	-0.09120341
-1.1891227	supermodel actress	-0.09120341
-1.4808857	lead actress	-0.09120341
-0.65129614	actress writer	-0.09120341
-1.4965492	writer comedienn	-0.09120341
-1.4942515	differ color	-0.09120341
-1.1958983	comedienn color	-0.09120341
-1.4942515	color person	-0.09120341
-1.4942515	past person	-0.09120341
-1.4965492	person everyon	-0.09120341
-1.8857789	love in	-0.09120341
-1.6676824	win in	-0.09120341
-1.4965492	in star	-0.09120341
-2.0251777	world war	-0.09120341
-1.1958983	star war	-0.09120341
-1.4942515	war great	-0.09120341
-1.8842587	make great	-0.09120341
-1.6711124	power princess	-0.09120341
-1.1970528	princess feisti	-0.09120341
-1.1970528	feisti wise	-0.09120341
-1.1891227	wise full	-0.09120341
-1.7639546	see full	-0.09120341
-1.7639546	work full	-0.09120341
-2.4746392	<eos> hope	-0.09120341
-1.6209974	full hope	-0.09120341
-1.7387832	truli hope	-0.09120341
-1.4623898	given hope	-0.09120341
-1.6209974	much hope	-0.09120341
-1.8899211	hope role	-0.09120341
-1.1970528	role difficult	-0.09120341
-1.8521552	peopl might	-0.09120341
-1.1891227	charact might	-0.09120341
-1.1891227	ellen might	-0.09120341
-1.6342422	might think	-0.09120341
-1.7461929	men think	-0.09120341
-2.1618254	t think	-0.09120341
-1.1843235	call think	-0.09120341
-3.01027	<eos> heart	-0.09120341
-1.1970528	heart prayer	-0.09120341
-1.1970528	prayer billi	-0.09120341
-1.1970528	billi debbi	-0.09120341
-1.1970528	debbi carri	-0.09120341
-2.5690136	<eos> famili	-0.09120341
-2.3375022	s famili	-0.09120341
-1.6342422	life famili	-0.09120341
-1.9524468	fight famili	-0.09120341
-1.4965492	friend fanit	-0.09120341
-1.5095536	s time	-0.09120341
-1.5956614	full time	-0.09120341
-0.7191922	first time	-0.09120338
-1.1702365	sixth time	-0.09120341
-1.1702365	took time	-0.09120341
-1.4446496	lose time	-0.09120341
-1.7104633	answer time	-0.09120341
-2.1834424	time shine	-0.09120341
-2.946674	<eos> submit	-0.09120341
-1.1958983	hard submit	-0.09120341
-1.4715393	origin fan	-0.09120341
-2.3375022	s fan	-0.09120341
-1.7461929	fan fan	-0.09120341
-1.1843235	fanuari fan	-0.09120341
-1.4965492	art favorit	-0.09120341
-1.1970528	favorit celeb	-0.09120341
-1.8377508	tv show	-0.09120341
-1.8304923	hope show	-0.09120341
-1.1843235	share show	-0.09120341
-1.1843235	albright show	-0.09120341
-1.789977	fan fiction	-0.09120341
-1.789977	show fiction	-0.09120341
-1.4965492	fiction charact	-0.09120341
-1.6342422	might see	-0.09120341
-1.6342422	want see	-0.09120341
-1.1843235	anywher see	-0.09120341
-1.1843235	bank see	-0.09120341
-1.4965492	carpet criticschoiceaward	-0.09120341
-2.1723812	time a	-0.09120341
-1.1958983	criticschoiceaward a	-0.09120341
-1.4965492	a ewe	-0.09120341
-1.1970528	ewe messag	-0.09120341
-2.4746392	<eos> you	-0.09120341
-1.6310368	appli you	-0.09120341
-1.1795769	messag you	-0.09120341
-1.1795769	welcom you	-0.09120341
-1.4623898	neither you	-0.09120341
-2.3829963	we sir	-0.09120341
-1.9227983	right sir	-0.09120341
-1.8571779	you sir	-0.09120341
-1.8899211	hope hear	-0.09120341
-1.1702365	hear us	-0.09120341
-1.914231	us us	-0.09120341
-1.4446496	join us	-0.09120341
-0.47163665	protect us	-0.09120341
-1.1702365	defend us	-0.09120341
-1.1702365	behalf us	-0.09120341
-1.5956614	like us	-0.09120341
-2.0895202	us out	-0.09120341
-3.01027	<eos> vice	-0.09120341
-2.0788891	year presid	-0.09120341
-1.1891227	vice presid	-0.09120341
-1.7690796	trump presid	-0.09120341
-1.6711124	presid elect	-0.09120341
-1.1970528	elect penc	-0.09120341
-1.1970528	penc welcom	-0.09120341
-2.5690136	<eos> truli	-0.09120341
-2.3413653	we truli	-0.09120341
-1.8377508	you truli	-0.09120341
-1.4715393	thi truli	-0.09120341
-0.77608913	truli thank	-0.09120341
-1.4942515	thank join	-0.09120341
-1.1958983	quizthank join	-0.09120341
-2.0895202	us hamilton	-0.09120341
-1.1610926	hamilton american	-0.09120341
-1.4276056	uphold american	-0.09120341
-1.1610926	wonder american	-0.09120341
-1.4276056	thing american	-0.09120341
-1.1610926	muslim american	-0.09120341
-1.1610926	mexican american	-0.09120341
-1.1610926	african american	-0.09120341
-1.4276056	stop american	-0.09120341
-1.5717224	slave american	-0.09120341
-2.946674	<eos> realli	-0.09120341
-2.1723812	re realli	-0.09120341
-1.669221	sir divers	-0.09120341
-1.1958983	told divers	-0.09120341
-1.8304923	peopl america	-0.09120341
-1.4715393	divers america	-0.09120341
-1.6342422	up america	-0.09120341
-1.4715393	stop america	-0.09120341
-1.7945285	america alarm	-0.09120341
-1.1970528	alarm anxiou	-0.09120341
-1.1958983	anxiou new	-0.09120341
-1.1958983	at new	-0.09120341
-1.4965492	new administr	-0.09120341
-1.1958983	administr protect	-0.09120341
-2.2802103	t protect	-0.09120341
-2.0895202	us planet	-0.09120341
-1.1958983	planet children	-0.09120341
-1.1958983	front children	-0.09120341
-1.4965492	children parent	-0.09120341
-1.1970528	parent defend	-0.09120341
-2.0805883	us uphold	-0.09120341
-1.1958983	inspir uphold	-0.09120341
-1.4965492	uphold inalien	-0.09120341
-1.7945285	show inspir	-0.09120341
-2.1391764	american valu	-0.09120341
-1.6342422	graduat work	-0.09120341
-1.7461929	intern work	-0.09120341
-1.1843235	valu work	-0.09120341
-1.4715393	piec work	-0.09120341
-1.7945285	work behalf	-0.09120341
-1.4965492	thank share	-0.09120341
-1.789977	show thi	-0.09120341
-2.1800725	it thi	-0.09120341
-1.4965492	thi wonder	-0.09120341
-1.8899211	stori told	-0.09120341
-1.4942515	divers group	-0.09120341
-1.1958983	singer group	-0.09120341
-2.5690136	<eos> men	-0.09120341
-1.4715393	group men	-0.09120341
-1.4715393	white men	-0.09120341
-1.1843235	stupid men	-0.09120341
-1.789977	think women	-0.09120341
-1.789977	men women	-0.09120341
-1.4965492	color creed	-0.09120341
-1.1970528	creed orientsorkin	-0.09120341
-1.1970528	orientsorkin girl	-0.09120341
-2.03303	world chang	-0.09120341
-1.7387832	late last	-0.09120341
-1.7291293	america last	-0.09120341
-1.7387832	trump last	-0.09120341
-1.1795769	klan last	-0.09120341
-1.1795769	tear last	-0.09120341
-0.20419098	last night	-0.09120341
-1.8098587	night way	-0.09120341
-1.1795769	threat way	-0.09120341
-1.1795769	reason way	-0.09120341
-1.1795769	exactli way	-0.038034953
-1.1795769	either way	-0.09120341
-1.8907992	way couldn	-0.09120341
-1.1610926	couldn t	-0.09120341
-1.1610926	won t	-0.09120341
-0.42194483	didn t	-0.05504467
-1.1610926	wasn t	-0.09120341
-1.1610926	wouldn t	-0.09120341
-0.42194483	don t	-0.09120338
-1.1610926	aren t	-0.09120341
-1.1610926	isn t	-0.09120341
-1.4276056	can t	-0.09120341
-2.0895202	us from	-0.09120341
-3.01027	<eos> that	-0.09120341
-2.5604265	s terribl	-0.09120341
-1.9813715	world feel	-0.09120341
-1.1891227	terribl feel	-0.09120341
-1.4808857	parti feel	-0.09120341
-1.6719967	feel father	-0.09120341
-2.0775821	<eos> won	-0.038034953
-2.2937965	t sugarcoat	-0.09120341
-1.853444	<eos> it	-0.038034953
-1.6526185	see it	-0.09120341
-1.7192487	night it	-0.09120341
-1.1565919	sugarcoat it	-0.09120341
-1.1565919	fact it	-0.09120341
-1.1565919	languag it	-0.09120341
-1.1565919	whether it	-0.09120341
-1.1565919	honey it	-0.09120341
-1.1565919	over it	-0.09120341
-1.1565919	confirm it	-0.09120341
-1.7954097	truli horribl	-0.09120341
-2.5604265	s hardli	-0.09120341
-1.8614061	do first	-0.09120341
-2.0051544	time first	-0.09120341
-1.1748816	hardli first	-0.09120341
-2.031211	ll first	-0.09120341
-1.8998051	fight first	-0.09120341
-1.1748816	mark first	-0.09120341
-1.6479036	candid didn	-0.09120341
-1.7639546	america didn	-0.09120341
-1.8521552	night didn	-0.09120341
-1.4965492	in fact	-0.09120341
-2.5604265	s sixth	-0.09120341
-2.1834424	time thoroughli	-0.09120341
-1.1970528	thoroughli incompet	-0.09120341
-1.1970528	incompet pig	-0.09120341
-1.1970528	pig danger	-0.09120341
-1.4942515	pitch idea	-0.09120341
-1.1958983	danger idea	-0.09120341
-1.4965492	idea seriou	-0.09120341
-1.1970528	seriou psychiatr	-0.09120341
-1.1970528	psychiatr disord	-0.09120341
-1.1958983	disord knowledg	-0.09120341
-1.1958983	encycloped knowledg	-0.09120341
-2.03303	world curios	-0.09120341
-1.1970528	curios learn	-0.09120341
-1.1970528	learn ha	-0.09120341
-1.8899211	and wasn	-0.09120341
-2.2802103	t donald	-0.09120341
-1.1958983	mani donald	-0.09120341
-0.47427282	donald trump	-0.09120341
-1.1891227	member trump	-0.09120341
-1.1891227	effect trump	-0.09120341
-1.4965492	support too	-0.09120341
-3.01027	<eos> klan	-0.09120341
-2.946674	<eos> white	-0.09120341
-1.4942515	young white	-0.09120341
-1.4965492	white nationalist	-0.09120341
-3.01027	<eos> sexist	-0.09120341
-1.1970528	sexist racist	-0.09120341
-1.1970528	racist buffoon	-0.09120341
-3.01027	<eos> angri	-0.09120341
-1.1958983	angri young	-0.09120341
-1.1958983	die young	-0.09120341
-1.7945285	think rap	-0.09120341
-1.7945285	music cinco	-0.09120341
-1.1970528	cinco de	-0.09120341
-1.1970528	de mayo	-0.09120341
-1.1970528	mayo threat	-0.09120341
-1.4942515	great life	-0.09120341
-0.8723693	way life	-0.09120341
-1.6711124	life or	-0.09120341
-1.1970528	or reason	-0.09120341
-1.6676824	life given	-0.09120341
-1.4942515	hate given	-0.09120341
-1.4965492	given caus	-0.09120341
-1.9675901	right call	-0.09120341
-1.4965492	women aspir	-0.09120341
-1.9675901	look hot	-0.09120341
-1.1970528	hot shrill	-0.09120341
-1.1970528	shrill ugli	-0.09120341
-1.1970528	ugli otherwis	-0.09120341
-1.1970528	otherwis worthi	-0.09120341
-1.1970528	worthi scorn	-0.09120341
-1.1970528	scorn rather	-0.09120341
-1.1970528	rather admir	-0.09120341
-1.1970528	admir struck	-0.09120341
-1.1970528	struck blow	-0.09120341
-1.1970528	blow misogynist	-0.09120341
-1.1970528	misogynist shithead	-0.09120341
-1.1970528	shithead everywher	-0.09120341
-2.946674	<eos> hate	-0.09120341
-1.1958983	shape hate	-0.09120341
-3.01027	<eos> abject	-0.09120341
-1.1970528	abject dumb	-0.09120341
-1.1970528	dumb glamor	-0.09120341
-1.1958983	glamor the	-0.09120341
-1.1958983	vote the	-0.09120341
-1.4965492	the fresh	-0.09120341
-2.5351083	s voic	-0.09120341
-1.1958983	fresh voic	-0.09120341
-1.4965492	voic outsid	-0.09120341
-2.6897593	<eos> who	-0.09120341
-1.1891227	outsid who	-0.09120341
-1.1891227	boy who	-0.09120341
-1.9608276	go shake	-0.09120341
-2.1291747	american shake	-0.09120341
-2.5351083	s thing	-0.09120341
-1.4942515	shake thing	-0.09120341
-1.4808857	thing up	-0.09120341
-1.1891227	stand up	-0.09120341
-1.1891227	woke up	-0.09120341
-1.6711124	up did	-0.09120341
-1.1970528	did anyon	-0.09120341
-1.1970528	anyon bother	-0.09120341
-2.1723812	re ask	-0.09120341
-1.1958983	bother ask	-0.09120341
-1.4965492	ask how	-0.09120341
-2.1834424	re arrang	-0.09120341
-1.1970528	arrang chair	-0.09120341
-1.1958983	chair roosevelt	-0.09120341
-1.1958983	teddi roosevelt	-0.09120341
-1.4942515	roosevelt room	-0.09120341
-1.1958983	choir room	-0.09120341
-3.01027	<eos> next	-0.09120341
-1.1891227	next four	-0.09120341
-1.8521552	make four	-0.09120341
-1.1891227	law four	-0.09120341
-1.6711124	presid unit	-0.09120341
-1.1958983	unit state	-0.09120341
-1.1958983	alli state	-0.09120341
-1.4942515	offic held	-0.09120341
-1.1958983	obama held	-0.09120341
-1.4942515	held washington	-0.09120341
-1.1958983	sent washington	-0.09120341
-1.4965492	washington jefferson	-0.09120341
-1.1970528	jefferson lincoln	-0.09120341
-1.1970528	lincoln teddi	-0.09120341
-1.4942515	roosevelt f	-0.09120341
-1.1958983	j f	-0.09120341
-2.448578	we d	-0.09120341
-1.4942515	f d	-0.09120341
-1.4965492	d r	-0.09120341
-1.1970528	r j	-0.09120341
-1.4965492	f k	-0.09120341
-3.01027	<eos> barack	-0.09120341
-1.1970528	barack obama	-0.09120341
-1.4942515	held man	-0.09120341
-1.1958983	fraction man	-0.09120341
-1.4965492	man boy	-0.09120341
-0.943669	we ll	-0.09120341
-0.863423	you ll	-0.09120341
-2.0546591	it ll	-0.09120341
-1.6081448	who ll	-0.09120341
-0.4722942	they ll	-0.038034953
-1.4534291	i ll	-0.09120341
-2.2233489	ll spend	-0.09120341
-1.8899211	hour exact	-0.09120341
-1.1970528	exact twitter	-0.09120341
-1.1970528	twitter vengeanc	-0.09120341
-1.1970528	vengeanc critic	-0.09120341
-1.8899211	and number	-0.09120341
-1.1970528	number legion	-0.09120341
-1.2270175	we ve	-0.09120338
-1.6711124	ve embarrass	-0.09120341
-1.1970528	embarrass front	-0.09120341
-2.03303	world took	-0.09120341
-2.1834424	time react	-0.09120341
-3.01027	<eos> dow	-0.09120341
-1.1970528	dow futur	-0.09120341
-1.1970528	futur drop	-0.09120341
-2.5117803	digit point	-0.09120341
-1.1958983	tmz point	-0.09120341
-1.4965492	point overnight	-0.09120341
-3.01027	<eos> economist	-0.09120341
-1.1958983	economist predict	-0.09120341
-1.1958983	know predict	-0.09120341
-1.4965492	deep prolong	-0.09120341
-1.1970528	prolong recess	-0.09120341
-3.01027	<eos> nato	-0.09120341
-1.1970528	nato alli	-0.09120341
-1.4965492	state legitim	-0.09120341
-1.4942515	speak fear	-0.09120341
-1.1958983	legitim fear	-0.09120341
-1.4965492	fear muslim	-0.09120341
-2.1391764	american mexican	-0.09120341
-2.1391764	american african	-0.09120341
-1.4965492	shake shoe	-0.09120341
-1.9675901	right note	-0.09120341
-1.1970528	note mani	-0.09120341
-1.7945285	fan jew	-0.09120341
-2.069658	<eos> hand	-0.09120341
-1.789977	countri hand	-0.09120341
-2.5351083	s parti	-0.09120341
-1.6676824	hand parti	-0.09120341
-1.9675901	go isi	-0.09120341
-1.1958983	isi headquart	-0.09120341
-1.1958983	citi headquart	-0.09120341
-3.01027	<eos> wouldn	-0.09120341
-1.2853078	t give	-0.09120341
-1.6676824	want give	-0.09120341
-1.6711124	give trade	-0.09120341
-1.1970528	trade small	-0.09120341
-1.1970528	small fraction	-0.09120341
-1.4965492	man richard	-0.09120341
-1.1970528	richard nixon	-0.09120341
-1.9227983	right now	-0.09120341
-2.4094903	s now	-0.09120341
-1.6479036	like now	-0.09120341
-1.669221	now so	-0.09120341
-1.1958983	outcast so	-0.09120341
-1.9690981	first all	-0.09120341
-1.1958983	all rememb	-0.09120341
-1.4942515	good rememb	-0.09120341
-2.1834424	re alon	-0.09120341
-3.01027	<eos> hundr	-0.09120341
-1.1970528	hundr million	-0.09120341
-1.7945285	america billion	-0.09120341
-0.65129614	feel exactli	-0.038034953
-1.9684652	do second	-0.09120341
-2.3413653	we get	-0.09120341
-2.1618254	t get	-0.09120341
-1.1843235	second get	-0.09120341
-1.4715393	keep get	-0.09120341
-1.7945285	get bed	-0.09120341
-3.01027	<eos> trumpster	-0.09120341
-2.6897593	<eos> want	-0.09120341
-2.2074375	t want	-0.09120341
-1.1891227	trumpster want	-0.09120341
-1.8521552	peopl like	-0.09120341
-1.9813715	fight like	-0.09120341
-1.1891227	sound like	-0.09120341
-2.0895202	us jewish	-0.09120341
-1.1970528	jewish coastal	-0.09120341
-1.1970528	coastal elit	-0.09120341
-1.1970528	elit educ	-0.09120341
-1.1958983	educ social	-0.09120341
-1.1958983	experi social	-0.09120341
-1.4965492	social progress	-0.09120341
-1.1970528	progress hollywood	-0.09120341
-1.1970528	hollywood sob	-0.09120341
-1.1970528	sob wail	-0.09120341
-2.1723812	re talk	-0.09120341
-1.1958983	wail talk	-0.09120341
-1.4965492	move canada	-0.09120341
-1.8842587	and neither	-0.09120341
-1.6676824	give neither	-0.09120341
-2.946674	<eos> here	-0.09120341
-2.1291747	american here	-0.09120341
-2.2233489	ll fuck	-0.09120341
-1.7881249	<eos> fight	-0.09120338
-1.6209974	presid fight	-0.09120341
-2.0661242	ll fight	-0.09120341
-1.1795769	fuck fight	-0.09120341
-1.1795769	amend fight	-0.09120341
-2.946674	<eos> roxi	-0.09120341
-1.8842587	hour roxi	-0.09120341
-1.4942515	roxi there	-0.09120341
-1.1958983	repres there	-0.09120341
-2.1834424	time kind	-0.09120341
-1.1970528	kind languag	-0.09120341
-2.1834424	re powerless	-0.09120341
-2.1834424	re voiceless	-0.09120341
-2.6897593	<eos> don	-0.09120341
-1.4808857	person don	-0.09120341
-1.4808857	return don	-0.09120341
-2.2937965	t major	-0.09120341
-1.1958983	major hous	-0.09120341
-1.4942515	egg hous	-0.09120341
-1.4965492	hous senat	-0.09120341
-1.1970528	senat repres	-0.09120341
-2.5604265	s also	-0.09120341
-1.1958983	also good	-0.09120341
-1.4942515	lose good	-0.09120341
-1.4965492	rememb member	-0.09120341
-2.4746392	<eos> make	-0.09120341
-2.0661242	ll make	-0.09120341
-1.4623898	opportun make	-0.09120341
-1.4623898	guy make	-0.09120341
-1.1795769	gif make	-0.09120341
-1.8899211	make sure	-0.09120341
-1.8899211	peopl sent	-0.09120341
-1.6711124	includ kamala	-0.09120341
-1.7945285	take strength	-0.09120341
-2.2112377	ll never	-0.09120341
-1.1958983	strength never	-0.09120341
-1.7639546	take day	-0.09120341
-1.1891227	darkest day	-0.09120341
-1.1891227	five day	-0.09120341
-1.6711124	day off	-0.09120341
-1.7945285	get involv	-0.09120341
-2.03303	fight injustic	-0.09120341
-1.1970528	injustic anywher	-0.09120341
-2.187928	it whether	-0.09120341
-1.9608276	go check	-0.09120341
-1.9623386	write check	-0.09120341
-1.4965492	check roll	-0.09120341
-1.1970528	roll sleev	-0.09120341
-1.7945285	famili fairli	-0.09120341
-1.1970528	fairli insul	-0.09120341
-1.1970528	insul effect	-0.09120341
-1.7945285	famili aren	-0.09120341
-2.03303	fight woman	-0.09120341
-1.1958983	woman keep	-0.09120341
-1.4942515	squad keep	-0.09120341
-1.9675901	right choos	-0.09120341
-1.9690981	first amend	-0.09120341
-2.03303	fight mostli	-0.09120341
-1.1891227	mostli equal	-0.09120341
-1.1891227	guarante equal	-0.09120341
-1.1891227	outcom equal	-0.09120341
-1.6711124	equal not	-0.09120341
-1.1970528	not guarante	-0.09120341
-1.6711124	equal outcom	-0.09120341
-1.6676824	hand opportun	-0.09120341
-1.6676824	equal opportun	-0.09120341
-3.01027	<eos> stand	-0.09120341
-2.2937965	t stop	-0.09120341
-2.1391764	american darkest	-0.09120341
-1.6676824	day alway	-0.09120341
-1.4942515	alway alway	-0.09120341
-1.4965492	alway been	-0.09120341
-1.1970528	been follow	-0.09120341
-1.4942515	check finest	-0.09120341
-1.1958983	follow finest	-0.09120341
-1.4965492	roxi know	-0.09120341
-1.4965492	predict let	-0.09120341
-1.1958983	let past	-0.09120341
-1.1958983	devote past	-0.09120341
-2.946674	<eos> guy	-0.09120341
-1.789977	think guy	-0.09120341
-2.1306589	year without	-0.09120341
-1.1958983	nozzl without	-0.09120341
-1.4965492	without commit	-0.09120341
-1.1970528	commit impeach	-0.09120341
-1.1958983	impeach crime	-0.09120341
-1.1958983	crack crime	-0.09120341
-3.01027	<eos> manag	-0.09120341
-1.1970528	manag douch	-0.09120341
-1.1970528	douch nozzl	-0.09120341
-1.4965492	without break	-0.09120341
-1.1970528	break law	-0.09120341
-3.01027	<eos> three	-0.09120341
-1.6711124	like hell	-0.09120341
-1.6676824	win they	-0.09120341
-2.1723812	time they	-0.09120341
-2.2233489	ll lose	-0.09120341
-3.01027	<eos> honey	-0.09120341
-1.9690981	first vote	-0.09120341
-1.4965492	the battl	-0.09120341
-1.1970528	battl isn	-0.09120341
-2.2937965	t over	-0.09120341
-2.5604265	s begun	-0.09120341
-3.01027	<eos> grandpa	-0.09120341
-1.1970528	grandpa fought	-0.09120341
-1.4965492	war ii	-0.09120341
-1.1970528	ii came	-0.09120341
-1.1970528	came home	-0.09120341
-1.6711124	hand granddaught	-0.09120341
-1.7945285	countri shape	-0.09120341
-1.4965492	hate stupid	-0.09120341
-3.01027	<eos> tear	-0.09120341
-1.8899211	night woke	-0.09120341
-1.6676824	up i	-0.09120341
-1.1958983	h i	-0.09120341
-1.9675901	go sleep	-0.09120341
-1.1970528	sleep again	-0.09120341
-1.8907992	love dadthank	-0.09120341
-1.6419454	least question	-0.09120341
-1.4715393	ask question	-0.09120341
-1.1843235	dadthank question	-0.09120341
-1.6342422	much question	-0.09120341
-3.01027	<eos> blast	-0.09120341
-1.1970528	blast michael	-0.09120341
-1.1970528	michael fassbend	-0.09120341
-1.1970528	fassbend alicia	-0.09120341
-1.1970528	alicia vikandthank	-0.09120341
-2.6897593	<eos> much	-0.09120341
-1.1891227	vikandthank much	-0.09120341
-1.1891227	fordthank much	-0.09120341
-3.01027	<eos> harrison	-0.09120341
-1.1970528	harrison fordthank	-0.09120341
-1.8304923	hope answer	-0.09120341
-1.1843235	tomblr answer	-0.09120341
-1.1843235	humoryahoo answer	-0.09120341
-1.4715393	yahoo answer	-0.09120341
-2.946674	<eos> can	-0.09120341
-1.1958983	seacrest can	-0.09120341
-1.8899211	hour theater	-0.09120341
-1.1970528	theater friday	-0.09120341
-1.4965492	guy best	-0.09120341
-1.1970528	best chri	-0.09120341
-1.1970528	chri pinedefinit	-0.09120341
-1.1970528	pinedefinit rank	-0.09120341
-1.1970528	rank astra	-0.09120341
-1.1970528	astra zoom	-0.09120341
-3.01027	<eos> simpson	-0.09120341
-1.1970528	simpson jessica	-0.09120341
-1.1970528	jessica jonesfish	-0.09120341
-1.1970528	jonesfish mooney	-0.09120341
-1.1970528	mooney gothamlash	-0.09120341
-1.1958983	gothamlash agent	-0.09120341
-1.1958983	underwood agent	-0.09120341
-2.5604265	s h	-0.09120341
-1.4965492	i e	-0.09120341
-1.1970528	e l	-0.09120341
-1.1970528	l ddotti	-0.09120341
-1.1970528	ddotti underwood	-0.09120341
-1.4965492	agent cartertaylor	-0.09120341
-1.1970528	cartertaylor swift	-0.09120341
-2.5351083	s squad	-0.09120341
-1.1958983	place squad	-0.09120341
-1.789977	get bigger	-0.09120341
-1.4942515	bigger bigger	-0.09120341
-3.01027	<eos> boast	-0.09120341
-1.1970528	boast supermodel	-0.09120341
-1.4965492	writer singer	-0.09120341
-1.4965492	group quit	-0.09120341
-1.6711124	power coven	-0.09120341
-1.7945285	find place	-0.09120341
-1.4965492	squad quizthank	-0.09120341
-1.4965492	join tomblr	-0.09120341
-2.1723812	time tom	-0.09120341
-1.6676824	slave tom	-0.09120341
-0.47535062	tom hank	-0.09120341
-3.01027	<eos> blasthypothet	-0.09120341
-1.1970528	blasthypothet guardian	-0.09120341
-1.1970528	guardian galaxi	-0.09120341
-1.1970528	galaxi awesom	-0.09120341
-1.1970528	awesom mix	-0.09120341
-1.1970528	mix vol	-0.09120341
-2.5319617	digit enjoyew	-0.09120341
-1.9675901	look paid	-0.09120341
-1.1970528	paid editori	-0.09120341
-1.7945285	work websit	-0.09120341
-1.6479036	who fall	-0.09120341
-1.1891227	websit fall	-0.09120341
-1.4808857	info fall	-0.09120341
-1.7461929	find applic	-0.09120341
-2.346839	digit applic	-0.09120341
-1.8974186	look applic	-0.09120341
-1.1843235	notifi applic	-0.09120341
-1.789977	applic info	-0.09120341
-1.1958983	tune info	-0.09120341
-1.4965492	info need	-0.09120341
-1.1970528	need below	-0.09120341
-1.1970528	below stay	-0.09120341
-1.1970528	stay tune	-0.09120341
-1.6676824	fall magazin	-0.09120341
-1.1958983	bylin magazin	-0.09120341
-1.6711124	fall program	-0.09120341
-1.1970528	program open	-0.09120341
-1.4965492	a five	-0.09120341
-1.6711124	week at	-0.09120341
-1.4965492	new york	-0.09120341
-1.1970528	york citi	-0.09120341
-1.7945285	applic strong	-0.09120341
-3.01027	<eos> experi	-0.09120341
-1.4965492	social media	-0.09120341
-1.1970528	media internet	-0.09120341
-1.1970528	internet fluenci	-0.09120341
-1.1970528	fluenci gif	-0.09120341
-1.8899211	make encycloped	-0.09120341
-1.4965492	knowledg meme	-0.09120341
-1.1970528	meme etc	-0.09120341
-1.1970528	etc are	-0.09120341
-1.1970528	are pluse	-0.09120341
-3.01027	<eos> what	-0.09120341
-1.1970528	what edit	-0.09120341
-2.946674	<eos> item	-0.09120341
-1.789977	report item	-0.09120341
-1.4965492	interview photo	-0.09120341
-1.1970528	photo galleri	-0.09120341
-3.01027	<eos> may	-0.09120341
-1.1970528	may end	-0.09120341
-1.1970528	end bylin	-0.09120341
-1.6719967	daili assign	-0.09120341
-1.4965492	item straightforward	-0.09120341
-1.4942515	hous news	-0.09120341
-1.1958983	straightforward news	-0.09120341
-1.8899211	stori other	-0.09120341
-1.1970528	other creativ	-0.09120341
-1.1970528	creativ opinion	-0.09120341
-1.1970528	opinion base	-0.09120341
-1.6676824	want piec	-0.09120341
-1.1958983	base piec	-0.09120341
-3.01027	<eos> either	-0.09120341
-1.9684652	write clear	-0.09120341
-1.1970528	clear factual	-0.09120341
-1.1970528	factual accur	-0.09120341
-1.1958983	accur line	-0.09120341
-1.1958983	tonal line	-0.09120341
-1.7954097	august decemb	-0.09120341
-1.6711124	deadlin juli	-0.09120341
-2.2233489	ll notifi	-0.09120341
-1.7945285	applic statu	-0.09120341
-1.1970528	statu within	-0.09120341
-1.6711124	deadlin pass	-0.09120341
-1.4965492	pleas email	-0.09120341
-1.4965492	clip hillary_busi	-0.09120341
-2.1909468	ew comryan	-0.09120341
-1.1970528	comryan seacrest	-0.09120341
-1.7945285	get selena	-0.09120341
-2.5604265	s song	-0.09120341
-1.1970528	song head	-0.09120341
-2.4606977	we honestliupdat	-0.09120341
-1.6711124	ve listen	-0.09120341
-1.1970528	listen feedback	-0.09120341
-1.1970528	feedback updat	-0.09120341
-1.1958983	updat term	-0.09120341
-1.1958983	our term	-0.09120341
-0.47535062	term condit	-0.09120341
-1.4965492	condit fanuari	-0.09120341
-1.4965492	fiction contest	-0.09120341
-1.1970528	contest our	-0.09120341
-1.4965492	condit longer	-0.09120341
-1.6711124	entri becom	-0.09120341
-1.1970528	becom sole	-0.09120341
-1.1970528	sole properti	-0.09120341
-1.1970528	properti sponsor	-0.09120341
-1.1970528	sponsor none	-0.09120341
-1.6676824	entri acknowledg	-0.09120341
-1.1958983	none acknowledg	-0.09120341
-0.47535062	acknowledg return	-0.09120341
-1.7945285	work hard	-0.09120341
-1.6711124	give winner	-0.09120341
-1.1970528	winner platform	-0.09120341
-1.1970528	platform showcas	-0.09120341
-1.1970528	showcas innov	-0.09120341
-1.1970528	innov amaz	-0.09120341
-1.1970528	amaz workmtv	-0.09120341
-1.7945285	movi award	-0.09120341
-1.1970528	award drink	-0.09120341
-1.4965492	game perfectdigit	-0.09120341
-2.1400423	year untim	-0.09120341
-1.1970528	untim death	-0.09120341
-1.796047	question occupi	-0.09120341
-1.1970528	occupi alt	-0.09120341
-1.1970528	alt rock	-0.09120341
-1.1970528	rock devote	-0.09120341
-1.4965492	past two	-0.09120341
-1.1970528	two decad	-0.09120341
-1.1970528	decad die	-0.09120341
-1.4965492	young would	-0.09120341
-1.1970528	would kurt	-0.09120341
-1.1970528	kurt cobain	-0.09120341
-1.7945285	music sound	-0.09120341
-3.01027	<eos> cluebazingafinal	-0.09120341
-1.1970528	cluebazingafinal madelein	-0.09120341
-1.1970528	madelein albright	-0.09120341
-1.4965492	wait forye	-0.09120341
-1.1970528	forye reasonamerican	-0.09120341
-2.1291747	american hustl	-0.09120341
-1.1958983	reasonamerican hustl	-0.09120341
-1.4942515	hustl graviti	-0.09120341
-1.1958983	bullock graviti	-0.09120341
-1.4965492	graviti tie	-0.09120341
-1.1970528	tie nod	-0.09120341
-2.5319617	digit apiec	-0.09120341
-2.1400423	year slave	-0.09120338
-1.6711124	slave close	-0.09120341
-1.1970528	close behind	-0.09120341
-1.1970528	behind nine	-0.09120341
-1.4965492	nomin totalwe	-0.09120341
-2.1834424	re lucki	-0.09120341
-1.1970528	lucki ellen	-0.09120341
-1.6711124	might danc	-0.09120341
-1.1970528	danc againthey	-0.09120341
-1.4965492	realli crack	-0.09120341
-3.01027	<eos> tmz	-0.09120341
-1.4965492	point cop	-0.09120341
-1.9675901	look anyth	-0.09120341
-1.1970528	anyth relev	-0.09120341
-1.6676824	includ egg	-0.09120341
-1.1958983	relev egg	-0.09120341
-1.4965492	egg incid	-0.09120341
-2.5604265	s greatest	-0.09120341
-1.1970528	greatest storimove	-0.09120341
-1.1970528	storimove rumor	-0.09120341
-1.1970528	rumor month	-0.09120341
-1.1970528	month mark	-0.09120341
-2.1834424	time fox	-0.09120341
-1.1970528	fox confirm	-0.09120341
-3.01027	<eos> ding	-0.09120341
-1.1970528	ding dong	-0.09120341
-1.1970528	dong choir	-0.09120341
-2.5604265	s deadrowl	-0.09120341
-1.1970528	deadrowl said	-0.09120341
-1.4965492	statement play	-0.09120341
-1.1970528	play explor	-0.09120341
-1.4965492	previous untold	-0.09120341
-2.5604265	s earli	-0.09120341
-2.1400423	year orphan	-0.09120341
-1.1970528	orphan outcast	-0.09120341
-1.4965492	talk oliv	-0.09120341
-1.1970528	oliv repress	-0.09120341
-1.1970528	repress magicone	-0.09120341
-1.1970528	magicone sick	-0.09120341
-1.8899211	stori gross	-0.09120341
-1.1970528	gross glib	-0.09120341
-1.1970528	glib tonal	-0.09120341
-2.5604265	s gallow	-0.09120341
-1.1970528	gallow humoryahoo	-0.09120341
-3.01027	<eos> yahoo	-0.09120341
-1.4965492	yahoo answerfilm	-0.09120341
-1.1970528	answerfilm ensembl	-0.09120341
-0.77608913	august osag	-0.038034953
-1.1970528	osag counti	-0.09120341
-1.4942515	counti dalla	-0.09120341
-1.1958983	mcconaughey dalla	-0.09120341
-0.47535062	dalla buyer	-0.038034953
-1.1970528	buyer club	-0.09120341
-1.4942515	club butler	-0.09120341
-1.1958983	whitak butler	-0.09120341
-0.47535062	butler lead	-0.09120341
-1.4965492	lead actor	-0.09120341
-1.1970528	actor bruce	-0.09120341
-1.1970528	bruce dern	-0.09120341
-1.1970528	dern nebraska	-0.09120341
-1.1970528	nebraska chiwetel	-0.09120341
-1.1970528	chiwetel ejiofor	-0.09120341
-1.4965492	hank captain	-0.09120341
-1.1970528	captain phillip	-0.09120341
-1.1970528	phillip matthew	-0.09120341
-1.1970528	matthew mcconaughey	-0.09120341
-1.4965492	club forest	-0.09120341
-1.1970528	forest whitak	-0.09120341
-1.6719967	actress cate	-0.09120341
-1.1970528	cate blanchett	-0.09120341
-1.1970528	blanchett blue	-0.09120341
-1.1970528	blue jasmin	-0.09120341
-1.1970528	jasmin sandra	-0.09120341
-1.1970528	sandra bullock	-0.09120341
-1.4965492	graviti judi	-0.09120341
-1.1970528	judi dench	-0.09120341
-1.1970528	dench philomena	-0.09120341
-1.1970528	philomena meryl	-0.09120341
-1.1970528	meryl streep	-0.09120341
-1.4965492	counti emma	-0.09120341
-1.1970528	emma thompson	-0.09120341
-1.1970528	thompson save	-0.09120341
-1.1970528	save mr	-0.09120341
-1.1970528	mr bank	-0.09120341
-1.6711124	full list	-0.09120341

\3-grams:
-1.5841388	ew com </s>
-0.6181431	<s> scream queen
-0.6181431	scream queen cancel
-0.6181431	queen cancel foxus
-0.61539084	cancel foxus find
-0.61539084	around globe find
-0.99530196	you ll find
-0.61539084	power coven find
-0.69372857	foxus find twitch
-0.6181431	find twitch stream
-0.6000091	twitch stream digit
-0.74903345	august digit digit
-0.74903345	week digit digit
-0.5273931	letter digit digit
-0.56397194	drop digit digit
-0.81343395	game throne digit
-0.69991195	vol <eos> digit
-0.64679915	news alreadi digit
-0.81343395	when march digit
-0.9647441	digit august digit
-1.0662464	hour week digit
-0.5592758	cover letter digit
-0.81343395	deadlin feb digit
-0.64679915	ensembl cast digit
-0.6000091	futur drop digit
-0.66358733	five day digit
-0.66358733	<eos> much digit
-0.6000091	august decemb digit
-0.6000091	deadlin juli digit
-0.6000091	tie nod digit
-0.6000091	digit apiec digit
-0.6000091	chiwetel ejiofor digit
-0.7171512	stream digit episod
-0.6178961	digit episod origin
-0.6667683	<eos> submit origin
-0.66513455	episod origin power
-0.66513455	war great power
-0.6164359	group quit power
-0.6846506	origin power ranger
-0.61434823	power ranger tv
-0.97559786	area cover tv
-0.689216	celeb movi tv
-1.0640868	blog post tv
-0.61434823	photo galleri tv
-0.6993137	ranger tv seribeyoncéstay
-0.61539084	tv seribeyoncéstay late
-0.6639656	<eos> when late
-0.61539084	countri originstay late
-0.61539084	world chang late
-0.48774827	seribeyoncéstay late wait
-0.48774827	originstay late wait
-1.0938686	we ve wait
-0.6845216	post tv recap
-0.5255387	galleri tv recap
-0.94611377	late wait recap
-0.9848712	wait recap game
-0.6178961	award drink game
-0.94670844	recap game throne
-1.062759	throne digit mindi
-0.8470799	digit mindi project
-0.94611377	assist research project
-0.9351539	mindi project go
-0.715193	how <eos> go
-0.711564	who s go
-0.6616371	hand parti go
-0.6616371	ll never go
-0.6616371	<eos> can go
-1.0281466	project go onlin
-0.6462509	juli digit <eos>
-0.79128325	go onlin <eos>
-0.72453296	offic figur <eos>
-0.72453296	harri potter <eos>
-0.6057933	passion entertain <eos>
-0.35719508	editor well <eos>
-0.2976149	internship well <eos>
-0.2976149	magazin well <eos>
-0.2976149	pluse well <eos>
-0.61335075	american music <eos>
-0.8148807	music book <eos>
-0.72453296	screen on <eos>
-1.152273	ew com <eos>
-0.5910619	adult live <eos>
-0.5910619	caus celebr <eos>
-0.6200057	ew read <eos>
-0.968516	four year <eos>
-0.49872696	realli do <eos>
-0.652774	way do <eos>
-0.6179492	given hope <eos>
-0.61335075	might think <eos>
-0.61335075	life famili <eos>
-0.54964775	time shine <eos>
-0.5910619	hard submit <eos>
-0.6266636	neither you <eos>
-0.3940968	right sir <eos>
-0.3940968	you sir <eos>
-0.54964775	us out <eos>
-0.61335075	stupid men <eos>
-1.0482556	last night <eos>
-0.6329012	aren t <eos>
-0.54964775	us from <eos>
-0.54964775	feel father <eos>
-0.6507271	confirm it <eos>
-0.54964775	truli horribl <eos>
-0.5910619	pitch idea <eos>
-0.54964775	support too <eos>
-0.54964775	white nationalist <eos>
-0.54964775	racist buffoon <eos>
-0.54964775	shithead everywher <eos>
-0.5910619	s voic <eos>
-0.54964775	ask how <eos>
-0.5910619	roosevelt room <eos>
-0.54964775	f k <eos>
-0.54964775	number legion <eos>
-0.54964775	time react <eos>
-0.54964775	point overnight <eos>
-0.54964775	prolong recess <eos>
-0.5910619	legitim fear <eos>
-0.54964775	shake shoe <eos>
-0.54964775	fan jew <eos>
-0.3098439	isi headquart <eos>
-0.3098439	citi headquart <eos>
-0.3940968	s now <eos>
-0.3940968	like now <eos>
-0.54964775	re alon <eos>
-0.54964775	get bed <eos>
-0.54964775	move canada <eos>
-0.6232648	fuck fight <eos>
-0.5910619	repres there <eos>
-0.54964775	re voiceless <eos>
-0.5910619	lose good <eos>
-0.54964775	get involv <eos>
-0.54964775	roll sleev <eos>
-0.54964775	right choos <eos>
-0.5910619	equal opportun <eos>
-0.3098439	impeach crime <eos>
-0.3098439	crack crime <eos>
-0.54964775	s begun <eos>
-0.34849742	least question <eos>
-0.34849742	dadthank question <eos>
-0.34849742	much question <eos>
-0.44326848	humoryahoo answer <eos>
-0.44326848	yahoo answer <eos>
-0.54964775	theater friday <eos>
-0.54964775	astra zoom <eos>
-0.5910619	bigger bigger <eos>
-0.79128325	tom hank <eos>
-0.54964775	mix vol <eos>
-0.6057933	websit fall <eos>
-0.5910619	base piec <eos>
-0.54964775	deadlin pass <eos>
-0.54964775	song head <eos>
-0.716391	onlin <eos> love
-0.6988719	onlin do love
-0.61434823	person everyon love
-0.61434823	sleep again love
-0.61434823	magicone sick love
-0.5237465	<eos> love take
-0.5237465	do love take
-0.6814445	kamala harri take
-1.0320559	intern expect take
-0.6639656	strength never take
-1.0056292	love take deep
-0.6667683	economist predict deep
-0.94670844	take deep dive
-0.8475532	deep dive weekend
-0.8475532	dive weekend box
-0.8470799	weekend box offic
-0.6667683	unit state offic
-0.94670844	box offic figur
-1.0718707	figur <eos> still
-0.8470799	<eos> still complet
-0.94611377	skill alreadi complet
-0.94670844	still complet obsess
-0.84428674	complet obsess harri
-0.69721085	untold stori harri
-0.6164359	includ kamala harri
-0.98552144	obsess harri potter
-0.857323	potter <eos> we
-0.8434326	do <eos> we
-0.6232126	legion <eos> we
-0.6232126	shoe <eos> we
-0.8434326	headquart <eos> we
-0.8434326	now <eos> we
-1.0242225	geek ew we
-0.6671005	hell candid we
-0.88092506	four year we
-0.58867615	three year we
-0.97771055	here s we
-0.686478	ll do we
-0.6758153	albright show we
-0.6892245	us us we
-0.6832361	either way we
-0.65017855	outcast so we
-0.65017855	all rememb we
-0.65017855	and neither we
-0.6030421	re powerless we
-0.6030421	day off we
-0.6030421	we honestliupdat we
-0.6030421	untim death we
-0.6996564	<eos> go re
-0.37611464	<eos> we re
-0.47879955	ew we re
-0.3882616	way we re
-0.3882616	so we re
-0.3882616	rememb we re
-0.3882616	powerless we re
-0.3882616	death we re
-0.61539084	nomin totalwe re
-0.61539084	danc againthey re
-1.6771449	we re entertain
-0.66513455	skill passion entertain
-0.84428674	interest career entertain
-0.98552144	re entertain geek
-1.0585368	tv recap ew
-0.83051825	entertain geek ew
-0.68307346	edit intern ew
-0.9254099	expect pitch ew
-0.83051825	molli smith ew
-0.83051825	noelen clark ew
-0.6091726	statement obtain ew
-0.65701735	accur line ew
-0.6091726	clip hillary_busi ew
-0.6091726	full list ew
-0.8063649	we re look
-0.70433134	enjoyew com look
-0.61539084	women aspir look
-0.61539084	point cop look
-1.2819979	re look recent
-0.84428674	digit hourwho recent
-0.6164359	program open recent
-0.36931562	look recent graduat
-0.36931562	hourwho recent graduat
-0.3069341	open recent graduat
-1.2775375	recent graduat passion
-0.6667683	report skill passion
-0.94611377	graduat passion pop
-0.8470799	live breath pop
-0.40839773	passion pop cultur
-0.40839773	breath pop cultur
-1.1297302	pop cultur well
-0.9351539	print editor well
-0.6616371	magazin internship well
-0.6133082	orientsorkin girl well
-0.6616371	bylin magazin well
-0.6133082	are pluse well
-1.0284642	cultur well vers
-0.9426081	alreadi complet least
-0.84428674	well vers least
-0.69204736	hope answer least
-0.54009247	complet least one
-0.54009247	vers least one
-1.1479543	least one area
-0.84428674	one area cover
-1.0144384	report stori cover
-0.4075512	send resum cover
-0.33593145	email resum cover
-1.012493	cover tv movi
-0.8422929	carpet attend movi
-0.61539084	favorit celeb movi
-0.61539084	amaz workmtv movi
-0.9987496	tv movi music
-0.7141163	cobain s music
-0.70590085	hamilton american music
-0.61539084	think rap music
-1.0056292	movi music book
-0.6667683	tonal line book
-0.7187971	book <eos> daili
-0.6916976	expect take daili
-0.9471376	music book daili
-0.43139416	<eos> daili respons
-0.43139416	book daili respons
-0.84428674	daili respons includ
-0.66513455	sent washington includ
-0.6164359	egg incid includ
-0.98552144	respons includ usual
-0.8470799	includ usual entri
-0.43126443	longer read entri
-0.43126443	return read entri
-0.98552144	usual entri level
-0.8470799	entri level task
-0.8470799	move excit task
-0.94670844	level task transcrib
-0.8470799	task transcrib interview
-0.6667683	report item interview
-0.94670844	transcrib interview assist
-0.8470799	interview assist research
-0.8470799	motiv impecc research
-0.94670844	research project maintain
-0.8475532	project maintain databas
-0.8470799	maintain databas motiv
-0.8470799	cultur self motiv
-1.332693	well <eos> intern
-1.0310845	on <eos> intern
-0.9401092	databas motiv intern
-0.61539084	paid editori intern
-0.61539084	what edit intern
-1.0063113	motiv intern dispatch
-0.8475532	intern dispatch short
-0.8475532	dispatch short order
-0.8470799	short order move
-0.6667683	wail talk move
-0.94670844	order move excit
-1.2252649	re look write
-0.9351539	excit task write
-0.99308264	research report write
-1.538187	ew com write
-1.4384855	it s write
-0.6133082	applic strong write
-0.7300193	task write blog
-0.5528844	com write blog
-0.57520145	write blog post
-1.1171733	tv recap report
-0.9401092	impecc research report
-0.7000164	strong write report
-1.0320559	blog post report
-0.69527	sick love stori
-0.9959069	recap report stori
-0.7046171	wonder american stori
-0.66279984	straightforward news stori
-0.61434823	previous untold stori
-0.9848712	stori cover red
-0.6934346	might see red
-0.40839773	cover red carpet
-0.33656642	see red carpet
-1.07581	red carpet attend
-1.0063113	attend movi screen
-0.8475532	movi screen on
-0.6406661	<eos> intern expect
-1.0750403	intern expect pitch
-0.6178961	daili assign pitch
-0.21829964	recap ew com
-0.21829964	intern ew com
-0.2569052	pitch ew com
-0.2569052	smith ew com
-0.2569052	clark ew com
-0.21829964	line ew com
-0.21829964	list ew com
-0.6178961	digit enjoyew com
-1.6192504	ew com editor
-0.8470799	editor print editor
-0.94670844	com editor print
-1.4637676	well <eos> ideal
-0.84428674	<eos> ideal candid
-1.1586305	first time candid
-0.6164359	like hell candid
-0.9848712	ideal candid live
-0.6178961	friend adult live
-0.94670844	candid live breath
-1.1479543	pop cultur self
-0.94670844	self motiv impecc
-1.0275905	report write skill
-0.6934346	write report skill
-0.94611377	write skill alreadi
-0.6667683	hous news alreadi
-1.1470095	least one internship
-0.6667683	fall magazin internship
-0.720481	voic <eos> when
-0.94611377	one internship when
-0.94670844	internship when march
-1.0556387	march digit august
-0.69098365	when late august
-0.6639656	american hustl august
-0.61539084	meryl streep august
-1.1961945	digit digit hour
-0.6383335	day digit hour
-0.6383335	much digit hour
-0.6164359	ll spend hour
-0.33593145	check finest hour
-0.33593145	follow finest hour
-0.76337254	digit hour week
-0.6178961	statu within week
-1.6294806	digit digit hourwho
-1.2787846	recent graduat interest
-0.8475532	graduat interest career
-0.98552144	career entertain journalismhow
-0.7187971	digit <eos> appli
-1.2330973	digit hour appli
-0.84428674	entertain journalismhow appli
-0.43139416	hour appli pleas
-0.54009247	journalismhow appli pleas
-1.07581	appli pleas send
-0.8470799	pleas send resum
-0.6178961	pleas email resum
-0.6328855	resum cover letter
-1.0773554	digit digit previous
-0.6178961	play explor previous
-0.6177305	digit previous publish
-0.57520145	previous publish clip
-1.07581	publish clip molli
-0.8475532	clip molli smith
-1.6219294	ew com noelen
-0.8475532	com noelen clark
-1.6037132	ew com deadlin
-0.68266153	within week deadlin
-0.6916976	digit applic deadlin
-0.98552144	com deadlin feb
-1.0128222	feb digit digitthe
-0.6181431	digit digitthe academi
-0.6178961	digitthe academi celebr
-0.6178961	given caus celebr
-0.66704476	academi celebr achiev
-0.6178961	celebr achiev art
-0.6934346	origin fan art
-0.6667683	achiev art filmmak
-0.6667683	as support filmmak
-0.66704476	art filmmak seek
-0.6181431	filmmak seek transcend
-0.6181431	seek transcend border
-0.720481	fear <eos> speak
-0.6178961	transcend border speak
-0.66704476	border speak audienc
-0.6164359	speak audienc around
-0.69721085	right peopl around
-0.6164359	america billion around
-0.6992065	girl well world
-0.42884946	audienc around world
-0.42884946	billion around world
-0.6934466	world and world
-0.6616371	front children world
-0.6616371	disord knowledg world
-0.6133082	grandpa fought world
-0.99045765	around world regardless
-0.6181431	world regardless nation
-0.6181431	regardless nation ethnic
-0.6181431	nation ethnic religi
-0.6178961	ethnic religi differ
-0.6667683	men women differ
-0.6667683	religi differ statement
-0.6178961	deadrowl said statement
-0.66704476	differ statement obtain
-0.70970815	obtain ew read
-0.6164359	condit longer read
-0.9154397	acknowledg return read
-0.72076595	read <eos> as
-0.6178961	<eos> as support
-0.71047074	night it support
-0.716391	head <eos> and
-0.66279984	support filmmak and
-0.7010484	children world and
-0.61434823	learn ha and
-0.61434823	vengeanc critic and
-0.69926786	filmmak and human
-0.6133082	and human right
-0.6133082	uphold inalien right
-0.68798053	<eos> men right
-0.6616371	we d right
-0.6133082	richard nixon right
-0.6616371	woman keep right
-0.69839096	human right peopl
-0.61434823	role difficult peopl
-0.689216	want see peopl
-0.61434823	hundr million peopl
-0.61434823	make sure peopl
-0.68472445	peopl around globe
-0.6934346	globe find extrem
-0.720481	live <eos> extrem
-0.66704476	find extrem troubl
-0.6181431	extrem troubl asghar
-0.6181431	troubl asghar farhadi
-0.6181431	asghar farhadi director
-0.6178961	farhadi director oscar
-0.71719015	year s oscar
-0.66513455	director oscar win
-1.1636528	didn t win
-1.359724	we ll win
-0.6843627	oscar win film
-0.6667683	oscar nomin film
-0.66704476	win film iran
-0.6181431	film iran separ
-0.6181431	iran separ along
-0.6178961	separ along cast
-0.6178961	answerfilm ensembl cast
-0.66704476	along cast crew
-0.6347108	cast digit year
-0.6347108	apiec digit year
-0.6347108	ejiofor digit year
-0.6122706	cast crew year
-0.3050106	next four year
-0.3050106	make four year
-0.3050106	law four year
-0.692199	guy make year
-0.6122706	<eos> three year
-0.6122706	game perfectdigit year
-0.6122706	s earli year
-0.69938725	alreadi digit s
-0.6647552	stori harri s
-0.6647552	line book s
-1.4377086	ew com s
-0.68961203	crew year s
-0.6010177	debbi carri s
-0.6010177	friend fanit s
-0.6010177	<eos> that s
-0.4226527	<eos> it s
-0.34721202	fact it s
-0.34721202	languag it s
-0.34721202	whether it s
-0.34721202	over it s
-0.62208235	donald trump s
-0.47697553	member trump s
-0.6647552	outsid who s
-0.64792264	choir room s
-0.33012545	<eos> here s
-0.33012545	american here s
-0.64792264	roxi there s
-0.64792264	gothamlash agent s
-0.6010177	cartertaylor swift s
-0.6010177	get selena s
-0.6010177	kurt cobain s
-0.6667683	s oscar nomin
-0.6178961	behind nine nomin
-0.66704476	nomin film salesman
-0.6181431	film salesman could
-0.6181431	salesman could bar
-0.6181431	could bar enter
-0.61539084	bar enter countri
-0.61539084	countri religion countri
-0.61539084	came home countri
-0.61539084	hand granddaught countri
-0.69372857	enter countri religion
-0.69372857	religion countri originstay
-0.9112937	go onlin do
-0.66279984	<eos> realli do
-1.0098981	exactli way do
-1.3482884	we ll do
-0.66279984	now so do
-1.0128222	feb digit digitcarri
-0.6178961	digit digitcarri friend
-0.6934346	s famili friend
-0.66704476	digitcarri friend adult
-0.66704476	<eos> extrem smart
-0.6181431	extrem smart talent
-0.6164359	smart talent actress
-0.6164359	boast supermodel actress
-0.9154397	butler lead actress
-0.43139416	talent actress writer
-0.43139416	supermodel actress writer
-0.9188448	actress writer comedienn
-0.6667683	women differ color
-0.6178961	writer comedienn color
-0.6667683	comedienn color person
-0.6667683	let past person
-0.66704476	color person everyon
-0.6990504	everyon love in
-0.6843627	t win in
-0.66704476	love in star
-0.705384	fought world war
-0.6178961	in star war
-0.6667683	star war great
-0.69897014	opportun make great
-0.6846506	great power princess
-0.6181431	power princess feisti
-0.6181431	princess feisti wise
-0.6164359	feisti wise full
-0.6916976	bank see full
-0.6916976	graduat work full
-1.0113217	sir <eos> hope
-0.6802309	wise full hope
-0.6899226	<eos> truli hope
-0.66279984	hate given hope
-0.6802309	fordthank much hope
-0.69926786	full hope role
-0.6181431	hope role difficult
-0.69721085	difficult peopl might
-0.6164359	fiction charact might
-0.6164359	lucki ellen might
-0.6814445	peopl might think
-0.690455	white men think
-1.1628923	don t think
-0.61539084	right call think
-0.72076595	think <eos> heart
-0.6181431	<eos> heart prayer
-0.6181431	heart prayer billi
-0.6181431	prayer billi debbi
-0.6181431	billi debbi carri
-0.71759236	sleev <eos> famili
-0.7141163	carri s famili
-0.6814445	great life famili
-0.70232165	presid fight famili
-0.66704476	famili friend fanit
-0.66858524	fanit s time
-0.66858524	there s time
-0.6778138	work full time
-0.46324047	time first time
-0.46324047	hardli first time
-0.46324047	mark first time
-0.6122706	s sixth time
-0.6122706	world took time
-0.90718687	ll lose time
-0.68780804	tomblr answer time
-0.99990225	s time shine
-0.720481	shine <eos> submit
-0.6178961	work hard submit
-0.6639656	submit origin fan
-1.006847	trump s fan
-0.690455	s fan fan
-0.61539084	condit fanuari fan
-0.66704476	fan art favorit
-0.6181431	art favorit celeb
-0.69638073	movi tv show
-0.6959525	truli hope show
-0.61539084	thank share show
-0.61539084	madelein albright show
-0.6934346	fanuari fan fiction
-0.6934346	tv show fiction
-0.66704476	show fiction charact
-0.6814445	charact might see
-0.6814445	trumpster want see
-0.61539084	injustic anywher see
-0.61539084	mr bank see
-1.0399092	red carpet criticschoiceaward
-0.7102575	full time a
-0.6178961	carpet criticschoiceaward a
-0.66704476	criticschoiceaward a ewe
-0.6181431	a ewe messag
-0.716391	fall <eos> you
-0.6811539	<eos> appli you
-0.61434823	ewe messag you
-0.61434823	penc welcom you
-0.66279984	give neither you
-1.5244915	<eos> we sir
-0.70092565	inalien right sir
-0.69749427	messag you sir
-0.69926786	<eos> hope hear
-0.6122706	hope hear us
-0.7005051	behalf us us
-0.6604776	thank join us
-0.33437556	administr protect us
-0.33437556	t protect us
-0.6122706	parent defend us
-0.6122706	work behalf us
-0.6778138	peopl like us
-0.7077116	hear us out
-0.72076595	out <eos> vice
-1.1555294	four year presid
-0.6164359	<eos> vice presid
-0.69204736	effect trump presid
-0.6846506	vice presid elect
-0.6181431	presid elect penc
-0.6181431	elect penc welcom
-1.0136942	sir <eos> truli
-0.7141905	us we truli
-0.69638073	welcom you truli
-0.6639656	it thi truli
-0.48790485	we truli thank
-0.48790485	you truli thank
-0.91835135	truli thank join
-0.6178961	squad quizthank join
-0.7077116	join us hamilton
-0.6102028	us hamilton american
-0.6581677	inspir uphold american
-0.6102028	thi wonder american
-0.6581677	s thing american
-0.6102028	fear muslim american
-0.6102028	american mexican american
-0.6102028	american african american
-0.90311855	t stop american
-1.0712444	year slave american
-0.720481	music <eos> realli
-0.7102575	againthey re realli
-0.6844921	we sir divers
-0.6178961	stori told divers
-0.6959525	million peopl america
-0.6639656	sir divers america
-0.6814445	stand up america
-0.9133618	t stop america
-0.69372857	divers america alarm
-0.6181431	america alarm anxiou
-0.6178961	alarm anxiou new
-0.6178961	week at new
-0.66704476	anxiou new administr
-0.6178961	new administr protect
-0.7129363	couldn t protect
-0.99436796	protect us planet
-0.6178961	us planet children
-0.6178961	embarrass front children
-0.66704476	planet children parent
-0.6181431	children parent defend
-0.707408	defend us uphold
-0.6178961	show inspir uphold
-0.66704476	us uphold inalien
-0.69372857	hope show inspir
-0.70929337	uphold american valu
-1.2316474	recent graduat work
-0.690455	editori intern work
-0.61539084	american valu work
-0.6639656	want piec work
-0.69372857	valu work behalf
-0.9188448	truli thank share
-0.6934346	share show thi
-0.71047074	sugarcoat it thi
-0.66704476	show thi wonder
-0.69926786	american stori told
-0.6667683	told divers group
-0.6178961	writer singer group
-0.71759236	celebr <eos> men
-0.6639656	divers group men
-0.6639656	young white men
-0.61539084	hate stupid men
-0.6934346	call think women
-0.6934346	group men women
-0.66704476	differ color creed
-0.6181431	color creed orientsorkin
-0.6181431	creed orientsorkin girl
-0.7056862	well world chang
-0.6899226	chang late last
-0.689216	stop america last
-0.9605824	donald trump last
-0.61434823	<eos> klan last
-0.61434823	<eos> tear last
-0.15742247	late last night
-0.15742247	america last night
-0.15742247	trump last night
-0.15742247	klan last night
-0.15742247	tear last night
-1.2972056	last night way
-0.61434823	mayo threat way
-0.61434823	or reason way
-0.8403081	feel exactli way
-0.61434823	<eos> either way
-0.6993137	night way couldn
-0.6102028	way couldn t
-0.8324586	<eos> won t
-0.30432913	candid didn t
-0.30432913	america didn t
-0.30432913	night didn t
-0.6102028	and wasn t
-0.6102028	<eos> wouldn t
-0.30432913	<eos> don t
-0.30432913	person don t
-0.30432913	return don t
-0.6102028	famili aren t
-0.6102028	battl isn t
-0.6581677	seacrest can t
-0.99436796	protect us from
-0.72076595	from <eos> that
-0.7174934	that s terribl
-0.9864449	around world feel
-0.6164359	s terribl feel
-0.66513455	s parti feel
-0.68472445	terribl feel father
-0.7073045	father <eos> won
-0.7073045	canada <eos> won
-1.0051098	won t sugarcoat
-0.69728386	horribl <eos> it
-0.69728386	there <eos> it
-0.68307346	anywher see it
-1.2728184	last night it
-0.6091726	t sugarcoat it
-0.6091726	in fact it
-0.6091726	kind languag it
-0.6091726	it whether it
-0.6091726	<eos> honey it
-0.6091726	t over it
-0.6091726	fox confirm it
-0.69378513	thi truli horribl
-1.4710819	it s hardli
-0.6977305	so do first
-0.70458937	sixth time first
-0.6133082	s hardli first
-0.70561665	it ll first
-1.1346073	<eos> fight first
-0.6133082	month mark first
-0.68266153	time candid didn
-0.6916976	up america didn
-1.3073573	last night didn
-0.66704476	win in fact
-1.4710819	it s sixth
-1.1646092	first time thoroughli
-0.6181431	time thoroughli incompet
-0.6181431	thoroughli incompet pig
-0.6181431	incompet pig danger
-0.6667683	assign pitch idea
-0.6178961	pig danger idea
-0.66704476	danger idea seriou
-0.6181431	idea seriou psychiatr
-0.6181431	seriou psychiatr disord
-0.6178961	psychiatr disord knowledg
-0.6178961	make encycloped knowledg
-0.7056862	knowledg world curios
-0.6181431	world curios learn
-0.6181431	curios learn ha
-0.69926786	ha and wasn
-0.7129363	wasn t donald
-0.6178961	note mani donald
-0.33593145	t donald trump
-0.33593145	mani donald trump
-0.6164359	rememb member trump
-0.6164359	insul effect trump
-0.66704476	it support too
-0.72076595	too <eos> klan
-0.720481	night <eos> white
-0.6667683	angri young white
-0.66704476	<eos> white nationalist
-0.72076595	nationalist <eos> sexist
-0.6181431	<eos> sexist racist
-0.6181431	sexist racist buffoon
-0.72076595	buffoon <eos> angri
-0.6178961	<eos> angri young
-0.6178961	decad die young
-0.69372857	men think rap
-0.69372857	rap music cinco
-0.6181431	music cinco de
-0.6181431	cinco de mayo
-0.6181431	de mayo threat
-0.6667683	make great life
-0.5255387	threat way life
-0.5255387	reason way life
-0.9508017	way life or
-0.6181431	life or reason
-0.9502705	way life given
-0.6667683	<eos> hate given
-0.66704476	life given caus
-0.70300037	men right call
-0.66704476	think women aspir
-0.70300037	aspir look hot
-0.6181431	look hot shrill
-0.6181431	hot shrill ugli
-0.6181431	shrill ugli otherwis
-0.6181431	ugli otherwis worthi
-0.6181431	otherwis worthi scorn
-0.6181431	worthi scorn rather
-0.6181431	scorn rather admir
-0.6181431	rather admir struck
-0.6181431	admir struck blow
-0.6181431	struck blow misogynist
-0.6181431	blow misogynist shithead
-0.6181431	misogynist shithead everywher
-0.720481	everywher <eos> hate
-0.6178961	countri shape hate
-0.72076595	hope <eos> abject
-0.6181431	<eos> abject dumb
-0.6181431	abject dumb glamor
-0.6178961	dumb glamor the
-0.6178961	first vote the
-0.66704476	glamor the fresh
-0.71719015	com s voic
-0.6178961	the fresh voic
-0.66704476	fresh voic outsid
-1.4020207	well <eos> who
-0.6164359	voic outsid who
-0.6164359	man boy who
-0.7027001	s go shake
-0.7089887	african american shake
-1.012899	here s thing
-0.6667683	go shake thing
-0.66513455	shake thing up
-0.6164359	<eos> stand up
-0.6164359	night woke up
-0.6846506	thing up did
-0.6181431	up did anyon
-0.6181431	did anyon bother
-1.652579	we re ask
-0.6178961	anyon bother ask
-0.66704476	bother ask how
-0.710563	go re arrang
-0.6181431	re arrang chair
-0.6178961	arrang chair roosevelt
-0.6178961	lincoln teddi roosevelt
-0.6667683	chair roosevelt room
-0.6178961	dong choir room
-0.72076595	room <eos> next
-0.6164359	<eos> next four
-0.69721085	ll make four
-0.6164359	break law four
-0.6846506	year presid unit
-0.6178961	presid unit state
-0.6178961	nato alli state
-0.6667683	state offic held
-0.6178961	barack obama held
-0.6667683	offic held washington
-0.6178961	peopl sent washington
-0.66704476	held washington jefferson
-0.6181431	washington jefferson lincoln
-0.6181431	jefferson lincoln teddi
-0.6667683	teddi roosevelt f
-0.6178961	r j f
-1.5302914	<eos> we d
-0.6667683	roosevelt f d
-0.66704476	f d r
-0.6181431	d r j
-0.66704476	j f k
-0.72076595	k <eos> barack
-0.6181431	<eos> barack obama
-0.6667683	obama held man
-0.6178961	small fraction man
-0.66704476	held man boy
-0.5502086	candid we ll
-0.72548175	year we ll
-0.5502086	s we ll
-0.5502086	do we ll
-0.52225435	<eos> you ll
-0.52225435	appli you ll
-0.7064918	honey it ll
-0.6790207	boy who ll
-0.33476403	win they ll
-0.33476403	time they ll
-0.6616371	up i ll
-0.71160454	who ll spend
-0.69926786	spend hour exact
-0.6181431	hour exact twitter
-0.6181431	exact twitter vengeanc
-0.6181431	twitter vengeanc critic
-0.69926786	critic and number
-0.6181431	and number legion
-1.1702186	<eos> we ve
-0.6243763	show we ve
-0.6243763	honestliupdat we ve
-1.0946082	we ve embarrass
-0.6181431	ve embarrass front
-0.7056862	and world took
-0.710563	took time react
-0.72076595	react <eos> dow
-0.6181431	<eos> dow futur
-0.6181431	dow futur drop
-1.5799847	digit digit point
-0.6178961	<eos> tmz point
-0.66704476	digit point overnight
-0.72076595	overnight <eos> economist
-0.6178961	<eos> economist predict
-0.6178961	roxi know predict
-0.66704476	predict deep prolong
-0.6181431	deep prolong recess
-0.72076595	recess <eos> nato
-0.6181431	<eos> nato alli
-0.66704476	alli state legitim
-0.6667683	<eos> speak fear
-0.6178961	state legitim fear
-0.66704476	speak fear muslim
-0.70929337	muslim american mexican
-0.70929337	mexican american african
-0.66704476	american shake shoe
-0.70300037	d right note
-0.6181431	right note mani
-0.69372857	fan fan jew
-0.7070282	famili <eos> hand
-0.7070282	jew <eos> hand
-0.6934346	home countri hand
-1.012899	trump s parti
-0.9502705	<eos> hand parti
-0.70300037	parti go isi
-0.6178961	go isi headquart
-0.6178961	york citi headquart
-1.0199922	headquart <eos> wouldn
-0.86412823	won t give
-0.6355581	wouldn t give
-0.6843627	<eos> want give
-0.9508017	t give trade
-0.6181431	give trade small
-0.6181431	trade small fraction
-0.66704476	fraction man richard
-0.6181431	man richard nixon
-0.70092565	nixon right now
-1.4593326	it s now
-0.68266153	sound like now
-0.6844921	right now so
-0.6178961	orphan outcast so
-0.7030667	do first all
-0.6178961	first all rememb
-0.6667683	also good rememb
-1.6550568	we re alon
-0.72076595	alon <eos> hundr
-0.6181431	<eos> hundr million
-0.69372857	peopl america billion
-0.43139416	world feel exactli
-0.43139416	parti feel exactli
-0.9853719	way do second
-0.7141905	off we get
-0.7099587	can t get
-0.61539084	do second get
-0.6639656	squad keep get
-0.69372857	second get bed
-0.72076595	bed <eos> trumpster
-0.7187971	submit <eos> want
-1.1664249	don t want
-0.6164359	<eos> trumpster want
-0.69721085	see peopl like
-0.7035987	ll fight like
-0.6164359	music sound like
-0.7077116	like us jewish
-0.6181431	us jewish coastal
-0.6181431	jewish coastal elit
-0.6181431	coastal elit educ
-0.6178961	elit educ social
-0.6178961	<eos> experi social
-0.66704476	educ social progress
-0.6181431	social progress hollywood
-0.6181431	progress hollywood sob
-0.6181431	hollywood sob wail
-1.652579	we re talk
-0.6178961	sob wail talk
-0.66704476	talk move canada
-0.69897014	<eos> and neither
-0.9502705	t give neither
-0.720481	you <eos> here
-0.7089887	stop american here
-1.3692625	we ll fuck
-0.6933142	t <eos> fight
-0.6933142	involv <eos> fight
-0.6933142	choos <eos> fight
-0.6802309	trump presid fight
-1.3482884	we ll fight
-0.61434823	ll fuck fight
-0.61434823	first amend fight
-0.720481	fight <eos> roxi
-0.97761035	finest hour roxi
-0.6667683	<eos> roxi there
-0.6178961	senat repres there
-0.99990225	s time kind
-0.6181431	time kind languag
-1.6550568	we re powerless
-1.6550568	we re voiceless
-0.7187971	voiceless <eos> don
-0.66513455	past person don
-0.9154397	acknowledg return don
-1.1722397	don t major
-0.6178961	t major hous
-0.6667683	includ egg hous
-0.66704476	major hous senat
-0.6181431	hous senat repres
-1.4710819	it s also
-0.6178961	s also good
-0.91835135	ll lose good
-0.66704476	good rememb member
-1.0113217	do <eos> make
-1.3482884	we ll make
-0.66279984	hand opportun make
-0.66279984	think guy make
-0.61434823	fluenci gif make
-0.69926786	<eos> make sure
-0.69926786	sure peopl sent
-0.6846506	washington includ kamala
-0.69372857	harri take strength
-0.7112982	i ll never
-0.6178961	take strength never
-0.6916976	never take day
-0.6164359	american darkest day
-0.6164359	a five day
-0.6846506	take day off
-0.69372857	we get involv
-1.1508771	<eos> fight injustic
-0.6181431	fight injustic anywher
-0.7106848	see it whether
-0.7027001	can go check
-0.70276755	s write check
-0.66704476	write check roll
-0.6181431	check roll sleev
-0.69372857	<eos> famili fairli
-0.6181431	famili fairli insul
-0.6181431	fairli insul effect
-0.69372857	fight famili aren
-1.1508771	<eos> fight woman
-0.6178961	fight woman keep
-0.6667683	s squad keep
-0.70300037	keep right choos
-0.7030667	fight first amend
-0.7056862	amend fight mostli
-0.6164359	fight mostli equal
-0.6164359	not guarante equal
-0.6164359	equal outcom equal
-0.6846506	mostli equal not
-0.6181431	equal not guarante
-0.6846506	guarante equal outcom
-0.6843627	countri hand opportun
-0.6843627	outcom equal opportun
-0.72076595	opportun <eos> stand
-1.2191001	didn t stop
-0.70929337	thing american darkest
-0.6843627	darkest day alway
-0.6667683	day alway alway
-0.66704476	alway alway been
-0.6181431	alway been follow
-0.6667683	go check finest
-0.6178961	been follow finest
-0.66704476	hour roxi know
-0.66704476	know predict let
-0.6178961	predict let past
-0.6178961	rock devote past
-0.720481	friday <eos> guy
-0.6934346	t think guy
-0.7090343	make year without
-0.6178961	douch nozzl without
-0.66704476	year without commit
-0.6181431	without commit impeach
-0.6178961	commit impeach crime
-0.6178961	realli crack crime
-1.0199922	crime <eos> manag
-0.6181431	<eos> manag douch
-0.6181431	manag douch nozzl
-0.66704476	nozzl without break
-0.6181431	without break law
-0.72076595	year <eos> three
-0.6846506	fight like hell
-0.6843627	ll win they
-0.7102575	lose time they
-1.0489969	they ll lose
-0.72076595	good <eos> honey
