\data\
ngram 1=427
ngram 2=660
ngram 3=709

\1-grams:
-0.22328554	<unk>
-inf	<s>	-0.01865354
-3.374312	</s>
-2.982654	casi	-0.22955558
-2.8822834	mod	-0.124938734
-1.8718414	repli	-0.430298
-2.3623455	photo	-0.01865354
-3.374312	between	-0.01865354
-2.982654	world	-0.01865354
-3.374312	human	-0.01865354
-2.982654	machin	-0.01865354
-1.1580579	<eos>	-0.043121524
-3.374312	kid	-0.01865354
-2.3623455	i	-0.07825067
-3.374312	tinker	-0.01865354
-2.3623455	make	-0.018653512
-3.374312	stuff	-0.01865354
-2.2323399	it	-0.30103
-2.5487518	s	-0.01865354
-2.8822834	alway	-0.01865354
-3.374312	wa	-0.01865354
-3.374312	betoaheavyindustri	-0.01865354
-3.374312	citi	-0.01865354
-2.3623455	light	-0.018653512
-2.982654	stay	-0.01865354
-2.982654	pretti	-0.01865354
-2.8822834	still	-0.01865354
-2.5487518	one	-0.01865354
-3.374312	actual	-0.01865354
-3.374312	accident	-0.01865354
-3.374312	took	-0.01865354
-3.374312	three	-0.01865354
-3.374312	shot	-0.01865354
-3.374312	total	-0.01865354
-3.374312	turn	-0.01865354
-2.982654	good	-0.01865354
-3.374312	two	-0.01865354
-2.982654	bit	-0.01865354
-3.374312	blurri	-0.01865354
-3.374312	long	-0.01865354
-3.374312	exposur	-0.01865354
-2.982654	add	-0.01865354
-3.374312	fine	-0.01865354
-3.374312	effect	-0.01865354
-3.374312	photographitoaheavyindustri	-0.01865354
-3.374312	gener	-0.01865354
-3.374312	known	-0.01865354
-3.374312	hate	-0.01865354
-3.374312	buy	-0.01865354
-3.374312	pant	-0.01865354
-3.374312	never	-0.01865354
-3.374312	m	-0.01865354
-3.374312	curiou	-0.01865354
-3.374312	clip	-0.01865354
-3.374312	ribbon	-0.01865354
-3.374312	front	-0.01865354
-2.982654	right	-0.01865354
-2.982654	function	-0.01865354
-3.374312	piec	-0.01865354
-3.374312	decor	-0.01865354
-3.374312	aokuco	-0.01865354
-3.374312	cord	-0.01865354
-3.374312	easili	-0.01865354
-3.374312	transform	-0.01865354
-3.374312	keyfob	-0.01865354
-3.374312	lanyard	-0.01865354
-2.1324177	post	-0.018653512
-3.374312	close	-0.01865354
-3.374312	up	-0.01865354
-3.374312	few	-0.01865354
-3.374312	soon	-0.01865354
-2.8822834	short	-0.01865354
-2.982654	review	-0.01865354
-3.374312	tooredpaintinmyroom	-0.01865354
-3.374312	price	-0.01865354
-3.374312	around	-0.01865354
-1.423947	digit	-0.32482243
-3.374312	eur	-0.01865354
-3.374312	luck	-0.01865354
-2.8822834	find	-0.01865354
-3.374312	nice	-0.01865354
-3.374312	discountcasi	-0.01865354
-2.982654	and	-0.01865354
-2.8822834	someth	-0.01865354
-3.374312	complet	-0.01865354
-2.5487518	differ	-0.124938734
-3.374312	anyon	-0.01865354
-2.982654	know	-0.01865354
-2.982654	me	-0.22955558
-3.374312	ve	-0.01865354
-2.982654	collect	-0.01865354
-2.982654	quit	-0.01865354
-2.982654	em	-0.01865354
-2.982654	best	-0.01865354
-3.374312	possibl	-0.01865354
-2.982654	detail	-0.01865354
-3.374312	everyth	-0.01865354
-3.374312	wear	-0.01865354
-2.982654	sometim	-0.01865354
-2.8822834	think	-0.01865354
-2.982654	style	-0.01865354
-3.374312	monoton	-0.01865354
-3.374312	scarv	-0.01865354
-3.374312	current	-0.01865354
-3.374312	count	-0.01865354
-3.374312	hehe	-0.01865354
-3.374312	also	-0.01865354
-2.982654	would	-0.01865354
-2.3623455	like	-0.018653512
-2.982654	see	-0.01865354
-3.374312	day	-0.01865354
-3.374312	tootheshadowvaultawait	-0.01865354
-3.374312	hi	-0.01865354
-3.374312	do	-0.01865354
-2.982654	mind	-0.01865354
-2.982654	give	-0.01865354
-3.374312	cloth	-0.01865354
-3.374312	advic	-0.01865354
-2.982654	d	-0.01865354
-3.374312	haha	-0.01865354
-3.374312	true	-0.01865354
-2.982654	there	-0.01865354
-3.374312	singl	-0.01865354
-3.374312	here	-0.01865354
-3.374312	caus	-0.01865354
-2.5487518	new	-0.01865354
-3.374312	specif	-0.01865354
-2.8822834	feel	-0.14734702
-3.374312	free	-0.01865354
-3.374312	asktag	-0.01865354
-3.374312	hesitanalien	-0.01865354
-3.374312	movi	-0.01865354
-2.982654	could	-0.01865354
-3.374312	re	-0.01865354
-3.374312	watch	-0.01865354
-3.374312	anytim	-0.01865354
-2.982654	mood	-0.01865354
-2.8822834	love	-0.01865354
-3.374312	fallen	-0.01865354
-3.374312	angel	-0.01865354
-3.374312	crouch	-0.01865354
-3.374312	tiger	-0.01865354
-3.374312	hidden	-0.01865354
-3.374312	dragon	-0.01865354
-2.8822834	back	-0.01865354
-2.982654	futur	-0.01865354
-3.374312	blade	-0.01865354
-3.374312	runner	-0.01865354
-3.374312	hacker	-0.01865354
-3.374312	film	-0.01865354
-2.982654	thi	-0.01865354
-2.982654	list	-0.01865354
-2.5487518	tag	-0.01865354
-2.982654	o	-0.22955558
-3.374312	blivia	-0.01865354
-2.982654	dax	-0.22955558
-3.374312	sy	-0.01865354
-2.982654	signalrun	-0.01865354
-3.374312	theghostbox	-0.01865354
-3.374312	dustrial	-0.01865354
-3.374312	inc	-0.01865354
-3.374312	kaosflux	-0.01865354
-3.374312	neorobospecialbre	-0.01865354
-2.982654	is	-0.01865354
-3.374312	bath	-0.01865354
-2.982654	process	-0.01865354
-2.982654	part	-0.01865354
-3.374312	yeap	-0.01865354
-3.374312	wash	-0.01865354
-3.374312	cylind	-0.01865354
-3.374312	head	-0.01865354
-3.374312	block	-0.01865354
-3.374312	engin	-0.01865354
-3.374312	taken	-0.01865354
-2.982654	chang	-0.01865354
-3.374312	water	-0.01865354
-3.374312	oil	-0.01865354
-3.374312	hahakhymeira	-0.01865354
-3.374312	jodi	-0.01865354
-3.374312	lift	-0.01865354
-3.374312	those	-0.01865354
-2.982654	boot	-0.01865354
-3.374312	take	-0.01865354
-3.374312	omg	-0.01865354
-3.374312	they	-0.01865354
-3.374312	favourit	-0.01865354
-3.374312	preciou	-0.01865354
-3.374312	thing	-0.01865354
-2.982654	bought	-0.01865354
-2.8822834	year	-0.01865354
-2.8822834	first	-0.01865354
-3.374312	paycheckcasi	-0.01865354
-2.982654	where	-0.01865354
-2.982654	get	-0.01865354
-3.374312	mine	-0.01865354
-3.374312	ago	-0.01865354
-3.374312	pennangalan	-0.01865354
-2.8822834	look	-0.01865354
-2.982654	brand	-0.01865354
-3.374312	small	-0.01865354
-3.374312	lower	-0.01865354
-3.374312	platform	-0.01865354
-3.374312	half	-0.01865354
-3.374312	use	-0.01865354
-3.374312	cm	-0.01865354
-2.982654	realli	-0.01865354
-3.374312	everyday	-0.01865354
-3.374312	wearopenstateofmiind	-0.01865354
-3.374312	through	-0.01865354
-3.374312	glass	-0.01865354
-2.5487518	you	-0.01865354
-3.374312	great	-0.01865354
-3.374312	job	-0.01865354
-3.374312	thank	-0.01865354
-2.982654	much	-0.01865354
-3.374312	edit	-0.01865354
-3.374312	all	-0.01865354
-3.374312	hous	-0.01865354
-3.374312	that	-0.01865354
-3.374312	eye	-0.01865354
-3.374312	cannot	-0.01865354
-3.374312	stand	-0.01865354
-3.374312	kind	-0.01865354
-3.374312	bright	-0.01865354
-3.374312	anyth	-0.01865354
-2.8822834	similar	-0.01865354
-2.8822834	so	-0.01865354
-3.374312	less	-0.01865354
-3.374312	captur	-0.01865354
-3.374312	imag	-0.01865354
-2.982654	inspir	-0.01865354
-3.374312	hit	-0.01865354
-3.374312	mestainlesssteelfac	-0.01865354
-3.374312	hey	-0.01865354
-3.374312	recommend	-0.01865354
-3.374312	men	-0.01865354
-2.8822834	bag	-0.01865354
-3.374312	tri	-0.01865354
-3.374312	cote	-0.01865354
-2.982654	et	-0.22955558
-3.374312	ciel	-0.01865354
-2.982654	leather	-0.01865354
-3.374312	rangecot	-0.01865354
-3.374312	favorit	-0.01865354
-3.374312	come	-0.01865354
-3.374312	design	-0.01865354
-3.374312	simplic	-0.01865354
-3.374312	fit	-0.01865354
-3.374312	mention	-0.01865354
-3.374312	devoa	-0.01865354
-3.374312	might	-0.01865354
-3.374312	perhapshadow	-0.01865354
-2.982654	dio	-0.22955558
-3.374312	sama	-0.01865354
-2.982654	shadow	-0.22955558
-3.374312	pose	-0.01865354
-3.374312	topless	-0.01865354
-3.374312	your	-0.01865354
-3.374312	sheeeshh	-0.01865354
-3.374312	sincerest	-0.01865354
-3.374312	condol	-0.01865354
-3.374312	wish	-0.01865354
-2.8822834	peopl	-0.01865354
-3.374312	knew	-0.01865354
-3.374312	better	-0.01865354
-3.374312	enough	-0.01865354
-3.374312	said	-0.01865354
-3.374312	jacket	-0.01865354
-3.374312	sexi	-0.01865354
-3.374312	in	-0.01865354
-3.374312	sorta	-0.01865354
-3.374312	creepi	-0.01865354
-2.982654	ask	-0.01865354
-3.374312	tbh	-0.01865354
-3.374312	msg	-0.01865354
-3.374312	dkri	-0.01865354
-3.374312	ether	-0.01865354
-3.374312	go	-0.01865354
-3.374312	self	-0.01865354
-2.982654	mfh	-0.01865354
-3.374312	hummel	-0.01865354
-3.374312	nike	-0.01865354
-3.374312	tacticalbag	-0.01865354
-3.374312	shemagh	-0.01865354
-3.374312	from	-0.01865354
-2.982654	shoulder	-0.01865354
-3.374312	bmshop	-0.01865354
-3.374312	rs	-0.01865354
-3.374312	or	-0.01865354
-3.374312	onlin	-0.01865354
-3.374312	militari	-0.01865354
-3.374312	storetell	-0.01865354
-3.374312	lot	-0.01865354
-3.374312	person	-0.01865354
-2.982654	music	-0.01865354
-3.374312	listen	-0.01865354
-3.374312	to	-0.01865354
-3.374312	put	-0.01865354
-3.374312	mp	-0.01865354
-3.374312	player	-0.01865354
-2.982654	itun	-0.22955558
-3.374312	spotifi	-0.01865354
-3.374312	etc	-0.01865354
-2.982654	shuffl	-0.01865354
-3.374312	song	-0.01865354
-3.374312	rule	-0.01865354
-3.374312	skip	-0.01865354
-3.374312	herliquidarmsi	-0.01865354
-3.374312	don	-0.01865354
-3.374312	t	-0.01865354
-3.374312	goe	-0.01865354
-3.374312	phone	-0.01865354
-3.374312	librari	-0.01865354
-3.374312	origa	-0.01865354
-3.374312	красно	-0.01865354
-3.374312	солнце	-0.01865354
-3.374312	kurasuno	-0.01865354
-3.374312	sonts	-0.01865354
-3.374312	kavinski	-0.01865354
-3.374312	testarossa	-0.01865354
-3.374312	nightdriv	-0.01865354
-3.374312	shigeru	-0.01865354
-3.374312	umebayashi	-0.01865354
-3.374312	farewel	-0.01865354
-3.374312	no	-0.01865354
-3.374312	tan	-0.01865354
-3.374312	dun	-0.01865354
-3.374312	spirit	-0.01865354
-3.374312	fight	-0.01865354
-3.374312	haujobb	-0.01865354
-3.374312	doubley	-0.01865354
-2.982654	dead	-0.01865354
-3.374312	astronaut	-0.01865354
-3.374312	pier	-0.01865354
-3.374312	danc	-0.01865354
-3.374312	andromeda	-0.01865354
-3.374312	소지섭	-0.01865354
-3.374312	ji	-0.01865354
-3.374312	sub	-0.01865354
-3.374312	feat	-0.01865354
-3.374312	샛별	-0.01865354
-3.374312	christin	-0.01865354
-3.374312	minut	-0.01865354
-3.374312	미쳐	-0.01865354
-3.374312	crazi	-0.01865354
-3.374312	graylok	-0.01865354
-3.374312	salli	-0.01865354
-3.374312	shear	-0.01865354
-3.374312	hesitanalienstori	-0.01865354
-3.374312	continu	-0.01865354
-2.8822834	time	-0.01865354
-3.374312	retrofutur	-0.01865354
-3.374312	color	-0.01865354
-3.374312	pad	-0.01865354
-3.374312	neon	-0.01865354
-3.374312	tint	-0.01865354
-3.374312	geometri	-0.01865354
-3.374312	deconstruct	-0.01865354
-3.374312	thingit	-0.01865354
-3.374312	almost	-0.01865354
-3.374312	five	-0.01865354
-3.374312	sinc	-0.01865354
-3.374312	exist	-0.01865354
-2.8822834	blog	-0.01865354
-3.374312	miss	-0.01865354
-3.374312	enrich	-0.01865354
-3.374312	content	-0.01865354
-3.374312	slightli	-0.01865354
-3.374312	inform	-0.01865354
-3.374312	text	-0.01865354
-2.8822834	well	-0.01865354
-3.374312	repres	-0.01865354
-2.982654	form	-0.01865354
-2.982654	art	-0.01865354
-3.374312	whatnot	-0.01865354
-3.374312	perhap	-0.01865354
-3.374312	seri	-0.01865354
-3.374312	deviat	-0.01865354
-3.374312	usual	-0.01865354
-3.374312	write	-0.01865354
-3.374312	about	-0.01865354
-2.982654	yet	-0.01865354
-3.374312	bear	-0.01865354
-3.374312	melot	-0.01865354
-3.374312	final	-0.01865354
-3.374312	creat	-0.01865354
-3.374312	vk	-0.01865354
-3.374312	account	-0.01865354
-3.374312	odd	-0.01865354
-3.374312	bound	-0.01865354
-3.374312	happen	-0.01865354
-3.374312	sooner	-0.01865354
-3.374312	later	-0.01865354
-3.374312	ml	-0.01865354
-3.374312	slowli	-0.01865354
-3.374312	if	-0.01865354
-3.374312	question	-0.01865354
-2.982654	suggest	-0.01865354
-3.374312	simpli	-0.01865354
-3.374312	share	-0.01865354
-3.374312	random	-0.01865354
-2.982654	thought	-0.01865354
-3.374312	let	-0.01865354
-3.374312	tuneblog	-0.01865354
-3.374312	present	-0.01865354
-3.374312	interview	-0.01865354
-3.374312	anti	-0.01865354
-3.374312	muse	-0.01865354
-3.374312	hope	-0.01865354
-3.374312	itlast	-0.01865354
-3.374312	month	-0.01865354
-3.374312	mani	-0.01865354
-3.374312	fetish	-0.01865354
-3.374312	pov	-0.01865354
-3.374312	fulli	-0.01865354
-3.374312	done	-0.01865354
-3.374312	keep	-0.01865354
-3.374312	busi	-0.01865354
-3.374312	u	-0.01865354
-3.374312	compliment	-0.01865354
-3.374312	critic	-0.01865354
-3.374312	word	-0.01865354
-3.374312	say	-0.01865354
-3.374312	send	-0.01865354
-3.374312	messag	-0.01865354
-3.374312	inbox	-0.01865354
-3.374312	enjoy	-0.01865354

\2-grams:
-1.3721569	enjoy </s>
-1.3661377	<s> casi	-0.01725085
-1.657222	blivia casi	-0.01725085
-0.38581342	casi mod	-0.01725085
-1.3635299	discountcasi mod	-0.01725085
-1.3635299	paycheckcasi mod	-0.01725085
-0.6028182	mod repli	-0.24194883
-1.2603499	betoaheavyindustri repli	-0.01725085
-1.2603499	photographitoaheavyindustri repli	-0.01725085
-1.2603499	tooredpaintinmyroom repli	-0.01725085
-1.2603499	tootheshadowvaultawait repli	-0.01725085
-1.2603499	neorobospecialbre repli	-0.01725085
-1.2603499	hahakhymeira repli	-0.01725085
-1.2603499	wearopenstateofmiind repli	-0.01725085
-1.2603499	mestainlesssteelfac repli	-0.01725085
-1.2603499	sama repli	-0.24194883
-1.2603499	ether repli	-0.01725085
-0.26500463	repli photo	-0.09741187
-2.3383598	<eos> photo	-0.01725085
-1.9007505	make photo	-0.01725085
-1.3353474	accident photo	-0.01725085
-1.3353474	up photo	-0.01725085
-2.374008	photo between	-0.01725085
-1.3661377	between world	-0.01725085
-1.3661377	human world	-0.01725085
-1.6690667	world human	-0.01725085
-1.657222	world machin	-0.01725085
-2.3467398	s machin	-0.01725085
-1.1524673	photo <eos>	-0.01725085
-1.0575329	machin <eos>	-0.01725085
-1.125055	light <eos>	-0.01725085
-1.1130469	one <eos>	-0.01725085
-1.0575329	good <eos>	-0.01725085
-0.96411604	blurri <eos>	-0.01725085
-1.0575329	right <eos>	-0.01725085
-0.96411604	decor <eos>	-0.01725085
-0.96411604	lanyard <eos>	-0.01725085
-0.96411604	price <eos>	-0.01725085
-0.33270943	digit <eos>	-0.01725085
-0.96411604	eur <eos>	-0.01725085
-0.5351985	differ <eos>	-0.01725085
-1.0575329	know <eos>	-0.01725085
-1.0575329	em <eos>	-0.01725085
-0.96411604	wear <eos>	-0.01725085
-1.0575329	style <eos>	-0.01725085
-0.96411604	hehe <eos>	-0.01725085
-0.96411604	advic <eos>	-0.01725085
-1.0575329	futur <eos>	-0.01725085
-1.0575329	is <eos>	-0.01725085
-1.0575329	part <eos>	-0.01725085
-0.96411604	yeap <eos>	-0.01725085
-1.0575329	chang <eos>	-0.01725085
-0.96411604	oil <eos>	-0.01725085
-0.96411604	omg <eos>	-0.01725085
-0.96411604	favourit <eos>	-0.01725085
-1.0575329	get <eos>	-0.01725085
-0.96411604	pennangalan <eos>	-0.01725085
-1.1130469	you <eos>	-0.01725085
-0.96411604	that <eos>	-0.01725085
-1.093743	similar <eos>	-0.01725085
-0.96411604	hey <eos>	-0.01725085
-1.093743	bag <eos>	-0.01725085
-0.96411604	condol <eos>	-0.01725085
-1.093743	peopl <eos>	-0.01725085
-0.96411604	said <eos>	-0.01725085
-0.96411604	jacket <eos>	-0.01725085
-0.96411604	from <eos>	-0.01725085
-0.96411604	to <eos>	-0.01725085
-0.96411604	librari <eos>	-0.01725085
-0.96411604	no <eos>	-0.01725085
-0.96411604	feat <eos>	-0.01725085
-0.96411604	continu <eos>	-0.01725085
-0.96411604	account <eos>	-0.01725085
-0.96411604	muse <eos>	-0.01725085
-0.96411604	pov <eos>	-0.01725085
-0.96411604	inbox <eos>	-0.01725085
-2.9832385	<eos> kid	-0.01725085
-2.3383598	<eos> i	-0.01725085
-1.3353474	kid i	-0.01725085
-1.5989422	never i	-0.01725085
-0.38393155	me i	-0.01725085
-1.5989422	boot i	-0.01725085
-2.1331382	i tinker	-0.01725085
-2.3383598	<eos> make	-0.01725085
-1.3353474	tinker make	-0.01725085
-1.3353474	scarv make	-0.01725085
-1.8335812	new make	-0.01725085
-1.5989422	ask make	-0.01725085
-2.0548756	make stuff	-0.01725085
-2.0253701	photo it	-0.16046615
-1.4449503	<eos> it	-0.36688757
-1.3219136	stuff it	-0.01725085
-2.0402877	s it	-0.01725085
-1.7071998	so it	-0.01725085
-1.5746032	yet it	-0.01725085
-0.30591604	it s	-0.01725085
-1.5419949	digit s	-0.01725085
-1.34921	men s	-0.01725085
-1.34921	thingit s	-0.01725085
-2.3224192	s alway	-0.01725085
-1.652139	quit alway	-0.01725085
-1.3635299	hous alway	-0.01725085
-1.8410765	alway wa	-0.01725085
-1.3721569	wa betoaheavyindustri	-0.01725085
-2.374008	photo citi	-0.01725085
-1.3353474	citi light	-0.01725085
-1.3353474	job light	-0.01725085
-1.3353474	all light	-0.01725085
-1.3353474	bright light	-0.01725085
-1.3353474	miss light	-0.01725085
-2.7960746	<eos> stay	-0.01725085
-2.0266228	light stay	-0.01725085
-1.657222	stay pretti	-0.01725085
-1.3661377	turn pretti	-0.01725085
-2.7341683	<eos> still	-0.01725085
-1.652139	pretti still	-0.01725085
-1.3635299	they still	-0.01725085
-1.7767204	still one	-0.01725085
-1.34921	total one	-0.01725085
-1.6247265	see one	-0.01725085
-1.6247265	ciel one	-0.01725085
-2.9832385	<eos> actual	-0.01725085
-1.3721569	actual accident	-0.01725085
-2.9832385	<eos> took	-0.01725085
-1.3721569	took three	-0.01725085
-1.3721569	three shot	-0.01725085
-1.3721569	shot total	-0.01725085
-1.9619718	one turn	-0.01725085
-1.657222	pretti good	-0.01725085
-1.3661377	deconstruct good	-0.01725085
-2.9832385	<eos> two	-0.01725085
-2.7960746	<eos> bit	-0.01725085
-1.3661377	two bit	-0.01725085
-1.6690667	bit blurri	-0.01725085
-2.9832385	<eos> long	-0.01725085
-1.3721569	long exposur	-0.01725085
-1.3661377	exposur add	-0.01725085
-1.657222	best add	-0.01725085
-1.6690667	add fine	-0.01725085
-1.3721569	fine effect	-0.01725085
-1.3721569	effect photographitoaheavyindustri	-0.01725085
-2.141572	it gener	-0.16046615
-1.3721569	gener known	-0.16046615
-1.3721569	known hate	-0.16046615
-1.3721569	hate buy	-0.16046615
-1.3721569	buy pant	-0.16046615
-1.3721569	pant never	-0.01725085
-0.86263365	i m	-0.01725085
-1.6690667	m curiou	-0.01725085
-1.3721569	curiou clip	-0.01725085
-1.3721569	clip ribbon	-0.01725085
-1.3721569	ribbon front	-0.01725085
-1.3661377	front right	-0.01725085
-1.3661377	imag right	-0.01725085
-2.7960746	<eos> function	-0.01725085
-1.3661377	simplic function	-0.01725085
-1.6690667	function piec	-0.01725085
-1.3721569	piec decor	-0.01725085
-2.4080334	s aokuco	-0.01725085
-1.3721569	aokuco cord	-0.01725085
-1.3721569	cord easili	-0.01725085
-1.3721569	easili transform	-0.01725085
-1.3721569	transform keyfob	-0.01725085
-1.3721569	keyfob lanyard	-0.01725085
-1.0466069	repli post	-0.0690155
-1.9632107	photo post	-0.01725085
-2.1347744	<eos> post	-0.01725085
-2.3106134	digit post	-0.01725085
-1.3088828	singl post	-0.01725085
-1.6762114	first post	-0.01725085
-1.3088828	ml post	-0.01725085
-2.3364112	post close	-0.01725085
-1.3721569	close up	-0.01725085
-2.374008	photo few	-0.01725085
-1.3721569	few soon	-0.01725085
-1.3635299	soon short	-0.01725085
-1.652139	list short	-0.01725085
-1.3635299	present short	-0.01725085
-2.283897	post review	-0.01725085
-1.8235904	short review	-0.01725085
-1.6690667	review tooredpaintinmyroom	-0.01725085
-1.6690667	never price	-0.01725085
-2.9832385	<eos> around	-0.01725085
-1.3090777	<eos> digit	-0.01725085
-1.414876	i digit	-0.01725085
-1.4023646	s digit	-0.01725085
-1.3947462	post digit	-0.01725085
-1.1071652	around digit	-0.01725085
-1.3448281	digit digit	-0.01725085
-1.1071652	count digit	-0.01725085
-1.1071652	hesitanalien digit	-0.01725085
-1.1071652	anytim digit	-0.01725085
-1.3001184	love digit	-0.01725085
-1.1071652	angel digit	-0.01725085
-1.1071652	dragon digit	-0.01725085
-1.2432722	futur digit	-0.01725085
-1.1071652	runner digit	-0.01725085
-1.3001184	first digit	-0.01725085
-1.1071652	mine digit	-0.01725085
-1.1071652	use digit	-0.01725085
-1.1071652	mp digit	-0.01725085
-1.1071652	sonts digit	-0.01725085
-1.1071652	nightdriv digit	-0.01725085
-1.1071652	fight digit	-0.01725085
-1.1071652	doubley digit	-0.01725085
-1.1071652	pier digit	-0.01725085
-1.1071652	andromeda digit	-0.01725085
-1.1071652	sub digit	-0.01725085
-1.1071652	샛별 digit	-0.01725085
-1.1071652	retrofutur digit	-0.01725085
-2.7955205	digit eur	-0.01725085
-1.6690667	bit luck	-0.01725085
-1.8161548	alway find	-0.01725085
-1.3635299	luck find	-0.01725085
-1.3635299	rs find	-0.01725085
-1.8410765	find nice	-0.01725085
-1.3721569	nice discountcasi	-0.01725085
-2.3170435	photo and	-0.01725085
-1.8235904	find and	-0.01725085
-1.8161548	and someth	-0.01725085
-1.9293448	new someth	-0.01725085
-1.8161548	blog someth	-0.01725085
-1.8410765	someth complet	-0.01725085
-1.9540489	make differ	-0.01725085
-2.206827	s differ	-0.01725085
-1.34921	complet differ	-0.01725085
-1.34921	slightli differ	-0.01725085
-2.9832385	<eos> anyon	-0.01725085
-1.3661377	anyon know	-0.01725085
-1.3661377	let know	-0.01725085
-1.657222	know me	-0.01725085
-1.3661377	christin me	-0.01725085
-2.1331382	i ve	-0.01725085
-1.3661377	ve collect	-0.01725085
-1.3661377	current collect	-0.01725085
-2.7960746	<eos> quit	-0.01725085
-1.657222	collect quit	-0.01725085
-2.7226124	digit em	-0.01725085
-1.8235904	find em	-0.01725085
-1.657222	em best	-0.01725085
-1.657222	give best	-0.01725085
-1.6690667	best possibl	-0.01725085
-2.3170435	photo detail	-0.01725085
-1.3661377	possibl detail	-0.01725085
-1.6690667	detail everyth	-0.01725085
-1.3721569	everyth wear	-0.01725085
-2.7960746	<eos> sometim	-0.01725085
-1.3661377	edit sometim	-0.01725085
-1.652139	sometim think	-0.01725085
-1.8161548	time think	-0.01725085
-1.3635299	melot think	-0.01725085
-1.8235904	think style	-0.01725085
-1.3661377	mention style	-0.01725085
-1.6690667	style monoton	-0.01725085
-1.3721569	monoton scarv	-0.01725085
-2.9832385	<eos> current	-0.01725085
-1.6690667	collect count	-0.01725085
-2.3364112	post hehe	-0.01725085
-2.9832385	<eos> also	-0.01725085
-1.3661377	also would	-0.01725085
-1.657222	suggest would	-0.01725085
-1.7405704	alway like	-0.01725085
-1.5989422	would like	-0.01725085
-1.3353474	simpli like	-0.01725085
-1.5989422	hope like	-0.01725085
-1.3353474	fetish like	-0.01725085
-2.0266228	like see	-0.01725085
-1.9390191	you see	-0.01725085
-1.9619718	one day	-0.01725085
-1.3721569	day tootheshadowvaultawait	-0.01725085
-2.3364112	post hi	-0.01725085
-1.3721569	hi do	-0.01725085
-1.3661377	do mind	-0.01725085
-1.3661377	specif mind	-0.01725085
-1.657222	mind give	-0.01725085
-1.8235904	so give	-0.01725085
-1.6690667	give cloth	-0.01725085
-1.3721569	cloth advic	-0.01725085
-2.7960746	<eos> d	-0.01725085
-1.9390191	you d	-0.01725085
-1.6690667	d haha	-0.01725085
-1.3721569	haha true	-0.01725085
-1.657222	review there	-0.01725085
-1.3661377	true there	-0.01725085
-1.6690667	there singl	-0.01725085
-2.3364112	post here	-0.01725085
-1.3721569	here caus	-0.01725085
-1.9540489	make new	-0.01725085
-2.206827	s new	-0.01725085
-1.34921	caus new	-0.01725085
-1.6247265	brand new	-0.01725085
-1.8410765	someth specif	-0.01725085
-2.0148156	make feel	-0.01725085
-1.652139	mind feel	-0.01725085
-1.3635299	say feel	-0.01725085
-0.5622445	feel free	-0.01725085
-1.6690667	free asktag	-0.01725085
-1.3721569	asktag hesitanalien	-0.01725085
-2.7955205	digit movi	-0.01725085
-2.283897	post could	-0.16046615
-1.3661377	movi could	-0.01725085
-1.6690667	could re	-0.01725085
-1.3721569	re watch	-0.01725085
-1.3721569	watch anytim	-0.01725085
-2.7960746	<eos> mood	-0.01725085
-1.657222	right mood	-0.01725085
-1.652139	mood love	-0.01725085
-1.9293448	tag love	-0.01725085
-1.3635299	interview love	-0.01725085
-2.9832385	<eos> fallen	-0.01725085
-1.3721569	fallen angel	-0.01725085
-2.9832385	<eos> crouch	-0.01725085
-1.3721569	crouch tiger	-0.01725085
-1.3721569	tiger hidden	-0.01725085
-1.3721569	hidden dragon	-0.01725085
-2.7341683	<eos> back	-0.01725085
-1.3635299	take back	-0.01725085
-1.9293448	year back	-0.01725085
-1.8235904	back futur	-0.01725085
-1.3661377	busi futur	-0.01725085
-2.9832385	<eos> blade	-0.01725085
-1.3721569	blade runner	-0.01725085
-2.9832385	<eos> hacker	-0.01725085
-1.3721569	hacker film	-0.01725085
-1.3661377	film thi	-0.01725085
-1.3661377	whatnot thi	-0.01725085
-1.657222	thi list	-0.01725085
-1.657222	shuffl list	-0.01725085
-1.7767204	short tag	-0.01725085
-1.34921	song tag	-0.01725085
-1.34921	skip tag	-0.01725085
-1.34921	crazi tag	-0.01725085
-1.9390191	tag o	-0.01725085
-1.3661377	shear o	-0.01725085
-0.386367	o blivia	-0.01725085
-1.657222	blivia dax	-0.01725085
-1.657222	signalrun dax	-0.01725085
-0.386367	dax sy	-0.01725085
-1.657222	sy signalrun	-0.01725085
-1.3661377	graylok signalrun	-0.01725085
-1.6690667	signalrun theghostbox	-0.01725085
-1.3721569	theghostbox dustrial	-0.01725085
-1.3721569	dustrial inc	-0.01725085
-1.3721569	inc kaosflux	-0.01725085
-1.3721569	kaosflux neorobospecialbre	-0.01725085
-1.657222	detail is	-0.01725085
-1.8235904	well is	-0.01725085
-1.6690667	is bath	-0.01725085
-1.3661377	bath process	-0.01725085
-1.3661377	taken process	-0.01725085
-1.657222	process part	-0.01725085
-1.3661377	engin part	-0.01725085
-1.6690667	part yeap	-0.01725085
-1.6690667	machin wash	-0.01725085
-1.3721569	wash cylind	-0.01725085
-1.3721569	cylind head	-0.01725085
-1.3721569	head block	-0.01725085
-1.3721569	block engin	-0.01725085
-2.374008	photo taken	-0.01725085
-1.657222	process chang	-0.01725085
-1.3661377	small chang	-0.01725085
-1.6690667	chang water	-0.01725085
-1.3721569	water oil	-0.01725085
-2.9832385	<eos> hahakhymeira	-0.01725085
-2.374008	photo jodi	-0.16046615
-1.3721569	jodi lift	-0.01725085
-1.6690667	lift those	-0.01725085
-1.3661377	those boot	-0.01725085
-1.657222	get boot	-0.01725085
-1.6690667	boot take	-0.01725085
-1.8410765	back omg	-0.01725085
-2.9832385	<eos> they	-0.01725085
-1.8410765	still favourit	-0.01725085
-2.9832385	<eos> preciou	-0.01725085
-1.3721569	preciou thing	-0.01725085
-2.1036859	i bought	-0.01725085
-1.3661377	thing bought	-0.01725085
-1.5529823	digit year	-0.01725085
-1.652139	bought year	-0.01725085
-1.3635299	five year	-0.01725085
-1.8161548	back first	-0.01725085
-1.652139	list first	-0.01725085
-1.3635299	perhap first	-0.01725085
-1.8410765	first paycheckcasi	-0.01725085
-1.657222	lift where	-0.01725085
-1.3661377	shemagh where	-0.01725085
-1.657222	where get	-0.01725085
-1.3661377	msg get	-0.01725085
-1.6690667	bought mine	-0.01725085
-1.9619718	year ago	-0.01725085
-1.3721569	ago pennangalan	-0.01725085
-1.8161548	still look	-0.01725085
-1.652139	d look	-0.01725085
-1.3635299	through look	-0.01725085
-2.7960746	<eos> brand	-0.01725085
-1.8235904	look brand	-0.01725085
-1.9619718	new small	-0.01725085
-2.9832385	<eos> lower	-0.01725085
-1.3721569	lower platform	-0.01725085
-1.3721569	platform half	-0.01725085
-1.3721569	half use	-0.01725085
-2.7955205	digit cm	-0.01725085
-1.3661377	cm realli	-0.01725085
-1.9390191	you realli	-0.01725085
-1.6690667	realli everyday	-0.01725085
-1.3721569	everyday wearopenstateofmiind	-0.01725085
-2.374008	photo through	-0.01725085
-1.8410765	look glass	-0.01725085
-2.4926517	<eos> you	-0.01725085
-1.34921	glass you	-0.01725085
-1.34921	thank you	-0.01725085
-1.34921	tbh you	-0.01725085
-1.6690667	realli great	-0.01725085
-1.3721569	great job	-0.01725085
-2.0548756	light thank	-0.01725085
-2.7960746	<eos> much	-0.01725085
-1.3661377	deviat much	-0.01725085
-1.6690667	much edit	-0.01725085
-1.6690667	sometim all	-0.01725085
-2.0548756	light hous	-0.01725085
-2.0548756	like that	-0.01725085
-2.9832385	<eos> eye	-0.01725085
-1.3721569	eye cannot	-0.01725085
-1.3721569	cannot stand	-0.01725085
-1.3721569	stand kind	-0.01725085
-1.3721569	kind bright	-0.01725085
-2.0548756	light anyth	-0.01725085
-1.3635299	anyth similar	-0.01725085
-1.3635299	might similar	-0.01725085
-1.3635299	or similar	-0.01725085
-2.7341683	<eos> so	-0.01725085
-1.3635299	소지섭 so	-0.01725085
-1.3635299	later so	-0.01725085
-2.4080334	s less	-0.01725085
-1.3721569	less captur	-0.01725085
-1.3721569	captur imag	-0.01725085
-2.7960746	<eos> inspir	-0.01725085
-1.657222	mood inspir	-0.01725085
-1.6690667	inspir hit	-0.01725085
-1.3721569	hit mestainlesssteelfac	-0.01725085
-2.3364112	post hey	-0.01725085
-1.6690667	brand recommend	-0.01725085
-1.3721569	recommend men	-0.01725085
-2.3224192	s bag	-0.01725085
-1.652139	where bag	-0.01725085
-1.652139	shoulder bag	-0.01725085
-1.6690667	m tri	-0.01725085
-1.3721569	tri cote	-0.01725085
-1.3661377	cote et	-0.01725085
-1.3661377	rangecot et	-0.01725085
-0.386367	et ciel	-0.01725085
-1.657222	ciel leather	-0.01725085
-1.657222	topless leather	-0.01725085
-1.6690667	leather rangecot	-0.01725085
-1.9619718	one favorit	-0.01725085
-1.3721569	favorit come	-0.01725085
-1.3721569	come design	-0.01725085
-1.3721569	design simplic	-0.01725085
-1.6690667	function fit	-0.01725085
-1.3721569	fit mention	-0.01725085
-2.9832385	<eos> devoa	-0.01725085
-1.3721569	devoa might	-0.01725085
-1.8410765	similar perhapshadow	-0.01725085
-1.3661377	perhapshadow dio	-0.01725085
-0.38598186	shadow dio	-0.16046615
-0.386367	dio sama	-0.24194883
-2.7960746	<eos> shadow	-0.01725085
-2.283897	post shadow	-0.01725085
-1.6690667	could pose	-0.16046615
-1.3721569	pose topless	-0.01725085
-1.6690667	topless your	-0.01725085
-1.3721569	your sheeeshh	-0.01725085
-1.3721569	sheeeshh sincerest	-0.01725085
-1.3721569	sincerest condol	-0.01725085
-2.9832385	<eos> wish	-0.01725085
-1.9293448	tag peopl	-0.01725085
-1.3635299	wish peopl	-0.01725085
-1.3635299	better peopl	-0.01725085
-1.8410765	peopl knew	-0.01725085
-1.3721569	knew better	-0.01725085
-1.8410765	peopl enough	-0.01725085
-1.3721569	enough said	-0.01725085
-1.6690667	leather jacket	-0.01725085
-1.8410765	look sexi	-0.01725085
-1.3721569	sexi in	-0.01725085
-1.3721569	in sorta	-0.01725085
-1.3721569	sorta creepi	-0.01725085
-1.3661377	creepi ask	-0.01725085
-1.3661377	mani ask	-0.01725085
-1.6690667	ask tbh	-0.01725085
-1.6690667	see msg	-0.01725085
-2.9832385	<eos> dkri	-0.01725085
-1.3721569	dkri ether	-0.01725085
-1.8410765	and go	-0.01725085
-1.3721569	go self	-0.01725085
-2.7960746	<eos> mfh	-0.01725085
-1.3661377	self mfh	-0.01725085
-1.6690667	mfh hummel	-0.01725085
-1.3721569	hummel nike	-0.01725085
-1.3721569	nike tacticalbag	-0.01725085
-1.3721569	tacticalbag shemagh	-0.01725085
-1.8410765	bag from	-0.01725085
-1.657222	mfh shoulder	-0.01725085
-1.3661377	color shoulder	-0.01725085
-1.8410765	bag bmshop	-0.01725085
-1.3721569	bmshop rs	-0.01725085
-1.8410765	and or	-0.01725085
-1.8410765	similar onlin	-0.01725085
-1.3721569	onlin militari	-0.01725085
-1.3721569	militari storetell	-0.01725085
-1.3721569	storetell lot	-0.01725085
-1.3721569	lot person	-0.01725085
-1.3661377	person music	-0.01725085
-1.3661377	phone music	-0.01725085
-1.6690667	music listen	-0.01725085
-1.3721569	listen to	-0.01725085
-2.9832385	<eos> put	-0.01725085
-1.3721569	put mp	-0.01725085
-2.7955205	digit player	-0.01725085
-1.3661377	player itun	-0.01725085
-1.3661377	t itun	-0.01725085
-0.386367	itun spotifi	-0.01725085
-1.6690667	spotifi etc	-0.01725085
-1.657222	spotifi shuffl	-0.01725085
-1.3661377	etc shuffl	-0.01725085
-2.7955205	digit song	-0.01725085
-2.9832385	<eos> rule	-0.01725085
-1.3721569	rule skip	-0.01725085
-1.8410765	love herliquidarmsi	-0.01725085
-1.3721569	herliquidarmsi don	-0.01725085
-1.3721569	don t	-0.01725085
-1.6690667	shuffl goe	-0.01725085
-1.3721569	goe phone	-0.01725085
-1.6690667	music librari	-0.01725085
-2.9832385	<eos> origa	-0.01725085
-1.3721569	origa красно	-0.01725085
-1.3721569	красно солнце	-0.01725085
-1.3721569	солнце kurasuno	-0.01725085
-1.3721569	kurasuno sonts	-0.01725085
-2.9832385	<eos> kavinski	-0.01725085
-1.3721569	kavinski testarossa	-0.01725085
-1.3721569	testarossa nightdriv	-0.01725085
-2.9832385	<eos> shigeru	-0.01725085
-1.3721569	shigeru umebayashi	-0.01725085
-1.3721569	umebayashi farewel	-0.01725085
-1.3721569	farewel no	-0.01725085
-2.9832385	<eos> tan	-0.01725085
-1.3721569	tan dun	-0.01725085
-1.3721569	dun spirit	-0.01725085
-1.3721569	spirit fight	-0.01725085
-2.9832385	<eos> haujobb	-0.01725085
-1.3721569	haujobb doubley	-0.01725085
-2.7960746	<eos> dead	-0.01725085
-1.3661377	danc dead	-0.01725085
-1.6690667	dead astronaut	-0.01725085
-1.3721569	astronaut pier	-0.01725085
-2.9832385	<eos> danc	-0.01725085
-1.6690667	dead andromeda	-0.01725085
-2.9832385	<eos> 소지섭	-0.01725085
-1.8410765	so ji	-0.01725085
-1.3721569	ji sub	-0.01725085
-1.9619718	year feat	-0.01725085
-2.9832385	<eos> 샛별	-0.01725085
-2.7955205	digit christin	-0.01725085
-2.7955205	digit minut	-0.01725085
-1.3721569	minut 미쳐	-0.01725085
-1.3721569	미쳐 crazi	-0.01725085
-1.9619718	tag graylok	-0.01725085
-1.6690667	sy salli	-0.01725085
-1.3721569	salli shear	-0.01725085
-1.9654807	mod hesitanalienstori	-0.01725085
-1.3721569	hesitanalienstori continu	-0.01725085
-2.7341683	<eos> time	-0.01725085
-1.652139	quit time	-0.01725085
-1.3635299	slowli time	-0.01725085
-1.8410765	time retrofutur	-0.01725085
-2.4080334	s color	-0.01725085
-1.6690667	shoulder pad	-0.01725085
-1.3721569	pad neon	-0.01725085
-1.3721569	neon tint	-0.01725085
-1.3721569	tint geometri	-0.01725085
-1.3721569	geometri deconstruct	-0.01725085
-1.6690667	good thingit	-0.01725085
-2.4080334	s almost	-0.01725085
-1.3721569	almost five	-0.01725085
-1.9619718	year sinc	-0.01725085
-1.3721569	sinc exist	-0.01725085
-1.9293448	new blog	-0.01725085
-1.3635299	exist blog	-0.01725085
-1.3635299	content blog	-0.01725085
-1.8410765	blog miss	-0.01725085
-1.8410765	think enrich	-0.01725085
-1.3721569	enrich content	-0.01725085
-1.8410765	someth slightli	-0.01725085
-1.9654807	differ inform	-0.01725085
-1.3721569	inform text	-0.01725085
-1.8161548	time well	-0.01725085
-1.8161548	blog well	-0.01725085
-1.3635299	text well	-0.01725085
-1.8410765	well repres	-0.01725085
-1.3661377	repres form	-0.01725085
-1.657222	art form	-0.01725085
-1.8235904	well art	-0.01725085
-1.657222	form art	-0.01725085
-1.6690667	art whatnot	-0.01725085
-1.6690667	thi perhap	-0.01725085
-2.3364112	post seri	-0.01725085
-1.3721569	seri deviat	-0.01725085
-1.6690667	much usual	-0.01725085
-1.3721569	usual write	-0.01725085
-1.3721569	write about	-0.01725085
-1.3661377	about yet	-0.01725085
-1.3661377	done yet	-0.01725085
-2.9832385	<eos> bear	-0.01725085
-1.3721569	bear melot	-0.01725085
-1.8410765	think final	-0.01725085
-1.3721569	final creat	-0.01725085
-1.3721569	creat vk	-0.01725085
-1.3721569	vk account	-0.01725085
-1.8442132	feel odd	-0.01725085
-1.3721569	odd bound	-0.01725085
-1.3721569	bound happen	-0.01725085
-1.3721569	happen sooner	-0.01725085
-1.3721569	sooner later	-0.01725085
-1.6690667	add ml	-0.01725085
-1.6690667	there slowli	-0.01725085
-1.6690667	form if	-0.01725085
-1.3721569	if question	-0.01725085
-1.3661377	question suggest	-0.01725085
-1.3661377	u suggest	-0.01725085
-1.6690667	would simpli	-0.01725085
-2.0548756	like share	-0.01725085
-1.3721569	share random	-0.01725085
-2.0266228	like thought	-0.01725085
-1.3661377	random thought	-0.01725085
-1.6690667	thought let	-0.01725085
-1.6690667	stay tuneblog	-0.01725085
-1.3721569	tuneblog present	-0.01725085
-1.8410765	short interview	-0.01725085
-1.8410765	love anti	-0.01725085
-1.3721569	anti muse	-0.01725085
-1.8790236	<eos> hope	-0.01725085
-2.0548756	like itlast	-0.01725085
-1.3721569	itlast month	-0.01725085
-1.3721569	month mani	-0.01725085
-1.6690667	inspir fetish	-0.01725085
-1.6690667	thought pov	-0.01725085
-2.4080334	s fulli	-0.01725085
-1.3721569	fulli done	-0.01725085
-1.6690667	yet keep	-0.01725085
-1.3721569	keep busi	-0.01725085
-2.9832385	<eos> u	-0.01725085
-1.6690667	suggest compliment	-0.01725085
-1.3721569	compliment critic	-0.01725085
-1.3721569	critic word	-0.01725085
-1.3721569	word say	-0.01725085
-1.6690667	free send	-0.01725085
-1.3721569	send messag	-0.01725085
-1.3721569	messag inbox	-0.01725085
-1.6690667	hope enjoy	-0.01725085

\3-grams:
-1.0983422	hope enjoy </s>
-1.3911312	o blivia casi
-0.36225903	<s> casi mod
-0.36225903	blivia casi mod
-1.0939072	nice discountcasi mod
-1.0939072	first paycheckcasi mod
-0.5861696	casi mod repli
-0.5547257	discountcasi mod repli
-0.5547257	paycheckcasi mod repli
-1.0375621	wa betoaheavyindustri repli
-1.0375621	effect photographitoaheavyindustri repli
-1.0375621	review tooredpaintinmyroom repli
-1.0375621	day tootheshadowvaultawait repli
-1.0375621	kaosflux neorobospecialbre repli
-1.0375621	<eos> hahakhymeira repli
-1.0375621	everyday wearopenstateofmiind repli
-1.0375621	hit mestainlesssteelfac repli
-0.33857325	dio sama repli
-1.0375621	dkri ether repli
-0.13174275	mod repli photo
-0.2510124	betoaheavyindustri repli photo
-0.2510124	photographitoaheavyindustri repli photo
-0.2510124	tooredpaintinmyroom repli photo
-0.2510124	neorobospecialbre repli photo
-0.2510124	hahakhymeira repli photo
-0.2510124	wearopenstateofmiind repli photo
-0.2510124	ether repli photo
-1.362986	part <eos> photo
-1.2922503	<eos> make photo
-1.0791209	actual accident photo
-1.0791209	close up photo
-2.138365	repli photo between
-1.0952524	photo between world
-1.0952524	world human world
-1.2252333	between world human
-1.2210999	human world machin
-2.0365376	it s machin
-0.97226244	accident photo <eos>
-0.9096558	world machin <eos>
-0.9546653	miss light <eos>
-0.9468323	still one <eos>
-0.9096558	pretti good <eos>
-0.84367263	bit blurri <eos>
-0.9096558	front right <eos>
-0.84367263	piec decor <eos>
-0.84367263	keyfob lanyard <eos>
-0.84367263	never price <eos>
-0.33752036	<eos> digit <eos>
-0.313661	i digit <eos>
-0.3314315	digit digit <eos>
-0.313661	anytim digit <eos>
-0.313661	love digit <eos>
-0.313661	angel digit <eos>
-0.313661	dragon digit <eos>
-0.313661	futur digit <eos>
-0.313661	runner digit <eos>
-0.313661	sonts digit <eos>
-0.313661	nightdriv digit <eos>
-0.313661	fight digit <eos>
-0.313661	doubley digit <eos>
-0.313661	pier digit <eos>
-0.313661	andromeda digit <eos>
-0.84367263	digit eur <eos>
-0.49594226	make differ <eos>
-0.49594226	s differ <eos>
-0.49594226	complet differ <eos>
-0.9096558	let know <eos>
-0.9096558	digit em <eos>
-0.84367263	everyth wear <eos>
-0.9096558	mention style <eos>
-0.84367263	post hehe <eos>
-0.84367263	cloth advic <eos>
-0.9096558	busi futur <eos>
-0.9096558	well is <eos>
-0.9096558	engin part <eos>
-0.84367263	part yeap <eos>
-0.9096558	small chang <eos>
-0.84367263	water oil <eos>
-0.84367263	back omg <eos>
-0.84367263	still favourit <eos>
-0.9096558	msg get <eos>
-0.84367263	ago pennangalan <eos>
-0.9468323	thank you <eos>
-0.84367263	like that <eos>
-0.9340833	anyth similar <eos>
-0.84367263	post hey <eos>
-0.9340833	s bag <eos>
-0.84367263	sincerest condol <eos>
-0.9340833	tag peopl <eos>
-0.84367263	enough said <eos>
-0.84367263	leather jacket <eos>
-0.84367263	bag from <eos>
-0.84367263	listen to <eos>
-0.84367263	music librari <eos>
-0.84367263	farewel no <eos>
-0.84367263	year feat <eos>
-0.84367263	hesitanalienstori continu <eos>
-0.84367263	vk account <eos>
-0.84367263	anti muse <eos>
-0.84367263	thought pov <eos>
-0.84367263	messag inbox <eos>
-1.3985716	machin <eos> kid
-1.362986	bag <eos> i
-1.0791209	<eos> kid i
-1.3598065	pant never i
-0.3605456	know me i
-0.3605456	christin me i
-1.1996781	get boot i
-1.3370901	kid i tinker
-1.362986	em <eos> make
-1.0791209	i tinker make
-1.0791209	monoton scarv make
-1.2753856	s new make
-1.1996781	mani ask make
-1.3241044	tinker make stuff
-1.159144	repli photo it
-1.1340592	decor <eos> it
-1.1340592	yeap <eos> it
-1.1340592	account <eos> it
-1.1340592	pov <eos> it
-1.0719124	make stuff it
-1.8655993	it s it
-1.2380471	<eos> so it
-1.1901882	about yet it
-0.10636429	<eos> it s
-0.28895617	stuff it s
-0.28895617	s it s
-0.28895617	so it s
-0.28895617	yet it s
-1.1769619	s digit s
-1.1769619	retrofutur digit s
-1.0864512	recommend men s
-1.0864512	good thingit s
-2.0249255	it s alway
-1.2193035	collect quit alway
-1.0939072	light hous alway
-1.2773652	s alway wa
-1.0983422	alway wa betoaheavyindustri
-2.138365	repli photo citi
-1.0791209	photo citi light
-1.0791209	great job light
-1.0791209	sometim all light
-1.0791209	kind bright light
-1.0791209	blog miss light
-1.3927596	know <eos> stay
-1.3189206	citi light stay
-1.2210999	light stay pretti
-1.0952524	one turn pretti
-1.3902406	pennangalan <eos> still
-1.2193035	stay pretti still
-1.0939072	<eos> they still
-1.2595309	pretti still one
-1.0864512	shot total one
-1.2093799	like see one
-1.3739051	et ciel one
-1.3985716	one <eos> actual
-1.0983422	<eos> actual accident
-1.3985716	photo <eos> took
-1.0983422	<eos> took three
-1.0983422	took three shot
-1.0983422	three shot total
-1.3059827	total one turn
-1.2210999	turn pretti good
-1.0952524	geometri deconstruct good
-1.3985716	good <eos> two
-1.3927596	eur <eos> bit
-1.0952524	<eos> two bit
-1.2252333	two bit blurri
-1.3985716	blurri <eos> long
-1.0983422	<eos> long exposur
-1.0952524	long exposur add
-1.2210999	give best add
-1.2252333	exposur add fine
-1.0983422	add fine effect
-1.0983422	fine effect photographitoaheavyindustri
-0.50320923	photo it gener
-0.47076786	it gener known
-0.47076786	gener known hate
-0.47076786	known hate buy
-0.47076786	hate buy pant
-0.47076786	buy pant never
-0.7675026	<eos> i m
-0.7675026	never i m
-1.3972595	i m curiou
-1.0983422	m curiou clip
-1.0983422	curiou clip ribbon
-1.0983422	clip ribbon front
-1.0952524	ribbon front right
-1.0952524	captur imag right
-1.3927596	right <eos> function
-1.0952524	design simplic function
-1.2252333	<eos> function piec
-1.0983422	function piec decor
-2.0643017	it s aokuco
-1.0983422	s aokuco cord
-1.0983422	aokuco cord easili
-1.0983422	cord easili transform
-1.0983422	easili transform keyfob
-1.0983422	transform keyfob lanyard
-0.902156	tootheshadowvaultawait repli post
-0.902156	mestainlesssteelfac repli post
-0.32003325	sama repli post
-1.3062453	make photo post
-1.3373412	lanyard <eos> post
-1.3600814	hesitanalien digit post
-1.0648215	there singl post
-1.227691	perhap first post
-1.0648215	add ml post
-1.3627874	<eos> post close
-1.0983422	post close up
-1.366481	up photo few
-1.0983422	photo few soon
-1.0939072	few soon short
-1.2193035	thi list short
-1.0939072	tuneblog present short
-1.3571237	ml post review
-1.2727076	soon short review
-1.2252333	short review tooredpaintinmyroom
-1.3972595	pant never price
-1.3985716	price <eos> around
-1.3030603	digit <eos> digit
-1.0649283	librari <eos> digit
-1.0649283	no <eos> digit
-1.2483859	me i digit
-1.2401501	digit s digit
-1.1097522	digit post digit
-0.94296825	<eos> around digit
-1.2485352	<eos> digit digit
-1.0841459	use digit digit
-0.94296825	collect count digit
-0.94296825	asktag hesitanalien digit
-0.94296825	watch anytim digit
-1.0599978	mood love digit
-0.94296825	fallen angel digit
-0.94296825	hidden dragon digit
-1.0276539	back futur digit
-0.94296825	blade runner digit
-1.0599978	list first digit
-0.94296825	bought mine digit
-0.94296825	half use digit
-0.94296825	put mp digit
-0.94296825	kurasuno sonts digit
-0.94296825	testarossa nightdriv digit
-0.94296825	spirit fight digit
-0.94296825	haujobb doubley digit
-0.94296825	astronaut pier digit
-0.94296825	dead andromeda digit
-0.94296825	ji sub digit
-0.94296825	<eos> 샛별 digit
-0.94296825	time retrofutur digit
-1.3927385	around digit eur
-1.2252333	<eos> bit luck
-1.270685	quit alway find
-1.0939072	bit luck find
-1.0939072	bmshop rs find
-1.2773652	luck find nice
-1.0983422	find nice discountcasi
-1.1828779	repli photo and
-1.2727076	rs find and
-1.4666469	photo and someth
-1.2988511	caus new someth
-1.270685	content blog someth
-1.2773652	and someth complet
-1.3042892	scarv make differ
-1.9650847	it s differ
-1.0864512	someth complet differ
-1.0864512	someth slightli differ
-1.8544968	differ <eos> anyon
-1.0952524	<eos> anyon know
-1.0952524	thought let know
-1.2210999	anyon know me
-1.0952524	digit christin me
-1.5760236	me i ve
-1.0952524	i ve collect
-1.0952524	<eos> current collect
-1.3927596	light <eos> quit
-1.2210999	ve collect quit
-1.389731	count digit em
-1.2727076	alway find em
-1.2210999	find em best
-1.2210999	so give best
-1.2252333	em best possibl
-2.1109762	repli photo detail
-1.0952524	best possibl detail
-1.2252333	possibl detail everyth
-1.0983422	detail everyth wear
-1.3927596	wear <eos> sometim
-1.0952524	much edit sometim
-1.2193035	<eos> sometim think
-1.270685	quit time think
-1.0939072	bear melot think
-1.2727076	sometim think style
-1.0952524	fit mention style
-1.2252333	think style monoton
-1.0983422	style monoton scarv
-1.8544968	differ <eos> current
-1.2252333	current collect count
-1.3627874	photo post hehe
-1.3985716	hehe <eos> also
-1.0952524	<eos> also would
-1.2210999	question suggest would
-1.2486563	hous alway like
-1.1996781	also would like
-1.0791209	would simpli like
-1.3598065	<eos> hope like
-1.0791209	inspir fetish like
-1.3189206	would like see
-1.3010095	tbh you see
-1.3059827	see one day
-1.0983422	one day tootheshadowvaultawait
-1.9310637	repli post hi
-1.0983422	post hi do
-1.0952524	hi do mind
-1.0952524	someth specif mind
-1.2210999	do mind give
-1.2727076	later so give
-1.2252333	mind give cloth
-1.0983422	give cloth advic
-1.3927596	advic <eos> d
-1.3010095	<eos> you d
-1.2252333	<eos> d haha
-1.0983422	d haha true
-1.2210999	post review there
-1.0952524	haha true there
-1.2252333	true there singl
-1.3627874	singl post here
-1.0983422	post here caus
-1.3042892	ask make new
-1.9650847	it s new
-1.0864512	here caus new
-1.2093799	look brand new
-1.2773652	new someth specif
-1.3166716	new make feel
-1.2193035	specif mind feel
-1.0939072	word say feel
-0.5195969	mind feel free
-0.5195969	say feel free
-1.3972595	feel free asktag
-1.0983422	free asktag hesitanalien
-1.3927385	post digit movi
-0.8927851	repli post could
-1.0952524	digit movi could
-1.2252333	movi could re
-1.0983422	could re watch
-1.0983422	re watch anytim
-2.3837135	digit <eos> mood
-1.2210999	imag right mood
-1.2193035	<eos> mood love
-1.2988511	skip tag love
-1.0939072	short interview love
-2.4442923	digit <eos> fallen
-1.0983422	<eos> fallen angel
-2.4442923	digit <eos> crouch
-1.0983422	<eos> crouch tiger
-1.0983422	crouch tiger hidden
-1.0983422	tiger hidden dragon
-2.35965	digit <eos> back
-1.0939072	boot take back
-1.2988511	bought year back
-1.2727076	<eos> back futur
-1.0952524	keep busi futur
-2.4442923	digit <eos> blade
-1.0983422	<eos> blade runner
-2.4442923	digit <eos> hacker
-1.0983422	<eos> hacker film
-1.0952524	hacker film thi
-1.0952524	art whatnot thi
-1.2210999	film thi list
-1.2210999	etc shuffl list
-1.2595309	list short tag
-1.0864512	digit song tag
-1.0864512	rule skip tag
-1.0864512	미쳐 crazi tag
-1.3010095	short tag o
-1.0952524	salli shear o
-0.362763	tag o blivia
-0.362763	shear o blivia
-1.3911312	o blivia dax
-1.2210999	graylok signalrun dax
-0.362763	blivia dax sy
-0.362763	signalrun dax sy
-1.3911312	dax sy signalrun
-1.0952524	tag graylok signalrun
-1.2252333	sy signalrun theghostbox
-1.0983422	signalrun theghostbox dustrial
-1.0983422	theghostbox dustrial inc
-1.0983422	dustrial inc kaosflux
-1.0983422	inc kaosflux neorobospecialbre
-1.2210999	photo detail is
-1.2727076	blog well is
-1.2252333	detail is bath
-1.0952524	is bath process
-1.0952524	photo taken process
-1.2210999	bath process part
-1.0952524	block engin part
-1.2252333	process part yeap
-1.2252333	s machin wash
-1.0983422	machin wash cylind
-1.0983422	wash cylind head
-1.0983422	cylind head block
-1.0983422	head block engin
-1.366481	<eos> photo taken
-1.2210999	taken process chang
-1.0952524	new small chang
-1.2252333	process chang water
-1.0983422	chang water oil
-1.3985716	oil <eos> hahakhymeira
-1.1860214	repli photo jodi
-0.47076786	photo jodi lift
-1.3972595	jodi lift those
-1.0952524	lift those boot
-1.2210999	where get boot
-1.2252333	those boot take
-1.2773652	take back omg
-1.3985716	omg <eos> they
-1.2773652	they still favourit
-1.3985716	favourit <eos> preciou
-1.0983422	<eos> preciou thing
-1.332431	boot i bought
-1.0952524	preciou thing bought
-1.1814846	mine digit year
-1.1814846	sub digit year
-1.2193035	thing bought year
-1.0939072	almost five year
-1.270685	year back first
-1.2193035	shuffl list first
-1.0939072	thi perhap first
-1.2773652	back first paycheckcasi
-1.3911312	jodi lift where
-1.0952524	tacticalbag shemagh where
-1.2210999	lift where get
-1.0952524	see msg get
-1.2252333	i bought mine
-1.5234358	digit year ago
-1.0983422	year ago pennangalan
-1.270685	<eos> still look
-1.2193035	you d look
-1.0939072	photo through look
-1.3927596	hey <eos> brand
-1.2727076	still look brand
-1.3059827	brand new small
-1.3985716	chang <eos> lower
-1.0983422	<eos> lower platform
-1.0983422	lower platform half
-1.0983422	platform half use
-1.6775644	digit digit cm
-1.0952524	digit cm realli
-1.3010095	glass you realli
-1.2252333	cm realli everyday
-1.0983422	realli everyday wearopenstateofmiind
-2.138365	repli photo through
-1.2773652	through look glass
-1.3763995	jacket <eos> you
-1.0864512	look glass you
-1.0864512	light thank you
-1.0864512	ask tbh you
-1.2252333	you realli great
-1.0983422	realli great job
-1.3241044	job light thank
-1.3927596	you <eos> much
-1.0952524	seri deviat much
-1.2252333	<eos> much edit
-1.2252333	edit sometim all
-1.3241044	all light hous
-1.3241044	alway like that
-1.3985716	that <eos> eye
-1.0983422	<eos> eye cannot
-1.0983422	eye cannot stand
-1.0983422	cannot stand kind
-1.0983422	stand kind bright
-1.3241044	bright light anyth
-1.0939072	light anyth similar
-1.0939072	devoa might similar
-1.0939072	and or similar
-1.3902406	similar <eos> so
-1.0939072	<eos> 소지섭 so
-1.0939072	sooner later so
-2.0643017	it s less
-1.0983422	s less captur
-1.0983422	less captur imag
-1.3927596	is <eos> inspir
-1.2210999	right mood inspir
-1.2252333	mood inspir hit
-1.0983422	inspir hit mestainlesssteelfac
-1.9310637	repli post hey
-1.2252333	<eos> brand recommend
-1.0983422	brand recommend men
-1.3613375	men s bag
-1.2193035	shemagh where bag
-1.2193035	mfh shoulder bag
-1.3972595	i m tri
-1.0983422	m tri cote
-1.0952524	tri cote et
-1.0952524	leather rangecot et
-0.362763	cote et ciel
-0.362763	rangecot et ciel
-1.3911312	et ciel leather
-1.3911312	pose topless leather
-1.2252333	ciel leather rangecot
-1.3059827	ciel one favorit
-1.0983422	one favorit come
-1.0983422	favorit come design
-1.0983422	come design simplic
-1.2252333	simplic function fit
-1.0983422	function fit mention
-1.3985716	style <eos> devoa
-1.0983422	<eos> devoa might
-1.2773652	might similar perhapshadow
-1.0952524	similar perhapshadow dio
-0.3624124	<eos> shadow dio
-0.3624124	post shadow dio
-0.362763	perhapshadow dio sama
-0.22708288	shadow dio sama
-1.3927596	said <eos> shadow
-1.9127305	repli post shadow
-0.48983285	post could pose
-0.47076786	could pose topless
-1.3972595	pose topless your
-1.0983422	topless your sheeeshh
-1.0983422	your sheeeshh sincerest
-1.0983422	sheeeshh sincerest condol
-1.3985716	condol <eos> wish
-1.2988511	song tag peopl
-1.0939072	<eos> wish peopl
-1.0939072	knew better peopl
-1.2773652	wish peopl knew
-1.0983422	peopl knew better
-1.2773652	better peopl enough
-1.0983422	peopl enough said
-1.2252333	topless leather jacket
-1.2773652	d look sexi
-1.0983422	look sexi in
-1.0983422	sexi in sorta
-1.0983422	in sorta creepi
-1.0952524	sorta creepi ask
-1.0952524	month mani ask
-1.2252333	creepi ask tbh
-1.2252333	you see msg
-1.3985716	get <eos> dkri
-1.0983422	<eos> dkri ether
-1.4771829	photo and go
-1.0983422	and go self
-1.3927596	from <eos> mfh
-1.0952524	go self mfh
-1.2252333	self mfh hummel
-1.0983422	mfh hummel nike
-1.0983422	hummel nike tacticalbag
-1.0983422	nike tacticalbag shemagh
-1.2773652	where bag from
-1.2210999	<eos> mfh shoulder
-1.0952524	s color shoulder
-1.2773652	shoulder bag bmshop
-1.0983422	bag bmshop rs
-1.2773652	find and or
-1.2773652	or similar onlin
-1.0983422	similar onlin militari
-1.0983422	onlin militari storetell
-1.0983422	militari storetell lot
-1.0983422	storetell lot person
-1.0952524	lot person music
-1.0952524	goe phone music
-1.2252333	person music listen
-1.0983422	music listen to
-1.3985716	to <eos> put
-1.0983422	<eos> put mp
-1.3927385	mp digit player
-1.0952524	digit player itun
-1.0952524	don t itun
-0.362763	player itun spotifi
-0.362763	t itun spotifi
-1.3972595	itun spotifi etc
-1.3911312	itun spotifi shuffl
-1.0952524	spotifi etc shuffl
-1.3927385	first digit song
-1.3985716	peopl <eos> rule
-1.0983422	<eos> rule skip
-1.2773652	tag love herliquidarmsi
-1.0983422	love herliquidarmsi don
-1.0983422	herliquidarmsi don t
-1.2252333	spotifi shuffl goe
-1.0983422	shuffl goe phone
-1.2252333	phone music librari
-2.4442923	digit <eos> origa
-1.0983422	<eos> origa красно
-1.0983422	origa красно солнце
-1.0983422	красно солнце kurasuno
-1.0983422	солнце kurasuno sonts
-2.4442923	digit <eos> kavinski
-1.0983422	<eos> kavinski testarossa
-1.0983422	kavinski testarossa nightdriv
-2.4442923	digit <eos> shigeru
-1.0983422	<eos> shigeru umebayashi
-1.0983422	shigeru umebayashi farewel
-1.0983422	umebayashi farewel no
-2.4442923	digit <eos> tan
-1.0983422	<eos> tan dun
-1.0983422	tan dun spirit
-1.0983422	dun spirit fight
-2.4442923	digit <eos> haujobb
-1.0983422	<eos> haujobb doubley
-2.3837135	digit <eos> dead
-1.0952524	<eos> danc dead
-1.2252333	<eos> dead astronaut
-1.0983422	dead astronaut pier
-2.4442923	digit <eos> danc
-1.2252333	danc dead andromeda
-2.4442923	digit <eos> 소지섭
-1.2773652	소지섭 so ji
-1.0983422	so ji sub
-1.5234358	digit year feat
-1.3985716	feat <eos> 샛별
-1.3927385	샛별 digit christin
-1.8380345	<eos> digit minut
-1.0983422	digit minut 미쳐
-1.0983422	minut 미쳐 crazi
-1.3059827	crazi tag graylok
-1.3972595	dax sy salli
-1.0983422	sy salli shear
-1.5246612	casi mod hesitanalienstori
-1.0983422	mod hesitanalienstori continu
-1.3902406	continu <eos> time
-1.2193035	<eos> quit time
-1.0939072	there slowli time
-1.2773652	<eos> time retrofutur
-1.6339992	digit s color
-1.2252333	color shoulder pad
-1.0983422	shoulder pad neon
-1.0983422	pad neon tint
-1.0983422	neon tint geometri
-1.0983422	tint geometri deconstruct
-1.2252333	deconstruct good thingit
-1.3695832	thingit s almost
-1.0983422	s almost five
-1.3059827	five year sinc
-1.0983422	year sinc exist
-1.2988511	make new blog
-1.0939072	sinc exist blog
-1.0939072	enrich content blog
-1.2773652	exist blog miss
-1.2773652	time think enrich
-1.0983422	think enrich content
-1.2773652	blog someth slightli
-1.3067249	slightli differ inform
-1.0983422	differ inform text
-1.270685	slowli time well
-1.270685	new blog well
-1.0939072	inform text well
-1.2773652	text well repres
-1.0952524	well repres form
-1.2210999	well art form
-1.2727076	time well art
-1.2210999	repres form art
-1.2252333	form art whatnot
-1.2252333	whatnot thi perhap
-1.3627874	first post seri
-1.0983422	post seri deviat
-1.2252333	deviat much usual
-1.0983422	much usual write
-1.0983422	usual write about
-1.0952524	write about yet
-1.0952524	fulli done yet
-1.8544968	differ <eos> bear
-1.0983422	<eos> bear melot
-1.2773652	melot think final
-1.0983422	think final creat
-1.0983422	final creat vk
-1.0983422	creat vk account
-1.2781863	make feel odd
-1.0983422	feel odd bound
-1.0983422	odd bound happen
-1.0983422	bound happen sooner
-1.0983422	happen sooner later
-1.2252333	best add ml
-1.2252333	review there slowli
-1.2252333	art form if
-1.0983422	form if question
-1.0952524	if question suggest
-1.0952524	<eos> u suggest
-1.2252333	suggest would simpli
-1.3241044	simpli like share
-1.0983422	like share random
-1.3189206	fetish like thought
-1.0952524	share random thought
-1.2252333	random thought let
-1.2252333	<eos> stay tuneblog
-1.0983422	stay tuneblog present
-1.2773652	present short interview
-1.2773652	interview love anti
-1.0983422	love anti muse
-1.2870078	muse <eos> hope
-1.2870078	inbox <eos> hope
-1.3241044	hope like itlast
-1.0983422	like itlast month
-1.0983422	itlast month mani
-1.2252333	<eos> inspir fetish
-1.2252333	like thought pov
-2.0643017	it s fulli
-1.0983422	s fulli done
-1.2252333	done yet keep
-1.0983422	yet keep busi
-1.3985716	futur <eos> u
-1.2252333	u suggest compliment
-1.0983422	suggest compliment critic
-1.0983422	compliment critic word
-1.0983422	critic word say
-1.3972595	feel free send
-1.0983422	free send messag
-1.0983422	send messag inbox
-1.3972595	<eos> hope enjoy

\end\
