\data\
ngram 1=1423
ngram 2=3588
ngram 3=4192

\1-grams:
-0.41136274	<unk>
-inf	<s>	-0.04719266
-3.9572403	</s>
-3.0384042	week	-0.08502706
-3.685886	toni	-0.04719266
-3.446172	parson	-0.04719266
-2.6924622	use	-0.04719269
-2.9229684	sun	-0.04719266
-3.446172	column	-0.04719269
-3.9572403	examin	-0.04719266
-3.446172	import	-0.04719269
-3.0384042	issu	-0.04719269
-2.6924622	modern	-0.19313484
-1.7819124	men	-0.15809347
-3.1960914	cri	-0.04719266
-3.685886	much	-0.04719266
-1.1262571	<eos>	-0.22071946
-2.8318615	no	-0.096471205
-2.6365945	realli	-0.09880335
-2.3171995	look	-0.12981054
-2.3171995	see	-0.11408369
-3.9572403	liethi	-0.04719266
-3.685886	clearli	-0.04719266
-3.9572403	vital	-0.04719266
-3.685886	made	-0.04719266
-2.8318615	think	-0.07525503
-3.446172	dad	-0.04719266
-3.446172	old	-0.04719266
-3.9572403	dri	-0.04719266
-3.446172	eye	-0.04719266
-3.9572403	himself	-0.04719266
-2.9229684	never	-0.21537699
-3.9572403	onc	-0.04719266
-3.1960914	he	-0.49351487
-2.1351554	s	-0.06284299
-3.9572403	manli	-0.04719266
-2.6365945	man	-0.16268961
-3.9572403	closet	-0.04719266
-3.9572403	sobber	-0.04719266
-3.1960914	not	-0.10525668
-2.5023763	like	-0.0707018
-2.9229684	today	-0.19937834
-2.8318615	britain	-0.1520656
-3.9572403	nay	-0.04719266
-2.6365945	world	-0.15180127
-3.685886	ruin	-0.04719266
-3.685886	when	-0.04719266
-3.9572403	cast	-0.04719266
-3.9572403	iron	-0.04719266
-3.9572403	nicotin	-0.04719266
-3.9572403	racism	-0.04719266
-3.9572403	an	-0.04719266
-3.9572403	approach	-0.04719266
-3.685886	absolut	-0.04719266
-3.685886	caus	-0.04719266
-3.685886	psycholog	-0.04719266
-3.685886	problem	-0.04719266
-3.446172	across	-0.04719266
-3.685886	centuri	-0.04719266
-2.6924622	all	-0.312287
-3.685886	hear	-0.04719266
-3.0384042	ask	-0.04719269
-2.9229684	happen	-0.08502706
-3.685886	chang	-0.04719266
-3.446172	british	-0.04719266
-3.9572403	yore	-0.04719266
-3.9572403	stout	-0.04719266
-2.9229684	heart	-0.08502706
-2.9229684	everi	-0.04719266
-2.2476914	one	-0.06360248
-3.9572403	blub	-0.04719266
-3.9572403	mess	-0.04719266
-3.0384042	sure	-0.04719266
-3.1960914	must	-0.04719266
-3.9572403	complex	-0.04719266
-3.9572403	root	-0.04719266
-3.9572403	traceabl	-0.04719266
-3.446172	singl	-0.04719266
-3.9572403	incid	-0.04719266
-2.8318615	oh	-0.06569802
-3.1960914	mind	-0.04719266
-3.9572403	doubt	-0.04719266
-2.6365945	we	-0.18927151
-3.1960914	re	-0.04719266
-3.446172	told	-0.04719266
-3.446172	expert	-0.04719266
-3.0384042	they	-0.08502706
-3.1960914	probabl	-0.04719266
-3.446172	foreign	-0.10525668
-2.8318615	don	-0.7365529
-2.4655006	t	-0.07218655
-3.685886	count	-0.04719266
-3.9572403	norman	-0.04719266
-1.880135	digit	-0.17761809
-3.9572403	danish	-0.04719266
-3.446172	french	-0.04719266
-3.9572403	perkin	-0.04719266
-3.9572403	warbeck	-0.04719266
-2.6365945	three	-0.21751916
-3.9572403	attempt	-0.04719266
-3.0384042	god	-0.21070102
-2.6924622	know	-0.07204594
-2.9229684	mani	-0.04719266
-3.9572403	cross	-0.04719266
-3.9572403	invas	-0.04719266
-3.685886	england	-0.17229958
-3.9572403	wale	-0.04719266
-3.9572403	ireland	-0.04719266
-3.9572403	scotland	-0.04719266
-3.446172	countri	-0.04719266
-3.446172	europ	-0.04719266
-2.6924622	point	-0.04719269
-3.685886	last	-0.04719266
-3.9572403	ten	-0.04719266
-3.9572403	yeah	-0.04719266
-3.9572403	your	-0.04719266
-2.4655006	would	-0.04719266
-3.9572403	weep	-0.04719266
-3.9572403	bitter	-0.04719266
-3.685886	tear	-0.04719266
-3.9572403	disappoint	-0.04719266
-3.0384042	could	-0.0930062
-2.9229684	can	-0.66960615
-3.685886	boom	-0.17229958
-3.9572403	journalstep	-0.04719266
-3.446172	groom	-0.36857614
-3.685886	child	-0.04719266
-3.446172	sexual	-0.12647483
-3.9572403	abus	-0.04719266
-3.446172	found	-0.12647483
-3.685886	guilti	-0.12647483
-3.685886	court	-0.04719266
-3.685886	step	-0.17229958
-3.0384042	human	-0.21070102
-3.9572403	shape	-0.04719266
-3.446172	dark	-0.12647483
-3.9572403	hole	-0.04719266
-3.9572403	fabric	-0.04719266
-3.9572403	univers	-0.04719266
-2.6924622	write	-0.16065538
-3.9572403	rent	-0.04719266
-2.8318615	a	-0.04719266
-3.9572403	gob	-0.04719266
-2.8318615	articl	-0.04719266
-3.685886	wa	-0.04719266
-3.446172	fact	-0.04719266
-3.446172	fault	-0.04719266
-3.446172	knew	-0.04719266
-3.685886	do	-0.04719266
-2.9229684	good	-0.04719266
-2.9229684	someon	-0.04719266
-3.1960914	twitter	-0.04719266
-3.685886	agre	-0.04719266
-2.8318615	want	-0.04719266
-3.9572403	explain	-0.04719266
-3.685886	basic	-0.04719266
-2.542676	come	-0.11983507
-2.2068527	women	-0.1453577
-3.0384042	whore	-0.21070102
-2.542676	say	-0.07525503
-3.9572403	hi	-0.04719266
-3.1960914	asher	-0.04719266
-3.0384042	everyon	-0.04719269
-2.7565928	is	-0.07525503
-3.446172	complet	-0.04719266
-3.9572403	utter	-0.04719266
-3.9572403	catch	-0.04719266
-3.685886	motiv	-0.04719266
-2.6924622	might	-0.04719266
-2.9229684	call	-0.04719266
-3.685886	strong	-0.04719266
-3.685886	sens	-0.04719266
-3.685886	moral	-0.04719266
-3.685886	hit	-0.04719266
-3.0384042	head	-0.04719269
-3.9572403	west	-0.04719266
-3.9572403	mainli	-0.04719266
-3.9572403	believ	-0.04719266
-3.9572403	adam	-0.04719266
-3.9572403	johnson	-0.04719266
-3.9572403	pretti	-0.04719266
-2.9229684	still	-0.04719266
-2.7565928	got	-0.04719269
-3.685886	statist	-0.04719266
-3.446172	news	-0.04719266
-3.685886	non	-0.04719266
-2.0458605	it	-0.64369726
-3.1960914	bad	-0.10525668
-3.9572403	scienc	-0.04719266
-3.1960914	note	-0.04719266
-3.9572403	past	-0.04719266
-3.9572403	tens	-0.04719266
-3.9572403	second	-0.04719266
-3.9572403	tweet	-0.04719266
-3.446172	wonder	-0.04719266
-3.446172	whi	-0.04719266
-3.685886	concern	-0.04719266
-3.446172	lie	-0.04719266
-2.6924622	wait	-0.0886358
-3.685886	young	-0.04719266
-3.9572403	siren	-0.04719266
-3.9572403	sailor	-0.04719266
-3.9572403	whorier	-0.04719266
-2.9229684	isn	-0.66960615
-3.446172	marri	-0.04719266
-3.685886	ladi	-0.17229958
-3.446172	tri	-0.04719266
-3.9572403	contain	-0.04719266
-3.9572403	surpris	-0.04719266
-3.685886	form	-0.04719266
-3.9572403	orderli	-0.04719266
-3.9572403	queue	-0.04719266
-3.9572403	aaaaaaaand	-0.04719266
-2.152001	that	-0.59878194
-2.4655006	go	-0.073553145
-3.9572403	to	-0.04719266
-2.7565928	stand	-0.3037492
-2.7565928	up	-0.13036901
-2.5871015	turn	-0.04719266
-3.446172	face	-0.04719266
-3.9572403	sturdi	-0.04719266
-3.9572403	brick	-0.04719266
-3.9572403	wall	-0.04719266
-3.446172	put	-0.04719266
-3.0384042	run	-0.04719269
-3.446172	forward	-0.04719269
-3.9572403	fastdigit	-0.04719266
-3.1960914	give	-0.04719266
-2.9229684	us	-0.04719266
-3.446172	term	-0.04719266
-3.9572403	sheer	-0.04719266
-2.5023763	pointless	-0.62567437
-3.1960914	out	-0.04719266
-3.685886	quit	-0.04719266
-3.1960914	lot	-0.10525668
-3.685886	top	-0.04719266
-3.685886	post	-0.04719266
-3.0384042	letter	-0.04719266
-3.9572403	were	-0.04719266
-3.685886	decemb	-0.04719266
-3.9572403	holocaust	-0.04719266
-3.9572403	deni	-0.04719266
-3.9572403	minion	-0.04719266
-3.9572403	banana	-0.04719266
-3.685886	novemb	-0.04719266
-3.685886	be	-0.04719266
-3.9572403	white	-0.04719266
-3.446172	straight	-0.12647483
-3.446172	crime	-0.04719266
-3.0384042	now	-0.0930062
-3.685886	octob	-0.04719266
-3.9572403	coffe	-0.04719266
-3.9572403	fad	-0.04719266
-3.685886	septemb	-0.04719266
-3.685886	august	-0.04719266
-3.9572403	communist	-0.04719266
-3.685886	juli	-0.04719266
-3.9572403	revers	-0.04719266
-2.6365945	sexism	-0.06569802
-3.685886	june	-0.04719266
-3.1960914	proud	-0.04719266
-3.9572403	swizzl	-0.04719266
-3.9572403	kid	-0.04719266
-3.9572403	pocket	-0.04719266
-3.0384042	money	-0.04719269
-3.1960914	may	-0.04719269
-3.9572403	gawd	-0.04719266
-3.9572403	blessahapril	-0.04719266
-3.9572403	april	-0.04719266
-3.9572403	dildo	-0.04719266
-3.9572403	dildon	-0.04719266
-3.9572403	ts	-0.04719266
-2.5023763	and	-0.060997225
-3.685886	wasn	-0.17229958
-2.9229684	headlin	-0.04719266
-3.1960914	fun	-0.04719266
-2.9229684	tumblr	-0.04719266
-3.9572403	updat	-0.04719266
-3.685886	pop	-0.04719266
-3.685886	phone	-0.04719266
-2.8318615	work	-0.04719266
-3.446172	march	-0.04719266
-3.685886	better	-0.04719266
-3.1960914	plan	-0.04719266
-3.685886	big	-0.04719266
-3.9572403	stone	-0.04719266
-3.9572403	slab	-0.04719266
-3.685886	anyway	-0.04719266
-3.685886	februari	-0.04719266
-3.9572403	ban	-0.04719266
-3.685886	sick	-0.04719266
-3.9572403	filth	-0.04719266
-3.685886	januari	-0.04719266
-3.9572403	tupperwar	-0.04719266
-3.9572403	star	-0.04719266
-3.685886	sent	-0.17229958
-2.8318615	in	-0.15738505
-2.8318615	thank	-0.17717355
-2.3430822	you	-0.23885284
-3.0384042	ve	-0.1419823
-3.9572403	hasn	-0.04719266
-3.9572403	appear	-0.04719266
-3.685886	yet	-0.04719266
-3.446172	sorri	-0.04719266
-3.9572403	spot	-0.04719266
-3.9572403	wild	-0.04719266
-3.685886	send	-0.04719266
-2.6365945	i	-0.18927151
-3.685886	ll	-0.04719266
-2.5023763	thi	-0.2195451
-3.685886	gener	-0.04719266
-2.542676	way	-0.10050396
-3.9572403	needi	-0.04719266
-3.9572403	ego	-0.04719266
-3.9572403	best	-0.04719266
-3.9572403	toolagain	-0.04719266
-2.5871015	daili	-0.93284756
-3.446172	mail	-0.06569802
-2.9229684	real	-0.28988227
-3.446172	victim	-0.04719266
-3.1960914	discrimin	-0.10525668
-2.4315124	rape	-0.08502709
-3.685886	cultur	-0.04719266
-3.9572403	glass	-0.04719266
-3.9572403	ceil	-0.04719266
-3.685886	horror	-0.04719266
-2.7565928	stori	-0.07525503
-2.9229684	ye	-0.07204594
-2.4655006	right	-0.23142888
-3.685886	entir	-0.04719266
-2.9229684	subject	-0.04719266
-3.9572403	through	-0.04719266
-3.9572403	advert	-0.04719266
-3.9572403	tv	-0.04719266
-3.446172	those	-0.10525668
-3.685886	feminist	-0.04719266
-3.9572403	wrath	-0.04719266
-3.9572403	local	-0.04719266
-2.8318615	fedora	-0.079416156
-3.9572403	shop	-0.04719266
-3.9572403	advertis	-0.04719266
-3.9572403	buy	-0.04719266
-3.9572403	protest	-0.04719266
-3.0384042	sort	-0.04719269
-2.9229684	thing	-0.04719266
-3.685886	internet	-0.04719266
-2.5871015	what	-0.13769782
-3.9572403	bullshit	-0.04719266
-3.446172	doesn	-0.36857614
-3.9572403	compar	-0.04719266
-3.685886	experienc	-0.04719266
-3.685886	walk	-0.04719266
-2.9229684	life	-0.04719266
-2.6924622	day	-0.09880335
-2.6924622	well	-0.060997225
-3.0384042	exampl	-0.04719269
-3.446172	thought	-0.04719266
-3.9572403	shut	-0.04719266
-3.9572403	humanityi	-0.04719266
-3.9572403	nowdon	-0.04719266
-3.685886	tell	-0.04719266
-3.685886	aren	-0.17229958
-3.9572403	against	-0.04719266
-3.9572403	bt	-0.04719266
-3.685886	broadband	-0.17229958
-3.9572403	lynx	-0.04719266
-3.9572403	shower	-0.04719266
-3.9572403	gel	-0.04719266
-3.0384042	power	-0.04719266
-3.685886	forc	-0.04719266
-3.9572403	array	-0.04719266
-3.685886	alright	-0.04719266
-3.9572403	shown	-0.04719266
-3.0384042	sex	-0.0930062
-3.685886	object	-0.04719266
-3.446172	okay	-0.04719266
-3.446172	fine	-0.10525668
-3.9572403	feminismbest	-0.04719266
-3.685886	close	-0.04719266
-3.685886	sentenc	-0.17229958
-2.8318615	ever	-0.14787881
-2.9229684	so	-0.04719266
-3.685886	sum	-0.04719266
-3.9572403	harrow	-0.04719266
-3.9572403	maildaili	-0.04719266
-3.685886	express	-0.04719266
-3.9572403	columnist	-0.04719266
-3.446172	frederick	-0.04719266
-3.685886	forsyth	-0.04719266
-3.446172	obvious	-0.04719266
-3.9572403	bodi	-0.04719266
-3.9572403	pari	-0.04719266
-2.7565928	attack	-0.0642462
-3.685886	cold	-0.04719266
-3.446172	press	-0.04719266
-3.9572403	question	-0.04719266
-3.446172	cours	-0.04719266
-3.446172	focu	-0.04719266
-2.6924622	on	-0.11401274
-3.9572403	mourn	-0.04719266
-3.446172	death	-0.12647483
-3.9572403	show	-0.04719266
-3.9572403	compass	-0.04719266
-3.9572403	sympathi	-0.04719266
-3.9572403	rel	-0.04719266
-3.9572403	partner	-0.04719266
-3.446172	didn	-0.36857614
-2.3999922	peopl	-0.0674201
-3.685886	unarm	-0.04719266
-3.685886	dress	-0.04719266
-3.9572403	noth	-0.04719266
-3.9572403	bulletproof	-0.04719266
-3.9572403	shirt	-0.04719266
-3.9572403	equival	-0.04719266
-3.9572403	primark	-0.04719266
-2.9229684	time	-0.08502706
-2.5871015	take	-0.13769782
-3.685886	moment	-0.04719266
-3.685886	fight	-0.04719266
-3.9572403	submachin	-0.04719266
-3.685886	gun	-0.04719266
-3.9572403	explos	-0.04719266
-3.9572403	vest	-0.04719266
-3.0384042	love	-0.04719269
-2.9229684	first	-0.114223555
-3.9572403	m	-0.04719266
-3.9572403	accus	-0.04719266
-3.685886	brutal	-0.17229958
-3.9572403	coward	-0.04719266
-3.9572403	taken	-0.04719266
-3.9572403	churlish	-0.04719266
-3.9572403	riiiiiiight	-0.04719266
-3.685886	bring	-0.17229958
-3.685886	home	-0.04719266
-3.446172	hold	-0.04719266
-2.8318615	back	-0.07204594
-3.9572403	none	-0.04719266
-3.9572403	belgian	-0.04719266
-3.685886	kind	-0.17229958
-3.9572403	american	-0.04719266
-3.9572403	reload	-0.04719266
-2.3999922	two	-0.07525503
-3.9572403	kept	-0.04719266
-3.685886	fire	-0.04719266
-3.9572403	scare	-0.04719266
-3.9572403	terrifi	-0.04719266
-2.4655006	get	-0.077191934
-3.9572403	confus	-0.04719266
-3.685886	cut	-0.04719266
-3.685886	left	-0.04719266
-3.446172	without	-0.04719266
-3.0384042	abl	-0.04719269
-3.9572403	assess	-0.04719266
-3.9572403	tactic	-0.04719266
-3.685886	situat	-0.04719266
-3.1960914	almost	-0.04719269
-3.9572403	rock	-0.04719266
-3.685886	concert	-0.04719266
-3.1960914	bit	-0.04719266
-3.446172	drink	-0.04719266
-3.9572403	weren	-0.04719266
-3.685886	expect	-0.04719266
-3.9572403	prospect	-0.04719266
-3.9572403	shot	-0.04719266
-3.9572403	arm	-0.04719266
-3.9572403	crimin	-0.04719266
-3.685886	d	-0.04719266
-3.446172	end	-0.04719266
-3.9572403	cleverli	-0.04719266
-2.542676	someth	-0.06193332
-3.9572403	witti	-0.04719266
-3.9572403	genuin	-0.04719266
-2.542676	fuck	-0.04719266
-3.685886	paper	-0.04719266
-3.9572403	publish	-0.04719266
-3.1960914	murder	-0.10525668
-3.9572403	ago	-0.04719266
-3.685886	deserv	-0.04719266
-3.685886	useless	-0.17229958
-3.9572403	arsehol	-0.04719266
-3.9572403	keyboard	-0.04719266
-3.9572403	warrior	-0.04719266
-3.685886	away	-0.04719266
-3.9572403	traduc	-0.04719266
-3.9572403	memori	-0.04719266
-3.9572403	flash	-0.04719266
-3.1960914	innoc	-0.10525668
-3.9572403	combin	-0.04719266
-3.446172	action	-0.04719266
-3.9572403	robocop	-0.04719266
-3.9572403	charg	-0.04719266
-3.9572403	battl	-0.04719266
-3.0384042	find	-0.04719269
-3.446172	person	-0.04719266
-3.685886	accept	-0.04719266
-3.1960914	carri	-0.04719266
-3.9572403	pre	-0.04719266
-3.9572403	assault	-0.04719266
-3.9572403	weapon	-0.04719266
-3.1960914	war	-0.10525668
-3.1960914	later	-0.04719266
-3.685886	open	-0.04719266
-3.9572403	wordhol	-0.04719266
-3.685886	whatev	-0.04719266
-3.9572403	sound	-0.04719266
-3.9572403	rumbl	-0.04719266
-3.9572403	forth	-0.04719266
-3.9572403	disgrac	-0.04719266
-3.9572403	commit	-0.04719266
-3.9572403	print	-0.04719266
-3.685886	b	-0.04719266
-3.9572403	c	-0.04719266
-3.9572403	justic	-0.04719266
-3.9572403	bar	-0.04719266
-3.9572403	race	-0.04719266
-3.9572403	appli	-0.04719266
-3.9572403	admiss	-0.04719266
-3.9572403	dickhead	-0.04719266
-3.9572403	youquestion	-0.04719266
-3.0384042	woman	-0.0930062
-2.6365945	said	-0.04719266
-3.685886	answer	-0.04719266
-3.685886	listen	-0.04719266
-3.685886	treat	-0.04719266
-3.9572403	orb	-0.04719266
-3.1960914	nation	-0.10525668
-3.9572403	newspap	-0.04719266
-3.446172	liter	-0.12647483
-3.9572403	flip	-0.04719266
-3.685886	shit	-0.04719266
-3.9572403	muck	-0.04719266
-3.9572403	rake	-0.04719266
-3.685886	name	-0.04719266
-3.685886	unleash	-0.04719266
-3.685886	hord	-0.17229958
-3.0384042	fli	-0.04719266
-3.9572403	monkey	-0.04719266
-3.446172	comment	-0.04719266
-3.9572403	section	-0.04719266
-2.5023763	actual	-0.04719266
-3.9572403	decid	-0.04719266
-3.446172	speak	-0.04719266
-3.0384042	let	-0.5904249
-3.446172	hope	-0.10525668
-3.9572403	cup	-0.04719266
-3.9572403	tea	-0.04719266
-3.685886	while	-0.04719266
-3.685886	she	-0.04719266
-3.9572403	onlin	-0.04719266
-3.446172	quick	-0.04719266
-3.9572403	spell	-0.04719266
-3.9572403	hippocrit	-0.04719266
-3.9572403	hypocryt	-0.04719266
-3.9572403	hypocritt	-0.04719266
-3.9572403	feminazi	-0.04719266
-3.9572403	easier	-0.04719266
-3.685886	fair	-0.04719266
-3.1960914	game	-0.04719266
-2.7565928	need	-0.07204594
-3.1960914	keep	-0.10525668
-3.685886	somehow	-0.04719266
-3.1960914	done	-0.04719269
-3.446172	read	-0.04719266
-3.446172	angri	-0.04719266
-3.685886	felt	-0.04719266
-3.446172	wrong	-0.04719266
-3.685886	sidebar	-0.04719266
-3.685886	pictur	-0.04719266
-3.9572403	underag	-0.04719266
-3.685886	celebr	-0.04719266
-3.9572403	grown	-0.04719266
-3.9572403	green	-0.04719266
-3.9572403	arrow	-0.04719266
-3.446172	her	-0.10525668
-2.6924622	mean	-0.04719266
-3.9572403	descend	-0.04719266
-3.9572403	howl	-0.04719266
-3.9572403	scream	-0.04719266
-3.9572403	mon	-0.04719266
-3.9572403	mechan	-0.04719266
-3.9572403	silenc	-0.04719266
-3.685886	exactli	-0.04719266
-3.9572403	reduct	-0.04719266
-3.9572403	twizzl	-0.04719266
-2.9229684	rememb	-0.04719269
-3.685886	rais	-0.04719266
-3.9572403	voic	-0.04719266
-3.685886	hang	-0.17229958
-3.0384042	feel	-0.0930062
-2.6924622	there	-0.26662236
-3.685886	miss	-0.04719266
-3.9572403	mention	-0.04719266
-3.9572403	impact	-0.04719266
-3.9572403	tast	-0.04719266
-3.685886	rage	-0.04719266
-3.9572403	extra	-0.04719266
-3.9572403	insult	-0.04719266
-3.9572403	dave	-0.04719266
-3.9572403	peic	-0.04719266
-3.9572403	aggriev	-0.04719266
-3.685886	taxpay	-0.04719266
-3.9572403	bingo	-0.04719266
-3.685886	sarcast	-0.17229958
-3.685886	quot	-0.04719266
-3.9572403	mark	-0.04719266
-3.446172	also	-0.04719266
-3.9572403	ohforfuckingfuckityfuckssaaaaaaak	-0.04719266
-3.685886	perspect	-0.04719266
-3.9572403	forev	-0.04719266
-3.9572403	hoorayagain	-0.04719266
-3.685886	play	-0.04719266
-3.9572403	type	-0.04719266
-3.9572403	hand	-0.04719266
-3.9572403	digitso	-0.04719266
-2.542676	richard	-0.35283566
-3.9572403	littlejohn	-0.04719266
-3.685886	christian	-0.04719266
-2.8318615	even	-0.04719269
-3.685886	allow	-0.04719266
-3.9572403	basi	-0.04719266
-3.9572403	uppiti	-0.04719266
-3.1960914	gay	-0.04719266
-3.446172	polic	-0.04719266
-3.9572403	protect	-0.04719266
-3.446172	law	-0.04719266
-3.1960914	are	-0.21070102
-3.685886	eh	-0.12647483
-3.685886	hate	-0.04719266
-3.9572403	er	-0.04719266
-3.9572403	differ	-0.04719266
-3.9572403	teacher	-0.04719266
-3.9572403	teach	-0.04719266
-3.685886	children	-0.04719266
-3.9572403	legal	-0.04719266
-3.9572403	recognis	-0.04719266
-3.9572403	fought	-0.04719266
-3.446172	for	-0.04719266
-3.9572403	introduc	-0.04719266
-3.9572403	prejudic	-0.04719266
-3.9572403	impression	-0.04719266
-3.9572403	school	-0.04719266
-3.9572403	pupil	-0.04719266
-3.9572403	pc	-0.04719266
-3.446172	gone	-0.12647483
-3.9572403	mad	-0.04719266
-3.9572403	care	-0.04719266
-3.446172	couldn	-0.36857614
-3.9572403	either	-0.04719266
-3.9572403	just	-0.04719266
-3.446172	hot	-0.12647483
-3.9572403	sunburn	-0.04719266
-3.0384042	make	-0.04719269
-3.9572403	upcoupl	-0.04719266
-3.685886	horribl	-0.04719266
-3.446172	terror	-0.36857614
-3.9572403	holidaymak	-0.04719266
-3.1960914	tunisia	-0.04719269
-3.685886	london	-0.04719266
-3.1960914	pride	-0.49351487
-3.9572403	unconnect	-0.04719266
-3.9572403	possess	-0.04719266
-3.446172	except	-0.04719269
-3.9572403	beauti	-0.04719266
-3.685886	connect	-0.04719266
-3.685886	other	-0.04719266
-3.9572403	swung	-0.04719266
-3.9572403	cnn	-0.04719266
-3.0384042	report	-0.04719269
-3.685886	isi	-0.12647483
-2.6365945	flag	-0.04719266
-3.9572403	outlin	-0.04719266
-3.9572403	toy	-0.04719266
-3.9572403	outrag	-0.04719266
-3.9572403	mighti	-0.04719266
-3.9572403	dare	-0.04719266
-3.446172	light	-0.04719266
-3.9572403	mere	-0.04719266
-3.685886	hour	-0.04719266
-3.9572403	claim	-0.04719266
-3.1960914	live	-0.04719266
-2.542676	respect	-0.18463422
-3.446172	becaus	-0.04719266
-3.685886	die	-0.04719266
-3.9572403	famili	-0.04719266
-3.9572403	griev	-0.04719266
-3.9572403	worthi	-0.04719266
-3.685886	attend	-0.04719266
-3.9572403	sentiment	-0.04719266
-3.685886	build	-0.04719266
-3.685886	then	-0.04719266
-3.1960914	around	-0.04719266
-3.9572403	appropri	-0.04719266
-3.9572403	central	-0.04719266
-3.1960914	argument	-0.04719266
-3.9572403	hospit	-0.04719266
-3.9572403	recov	-0.04719266
-3.9572403	physic	-0.04719266
-3.685886	injuri	-0.04719266
-3.9572403	heal	-0.04719266
-3.685886	or	-0.04719266
-3.446172	page	-0.04719266
-3.9572403	rant	-0.04719266
-3.685886	craven	-0.04719266
-3.9572403	lack	-0.04719266
-3.685886	street	-0.04719266
-3.9572403	written	-0.04719266
-3.9572403	els	-0.04719266
-3.9572403	disrespect	-0.04719266
-3.9572403	specul	-0.04719266
-3.685886	if	-0.04719266
-3.9572403	scenario	-0.04719266
-3.9572403	gunman	-0.04719266
-3.9572403	brighton	-0.04719266
-3.9572403	souss	-0.04719266
-3.446172	again	-0.10525668
-3.9572403	includ	-0.04719266
-3.9572403	illustr	-0.04719266
-3.9572403	base	-0.04719266
-3.9572403	armi	-0.04719266
-3.9572403	pastich	-0.04719266
-3.9572403	dandi	-0.04719266
-3.446172	folk	-0.04719266
-3.9572403	taught	-0.04719266
-3.9572403	anyth	-0.04719266
-3.9572403	muslim	-0.04719266
-3.9572403	hypocrit	-0.04719266
-3.9572403	vacuum	-0.04719266
-3.9572403	access	-0.04719266
-3.9572403	copi	-0.04719266
-3.9572403	microsoft	-0.04719266
-3.685886	word	-0.04719266
-3.1960914	alway	-0.04719269
-3.9572403	keysunday	-0.04719266
-3.9572403	featur	-0.04719266
-3.9572403	dazzl	-0.04719266
-3.9572403	contribut	-0.04719266
-3.1960914	leo	-0.04719266
-3.446172	took	-0.04719266
-2.9229684	oppress	-0.04719266
-3.9572403	ignor	-0.04719266
-3.446172	group	-0.04719266
-3.1960914	set	-0.04719266
-3.9572403	follow	-0.04719266
-3.9572403	challeng	-0.04719266
-3.9572403	interest	-0.04719266
-3.446172	heterosexu	-0.36857614
-3.685886	imagin	-0.04719266
-3.685886	massiv	-0.04719266
-3.9572403	blown	-0.04719266
-3.685886	version	-0.04719266
-3.685886	tom	-0.17229958
-3.9572403	selleck	-0.04719266
-3.9572403	moustach	-0.04719266
-3.9572403	magnum	-0.04719266
-3.9572403	pi	-0.04719266
-3.1960914	idea	-0.04719266
-3.9572403	user	-0.04719266
-3.9572403	worri	-0.04719266
-3.9572403	about	-0.04719266
-3.9572403	alistair	-0.04719266
-3.9572403	gellatli	-0.04719266
-3.9572403	share	-0.04719266
-3.9572403	inspir	-0.04719266
-3.9572403	miniar	-0.04719266
-3.1960914	more	-0.26340994
-3.9572403	grey	-0.04719266
-3.685886	six	-0.04719266
-3.9572403	came	-0.04719266
-3.9572403	tinyglowingshark	-0.04719266
-3.1960914	colour	-0.04719266
-3.685886	forgotten	-0.04719266
-3.9572403	likebut	-0.04719266
-3.685886	seem	-0.04719266
-3.9572403	familiar	-0.04719266
-3.9572403	nah	-0.04719266
-3.685886	place	-0.04719266
-3.0384042	move	-0.0930062
-3.685886	learn	-0.04719266
-2.9229684	whole	-0.04719266
-3.9572403	load	-0.04719266
-3.685886	exist	-0.04719266
-3.9572403	keen	-0.04719266
-3.685886	with	-0.04719266
-3.9572403	competit	-0.04719266
-3.9572403	emili	-0.04719266
-3.9572403	mcquad	-0.04719266
-3.685886	entri	-0.04719266
-3.685886	shame	-0.04719266
-3.9572403	background	-0.04719266
-3.9572403	templeton	-0.04719266
-3.9572403	alexandra	-0.04719266
-3.9572403	doubl	-0.04719266
-3.9572403	hint	-0.04719266
-3.9572403	worryingli	-0.04719266
-3.9572403	cilla	-0.04719266
-3.9572403	black	-0.04719266
-3.9572403	down	-0.04719266
-3.9572403	seiz	-0.04719266
-3.685886	control	-0.04719266
-3.1960914	bloodi	-0.04719266
-3.9572403	coup	-0.04719266
-3.9572403	compet	-0.04719266
-3.9572403	food	-0.04719266
-3.9572403	episod	-0.04719266
-3.9572403	blind	-0.04719266
-3.9572403	date	-0.04719266
-3.9572403	meanwhil	-0.04719266
-3.9572403	jami	-0.04719266
-3.9572403	canavan	-0.04719266
-3.9572403	suggest	-0.04719266
-3.1960914	poor	-0.10525668
-3.9572403	anthem	-0.04719266
-3.9572403	newportdol	-0.04719266
-3.685886	went	-0.04719266
-3.1960914	classi	-0.04719266
-3.9572403	chri	-0.04719266
-3.9572403	sleep	-0.04719266
-3.9572403	slightli	-0.04719266
-3.446172	less	-0.04719266
-3.9572403	ashl	-0.04719266
-3.9572403	built	-0.04719266
-3.9572403	narr	-0.04719266
-3.9572403	flutter	-0.04719266
-3.9572403	breez	-0.04719266
-3.446172	long	-0.04719266
-3.685886	summer	-0.04719266
-3.685886	fantast	-0.04719266
-3.9572403	excel	-0.04719266
-3.9572403	winner	-0.04719266
-3.685886	me	-0.04719266
-3.685886	ridicul	-0.04719266
-3.9572403	imag	-0.04719266
-3.9572403	drum	-0.04719266
-3.9572403	roll	-0.04719266
-3.9572403	scimmia	-0.04719266
-3.9572403	lustrini	-0.04719266
-3.9572403	win	-0.04719266
-3.9572403	prize	-0.04719266
-3.9572403	brag	-0.04719266
-3.9572403	handsom	-0.04719266
-3.9572403	vessel	-0.04719266
-3.9572403	pour	-0.04719266
-3.9572403	victori	-0.04719266
-3.9572403	into	-0.04719266
-3.0384042	who	-0.0930062
-3.9572403	handi	-0.04719266
-3.9572403	needl	-0.04719266
-3.685886	thread	-0.04719266
-3.685886	threaten	-0.04719266
-3.9572403	asapfollow	-0.04719266
-3.9572403	tourist	-0.04719266
-3.9572403	beach	-0.04719266
-3.0384042	kelvin	-0.21070102
-3.9572403	mackenzi	-0.04719266
-3.0384042	eu	-0.0930062
-3.685886	stay	-0.04719266
-3.9572403	riiiiiight	-0.04719266
-3.9572403	line	-0.04719266
-3.9572403	reason	-0.04719266
-3.9572403	citizen	-0.04719266
-3.446172	terrorist	-0.36857614
-3.1960914	logic	-0.0930062
-3.9572403	bear	-0.04719266
-3.685886	wouldn	-0.17229958
-3.9572403	seen	-0.04719266
-2.9229684	polit	-0.04719266
-3.9572403	agenda	-0.04719266
-3.685886	dead	-0.04719266
-3.9572403	kill	-0.04719266
-3.9572403	blood	-0.04719266
-3.9572403	terribl	-0.04719266
-3.685886	togeth	-0.04719266
-3.685886	africa	-0.04719266
-3.9572403	great	-0.04719266
-3.9572403	fenc	-0.04719266
-3.9572403	coastlin	-0.04719266
-3.9572403	haven	-0.04719266
-3.446172	lower	-0.04719266
-3.685886	manag	-0.04719266
-3.9572403	nastier	-0.04719266
-3.685886	identifi	-0.04719266
-3.9572403	achiev	-0.04719266
-3.9572403	itself	-0.04719266
-3.9572403	gmt	-0.04719266
-3.9572403	friday	-0.04719266
-3.685886	accord	-0.04719266
-3.9572403	assum	-0.04719266
-3.685886	goe	-0.04719266
-3.9572403	sale	-0.04719266
-3.685886	at	-0.04719266
-3.9572403	am	-0.04719266
-3.9572403	bowround	-0.04719266
-3.9572403	theme	-0.04719266
-2.5871015	here	-0.21751916
-3.9572403	quentin	-0.04719266
-3.9572403	lett	-0.04719266
-3.685886	describ	-0.04719266
-3.1960914	highli	-0.49351487
-3.9572403	qualifi	-0.04719266
-3.685886	lawyer	-0.04719266
-3.9572403	advis	-0.04719266
-3.9572403	presid	-0.04719266
-3.9572403	prime	-0.04719266
-3.685886	minist	-0.04719266
-3.685886	serv	-0.04719266
-3.685886	un	-0.04719266
-3.9572403	commiss	-0.04719266
-3.685886	investig	-0.04719266
-3.9572403	stood	-0.04719266
-3.685886	govern	-0.04719266
-3.9572403	intern	-0.04719266
-3.1960914	uk	-0.04719266
-3.9572403	parliament	-0.04719266
-3.685886	wear	-0.04719266
-3.9572403	cloth	-0.04719266
-3.9572403	film	-0.04719266
-3.9572403	hair	-0.04719266
-3.685886	remind	-0.04719266
-3.9572403	descript	-0.04719266
-3.9572403	governtoday	-0.04719266
-3.9572403	present	-0.04719266
-3.9572403	strang	-0.04719266
-3.9572403	bedfellow	-0.04719266
-3.9572403	fer	-0.04719266
-3.9572403	relat	-0.04719266
-3.685886	usual	-0.04719266
-3.9572403	oppos	-0.04719266
-3.685886	side	-0.17229958
-3.446172	patricia	-0.04719266
-3.9572403	heard	-0.04719266
-3.9572403	cheek	-0.04719266
-3.9572403	reach	-0.04719266
-3.9572403	sit	-0.04719266
-3.9572403	garden	-0.04719266
-3.9572403	music	-0.04719266
-3.9572403	bastard	-0.04719266
-3.9572403	sake	-0.04719266
-3.9572403	neighbour	-0.04719266
-3.685886	guardian	-0.04719266
-3.9572403	bob	-0.04719266
-3.9572403	elev	-0.04719266
-3.9572403	art	-0.04719266
-3.685886	pooh	-0.04719266
-3.685886	new	-0.04719266
-3.9572403	levellet	-0.04719266
-3.9572403	rephras	-0.04719266
-3.0384042	mayb	-0.04719269
-3.1960914	understand	-0.04719266
-3.9572403	cousin	-0.04719266
-3.685886	excus	-0.04719266
-3.685886	roof	-0.04719266
-3.685886	state	-0.04719266
-3.9572403	valid	-0.04719266
-3.446172	salli	-0.26340994
-3.9572403	punch	-0.04719266
-3.685886	billi	-0.04719266
-3.9572403	sigh	-0.04719266
-2.6924622	the	-0.07204594
-3.9572403	fairer	-0.04719266
-3.685886	comparison	-0.04719266
-3.9572403	did	-0.04719266
-3.9572403	jimmi	-0.04719266
-3.9572403	fudg	-0.04719266
-3.9572403	fairli	-0.04719266
-3.446172	clear	-0.04719266
-3.0384042	case	-0.04719266
-3.685886	respons	-0.04719266
-3.9572403	shoot	-0.04719266
-3.446172	girl	-0.04719266
-3.9572403	implic	-0.04719266
-3.446172	him	-0.04719266
-3.9572403	dylann	-0.04719266
-3.9572403	sever	-0.04719266
-3.9572403	pull	-0.04719266
-3.9572403	trigger	-0.04719266
-3.9572403	monument	-0.04719266
-3.9572403	flaw	-0.04719266
-3.9572403	promot	-0.04719266
-3.9572403	high	-0.04719266
-3.685886	level	-0.04719266
-3.9572403	altitud	-0.04719266
-3.9572403	wit	-0.04719266
-3.9572403	curvatur	-0.04719266
-3.9572403	earth	-0.04719266
-3.9572403	timenice	-0.04719266
-3.9572403	harmoni	-0.04719266
-3.9572403	funnili	-0.04719266
-2.9229684	enough	-0.04719266
-3.685886	piec	-0.04719266
-3.9572403	scottish	-0.04719266
-3.9572403	edit	-0.04719266
-3.9572403	snp	-0.04719266
-3.9572403	late	-0.04719266
-3.9572403	mcnasti	-0.04719266
-3.9572403	burger	-0.04719266
-3.9572403	ronald	-0.04719266
-3.9572403	mcdonald	-0.04719266
-3.9572403	sell	-0.04719266
-3.685886	jockestan	-0.04719266
-3.9572403	shock	-0.04719266
-3.9572403	elect	-0.04719266
-3.9572403	parti	-0.04719266
-3.9572403	anoth	-0.04719266
-3.9572403	joke	-0.04719266
-3.9572403	tempt	-0.04719266
-3.9572403	beyond	-0.04719266
-3.9572403	parodi	-0.04719266
-3.685886	stick	-0.04719266
-3.9572403	somewher	-0.04719266
-3.9572403	nearli	-0.04719266
-3.9572403	btw	-0.04719266
-3.9572403	woad	-0.04719266
-3.9572403	journalnight	-0.04719266
-3.9572403	five	-0.04719266
-3.1960914	welcom	-0.10525668
-3.9572403	fifth	-0.04719266
-3.685886	final	-0.17229958
-2.6924622	night	-0.06949557
-3.685886	special	-0.17229958
-3.446172	event	-0.04719266
-3.685886	serialis	-0.10525668
-3.9572403	manhood	-0.04719266
-3.446172	blister	-0.12647483
-3.9572403	indict	-0.04719266
-3.9572403	fast	-0.04719266
-3.9572403	becom	-0.04719266
-3.9572403	text	-0.04719266
-3.9572403	friendzon	-0.04719266
-3.685886	neckbeard	-0.04719266
-3.685886	everywher	-0.04719266
-3.9572403	paint	-0.04719266
-3.9572403	bleak	-0.04719266
-3.9572403	enjoy	-0.04719266
-3.9572403	manner	-0.04719266
-3.9572403	unfair	-0.04719266
-3.685886	advantag	-0.04719266
-3.9572403	fear	-0.04719266
-3.446172	tonight	-0.04719266
-3.9572403	break	-0.04719266
-3.9572403	doom	-0.04719266
-3.9572403	gloom	-0.04719266
-3.9572403	grimli	-0.04719266
-3.9572403	silent	-0.04719266
-3.9572403	wankchamb	-0.04719266
-3.9572403	fill	-0.04719266
-3.9572403	reliev	-0.04719266
-3.9572403	grunt	-0.04719266
-3.685886	reveal	-0.04719266
-3.9572403	bright	-0.04719266
-3.9572403	futur	-0.04719266
-3.9572403	equal	-0.04719266
-3.9572403	denigr	-0.04719266
-3.9572403	correct	-0.04719266
-3.685886	myth	-0.04719266
-3.9572403	ruddi	-0.04719266
-3.446172	wage	-0.12647483
-3.685886	gap	-0.04719266
-3.9572403	innumer	-0.04719266
-3.9572403	analys	-0.04719266
-3.9572403	discuss	-0.04719266
-3.685886	googl	-0.04719266
-3.9572403	result	-0.04719266
-3.9572403	riiiiiiiight	-0.04719266
-3.9572403	fawcett	-0.04719266
-3.9572403	societi	-0.04719266
-3.9572403	simpl	-0.04719266
-3.9572403	next	-0.04719266
-3.9572403	tl	-0.04719266
-3.9572403	dr	-0.04719266
-3.9572403	father	-0.04719266
-3.9572403	spend	-0.04719266
-3.9572403	medal	-0.04719266
-3.1960914	studi	-0.04719266
-3.9572403	age	-0.04719266
-3.9572403	rang	-0.04719266
-3.9572403	occup	-0.04719266
-3.9572403	possibl	-0.04719266
-3.685886	pay	-0.04719266
-3.9572403	bomb	-0.04719266
-3.9572403	booooooom	-0.04719266
-3.685886	lost	-0.04719266
-3.1960914	number	-0.04719266
-3.9572403	sat	-0.04719266
-3.9572403	restaur	-0.04719266
-3.685886	alon	-0.04719266
-3.9572403	stare	-0.04719266
-3.9572403	coupl	-0.04719266
-3.9572403	jewelleri	-0.04719266
-3.9572403	approv	-0.04719266
-3.1960914	of	-0.10525668
-3.9572403	exclus	-0.04719266
-3.9572403	club	-0.04719266
-3.9572403	dinner	-0.04719266
-3.685886	tip	-0.04719266
-2.9229684	posit	-0.23086928
-3.1960914	pleas	-0.04719269
-3.446172	total	-0.04719266
-3.1960914	but	-0.04719266
-3.9572403	frame	-0.04719266
-3.9572403	rule	-0.04719266
-3.9572403	opportun	-0.04719266
-3.9572403	wealth	-0.04719266
-3.9572403	breath	-0.04719266
-3.9572403	pass	-0.04719266
-3.9572403	far	-0.04719266
-3.9572403	sensit	-0.04719266
-3.9572403	nice	-0.04719266
-3.685886	deal	-0.04719266
-3.446172	marginalis	-0.04719266
-3.9572403	trauma	-0.04719266
-3.9572403	therenight	-0.04719266
-3.685886	four	-0.04719266
-3.685886	bloke	-0.17229958
-3.9572403	bibl	-0.04719266
-3.9572403	polem	-0.04719266
-3.9572403	delici	-0.04719266
-3.9572403	provoc	-0.04719266
-3.1960914	book	-0.04719266
-3.9572403	onanist	-0.04719266
-3.9572403	manifesto	-0.04719266
-3.685886	detail	-0.04719266
-3.685886	victimis	-0.04719266
-3.9572403	stamp	-0.04719266
-3.9572403	belittl	-0.04719266
-3.9572403	otherwis	-0.04719266
-3.685886	cruel	-0.04719266
-3.685886	start	-0.04719266
-3.9572403	red	-0.04719266
-3.9572403	angrili	-0.04719266
-3.9572403	shout	-0.04719266
-3.9572403	misandri	-0.04719266
-3.685886	matter	-0.04719266
-3.9572403	order	-0.04719266
-3.9572403	specif	-0.04719266
-3.9572403	argu	-0.04719266
-3.9572403	whose	-0.04719266
-3.9572403	proven	-0.04719266
-3.9572403	consider	-0.04719266
-3.9572403	given	-0.04719266
-3.9572403	hrrrrrmmmmmm	-0.04719266
-3.685886	cp	-0.04719266
-3.9572403	month	-0.04719266
-3.685886	period	-0.04719266
-3.446172	alleg	-0.04719266
-2.8318615	fals	-0.425313
-3.9572403	releas	-0.04719266
-3.9572403	wednesday	-0.04719266
-3.9572403	crown	-0.04719266
-3.1960914	prosecut	-0.04719266
-3.685886	servic	-0.04719266
-3.685886	test	-0.17229958
-3.9572403	refer	-0.04719266
-3.9572403	dpp	-0.04719266
-3.446172	domest	-0.36857614
-3.685886	violenc	-0.04719266
-3.9572403	by	-0.04719266
-3.9572403	timespan	-0.04719266
-3.685886	involv	-0.04719266
-3.446172	ok	-0.04719266
-3.685886	thousand	-0.04719266
-3.9572403	upon	-0.04719266
-3.685886	abov	-0.04719266
-3.685886	shall	-0.17229958
-3.9572403	file	-0.04719266
-3.9572403	l	-0.04719266
-3.685886	anyon	-0.17229958
-3.9572403	bigger	-0.04719266
-3.9572403	font	-0.04719266
-3.9572403	truei	-0.04719266
-3.9572403	chariti	-0.04719266
-3.9572403	provid	-0.04719266
-3.685886	support	-0.04719266
-3.9572403	oooookay	-0.04719266
-3.9572403	breakdown	-0.04719266
-3.446172	figur	-0.04719266
-3.446172	roughli	-0.12647483
-3.685886	year	-0.04719266
-3.9572403	estim	-0.04719266
-3.685886	convict	-0.04719266
-3.9572403	anywher	-0.04719266
-3.9572403	near	-0.04719266
-3.9572403	amount	-0.04719266
-3.9572403	drop	-0.04719266
-3.9572403	math	-0.04719266
-3.446172	averag	-0.04719266
-3.9572403	caution	-0.04719266
-3.9572403	stuck	-0.04719266
-3.9572403	freezer	-0.04719266
-3.9572403	feet	-0.04719266
-3.9572403	roar	-0.04719266
-3.9572403	perfectli	-0.04719266
-3.9572403	comfort	-0.04719266
-3.9572403	million	-0.04719266
-3.9572403	mile	-0.04719266
-3.9572403	harman	-0.04719266
-3.9572403	mislead	-0.04719266
-3.9572403	radic	-0.04719266
-3.9572403	marxist	-0.04719266
-3.685886	though	-0.04719266
-3.9572403	barbarian	-0.04719266
-3.9572403	anonym	-0.04719266
-3.685886	hurt	-0.04719266
-3.9572403	suspect	-0.04719266
-3.9572403	encourag	-0.04719266
-3.9572403	slap	-0.04719266
-3.685886	fresh	-0.04719266
-3.9572403	hell	-0.04719266
-3.9572403	thiiiiiii	-0.04719266
-3.685886	have	-0.04719266
-3.9572403	consid	-0.04719266
-3.9572403	magic	-0.04719266
-3.9572403	highest	-0.04719266
-3.9572403	gross	-0.04719266
-3.9572403	box	-0.04719266
-3.9572403	offic	-0.04719266
-3.9572403	nineteen	-0.04719266
-3.9572403	eighti	-0.04719266
-3.9572403	seven	-0.04719266
-3.9572403	forevermor	-0.04719266
-3.9572403	steve	-0.04719266
-3.9572403	guttenberg	-0.04719266
-3.9572403	ted	-0.04719266
-3.9572403	danson	-0.04719266
-3.9572403	traitor	-0.04719266
-3.9572403	vile	-0.04719266
-3.685886	misandr	-0.04719266
-3.685886	propaganda	-0.04719266
-3.446172	tomorrow	-0.04719269
-3.9572403	conclud	-0.04719266
-3.9572403	forwardnight	-0.04719266
-3.9572403	holi	-0.04719266
-3.9572403	trimoni	-0.04719266
-3.446172	dear	-0.04719266
-3.685886	reader	-0.04719266
-3.9572403	third	-0.04719266
-3.446172	highlight	-0.04719266
-3.9572403	plight	-0.04719266
-3.685886	struggl	-0.04719266
-3.9572403	golden	-0.04719266
-3.685886	stitch	-0.17229958
-3.685886	troubl	-0.04719266
-3.9572403	amazon	-0.04719266
-3.9572403	fearless	-0.04719266
-3.9572403	frequent	-0.04719266
-3.9572403	hilari	-0.04719266
-3.685886	delv	-0.04719266
-3.9572403	minefield	-0.04719266
-3.9572403	marriag	-0.04719266
-3.685886	redmayn	-0.04719266
-3.9572403	needlessli	-0.04719266
-3.9572403	vagu	-0.04719266
-3.9572403	mobil	-0.04719266
-3.9572403	airplan	-0.04719266
-3.9572403	mode	-0.04719266
-3.9572403	g	-0.04719266
-3.9572403	wifi	-0.04719266
-3.9572403	locat	-0.04719266
-3.9572403	stream	-0.04719266
-3.685886	video	-0.04719266
-3.9572403	mr	-0.04719266
-3.685886	strike	-0.04719266
-3.446172	cake	-0.04719266
-3.9572403	lose	-0.04719266
-3.9572403	friend	-0.04719266
-3.9572403	space	-0.04719266
-3.9572403	doctor	-0.04719266
-3.9572403	smith	-0.04719266
-3.9572403	stress	-0.04719266
-3.9572403	wimp	-0.04719266
-3.685886	onli	-0.04719266
-3.9572403	eat	-0.04719266
-3.9572403	tiiiiiir	-0.04719266
-3.9572403	tire	-0.04719266
-3.9572403	gaaaam	-0.04719266
-3.9572403	ain	-0.04719266
-3.9572403	cwyii	-0.04719266
-3.9572403	shaaaam	-0.04719266
-3.9572403	receiv	-0.04719266
-3.685886	threat	-0.04719266
-3.0384042	talk	-0.04719269
-3.9572403	comput	-0.04719266
-3.9572403	ooookay	-0.04719266
-3.9572403	safe	-0.04719266
-3.9572403	fella	-0.04719266
-3.9572403	danger	-0.04719266
-3.685886	dun	-0.04719266
-3.9572403	duuuuunnnnnn	-0.04719266
-3.9572403	predatori	-0.04719266
-3.9572403	pack	-0.04719266
-3.9572403	prowl	-0.04719266
-3.9572403	countrysid	-0.04719266
-3.9572403	hunt	-0.04719266
-3.1960914	laugh	-0.04719266
-3.9572403	stop	-0.04719266
-3.9572403	conspiraci	-0.04719266
-3.9572403	overwhelm	-0.04719266
-3.9572403	pain	-0.04719266
-3.9572403	heartach	-0.04719266
-3.446172	leav	-0.04719266
-3.9572403	affect	-0.04719266
-3.9572403	hug	-0.04719266
-3.685886	wors	-0.04719266
-3.9572403	damag	-0.04719266
-3.9572403	misandrist	-0.04719266
-3.685886	serious	-0.04719266
-3.9572403	seriousnight	-0.04719266
-3.9572403	mra	-0.04719266
-3.9572403	damn	-0.04719266
-3.9572403	tough	-0.04719266
-3.9572403	complain	-0.04719266
-3.9572403	ingrain	-0.04719266
-3.685886	job	-0.04719266
-3.9572403	secur	-0.04719266
-3.9572403	nervou	-0.04719266
-3.9572403	rumour	-0.04719266
-3.9572403	link	-0.04719266
-3.9572403	ton	-0.04719266
-3.9572403	yesterday	-0.04719266
-3.685886	wash	-0.17229958
-3.9572403	machin	-0.04719266
-3.9572403	deeper	-0.04719266
-3.9572403	our	-0.04719266
-3.685886	stiletto	-0.17229958
-3.685886	aim	-0.04719266
-3.685886	squar	-0.04719266
-3.685886	healthcar	-0.04719266
-3.9572403	system	-0.04719266
-3.685886	medic	-0.17229958
-3.9572403	matriarchi	-0.04719266
-3.685886	male	-0.04719266
-3.9572403	cheap	-0.04719266
-3.9572403	stuff	-0.04719266
-3.9572403	sober	-0.04719266
-3.9572403	suddenli	-0.04719266
-3.9572403	movi	-0.04719266
-3.9572403	hatti	-0.04719266
-3.9572403	jacqu	-0.04719266
-3.9572403	matron	-0.04719266
-3.9572403	sinist	-0.04719266
-3.9572403	edg	-0.04719266
-3.9572403	wallet	-0.04719266
-3.685886	son	-0.04719266
-3.9572403	surviv	-0.04719266
-3.9572403	chamber	-0.04719266
-3.9572403	matriarch	-0.04719266
-3.9572403	nh	-0.04719266
-3.9572403	automat	-0.04719266
-3.9572403	brand	-0.04719266
-3.9572403	offend	-0.04719266
-3.9572403	plane	-0.04719266
-3.9572403	daughter	-0.04719266
-3.9572403	previou	-0.04719266
-3.9572403	noncey	-0.04719266
-3.9572403	label	-0.04719266
-3.9572403	judg	-0.04719266
-3.9572403	nowher	-0.04719266
-3.9572403	blame	-0.04719266
-3.9572403	hearti	-0.04719266
-3.9572403	diminish	-0.04719266
-3.9572403	cheapen	-0.04719266
-3.9572403	betray	-0.04719266
-3.9572403	nod	-0.04719266
-3.9572403	too	-0.04719266
-3.9572403	incred	-0.04719266
-3.9572403	inbuilt	-0.04719266
-3.9572403	vast	-0.04719266
-3.9572403	major	-0.04719266
-3.9572403	influenc	-0.04719266
-3.9572403	nobodi	-0.04719266
-3.446172	truli	-0.04719266
-3.9572403	dispossess	-0.04719266
-3.9572403	huddl	-0.04719266
-3.9572403	mass	-0.04719266
-3.9572403	yearn	-0.04719266
-3.9572403	free	-0.04719266
-3.9572403	femin	-0.04719266
-3.9572403	perhap	-0.04719266
-3.9572403	activ	-0.04719266
-3.9572403	hey	-0.04719266
-3.446172	brave	-0.04719266
-3.9572403	activist	-0.04719266
-3.9572403	wore	-0.04719266
-3.9572403	hat	-0.04719266
-3.9572403	soul	-0.04719266
-3.9572403	tireless	-0.04719266
-3.9572403	fighter	-0.04719266
-3.9572403	waaaaait	-0.04719266
-3.9572403	iiiiiiit	-0.04719266
-3.9572403	nail	-0.04719266
-3.9572403	thorni	-0.04719266
-3.9572403	mawaaaaaaagnight	-0.04719266
-3.9572403	sometim	-0.04719266
-3.9572403	hard	-0.04719266
-3.9572403	help	-0.04719266
-3.9572403	reliabl	-0.04719266
-3.9572403	trial	-0.04719266
-3.9572403	tribul	-0.04719266
-3.685886	prepar	-0.04719266
-3.9572403	heartbreak	-0.04719266
-3.9572403	wee	-0.04719266
-3.9572403	graphic	-0.04719266
-3.9572403	scene	-0.04719266
-3.9572403	subtl	-0.04719266
-3.9572403	bill	-0.04719266
-3.685886	part	-0.04719266
-3.9572403	incorrect	-0.04719266
-3.9572403	road	-0.04719266
-3.9572403	map	-0.04719266
-3.9572403	bold	-0.04719266
-3.9572403	author	-0.04719266
-3.9572403	brilliant	-0.04719266
-3.9572403	triumphant	-0.04719266
-3.9572403	err	-0.04719266
-3.685886	histori	-0.04719266
-3.9572403	worst	-0.04719266
-3.9572403	fascism	-0.04719266
-3.9572403	evil	-0.04719266
-3.9572403	fashion	-0.04719266
-3.9572403	mock	-0.04719266
-3.9572403	laughter	-0.04719266
-3.9572403	both	-0.04719266
-3.9572403	invent	-0.04719266
-3.9572403	corner	-0.04719266

\2-grams:
-1.4631631	lie </s>
-0.983843	<s> week	-0.017933082
-3.098226	<eos> week	-0.017933082
-1.379805	two week	-0.017933082
-0.983843	upcoupl week	-0.017933082
-1.9555805	night week	-0.017933082
-1.7611762	week toni	-0.017933082
-1.4620806	made toni	-0.017933082
-1.2856224	toni parson	-0.017933082
-1.4603698	eye parson	-0.017933082
-1.6802113	could parson	-0.017933082
-1.441961	parson use	-0.017933082
-2.554089	<eos> use	-0.017933082
-1.8773853	point use	-0.017933082
-1.6494614	money use	-0.017933082
-1.441961	ll use	-0.017933082
-0.97967863	nastier use	-0.017933082
-1.2732258	comparison use	-0.017933082
-0.97967863	tempt use	-0.017933082
-0.97967863	math use	-0.017933082
-1.9443142	use sun	-0.017933082
-2.0806055	day sun	-0.017933082
-1.6642419	tunisia sun	-0.017933082
-1.4510679	page sun	-0.017933082
-1.4510679	mackenzi sun	-0.017933082
-0.98279816	assum sun	-0.017933082
-1.7573931	sun column	-0.017933082
-2.8697226	s column	-0.017933082
-0.7191475	write column	-0.017933082
-1.6841801	column examin	-0.017933082
-0.98594034	examin import	-0.017933082
-2.8697226	s import	-0.017933082
-0.6055987	respect import	-0.089784995
-1.6692828	import issu	-0.017933082
-0.983843	vital issu	-0.017933082
-1.2814507	cut issu	-0.017933082
-1.4541465	girl issu	-0.017933082
-0.983843	affect issu	-0.017933082
-1.6494614	issu modern	-0.017933082
-2.540348	men modern	-0.017933082
-1.2732258	horror modern	-0.017933082
-1.441961	group modern	-0.017933082
-0.97967863	slightli modern	-0.017933082
-1.880715	the modern	-0.017933082
-1.2732258	level modern	-0.017933082
-0.97967863	minefield modern	-0.017933082
-0.97967863	map modern	-0.017933082
-1.656938	modern men	-0.017933082
-1.8876507	men men	-0.017933082
-1.6262211	<eos> men	-0.23591305
-1.0270058	look men	-0.017933082
-1.5724275	think men	-0.017933082
-1.6795858	s men	-0.017933082
-1.4121875	not men	-0.017933082
-1.5994602	today men	-0.017933082
-1.6940104	world men	-0.017933082
-1.1784458	when men	-0.017933082
-1.1784458	caus men	-0.017933082
-1.3085235	british men	-0.017933082
-0.9109874	heart men	-0.15568039
-1.5945129	know men	-0.017933082
-1.5297147	articl men	-0.017933082
-1.4729433	women men	-0.017933082
-1.5724275	is men	-0.017933082
-1.1784458	young men	-0.017933082
-1.3085235	face men	-0.017933082
-1.4508073	forward men	-0.017933082
-1.3918602	give men	-0.017933082
-1.1625091	sexism men	-0.017933082
-1.4508073	money men	-0.017933082
-1.1972803	way men	-0.017933082
-1.5945129	ye men	-0.017933082
-1.4508073	sort men	-0.017933082
-1.1452289	what men	-0.017933082
-1.1784458	experienc men	-0.017933082
-1.557634	life men	-0.017933082
-1.3918602	thought men	-0.017933082
-1.1784458	tell men	-0.017933082
-0.92888856	array men	-0.017933082
-1.1784458	alright men	-0.017933082
-1.3085235	focu men	-0.017933082
-1.1784458	unarm men	-0.017933082
-1.5945129	back men	-0.017933082
-1.4121875	innoc men	-0.017933082
-1.6165	said men	-0.017933082
-1.6307403	mean men	-0.017933082
-0.92888856	impact men	-0.017933082
-1.3085235	also men	-0.017933082
-1.1784458	perspect men	-0.017933082
-1.3918602	around men	-0.017933082
-1.1784458	learn men	-0.017933082
-0.75273776	poor men	-0.15568039
-1.495079	enough men	-0.017933082
-1.1784458	advantag men	-0.017933082
-1.3918602	number men	-0.017933082
-1.1784458	victimis men	-0.017933082
-0.92888856	traitor men	-0.017933082
-1.3918602	highlight men	-0.017933082
-0.92888856	plight men	-0.017933082
-1.3918602	cake men	-0.017933082
-1.1784458	onli men	-0.017933082
-0.92888856	shaaaam men	-0.017933082
-0.92888856	pain men	-0.017933082
-0.92888856	our men	-0.017933082
-0.92888856	nowher men	-0.017933082
-1.3085235	truli men	-0.017933082
-1.3085235	brave men	-0.017933082
-0.92888856	corner men	-0.017933082
-2.7181966	men cri	-0.017933082
-1.877493	never cri	-0.017933082
-0.98489046	came cri	-0.017933082
-1.2835315	prepar cri	-0.017933082
-1.5862443	cri much	-0.017933082
-2.0201907	might much	-0.017933082
-1.0571628	import <eos>	-0.017933082
-0.6881525	men <eos>	-0.017933082
-1.0323786	cri <eos>	-0.017933082
-0.92606914	much <eos>	-0.017933082
-0.97198814	no <eos>	-0.017933082
-0.73961	realli <eos>	-0.017933082
-1.2192707	look <eos>	-0.017933082
-0.6858352	see <eos>	-0.017933082
-0.7694422	himself <eos>	-0.017933082
-0.7694422	onc <eos>	-0.017933082
-0.5253102	man <eos>	-0.017933082
-0.65281993	not <eos>	-0.017933082
-1.161412	like <eos>	-0.017933082
-0.5340268	today <eos>	-0.017933082
-1.1713806	britain <eos>	-0.017933082
-0.5543116	world <eos>	-0.017933082
-0.92606914	ruin <eos>	-0.017933082
-0.7694422	racism <eos>	-0.017933082
-0.92606914	problem <eos>	-0.017933082
-0.92606914	centuri <eos>	-0.017933082
-0.29410586	all <eos>	-0.017933082
-1.0571628	ask <eos>	-0.017933082
-1.1043621	happen <eos>	-0.017933082
-1.164944	one <eos>	-0.017933082
-1.0745078	sure <eos>	-0.017933082
-0.7694422	incid <eos>	-0.017933082
-1.1375335	oh <eos>	-0.017933082
-1.0972111	mind <eos>	-0.017933082
-1.2386799	we <eos>	-0.017933082
-0.9939771	expert <eos>	-0.017933082
-1.1043621	they <eos>	-0.017933082
-0.65281993	foreign <eos>	-0.017933082
-1.1797644	t <eos>	-0.017933082
-0.98162645	digit <eos>	-0.017933082
-1.2622197	three <eos>	-0.017933082
-0.8660853	know <eos>	-0.017933082
-1.0745078	mani <eos>	-0.017933082
-1.139705	would <eos>	-0.017933082
-0.4227691	boom <eos>	-0.017933082
-0.9939771	court <eos>	-0.017933082
-0.92606914	do <eos>	-0.017933082
-0.6125405	women <eos>	-0.017933082
-0.40978044	whore <eos>	-0.017933082
-1.0571628	everyon <eos>	-0.017933082
-0.83938664	is <eos>	-0.017933082
-0.7694422	catch <eos>	-0.017933082
-0.92606914	moral <eos>	-0.017933082
-0.7694422	west <eos>	-0.017933082
-0.6801206	it <eos>	-0.017933108
-0.65281993	bad <eos>	-0.017933082
-0.7694422	scienc <eos>	-0.017933082
-0.7694422	tweet <eos>	-0.017933082
-0.9939771	whi <eos>	-0.017933082
-0.92606914	concern <eos>	-0.017933082
-0.9189701	wait <eos>	-0.017933082
-0.7694422	whorier <eos>	-0.017933082
-0.9939771	marri <eos>	-0.017933082
-0.4227691	ladi <eos>	-0.017933082
-0.92606914	form <eos>	-0.017933082
-0.7694422	queue <eos>	-0.017933082
-0.9361531	that <eos>	-0.017933082
-0.9928873	go <eos>	-0.017933082
-0.6089663	up <eos>	-0.017933082
-1.0571628	forward <eos>	-0.017933082
-1.591343	pointless <eos>	-0.017933082
-1.0323786	out <eos>	-0.017933082
-0.65281993	lot <eos>	-0.017933082
-0.7694422	minion <eos>	-0.017933082
-0.7181642	now <eos>	-0.017933082
-1.1375335	sexism <eos>	-0.017933082
-1.0745078	proud <eos>	-0.017933082
-1.0571628	money <eos>	-0.017933082
-0.7694422	ts <eos>	-0.017933082
-1.1462381	and <eos>	-0.017933082
-1.0323786	fun <eos>	-0.017933082
-1.0745078	march <eos>	-0.017933082
-0.92606914	anyway <eos>	-0.017933082
-0.7694422	filth <eos>	-0.017933082
-0.7694422	tupperwar <eos>	-0.017933082
-0.7694422	star <eos>	-0.017933082
-0.5269604	in <eos>	-0.017933082
-1.1449769	you <eos>	-0.017933082
-0.9939771	sorri <eos>	-0.017933082
-0.41868657	thi <eos>	-0.017933082
-0.95976233	way <eos>	-0.017933082
-1.1375335	mail <eos>	-0.017933082
-1.0745078	victim <eos>	-0.017933082
-0.65281993	discrimin <eos>	-0.017933082
-1.009373	rape <eos>	-0.017933082
-0.9939771	cultur <eos>	-0.017933082
-0.7694422	ceil <eos>	-0.017933082
-1.1261926	ye <eos>	-0.017933082
-0.40081418	right <eos>	-0.017933082
-0.7694422	tv <eos>	-0.017933082
-0.7694422	wrath <eos>	-0.017933082
-0.92606914	internet <eos>	-0.017933082
-0.7694422	bullshit <eos>	-0.017933082
-1.0972111	life <eos>	-0.017933082
-0.73961	day <eos>	-0.017933082
-1.0571628	exampl <eos>	-0.017933082
-1.0323786	thought <eos>	-0.017933082
-0.7694422	against <eos>	-0.017933082
-0.92606914	bt <eos>	-0.017933082
-0.4227691	broadband <eos>	-0.017933082
-0.7694422	gel <eos>	-0.017933082
-0.65281993	fine <eos>	-0.017933082
-0.7694422	feminismbest <eos>	-0.017933082
-0.4227691	sentenc <eos>	-0.017933082
-0.92557985	ever <eos>	-0.017933082
-0.7694422	harrow <eos>	-0.017933082
-0.9939771	frederick <eos>	-0.017933082
-0.92606914	forsyth <eos>	-0.017933082
-0.9939771	obvious <eos>	-0.017933082
-0.9939771	press <eos>	-0.017933082
-0.9939771	cours <eos>	-0.017933082
-0.6705745	on <eos>	-0.017933082
-0.7694422	partner <eos>	-0.017933082
-1.0278313	peopl <eos>	-0.017933082
-0.7694422	churlish <eos>	-0.017933082
-0.92606914	situat <eos>	-0.017933082
-0.7694422	crimin <eos>	-0.017933082
-1.1444831	someth <eos>	-0.017933082
-0.7694422	witti <eos>	-0.017933082
-1.1336597	fuck <eos>	-0.017933082
-0.65281993	murder <eos>	-0.017933082
-0.92606914	accept <eos>	-0.017933082
-0.65281993	war <eos>	-0.017933082
-1.0323786	later <eos>	-0.017933082
-0.7694422	admiss <eos>	-0.017933082
-0.7694422	dickhead <eos>	-0.017933082
-0.92606914	treat <eos>	-0.017933082
-0.92606914	unleash <eos>	-0.017933082
-0.9939771	comment <eos>	-0.017933082
-0.9939771	while <eos>	-0.017933082
-0.7694422	onlin <eos>	-0.017933082
-1.0323786	game <eos>	-0.017933082
-1.0571628	done <eos>	-0.017933082
-0.9939771	wrong <eos>	-0.017933082
-0.92606914	arrow <eos>	-0.017933082
-0.65281993	her <eos>	-0.017933082
-0.92606914	exactli <eos>	-0.017933082
-0.7694422	reduct <eos>	-0.017933082
-1.1050506	rememb <eos>	-0.017933082
-0.7694422	voic <eos>	-0.017933082
-0.94598556	there <eos>	-0.017933082
-0.92606914	rage <eos>	-0.017933082
-0.7694422	insult <eos>	-0.017933082
-0.92606914	taxpay <eos>	-0.017933082
-0.7694422	bingo <eos>	-0.017933082
-0.92606914	mark <eos>	-0.017933082
-0.7694422	hoorayagain <eos>	-0.017933082
-1.0873355	littlejohn <eos>	-0.017933082
-0.9939771	polic <eos>	-0.017933082
-0.40978044	are <eos>	-0.017933082
-0.5619223	eh <eos>	-0.017933082
-0.92606914	children <eos>	-0.017933082
-0.9939771	for <eos>	-0.017933082
-0.7694422	pupil <eos>	-0.017933082
-0.5619223	hot <eos>	-0.017933082
-0.7694422	sunburn <eos>	-0.017933082
-1.0571628	make <eos>	-0.017933082
-0.7694422	unconnect <eos>	-0.017933082
-1.0571628	report <eos>	-0.017933082
-1.1282617	flag <eos>	-0.017933082
-0.7694422	mighti <eos>	-0.017933082
-0.92606914	hour <eos>	-0.017933082
-1.033659	respect <eos>	-0.017933082
-0.92606914	die <eos>	-0.15568039
-0.7694422	griev <eos>	-0.017933082
-0.92606914	build <eos>	-0.017933082
-0.92606914	street <eos>	-0.017933082
-0.7694422	disrespect <eos>	-0.017933082
-0.65281993	again <eos>	-0.017933082
-0.7694422	dandi <eos>	-0.017933082
-0.92606914	word <eos>	-0.017933082
-0.9939771	took <eos>	-0.017933082
-1.0745078	oppress <eos>	-0.017933082
-0.9939771	group <eos>	-0.017933082
-0.7694422	inspir <eos>	-0.017933082
-1.1771027	more <eos>	-0.017933082
-0.9939771	grey <eos>	-0.017933082
-0.92606914	six <eos>	-0.017933082
-0.92606914	with <eos>	-0.017933082
-0.7694422	templeton <eos>	-0.017933082
-0.7694422	date <eos>	-0.017933082
-1.0323786	classi <eos>	-0.017933082
-0.92606914	fantast <eos>	-0.017933082
-0.7694422	lustrini <eos>	-0.017933082
-0.7181642	who <eos>	-0.017933082
-0.92606914	thread <eos>	-0.017933082
-0.7181642	eu <eos>	-0.017933082
-0.7181642	logic <eos>	-0.017933082
-1.0745078	polit <eos>	-0.017933082
-0.7694422	terribl <eos>	-0.017933082
-0.7694422	itself <eos>	-0.017933082
-0.7694422	am <eos>	-0.017933082
-1.2622197	here <eos>	-0.017933082
-0.92606914	un <eos>	-0.017933082
-0.7694422	hair <eos>	-0.017933082
-0.4227691	side <eos>	-0.017933082
-1.0571628	mayb <eos>	-0.017933082
-0.7694422	valid <eos>	-0.017933082
-0.9939771	billi <eos>	-0.017933082
-0.9939771	clear <eos>	-0.017933082
-1.0745078	case <eos>	-0.017933082
-0.9939771	him <eos>	-0.017933082
-0.7694422	sell <eos>	-0.017933082
-0.92606914	jockestan <eos>	-0.017933082
-0.7694422	shock <eos>	-0.017933082
-0.7694422	joke <eos>	-0.017933082
-0.92606914	somewher <eos>	-0.017933082
-1.0745078	event <eos>	-0.017933082
-0.9939771	everywher <eos>	-0.017933082
-0.7694422	gloom <eos>	-0.017933082
-0.7694422	denigr <eos>	-0.017933082
-0.7694422	ruddi <eos>	-0.017933082
-0.7694422	result <eos>	-0.017933082
-0.92606914	riiiiiiiight <eos>	-0.017933082
-0.7694422	simpl <eos>	-0.017933082
-0.7694422	medal <eos>	-0.017933082
-0.92606914	lost <eos>	-0.017933082
-0.65281993	of <eos>	-0.017933082
-1.2139381	posit <eos>	-0.017933082
-0.7694422	sensit <eos>	-0.017933082
-0.7694422	nice <eos>	-0.017933082
-1.0323786	book <eos>	-0.017933082
-0.92606914	start <eos>	-0.017933082
-0.7694422	misandri <eos>	-0.017933082
-0.92606914	matter <eos>	-0.017933082
-0.7694422	hrrrrrmmmmmm <eos>	-0.017933082
-0.9148881	fals <eos>	-0.017933082
-0.92606914	convict <eos>	-0.017933082
-0.92606914	though <eos>	-0.017933082
-0.7694422	barbarian <eos>	-0.017933082
-0.9939771	have <eos>	-0.017933082
-0.7694422	magic <eos>	-0.017933082
-0.7694422	seven <eos>	-0.017933082
-0.92606914	propaganda <eos>	-0.017933082
-1.0571628	tomorrow <eos>	-0.017933082
-0.9939771	reader <eos>	-0.017933082
-0.7694422	golden <eos>	-0.017933082
-0.92606914	troubl <eos>	-0.017933082
-0.92606914	redmayn <eos>	-0.017933082
-0.7694422	vagu <eos>	-0.017933082
-0.7694422	mode <eos>	-0.017933082
-0.7694422	wifi <eos>	-0.017933082
-0.92606914	video <eos>	-0.017933082
-0.7694422	smith <eos>	-0.017933082
-0.7694422	eat <eos>	-0.017933082
-0.7694422	tiiiiiir <eos>	-0.017933082
-0.7694422	ooookay <eos>	-0.017933082
-0.7694422	safe <eos>	-0.017933082
-0.7694422	fella <eos>	-0.017933082
-1.0323786	laugh <eos>	-0.017933082
-0.7694422	conspiraci <eos>	-0.017933082
-0.92606914	serious <eos>	-0.017933082
-0.92606914	machin <eos>	-0.017933082
-0.92606914	matriarchi <eos>	-0.017933082
-0.7694422	cheap <eos>	-0.017933082
-0.7694422	edg <eos>	-0.017933082
-0.7694422	plane <eos>	-0.017933082
-0.7694422	nobodi <eos>	-0.017933082
-0.7694422	hey <eos>	-0.017933082
-0.7694422	hat <eos>	-0.017933082
-0.7694422	heartbreak <eos>	-0.017933082
-0.7694422	scene <eos>	-0.017933082
-0.7694422	subtl <eos>	-0.017933082
-0.7694422	brilliant <eos>	-0.017933082
-0.7694422	laughter <eos>	-0.017933082
-0.7694422	both <eos>	-0.017933082
-1.7697651	<eos> no	-0.061429594
-1.2529981	oh no	-0.017933082
-1.2773188	do no	-0.017933082
-1.2773188	answer no	-0.017933082
-1.2773188	me no	-0.017933082
-0.98175585	coastlin no	-0.017933082
-1.2773188	serious no	-0.017933082
-2.1022477	<eos> realli	-0.08136822
-1.3130698	no realli	-0.08136822
-2.036494	realli realli	-0.017933082
-1.4389675	fault realli	-0.017933082
-2.293756	women realli	-0.017933082
-1.6446443	forward realli	-0.017933082
-0.9786437	cleverli realli	-0.017933082
-1.5598111	her realli	-0.017933082
-1.9681853	here realli	-0.017933082
-1.5557449	but realli	-0.017933082
-1.6752598	week look	-0.017933082
-2.3170986	men look	-0.017933082
-2.154088	<eos> look	-0.017933082
-1.9510926	realli look	-0.017933082
-2.2832975	s look	-0.017933082
-1.6679096	sure look	-0.017933082
-1.9121495	re look	-0.017933082
-1.9107962	three look	-0.017933082
-1.8638481	might look	-0.017933082
-1.8625199	ever look	-0.017933082
-1.9569664	someth look	-0.017933082
-1.2533203	she look	-0.017933082
-1.8023815	rememb look	-0.017933082
-1.9326992	flag look	-0.017933082
-1.2533203	els look	-0.017933082
-1.2533203	forgotten look	-0.017933082
-0.9694389	woad look	-0.017933082
-1.6679096	event look	-0.017933082
-0.9694389	evil look	-0.017933082
-1.7797492	<eos> see	-0.017933082
-2.2832975	s see	-0.017933082
-1.8971207	man see	-0.017933082
-1.7646638	mind see	-0.017933082
-1.5298431	foreign see	-0.017933082
-2.1624546	women see	-0.017933082
-1.7715484	is see	-0.017933082
-1.2533203	statist see	-0.017933082
-1.876515	wait see	-0.017933082
-1.2533203	top see	-0.017933082
-2.1392846	you see	-0.017933082
-1.7205355	so see	-0.017933082
-1.5219599	later see	-0.017933082
-1.8090547	need see	-0.017933082
-1.4129144	wrong see	-0.017933082
-0.9694389	interest see	-0.017933082
-0.9694389	keen see	-0.017933082
-0.9694389	timenice see	-0.017933082
-1.4129144	period see	-0.017933082
-3.5040271	<eos> liethi	-0.017933082
-0.98651344	liethi clearli	-0.017933082
-1.4620806	moment clearli	-0.017933082
-1.2874883	clearli vital	-0.017933082
-1.6823808	issu made	-0.017933082
-2.7709136	<eos> made	-0.017933082
-1.2773188	toni think	-0.017933082
-2.300924	<eos> think	-0.10475404
-2.1713037	would think	-0.017933082
-2.112643	and think	-0.017933082
-1.659259	report think	-0.017933082
-1.7332352	enough think	-0.017933082
-0.98175585	chariti think	-0.017933082
-1.8803431	think dad	-0.017933082
-0.98594034	your dad	-0.017933082
-1.5839689	around dad	-0.017933082
-1.4603698	dad old	-0.017933082
-1.2856224	went old	-0.017933082
-1.4603698	year old	-0.017933082
-1.4631631	old dri	-0.017933082
-3.335113	<eos> eye	-0.017933082
-0.98594034	dri eye	-0.017933082
-1.2856224	tear eye	-0.017933082
-1.4631631	parson himself	-0.017933082
-2.315733	<eos> never	-0.10475404
-1.8106675	today never	-0.017933082
-1.6642419	may never	-0.017933082
-0.6591251	liter never	-0.017933082
-0.98279816	hypocritt never	-0.017933082
-0.98279816	mon never	-0.017933082
-1.5876858	cri onc	-0.017933082
-2.1613824	<eos> he	-0.2702142
-2.1044638	day he	-0.017933082
-1.457247	him he	-0.017933082
-1.2835315	son he	-0.017933082
-1.6246501	sun s	-0.017933082
-1.5286274	men s	-0.10475404
-1.3883363	dad s	-0.017933082
-0.16661948	he s	-0.053040236
-1.0079035	today s	-0.017933082
-0.96042514	warbeck s	-0.017933082
-1.6720039	asher s	-0.017933082
-0.24796695	it s	-0.04780842
-0.19752617	that s	-0.062121052
-1.2155366	mail s	-0.08136822
-0.7922566	what s	-0.15568039
-1.5766351	woman s	-0.017933082
-0.12778959	let s	-0.017933082
-1.2361535	she s	-0.017933082
-0.5146348	there s	-0.06791826
-1.9518826	richard s	-0.017933082
-1.6720039	littlejohn s	-0.017933082
-1.2361535	london s	-0.017933082
-1.2361535	craven s	-0.017933082
-1.4906144	leo s	-0.017933082
-1.2361535	selleck s	-0.017933082
-1.2361535	summer s	-0.017933082
-1.5766351	who s	-0.017933082
-1.6002656	kelvin s	-0.017933082
-0.46564016	here s	-0.06791826
-1.2361535	quentin s	-0.017933082
-1.3883363	patricia s	-0.017933082
-0.96042514	harman s	-0.017933082
-2.9447844	s manli	-0.017933082
-1.8887019	modern man	-0.017933082
-2.7862494	<eos> man	-0.017933082
-0.9786437	manli man	-0.017933082
-2.515968	digit man	-0.017933082
-2.073558	well man	-0.017933082
-0.9544391	time man	-0.017933082
-1.4389675	action man	-0.017933082
-0.9786437	holi man	-0.017933082
-0.9786437	hug man	-0.017933082
-0.9786437	tough man	-0.017933082
-3.5040271	<eos> closet	-0.017933082
-0.98687524	closet sobber	-0.017933082
-0.98489046	sobber not	-0.017933082
-1.9215299	know not	-0.017933082
-1.2835315	other not	-0.017933082
-0.98489046	fear not	-0.017933082
-2.075449	<eos> like	-0.017933082
-1.0754646	look like	-0.10475404
-2.424648	s like	-0.017933082
-1.5495902	not like	-0.017933082
-1.9432915	we like	-0.017933082
-1.6305053	run like	-0.017933082
-2.037702	and like	-0.017933082
-1.6305053	almost like	-0.017933082
-0.9755537	arsehol like	-0.017933082
-1.2651538	treat like	-0.017933082
-0.9755537	scream like	-0.017933082
-1.6357759	feel like	-0.017933082
-1.4356475	roughli like	-0.017933082
-2.638136	men today	-0.017933082
-2.1915112	like today	-0.017933082
-1.0249859	britain today	-0.017933082
-2.0258288	world today	-0.017933082
-0.98279816	mess today	-0.017933082
-0.98279816	bowround today	-0.017933082
-2.945809	<eos> britain	-0.017933082
-1.9840763	man britain	-0.017933082
-1.9713486	turn britain	-0.017933082
-2.0067053	sexism britain	-0.017933082
-1.2773188	pictur britain	-0.017933082
-0.98175585	dave britain	-0.017933082
-0.98175585	bold britain	-0.017933082
-1.0285127	britain nay	-0.15568039
-1.8887019	modern world	-0.017933082
-1.4389675	old world	-0.017933082
-2.0648074	s world	-0.017933082
-0.9786437	nay world	-0.017933082
-1.4389675	across world	-0.017933082
-1.4389675	group world	-0.017933082
-1.2711937	remind world	-0.017933082
-1.2711937	cruel world	-0.017933082
-1.2711937	troubl world	-0.017933082
-1.2711937	histori world	-0.017933082
-2.0591805	world ruin	-0.017933082
-1.5862443	live ruin	-0.017933082
-3.4307187	<eos> when	-0.017933082
-1.2867657	ruin when	-0.017933082
-1.4631631	made cast	-0.017933082
-0.98687524	cast iron	-0.017933082
-0.98687524	iron nicotin	-0.017933082
-0.98687524	nicotin racism	-0.017933082
-3.5040271	<eos> an	-0.017933082
-0.98687524	an approach	-0.017933082
-3.4307187	<eos> absolut	-0.017933082
-0.98651344	approach absolut	-0.017933082
-1.2867657	absolut caus	-0.017933082
-0.98651344	fighter caus	-0.017933082
-1.2867657	caus psycholog	-0.017933082
-1.2867657	injuri psycholog	-0.017933082
-1.2867657	psycholog problem	-0.017933082
-2.2564585	right problem	-0.017933082
-3.335113	<eos> across	-0.017933082
-1.2856224	problem across	-0.017933082
-1.4603698	court across	-0.017933082
-1.4620806	across centuri	-0.017933082
-0.98651344	ten centuri	-0.017933082
-2.0466876	no all	-0.017933082
-1.7251325	happen all	-0.017933082
-2.047109	day all	-0.017933082
-0.97967863	question all	-0.017933082
-1.0216893	first all	-0.017933082
-2.083192	fuck all	-0.017933082
-0.97967863	heal all	-0.017933082
-1.2732258	place all	-0.017933082
-0.97967863	blood all	-0.017933082
-1.2867657	when hear	-0.017933082
-2.020957	wait hear	-0.017933082
-1.2814507	hear ask	-0.017933082
-1.9921689	might ask	-0.017933082
-1.9921689	turn ask	-0.017933082
-1.2814507	cold ask	-0.017933082
-1.2814507	control ask	-0.017933082
-1.6642419	ask happen	-0.017933082
-2.1877182	would happen	-0.017933082
-1.8018652	thing happen	-0.017933082
-0.98279816	youquestion happen	-0.017933082
-1.9026681	rememb happen	-0.017933082
-1.2793798	respons happen	-0.017933082
-3.4307187	<eos> chang	-0.017933082
-1.7607899	sure chang	-0.017933082
-3.335113	<eos> british	-0.017933082
-1.2856224	chang british	-0.017933082
-1.2856224	taxpay british	-0.017933082
-2.8103228	men yore	-0.017933082
-0.98687524	yore stout	-0.017933082
-3.0153651	<eos> heart	-0.017933082
-0.98279816	stout heart	-0.017933082
-1.4510679	speak heart	-0.017933082
-1.4510679	light heart	-0.017933082
-1.2793798	aim heart	-0.017933082
-1.2793798	squar heart	-0.017933082
-3.0153651	<eos> everi	-0.017933082
-2.0806055	realli everi	-0.017933082
-1.7412838	heart everi	-0.017933082
-2.173778	rape everi	-0.017933082
-1.8556664	life everi	-0.017933082
-1.6642419	almost everi	-0.017933082
-1.9096618	<eos> one	-0.017933082
-1.9251022	no one	-0.017933082
-2.0723155	see one	-0.017933082
-2.2268093	s one	-0.017933082
-1.9904015	like one	-0.017933082
-1.6530058	everi one	-0.017933082
-0.96641344	traceabl one	-0.017933082
-1.2475222	last one	-0.017933082
-2.1262374	women one	-0.017933082
-1.8133775	got one	-0.017933082
-0.47979248	sent one	-0.017933082
-0.96641344	buy one	-0.017933082
-1.590657	find one	-0.017933082
-0.96641344	tea one	-0.017933082
-1.2475222	exactli one	-0.017933082
-0.96641344	type one	-0.017933082
-1.6530058	polit one	-0.017933082
-0.96641344	fer one	-0.017933082
-1.8206112	night one	-0.017933082
-1.2475222	myth one	-0.017933082
-0.96641344	rang one	-0.017933082
-0.96641344	mawaaaaaaagnight one	-0.017933082
-2.4079354	one blub	-0.017933082
-0.98687524	blub mess	-0.017933082
-3.098226	<eos> sure	-0.017933082
-0.983843	pretti sure	-0.017933082
-1.8088005	m sure	-0.017933082
-1.4541465	wrong sure	-0.017933082
-1.2814507	celebr sure	-0.017933082
-3.2007146	<eos> must	-0.017933082
-1.2835315	chang must	-0.017933082
-1.6743827	alway must	-0.017933082
-0.98489046	font must	-0.017933082
-1.5876858	must complex	-0.017933082
-0.98687524	complex root	-0.017933082
-0.98687524	root traceabl	-0.017933082
-2.7645416	men singl	-0.017933082
-1.7573931	everi singl	-0.017933082
-1.6096387	one singl	-0.017933082
-1.5876858	singl incid	-0.017933082
-1.9138017	<eos> oh	-0.017933082
-2.2797322	see oh	-0.017933082
-2.3946736	t oh	-0.017933082
-2.6033366	digit oh	-0.017933082
-1.8965837	know oh	-0.017933082
-1.659259	exampl oh	-0.017933082
-1.567617	colour oh	-0.017933082
-0.46865514	never mind	-0.06791826
-1.581004	keep mind	-0.017933082
-0.98489046	beauti mind	-0.017933082
-0.98489046	bear mind	-0.017933082
-3.5040271	<eos> doubt	-0.017933082
-2.5287623	<eos> we	-0.017933082
-2.5174205	s we	-0.017933082
-1.8255823	mind we	-0.017933082
-0.9786437	doubt we	-0.017933082
-1.6446443	tunisia we	-0.017933082
-1.7159599	tonight we	-0.017933082
-0.9786437	jewelleri we	-0.017933082
-1.6446443	pleas we	-0.017933082
-0.48275107	shall we	-0.15568039
-0.9786437	stress we	-0.017933082
-0.6067299	we re	-0.017933082
-1.457247	told re	-0.017933082
-1.752395	they re	-0.017933082
-0.6873713	you re	-0.017933082
-2.0839777	re told	-0.017933082
-0.98594034	race told	-0.017933082
-0.98594034	hand told	-0.017933082
-3.335113	<eos> expert	-0.017933082
-2.0839777	re expert	-0.017933082
-1.4603698	told expert	-0.017933082
-3.098226	<eos> they	-0.017933082
-1.7333635	t they	-0.017933082
-1.2814507	statist they	-0.017933082
-1.4541465	africa they	-0.017933082
-1.2814507	offend they	-0.017933082
-2.0709994	re probabl	-0.017933082
-1.752395	they probabl	-0.017933082
-1.7512265	march probabl	-0.017933082
-1.2835315	concert probabl	-0.017933082
-1.5839689	probabl foreign	-0.017933082
-1.2856224	pop foreign	-0.017933082
-0.48448625	kind foreign	-0.017933082
-2.603036	men don	-0.017933082
-2.609656	<eos> don	-0.15568039
-2.2797322	see don	-0.017933082
-1.567617	probabl don	-0.017933082
-2.348125	women don	-0.017933082
-1.2773188	ago don	-0.017933082
-0.98175585	consid don	-0.017933082
-0.08766749	don t	-0.017933082
-0.10416742	can t	-0.10475404
-0.10416742	isn t	-0.07695354
-0.48176265	wasn t	-0.017933082
-0.97452855	hasn t	-0.017933082
-0.24147801	doesn t	-0.017933082
-0.97452855	nowdon t	-0.017933082
-0.48176265	aren t	-0.017933082
-0.24147801	didn t	-0.017933082
-0.97452855	weren t	-0.017933082
-0.24147801	couldn t	-0.017933082
-0.48176265	wouldn t	-0.017933082
-0.97452855	haven t	-0.017933082
-0.97452855	ain t	-0.017933082
-2.5290744	t count	-0.017933082
-1.2867657	lost count	-0.017933082
-1.2874883	count norman	-0.017933082
-1.655246	use digit	-0.017933082
-1.9735333	men digit	-0.017933082
-1.7736816	<eos> digit	-0.06791826
-1.9050691	s digit	-0.15568039
-1.7346674	man digit	-0.017933082
-0.9877822	britain digit	-0.017933082
-0.9400932	norman digit	-0.017933082
-0.742202	digit digit	-0.108650476
-0.9400932	danish digit	-0.017933082
-1.3358794	french digit	-0.017933082
-0.9400932	attempt digit	-0.017933082
-1.7634395	would digit	-0.017933082
-0.9400932	journalstep digit	-0.017933082
-0.47320846	step digit	-0.017933082
-1.3358794	news digit	-0.017933082
-1.6736219	up digit	-0.017933082
-1.1985544	decemb digit	-0.017933082
-1.1985544	novemb digit	-0.017933082
-1.1985544	octob digit	-0.017933082
-1.1985544	septemb digit	-0.017933082
-1.1985544	august digit	-0.017933082
-1.1985544	juli digit	-0.017933082
-1.1985544	june digit	-0.017933082
-1.4892495	may digit	-0.017933082
-0.9400932	blessahapril digit	-0.017933082
-1.5378562	march digit	-0.017933082
-1.1985544	februari digit	-0.017933082
-1.1985544	januari digit	-0.017933082
-0.9400932	wild digit	-0.017933082
-1.7810515	rape digit	-0.017933082
-0.75923663	those digit	-0.15568039
-1.7221951	what digit	-0.017933082
-1.7221951	take digit	-0.017933082
-1.3358794	moment digit	-0.017933082
-1.0760365	back digit	-0.017933082
-1.4892495	almost digit	-0.017933082
-1.1985544	rage digit	-0.017933082
-1.1985544	place digit	-0.017933082
-1.3358794	less digit	-0.017933082
-0.9400932	ashl digit	-0.017933082
-0.9400932	film digit	-0.017933082
-1.1985544	reveal digit	-0.017933082
-1.4252305	studi digit	-0.017933082
-1.3358794	period digit	-0.017933082
-0.9400932	dpp digit	-0.017933082
-0.9400932	timespan digit	-0.017933082
-0.64173406	roughli digit	-0.017933082
-0.9400932	drop digit	-0.017933082
-0.9400932	pack digit	-0.017933082
-2.79927	digit danish	-0.017933082
-2.756453	digit french	-0.017933082
-1.2856224	dress french	-0.017933082
-0.98594034	none french	-0.017933082
-2.79927	digit perkin	-0.017933082
-0.98687524	perkin warbeck	-0.017933082
-2.7862494	<eos> three	-0.017933082
-2.0648074	s three	-0.017933082
-1.6446443	run three	-0.017933082
-2.073558	well three	-0.017933082
-2.0769045	two three	-0.017933082
-0.9786437	shot three	-0.017933082
-1.7159599	whole three	-0.15568039
-1.9113536	night three	-0.017933082
-1.5557449	violenc three	-0.017933082
-0.9786437	forwardnight three	-0.017933082
-2.0255938	three attempt	-0.017933082
-3.098226	<eos> god	-0.017933082
-2.0283704	oh god	-0.017933082
-2.6731815	digit god	-0.017933082
-1.2814507	septemb god	-0.017933082
-1.2814507	four god	-0.017933082
-2.540348	men know	-0.017933082
-2.5533414	s know	-0.017933082
-1.660675	god know	-0.017933082
-1.7816999	asher know	-0.017933082
-1.9302864	ever know	-0.017933082
-1.880715	need know	-0.017933082
-1.441961	becaus know	-0.017933082
-0.97967863	club know	-0.017933082
-0.97967863	truei know	-0.017933082
-3.0153651	<eos> mani	-0.017933082
-2.2978287	see mani	-0.017933082
-1.9047409	know mani	-0.017933082
-1.5716476	live mani	-0.017933082
-1.2793798	imagin mani	-0.017933082
-0.98279816	societi mani	-0.017933082
-1.762946	mani cross	-0.017933082
-0.98687524	cross invas	-0.017933082
-0.98651344	invas england	-0.017933082
-1.5862443	violenc england	-0.017933082
-0.484707	england wale	-0.017933082
-1.2874883	wale ireland	-0.017933082
-0.98687524	ireland scotland	-0.017933082
-0.98594034	scotland countri	-0.017933082
-2.0846295	attack countri	-0.017933082
-0.98594034	wankchamb countri	-0.017933082
-1.4603698	countri europ	-0.017933082
-2.1448274	get europ	-0.017933082
-1.4603698	africa europ	-0.017933082
-2.8332095	<eos> point	-0.017933082
-1.441961	europ point	-0.017933082
-1.441961	wonder point	-0.017933082
-2.109528	go point	-0.017933082
-1.7216424	tumblr point	-0.017933082
-0.97967863	extra point	-0.017933082
-0.97967863	user point	-0.017933082
-1.2732258	roof point	-0.017933082
-0.97967863	parodi point	-0.017933082
-1.9345727	point last	-0.017933082
-0.98651344	likebut last	-0.017933082
-1.2874883	last ten	-0.017933082
-1.2874883	centuri yeah	-0.017933082
-0.98687524	yeah your	-0.017933082
-1.8738985	<eos> would	-0.017933082
-1.9964527	realli would	-0.017933082
-1.427195	dad would	-0.017933082
-1.427195	told would	-0.017933082
-2.0903275	thi would	-0.017933082
-1.9731759	way would	-0.017933082
-0.97452855	shop would	-0.017933082
-1.6258928	exampl would	-0.017933082
-1.540404	thought would	-0.017933082
-2.11851	peopl would	-0.017933082
-1.9818766	flag would	-0.017933082
-1.427195	him would	-0.017933082
-0.97452855	flaw would	-0.017933082
-1.263159	level would	-0.017933082
-2.2581854	would weep	-0.017933082
-0.98687524	weep bitter	-0.017933082
-0.98651344	bitter tear	-0.017933082
-1.9795635	got tear	-0.017933082
-1.2874883	tear disappoint	-0.017933082
-2.3167124	see could	-0.017933082
-0.983843	disappoint could	-0.017933082
-0.983843	advertis could	-0.017933082
-0.983843	coward could	-0.017933082
-1.2814507	imagin could	-0.017933082
-1.4510679	parson can	-0.017933082
-2.638136	men can	-0.017933082
-3.0153651	<eos> can	-0.017933082
-2.2868574	you can	-0.017933082
-1.4510679	sorri can	-0.017933082
-0.98279816	nah can	-0.017933082
-2.7709136	<eos> boom	-0.15568039
-0.98651344	iiiiiiit boom	-0.017933082
-3.5040271	<eos> journalstep	-0.017933082
-2.0174143	man groom	-0.017933082
-1.2856224	abus groom	-0.017933082
-1.8230126	articl groom	-0.017933082
-0.24252209	groom child	-0.017933082
-1.2867657	abus child	-0.017933082
-1.7573931	sure sexual	-0.017933082
-1.5839689	child sexual	-0.017933082
-0.98594034	basi sexual	-0.017933082
-0.6607326	sexual abus	-0.017933082
-1.5839689	child found	-0.017933082
-0.98594034	johnson found	-0.017933082
-1.7573931	alleg found	-0.017933082
-0.6605903	found guilti	-0.017933082
-0.98651344	proven guilti	-0.017933082
-0.6605903	guilti court	-0.017933082
-1.2867657	govern court	-0.017933082
-2.7709136	<eos> step	-0.15568039
-1.2867657	to step	-0.017933082
-3.098226	<eos> human	-0.017933082
-2.6731815	digit human	-0.017933082
-1.2814507	feminist human	-0.017933082
-0.983843	bar human	-0.017933082
-1.4541465	also human	-0.017933082
-1.6848323	human shape	-0.017933082
-2.051173	oh dark	-0.017933082
-0.98594034	shape dark	-0.017933082
-1.2856224	remind dark	-0.017933082
-1.4633715	dark hole	-0.017933082
-0.98687524	hole fabric	-0.017933082
-0.98687524	fabric univers	-0.017933082
-2.8332095	<eos> write	-0.017933082
-0.97967863	univers write	-0.017933082
-2.0208397	way write	-0.017933082
-2.047109	day write	-0.017933082
-2.0861995	well write	-0.017933082
-1.7816999	m write	-0.017933082
-0.97967863	wordhol write	-0.017933082
-1.441961	or write	-0.017933082
-0.97967863	seen write	-0.017933082
-1.9386511	write rent	-0.017933082
-2.945809	<eos> a	-0.017933082
-0.98175585	rent a	-0.017933082
-1.7332352	call a	-0.017933082
-0.98175585	disgrac a	-0.017933082
-1.2773188	answer a	-0.017933082
-1.659259	except a	-0.017933082
-0.54230684	posit a	-0.10475404
-1.8870554	a gob	-0.017933082
-2.945809	<eos> articl	-0.017933082
-1.7332352	everi articl	-0.017933082
-0.98175585	gob articl	-0.017933082
-1.2773188	better articl	-0.017933082
-1.2773188	entir articl	-0.017933082
-0.98175585	illustr articl	-0.017933082
-0.98175585	analys articl	-0.017933082
-1.9345727	point wa	-0.017933082
-1.5862443	child wa	-0.017933082
-1.2856224	wa fact	-0.017933082
-1.8803431	is fact	-0.017933082
-1.2856224	state fact	-0.017933082
-2.8697226	s fault	-0.017933082
-1.9301742	know fault	-0.017933082
-1.4603698	fact fault	-0.017933082
-3.335113	<eos> knew	-0.017933082
-1.4603698	fault knew	-0.017933082
-2.051173	mail knew	-0.017933082
-1.4620806	knew do	-0.017933082
-2.0575976	mail do	-0.017933082
-3.0153651	<eos> good	-0.017933082
-2.6833372	s good	-0.017933082
-2.0174026	oh good	-0.017933082
-2.0806055	day good	-0.017933082
-0.98279816	primark good	-0.017933082
-0.98279816	american good	-0.017933082
-1.8577591	think someon	-0.017933082
-2.6833372	s someon	-0.017933082
-1.7391499	good someon	-0.017933082
-1.5738242	discrimin someon	-0.017933082
-1.5716476	game someon	-0.017933082
-1.2793798	pooh someon	-0.017933082
-1.7512265	someon twitter	-0.017933082
-2.0029657	letter twitter	-0.017933082
-0.98489046	gellatli twitter	-0.017933082
-0.98489046	sleep twitter	-0.017933082
-1.5862443	twitter agre	-0.017933082
-1.4620806	complet agre	-0.017933082
-2.945809	<eos> want	-0.017933082
-2.6355498	s want	-0.017933082
-2.3946736	t want	-0.017933082
-1.8479477	a want	-0.017933082
-1.2773188	agre want	-0.017933082
-1.567617	gay want	-0.017933082
-1.448011	threat want	-0.017933082
-1.8294779	want explain	-0.017933082
-1.6823808	column basic	-0.017933082
-0.98651344	explain basic	-0.017933082
-2.7052703	<eos> come	-0.017933082
-2.2013834	one come	-0.017933082
-0.87514144	could come	-0.017933082
-1.2671578	basic come	-0.017933082
-2.0532596	say come	-0.017933082
-1.7048132	victim come	-0.017933082
-1.6351674	sort come	-0.017933082
-2.1466312	peopl come	-0.017933082
-0.9765813	easier come	-0.017933082
-1.9526495	mean come	-0.017933082
-1.2671578	googl come	-0.017933082
-0.9765813	wallet come	-0.017933082
-1.9892968	<eos> women	-0.017933082
-1.909086	no women	-0.017933082
-2.0508657	see women	-0.017933082
-1.9707322	like women	-0.017933082
-1.8874124	world women	-0.017933082
-2.2487013	digit women	-0.017933082
-0.45962656	god women	-0.017933082
-1.3990886	fault women	-0.017933082
-1.8984636	come women	-0.017933082
-1.6123039	whore women	-0.017933082
-0.96440816	mainli women	-0.017933082
-1.0600092	stori women	-0.017933082
-1.2436996	experienc women	-0.017933082
-1.5042672	thought women	-0.017933082
-1.2436996	alright women	-0.017933082
-1.9205709	fuck women	-0.017933082
-1.5042672	angri women	-0.017933082
-1.9615986	respect women	-0.017933082
-1.3990886	threaten women	-0.017933082
-0.96440816	occup women	-0.017933082
-1.2436996	support women	-0.017933082
-1.2436996	onli women	-0.017933082
-1.5822772	talk women	-0.017933082
-0.96440816	duuuuunnnnnn women	-0.017933082
-3.098226	<eos> whore	-0.017933082
-2.3885632	women whore	-0.017933082
-1.8088005	still whore	-0.017933082
-1.2814507	non whore	-0.017933082
-1.2814507	concern whore	-0.017933082
-2.0841994	<eos> say	-0.017933082
-2.2831347	t say	-0.017933082
-1.9232863	might say	-0.017933082
-1.4330413	ll say	-0.017933082
-2.1486375	right say	-0.017933082
-2.049328	well say	-0.017933082
-1.7048132	power say	-0.017933082
-1.7624296	m say	-0.017933082
-1.4330413	polic say	-0.017933082
-1.2671578	if say	-0.017933082
-0.9765813	shoot say	-0.017933082
-1.4330413	girl say	-0.017933082
-2.1851954	say hi	-0.017933082
-2.1613824	<eos> asher	-0.017933082
-2.4102879	women asher	-0.017933082
-0.98489046	hi asher	-0.017933082
-1.6743827	everyon asher	-0.017933082
-2.2531974	look everyon	-0.017933082
-1.8088005	asher everyon	-0.017933082
-1.6692828	everyon everyon	-0.017933082
-2.127088	respect everyon	-0.017933082
-1.2814507	exist everyon	-0.017933082
-2.5705621	men is	-0.017933082
-1.5636235	child is	-0.017933082
-1.7883182	asher is	-0.017933082
-1.6543325	head is	-0.017933082
-2.385244	that is	-0.017933082
-1.2752675	mad is	-0.017933082
-1.2752675	entri is	-0.017933082
-0.980716	imag is	-0.017933082
-2.357137	see complet	-0.017933082
-1.6795434	may complet	-0.017933082
-1.7573931	march complet	-0.017933082
-1.4631631	complet utter	-0.017933082
-0.98687524	utter catch	-0.017933082
-2.914195	s motiv	-0.017933082
-1.8269658	asher motiv	-0.017933082
-2.554089	<eos> might	-0.017933082
-1.5848272	one might	-0.017933082
-2.3111336	women might	-0.017933082
-1.2732258	motiv might	-0.017933082
-1.9649947	what might	-0.017933082
-2.0373423	flag might	-0.017933082
-1.5596664	leo might	-0.017933082
-1.5596664	uk might	-0.017933082
-0.97967863	secur might	-0.017933082
-2.6833372	s call	-0.017933082
-2.1877182	would call	-0.017933082
-1.981634	might call	-0.017933082
-1.4510679	sorri call	-0.017933082
-1.2793798	name call	-0.017933082
-1.5716476	book call	-0.017933082
-2.914195	s strong	-0.017933082
-1.8841883	a strong	-0.017933082
-2.0912147	re sens	-0.017933082
-1.2867657	strong sens	-0.017933082
-1.2867657	sens moral	-0.017933082
-0.98651344	hypocrit moral	-0.017933082
-3.4307187	<eos> hit	-0.017933082
-0.98651344	offic hit	-0.017933082
-1.2814507	hit head	-0.017933082
-1.4541465	put head	-0.017933082
-1.575716	folk head	-0.017933082
-0.983843	elect head	-0.017933082
-0.983843	stuck head	-0.017933082
-3.5040271	<eos> west	-0.017933082
-3.5040271	<eos> mainli	-0.017933082
-1.8294779	asher believ	-0.017933082
-0.98687524	believ adam	-0.017933082
-0.98687524	adam johnson	-0.017933082
-1.4633715	guilti pretti	-0.017933082
-2.6403553	<eos> still	-0.017933082
-1.4510679	fact still	-0.017933082
-2.0481484	attack still	-0.017933082
-1.2793798	exist still	-0.017933082
-0.98279816	competit still	-0.017933082
-1.2793798	propaganda still	-0.017933082
-2.8858702	<eos> got	-0.017933082
-2.05799	realli got	-0.017933082
-2.5925033	s got	-0.017933082
-1.5636235	must got	-0.017933082
-0.6660081	ve got	-0.017933082
-1.7883182	littlejohn got	-0.017933082
-1.8856504	even got	-0.017933082
-1.6543325	tunisia got	-0.017933082
-1.9795635	got statist	-0.017933082
-0.98651344	mislead statist	-0.017933082
-3.335113	<eos> news	-0.017933082
-1.7573931	good news	-0.017933082
-1.2856224	accord news	-0.017933082
-2.7822049	digit non	-0.017933082
-2.2089174	thi non	-0.017933082
-2.1121926	men it	-0.017933082
-1.3903726	<eos> it	-0.87227416
-1.8368233	no it	-0.017933082
-1.9571109	see it	-0.017933082
-2.0542474	s it	-0.10475404
-1.9360758	one it	-0.017933082
-1.982845	t it	-0.14527544
-2.0056493	women it	-0.017933082
-1.372691	news it	-0.017933082
-1.7773463	wait it	-0.017933082
-2.2259226	that it	-0.017933082
-1.7586478	turn it	-0.017933082
-1.372691	crime it	-0.017933082
-1.5426449	money it	-0.017933082
-1.372691	okay it	-0.017933082
-1.7883145	on it	-0.017933082
-1.2250746	fire it	-0.017933082
-1.2250746	deserv it	-0.017933082
-0.95451826	forth it	-0.017933082
-1.4840788	nation it	-0.017933082
-1.372691	speak it	-0.017933082
-1.2250746	somehow it	-0.017933082
-1.7785301	mean it	-0.017933082
-1.372691	polic it	-0.017933082
-1.2250746	mad it	-0.017933082
-0.95451826	toy it	-0.017933082
-1.4840788	again it	-0.017933082
-0.95451826	anyth it	-0.017933082
-1.2250746	manag it	-0.017933082
-1.4709077	understand it	-0.017933082
-0.95451826	comfort it	-0.017933082
-1.2250746	machin it	-0.017933082
-0.95451826	nail it	-0.017933082
-0.95451826	sometim it	-0.017933082
-2.7983341	s bad	-0.017933082
-2.478585	t bad	-0.017933082
-1.7512265	march bad	-0.017933082
-2.0721257	attack bad	-0.017933082
-3.5040271	<eos> scienc	-0.017933082
-3.2007146	<eos> note	-0.017933082
-2.1555965	and note	-0.017933082
-2.007689	take note	-0.017933082
-1.457247	tip note	-0.017933082
-1.5876858	note past	-0.017933082
-0.98687524	past tens	-0.017933082
-0.98687524	tens second	-0.017933082
-0.98687524	second tweet	-0.017933082
-3.335113	<eos> wonder	-0.017933082
-2.0839777	re wonder	-0.017933082
-0.98594034	ego wonder	-0.017933082
-3.335113	<eos> whi	-0.017933082
-1.7573931	someon whi	-0.017933082
-1.4603698	wonder whi	-0.017933082
-3.4307187	<eos> concern	-0.017933082
-1.2867657	motiv concern	-0.017933082
-1.7580591	happen lie	-0.017933082
-1.6816403	whore lie	-0.017933082
-1.6795434	may lie	-0.017933082
-2.2727404	<eos> wait	-0.017933082
-1.441961	lie wait	-0.017933082
-0.97967863	siren wait	-0.017933082
-2.0861995	well wait	-0.017933082
-1.441961	obvious wait	-0.017933082
-1.5596664	later wait	-0.017933082
-0.97967863	ohforfuckingfuckityfuckssaaaaaaak wait	-0.017933082
-1.660675	kelvin wait	-0.017933082
-1.441961	mackenzi wait	-0.017933082
-2.020957	wait young	-0.017933082
-0.98651344	prejudic young	-0.017933082
-2.2585962	like siren	-0.017933082
-2.024531	wait sailor	-0.017933082
-0.98687524	sailor whorier	-0.017933082
-3.0153651	<eos> isn	-0.017933082
-1.8018652	asher isn	-0.017933082
-1.2793798	object isn	-0.017933082
-1.4510679	okay isn	-0.017933082
-1.2793798	open isn	-0.017933082
-0.98279816	daughter isn	-0.017933082
-2.5105913	t marri	-0.017933082
-1.8230126	want marri	-0.017933082
-2.1448274	get marri	-0.017933082
-1.4620806	marri ladi	-0.017933082
-1.2867657	strike ladi	-0.017933082
-3.335113	<eos> tri	-0.017933082
-0.98594034	terrifi tri	-0.017933082
-1.8230126	littlejohn tri	-0.017933082
-1.4631631	tri contain	-0.017933082
-0.98687524	contain surpris	-0.017933082
-0.98651344	surpris form	-0.017933082
-0.98651344	noncey form	-0.017933082
-1.2874883	form orderli	-0.017933082
-0.98687524	orderli queue	-0.017933082
-3.5040271	<eos> aaaaaaaand	-0.017933082
-1.6431543	<eos> that	-0.46195486
-2.1464443	s that	-0.15568039
-1.9428039	like that	-0.017933082
-1.8345071	oh that	-0.017933082
-1.3909994	countri that	-0.017933082
-1.3909994	fact that	-0.017933082
-1.3909994	knew that	-0.017933082
-1.2380277	agre that	-0.017933082
-1.9079345	say that	-0.017933082
-0.96141744	aaaaaaaand that	-0.017933082
-1.9010412	and that	-0.017933082
-1.1037787	ye that	-0.15568039
-1.6771361	thing that	-0.017933082
-1.3909994	cours that	-0.017933082
-0.96141744	feminazi that	-0.017933082
-1.2380277	miss that	-0.017933082
-1.2380277	christian that	-0.017933082
-1.5700033	except that	-0.017933082
-1.4939876	live that	-0.017933082
-0.96141744	souss that	-0.017933082
-1.8654611	here that	-0.017933082
-1.6292493	enough that	-0.017933082
-1.2380277	alon that	-0.017933082
-1.3909994	year that	-0.017933082
-0.96141744	heartach that	-0.017933082
-0.96141744	too that	-0.017933082
-0.96141744	err that	-0.017933082
-2.440061	<eos> go	-0.017933082
-2.0187073	s go	-0.10475404
-2.169348	one go	-0.017933082
-2.2454693	t go	-0.017933082
-2.4215064	digit go	-0.15568039
-2.0710604	would go	-0.017933082
-1.9731759	way go	-0.017933082
-1.8434086	ye go	-0.017933082
-0.77876693	keep go	-0.017933082
-1.540404	gay go	-0.017933082
-1.9818766	flag go	-0.017933082
-1.427195	light go	-0.017933082
-0.97452855	becom go	-0.017933082
-1.6258928	pleas go	-0.017933082
-1.4131755	go to	-0.017933082
-1.7274002	sun stand	-0.017933082
-2.5722196	digit stand	-0.017933082
-1.7274002	call stand	-0.017933082
-2.2606282	you stand	-0.017933082
-1.9962652	mail stand	-0.017933082
-1.4449755	becaus stand	-0.017933082
-0.782205	serialis stand	-0.14527544
-1.4449755	everywher stand	-0.017933082
-2.2074502	look up	-0.017933082
-1.861968	stand up	-0.017933082
-0.980716	shut up	-0.017933082
-1.2752675	sum up	-0.017933082
-1.0226685	first up	-0.017933082
-0.980716	grown up	-0.017933082
-0.980716	blown up	-0.017933082
-0.48324612	stitch up	-0.15568039
-2.485578	men turn	-0.017933082
-2.743875	<eos> turn	-0.017933082
-2.2140586	see turn	-0.017933082
-1.9404085	wait turn	-0.017933082
-1.874271	up turn	-0.017933082
-1.7687584	so turn	-0.017933082
-0.97761124	flash turn	-0.017933082
-1.5518585	folk turn	-0.017933082
-0.97761124	music turn	-0.017933082
-1.7103508	alleg turn	-0.017933082
-1.2691711	servic turn	-0.017933082
-2.0140378	turn face	-0.017933082
-1.2856224	expect face	-0.017933082
-0.98594034	slap face	-0.017933082
-1.4631631	face sturdi	-0.017933082
-0.98687524	sturdi brick	-0.017933082
-0.98687524	brick wall	-0.017933082
-2.384801	one put	-0.017933082
-0.98594034	wall put	-0.017933082
-1.9295143	even put	-0.017933082
-1.6692828	head run	-0.017933082
-1.8088005	so run	-0.017933082
-1.2814507	newspap run	-0.017933082
-0.983843	reason run	-0.017933082
-1.575716	number run	-0.017933082
-1.2953836	come forward	-0.017933082
-1.6795434	run forward	-0.017933082
-1.2952775	way forward	-0.017933082
-2.1282613	realli fastdigit	-0.017933082
-3.2007146	<eos> give	-0.017933082
-2.478585	t give	-0.017933082
-0.98489046	fastdigit give	-0.017933082
-1.92038	even give	-0.017933082
-1.6642419	ask us	-0.017933082
-1.5716476	give us	-0.017933082
-1.2793798	forc us	-0.017933082
-2.104343	get us	-0.017933082
-1.4510679	allow us	-0.017933082
-0.98279816	taught us	-0.017933082
-1.9295143	point term	-0.017933082
-1.7573931	us term	-0.017933082
-2.2495286	right term	-0.017933082
-1.4631631	term sheer	-0.017933082
-0.9755537	sheer pointless	-0.017933082
-1.2651538	post pointless	-0.017933082
-1.9142807	letter pointless	-0.017933082
-1.6993454	tumblr pointless	-0.017933082
-1.2651538	spot pointless	-0.017933082
-2.0419033	two pointless	-0.017933082
-0.9755537	keysunday pointless	-0.017933082
-0.9755537	governtoday pointless	-0.017933082
-1.4301083	patricia pointless	-0.017933082
-1.1663593	night pointless	-0.15568039
-1.6993454	event pointless	-0.017933082
-1.6993454	tonight pointless	-0.017933082
-1.2651538	four pointless	-0.017933082
-2.0029657	turn out	-0.017933082
-2.130909	get out	-0.017933082
-0.98489046	pass out	-0.017933082
-0.98489046	wimp out	-0.017933082
-1.5862443	out quit	-0.017933082
-0.98651344	edit quit	-0.017933082
-1.8726839	think lot	-0.017933082
-2.3601546	one lot	-0.017933082
-1.2835315	quit lot	-0.017933082
-1.8763267	thank lot	-0.017933082
-3.4307187	<eos> top	-0.017933082
-2.0923605	way top	-0.017933082
-1.9345727	point post	-0.017933082
-1.2867657	top post	-0.017933082
-2.7370405	s letter	-0.017933082
-1.7451463	everi letter	-0.017933082
-2.3368325	one letter	-0.017933082
-0.1263273	pointless letter	-0.1205276
-1.4541465	took letter	-0.017933082
-2.024117	letter were	-0.017933082
-2.7822049	digit decemb	-0.017933082
-0.98651344	were decemb	-0.017933082
-1.2874883	decemb holocaust	-0.017933082
-0.98687524	holocaust deni	-0.017933082
-0.98687524	deni minion	-0.017933082
-3.5040271	<eos> banana	-0.017933082
-2.7822049	digit novemb	-0.017933082
-0.98651344	banana novemb	-0.017933082
-1.2867657	novemb be	-0.017933082
-0.98651344	implic be	-0.017933082
-1.2874883	be white	-0.017933082
-0.98594034	white straight	-0.017933082
-1.8796811	life straight	-0.017933082
-1.584639	poor straight	-0.017933082
-1.4610419	straight crime	-0.017933082
-1.584639	war crime	-0.017933082
-1.2856224	hate crime	-0.017933082
-1.4541465	crime now	-0.017933082
-1.4541465	home now	-0.017933082
-1.9130543	back now	-0.017933082
-1.6692828	done now	-0.017933082
-0.983843	into now	-0.017933082
-2.7822049	digit octob	-0.017933082
-1.6827679	now octob	-0.017933082
-1.2874883	octob coffe	-0.017933082
-0.98687524	coffe fad	-0.017933082
-2.7822049	digit septemb	-0.017933082
-0.98651344	fad septemb	-0.017933082
-2.7822049	digit august	-0.017933082
-2.4461417	women august	-0.017933082
-1.2874883	august communist	-0.017933082
-2.7822049	digit juli	-0.017933082
-0.98651344	communist juli	-0.017933082
-1.2874883	juli revers	-0.017933082
-2.5287623	<eos> sexism	-0.017933082
-1.8810351	up sexism	-0.017933082
-0.9786437	revers sexism	-0.017933082
-1.7364584	real sexism	-0.017933082
-1.7159599	victim sexism	-0.017933082
-1.4389675	cultur sexism	-0.017933082
-1.7159599	subject sexism	-0.017933082
-1.9725718	mean sexism	-0.017933082
-1.4389675	struggl sexism	-0.017933082
-0.48275107	stiletto sexism	-0.017933082
-2.7920387	men june	-0.017933082
-2.7822049	digit june	-0.017933082
-3.2007146	<eos> proud	-0.017933082
-2.0029657	letter proud	-0.017933082
-1.2835315	june proud	-0.017933082
-0.98489046	narr proud	-0.017933082
-1.762946	proud swizzl	-0.017933082
-0.98687524	swizzl kid	-0.017933082
-0.98687524	kid pocket	-0.017933082
-0.983843	pocket money	-0.017933082
-1.9988078	take money	-0.017933082
-1.4541465	home money	-0.017933082
-1.4541465	whose money	-0.017933082
-0.983843	space money	-0.017933082
-2.7091477	<eos> may	-0.017933082
-2.7128246	digit may	-0.017933082
-2.0860143	richard may	-0.017933082
-1.2835315	injuri may	-0.017933082
-1.6841801	may gawd	-0.017933082
-0.98687524	gawd blessahapril	-0.017933082
-2.79927	digit april	-0.017933082
-0.98687524	april dildo	-0.017933082
-0.98687524	dildo dildon	-0.017933082
-0.98687524	dildon ts	-0.017933082
-2.075449	<eos> and	-0.017933082
-2.0061224	realli and	-0.017933082
-1.4301083	expert and	-0.017933082
-1.7044911	they and	-0.017933082
-2.2638938	t and	-0.017933082
-1.8043125	a and	-0.017933082
-2.2454422	women and	-0.017933082
-2.0419033	two and	-0.017933082
-0.9755537	peic and	-0.017933082
-2.049613	respect and	-0.017933082
-1.5441887	classi and	-0.017933082
-1.2651538	togeth and	-0.017933082
-1.7561916	prosecut and	-0.017933082
-3.4307187	<eos> wasn	-0.017933082
-1.3859993	and wasn	-0.15568039
-2.6833372	s headlin	-0.017933082
-2.4208832	t headlin	-0.017933082
-2.1877182	would headlin	-0.017933082
-2.0806055	day headlin	-0.017933082
-1.6642419	exampl headlin	-0.017933082
-1.9047409	the headlin	-0.017933082
-2.7983341	s fun	-0.017933082
-1.7512265	headlin fun	-0.017933082
-2.2818692	peopl fun	-0.017933082
-1.6743827	make fun	-0.017933082
-1.5716476	fun tumblr	-0.017933082
-0.98279816	best tumblr	-0.017933082
-2.243912	peopl tumblr	-0.017933082
-0.98279816	miniar tumblr	-0.017933082
-0.98279816	tinyglowingshark tumblr	-0.017933082
-0.98279816	newportdol tumblr	-0.017933082
-1.762946	tumblr updat	-0.017933082
-1.8269658	want pop	-0.017933082
-0.98651344	updat pop	-0.017933082
-1.2867657	pop phone	-0.017933082
-0.98651344	mobil phone	-0.017933082
-1.9348667	got work	-0.017933082
-1.2773188	phone work	-0.017933082
-1.659259	abl work	-0.017933082
-1.2773188	whatev work	-0.017933082
-1.894076	even work	-0.017933082
-0.98175585	access work	-0.017933082
-1.567617	lawyer work	-0.017933082
-2.756453	digit march	-0.017933082
-1.8230126	work march	-0.017933082
-0.16804734	pride march	-0.017933082
-1.5862443	probabl better	-0.017933082
-1.5862443	understand better	-0.017933082
-3.2007146	<eos> plan	-0.017933082
-1.2835315	better plan	-0.017933082
-0.98489046	pre plan	-0.017933082
-0.98489046	black plan	-0.017933082
-1.5862443	plan big	-0.017933082
-0.98651344	great big	-0.017933082
-1.2874883	big stone	-0.017933082
-0.98687524	stone slab	-0.017933082
-3.4307187	<eos> anyway	-0.017933082
-0.98651344	slab anyway	-0.017933082
-3.4307187	<eos> februari	-0.017933082
-2.7822049	digit februari	-0.017933082
-1.2874883	februari ban	-0.017933082
-0.98651344	ban sick	-0.017933082
-0.98651344	altitud sick	-0.017933082
-1.2874883	sick filth	-0.017933082
-3.4307187	<eos> januari	-0.017933082
-2.7822049	digit januari	-0.017933082
-1.2874883	januari tupperwar	-0.017933082
-2.0998056	pointless star	-0.017933082
-3.4307187	<eos> sent	-0.017933082
-1.8853959	ve sent	-0.017933082
-1.659259	issu in	-0.017933082
-2.945809	<eos> in	-0.017933082
-2.22217	look in	-0.017933082
-2.2936392	one in	-0.017933082
-1.2773188	send in	-0.017933082
-1.659259	love in	-0.017933082
-2.0916455	get in	-0.017933082
-2.609656	<eos> thank	-0.017933082
-1.7332352	mani thank	-0.017933082
-2.114976	say thank	-0.017933082
-1.7332352	proud thank	-0.017933082
-1.8031343	in thank	-0.017933082
-1.2773188	yet thank	-0.017933082
-1.5702783	fine thank	-0.017933082
-2.3349147	men you	-0.017933082
-2.034161	<eos> you	-0.08136822
-2.1186817	see you	-0.017933082
-1.9838265	and you	-0.017933082
-1.7262787	work you	-0.017933082
-0.6624898	thank you	-0.10475404
-1.938486	way you	-0.017933082
-1.8157116	ye you	-0.017933082
-1.9838265	well you	-0.017933082
-1.9785295	fuck you	-0.017933082
-0.9704521	justic you	-0.017933082
-0.7764899	hope you	-0.017933082
-0.9704521	differ you	-0.017933082
-1.2552702	then you	-0.017933082
-0.9704521	riiiiiight you	-0.017933082
-1.4157332	ok you	-0.017933082
-0.9704521	marxist you	-0.017933082
-0.9704521	nh you	-0.017933082
-2.0020528	we ve	-0.017933082
-0.9589427	they ve	-0.017933082
-1.1241324	you ve	-0.017933082
-2.0020528	i ve	-0.017933082
-0.983843	humanityi ve	-0.017933082
-2.4079354	one hasn	-0.017933082
-2.5411506	t appear	-0.017933082
-3.4307187	<eos> yet	-0.017933082
-0.98651344	appear yet	-0.017933082
-3.335113	<eos> sorri	-0.017933082
-1.882424	thank sorri	-0.017933082
-0.98594034	genuin sorri	-0.017933082
-2.7859344	<eos> spot	-0.017933082
-2.024117	letter wild	-0.017933082
-2.7822049	digit send	-0.017933082
-1.2867657	b send	-0.017933082
-1.8211231	<eos> i	-0.35281038
-2.2295697	see i	-0.017933082
-2.460117	it i	-0.017933082
-2.073558	and i	-0.017933082
-1.9761088	mail i	-0.017933082
-2.1691196	right i	-0.017933082
-0.9786437	vest i	-0.017933082
-1.5557449	angri i	-0.017933082
-1.4431111	eh i	-0.017933082
-0.9786437	booooooom i	-0.017933082
-1.2241969	we ll	-0.017933082
-2.0225441	i ll	-0.017933082
-1.882129	use thi	-0.017933082
-2.436948	men thi	-0.017933082
-2.4605963	<eos> thi	-0.017933082
-2.424648	s thi	-0.017933082
-1.430101	like thi	-0.017933082
-1.1252427	write thi	-0.017933082
-0.9755537	publish thi	-0.017933082
-1.9142807	said thi	-0.017933082
-1.9430208	mean thi	-0.017933082
-0.9755537	share thi	-0.017933082
-1.5441887	bloodi thi	-0.017933082
-1.2651538	stay thi	-0.017933082
-1.2651538	stick thi	-0.017933082
-1.7607899	call gener	-0.017933082
-2.2089174	thi gener	-0.017933082
-2.7052703	<eos> way	-0.017933082
-1.2671578	yet way	-0.017933082
-1.2671578	gener way	-0.017933082
-0.9765813	battl way	-0.017933082
-1.6351674	find way	-0.017933082
-1.2671578	arrow way	-0.017933082
-0.9765813	either way	-0.017933082
-1.5480068	classi way	-0.017933082
-1.2671578	goe way	-0.017933082
-1.123764	the way	-0.017933082
-1.2671578	reveal way	-0.017933082
-1.2671578	detail way	-0.017933082
-2.0964618	way needi	-0.017933082
-0.98687524	needi ego	-0.017933082
-1.4631631	wonder best	-0.017933082
-1.762946	tumblr toolagain	-0.017933082
-2.5048318	<eos> daili	-0.15568039
-1.4800626	look daili	-0.15568039
-2.484245	s daili	-0.017933082
-1.8784889	write daili	-0.017933082
-1.077832	thank daili	-0.15568039
-0.97761124	toolagain daili	-0.017933082
-0.97761124	lett daili	-0.017933082
-1.4359943	patricia daili	-0.017933082
-1.8654058	the daili	-0.017933082
-0.97761124	reliabl daili	-0.017933082
-0.97761124	graphic daili	-0.017933082
-2.8697226	s mail	-0.017933082
-0.053882007	daili mail	-0.06801489
-1.5839689	colour mail	-0.017933082
-2.638136	men real	-0.017933082
-2.6368566	digit real	-0.017933082
-1.8708109	stand real	-0.017933082
-1.8577591	stori real	-0.017933082
-1.4510679	focu real	-0.017933082
-0.98279816	argu real	-0.017933082
-0.34403595	real victim	-0.017933082
-0.98594034	bodi victim	-0.017933082
-0.98594034	encourag victim	-0.017933082
-1.8715278	mind discrimin	-0.017933082
-2.478585	t discrimin	-0.017933082
-1.457247	allow discrimin	-0.017933082
-1.457247	law discrimin	-0.017933082
-2.4204533	<eos> rape	-0.017933082
-2.3722513	s rape	-0.017933082
-1.688612	mani rape	-0.017933082
-1.9294662	sexism rape	-0.017933082
-1.4822547	peopl rape	-0.017933082
-1.94916	actual rape	-0.017933082
-1.688612	polit rape	-0.017933082
-1.688612	case rape	-0.017933082
-1.536652	number rape	-0.017933082
-0.97350585	specif rape	-0.017933082
-1.688612	alleg rape	-0.017933082
-1.743978	prosecut rape	-0.017933082
-1.536652	violenc rape	-0.017933082
-1.2611734	involv rape	-0.017933082
-1.6213288	talk rape	-0.017933082
-1.43703	rape cultur	-0.017933082
-0.98651344	ingrain cultur	-0.017933082
-3.5040271	<eos> glass	-0.017933082
-0.98687524	glass ceil	-0.017933082
-1.2867657	hear horror	-0.017933082
-0.98651344	chamber horror	-0.017933082
-1.7274002	headlin stori	-0.017933082
-1.2752675	horror stori	-0.017933082
-1.4449755	action stori	-0.017933082
-1.2752675	rais stori	-0.017933082
-1.2752675	guardian stori	-0.017933082
-1.2752675	googl stori	-0.017933082
-1.2752675	thousand stori	-0.017933082
-1.4449755	leav stori	-0.017933082
-2.1407633	<eos> ye	-0.017933082
-2.0174026	oh ye	-0.017933082
-2.3678737	women ye	-0.017933082
-2.128446	say ye	-0.017933082
-2.0174026	sexism ye	-0.017933082
-1.4510679	law ye	-0.017933082
-1.6258928	import right	-0.017933082
-2.0187073	s right	-0.089784995
-1.9588225	world right	-0.017933082
-0.461779	human right	-0.017933082
-2.4294968	it right	-0.017933082
-1.263159	left right	-0.017933082
-1.427195	d right	-0.017933082
-0.97452855	brag right	-0.017933082
-1.5589482	salli right	-0.017933082
-0.97452855	discuss right	-0.017933082
-0.97452855	oooookay right	-0.017933082
-1.263159	though right	-0.017933082
-0.97452855	mr right	-0.017933082
-1.540404	cake right	-0.017933082
-3.4307187	<eos> entir	-0.017933082
-1.7607899	good entir	-0.017933082
-2.638136	men subject	-0.017933082
-2.6833372	s subject	-0.017933082
-2.243912	peopl subject	-0.017933082
-0.98279816	relat subject	-0.017933082
-1.4510679	gap subject	-0.017933082
-0.98279816	thorni subject	-0.017933082
-2.0616992	sexism through	-0.017933082
-0.98687524	through advert	-0.017933082
-0.98687524	advert tv	-0.017933082
-2.7481148	<eos> those	-0.017933082
-2.116903	realli those	-0.017933082
-2.1709132	and those	-0.017933082
-1.9795635	use feminist	-0.017933082
-1.5866321	those feminist	-0.017933082
-1.2874883	feminist wrath	-0.017933082
-3.5040271	<eos> local	-0.017933082
-2.945809	<eos> fedora	-0.017933082
-0.98175585	local fedora	-0.017933082
-1.5702783	hope fedora	-0.017933082
-0.98175585	text fedora	-0.017933082
-0.98175585	dinner fedora	-0.017933082
-1.448011	tip fedora	-0.017933082
-1.659259	pleas fedora	-0.017933082
-1.8296856	fedora shop	-0.017933082
-2.2581854	would advertis	-0.017933082
-1.6843882	could buy	-0.017933082
-2.4079354	one protest	-0.017933082
-3.098226	<eos> sort	-0.017933082
