\data\
ngram 1=524
ngram 2=927
ngram 3=993

\1-grams:
-0.28517413	<unk>
-inf	<s>	-0.033168368
-3.4748697	</s>
-3.4748697	oh	-0.033168368
-3.4748697	boyday	-0.033168368
-2.894529	sinc	-0.033168368
-1.9592544	post	-0.13151692
-1.2665334	<eos>	-0.112696655
-2.1759636	i	-0.4032951
-3.021237	m	-0.05315295
-2.3457146	go	-0.033168368
-2.2525976	make	-0.05024112
-2.628261	ask	-0.033168368
-3.4748697	googl	-0.033168368
-3.4748697	bodi	-0.033168368
-3.4748697	slam	-0.033168368
-3.021237	ll	-0.033168368
-2.2525976	show	-0.033168368
-3.4748697	result	-0.033168368
-3.4748697	minutokay	-0.033168368
-3.4748697	went	-0.033168368
-2.894529	panel	-0.07410172
-2.4644043	discuss	-0.033168368
-3.4748697	art	-0.033168368
-2.628261	racism	-0.033168368
-3.4748697	internet	-0.033168368
-3.4748697	invit	-0.033168368
-2.894529	tumblr	-0.033168368
-3.4748697	collab	-0.033168368
-3.4748697	pb	-0.033168368
-3.4748697	pov	-0.033168368
-2.894529	new	-0.033168368
-3.4748697	york	-0.033168368
-2.3457146	time	-0.033168368
-3.021237	short	-0.033168368
-3.4748697	film	-0.033168368
-3.4748697	roundtabl	-0.033168368
-2.894529	work	-0.07410172
-3.021237	ny	-0.096112415
-2.628261	use	-0.033168368
-3.4748697	platform	-0.033168368
-3.021237	launch	-0.033168368
-3.4748697	seriou	-0.033168368
-3.4748697	topic	-0.033168368
-3.4748697	confront	-0.033168368
-2.628261	take	-0.033168368
-3.4748697	documentari	-0.033168368
-3.4748697	approach	-0.033168368
-3.4748697	oppos	-0.033168368
-3.4748697	click	-0.033168368
-3.4748697	bait	-0.033168368
-3.4748697	rout	-0.033168368
-2.628261	so	-0.033168368
-2.894529	got	-0.033168368
-3.4748697	awkwardracequest	-0.033168368
-2.628261	part	-0.033168368
-2.3457146	get	-0.033168368
-2.2525976	question	-0.048069943
-3.021237	hope	-0.033168368
-3.021237	tackl	-0.033168368
-3.021237	idea	-0.033168368
-3.4748697	month	-0.033168368
-2.4644043	come	-0.033168368
-3.4748697	written	-0.033168368
-3.4748697	whi	-0.033168368
-2.05423	peopl	-0.05315295
-2.1759636	want	-0.033168368
-3.4748697	tone	-0.033168368
-3.4748697	polic	-0.033168368
-2.05423	black	-0.06983035
-3.021237	space	-0.033168368
-3.021237	thought	-0.033168368
-2.628261	good	-0.033168368
-3.4748697	but	-0.033168368
-3.4748697	q	-0.033168368
-3.4748697	a	-0.033168368
-2.894529	decid	-0.033168368
-2.894529	next	-0.033168368
-3.4748697	step	-0.033168368
-3.4748697	summar	-0.033168368
-2.894529	told	-0.033168368
-3.021237	experi	-0.033168368
-3.4748697	blogger	-0.033168368
-2.628261	way	-0.033168368
-2.894529	blog	-0.033168368
-3.021237	racial	-0.033168368
-3.4748697	alway	-0.033168368
-3.4748697	seem	-0.033168368
-3.4748697	devolv	-0.033168368
-2.894529	white	-0.033168368
-3.4748697	tell	-0.033168368
-3.021237	do	-0.033168368
-3.021237	howev	-0.033168368
-3.021237	stuff	-0.033168368
-3.021237	actual	-0.033168368
-3.4748697	convers	-0.033168368
-3.4748697	within	-0.033168368
-2.894529	problem	-0.033168368
-3.021237	is	-0.033168368
-2.894529	would	-0.033168368
-2.894529	person	-0.033168368
-3.4748697	treat	-0.033168368
-3.4748697	higher	-0.033168368
-3.4748697	valu	-0.033168368
-3.4748697	opinion	-0.033168368
-3.021237	to	-0.033168368
-3.4748697	paraphras	-0.033168368
-3.021237	basic	-0.033168368
-3.4748697	establish	-0.033168368
-3.4748697	brand	-0.033168368
-3.4748697	thu	-0.033168368
-3.021237	bring	-0.033168368
-3.4748697	voic	-0.033168368
-3.4748697	equal	-0.033168368
-3.4748697	sadli	-0.033168368
-3.4748697	littl	-0.033168368
-3.4748697	annoy	-0.033168368
-2.628261	answer	-0.063501045
-2.894529	mostli	-0.033168368
-3.021237	media	-0.033168368
-3.4748697	outlet	-0.033168368
-3.4748697	author	-0.033168368
-3.4748697	power	-0.033168368
-3.4748697	someon	-0.033168368
-2.4644043	like	-0.033168368
-2.894529	becom	-0.033168368
-3.4748697	expert	-0.033168368
-3.4748697	shouldn	-0.033168368
-2.1108453	t	-0.040555246
-3.4748697	for	-0.033168368
-1.8471044	it	-0.39180967
-2.1108453	s	-0.033168368
-3.4748697	worth	-0.033168368
-3.4748697	detail	-0.033168368
-3.4748697	feedback	-0.033168368
-3.4748697	sorta	-0.033168368
-3.021237	wasn	-0.096112415
-3.4748697	realli	-0.033168368
-3.4748697	satisfi	-0.033168368
-3.021237	say	-0.033168368
-3.021237	someth	-0.033168368
-3.4748697	wrong	-0.033168368
-3.4748697	seek	-0.033168368
-3.4748697	stronger	-0.033168368
-3.4748697	reput	-0.033168368
-3.021237	wouldn	-0.096112415
-3.021237	give	-0.033168368
-2.628261	day	-0.033168368
-3.4748697	overal	-0.033168368
-3.021237	present	-0.033168368
-3.4748697	save	-0.033168368
-3.021237	won	-0.07410172
-3.021237	last	-0.033168368
-3.021237	along	-0.033168368
-3.4748697	timetopic	-0.033168368
-3.4748697	coursdear	-0.033168368
-3.4748697	gossip	-0.033168368
-3.4748697	websit	-0.033168368
-3.021237	pleas	-0.033168368
-3.021237	leav	-0.033168368
-3.4748697	obama	-0.033168368
-3.4748697	alon	-0.033168368
-2.894529	don	-0.5869962
-2.894529	see	-0.07410172
-3.4748697	pictur	-0.033168368
-3.4748697	them	-0.033168368
-3.4748697	moreso	-0.033168368
-3.021237	hear	-0.033168368
-3.021237	commentari	-0.033168368
-3.4748697	behavior	-0.033168368
-2.3457146	know	-0.033168368
-3.4748697	left	-0.033168368
-3.4748697	offic	-0.033168368
-3.4748697	put	-0.033168368
-3.4748697	energi	-0.033168368
-2.894529	instead	-0.033168368
-3.4748697	of	-0.033168368
-3.021237	what	-0.096112415
-2.894529	current	-0.033168368
-3.021237	administr	-0.033168368
-3.4748697	how	-0.033168368
-3.4748697	examin	-0.033168368
-3.4748697	hand	-0.033168368
-3.4748697	slap	-0.033168368
-3.4748697	first	-0.033168368
-3.4748697	ladi	-0.033168368
-3.4748697	husband	-0.033168368
-2.4644043	think	-0.033168368
-2.894529	rate	-0.5869962
-2.3457146	you	-0.21851614
-3.4748697	highest	-0.033168368
-3.021237	best	-0.033168368
-3.4748697	biglilast	-0.033168368
-3.4748697	week	-0.033168368
-2.894529	news	-0.033168368
-3.4748697	wa	-0.033168368
-3.4748697	lot	-0.033168368
-3.021237	in	-0.033168368
-3.4748697	kinda	-0.033168368
-3.021237	hop	-0.033168368
-3.4748697	rapid	-0.033168368
-3.4748697	fire	-0.033168368
-3.4748697	pin	-0.033168368
-3.021237	standard	-0.033168368
-3.4748697	ala	-0.033168368
-3.4748697	bad	-0.033168368
-3.021237	y	-0.096112415
-3.4748697	all	-0.033168368
-3.021237	help	-0.033168368
-2.2525976	one	-0.033168368
-3.021237	updat	-0.033168368
-2.628261	need	-0.033168368
-3.021237	resourc	-0.033168368
-3.4748697	outsid	-0.033168368
-3.4748697	u	-0.033168368
-2.894529	well	-0.033168368
-3.4748697	intern	-0.033168368
-3.4748697	similar	-0.033168368
-3.4748697	mine	-0.033168368
-3.021237	cover	-0.033168368
-3.4748697	differ	-0.033168368
-3.4748697	suggest	-0.033168368
-3.021237	love	-0.033168368
-3.4748697	themsorri	-0.033168368
-3.4748697	busi	-0.033168368
-3.4748697	weekend	-0.033168368
-3.021237	here	-0.033168368
-3.4748697	quick	-0.033168368
-3.4748697	saw	-0.033168368
-3.4748697	woman	-0.033168368
-3.4748697	walk	-0.033168368
-3.4748697	shirt	-0.033168368
-3.4748697	lord	-0.033168368
-3.4748697	strength	-0.033168368
-3.4748697	confid	-0.033168368
-3.4748697	medicor	-0.033168368
-3.021237	man	-0.033168368
-3.4748697	laugh	-0.033168368
-3.4748697	loud	-0.033168368
-3.4748697	took	-0.033168368
-3.4748697	compliment	-0.033168368
-3.4748697	wholeheartedliurbanetid	-0.033168368
-3.4748697	repli	-0.033168368
-3.021237	link	-0.033168368
-3.021237	youtub	-0.033168368
-3.4748697	remov	-0.033168368
-3.4748697	tommi	-0.033168368
-3.4748697	sotomayor	-0.033168368
-2.894529	video	-0.033168368
-3.4748697	now	-0.033168368
-3.021237	watch	-0.033168368
-3.4748697	wow	-0.033168368
-3.4748697	grand	-0.033168368
-2.628261	didn	-0.7119349
-3.4748697	thattoday	-0.033168368
-2.2525976	mother	-0.05024112
-3.4748697	everyon	-0.033168368
-3.4748697	histori	-0.033168368
-3.4748697	birth	-0.033168368
-3.021237	sometim	-0.033168368
-2.894529	may	-0.033168368
-3.4748697	abus	-0.033168368
-3.021237	mental	-0.033168368
-3.021237	physic	-0.033168368
-3.4748697	emot	-0.033168368
-3.4748697	there	-0.033168368
-2.894529	never	-0.033168368
-2.628261	knew	-0.063501045
-3.4748697	taken	-0.033168368
-3.4748697	away	-0.033168368
-3.4748697	soon	-0.033168368
-2.894529	world	-0.033168368
-3.021237	live	-0.033168368
-2.894529	noth	-0.033168368
-3.4748697	whatev	-0.033168368
-3.021237	or	-0.033168368
-2.4644043	still	-0.033168368
-3.4748697	face	-0.033168368
-3.4748697	peac	-0.033168368
-3.4748697	yourself	-0.033168368
-3.4748697	choos	-0.033168368
-3.4748697	children	-0.033168368
-3.4748697	life	-0.033168368
-3.4748697	and	-0.033168368
-3.4748697	re	-0.033168368
-3.4748697	lucki	-0.033168368
-3.4748697	figur	-0.033168368
-3.021237	sure	-0.033168368
-3.021237	thank	-0.033168368
-3.4748697	guid	-0.033168368
-3.4748697	goe	-0.033168368
-3.4748697	kid	-0.033168368
-3.4748697	valid	-0.033168368
-3.4748697	deserv	-0.033168368
-3.4748697	leader	-0.033168368
-3.4748697	support	-0.033168368
-2.628261	even	-0.033168368
-3.4748697	gener	-0.033168368
-3.4748697	matter	-0.033168368
-3.4748697	formwhat	-0.033168368
-3.4748697	haven	-0.033168368
-3.4748697	client	-0.033168368
-3.4748697	ve	-0.033168368
-3.4748697	care	-0.033168368
-3.4748697	gotta	-0.033168368
-3.4748697	set	-0.033168368
-3.4748697	blackout	-0.033168368
-3.4748697	normal	-0.033168368
-3.4748697	queue	-0.033168368
-3.021237	up	-0.033168368
-3.4748697	ran	-0.033168368
-3.021237	out	-0.096112415
-3.4748697	back	-0.033168368
-3.4748697	mondayanyon	-0.033168368
-3.4748697	surpris	-0.033168368
-3.4748697	thosaw	-0.033168368
-3.4748697	son	-0.033168368
-3.4748697	struggl	-0.033168368
-3.4748697	gcse	-0.033168368
-3.4748697	revis	-0.033168368
-3.4748697	year	-0.033168368
-2.628261	georg	-0.063501045
-3.4748697	hammond	-0.033168368
-3.4748697	hagan	-0.033168368
-3.4748697	drew	-0.033168368
-3.4748697	music	-0.033168368
-3.4748697	produc	-0.033168368
-2.894529	tri	-0.033168368
-2.894529	made	-0.033168368
-3.4748697	song	-0.033168368
-3.4748697	inform	-0.033168368
-3.4748697	syllabu	-0.033168368
-3.4748697	sang	-0.033168368
-3.4748697	hip	-0.033168368
-3.021237	track	-0.033168368
-2.894529	digit	-0.033168368
-3.4748697	core	-0.033168368
-3.4748697	subject	-0.033168368
-3.4748697	content	-0.033168368
-3.4748697	suppli	-0.033168368
-3.4748697	teacher	-0.033168368
-3.4748697	app	-0.033168368
-3.4748697	call	-0.033168368
-3.4748697	studytrack	-0.033168368
-3.4748697	download	-0.033168368
-3.4748697	nearli	-0.033168368
-3.4748697	decemb	-0.033168368
-3.4748697	h	-0.033168368
-3.4748697	dinosaurhelblack	-0.033168368
-3.021237	organ	-0.033168368
-3.4748697	facebook	-0.033168368
-3.021237	daili	-0.033168368
-3.4748697	dopamin	-0.033168368
-3.4748697	fix	-0.033168368
-3.4748697	meme	-0.033168368
-3.4748697	vital	-0.033168368
-3.4748697	tool	-0.033168368
-3.4748697	convey	-0.033168368
-3.4748697	margin	-0.033168368
-3.4748697	narr	-0.033168368
-3.4748697	exclud	-0.033168368
-3.4748697	mainstream	-0.033168368
-3.4748697	proven	-0.033168368
-3.4748697	invalu	-0.033168368
-3.4748697	intra	-0.033168368
-3.4748697	commun	-0.033168368
-3.4748697	mobil	-0.033168368
-3.4748697	baseokay	-0.033168368
-3.4748697	earli	-0.033168368
-3.4748697	today	-0.033168368
-3.4748697	queu	-0.033168368
-3.4748697	tag	-0.033168368
-3.4748697	delet	-0.033168368
-3.4748697	kind	-0.033168368
-3.4748697	late	-0.033168368
-3.4748697	trigger	-0.033168368
-3.4748697	warn	-0.033168368
-3.4748697	everyth	-0.033168368
-3.4748697	reblog	-0.033168368
-3.4748697	simpli	-0.033168368
-3.4748697	graphic	-0.033168368
-3.4748697	let	-0.033168368
-3.4748697	fact	-0.033168368
-3.4748697	straight	-0.033168368
-3.4748697	comment	-0.033168368
-3.021237	read	-0.033168368
-3.4748697	basi	-0.033168368
-3.021237	talk	-0.033168368
-3.4748697	fear	-0.033168368
-2.894529	women	-0.033168368
-3.021237	stand	-0.033168368
-3.4748697	violenc	-0.033168368
-3.4748697	especi	-0.033168368
-3.4748697	sole	-0.033168368
-3.4748697	men	-0.033168368
-3.021237	mayb	-0.033168368
-3.4748697	mitt	-0.033168368
-3.4748697	understand	-0.033168368
-3.4748697	came	-0.033168368
-3.4748697	inbox	-0.033168368
-3.4748697	right	-0.033168368
-3.4748697	cuss	-0.033168368
-3.4748697	allow	-0.033168368
-3.021237	clear	-0.033168368
-3.4748697	sight	-0.033168368
-3.4748697	apolog	-0.033168368
-2.894529	said	-0.033168368
-3.4748697	type	-0.033168368
-3.021237	thi	-0.033168368
-3.021237	thing	-0.033168368
-3.4748697	discourag	-0.033168368
-3.4748697	hatr	-0.033168368
-3.4748697	uncommon	-0.033168368
-3.4748697	encourag	-0.033168368
-3.4748697	meant	-0.033168368
-3.4748697	endors	-0.033168368
-3.4748697	least	-0.033168368
-3.4748697	understandknow	-0.033168368
-3.4748697	ridicul	-0.033168368
-3.4748697	fair	-0.033168368
-3.4748697	ass	-0.033168368
-3.4748697	done	-0.033168368
-3.4748697	reach	-0.033168368
-3.4748697	across	-0.033168368
-3.4748697	aisl	-0.033168368
-3.4748697	mind	-0.033168368
-3.4748697	side	-0.033168368
-3.4748697	attempt	-0.033168368
-3.4748697	bit	-0.033168368
-3.4748697	profession	-0.033168368
-3.4748697	long	-0.033168368
-3.4748697	distract	-0.033168368
-3.4748697	gonna	-0.033168368
-3.4748697	releas	-0.033168368
-3.4748697	longer	-0.033168368
-3.4748697	sad	-0.033168368
-3.4748697	look	-0.033168368
-3.4748697	w	-0.033168368
-3.4748697	bush	-0.033168368
-3.4748697	presid	-0.033168368
-3.4748697	bearer	-0.033168368
-3.4748697	republican	-0.033168368
-3.4748697	partii	-0.033168368
-3.4748697	record	-0.033168368
-3.4748697	reachstatement	-0.033168368
-3.021237	deal	-0.096112415
-3.4748697	sign	-0.033168368
-3.4748697	measur	-0.033168368
-3.4748697	greater	-0.033168368
-3.4748697	signific	-0.033168368
-3.021237	student	-0.033168368
-3.021237	campu	-0.033168368
-3.4748697	travel	-0.033168368
-3.4748697	danger	-0.033168368
-3.4748697	territori	-0.033168368
-3.4748697	at	-0.033168368
-3.4748697	assail	-0.033168368
-3.4748697	can	-0.033168368
-3.4748697	target	-0.033168368
-3.4748697	full	-0.033168368
-3.4748697	victim	-0.033168368
-3.4748697	permit	-0.033168368
-3.021237	carri	-0.033168368
-3.4748697	protect	-0.033168368
-3.021237	weapon	-0.033168368
-3.4748697	licens	-0.033168368
-3.4748697	holder	-0.033168368
-3.4748697	either	-0.033168368
-3.4748697	allowread	-0.033168368
-3.4748697	version	-0.033168368
-3.021237	stori	-0.033168368
-3.4748697	felt	-0.033168368
-3.021237	sorrier	-0.033168368
-3.4748697	friend	-0.033168368
-3.4748697	philip	-0.033168368
-3.021237	freeman	-0.033168368
-3.4748697	anna	-0.033168368
-3.4748697	hay	-0.033168368
-2.894529	feel	-0.033168368
-3.4748697	classic	-0.033168368
-3.021237	reveng	-0.033168368
-2.4644043	father	-0.033168368
-2.3457146	daughter	-0.033168368
-3.4748697	disdain	-0.033168368
-3.4748697	relationship	-0.033168368
-3.4748697	racist	-0.033168368
-3.4748697	date	-0.033168368
-3.021237	piss	-0.096112415
-3.4748697	off	-0.033168368
-3.4748697	becam	-0.033168368
-3.4748697	furiou	-0.033168368
-3.4748697	disown	-0.033168368
-3.4748697	shock	-0.033168368
-3.4748697	messag	-0.033168368
-2.894529	aliv	-0.033168368
-3.4748697	meantim	-0.033168368
-3.4748697	teen	-0.033168368
-3.4748697	name	-0.033168368
-3.4748697	unwillingli	-0.033168368
-3.4748697	she	-0.033168368
-3.4748697	mean	-0.033168368
-3.021237	phillip	-0.033168368
-3.4748697	share	-0.033168368
-3.4748697	screenshot	-0.033168368
-3.4748697	on	-0.033168368
-3.4748697	quot	-0.033168368
-3.4748697	skin	-0.033168368
-3.4748697	import	-0.033168368
-3.4748697	much	-0.033168368
-3.4748697	privat	-0.033168368
-3.021237	moment	-0.033168368
-3.4748697	shame	-0.033168368
-3.4748697	point	-0.033168368
-3.4748697	that	-0.033168368
-3.4748697	yeah	-0.033168368
-3.4748697	isn	-0.033168368
-3.4748697	hate	-0.033168368
-3.4748697	blue	-0.033168368
-3.4748697	plot	-0.033168368
-3.4748697	disgust	-0.033168368
-3.4748697	lesson	-0.033168368
-3.4748697	henc	-0.033168368
-3.4748697	might	-0.033168368
-3.4748697	pawn	-0.033168368

\2-grams:
-1.1317092	pawn </s>
-1.1317092	<s> oh	-0.0052642366
-1.1317092	oh boyday	-0.0052642366
-1.126618	boyday sinc	-0.0052642366
-2.6636486	<eos> sinc	-0.0052642366
-1.9323584	time sinc	-0.0052642366
-1.4598482	sinc post	-0.0052642366
-2.0150595	<eos> post	-0.0052642366
-1.3284503	along post	-0.0052642366
-1.0772464	quick post	-0.0052642366
-1.4598482	video post	-0.0052642366
-1.0772464	today post	-0.0052642366
-1.0772464	queu post	-0.0052642366
-1.0772464	delet post	-0.0052642366
-1.0772464	late post	-0.0052642366
-1.0772464	graphic post	-0.0052642366
-1.0772464	sight post	-0.0052642366
-1.0772464	uncommon post	-0.0052642366
-0.6472697	post <eos>	-0.0052642366
-0.9076914	slam <eos>	-0.0052642366
-1.2047592	discuss <eos>	-0.0052642366
-0.9076914	internet <eos>	-0.0052642366
-1.2171165	time <eos>	-0.0052642366
-1.0083582	question <eos>	-0.0052642366
-1.0608909	idea <eos>	-0.0052642366
-1.1880294	come <eos>	-0.0052642366
-1.0915909	peopl <eos>	-0.0052642366
-1.0608909	space <eos>	-0.0052642366
-0.9076914	a <eos>	-0.0052642366
-1.0608909	do <eos>	-0.0052642366
-1.0608909	to <eos>	-0.0052642366
-0.9076914	equal <eos>	-0.0052642366
-1.0608909	media <eos>	-0.0052642366
-1.314869	it <eos>	-0.0052642366
-0.9076914	feedback <eos>	-0.0052642366
-0.74959224	won <eos>	-0.0052642366
-1.0608909	along <eos>	-0.0052642366
-0.9076914	timetopic <eos>	-0.0052642366
-0.9076914	alon <eos>	-0.0052642366
-0.12194523	rate <eos>	-0.0052642366
-1.3641691	you <eos>	-0.0052642366
-1.1268947	news <eos>	-0.0052642366
-1.0608909	all <eos>	-0.0052642366
-0.9076914	themsorri <eos>	-0.0052642366
-0.9076914	weekend <eos>	-0.0052642366
-1.1268947	video <eos>	-0.0052642366
-0.9076914	now <eos>	-0.0052642366
-0.9076914	wow <eos>	-0.0052642366
-0.97904855	mother <eos>	-0.0052642366
-0.9076914	blackout <eos>	-0.0052642366
-1.0608909	up <eos>	-0.0052642366
-0.61633563	out <eos>	-0.0052642366
-1.0608909	track <eos>	-0.0052642366
-0.9076914	teacher <eos>	-0.0052642366
-0.9076914	decemb <eos>	-0.0052642366
-0.9076914	tag <eos>	-0.0052642366
-0.9076914	everyth <eos>	-0.0052642366
-1.0608909	clear <eos>	-0.0052642366
-1.1640843	said <eos>	-0.0052642366
-0.9076914	hatr <eos>	-0.0052642366
-0.9076914	ridicul <eos>	-0.0052642366
-0.9076914	side <eos>	-0.0052642366
-0.9076914	hay <eos>	-0.0052642366
-1.0608909	off <eos>	-0.0052642366
-1.1268947	aliv <eos>	-0.0052642366
-0.9076914	skin <eos>	-0.0052642366
-1.0608909	moment <eos>	-0.0052642366
-0.9076914	that <eos>	-0.0052642366
-0.9076914	blue <eos>	-0.0052642366
-0.9076914	lesson <eos>	-0.0052642366
-1.2430836	<eos> i	-0.2984216
-2.1187675	it i	-0.0052642366
-1.3671076	say i	-0.0052642366
-1.0984997	bad i	-0.0052642366
-1.7777392	one i	-0.0052642366
-1.0984997	client i	-0.0052642366
-1.6097603	said i	-0.0052642366
-1.0984997	sad i	-0.0052642366
-0.23599707	i m	-0.08233209
-1.128359	partii m	-0.0052642366
-1.1538613	m go	-0.0052642366
-1.8331665	time go	-0.0052642366
-1.8331665	like go	-0.0052642366
-2.0942366	s go	-0.0052642366
-1.3878082	student go	-0.0052642366
-1.1095295	either go	-0.0052642366
-1.9889865	post make	-0.0052642366
-1.8425422	go make	-0.0052642366
-1.70148	ll make	-0.0052642366
-1.1039796	voic make	-0.0052642366
-1.3773346	best make	-0.0052642366
-1.3773346	live make	-0.0052642366
-1.1039796	allow make	-0.0052642366
-1.9441727	go ask	-0.0052642366
-1.8996048	make ask	-0.0052642366
-1.1208467	step ask	-0.0052642366
-1.1208467	worth ask	-0.0052642366
-1.728326	ask googl	-0.0052642366
-1.1317092	googl bodi	-0.0052642366
-1.1317092	bodi slam	-0.0052642366
-2.068228	i ll	-0.0052642366
-1.241857	you ll	-0.0052642366
-2.2597773	<eos> show	-0.0052642366
-1.70148	ll show	-0.0052642366
-1.9019865	want show	-0.0052642366
-1.1039796	devolv show	-0.0052642366
-1.1039796	attempt show	-0.0052642366
-1.70148	father show	-0.0052642366
-1.1039796	messag show	-0.0052642366
-1.9659883	show result	-0.0052642366
-1.1317092	result minutokay	-0.0052642366
-1.1317092	minutokay went	-0.0052642366
-1.126618	went panel	-0.0052642366
-1.5902199	tumblr panel	-0.0052642366
-1.126618	paraphras panel	-0.0052642366
-0.86887264	panel discuss	-0.0052642366
-1.1151513	art discuss	-0.0052642366
-1.1151513	roundtabl discuss	-0.0052642366
-1.3985407	racial discuss	-0.0052642366
-1.1151513	encourag discuss	-0.0052642366
-1.900826	discuss art	-0.0052642366
-1.8967172	show racism	-0.0052642366
-1.8405689	discuss racism	-0.0052642366
-1.1208467	confront racism	-0.0052642366
-1.5768485	see racism	-0.0052642366
-1.728326	racism internet	-0.0052642366
-2.1763525	<eos> invit	-0.0052642366
-1.9841241	go tumblr	-0.0052642366
-1.4208356	invit tumblr	-0.0052642366
-1.7085534	part tumblr	-0.0052642366
-1.6051941	tumblr collab	-0.0052642366
-1.1317092	collab pb	-0.0052642366
-1.1317092	pb pov	-0.0052642366
-1.126618	pov new	-0.0052642366
-1.4208356	mayb new	-0.0052642366
-1.126618	presid new	-0.0052642366
-1.6051941	new york	-0.0052642366
-1.1095295	york time	-0.0052642366
-0.69433707	ny time	-0.0052642366
-1.3878082	give time	-0.0052642366
-1.3878082	present time	-0.0052642366
-1.3878082	last time	-0.0052642366
-1.542281	digit time	-0.0052642366
-1.9436113	show short	-0.0052642366
-1.42427	clear short	-0.0052642366
-1.4309173	short film	-0.0052642366
-1.1317092	film roundtabl	-0.0052642366
-1.8717284	discuss work	-0.0052642366
-1.7085534	even work	-0.0052642366
-1.126618	aisl work	-0.0052642366
-1.5966613	work ny	-0.0052642366
-1.595302	told ny	-0.0052642366
-1.8967172	time use	-0.0052642366
-1.686915	way use	-0.0052642366
-1.1208467	subject use	-0.0052642366
-1.1208467	might use	-0.0052642366
-1.728326	use platform	-0.0052642366
-1.595302	sinc launch	-0.0052642366
-1.128359	platform launch	-0.0052642366
-1.4309173	launch seriou	-0.0052642366
-1.1317092	seriou topic	-0.0052642366
-1.1317092	topic confront	-0.0052642366
-1.686915	racism take	-0.0052642366
-1.5736452	decid take	-0.0052642366
-1.1208467	lot take	-0.0052642366
-1.1208467	ve take	-0.0052642366
-1.728326	take documentari	-0.0052642366
-1.1317092	documentari approach	-0.0052642366
-1.1317092	approach oppos	-0.0052642366
-1.1317092	oppos click	-0.0052642366
-1.1317092	click bait	-0.0052642366
-1.1317092	bait rout	-0.0052642366
-1.1208467	rout so	-0.0052642366
-1.686915	part so	-0.0052642366
-1.9234593	you so	-0.0052642366
-1.4095452	link so	-0.0052642366
-1.7085534	so got	-0.0052642366
-1.5902199	never got	-0.0052642366
-1.126618	teen got	-0.0052642366
-1.6051941	got awkwardracequest	-0.0052642366
-1.1208467	awkwardracequest part	-0.0052642366
-1.4095452	updat part	-0.0052642366
-1.1208467	differ part	-0.0052642366
-1.686915	made part	-0.0052642366
-2.331052	<eos> get	-0.0052642366
-1.6466266	part get	-0.0052642366
-1.6466266	would get	-0.0052642366
-2.0942366	s get	-0.0052642366
-1.1095295	understandknow get	-0.0052642366
-1.1095295	quot get	-0.0052642366
-1.9889865	post question	-0.0052642366
-1.7586088	get question	-0.0052642366
-1.1039796	written question	-0.0052642366
-1.3773346	thought question	-0.0052642366
-1.6278024	good question	-0.0052642366
-0.98257345	answer question	-0.0052642366
-1.1039796	detail question	-0.0052642366
-1.9981073	question hope	-0.0052642366
-1.42427	love hope	-0.0052642366
-1.42427	hope tackl	-0.0052642366
-1.595302	blog tackl	-0.0052642366
-1.42427	tackl idea	-0.0052642366
-1.128359	grand idea	-0.0052642366
-1.4309173	idea month	-0.0052642366
-1.907589	go come	-0.0052642366
-1.3985407	invit come	-0.0052642366
-1.1151513	month come	-0.0052642366
-2.0378942	peopl come	-0.0052642366
-1.1151513	screenshot come	-0.0052642366
-2.8402998	<eos> written	-0.0052642366
-2.022682	question whi	-0.0052642366
-2.0971923	<eos> peopl	-0.0052642366
-1.4856256	new peopl	-0.0052642366
-0.85450965	work peopl	-0.0052642366
-1.087743	whi peopl	-0.0052642366
-1.3258642	black peopl	-0.0052642366
-1.4856256	white peopl	-0.0052642366
-1.087743	seek peopl	-0.0052642366
-1.087743	offic peopl	-0.0052642366
-1.087743	record peopl	-0.0052642366
-1.087743	import peopl	-0.0052642366
-1.9564909	post want	-0.0052642366
-1.8192701	question want	-0.0052642366
-1.4090617	peopl want	-0.0052642366
-1.6097603	way want	-0.0052642366
-1.7777392	like want	-0.0052642366
-1.5101783	t want	-0.0052642366
-1.3671076	live want	-0.0052642366
-1.0984997	shock want	-0.0052642366
-2.11558	want tone	-0.0052642366
-1.1317092	tone polic	-0.0052642366
-2.0971923	<eos> black	-0.0052642366
-1.087743	polic black	-0.0052642366
-1.3473489	experi black	-0.0052642366
-1.087743	fear black	-0.0052642366
-1.3473489	stand black	-0.0052642366
-1.087743	especi black	-0.0052642366
-1.3473489	men black	-0.0052642366
-1.087743	date black	-0.0052642366
-1.087743	meantim black	-0.0052642366
-1.087743	hate black	-0.0052642366
-2.0881088	black space	-0.0052642366
-1.128359	within space	-0.0052642366
-1.7152398	ask thought	-0.0052642366
-1.42427	space thought	-0.0052642366
-1.4095452	thought good	-0.0052642366
-1.4095452	present good	-0.0052642366
-1.686915	need good	-0.0052642366
-1.1208467	everyon good	-0.0052642366
-2.022682	question but	-0.0052642366
-1.1317092	but q	-0.0052642366
-1.1317092	q a	-0.0052642366
-2.6636486	<eos> decid	-0.0052642366
-1.5902199	person decid	-0.0052642366
-1.126618	profession decid	-0.0052642366
-1.7989573	ll next	-0.0052642366
-1.7085534	take next	-0.0052642366
-1.9340539	mother next	-0.0052642366
-1.6051941	next step	-0.0052642366
-2.8402998	<eos> summar	-0.0052642366
-2.6636486	<eos> told	-0.0052642366
-1.126618	summar told	-0.0052642366
-1.4208356	basic told	-0.0052642366
-1.595302	told experi	-0.0052642366
-1.128359	drew experi	-0.0052642366
-2.1170068	black blogger	-0.0052642366
-1.1208467	blogger way	-0.0052642366
-1.8967172	think way	-0.0052642366
-1.4095452	mental way	-0.0052642366
-1.4095452	mayb way	-0.0052642366
-1.7085534	use blog	-0.0052642366
-1.126618	intern blog	-0.0052642366
-1.4208356	read blog	-0.0052642366
-2.7165666	<eos> racial	-0.0052642366
-1.42427	tackl racial	-0.0052642366
-1.900826	discuss alway	-0.0052642366
-1.1317092	alway seem	-0.0052642366
-1.1317092	seem devolv	-0.0052642366
-1.9323584	show white	-0.0052642366
-1.7085534	would white	-0.0052642366
-1.126618	medicor white	-0.0052642366
-1.8234367	come tell	-0.0052642366
-1.128359	tell do	-0.0052642366
-1.128359	can do	-0.0052642366
-1.4365426	<eos> howev	-0.0052642366
-1.7152398	day howev	-0.0052642366
-1.7152398	howev stuff	-0.0052642366
-1.128359	set stuff	-0.0052642366
-1.42427	stuff actual	-0.0052642366
-1.42427	stori actual	-0.0052642366
-1.4309173	actual convers	-0.0052642366
-1.1317092	convers within	-0.0052642366
-2.6636486	<eos> problem	-0.0052642366
-2.296613	s problem	-0.0052642366
-1.126618	whatev problem	-0.0052642366
-1.595302	problem is	-0.0052642366
-1.8814985	know is	-0.0052642366
-1.4208356	is would	-0.0052642366
-1.126618	suggest would	-0.0052642366
-0.9984126	knew would	-0.0052642366
-1.5902199	white person	-0.0052642366
-1.5902199	becom person	-0.0052642366
-1.126618	fair person	-0.0052642366
-1.6051941	person treat	-0.0052642366
-1.1317092	treat higher	-0.0052642366
-1.1317092	higher valu	-0.0052642366
-1.1317092	valu opinion	-0.0052642366
-1.128359	opinion to	-0.0052642366
-1.9436113	think to	-0.0052642366
-1.4309173	to paraphras	-0.0052642366
-1.5966613	panel basic	-0.0052642366
-1.128359	yeah basic	-0.0052642366
-1.9659883	time establish	-0.0052642366
-1.1317092	establish brand	-0.0052642366
-1.1317092	brand thu	-0.0052642366
-1.128359	thu bring	-0.0052642366
-1.128359	choos bring	-0.0052642366
-1.4309173	bring voic	-0.0052642366
-1.966469	make equal	-0.0052642366
-2.8402998	<eos> sadli	-0.0052642366
-1.1317092	sadli littl	-0.0052642366
-1.1317092	littl annoy	-0.0052642366
-1.1208467	annoy answer	-0.0052642366
-1.1208467	sorta answer	-0.0052642366
-1.1208467	satisfi answer	-0.0052642366
-1.1208467	save answer	-0.0052642366
-1.710326	answer mostli	-0.0052642366
-1.7085534	day mostli	-0.0052642366
-1.4208356	here mostli	-0.0052642366
-1.595302	mostli media	-0.0052642366
-1.128359	mainstream media	-0.0052642366
-1.4309173	media outlet	-0.0052642366
-1.1317092	outlet author	-0.0052642366
-1.1317092	author power	-0.0052642366
-1.1317092	power someon	-0.0052642366
-1.1151513	someon like	-0.0052642366
-2.1518128	s like	-0.0052642366
-1.8637805	think like	-0.0052642366
-1.1151513	meme like	-0.0052642366
-1.55768	feel like	-0.0052642366
-2.0688431	want becom	-0.0052642366
-1.9323584	like becom	-0.0052642366
-1.5902199	world becom	-0.0052642366
-1.6051941	becom expert	-0.0052642366
-1.1317092	expert shouldn	-0.0052642366
-1.093088	shouldn t	-0.0052642366
-0.68880004	wasn t	-0.0052642366
-0.68880004	wouldn t	-0.0052642366
-1.5080516	won t	-0.0052642366
-0.12890503	don t	-0.0052642366
-0.092918664	didn t	-0.22184873
-1.093088	haven t	-0.0052642366
-1.093088	h t	-0.0052642366
-1.093088	isn t	-0.0052642366
-2.3097346	t for	-0.0052642366
-1.7790546	post it	-0.0052642366
-1.20092	<eos> it	-0.59171915
-1.635062	make it	-0.0052642366
-1.5946674	get it	-0.0052642366
-1.6876696	want it	-0.0052642366
-1.4238418	told it	-0.0052642366
-1.5133159	answer it	-0.0052642366
-1.75578	t it	-0.0052642366
-1.0619624	for it	-0.0052642366
-1.4238418	commentari it	-0.0052642366
-1.5946674	know it	-0.0052642366
-1.0619624	ala it	-0.0052642366
-1.3015602	sometim it	-0.0052642366
-1.3015602	thi it	-0.0052642366
-1.0619624	discourag it	-0.0052642366
-0.25855032	it s	-0.08233209
-0.68880004	what s	-0.0052642366
-1.093088	u s	-0.0052642366
-1.357116	here s	-0.0052642366
-1.7593203	mother s	-0.0052642366
-1.093088	formwhat s	-0.0052642366
-1.093088	let s	-0.0052642366
-1.093088	bush s	-0.0052642366
-1.7114687	daughter s	-0.0052642366
-2.3787823	s worth	-0.0052642366
-1.728326	ask detail	-0.0052642366
-2.11558	want feedback	-0.0052642366
-2.297751	it sorta	-0.0052642366
-1.9981073	question wasn	-0.0052642366
-1.42427	in wasn	-0.0052642366
-2.3097346	t realli	-0.0052642366
-1.1317092	realli satisfi	-0.0052642366
-1.9436113	like say	-0.0052642366
-1.128359	shirt say	-0.0052642366
-1.8828121	m someth	-0.0052642366
-2.323103	s someth	-0.0052642366
-1.4309173	someth wrong	-0.0052642366
-1.1317092	wrong seek	-0.0052642366
-2.1922	peopl stronger	-0.0052642366
-1.1317092	stronger reput	-0.0052642366
-1.128359	reput wouldn	-0.0052642366
-1.128359	pin wouldn	-0.0052642366
-2.2625716	t give	-0.0052642366
-1.42427	pleas give	-0.0052642366
-1.8967172	time day	-0.0052642366
-2.2182057	s day	-0.0052642366
-1.8967172	one day	-0.0052642366
-1.4095452	updat day	-0.0052642366
-1.728326	howev overal	-0.0052642366
-1.128359	overal present	-0.0052642366
-1.128359	at present	-0.0052642366
-1.728326	good save	-0.0052642366
-2.1463747	<eos> won	-0.0052642366
-2.276685	it won	-0.0052642366
-2.2625716	t last	-0.0052642366
-1.128359	revis last	-0.0052642366
-1.8072057	come along	-0.0052642366
-1.7152398	way along	-0.0052642366
-1.6051941	next timetopic	-0.0052642366
-1.4309173	racial coursdear	-0.0052642366
-1.1317092	coursdear gossip	-0.0052642366
-1.1317092	gossip websit	-0.0052642366
-1.128359	websit pleas	-0.0052642366
-1.128359	lord pleas	-0.0052642366
-1.9968225	go leav	-0.0052642366
-1.42427	pleas leav	-0.0052642366
-1.4309173	leav obama	-0.0052642366
-1.1317092	obama alon	-0.0052642366
-2.1314921	<eos> don	-0.2958288
-1.8717284	know don	-0.0052642366
-1.126618	mitt don	-0.0052642366
-2.1393342	peopl see	-0.0052642366
-2.0688431	want see	-0.0052642366
-1.7085534	need see	-0.0052642366
-0.8773404	see pictur	-0.0052642366
-1.4309173	pictur them	-0.0052642366
-1.1317092	them moreso	-0.0052642366
-1.128359	moreso hear	-0.0052642366
-1.42427	love hear	-0.0052642366
-1.4711899	post commentari	-0.0052642366
-1.42427	hear commentari	-0.0052642366
-1.6051941	commentari behavior	-0.0052642366
-2.331052	<eos> know	-0.0052642366
-1.1095295	behavior know	-0.0052642366
-1.1095295	of know	-0.0052642366
-1.6466266	need know	-0.0052642366
-1.6466266	women know	-0.0052642366
-1.3878082	student know	-0.0052642366
-1.900826	know left	-0.0052642366
-1.1317092	left offic	-0.0052642366
-2.11558	want put	-0.0052642366
-1.1317092	put energi	-0.0052642366
-2.1314921	<eos> instead	-0.0052642366
-1.126618	energi instead	-0.0052642366
-1.126618	husband instead	-0.0052642366
-1.728326	instead of	-0.0052642366
-1.8814985	know what	-0.0052642366
-1.8072057	father what	-0.0052642366
-1.9841241	go current	-0.0052642366
-1.126618	slap current	-0.0052642366
-1.5902199	world current	-0.0052642366
-1.595302	current administr	-0.0052642366
-1.595302	noth administr	-0.0052642366
-1.4309173	administr how	-0.0052642366
-1.1317092	how examin	-0.0052642366
-1.1317092	examin hand	-0.0052642366
-1.1317092	hand slap	-0.0052642366
-1.6051941	current first	-0.0052642366
-1.1317092	first ladi	-0.0052642366
-1.1317092	ladi husband	-0.0052642366
-2.1122725	t think	-0.0052642366
-1.6663038	instead think	-0.0052642366
-1.3985407	men think	-0.0052642366
-1.1151513	type think	-0.0052642366
-1.3985407	thing think	-0.0052642366
-1.9323584	think rate	-0.0052642366
-1.126618	highest rate	-0.0052642366
-1.4208356	best rate	-0.0052642366
-2.0050561	<eos> you	-0.0052642366
-1.6466266	day you	-0.0052642366
-1.542281	noth you	-0.0052642366
-1.1095295	and you	-0.0052642366
-1.1095295	guid you	-0.0052642366
-1.1095295	distract you	-0.0052642366
-1.8234367	ll highest	-0.0052642366
-2.7165666	<eos> best	-0.0052642366
-2.323103	s best	-0.0052642366
-2.8402998	<eos> biglilast	-0.0052642366
-1.1317092	biglilast week	-0.0052642366
-1.126618	week news	-0.0052642366
-1.126618	longer news	-0.0052642366
-1.126618	name news	-0.0052642366
-1.6051941	news wa	-0.0052642366
-1.1317092	wa lot	-0.0052642366
-1.7152398	take in	-0.0052642366
-1.595302	well in	-0.0052642366
-2.0808005	i kinda	-0.0052642366
-1.128359	kinda hop	-0.0052642366
-1.128359	hip hop	-0.0052642366
-1.4309173	hop rapid	-0.0052642366
-1.1317092	rapid fire	-0.0052642366
-1.1317092	fire pin	-0.0052642366
-1.595302	new standard	-0.0052642366
-2.2625716	t standard	-0.0052642366
-1.4309173	standard ala	-0.0052642366
-1.4309173	someth bad	-0.0052642366
-1.7152398	ask y	-0.0052642366
-2.323103	s y	-0.0052642366
-0.70158803	y all	-0.0052642366
-1.42427	all help	-0.0052642366
-1.595302	tri help	-0.0052642366
-1.3773346	hope one	-0.0052642366
-2.0138059	t one	-0.0052642366
-2.0434077	s one	-0.0052642366
-1.3773346	help one	-0.0052642366
-1.3773346	watch one	-0.0052642366
-1.5274093	re one	-0.0052642366
-1.1039796	lucki one	-0.0052642366
-1.8828121	m updat	-0.0052642366
-2.2625716	t updat	-0.0052642366
-2.52264	<eos> need	-0.0052642366
-1.5736452	tumblr need	-0.0052642366
-1.8967172	think need	-0.0052642366
-1.1208467	unwillingli need	-0.0052642366
-1.7152398	good resourc	-0.0052642366
-1.128359	invalu resourc	-0.0052642366
-1.4309173	resourc outsid	-0.0052642366
-1.1317092	outsid u	-0.0052642366
-1.5902199	problem well	-0.0052642366
-1.126618	full well	-0.0052642366
-1.5902199	aliv well	-0.0052642366
-1.6051941	well intern	-0.0052642366
-1.6051941	blog similar	-0.0052642366
-1.1317092	similar mine	-0.0052642366
-1.128359	mine cover	-0.0052642366
-1.42427	track cover	-0.0052642366
-1.4309173	cover differ	-0.0052642366
-1.728326	so suggest	-0.0052642366
-1.7152398	would love	-0.0052642366
-1.128359	deserv love	-0.0052642366
-1.4309173	hear themsorri	-0.0052642366
-2.8402998	<eos> busi	-0.0052642366
-1.1317092	busi weekend	-0.0052642366
-1.7152398	howev here	-0.0052642366
-1.42427	leav here	-0.0052642366
-2.3787823	s quick	-0.0052642366
-2.8402998	<eos> saw	-0.0052642366
-1.1317092	saw woman	-0.0052642366
-1.1317092	woman walk	-0.0052642366
-1.1317092	walk shirt	-0.0052642366
-1.4309173	say lord	-0.0052642366
-1.4309173	give strength	-0.0052642366
-1.1317092	strength confid	-0.0052642366
-1.1317092	confid medicor	-0.0052642366
-2.0881088	black man	-0.0052642366
-1.595302	white man	-0.0052642366
-1.4309173	man laugh	-0.0052642366
-1.1317092	laugh loud	-0.0052642366
-1.1317092	loud took	-0.0052642366
-1.1317092	took compliment	-0.0052642366
-1.1317092	compliment wholeheartedliurbanetid	-0.0052642366
-1.1317092	wholeheartedliurbanetid repli	-0.0052642366
-1.9981073	question link	-0.0052642366
-1.128359	repli link	-0.0052642366
-1.42427	link youtub	-0.0052642366
-1.595302	video youtub	-0.0052642366
-1.4309173	youtub remov	-0.0052642366
-1.1317092	remov tommi	-0.0052642366
-1.1317092	tommi sotomayor	-0.0052642366
-1.9323584	one video	-0.0052642366
-1.126618	sotomayor video	-0.0052642366
-1.4208356	watch video	-0.0052642366
-1.4309173	youtub now	-0.0052642366
-2.7165666	<eos> watch	-0.0052642366
-1.42427	or watch	-0.0052642366
-2.8402998	<eos> wow	-0.0052642366
-2.8402998	<eos> grand	-0.0052642366
-2.0851352	<eos> didn	-0.2958288
-1.1208467	straight didn	-0.0052642366
-1.1208467	comment didn	-0.0052642366
-1.1208467	apolog didn	-0.0052642366
-1.9659883	think thattoday	-0.0052642366
-1.8045691	one mother	-0.0052642366
-1.1039796	thattoday mother	-0.0052642366
-1.1039796	birth mother	-0.0052642366
-1.6342903	knew mother	-0.0052642366
-1.1039796	face mother	-0.0052642366
-1.1039796	kid mother	-0.0052642366
-1.6278024	even mother	-0.0052642366
-1.728326	day everyon	-0.0052642366
-1.728326	good histori	-0.0052642366
-1.1317092	histori birth	-0.0052642366
-2.7165666	<eos> sometim	-0.0052642366
-1.9449104	mother sometim	-0.0052642366
-1.4208356	sometim may	-0.0052642366
-1.126618	measur may	-0.0052642366
-1.4208356	campu may	-0.0052642366
-1.6051941	may abus	-0.0052642366
-1.8814985	discuss mental	-0.0052642366
-1.128359	abus mental	-0.0052642366
-1.42427	mental physic	-0.0052642366
-1.128359	gcse physic	-0.0052642366
-1.4309173	physic emot	-0.0052642366
-1.1317092	emot there	-0.0052642366
-2.1393342	peopl never	-0.0052642366
-1.5902199	person never	-0.0052642366
-1.126618	there never	-0.0052642366
-1.5736452	never knew	-0.0052642366
-1.5736452	feel knew	-0.0052642366
-1.8405689	daughter knew	-0.0052642366
-1.1208467	she knew	-0.0052642366
-1.966469	mother taken	-0.0052642366
-1.1317092	taken away	-0.0052642366
-1.1317092	away soon	-0.0052642366
-1.9323584	show world	-0.0052642366
-1.126618	soon world	-0.0052642366
-1.126618	children world	-0.0052642366
-1.595302	current live	-0.0052642366
-1.128359	figur live	-0.0052642366
-2.0688431	want noth	-0.0052642366
-1.5902199	noth noth	-0.0052642366
-1.126618	ass noth	-0.0052642366
-2.8402998	<eos> whatev	-0.0052642366
-1.595302	problem or	-0.0052642366
-1.128359	basi or	-0.0052642366
-2.0378942	peopl still	-0.0052642366
-1.3985407	or still	-0.0052642366
-1.55768	re still	-0.0052642366
-1.1151513	valid still	-0.0052642366
-1.1151513	care still	-0.0052642366
-1.8234367	still face	-0.0052642366
-1.243964	make peac	-0.0052642366
-1.4309173	peac yourself	-0.0052642366
-1.1317092	yourself choos	-0.0052642366
-1.4309173	bring children	-0.0052642366
-1.6051941	got life	-0.0052642366
-1.1317092	life and	-0.0052642366
-0.49777827	you re	-0.0052642366
-1.9659883	one lucki	-0.0052642366
-1.966469	mother figur	-0.0052642366
-1.9449104	make sure	-0.0052642366
-1.128359	mean sure	-0.0052642366
-2.7165666	<eos> thank	-0.0052642366
-1.42427	sure thank	-0.0052642366
-1.4309173	thank guid	-0.0052642366
-1.728326	so goe	-0.0052642366
-1.1317092	goe kid	-0.0052642366
-1.8234367	still valid	-0.0052642366
-1.8234367	still deserv	-0.0052642366
-1.4309173	peac leader	-0.0052642366
-1.1317092	leader support	-0.0052642366
-2.1713798	t even	-0.0052642366
-1.686915	instead even	-0.0052642366
-1.1208467	support even	-0.0052642366
-1.686915	said even	-0.0052642366
-1.6051941	next gener	-0.0052642366
-1.1317092	gener matter	-0.0052642366
-1.1317092	matter formwhat	-0.0052642366
-2.8402998	<eos> haven	-0.0052642366
-1.6051941	mostli client	-0.0052642366
-2.0808005	i ve	-0.0052642366
-1.728326	take care	-0.0052642366
-1.8234367	still gotta	-0.0052642366
-1.1317092	gotta set	-0.0052642366
-1.4309173	stuff blackout	-0.0052642366
-2.8402998	<eos> normal	-0.0052642366
-1.1317092	normal queue	-0.0052642366
-2.1655207	post up	-0.0052642366
-1.128359	queue up	-0.0052642366
-1.4309173	up ran	-0.0052642366
-1.128359	ran out	-0.0052642366
-1.128359	cuss out	-0.0052642366
-1.8234367	ll back	-0.0052642366
-1.1317092	back mondayanyon	-0.0052642366
-1.1317092	mondayanyon surpris	-0.0052642366
-1.1317092	surpris thosaw	-0.0052642366
-1.1317092	thosaw son	-0.0052642366
-1.1317092	son struggl	-0.0052642366
-1.1317092	struggl gcse	-0.0052642366
-1.4309173	physic revis	-0.0052642366
-1.4309173	last year	-0.0052642366
-1.5736452	sinc georg	-0.0052642366
-1.4095452	help georg	-0.0052642366
-1.1208467	year georg	-0.0052642366
-1.1208467	look georg	-0.0052642366
-1.7288128	georg hammond	-0.0052642366
-1.1317092	hammond hagan	-0.0052642366
-1.1317092	hagan drew	-0.0052642366
-1.4309173	experi music	-0.0052642366
-1.1317092	music produc	-0.0052642366
-1.7085534	instead tri	-0.0052642366
-1.126618	produc tri	-0.0052642366
-1.126618	done tri	-0.0052642366
-2.2398179	t made	-0.0052642366
-0.9984126	georg made	-0.0052642366
-1.126618	least made	-0.0052642366
-1.728326	made song	-0.0052642366
-1.1317092	song inform	-0.0052642366
-1.1317092	inform syllabu	-0.0052642366
-1.1317092	syllabu sang	-0.0052642366
-1.1317092	sang hip	-0.0052642366
-1.42427	hop track	-0.0052642366
-1.595302	digit track	-0.0052642366
-1.7085534	made digit	-0.0052642366
-1.5902199	digit digit	-0.0052642366
-1.126618	nearli digit	-0.0052642366
-1.4309173	cover core	-0.0052642366
-1.1317092	core subject	-0.0052642366
-1.728326	use content	-0.0052642366
-1.1317092	content suppli	-0.0052642366
-1.1317092	suppli teacher	-0.0052642366
-2.8402998	<eos> app	-0.0052642366
-1.1317092	app call	-0.0052642366
-1.1317092	call studytrack	-0.0052642366
-1.1317092	studytrack download	-0.0052642366
-1.1317092	download nearli	-0.0052642366
-1.4309173	launch decemb	-0.0052642366
-2.8402998	<eos> h	-0.0052642366
-2.3097346	t dinosaurhelblack	-0.0052642366
-1.128359	dinosaurhelblack organ	-0.0052642366
-1.128359	commun organ	-0.0052642366
-1.4309173	organ facebook	-0.0052642366
-1.595302	blog daili	-0.0052642366
-1.128359	facebook daili	-0.0052642366
-1.4309173	daili dopamin	-0.0052642366
-1.1317092	dopamin fix	-0.0052642366
-1.1317092	fix meme	-0.0052642366
-1.6051941	becom vital	-0.0052642366
-1.1317092	vital tool	-0.0052642366
-1.1317092	tool convey	-0.0052642366
-1.1317092	convey margin	-0.0052642366
-1.1317092	margin narr	-0.0052642366
-1.1317092	narr exclud	-0.0052642366
-1.1317092	exclud mainstream	-0.0052642366
-2.8402998	<eos> proven	-0.0052642366
-1.1317092	proven invalu	-0.0052642366
-1.4309173	resourc intra	-0.0052642366
-1.1317092	intra commun	-0.0052642366
-1.4309173	organ mobil	-0.0052642366
-1.1317092	mobil baseokay	-0.0052642366
-1.1317092	baseokay earli	-0.0052642366
-1.1317092	earli today	-0.0052642366
-2.1955216	post queu	-0.0052642366
-1.6051941	commentari tag	-0.0052642366
-2.8402998	<eos> delet	-0.0052642366
-2.3787823	s kind	-0.0052642366
-1.4309173	kind late	-0.0052642366
-2.297751	it trigger	-0.0052642366
-1.1317092	trigger warn	-0.0052642366
-1.1317092	warn everyth	-0.0052642366
-2.11558	want reblog	-0.0052642366
-1.1317092	reblog simpli	-0.0052642366
-1.1317092	simpli graphic	-0.0052642366
-1.728326	so let	-0.0052642366
-1.900826	get fact	-0.0052642366
-1.1317092	fact straight	-0.0052642366
-1.728326	made comment	-0.0052642366
-2.1567652	peopl read	-0.0052642366
-1.128359	on read	-0.0052642366
-1.4309173	daili basi	-0.0052642366
-2.1655207	post talk	-0.0052642366
-1.7152398	need talk	-0.0052642366
-1.4309173	talk fear	-0.0052642366
-1.3894312	black women	-0.0052642366
-2.296613	s women	-0.0052642366
-1.126618	violenc women	-0.0052642366
-2.2625716	t stand	-0.0052642366
-1.128359	sole stand	-0.0052642366
-1.4309173	stand violenc	-0.0052642366
-1.728326	women especi	-0.0052642366
-1.728326	women sole	-0.0052642366
-1.3980358	black men	-0.0052642366
-2.7165666	<eos> mayb	-0.0052642366
-1.7152398	howev mayb	-0.0052642366
-2.1922	peopl mitt	-0.0052642366
-2.3097346	t understand	-0.0052642366
-1.1317092	understand came	-0.0052642366
-1.1317092	came inbox	-0.0052642366
-1.1317092	inbox right	-0.0052642366
-1.1317092	right cuss	-0.0052642366
-2.8402998	<eos> allow	-0.0052642366
-1.9449104	make clear	-0.0052642366
-1.7152398	part clear	-0.0052642366
-1.4309173	short sight	-0.0052642366
-2.8402998	<eos> apolog	-0.0052642366
-1.9323584	think said	-0.0052642366
-0.6999456	deal said	-0.0052642366
-1.5902199	aliv said	-0.0052642366
-1.9013088	m type	-0.0052642366
-1.9436113	like thi	-0.0052642366
-1.128359	long thi	-0.0052642366
-1.9436113	one thing	-0.0052642366
-1.128359	releas thing	-0.0052642366
-1.4309173	talk discourag	-0.0052642366
-1.728326	women hatr	-0.0052642366
-2.3787823	s uncommon	-0.0052642366
-2.11558	want encourag	-0.0052642366
-1.728326	way meant	-0.0052642366
-1.1317092	meant endors	-0.0052642366
-1.1317092	endors least	-0.0052642366
-1.4309173	thank understandknow	-0.0052642366
-1.900826	get ridicul	-0.0052642366
-1.6051941	tri fair	-0.0052642366
-1.6051941	decid ass	-0.0052642366
-1.4309173	administr done	-0.0052642366
-1.6051941	tri reach	-0.0052642366
-1.1317092	reach across	-0.0052642366
-1.1317092	across aisl	-0.0052642366
-1.6051941	never mind	-0.0052642366
-1.1317092	mind side	-0.0052642366
-1.728326	even attempt	-0.0052642366
-1.9659883	show bit	-0.0052642366
-1.1317092	bit profession	-0.0052642366
-1.6051941	decid long	-0.0052642366
-1.4309173	thi distract	-0.0052642366
-1.6051941	re gonna	-0.0052642366
-1.1317092	gonna releas	-0.0052642366
-1.4309173	thing longer	-0.0052642366
-1.4309173	kind sad	-0.0052642366
-1.9013088	m look	-0.0052642366
-1.7288128	georg w	-0.0052642366
-1.1317092	w bush	-0.0052642366
-2.3787823	s presid	-0.0052642366
-1.4309173	standard bearer	-0.0052642366
-1.1317092	bearer republican	-0.0052642366
-1.1317092	republican partii	-0.0052642366
-1.6051941	mostli record	-0.0052642366
-1.8234367	still reachstatement	-0.0052642366
-1.128359	reachstatement deal	-0.0052642366
-1.128359	protect deal	-0.0052642366
-1.728326	said sign	-0.0052642366
-1.1317092	sign measur	-0.0052642366
-1.6051941	may greater	-0.0052642366
-1.1317092	greater signific	-0.0052642366
-1.128359	signific student	-0.0052642366
-1.128359	target student	-0.0052642366
-1.9968225	go campu	-0.0052642366
-1.8072057	come campu	-0.0052642366
-1.6051941	may travel	-0.0052642366
-1.1317092	travel danger	-0.0052642366
-1.1317092	danger territori	-0.0052642366
-1.1317092	territori at	-0.0052642366
-1.9659883	time assail	-0.0052642366
-1.1317092	assail can	-0.0052642366
-1.4309173	do target	-0.0052642366
-1.900826	know full	-0.0052642366
-1.6051941	well victim	-0.0052642366
-1.1317092	victim permit	-0.0052642366
-1.128359	permit carri	-0.0052642366
-1.42427	weapon carri	-0.0052642366
-1.4309173	carri protect	-0.0052642366
-1.7152398	even weapon	-0.0052642366
-1.42427	campu weapon	-0.0052642366
-1.4309173	carri licens	-0.0052642366
-1.1317092	licens holder	-0.0052642366
-1.1317092	holder either	-0.0052642366
-1.4309173	weapon allowread	-0.0052642366
-1.1317092	allowread version	-0.0052642366
-1.128359	version stori	-0.0052642366
-1.42427	reveng stori	-0.0052642366
-1.4309173	actual felt	-0.0052642366
-1.128359	felt sorrier	-0.0052642366
-1.595302	feel sorrier	-0.0052642366
-1.4309173	sorrier friend	-0.0052642366
-1.1317092	friend philip	-0.0052642366
-1.128359	philip freeman	-0.0052642366
-1.42427	phillip freeman	-0.0052642366
-1.4309173	freeman anna	-0.0052642366
-1.1317092	anna hay	-0.0052642366
-2.1314921	<eos> feel	-0.2958288
-1.8717284	get feel	-0.0052642366
-1.126618	henc feel	-0.0052642366
-1.9659883	like classic	-0.0052642366
-1.9436113	like reveng	-0.0052642366
-1.128359	classic reveng	-0.0052642366
-1.6706462	knew father	-0.0052642366
-1.3985407	stori father	-0.0052642366
-1.3985407	off father	-0.0052642366
-1.3985407	moment father	-0.0052642366
-1.1151513	shame father	-0.0052642366
-1.3878082	read daughter	-0.0052642366
-1.7238758	father daughter	-0.0052642366
-1.7842479	daughter daughter	-0.0052642366
-1.1095295	relationship daughter	-0.0052642366
-1.1095295	racist daughter	-0.0052642366
-1.1095295	disown daughter	-0.0052642366
-1.900826	daughter disdain	-0.0052642366
-1.1317092	disdain relationship	-0.0052642366
-1.8234367	father racist	-0.0052642366
-1.900826	daughter date	-0.0052642366
-1.7152398	would piss	-0.0052642366
-1.42427	man piss	-0.0052642366
-0.70158803	piss off	-0.0052642366
-1.8234367	father becam	-0.0052642366
-1.1317092	becam furiou	-0.0052642366
-1.1317092	furiou disown	-0.0052642366
-1.900826	daughter shock	-0.0052642366
-1.6051941	world messag	-0.0052642366
-1.7085534	racism aliv	-0.0052642366
-2.296613	s aliv	-0.0052642366
-1.126618	much aliv	-0.0052642366
-1.4309173	in meantim	-0.0052642366
-2.1170068	black teen	-0.0052642366
-1.6051941	got name	-0.0052642366
-1.6051941	news unwillingli	-0.0052642366
-1.4309173	is she	-0.0052642366
-2.8402998	<eos> mean	-0.0052642366
-1.42427	sure phillip	-0.0052642366
-1.42427	sorrier phillip	-0.0052642366
-1.4309173	phillip share	-0.0052642366
-1.1317092	share screenshot	-0.0052642366
-1.8234367	come on	-0.0052642366
-2.3787823	s quot	-0.0052642366
-1.900826	get skin	-0.0052642366
-2.3787823	s import	-0.0052642366
-1.728326	racism much	-0.0052642366
-1.4309173	pictur privat	-0.0052642366
-1.9436113	one moment	-0.0052642366
-1.128359	privat moment	-0.0052642366
-2.022203	go shame	-0.0052642366
-2.3787823	s point	-0.0052642366
-1.1317092	point that	-0.0052642366
-2.8402998	<eos> yeah	-0.0052642366
-1.4309173	basic isn	-0.0052642366
-1.9659883	show hate	-0.0052642366
-2.1922	peopl blue	-0.0052642366
-1.4309173	reveng plot	-0.0052642366
-1.1317092	plot disgust	-0.0052642366
-1.1317092	disgust lesson	-0.0052642366
-2.8402998	<eos> henc	-0.0052642366
-1.4309173	freeman might	-0.0052642366
-1.728326	use pawn	-0.0052642366

\3-grams:
-1.0705893	use pawn </s>
-1.0705893	<s> oh boyday
-1.0662161	oh boyday sinc
-1.8479716	track <eos> sinc
-1.6272216	digit time sinc
-1.334268	boyday sinc post
-1.8677764	post <eos> post
-1.2334136	way along post
-1.0234432	s quick post
-1.334268	one video post
-1.0234432	earli today post
-1.0234432	post queu post
-1.0234432	<eos> delet post
-1.0234432	kind late post
-1.0234432	simpli graphic post
-1.0234432	short sight post
-1.0234432	s uncommon post
-0.6296389	sinc post <eos>
-0.6296389	along post <eos>
-0.6296389	graphic post <eos>
-0.872116	bodi slam <eos>
-1.169538	panel discuss <eos>
-0.872116	racism internet <eos>
-1.1428199	york time <eos>
-0.96273226	thought question <eos>
-0.9874324	answer question <eos>
-1.0091337	grand idea <eos>
-1.1184682	month come <eos>
-1.065329	work peopl <eos>
-1.065329	black peopl <eos>
-1.0091337	within space <eos>
-0.872116	q a <eos>
-1.0091337	tell do <eos>
-1.0091337	think to <eos>
-0.872116	make equal <eos>
-1.0091337	mainstream media <eos>
-1.2225986	make it <eos>
-1.2225986	get it <eos>
-0.872116	want feedback <eos>
-0.74022806	<eos> won <eos>
-0.72607636	it won <eos>
-1.0091337	come along <eos>
-0.872116	next timetopic <eos>
-0.872116	obama alon <eos>
-0.12025231	think rate <eos>
-0.12025231	highest rate <eos>
-0.12025231	best rate <eos>
-1.261522	noth you <eos>
-1.066454	longer news <eos>
-1.0367092	y all <eos>
-0.872116	hear themsorri <eos>
-0.872116	busi weekend <eos>
-1.066454	watch video <eos>
-0.872116	youtub now <eos>
-0.872116	<eos> wow <eos>
-0.9365678	birth mother <eos>
-0.9365678	kid mother <eos>
-0.872116	stuff blackout <eos>
-1.0091337	post up <eos>
-0.6002408	ran out <eos>
-0.6002408	cuss out <eos>
-1.0091337	hop track <eos>
-0.872116	suppli teacher <eos>
-0.872116	launch decemb <eos>
-0.872116	commentari tag <eos>
-0.872116	warn everyth <eos>
-1.0091337	part clear <eos>
-1.0982258	aliv said <eos>
-0.872116	women hatr <eos>
-0.872116	get ridicul <eos>
-0.872116	mind side <eos>
-0.872116	anna hay <eos>
-1.0367092	piss off <eos>
-1.066454	s aliv <eos>
-0.872116	get skin <eos>
-1.0091337	privat moment <eos>
-0.872116	point that <eos>
-0.872116	peopl blue <eos>
-0.872116	disgust lesson <eos>
-1.2184993	post <eos> i
-1.1643306	slam <eos> i
-1.1643306	along <eos> i
-1.2043107	out <eos> i
-1.7085453	t it i
-1.2638124	like say i
-1.0419353	someth bad i
-1.5447031	help one i
-1.0419353	mostli client i
-1.4399389	think said i
-1.0419353	kind sad i
-0.5299638	<eos> i m
-0.23223633	say i m
-0.23223633	bad i m
-0.23223633	one i m
-0.23223633	said i m
-0.23223633	sad i m
-1.0677123	republican partii m
-0.65226185	i m go
-1.0895318	partii m go
-1.5758553	last time go
-1.6875938	s like go
-1.8546013	what s go
-1.2798488	signific student go
-1.0514853	holder either go
-1.65401	quick post make
-1.7396194	m go make
-1.5905867	you ll make
-1.0466841	bring voic make
-1.2717565	s best make
-1.2717565	figur live make
-1.0466841	<eos> allow make
-1.8167074	m go ask
-1.6108856	go make ask
-1.0612501	next step ask
-1.0612501	s worth ask
-1.5154759	make ask googl
-1.0705893	ask googl bodi
-1.0705893	googl bodi slam
-0.30253112	<eos> i ll
-1.2032022	<eos> you ll
-1.1633196	day you ll
-1.7574544	time <eos> show
-1.6259627	i ll show
-1.6120943	shock want show
-1.0466841	seem devolv show
-1.0466841	even attempt show
-1.4990318	moment father show
-1.0466841	world messag show
-1.6433524	ll show result
-1.0705893	show result minutokay
-1.0705893	result minutokay went
-1.0662161	minutokay went panel
-1.4267848	go tumblr panel
-1.0662161	to paraphras panel
-0.836643	went panel discuss
-0.836643	tumblr panel discuss
-1.0563403	discuss art discuss
-1.0563403	film roundtabl discuss
-1.2880946	tackl racial discuss
-1.0563403	want encourag discuss
-1.7342854	panel discuss art
-1.6094158	messag show racism
-1.5798835	art discuss racism
-1.0612501	topic confront racism
-1.4176728	peopl see racism
-1.5154759	discuss racism internet
-1.7297738	discuss <eos> invit
-1.7297738	internet <eos> invit
-1.651782	time go tumblr
-1.3613833	<eos> invit tumblr
-1.5034027	updat part tumblr
-1.4368824	invit tumblr collab
-1.0705893	tumblr collab pb
-1.0705893	collab pb pov
-1.0662161	pb pov new
-1.3050715	howev mayb new
-1.0662161	s presid new
-1.4368824	pov new york
-1.0514853	new york time
-0.67416084	work ny time
-0.67416084	told ny time
-1.2798488	t give time
-1.2798488	at present time
-1.2798488	t last time
-1.3937072	digit digit time
-1.6326915	<eos> show short
-1.3076681	make clear short
-1.3126794	show short film
-1.0705893	short film roundtabl
-1.596496	roundtabl discuss work
-1.5034027	t even work
-1.0662161	across aisl work
-1.4311424	discuss work ny
-1.4302245	basic told ny
-1.7315147	ny time use
-1.4899464	blogger way use
-1.0612501	core subject use
-1.0612501	freeman might use
-1.5154759	time use platform
-1.4302245	time sinc launch
-1.0677123	use platform launch
-1.3126794	platform launch seriou
-1.0705893	launch seriou topic
-1.0705893	seriou topic confront
-1.4899464	confront racism take
-1.4154766	<eos> decid take
-1.0612501	wa lot take
-1.0612501	i ve take
-1.5154759	racism take documentari
-1.0705893	take documentari approach
-1.0705893	documentari approach oppos
-1.0705893	approach oppos click
-1.0705893	oppos click bait
-1.0705893	click bait rout
-1.0612501	bait rout so
-1.4899464	differ part so
-1.6228442	guid you so
-1.2965001	question link so
-1.5034027	rout so got
-1.4267848	person never got
-1.0662161	black teen got
-1.4368824	so got awkwardracequest
-1.0612501	got awkwardracequest part
-1.2965001	m updat part
-1.0612501	cover differ part
-1.4899464	least made part
-1.778377	ridicul <eos> get
-1.4642233	awkwardracequest part get
-1.5479981	knew would get
-1.698957	let s get
-1.0514853	thank understandknow get
-1.0514853	s quot get
-1.65401	<eos> post question
-1.5335491	part get question
-1.0466841	<eos> written question
-1.2717565	ask thought question
-1.4519113	thought good question
-0.93972445	sorta answer question
-0.93972445	save answer question
-1.0466841	ask detail question
-1.658153	get question hope
-1.3076681	deserv love hope
-1.3076681	question hope tackl
-1.4302245	use blog tackl
-1.3076681	hope tackl idea
-1.0677123	<eos> grand idea
-1.3126794	tackl idea month
-1.6149246	either go come
-1.3421075	<eos> invit come
-1.0563403	idea month come
-1.675672	white peopl come
-1.0563403	share screenshot come
-1.870464	come <eos> written
-1.6690798	written question whi
-1.7001297	to <eos> peopl
-1.3531914	mayb new peopl
-0.8234501	even work peopl
-0.8234501	aisl work peopl
-1.0325909	question whi peopl
-1.2313595	men black peopl
-1.2313595	hate black peopl
-1.3531914	show white peopl
-1.0325909	wrong seek peopl
-1.0325909	left offic peopl
-1.0325909	mostli record peopl
-1.0325909	s import peopl
-1.6388627	uncommon post want
-1.5682087	detail question want
-1.2961318	whi peopl want
-1.2961318	offic peopl want
-1.4399389	mayb way want
-1.5447031	someon like want
-1.4745646	don t want
-1.6789446	didn t want
-1.2638124	current live want
-1.0419353	daughter shock want
-1.8666165	peopl want tone
-1.0705893	want tone polic
-1.9239227	post <eos> black
-1.0325909	tone polic black
-1.248347	told experi black
-1.0325909	talk fear black
-1.248347	sole stand black
-1.0325909	women especi black
-1.2973585	black men black
-1.0325909	daughter date black
-1.0325909	in meantim black
-1.0325909	show hate black
-1.6965101	polic black space
-1.0677123	convers within space
-1.5075094	step ask thought
-1.3076681	black space thought
-1.2965001	space thought good
-1.2965001	overal present good
-1.4899464	tumblr need good
-1.0612501	day everyon good
-1.6690798	good question but
-1.0705893	question but q
-1.0705893	but q a
-1.8479716	a <eos> decid
-1.4267848	fair person decid
-1.0662161	bit profession decid
-1.7052764	i ll next
-1.5034027	decid take next
-1.6280503	even mother next
-1.4368824	take next step
-2.1277778	question <eos> summar
-1.8479716	feedback <eos> told
-1.0662161	<eos> summar told
-1.3050715	panel basic told
-1.4302245	summar told experi
-1.0677123	hagan drew experi
-1.7078681	experi black blogger
-1.0612501	black blogger way
-1.6094158	type think way
-1.2965001	discuss mental way
-1.2965001	<eos> mayb way
-1.5034027	way use blog
-1.0662161	well intern blog
-1.3050715	peopl read blog
-1.8555619	timetopic <eos> racial
-1.3076681	blog tackl racial
-1.6115057	racial discuss alway
-1.0705893	discuss alway seem
-1.0705893	alway seem devolv
-1.6272216	devolv show white
-1.5034027	is would white
-1.0662161	confid medicor white
-1.5705129	peopl come tell
-1.0677123	come tell do
-1.0677123	assail can do
-1.3748815	peopl <eos> howev
-1.3169056	do <eos> howev
-1.3169056	weekend <eos> howev
-1.5075094	time day howev
-1.637356	<eos> howev stuff
-1.0677123	gotta set stuff
-1.3076681	howev stuff actual
-1.3076681	version stori actual
-1.3126794	stuff actual convers
-1.0705893	actual convers within
-1.8479716	space <eos> problem
-1.7685702	u s problem
-1.0662161	<eos> whatev problem
-1.4302245	<eos> problem is
-1.60159	need know is
-1.3050715	problem is would
-1.0662161	so suggest would
-0.9538752	feel knew would
-0.9538752	she knew would
-1.4267848	would white person
-1.4267848	world becom person
-1.0662161	tri fair person
-1.4368824	white person treat
-1.0705893	person treat higher
-1.0705893	treat higher valu
-1.0705893	higher valu opinion
-1.0677123	valu opinion to
-1.8162937	t think to
-1.3126794	opinion to paraphras
-1.4311424	paraphras panel basic
-1.0677123	<eos> yeah basic
-1.7770644	ny time establish
-1.0705893	time establish brand
-1.0705893	establish brand thu
-1.0677123	brand thu bring
-1.0677123	yourself choos bring
-1.3126794	thu bring voic
-1.6435783	voic make equal
-1.870464	equal <eos> sadli
-1.0705893	<eos> sadli littl
-1.0705893	sadli littl annoy
-1.0612501	littl annoy answer
-1.0612501	it sorta answer
-1.0612501	realli satisfi answer
-1.0612501	good save answer
-1.5044937	annoy answer mostli
-1.5034027	updat day mostli
-1.3050715	leav here mostli
-1.4302245	answer mostli media
-1.0677123	exclud mainstream media
-1.3126794	mostli media outlet
-1.0705893	media outlet author
-1.0705893	outlet author power
-1.0705893	author power someon
-1.0563403	power someon like
-1.0547194	it s like
-1.5923114	men think like
-1.0563403	fix meme like
-0.29414687	<eos> feel like
-1.6886817	like want becom
-1.6272216	meme like becom
-1.4267848	children world becom
-1.4368824	want becom expert
-1.0705893	becom expert shouldn
-1.037238	expert shouldn t
-0.6689369	question wasn t
-0.6689369	in wasn t
-0.6689369	reput wouldn t
-0.6689369	pin wouldn t
-1.4354286	<eos> won t
-0.060458906	<eos> don t
-0.12710062	know don t
-0.12710062	mitt don t
-0.044536997	<eos> didn t
-0.091672175	straight didn t
-0.091672175	comment didn t
-0.091672175	apolog didn t
-1.037238	<eos> haven t
-1.037238	<eos> h t
-1.037238	basic isn t
-1.7723724	shouldn t for
-1.5454626	delet post it
-1.129293	news <eos> it
-1.129293	hatr <eos> it
-1.129293	skin <eos> it
-1.129293	moment <eos> it
-1.4566813	post make it
-1.4297957	<eos> get it
-1.4904199	way want it
-1.3073447	<eos> told it
-1.3731815	satisfi answer it
-1.6315203	wasn t it
-1.0100731	t for it
-1.3639721	post commentari it
-1.4297957	<eos> know it
-1.0100731	standard ala it
-1.2119341	mother sometim it
-1.2119341	like thi it
-1.0100731	talk discourag it
-0.25431374	post it s
-0.05298704	<eos> it s
-0.25431374	answer it s
-0.25431374	for it s
-0.25431374	know it s
-0.25431374	ala it s
-0.25431374	sometim it s
-0.25431374	thi it s
-0.25431374	discourag it s
-0.6689369	know what s
-0.6689369	father what s
-1.037238	outsid u s
-1.2560109	howev here s
-1.5339675	thattoday mother s
-1.037238	matter formwhat s
-1.037238	so let s
-1.037238	w bush s
-1.5051962	read daughter s
-2.350422	it s worth
-1.5154759	worth ask detail
-1.7073181	question want feedback
-1.7689031	told it sorta
-1.7973275	answer question wasn
-1.3076681	take in wasn
-1.963937	wasn t realli
-1.0705893	t realli satisfi
-1.7626231	s like say
-1.0677123	walk shirt say
-1.8913099	i m someth
-2.306662	it s someth
-1.3126794	m someth wrong
-1.0705893	someth wrong seek
-1.7353071	seek peopl stronger
-1.0705893	peopl stronger reput
-1.0677123	stronger reput wouldn
-1.0677123	fire pin wouldn
-1.9422867	wouldn t give
-1.3076681	lord pleas give
-1.6094158	give time day
-1.7441047	mother s day
-1.6094158	hope one day
-1.2965001	t updat day
-1.5154759	day howev overal
-1.0677123	howev overal present
-1.0677123	territori at present
-1.5154759	present good save
-1.8834957	question <eos> won
-1.8834957	it <eos> won
-1.7626383	want it won
-1.7583208	won t last
-1.0677123	physic revis last
-1.5614811	invit come along
-1.5075094	think way along
-1.4368824	ll next timetopic
-1.3126794	<eos> racial coursdear
-1.0705893	racial coursdear gossip
-1.0705893	coursdear gossip websit
-1.0677123	gossip websit pleas
-1.0677123	say lord pleas
-1.8548617	m go leav
-1.3076681	websit pleas leav
-1.3126794	pleas leav obama
-1.0705893	leav obama alon
-1.8754058	peopl <eos> don
-1.7133896	alon <eos> don
-1.596496	women know don
-1.0662161	peopl mitt don
-1.7163315	import peopl see
-1.8399712	t want see
-1.5034027	<eos> need see
-0.844404	want see pictur
-0.844404	need see pictur
-1.3700551	see pictur them
-1.0705893	pictur them moreso
-1.0677123	them moreso hear
-1.3076681	would love hear
-1.3426309	queu post commentari
-1.3426309	late post commentari
-1.3076681	moreso hear commentari
-1.4368824	hear commentari behavior
-1.778377	said <eos> know
-1.0514853	commentari behavior know
-1.0514853	instead of know
-1.4642233	unwillingli need know
-1.5479981	black women know
-1.2798488	target student know
-1.6115057	behavior know left
-1.0705893	know left offic
-1.8666165	peopl want put
-1.0705893	want put energi
-1.8754058	won <eos> instead
-1.7133896	side <eos> instead
-1.0662161	put energi instead
-1.0662161	ladi husband instead
-1.5154759	energi instead of
-1.60159	of know what
-1.5614811	shame father what
-1.651782	s go current
-1.0662161	hand slap current
-1.4267848	soon world current
-1.4302245	go current administr
-1.4302245	noth noth administr
-1.3126794	current administr how
-1.0705893	administr how examin
-1.0705893	how examin hand
-1.0705893	examin hand slap
-1.4368824	slap current first
-1.0705893	current first ladi
-1.0705893	first ladi husband
-0.3981421	didn t think
-1.4768944	husband instead think
-1.3421075	black men think
-1.0563403	m type think
-1.2880946	one thing think
-1.6272216	instead think rate
-1.0662161	ll highest rate
-1.3050715	<eos> best rate
-1.8607122	rate <eos> you
-1.8016384	mother <eos> you
-1.4642233	one day you
-1.3937072	want noth you
-1.0514853	life and you
-1.0514853	thank guid you
-1.0514853	thi distract you
-1.6806964	you ll highest
-2.228155	rate <eos> best
-2.306662	it s best
-2.2641535	rate <eos> biglilast
-1.0705893	<eos> biglilast week
-1.0662161	biglilast week news
-1.0662161	thing longer news
-1.0662161	got name news
-1.4368824	week news wa
-1.0705893	news wa lot
-1.5075094	lot take in
-1.4302245	aliv well in
-1.6935648	it i kinda
-1.0677123	i kinda hop
-1.0677123	sang hip hop
-1.3126794	kinda hop rapid
-1.0705893	hop rapid fire
-1.0705893	rapid fire pin
-1.4302245	presid new standard
-1.9422867	wouldn t standard
-1.3126794	t standard ala
-1.3126794	s someth bad
-1.5075094	go ask y
-1.7761627	formwhat s y
-0.680996	ask y all
-0.680996	s y all
-1.3643405	y all help
-1.4302245	produc tri help
-1.2717565	love hope one
-1.6651728	isn t one
-2.0710824	it s one
-1.2717565	all help one
-1.2717565	or watch one
-1.4769428	you re one
-1.0466841	one lucki one
-1.8913099	i m updat
-1.7583208	haven t updat
-1.8235132	aliv <eos> need
-1.4154766	part tumblr need
-1.6094158	thing think need
-1.0612501	news unwillingli need
-1.5075094	need good resourc
-1.0677123	proven invalu resourc
-1.3126794	good resourc outsid
-1.0705893	resourc outsid u
-1.4267848	s problem well
-1.0662161	know full well
-1.4267848	racism aliv well
-1.4368824	problem well intern
-1.4368824	intern blog similar
-1.0705893	blog similar mine
-1.0677123	similar mine cover
-1.3076681	digit track cover
-1.3126794	mine cover differ
-1.5154759	part so suggest
-1.5075094	suggest would love
-1.0677123	still deserv love
-1.3126794	love hear themsorri
-1.870464	themsorri <eos> busi
-1.0705893	<eos> busi weekend
-1.637356	<eos> howev here
-1.3076681	go leav here
-1.7910694	here s quick
-2.1277778	it <eos> saw
-1.0705893	<eos> saw woman
-1.0705893	saw woman walk
-1.0705893	woman walk shirt
-1.3126794	shirt say lord
-1.3126794	pleas give strength
-1.0705893	give strength confid
-1.0705893	strength confid medicor
-1.6965101	date black man
-1.4302245	medicor white man
-1.3126794	white man laugh
-1.0705893	man laugh loud
-1.0705893	laugh loud took
-1.0705893	loud took compliment
-1.0705893	took compliment wholeheartedliurbanetid
-1.0705893	compliment wholeheartedliurbanetid repli
-1.658153	post question link
-1.0677123	wholeheartedliurbanetid repli link
-1.3076681	repli link youtub
-1.4302245	sotomayor video youtub
-1.3126794	link youtub remov
-1.0705893	youtub remov tommi
-1.0705893	remov tommi sotomayor
-1.6272216	watch one video
-1.0662161	tommi sotomayor video
-1.3050715	<eos> watch video
-1.3126794	video youtub now
-1.8555619	now <eos> watch
-1.3076681	basi or watch
-1.870464	video <eos> wow
-1.870464	wow <eos> grand
-1.6953152	idea <eos> didn
-1.6953152	everyth <eos> didn
-1.0612501	fact straight didn
-1.0612501	made comment didn
-1.0612501	<eos> apolog didn
-1.8326709	t think thattoday
-1.5599998	lucki one mother
-1.0466841	think thattoday mother
-1.0466841	histori birth mother
-1.4561756	never knew mother
-1.0466841	still face mother
-1.0466841	goe kid mother
-1.4519113	support even mother
-1.5154759	s day everyon
-1.5154759	everyon good histori
-1.0705893	good histori birth
-2.1011906	mother <eos> sometim
-1.6333183	face mother sometim
-1.3050715	<eos> sometim may
-1.0662161	sign measur may
-1.3050715	go campu may
-1.4368824	sometim may abus
-1.60159	encourag discuss mental
-1.0677123	may abus mental
-1.3076681	abus mental physic
-1.0677123	struggl gcse physic
-1.3126794	mental physic emot
-1.0705893	physic emot there
-1.8796843	work peopl never
-1.4267848	becom person never
-1.0662161	emot there never
-1.4154766	there never knew
-1.4154766	get feel knew
-1.5798835	relationship daughter knew
-1.0612501	is she knew
-1.6435783	knew mother taken
-1.0705893	mother taken away
-1.0705893	taken away soon
-1.6272216	want show world
-1.0662161	away soon world
-1.0662161	bring children world
-1.4302245	world current live
-1.0677123	mother figur live
-1.6886817	live want noth
-1.4267848	ass noth noth
-1.0662161	decid ass noth
-1.870464	you <eos> whatev
-1.4302245	whatev problem or
-1.0677123	daili basi or
-1.675672	record peopl still
-1.2880946	problem or still
-1.5034542	you re still
-1.0563403	still valid still
-1.0563403	take care still
-1.5705129	or still face
-1.1650561	ll make peac
-1.1650561	best make peac
-1.3700551	make peac yourself
-1.0705893	peac yourself choos
-1.3126794	choos bring children
-1.4368824	never got life
-1.0705893	got life and
-0.49479002	<eos> you re
-0.48669142	and you re
-0.48669142	distract you re
-1.6433524	re one lucki
-1.6435783	one mother figur
-1.6333183	live make sure
-1.0677123	<eos> mean sure
-1.8555619	clear <eos> thank
-1.3076681	make sure thank
-1.3126794	sure thank guid
-1.5154759	you so goe
-1.0705893	so goe kid
-1.5705129	re still valid
-1.5705129	valid still deserv
-1.3700551	make peac leader
-1.0705893	peac leader support
-2.014563	don t even
-1.5793962	<eos> instead even
-1.0612501	leader support even
-1.5793962	deal said even
-1.4368824	mother next gener
-1.0705893	next gener matter
-1.0705893	gener matter formwhat
-1.870464	all <eos> haven
-1.4368824	day mostli client
-1.6935648	client i ve
-1.5154759	ve take care
-1.5705129	care still gotta
-1.0705893	still gotta set
-1.3126794	set stuff blackout
-1.870464	blackout <eos> normal
-1.0705893	<eos> normal queue
-1.7259159	sight post up
-1.0677123	normal queue up
-1.3126794	queue up ran
-1.0677123	up ran out
-1.0677123	right cuss out
-1.7246552	i ll back
-1.0705893	ll back mondayanyon
-1.0705893	back mondayanyon surpris
-1.0705893	mondayanyon surpris thosaw
-1.0705893	surpris thosaw son
-1.0705893	thosaw son struggl
-1.0705893	son struggl gcse
-1.3126794	gcse physic revis
-1.3126794	revis last year
-1.4154766	<eos> sinc georg
-1.2965001	tri help georg
-1.0612501	last year georg
-1.0612501	m look georg
-1.5157704	year georg hammond
-1.0705893	georg hammond hagan
-1.0705893	hammond hagan drew
-1.3126794	drew experi music
-1.0705893	experi music produc
-1.5959897	<eos> instead tri
-1.0662161	music produc tri
-1.0662161	administr done tri
-2.2318265	didn t made
-0.9538752	sinc georg made
-0.9538752	help georg made
-1.0662161	endors least made
-1.6109817	georg made song
-1.0705893	made song inform
-1.0705893	song inform syllabu
-1.0705893	inform syllabu sang
-1.0705893	syllabu sang hip
-1.3076681	hip hop track
-1.4302245	made digit track
-1.5959897	georg made digit
-1.4267848	nearli digit digit
-1.0662161	download nearli digit
-1.3126794	track cover core
-1.0705893	cover core subject
-1.5154759	subject use content
-1.0705893	use content suppli
-1.0705893	content suppli teacher
-1.870464	teacher <eos> app
-1.0705893	<eos> app call
-1.0705893	app call studytrack
-1.0705893	call studytrack download
-1.0705893	studytrack download nearli
-1.3126794	sinc launch decemb
-1.870464	decemb <eos> h
-1.7723724	h t dinosaurhelblack
-1.0677123	t dinosaurhelblack organ
-1.0677123	intra commun organ
-1.3126794	dinosaurhelblack organ facebook
-1.4302245	read blog daili
-1.0677123	organ facebook daili
-1.3126794	facebook daili dopamin
-1.0705893	daili dopamin fix
-1.0705893	dopamin fix meme
-1.4368824	like becom vital
-1.0705893	becom vital tool
-1.0705893	vital tool convey
-1.0705893	tool convey margin
-1.0705893	convey margin narr
-1.0705893	margin narr exclud
-1.0705893	narr exclud mainstream
-1.870464	media <eos> proven
-1.0705893	<eos> proven invalu
-1.3126794	invalu resourc intra
-1.0705893	resourc intra commun
-1.3126794	commun organ mobil
-1.0705893	organ mobil baseokay
-1.0705893	mobil baseokay earli
-1.0705893	baseokay earli today
-1.7364503	today post queu
-1.5150558	post commentari tag
-1.870464	tag <eos> delet
-1.0665745	it s kind
-1.3700551	s kind late
-1.7689031	commentari it trigger
-1.0705893	it trigger warn
-1.0705893	trigger warn everyth
-1.8666165	t want reblog
-1.0705893	want reblog simpli
-1.0705893	reblog simpli graphic
-1.5154759	link so let
-1.6115057	s get fact
-1.0705893	get fact straight
-1.5154759	t made comment
-1.7227521	<eos> peopl read
-1.0677123	come on read
-1.3126794	blog daili basi
-1.7259159	video post talk
-1.5075094	think need talk
-1.3126794	post talk fear
-1.2810988	fear black women
-1.2810988	especi black women
-2.2854314	it s women
-1.0662161	stand violenc women
-2.0752456	don t stand
-1.0677123	women sole stand
-1.3126794	t stand violenc
-1.5154759	violenc women especi
-1.6109817	black women sole
-1.2877078	<eos> black men
-1.2877078	stand black men
-2.1011906	won <eos> mayb
-1.637356	<eos> howev mayb
-1.7353071	new peopl mitt
-2.104921	don t understand
-1.0705893	t understand came
-1.0705893	understand came inbox
-1.0705893	came inbox right
-1.0705893	inbox right cuss
-2.1277778	out <eos> allow
-1.6333183	allow make clear
-1.5075094	made part clear
-1.3126794	clear short sight
-1.870464	up <eos> apolog
-1.807973	t think said
-0.67944837	reachstatement deal said
-0.67944837	protect deal said
-1.4267848	much aliv said
-1.9068621	i m type
-1.6326915	think like thi
-1.0677123	decid long thi
-1.6326915	s one thing
-1.0677123	gonna releas thing
-1.3126794	need talk discourag
-1.5154759	s women hatr
-2.350422	it s uncommon
-1.7073181	post want encourag
-1.5154759	mental way meant
-1.0705893	way meant endors
-1.0705893	meant endors least
-1.3126794	<eos> thank understandknow
-1.6115057	understandknow get ridicul
-1.4368824	instead tri fair
-1.4368824	person decid ass
-1.3126794	noth administr done
-1.4368824	done tri reach
-1.0705893	tri reach across
-1.0705893	reach across aisl
-1.4368824	peopl never mind
-1.0705893	never mind side
-1.5154759	instead even attempt
-1.6433524	attempt show bit
-1.0705893	show bit profession
-1.4368824	profession decid long
-1.3126794	long thi distract
-1.5445877	you re gonna
-1.0705893	re gonna releas
-1.3126794	releas thing longer
-1.3700551	s kind sad
-1.9068621	i m look
-1.5157704	look georg w
-1.0705893	georg w bush
-1.7910694	bush s presid
-1.3126794	new standard bearer
-1.0705893	standard bearer republican
-1.0705893	bearer republican partii
-1.4368824	here mostli record
-1.5705129	peopl still reachstatement
-1.0677123	still reachstatement deal
-1.0677123	carri protect deal
-1.6109817	deal said sign
-1.0705893	said sign measur
-1.4368824	measur may greater
-1.0705893	may greater signific
-1.0677123	greater signific student
-1.0677123	do target student
-1.6575723	student go campu
-1.5614811	go come campu
-1.4368824	campu may travel
-1.0705893	may travel danger
-1.0705893	travel danger territori
-1.0705893	danger territori at
-1.6433524	present time assail
-1.0705893	time assail can
-1.3126794	can do target
-1.6115057	student know full
-1.4368824	full well victim
-1.0705893	well victim permit
-1.0677123	victim permit carri
-1.3076681	even weapon carri
-1.3126794	permit carri protect
-1.5075094	said even weapon
-1.3076681	come campu weapon
-1.3126794	weapon carri licens
-1.0705893	carri licens holder
-1.0705893	licens holder either
-1.3126794	campu weapon allowread
-1.0705893	weapon allowread version
-1.0677123	allowread version stori
-1.3076681	classic reveng stori
-1.3126794	stori actual felt
-1.0677123	actual felt sorrier
-1.4302245	henc feel sorrier
-1.3126794	felt sorrier friend
-1.0705893	sorrier friend philip
-1.0677123	friend philip freeman
-1.3076681	sorrier phillip freeman
-1.3126794	philip freeman anna
-1.0705893	freeman anna hay
-1.7133896	hay <eos> feel
-1.7133896	blue <eos> feel
-1.596496	quot get feel
-1.0662161	<eos> henc feel
-1.7770644	feel like classic
-1.7626231	feel like reveng
-1.0677123	like classic reveng
-1.479663	daughter knew father
-1.2880946	reveng stori father
-1.3421075	piss off father
-1.2880946	one moment father
-1.0563403	go shame father
-1.2798488	on read daughter
-1.5127772	stori father daughter
-1.5484513	disown daughter daughter
-1.0514853	disdain relationship daughter
-1.0514853	father racist daughter
-1.0514853	furiou disown daughter
-1.6115057	father daughter disdain
-1.0705893	daughter disdain relationship
-1.5705129	knew father racist
-1.6115057	racist daughter date
-1.6010778	knew would piss
-1.3076681	black man piss
-0.680996	would piss off
-0.680996	man piss off
-1.5705129	off father becam
-1.0705893	father becam furiou
-1.0705893	becam furiou disown
-1.6115057	daughter daughter shock
-1.4368824	show world messag
-1.5034027	show racism aliv
-2.2854314	it s aliv
-1.0662161	racism much aliv
-1.3126794	well in meantim
-1.7078681	meantim black teen
-1.4368824	teen got name
-1.4368824	name news unwillingli
-1.3126794	know is she
-1.870464	off <eos> mean
-1.3076681	mean sure phillip
-1.3076681	feel sorrier phillip
-1.3126794	sure phillip share
-1.0705893	phillip share screenshot
-1.5705129	screenshot come on
-1.7910694	daughter s quot
-1.6115057	would get skin
-2.350422	it s import
-1.5154759	see racism much
-1.3700551	see pictur privat
-1.6326915	t one moment
-1.0677123	pictur privat moment
-1.6688702	like go shame
-1.9933575	what s point
-1.0705893	s point that
-1.870464	that <eos> yeah
-1.3126794	yeah basic isn
-1.6433524	father show hate
-1.9076087	black peopl blue
-1.3126794	like reveng plot
-1.0705893	reveng plot disgust
-1.0705893	plot disgust lesson
-1.870464	lesson <eos> henc
-1.3126794	phillip freeman might
-1.5154759	might use pawn

\end\
