\data\
ngram 1=671
ngram 2=1321
ngram 3=1440

\1-grams:
-0.3351617	<unk>
-inf	<s>	-0.04276295
-3.6496842	</s>
-3.0084815	sell	-0.04276295
-2.7600346	almost	-0.04276295
-3.6496842	brand	-0.04276295
-2.6029878	new	-0.04276295
-3.6496842	ipad	-0.04276295
-3.0749319	air	-0.04276295
-1.7536317	digit	-0.12798978
-3.6496842	gb	-0.04276295
-1.2108366	<eos>	-0.14493735
-2.6029878	sign	-0.07043722
-2.0679991	book	-0.052445438
-3.0749319	taker	-0.115565285
-3.6496842	messag	-0.04276295
-2.7600346	interest	-0.04276295
-3.6496842	put	-0.04276295
-3.6496842	feeler	-0.04276295
-2.2020628	would	-0.103116296
-2.487894	like	-0.04276295
-3.6496842	daili	-0.04276295
-3.0749319	haiku	-0.04276295
-2.2020628	love	-0.062348694
-3.0749319	actual	-0.04276295
-3.6496842	form	-0.04276295
-2.7600346	someth	-0.04276295
-3.6496842	hold	-0.04276295
-3.0749319	think	-0.04276295
-3.0084815	fun	-0.04276295
-3.6496842	handwritten	-0.04276295
-3.0749319	text	-0.04276295
-3.0084815	mayb	-0.04276295
-2.7600346	even	-0.04276295
-3.0749319	photograph	-0.04276295
-2.7600346	wonder	-0.04276295
-3.0749319	enough	-0.04276295
-3.6496842	pursu	-0.04276295
-1.9088364	it	-0.2122608
-2.1526322	s	-0.04276295
-2.3969998	i	-0.16388348
-3.0749319	d	-0.09999571
-2.487894	make	-0.04276295
-2.487894	let	-0.065700635
-3.0084815	know	-0.04276295
-3.0749319	comment	-0.04276295
-3.6496842	pleasgotten	-0.04276295
-3.6496842	hundr	-0.04276295
-2.487894	email	-0.065700635
-2.3969998	ask	-0.04276295
-3.0084815	peopl	-0.04276295
-3.6496842	bookplat	-0.04276295
-3.0749319	chaser	-0.08991766
-3.0749319	light	-0.04276295
-3.6496842	are	-0.04276295
-3.6496842	avoid	-0.04276295
-2.487894	answer	-0.04276295
-3.0084815	mani	-0.08991766
-2.6029878	time	-0.065700635
-3.6496842	penguin	-0.04276295
-2.6029878	ship	-0.04276295
-3.6496842	separ	-0.04276295
-3.0749319	begin	-0.04276295
-3.6496842	minut	-0.04276295
-3.0749319	cannot	-0.04276295
-3.6496842	packag	-0.04276295
-3.0084815	insid	-0.04276295
-2.487894	order	-0.04276295
-3.6496842	amazon	-0.04276295
-3.6496842	barn	-0.04276295
-3.6496842	nobl	-0.04276295
-3.6496842	a	-0.04276295
-3.6496842	million	-0.04276295
-2.7600346	thank	-0.059851635
-3.6496842	patient	-0.04276295
-3.0749319	stay	-0.04276295
-3.6496842	tune	-0.04276295
-2.6029878	find	-0.04276295
-3.6496842	soonhello	-0.04276295
-2.487894	friend	-0.065700635
-2.487894	need	-0.065700635
-2.3969998	help	-0.13345791
-3.0084815	come	-0.04276295
-3.6496842	soon	-0.04276295
-3.0749319	publish	-0.04276295
-2.1526322	want	-0.05512401
-3.0084815	abl	-0.04276295
-2.487894	way	-0.065700635
-3.6496842	display	-0.04276295
-3.0084815	link	-0.04276295
-3.0749319	buy	-0.04276295
-3.0084815	tumblr	-0.04276295
-2.7600346	page	-0.04276295
-2.6029878	best	-0.04276295
-3.0084815	theme	-0.04276295
-3.0084815	so	-0.04276295
-2.7600346	here	-0.115565285
-3.6496842	m	-0.04276295
-3.6496842	fix	-0.04276295
-3.0749319	sidebar	-0.04276295
-3.6496842	left	-0.04276295
-3.0749319	grid	-0.04276295
-3.6496842	layout	-0.04276295
-3.0084815	content	-0.08991766
-3.6496842	area	-0.04276295
-3.0084815	instagram	-0.08991766
-3.0749319	twitter	-0.04276295
-3.6496842	feed	-0.04276295
-3.0749319	integr	-0.04276295
-3.6496842	custom	-0.04276295
-3.6496842	option	-0.04276295
-3.6496842	color	-0.04276295
-3.6496842	background	-0.04276295
-3.0749319	imag	-0.04276295
-3.0084815	etc	-0.3460436
-3.0084815	look	-0.04276295
-3.6496842	strand	-0.04276295
-3.6496842	ha	-0.04276295
-3.6496842	whoever	-0.04276295
-3.6496842	end	-0.04276295
-3.0749319	receiv	-0.04276295
-3.6496842	two	-0.04276295
-3.0749319	free	-0.115565285
-2.2020628	typewrit	-0.16815087
-2.487894	print	-0.04276295
-3.6496842	choic	-0.04276295
-3.0084815	olymp	-0.08991766
-3.0749319	full	-0.04276295
-3.6496842	swing	-0.04276295
-3.0084815	now	-0.04276295
-3.0749319	made	-0.04276295
-3.0084815	anyon	-0.04276295
-3.6496842	team	-0.04276295
-3.6496842	randomli	-0.04276295
-2.7600346	follow	-0.04276295
-2.487894	littl	-0.04276295
-3.0749319	websit	-0.04276295
-3.0084815	ll	-0.04276295
-3.6496842	cheer	-0.04276295
-3.6496842	regardless	-0.04276295
-3.6496842	happen	-0.04276295
-2.6029878	one	-0.04276295
-3.6496842	watch	-0.04276295
-3.6496842	closer	-0.04276295
-3.6496842	root	-0.04276295
-3.6496842	harder	-0.04276295
-3.6496842	anyonanyon	-0.04276295
-2.3969998	get	-0.04276295
-3.6496842	marri	-0.04276295
-3.6496842	scotland	-0.04276295
-3.6496842	ireland	-0.04276295
-3.0749319	anywher	-0.04276295
-3.6496842	europ	-0.04276295
-2.3969998	we	-0.2353974
-3.6496842	scottish	-0.04276295
-3.6496842	irish	-0.04276295
-2.3218758	wed	-0.04276295
-3.6496842	start	-0.04276295
-3.6496842	if	-0.04276295
-3.0084815	photographi	-0.07043722
-3.0749319	compani	-0.04276295
-3.0749319	treehous	-0.115565285
-3.6496842	itchin	-0.04276295
-3.6496842	portfolio	-0.04276295
-3.0084815	will	-0.04276295
-3.0084815	offer	-0.04276295
-3.6496842	hell	-0.04276295
-3.6496842	deal	-0.04276295
-2.3218758	you	-0.12239337
-2.7600346	re	-0.04276295
-3.6496842	seriou	-0.04276295
-3.0084815	today	-0.04276295
-3.0084815	see	-0.04276295
-3.0749319	what	-0.04276295
-3.6496842	oh	-0.04276295
-3.6496842	total	-0.04276295
-2.7600346	write	-0.04276295
-2.2578506	poem	-0.11374034
-3.6496842	usfound	-0.04276295
-3.0749319	dream	-0.04276295
-2.7600346	year	-0.04276295
-3.0084815	back	-0.04276295
-3.0749319	laugh	-0.04276295
-2.487894	thought	-0.065700635
-3.6496842	may	-0.04276295
-3.0749319	too	-0.04276295
-2.7600346	velociraptor	-0.04276295
-3.0084815	peanut	-0.3460436
-3.6496842	butter	-0.04276295
-3.0084815	last	-0.04276295
-3.6496842	night	-0.04276295
-3.6496842	trap	-0.04276295
-3.6496842	basebal	-0.04276295
-3.0749319	stadium	-0.04276295
-3.6496842	off	-0.04276295
-3.6496842	season	-0.04276295
-3.0749319	tri	-0.04276295
-3.6496842	eat	-0.04276295
-2.487894	me	-0.16845061
-3.6496842	macgyv	-0.04276295
-3.6496842	fight	-0.04276295
-3.6496842	defeat	-0.04276295
-3.6496842	ingeni	-0.04276295
-3.0749319	method	-0.04276295
-3.6496842	includ	-0.04276295
-3.6496842	mix	-0.04276295
-3.6496842	strong	-0.04276295
-3.6496842	adhes	-0.04276295
-3.6496842	jar	-0.04276295
-3.0749319	leav	-0.04276295
-3.6496842	dinosaur	-0.04276295
-3.6496842	kill	-0.04276295
-3.6496842	rd	-0.04276295
-3.6496842	retreat	-0.04276295
-3.6496842	roof	-0.04276295
-3.6496842	th	-0.04276295
-3.0084815	found	-0.04276295
-3.6496842	whereupon	-0.04276295
-3.6496842	turn	-0.04276295
-3.6496842	angelina	-0.04276295
-3.6496842	joli	-0.04276295
-3.6496842	apolog	-0.04276295
-3.6496842	scare	-0.04276295
-3.6496842	wowhello	-0.04276295
-2.6029878	amaz	-0.04276295
-2.3969998	question	-0.04276295
-3.6496842	leisur	-0.04276295
-3.6496842	place	-0.04276295
-3.6496842	onlin	-0.04276295
-2.6029878	t	-0.04276295
-3.0084815	shirt	-0.04276295
-3.6496842	everyth	-0.04276295
-3.6496842	percentag	-0.04276295
-3.0749319	good	-0.04276295
-3.6496842	american	-0.04276295
-3.6496842	apparel	-0.04276295
-2.7600346	upload	-0.07764037
-3.6496842	design	-0.04276295
-3.0084815	whilst	-0.04276295
-2.6029878	still	-0.07043722
-3.6496842	halfway	-0.04276295
-3.6496842	decent	-0.04276295
-3.0749319	chanc	-0.04276295
-3.6496842	return	-0.04276295
-3.6496842	kindl	-0.04276295
-3.6496842	fire	-0.04276295
-3.6496842	hd	-0.04276295
-3.6496842	month	-0.04276295
-2.6029878	old	-0.04276295
-3.0084815	ve	-0.04276295
-2.487894	never	-0.04276295
-2.2578506	use	-0.04276295
-3.6496842	home	-0.04276295
-3.6496842	throw	-0.04276295
-3.6496842	bought	-0.04276295
-3.6496842	case	-0.04276295
-3.6496842	serious	-0.04276295
-3.6496842	thetypewriterpoet	-0.04276295
-3.6496842	gmail	-0.04276295
-3.0084815	com	-0.07764037
-3.6496842	anyonseem	-0.04276295
-3.0749319	caus	-0.04276295
-3.0749319	confus	-0.04276295
-3.6496842	sad	-0.04276295
-2.7600346	show	-0.04276295
-3.6496842	natur	-0.04276295
-3.0749319	thing	-0.04276295
-3.6496842	occur	-0.04276295
-3.6496842	internet	-0.04276295
-2.7600346	origin	-0.04276295
-2.7600346	post	-0.04276295
-3.0749319	ago	-0.04276295
-2.7600346	day	-0.07043722
-3.0084815	url	-0.04276295
-2.7600346	well	-0.04276295
-3.6496842	correspond	-0.04276295
-3.6496842	tweet	-0.04276295
-3.6496842	went	-0.04276295
-3.6496842	somehow	-0.04276295
-3.6496842	goodread	-0.04276295
-3.0749319	someon	-0.04276295
-3.6496842	misquot	-0.04276295
-3.6496842	belong	-0.04276295
-3.0084815	poet	-0.04276295
-3.6496842	derrick	-0.04276295
-3.6496842	brown	-0.04276295
-3.0749319	accus	-0.04276295
-3.6496842	constantli	-0.04276295
-3.0749319	artist	-0.04276295
-3.6496842	steal	-0.04276295
-3.0084815	work	-0.07764037
-3.0749319	ever	-0.04276295
-3.6496842	offens	-0.04276295
-3.6496842	except	-0.04276295
-3.6496842	music	-0.04276295
-3.6496842	random	-0.04276295
-3.6496842	quotat	-0.04276295
-3.6496842	chariti	-0.04276295
-3.6496842	reblog	-0.04276295
-3.0749319	site	-0.04276295
-3.6496842	attempt	-0.04276295
-3.6496842	keep	-0.04276295
-3.6496842	complet	-0.04276295
-3.0749319	alway	-0.04276295
-3.6496842	have	-0.04276295
-3.6496842	stood	-0.04276295
-3.6496842	attack	-0.04276295
-3.6496842	sorri	-0.04276295
-3.6496842	quick	-0.04276295
-3.6496842	jump	-0.04276295
-3.6496842	overboard	-0.04276295
-3.6496842	sink	-0.04276295
-3.0749319	with	-0.115565285
-3.6496842	address	-0.04276295
-3.6496842	ideahello	-0.04276295
-2.7600346	everyon	-0.04276295
-3.0084815	enter	-0.04276295
-3.0084815	first	-0.04276295
-3.6496842	annual	-0.04276295
-3.0084815	contest	-0.04276295
-3.6496842	giveaway	-0.04276295
-3.6496842	entri	-0.04276295
-3.6496842	world	-0.04276295
-2.7600346	read	-0.07764037
-2.487894	everi	-0.08991766
-3.0749319	stori	-0.04276295
-3.0749319	probabl	-0.04276295
-3.6496842	couldn	-0.04276295
-3.6496842	alreadi	-0.04276295
-3.6496842	final	-0.04276295
-3.6496842	chose	-0.04276295
-3.0084815	winner	-0.04276295
-3.6496842	perfectli	-0.04276295
-3.6496842	schedul	-0.04276295
-3.0084815	happi	-0.04276295
-3.6496842	proud	-0.04276295
-3.6496842	announc	-0.04276295
-3.6496842	katherin	-0.04276295
-3.6496842	john	-0.04276295
-3.6496842	tie	-0.04276295
-3.6496842	knot	-0.04276295
-3.6496842	kitsap	-0.04276295
-3.6496842	peninsula	-0.04276295
-3.6496842	island	-0.04276295
-3.0084815	outsid	-0.04276295
-3.6496842	seattl	-0.04276295
-3.6496842	washington	-0.04276295
-3.6496842	side	-0.04276295
-3.6496842	note	-0.04276295
-3.6496842	talk	-0.04276295
-2.6029878	us	-0.04276295
-3.6496842	shoot	-0.04276295
-3.0749319	discount	-0.04276295
-3.6496842	win	-0.04276295
-3.6496842	hate	-0.04276295
-3.6496842	hey	-0.04276295
-3.6496842	doesn	-0.04276295
-3.6496842	hurt	-0.04276295
-3.6496842	again	-0.04276295
-3.6496842	humbl	-0.04276295
-3.0749319	move	-0.04276295
-3.6496842	respons	-0.04276295
-3.6496842	choos	-0.04276295
-3.6496842	difficult	-0.04276295
-3.6496842	doleav	-0.04276295
-3.6496842	curtain	-0.04276295
-3.6496842	close	-0.04276295
-3.6496842	dog	-0.04276295
-3.0749319	run	-0.04276295
-3.6496842	pete	-0.04276295
-3.6496842	dragon	-0.04276295
-3.6496842	radline	-0.04276295
-3.0749319	the	-0.04276295
-3.6496842	hobbit	-0.04276295
-3.6496842	sum	-0.04276295
-3.6496842	up	-0.04276295
-3.6496842	he	-0.04276295
-3.6496842	gentl	-0.04276295
-3.6496842	soul	-0.04276295
-3.6496842	prefer	-0.04276295
-3.6496842	anim	-0.04276295
-3.6496842	otherhello	-0.04276295
-3.6496842	gotten	-0.04276295
-3.6496842	box	-0.04276295
-3.6496842	figur	-0.04276295
-3.6496842	vari	-0.04276295
-3.6496842	basic	-0.04276295
-3.6496842	along	-0.04276295
-3.6496842	line	-0.04276295
-3.6496842	how	-0.04276295
-3.6496842	seri	-0.04276295
-3.6496842	app	-0.04276295
-3.0749319	iphon	-0.04276295
-3.0749319	comput	-0.04276295
-3.6496842	program	-0.04276295
-3.6496842	vintag	-0.04276295
-3.0749319	templat	-0.04276295
-3.6496842	font	-0.04276295
-3.6496842	all	-0.04276295
-3.6496842	remington	-0.04276295
-3.6496842	rand	-0.04276295
-3.6496842	seventeen	-0.04276295
-3.6496842	piec	-0.04276295
-3.0749319	paper	-0.04276295
-3.0749319	type	-0.115565285
-3.0749319	scan	-0.04276295
-3.6496842	save	-0.04276295
-3.6496842	photoshop	-0.04276295
-3.6496842	hope	-0.04276295
-3.6496842	helphello	-0.04276295
-3.6496842	folk	-0.04276295
-3.6496842	thi	-0.04276295
-3.6496842	call	-0.04276295
-3.6496842	arm	-0.04276295
-3.0084815	of	-0.04276295
-3.6496842	displeas	-0.04276295
-3.0749319	host	-0.04276295
-3.6496842	rebuild	-0.04276295
-3.6496842	function	-0.04276295
-3.6496842	same	-0.04276295
-3.6496842	entir	-0.04276295
-3.6496842	html	-0.04276295
-3.6496842	instead	-0.04276295
-3.6496842	flash	-0.04276295
-3.0749319	better	-0.04276295
-3.0749319	seo	-0.04276295
-3.6496842	purpos	-0.04276295
-3.6496842	current	-0.04276295
-3.6496842	bludomain	-0.04276295
-3.6496842	down	-0.04276295
-3.0749319	dig	-0.04276295
-3.6496842	don	-0.04276295
-3.6496842	allow	-0.04276295
-3.6496842	organ	-0.04276295
-3.6496842	squarespac	-0.04276295
-3.6496842	cup	-0.04276295
-3.6496842	tea	-0.04276295
-3.6496842	pleas	-0.04276295
-3.0749319	contact	-0.04276295
-3.6496842	discuss	-0.04276295
-3.6496842	compens	-0.04276295
-3.0749319	idea	-0.04276295
-3.6496842	youhello	-0.04276295
-3.0749319	purchas	-0.04276295
-3.6496842	condit	-0.04276295
-3.6496842	verizon	-0.04276295
-3.6496842	network	-0.04276295
-3.6496842	factori	-0.04276295
-3.6496842	reset	-0.04276295
-3.6496842	believ	-0.04276295
-3.6496842	readi	-0.04276295
-3.0084815	go	-0.04276295
-3.6496842	notic	-0.04276295
-3.6496842	ebay	-0.04276295
-3.6496842	around	-0.04276295
-3.6496842	via	-0.04276295
-3.6496842	interestanyon	-0.04276295
-3.6496842	access	-0.04276295
-3.6496842	sort	-0.04276295
-3.0749319	macbook	-0.04276295
-3.6496842	pro	-0.04276295
-3.6496842	trade	-0.04276295
-3.0084815	art	-0.04276295
-3.6496842	lot	-0.04276295
-3.6496842	regard	-0.04276295
-3.6496842	anyonhello	-0.04276295
-3.6496842	tech	-0.04276295
-3.6496842	savvi	-0.04276295
-3.0749319	mine	-0.04276295
-3.6496842	simplest	-0.04276295
-3.6496842	set	-0.04276295
-3.6496842	shop	-0.04276295
-3.6496842	cart	-0.04276295
-3.0749319	them	-0.04276295
-3.6496842	paid	-0.04276295
-3.6496842	essenti	-0.04276295
-3.0749319	take	-0.04276295
-3.6496842	forth	-0.04276295
-3.6496842	pay	-0.04276295
-3.6496842	paypal	-0.04276295
-3.6496842	instantli	-0.04276295
-3.6496842	for	-0.04276295
-3.6496842	say	-0.04276295
-3.6496842	etsi	-0.04276295
-3.6496842	reupload	-0.04276295
-3.6496842	quantiti	-0.04276295
-3.6496842	out	-0.04276295
-3.6496842	realiz	-0.04276295
-3.6496842	truli	-0.04276295
-3.6496842	might	-0.04276295
-3.6496842	crazi	-0.04276295
-3.6496842	freez	-0.04276295
-3.6496842	sit	-0.04276295
-3.6496842	blanket	-0.04276295
-3.6496842	window	-0.04276295
-3.6496842	wide	-0.04276295
-3.0749319	open	-0.04276295
-3.6496842	pregnant	-0.04276295
-3.0749319	squirrel	-0.04276295
-3.6496842	ramp	-0.04276295
-3.6496842	built	-0.04276295
-3.6496842	feeder	-0.04276295
-3.6496842	bread	-0.04276295
-3.6496842	pet	-0.04276295
-3.6496842	without	-0.04276295
-3.6496842	spook	-0.04276295
-3.6496842	windowyou	-0.04276295
-3.0749319	feel	-0.04276295
-3.0749319	give	-0.04276295
-2.3218758	interview	-0.04276295
-3.6496842	montanapublicradio	-0.04276295
-2.7600346	rad	-0.07764037
-3.0084815	listen	-0.04276295
-2.7600346	check	-0.07764037
-2.487894	recent	-0.04276295
-3.6496842	collabor	-0.04276295
-3.6496842	thoughtcatalogrecent	-0.04276295
-3.6496842	npr	-0.04276295
-3.6496842	to	-0.04276295
-3.6496842	knowledg	-0.04276295
-3.0749319	didn	-0.115565285
-3.6496842	gocongratul	-0.04276295
-3.6496842	word	-0.04276295
-3.6496842	thrill	-0.04276295
-3.6496842	outpour	-0.04276295
-3.0749319	creativ	-0.04276295
-3.6496842	beyond	-0.04276295
-3.6496842	inspircheck	-0.04276295
-2.487894	articl	-0.062348694
-3.0749319	wrote	-0.115565285
-3.6496842	bookish	-0.04276295
-3.6496842	nanowrimo	-0.04276295
-3.6496842	singl	-0.04276295
-3.6496842	boreyou	-0.04276295
-3.6496842	bore	-0.04276295
-3.6496842	anyth	-0.04276295
-3.0749319	much	-0.04276295
-3.6496842	cooler	-0.04276295
-3.6496842	wander	-0.04276295
-3.6496842	huffington	-0.04276295
-3.6496842	taught	-0.04276295
-3.6496842	process	-0.04276295
-3.6496842	itgreat	-0.04276295
-3.6496842	fortun	-0.04276295
-3.0084815	cb	-0.08991766
-3.6496842	philli	-0.04276295
-3.0749319	fantast	-0.04276295
-3.0749319	michael	-0.115565285
-3.6496842	cerio	-0.04276295
-3.6496842	tour	-0.04276295
-3.6496842	chat	-0.04276295
-3.6496842	scroll	-0.04276295
-3.6496842	click	-0.04276295
-3.0084815	hear	-0.04276295
-3.6496842	audio	-0.04276295
-3.6496842	onguest	-0.04276295
-3.6496842	morn	-0.04276295
-3.6496842	wisconsin	-0.04276295
-3.0749319	public	-0.115565285
-3.0749319	radio	-0.04276295
-3.6496842	joy	-0.04276295
-3.6496842	cardin	-0.04276295
-3.6496842	wake	-0.04276295
-3.0749319	am	-0.04276295
-3.6496842	download	-0.04276295
-3.6496842	meamaz	-0.04276295
-3.6496842	resembl	-0.04276295
-3.6496842	flatter	-0.04276295
-3.6496842	shine	-0.04276295
-3.0749319	fascin	-0.04276295
-3.6496842	originhi	-0.04276295
-3.6496842	super	-0.04276295
-3.6496842	near	-0.04276295
-3.6496842	dear	-0.04276295
-3.6496842	heart	-0.04276295
-3.6496842	can	-0.04276295
-3.6496842	brief	-0.04276295
-3.6496842	moment	-0.04276295
-3.6496842	casa	-0.04276295
-3.0749319	helena	-0.04276295
-3.6496842	court	-0.04276295
-3.6496842	appoint	-0.04276295
-3.6496842	special	-0.04276295
-3.6496842	advoc	-0.04276295
-3.6496842	children	-0.04276295
-3.6496842	desper	-0.04276295
-3.6496842	support	-0.04276295
-3.6496842	head	-0.04276295
-3.6496842	over	-0.04276295
-3.6496842	kind	-0.04276295
-3.6496842	encourag	-0.04276295
-3.6496842	loveflatter	-0.04276295
-3.6496842	part	-0.04276295
-3.6496842	past	-0.04276295
-3.6496842	magazin	-0.04276295
-3.6496842	valentin	-0.04276295
-3.6496842	gift	-0.04276295
-3.6496842	guid	-0.04276295
-3.6496842	radyear	-0.04276295
-3.0749319	tyler	-0.115565285
-3.6496842	knott	-0.04276295
-3.0749319	gregson	-0.04276295
-3.6496842	stumbl	-0.04276295
-3.6496842	upon	-0.04276295
-3.6496842	chang	-0.04276295
-3.6496842	life	-0.04276295
-3.6496842	loos	-0.04276295
-3.6496842	quickli	-0.04276295
-3.6496842	known	-0.04276295
-3.6496842	blackout	-0.04276295
-3.6496842	written	-0.04276295
-3.6496842	thousand	-0.04276295
-3.6496842	some	-0.04276295
-3.6496842	collect	-0.04276295
-3.6496842	ya	-0.04276295
-3.6496842	dive	-0.04276295
-3.6496842	relev	-0.04276295
-3.6496842	topic	-0.04276295
-3.6496842	feedback	-0.04276295
-3.6496842	technolog	-0.04276295
-3.6496842	combin	-0.04276295
-3.6496842	todayit	-0.04276295
-3.6496842	quit	-0.04276295
-3.6496842	possibl	-0.04276295
-3.6496842	heard	-0.04276295
-3.6496842	popular	-0.04276295
-3.6496842	author	-0.04276295
-3.0084815	montana	-0.04276295
-3.6496842	live	-0.04276295
-3.0749319	wall	-0.115565285
-3.6496842	street	-0.04276295
-3.6496842	journal	-0.04276295
-3.6496842	report	-0.04276295
-3.6496842	week	-0.04276295
-3.6496842	profil	-0.04276295
-3.6496842	independ	-0.04276295
-3.6496842	newspap	-0.04276295
-3.6496842	news	-0.04276295
-3.6496842	partstori	-0.04276295
-3.6496842	rocki	-0.04276295
-3.0749319	mountain	-0.115565285
-3.6496842	west	-0.04276295
-3.6496842	amazingli	-0.04276295
-3.6496842	talent	-0.04276295
-3.6496842	spoken	-0.04276295
-3.6496842	clay	-0.04276295
-3.6496842	scott	-0.04276295
-3.0749319	voic	-0.04276295
-3.6496842	bit	-0.04276295
-3.6496842	great	-0.04276295
-3.6496842	convers	-0.04276295
-3.6496842	togethwow	-0.04276295
-3.6496842	share	-0.04276295
-3.6496842	edit	-0.04276295
-3.6496842	tomorrow	-0.04276295
-3.6496842	local	-0.04276295
-3.6496842	newsstandput	-0.04276295
-3.6496842	philadelphia	-0.04276295
-3.6496842	enjoyinterview	-0.04276295
-3.6496842	andréa	-0.04276295
-3.6496842	balt	-0.04276295
-3.6496842	rebel	-0.04276295
-3.6496842	societi	-0.04276295
-3.6496842	lightcheck	-0.04276295
-3.6496842	postcheck	-0.04276295
-3.6496842	blog	-0.04276295
-3.6496842	enjoyfollow	-0.04276295
-3.6496842	sometim	-0.04276295
-3.6496842	easier	-0.04276295
-3.6496842	respond	-0.04276295
-3.0749319	there	-0.04276295

\2-grams:
-1.3270762	there </s>
-1.0238262	<s> sell	-0.01328961
-1.6138235	will sell	-0.01328961
-1.0238262	onlin sell	-0.01328961
-1.4836981	sell almost	-0.01328961
-1.8247538	ask almost	-0.01328961
-1.6017485	ve almost	-0.01328961
-1.6017485	post almost	-0.01328961
-1.6262378	almost brand	-0.01328961
-1.0175767	brand new	-0.01328961
-1.4777416	mani new	-0.01328961
-1.7502333	need new	-0.01328961
-1.7502333	way new	-0.01328961
-1.0175767	societi new	-0.01328961
-1.7222166	new ipad	-0.01328961
-1.0244051	ipad air	-0.01328961
-1.3219457	macbook air	-0.01328961
-1.3257022	sell digit	-0.01328961
-1.4042363	almost digit	-0.01328961
-1.2015738	air digit	-0.01328961
-1.5071629	digit digit	-0.01328961
-1.8696961	<eos> digit	-0.01328961
-1.3257022	insid digit	-0.01328961
-1.618751	want digit	-0.01328961
-1.2015738	buy digit	-0.01328961
-1.2015738	receiv digit	-0.01328961
-0.9595799	marri digit	-0.01328961
-1.2015738	stadium digit	-0.01328961
-0.9595799	defeat digit	-0.01328961
-0.9595799	kill digit	-0.01328961
-0.9595799	hd digit	-0.01328961
-0.9595799	throw digit	-0.01328961
-0.9595799	case digit	-0.01328961
-1.4717385	day digit	-0.01328961
-1.2015738	probabl digit	-0.01328961
-1.2015738	iphon digit	-0.01328961
-0.9595799	all digit	-0.01328961
-0.9595799	html digit	-0.01328961
-0.9595799	around digit	-0.01328961
-0.9595799	sit digit	-0.01328961
-0.9595799	wake digit	-0.01328961
-1.3257022	gregson digit	-0.01328961
-1.741389	digit gb	-0.061607413
-0.98861384	air <eos>	-0.01328961
-0.8307178	digit <eos>	-0.01328961
-0.8252343	gb <eos>	-0.01328961
-1.212976	book <eos>	-0.01328961
-0.5516039	taker <eos>	-0.01328961
-1.1012025	interest <eos>	-0.01328961
-1.2217851	love <eos>	-0.01328961
-0.8252343	hold <eos>	-0.01328961
-0.98861384	photograph <eos>	-0.01328961
-1.1958034	it <eos>	-0.01328961
-1.0603429	light <eos>	-0.01328961
-0.88345945	time <eos>	-0.01328961
-0.8252343	minut <eos>	-0.01328961
-0.8252343	million <eos>	-0.01328961
-0.88345945	friend <eos>	-0.01328961
-0.5999462	help <eos>	-0.01328961
-1.1012025	tumblr <eos>	-0.01328961
-1.0603429	theme <eos>	-0.01328961
-0.78520656	here <eos>	-0.01328961
-1.0899662	content <eos>	-0.01328961
-1.0899662	instagram <eos>	-0.01328961
-0.23884723	etc <eos>	-0.01328961
-0.8252343	ha <eos>	-0.01328961
-1.2910565	typewrit <eos>	-0.01328961
-0.98861384	choic <eos>	-0.01328961
-1.1277007	anyon <eos>	-0.01328961
-0.8252343	harder <eos>	-0.01328961
-1.1601067	get <eos>	-0.01328961
-0.8252343	ireland <eos>	-0.01328961
-1.1012025	will <eos>	-0.01328961
-0.98861384	what <eos>	-0.01328961
-0.6733983	poem <eos>	-0.01328961
-1.1463091	year <eos>	-0.01328961
-0.88345945	thought <eos>	-0.01328961
-0.98861384	too <eos>	-0.01328961
-0.98861384	butter <eos>	-0.01328961
-0.49980515	me <eos>	-0.01328961
-0.8252343	percentag <eos>	-0.01328961
-1.1482427	still <eos>	-0.01328961
-0.8252343	return <eos>	-0.01328961
-1.1918242	use <eos>	-0.01328961
-0.8252343	home <eos>	-0.01328961
-0.77395546	com <eos>	-0.01328961
-0.836297	day <eos>	-0.01328961
-1.1012025	well <eos>	-0.01328961
-0.8252343	brown <eos>	-0.01328961
-1.1254629	work <eos>	-0.01328961
-0.8252343	offens <eos>	-0.01328961
-0.5516039	with <eos>	-0.01328961
-1.1012025	everyon <eos>	-0.01328961
-1.0603429	enter <eos>	-0.01328961
-1.0603429	contest <eos>	-0.01328961
-0.8252343	giveaway <eos>	-0.01328961
-0.77395546	read <eos>	-0.01328961
-0.8252343	schedul <eos>	-0.01328961
-0.8252343	washington <eos>	-0.01328961
-1.1277007	us <eos>	-0.01328961
-0.8252343	dragon <eos>	-0.01328961
-1.0603429	seri <eos>	-0.01328961
-0.98861384	iphon <eos>	-0.01328961
-0.98861384	templat <eos>	-0.01328961
-1.0603429	of <eos>	-0.01328961
-0.98861384	seo <eos>	-0.01328961
-0.8252343	purpos <eos>	-0.01328961
-0.8252343	network <eos>	-0.01328961
-1.0603429	go <eos>	-0.01328961
-0.98861384	mine <eos>	-0.01328961
-0.8252343	instantli <eos>	-0.01328961
-0.8252343	out <eos>	-0.01328961
-1.0603429	listen <eos>	-0.01328961
-0.98861384	much <eos>	-0.01328961
-0.8252343	process <eos>	-0.01328961
-0.8252343	tour <eos>	-0.01328961
-0.8252343	audio <eos>	-0.01328961
-0.98861384	helena <eos>	-0.01328961
-0.8252343	guid <eos>	-0.01328961
-0.8252343	life <eos>	-0.01328961
-0.8252343	topic <eos>	-0.01328961
-1.0603429	montana <eos>	-0.01328961
-0.8252343	news <eos>	-0.01328961
-0.98861384	voic <eos>	-0.01328961
-0.8252343	togethwow <eos>	-0.01328961
-0.8252343	philadelphia <eos>	-0.01328961
-2.575925	<eos> sign	-0.01328961
-2.171352	it sign	-0.01328961
-2.158054	s sign	-0.01328961
-1.6774642	ship sign	-0.01328961
-0.6279197	free sign	-0.061607413
-1.5766978	new book	-0.01328961
-1.980842	<eos> book	-0.01328961
-1.5846082	sign book	-0.01328961
-1.6747925	like book	-0.01328961
-1.4088631	actual book	-0.01328961
-1.2625266	bookplat book	-0.01328961
-0.9934409	nobl book	-0.01328961
-0.9934409	display book	-0.01328961
-1.6311986	littl book	-0.01328961
-1.772887	you book	-0.01328961
-1.7885145	use book	-0.01328961
-1.4088631	first book	-0.01328961
-0.9934409	alreadi book	-0.01328961
-2.8323848	<eos> taker	-0.01328961
-1.3219457	choic taker	-0.01328961
-2.9876978	<eos> messag	-0.01328961
-1.0206902	messag interest	-0.01328961
-1.3146062	enough interest	-0.01328961
-1.6918777	anyon interest	-0.01328961
-1.8247538	re interest	-0.01328961
-2.3480372	<eos> put	-0.01328961
-1.3270762	put feeler	-0.01328961
-1.5374013	<eos> would	-0.01328961
-1.0023354	feeler would	-0.01328961
-1.4324039	think would	-0.01328961
-1.6772256	friend would	-0.01328961
-1.6772256	thought would	-0.01328961
-1.0052687	still would	-0.01328961
-1.6712204	never would	-0.01328961
-1.4324039	first would	-0.01328961
-1.2792021	discount would	-0.01328961
-1.0023354	etsi would	-0.01328961
-1.4444088	would like	-0.01328961
-2.1171687	s like	-0.061607413
-1.5785611	look like	-0.01328961
-1.4659183	shirt like	-0.01328961
-1.4659183	go like	-0.01328961
-1.0144854	over like	-0.01328961
-2.161364	book daili	-0.01328961
-1.0244051	daili haiku	-0.01328961
-1.0244051	word haiku	-0.01328961
-2.270344	<eos> love	-0.01328961
-1.9113889	book love	-0.01328961
-1.9336545	would love	-0.01328961
-1.2792021	haiku love	-0.01328961
-1.0068158	d love	-0.013289583
-1.6772256	need love	-0.01328961
-1.2792021	websit love	-0.01328961
-1.5355994	velociraptor love	-0.01328961
-1.4324039	stori love	-0.01328961
-1.0023354	outpour love	-0.01328961
-2.3072107	<eos> actual	-0.01328961
-1.6160799	interest actual	-0.01328961
-2.161364	book form	-0.01328961
-1.0206902	form someth	-0.01328961
-2.2031925	s someth	-0.01328961
-1.8247538	ask someth	-0.01328961
-1.6918777	write someth	-0.01328961
-1.6262378	someth hold	-0.01328961
-2.3072107	<eos> think	-0.01328961
-1.7864239	thought think	-0.01328961
-2.8039174	<eos> fun	-0.01328961
-2.1265945	would fun	-0.01328961
-1.4928685	of fun	-0.01328961
-1.5022322	fun handwritten	-0.01328961
-1.0244051	handwritten text	-0.01328961
-1.6160799	origin text	-0.01328961
-1.320798	text mayb	-0.01328961
-1.0238262	figur mayb	-0.01328961
-1.0238262	cooler mayb	-0.01328961
-1.4836981	mayb even	-0.01328961
-1.0206902	watch even	-0.01328961
-1.0206902	root even	-0.01328961
-1.6017485	post even	-0.01328961
-1.6160799	even photograph	-0.01328961
-1.9036384	wed photograph	-0.01328961
-2.675129	<eos> wonder	-0.01328961
-1.3146062	made wonder	-0.01328961
-1.8762683	interview wonder	-0.01328961
-1.0206902	balt wonder	-0.01328961
-1.6160799	wonder enough	-0.01328961
-1.9046632	thank enough	-0.01328961
-1.6262378	interest pursu	-0.01328961
-1.6181316	<eos> it
-1.5339723	sign it	-0.01328961
-0.97901	pursu it	-0.01328961
-1.8935969	it it	-0.01328961
-1.5238422	ship it	-0.01328961
-1.5717396	order it	-0.01328961
-1.5717396	print it	-0.01328961
-1.7054511	use it	-0.01328961
-0.97901	bought it	-0.01328961
-1.4606458	post it	-0.01328961
-0.97901	bludomain it	-0.01328961
-0.97901	believ it	-0.01328961
-0.97901	lot it	-0.01328961
-1.2360827	feel it	-0.01328961
-0.97901	nanowrimo it	-0.01328961
-1.3722597	hear it	-0.01328961
-0.97901	download it	-0.01328961
-0.97901	sometim it	-0.01328961
-2.0531936	digit s	-0.01328961
-0.49746835	it s	-0.023571894
-1.4244143	peopl s	-0.01328961
-0.9128897	here s	-0.01328961
-1.2735722	what s	-0.01328961
-1.4244143	url s	-0.01328961
-0.99935025	pete s	-0.01328961
-0.99935025	he s	-0.01328961
-0.99935025	pro s	-0.01328961
-0.99935025	valentin s	-0.01328961
-0.99935025	todayit s	-0.01328961
-2.180976	digit i	-0.01328961
-1.3381369	<eos> i	-0.044897012
-1.5674157	someth i	-0.01328961
-2.0798032	s i	-0.01328961
-1.0114158	oh i	-0.01328961
-1.6499975	amaz i	-0.01328961
-1.6499975	old i	-0.01328961
-0.7816074	i d	-0.0032844786
-0.42167005	we d	-0.036776904
-2.0215971	love make	-0.01328961
-1.5785611	page make	-0.01328961
-1.0144854	may make	-0.01328961
-1.3024813	chanc make	-0.01328961
-1.9403776	use make	-0.01328961
-1.3024813	confus make	-0.01328961
-2.1171687	s let	-0.01328961
-1.731058	make let	-0.01328961
-1.8369979	thank let	-0.01328961
-1.3024813	team let	-0.01328961
-1.9251931	poem let	-0.01328961
-1.4659183	whilst let	-0.01328961
-2.8039174	<eos> know	-0.01328961
-1.1039046	let know	-0.01328961
-1.706786	find know	-0.01328961
-1.6160799	know comment	-0.01328961
-1.7864239	email comment	-0.01328961
-1.3270762	comment pleasgotten	-0.01328961
-1.0269834	pleasgotten hundr	-0.01328961
-1.0144854	hundr email	-0.01328961
-1.4659183	now email	-0.01328961
-1.0144854	seriou email	-0.01328961
-1.0144854	serious email	-0.01328961
-1.0144854	via email	-0.01328961
-1.3024813	take email	-0.01328961
-2.4271908	<eos> ask	-0.01328961
-1.2965435	comment ask	-0.01328961
-1.7195425	time ask	-0.01328961
-1.7688136	get ask	-0.01328961
-1.7688136	question ask	-0.01328961
-1.9151531	use ask	-0.01328961
-1.0114158	basic ask	-0.01328961
-1.783259	let peopl	-0.01328961
-1.845125	ask peopl	-0.01328961
-1.0238262	forth peopl	-0.01328961
-1.0285146	sign bookplat	-0.01328961
-1.4669596	book chaser	-0.01328961
-1.0244051	collect chaser	-0.01328961
-0.80564684	chaser light	-0.01328961
-1.0244051	shine light	-0.01328961
-1.5022322	light are	-0.01328961
-1.0269834	are avoid	-0.01328961
-1.4659183	mayb answer	-0.01328961
-1.0144854	avoid answer	-0.01328961
-1.7346169	time answer	-0.01328961
-1.7866715	so answer	-0.01328961
-1.890344	you answer	-0.01328961
-1.4659183	alway answer	-0.01328961
-1.845125	ask mani	-0.01328961
-1.7820553	answer mani	-0.01328961
-1.4928685	see mani	-0.01328961
-2.2624457	digit time	-0.01328961
-0.8019318	mani time	-0.01328961
-1.7502333	time time	-0.01328961
-1.0175767	internet time	-0.01328961
-1.7530845	everi time	-0.01328961
-1.8004686	answer penguin	-0.01328961
-2.171352	it ship	-0.01328961
-1.0175767	penguin ship	-0.01328961
-1.3085014	begin ship	-0.01328961
-1.7474006	print ship	-0.01328961
-1.0175767	overboard ship	-0.01328961
-1.3270762	bookplat separ	-0.01328961
-1.0244051	separ begin	-0.01328961
-1.0244051	sink begin	-0.01328961
-1.7222166	ship minut	-0.01328961
-2.8323848	<eos> cannot	-0.01328961
-1.4945754	stori cannot	-0.01328961
-1.3270762	cannot packag	-0.01328961
-1.0238262	packag insid	-0.01328961
-1.0238262	trap insid	-0.01328961
-1.0238262	season insid	-0.01328961
-1.4659183	peopl order	-0.01328961
-1.4659183	insid order	-0.01328961
-1.4659183	come order	-0.01328961
-1.3024813	someon order	-0.01328961
-1.4659183	seri order	-0.01328961
-1.0144854	paid order	-0.01328961
-1.8004686	order amazon	-0.01328961
-1.0269834	amazon barn	-0.01328961
-1.0269834	barn nobl	-0.01328961
-2.161364	book a	-0.01328961
-1.0269834	a million	-0.01328961
-1.4556905	<eos> thank	-0.013289583
-1.3146062	cannot thank	-0.01328961
-1.4836981	offer thank	-0.01328961
-1.7744887	me thank	-0.01328961
-1.9238402	thank patient	-0.01328961
-1.0244051	patient stay	-0.01328961
-1.3219457	creativ stay	-0.01328961
-1.3270762	stay tune	-0.01328961
-2.0622075	would find	-0.01328961
-1.0175767	tune find	-0.01328961
-1.86786	help find	-0.01328961
-1.0175767	macgyv find	-0.01328961
-1.0175767	dinosaur find	-0.01328961
-1.7222166	find soonhello	-0.01328961
-1.0144854	soonhello friend	-0.01328961
-1.6635138	amaz friend	-0.01328961
-1.0144854	otherhello friend	-0.01328961
-1.0144854	helphello friend	-0.01328961
-1.0144854	youhello friend	-0.01328961
-1.3024813	squirrel friend	-0.01328961
-2.1768126	<eos> need	-0.061607413
-2.142417	it need	-0.01328961
-1.7346169	need need	-0.01328961
-1.7866715	so need	-0.01328961
-1.3024813	m need	-0.01328961
-1.0144854	desper need	-0.01328961
-2.4271908	<eos> help	-0.01328961
-1.9926518	love help	-0.01328961
-2.1152897	it help	-0.01328961
-1.0897771	need help	-0.044897012
-1.5674157	abl help	-0.01328961
-1.0114158	end help	-0.01328961
-1.0114158	arm help	-0.01328961
-2.1210666	book come	-0.01328961
-1.7820553	order come	-0.01328961
-1.783259	friend come	-0.01328961
-1.5022322	come soon	-0.01328961
-1.0244051	soon publish	-0.01328961
-1.7853831	recent publish	-0.01328961
-2.22854	<eos> want	-0.01328961
-1.7039284	like want	-0.01328961
-1.2735722	publish want	-0.01328961
-1.4244143	theme want	-0.01328961
-1.2735722	grid want	-0.01328961
-1.6574659	print want	-0.01328961
-1.5997832	anyon want	-0.01328961
-1.2735722	anyonanyon want	-0.01328961
-1.6574659	t want	-0.01328961
-1.6066401	still want	-0.01328961
-0.99935025	essenti want	-0.01328961
-1.3630794	want abl	-0.01328961
-1.706786	anyon abl	-0.01328961
-1.0238262	convers abl	-0.01328961
-2.142417	it way	-0.01328961
-1.6635138	find way	-0.01328961
-1.5785611	abl way	-0.01328961
-1.6635138	best way	-0.01328961
-1.3024813	dig way	-0.01328961
-1.0144854	simplest way	-0.01328961
-1.8007551	way display	-0.01328961
-2.1210666	book link	-0.01328961
-2.2535725	s link	-0.01328961
-1.0238262	click link	-0.01328961
-2.0331066	want buy	-0.01328961
-1.4945754	link buy	-0.01328961
-1.783259	friend tumblr	-0.01328961
-1.320798	buy tumblr	-0.01328961
-0.9294507	upload tumblr	-0.01328961
-1.8247538	like page	-0.01328961
-1.6017485	tumblr page	-0.01328961
-1.6918777	old page	-0.01328961
-1.0206902	loos page	-0.01328961
-1.59	page best	-0.01328961
-1.4747173	last best	-0.01328961
-1.8052953	question best	-0.01328961
-1.0175767	leisur best	-0.01328961
-1.0175767	to best	-0.01328961
-1.706786	new theme	-0.01328961
-1.6138235	look theme	-0.01328961
-1.0238262	strand theme	-0.01328961
-1.4624672	<eos> so	-0.013289583
-1.0238262	if so	-0.01328961
-1.0238262	deal so	-0.01328961
-2.2540512	<eos> here	-0.061607413
-2.2023535	it here	-0.01328961
-1.3146062	websit here	-0.01328961
-1.0206902	address here	-0.01328961
-1.3290036	i m	-0.01328961
-1.8007551	need fix	-0.01328961
-1.0244051	fix sidebar	-0.01328961
-1.3219457	integr sidebar	-0.01328961
-1.3270762	sidebar left	-0.01328961
-1.0244051	left grid	-0.01328961
-1.3219457	area grid	-0.01328961
-1.3270762	grid layout	-0.01328961
-2.0274005	want content	-0.01328961
-1.0238262	layout content	-0.01328961
-1.6138235	origin content	-0.01328961
-0.80704266	content area	-0.01328961
-2.0274005	want instagram	-0.01328961
-1.320798	area instagram	-0.01328961
-1.0238262	enjoyfollow instagram	-0.01328961
-0.80564684	instagram twitter	-0.01328961
-1.3219457	there twitter	-0.01328961
-1.5022322	twitter feed	-0.01328961
-1.4945754	twitter integr	-0.01328961
-1.0244051	feed integr	-0.01328961
-1.3270762	sidebar custom	-0.01328961
-1.0269834	custom option	-0.01328961
-1.0269834	option color	-0.01328961
-1.0269834	color background	-0.01328961
-1.0244051	background imag	-0.01328961
-1.0244051	save imag	-0.01328961
-1.320798	imag etc	-0.01328961
-1.320798	host etc	-0.01328961
-1.320798	idea etc	-0.01328961
-1.4656416	love look	-0.01328961
-1.320798	site look	-0.01328961
-1.320798	run look	-0.01328961
-1.3270762	integr strand	-0.01328961
-1.5022322	theme ha	-0.01328961
-2.9876978	<eos> whoever	-0.01328961
-1.0269834	whoever end	-0.01328961
-2.8323848	<eos> receiv	-0.01328961
-1.7095827	find receiv	-0.01328961
-1.3270762	receiv two	-0.01328961
-2.3733132	digit free	-0.01328961
-1.0244051	two free	-0.01328961
-1.6180898	sign typewrit	-0.061607413
-1.5421956	upload typewrit	-0.01328961
-1.611803	old typewrit	-0.01328961
-1.8472341	use typewrit	-0.01328961
-1.0023354	anyonseem typewrit	-0.01328961
-1.0023354	how typewrit	-0.01328961
-1.0023354	seventeen typewrit	-0.01328961
-1.0023354	reupload typewrit	-0.01328961
-1.0023354	upon typewrit	-0.01328961
-1.0023354	known typewrit	-0.01328961
-2.4952216	<eos> print	-0.01328961
-1.731058	order print	-0.01328961
-1.9361016	typewrit print	-0.061607413
-1.731058	print print	-0.01328961
-1.4659183	shirt print	-0.01328961
-1.3024813	purchas print	-0.01328961
-1.8004686	print choic	-0.01328961
-2.8039174	<eos> olymp	-0.01328961
-1.706786	anyon olymp	-0.01328961
-1.706786	one olymp	-0.01328961
-1.4956409	olymp full	-0.01328961
-1.0244051	feeder full	-0.01328961
-1.3270762	full swing	-0.01328961
-2.8039174	<eos> now	-0.01328961
-1.0238262	swing now	-0.01328961
-1.0238262	crazi now	-0.01328961
-1.4945754	now made	-0.01328961
-1.4945754	back made	-0.01328961
-2.8039174	<eos> anyon	-0.01328961
-0.9264091	would anyon	-0.01328961
-1.6138235	wonder anyon	-0.01328961
-0.80704266	olymp team	-0.01328961
-1.3270762	team randomli	-0.01328961
-1.0206902	randomli follow	-0.01328961
-1.0206902	happen follow	-0.01328961
-1.0206902	along follow	-0.01328961
-1.0206902	savvi follow	-0.01328961
-1.731058	make littl	-0.01328961
-1.5785611	follow littl	-0.01328961
-1.0144854	usfound littl	-0.01328961
-1.4659183	whilst littl	-0.01328961
-1.0144854	peninsula littl	-0.01328961
-1.3024813	give littl	-0.01328961
-1.7853831	littl websit	-0.01328961
-1.7106315	photographi websit	-0.01328961
-1.324224	i ll	-0.01328961
-1.854914	we ll	-0.01328961
-1.0238262	ya ll	-0.01328961
-1.7222166	ll cheer	-0.01328961
-1.0269834	cheer regardless	-0.01328961
-1.0269834	regardless happen	-0.01328961
-1.59	follow one	-0.01328961
-1.4747173	offer one	-0.01328961
-1.3085014	leav one	-0.01328961
-1.0175767	rd one	-0.01328961
-1.0175767	heard one	-0.01328961
-1.6262378	know watch	-0.01328961
-1.6262378	even closer	-0.01328961
-1.0269834	closer root	-0.01328961
-1.6262378	even harder	-0.01328961
-2.3480372	<eos> anyonanyon	-0.01328961
-2.4271908	<eos> get	-0.01328961
-1.2965435	anyonanyon get	-0.01328961
-1.0114158	itchin get	-0.01328961
-1.7688136	question get	-0.01328961
-1.7153081	t get	-0.01328961
-1.0114158	everyth get	-0.01328961
-1.0114158	support get	-0.01328961
-1.8664881	get marri	-0.01328961
-2.4232557	digit scotland	-0.01328961
-1.0269834	scotland ireland	-0.01328961
-1.4945754	actual anywher	-0.01328961
-1.0244051	interestanyon anywher	-0.01328961
-1.3270762	anywher europ	-0.01328961
-2.4271908	<eos> we	-0.01328961
-1.0114158	europ we	-0.01328961
-1.8137678	wed we	-0.01328961
-1.0114158	portfolio we	-0.01328961
-1.4572941	today we	-0.01328961
-1.2965435	thing we	-0.01328961
-1.0114158	down we	-0.01328961
-2.1616461	love scottish	-0.01328961
-1.0269834	scottish irish	-0.01328961
-2.3683875	<eos> wed	-0.01328961
-1.7516612	so wed	-0.01328961
-1.7516612	get wed	-0.01328961
-1.0083679	irish wed	-0.01328961
-1.6419368	photographi wed	-0.01328961
-1.6368892	write wed	-0.01328961
-1.4488379	poet wed	-0.01328961
-1.0083679	shoot wed	-0.01328961
-1.9235548	wed start	-0.01328961
-1.0269834	start if	-0.01328961
-2.8039174	<eos> photographi	-0.01328961
-1.8992742	wed photographi	-0.01328961
-0.63006425	treehous photographi	-0.01328961
-1.0260864	photographi compani	-0.061607413
-1.0244051	prefer compani	-0.01328961
-1.3219457	compani treehous	-0.061607413
-1.0244051	annual treehous	-0.01328961
-1.7225038	photographi itchin	-0.01328961
-1.9235548	wed portfolio	-0.01328961
-1.025794	d will	-0.01328961
-1.4928685	alway will	-0.01328961
-1.6138235	happi will	-0.01328961
-1.6138235	will offer	-0.01328961
-1.6138235	happi offer	-0.01328961
-1.0238262	hurt offer	-0.01328961
-1.7222166	one hell	-0.01328961
-1.0269834	hell deal	-0.01328961
-2.111259	<eos> you	-0.061607413
-1.7516612	ask you	-0.01328961
-1.2036941	thank you	-0.01328961
-1.7516612	so you	-0.01328961
-1.8845592	poem you	-0.01328961
-1.7516612	question you	-0.01328961
-1.0083679	thrill you	-0.01328961
-1.0083679	possibl you	-0.01328961
-1.8414354	we re	-0.01328961
-0.7342695	you re	-0.01328961
-1.0206902	windowyou re	-0.01328961
-1.0206902	boreyou re	-0.01328961
-1.8664881	re seriou	-0.01328961
-1.783259	email today	-0.01328961
-1.994305	poem today	-0.01328961
-1.0238262	constantli today	-0.01328961
-2.8039174	<eos> see	-0.01328961
-1.706786	ll see	-0.01328961
-1.320798	feel see	-0.01328961
-2.263503	s what	-0.01328961
-1.4945754	see what	-0.01328961
-2.9876978	<eos> oh	-0.01328961
-1.7222166	ll total	-0.01328961
-1.8247538	like write	-0.01328961
-1.7643824	littl write	-0.01328961
-1.0206902	total write	-0.01328961
-1.6918777	show write	-0.01328961
-2.3166049	<eos> poem	-0.01328961
-1.9358224	book poem	-0.01328961
-1.2849059	text poem	-0.01328961
-1.8818343	typewrit poem	-0.01328961
-1.7765973	wed poem	-0.01328961
-1.4405432	seri poem	-0.01328961
-0.62366205	type poem	-0.01328961
-1.0053412	thousand poem	-0.01328961
-1.2849059	voic poem	-0.01328961
-2.161364	book usfound	-0.01328961
-1.7095827	write dream	-0.01328961
-1.0244051	night dream	-0.01328961
-1.1893197	digit year	-0.01328961
-1.3146062	dream year	-0.01328961
-1.6939595	day year	-0.01328961
-1.0206902	part year	-0.01328961
-1.783259	email back	-0.01328961
-1.4928685	come back	-0.01328961
-1.7820553	year back	-0.01328961
-1.7853831	make laugh	-0.01328961
-1.3219457	made laugh	-0.01328961
-1.9361016	typewrit thought	-0.01328961
-1.3024813	laugh thought	-0.01328961
-1.5785611	well thought	-0.01328961
-1.3024813	ever thought	-0.01328961
-1.0144854	squarespac thought	-0.01328961
-1.0144854	encourag thought	-0.01328961
-1.8007551	thought may	-0.01328961
-1.4945754	twitter too	-0.01328961
-1.3219457	laugh too	-0.01328961
-2.3097355	digit velociraptor	-0.01328961
-1.6017485	know velociraptor	-0.01328961
-1.3146062	too velociraptor	-0.01328961
-1.0206902	th velociraptor	-0.01328961
-2.1221926	love peanut	-0.01328961
-1.6138235	velociraptor peanut	-0.01328961
-1.0238262	jar peanut	-0.01328961
-0.26016706	peanut butter	-0.044897012
-2.8039174	<eos> last	-0.01328961
-1.4928685	montana last	-0.01328961
-1.0238262	report last	-0.01328961
-1.5022322	last night	-0.01328961
-1.3270762	dream trap	-0.01328961
-1.5022322	insid basebal	-0.01328961
-1.0244051	basebal stadium	-0.01328961
-1.0244051	roof stadium	-0.01328961
-1.3270762	stadium off	-0.01328961
-1.0269834	off season	-0.01328961
-1.6160799	velociraptor tri	-0.01328961
-1.0244051	bread tri	-0.01328961
-1.3270762	tri eat	-0.01328961
-1.0144854	eat me	-0.01328961
-1.4659183	found me	-0.01328961
-1.0144854	scare me	-0.01328961
-1.0144854	stood me	-0.01328961
-1.3024813	contact me	-0.01328961
-1.3024813	journal me	-0.01328961
-1.8664881	get macgyv	-0.01328961
-1.8007551	way fight	-0.01328961
-1.0269834	fight defeat	-0.01328961
-2.4232557	digit ingeni	-0.01328961
-1.0244051	ingeni method	-0.01328961
-1.0244051	blackout method	-0.01328961
-1.3270762	method includ	-0.01328961
-1.0269834	includ mix	-0.01328961
-1.0269834	mix strong	-0.01328961
-1.0269834	strong adhes	-0.01328961
-1.0269834	adhes jar	-0.01328961
-1.3219457	butter leav	-0.01328961
-1.3219457	them leav	-0.01328961
-1.7222166	one dinosaur	-0.01328961
-2.9876978	<eos> kill	-0.01328961
-2.4232557	digit rd	-0.01328961
-1.7222166	one retreat	-0.01328961
-1.0269834	retreat roof	-0.01328961
-2.4232557	digit th	-0.01328961
-1.6138235	velociraptor found	-0.01328961
-2.0262485	use found	-0.01328961
-1.0238262	some found	-0.01328961
-1.8018703	me whereupon	-0.01328961
-1.0269834	whereupon turn	-0.01328961
-1.0269834	turn angelina	-0.01328961
-1.0269834	angelina joli	-0.01328961
-1.0269834	joli apolog	-0.01328961
-1.0269834	apolog scare	-0.01328961
-2.9876978	<eos> wowhello	-0.01328961
-1.0175767	wowhello amaz	-0.01328961
-1.0175767	random amaz	-0.01328961
-1.3085014	move amaz	-0.01328961
-1.8544201	interview amaz	-0.01328961
-1.0175767	enjoyinterview amaz	-0.01328961
-1.7153081	answer question	-0.01328961
-1.7195425	friend question	-0.01328961
-1.6499975	write question	-0.01328961
-1.0114158	gotten question	-0.01328961
-1.2965435	mine question	-0.01328961
-1.7729183	articl question	-0.01328961
-1.2965435	fantast question	-0.01328961
-1.8004686	answer leisur	-0.01328961
-1.7222166	best place	-0.01328961
-1.0269834	place onlin	-0.01328961
-1.4747173	sell t	-0.01328961
-1.0175767	couldn t	-0.01328961
-1.0175767	doesn t	-0.01328961
-1.0175767	don t	-0.01328961
-0.6279197	didn t	-0.01328961
-1.7820553	t shirt	-0.01328961
-1.320798	good shirt	-0.01328961
-1.0238262	apparel shirt	-0.01328961
-1.7222166	ship everyth	-0.01328961
-1.8664881	get percentag	-0.01328961
-2.0331066	want good	-0.01328961
-2.0321047	use good	-0.01328961
-1.5022322	shirt american	-0.01328961
-1.0269834	american apparel	-0.01328961
-1.6017485	abl upload	-0.01328961
-1.3146062	imag upload	-0.01328961
-1.3146062	scan upload	-0.01328961
-1.0206902	cart upload	-0.01328961
-1.6265256	upload design	-0.01328961
-1.0238262	design whilst	-0.01328961
-1.0238262	close whilst	-0.01328961
-1.320798	cerio whilst	-0.01328961
-2.2624457	digit still	-0.01328961
-2.0622075	would still	-0.01328961
-1.4747173	whilst still	-0.01328961
-1.4747173	enter still	-0.01328961
-1.3085014	perfectli still	-0.01328961
-1.7225038	still halfway	-0.01328961
-1.0269834	halfway decent	-0.01328961
-1.8489753	get chanc	-0.01328961
-1.0244051	decent chanc	-0.01328961
-1.8004686	littl return	-0.01328961
-2.4232557	digit kindl	-0.01328961
-1.0269834	kindl fire	-0.01328961
-1.0269834	fire hd	-0.01328961
-2.3105428	s month	-0.01328961
-1.3085014	put old	-0.01328961
-1.9558098	typewrit old	-0.01328961
-1.7474006	year old	-0.01328961
-1.0175767	month old	-0.01328961
-1.0175767	photoshop old	-0.01328961
-1.324224	i ve	-0.01328961
-1.854914	we ve	-0.01328961
-1.9523736	you ve	-0.01328961
-1.5785611	almost never	-0.01328961
-2.4952216	<eos> never	-0.01328961
-1.6635138	ship never	-0.01328961
-1.5785611	ve never	-0.01328961
-1.3024813	ever never	-0.01328961
-1.0144854	quantiti never	-0.01328961
-1.7164286	<eos> use	-0.01328961
-2.0135221	s use	-0.01328961
-1.5459479	page use	-0.01328961
-1.6854247	never use	-0.01328961
-1.5518844	com use	-0.01328961
-1.4405432	poet use	-0.01328961
-1.0053412	app use	-0.01328961
-1.0053412	program use	-0.01328961
-1.0053412	font use	-0.01328961
-1.7222166	new home	-0.01328961
-1.7222166	ll throw	-0.01328961
-2.9876978	<eos> bought	-0.01328961
-2.2718878	it case	-0.01328961
-1.5022322	actual serious	-0.01328961
-1.1075076	email thetypewriterpoet	-0.061607413
-1.0269834	thetypewriterpoet gmail	-0.061607413
-1.0238262	gmail com	-0.01328961
-1.0238262	goodread com	-0.01328961
-1.320798	bookish com	-0.01328961
-1.8664881	so anyonseem	-0.01328961
-1.9086673	help caus	-0.01328961
-1.4945754	today caus	-0.01328961
-1.3219457	caus confus	-0.01328961
-1.3219457	confus confus	-0.01328961
-1.8004686	make sad	-0.01328961
-1.0206902	sad show	-0.01328961
-0.92711973	rad show	-0.01328961
-1.4836981	radio show	-0.01328961
-1.0206902	cardin show	-0.01328961
-1.7222166	show natur	-0.01328961
-1.0244051	natur thing	-0.01328961
-1.0244051	difficult thing	-0.01328961
-1.3270762	thing occur	-0.01328961
-1.0269834	occur internet	-0.01328961
-2.675129	<eos> origin	-0.01328961
-1.970025	poem origin	-0.01328961
-1.6017485	origin origin	-0.01328961
-1.0206902	complet origin	-0.01328961
-1.970025	poem post	-0.01328961
-1.6017485	origin post	-0.01328961
-1.0206902	chariti post	-0.01328961
-1.3146062	huffington post	-0.01328961
-1.7853831	year ago	-0.01328961
-1.0244051	radyear ago	-0.01328961
-2.2031925	s day	-0.01328961
-1.3146062	ago day	-0.01328961
-1.768492	everi day	-0.01328961
-1.0206902	singl day	-0.01328961
-1.783259	way url	-0.01328961
-1.6138235	post url	-0.01328961
-1.0238262	went url	-0.01328961
-2.084175	book well	-0.01328961
-1.4836981	url well	-0.01328961
-1.0206902	feedback well	-0.01328961
-1.0206902	talent well	-0.01328961
-1.6262378	well correspond	-0.01328961
-1.0269834	correspond tweet	-0.01328961
-1.0269834	tweet went	-0.01328961
-1.5022322	url somehow	-0.01328961
-1.0269834	somehow goodread	-0.01328961
-1.7864239	time someon	-0.01328961
-1.6171371	com someon	-0.01328961
-1.3270762	someon misquot	-0.01328961
-1.0269834	misquot belong	-0.01328961
-1.706786	new poet	-0.01328961
-1.706786	old poet	-0.01328961
-1.0238262	belong poet	-0.01328961
-1.5022322	poet derrick	-0.01328961
-1.0269834	derrick brown	-0.01328961
-1.7864239	email accus	-0.01328961
-1.956478	you accus	-0.01328961
-1.3270762	accus constantli	-0.01328961
-1.4945754	today artist	-0.01328961
-1.0244051	steal artist	-0.01328961
-1.3270762	artist steal	-0.01328961
-1.4656416	love work	-0.01328961
-1.320798	artist work	-0.01328961
-1.0238262	condit work	-0.01328961
-2.13302	would ever	-0.01328961
-1.7853831	never ever	-0.01328961
-1.7222166	find offens	-0.01328961
-2.9876978	<eos> except	-0.01328961
-1.0269834	except music	-0.01328961
-1.0269834	music random	-0.01328961
-1.7222166	amaz quotat	-0.01328961
-1.0269834	quotat chariti	-0.01328961
-1.6262378	even reblog	-0.01328961
-1.0244051	reblog site	-0.01328961
-1.0244051	rebuild site	-0.01328961
-1.3270762	site attempt	-0.01328961
-1.0269834	attempt keep	-0.01328961
-1.0269834	keep complet	-0.01328961
-2.3072107	<eos> alway	-0.01328961
-1.0244051	have alway	-0.01328961
-1.5022322	alway have	-0.01328961
-1.8664881	so stood	-0.01328961
-1.3270762	accus attack	-0.01328961
-1.0269834	attack sorri	-0.01328961
-1.0269834	sorri quick	-0.01328961
-1.0269834	quick jump	-0.01328961
-1.0269834	jump overboard	-0.01328961
-1.8004686	never sink	-0.01328961
-1.3219457	begin with	-0.01328961
-1.0244051	chat with	-0.01328961
-2.9876978	<eos> address	-0.01328961
-2.9876978	<eos> ideahello	-0.01328961
-1.0206902	ideahello everyon	-0.01328961
-1.0206902	for everyon	-0.01328961
-1.0206902	originhi everyon	-0.01328961
-1.0206902	can everyon	-0.01328961
-1.320798	enough enter	-0.01328961
-1.6138235	everyon enter	-0.01328961
-1.0238262	note enter	-0.01328961
-1.320798	publish first	-0.01328961
-1.4928685	enter first	-0.01328961
-1.320798	the first	-0.01328961
-1.5022322	first annual	-0.01328961
-1.320798	haiku contest	-0.01328961
-1.8992742	wed contest	-0.01328961
-1.0238262	win contest	-0.01328961
-1.5022322	contest giveaway	-0.01328961
-2.4232557	digit entri	-0.01328961
-1.0269834	entri world	-0.01328961
-1.0206902	world read	-0.01328961
-1.0206902	bore read	-0.01328961
-1.3146062	fascin read	-0.01328961
-1.0206902	blog read	-0.01328961
-1.5785611	almost everi	-0.01328961
-2.0215971	love everi	-0.01328961
-1.5785611	someth everi	-0.01328961
-1.731058	order everi	-0.01328961
-1.6635138	write everi	-0.01328961
-1.5823195	read everi	-0.01328961
-1.1047817	everi stori	-0.01328961
-1.4945754	winner stori	-0.01328961
-1.4945754	contest probabl	-0.01328961
-1.4945754	stori probabl	-0.01328961
-1.9235548	wed couldn	-0.01328961
-1.8004686	t alreadi	-0.01328961
-1.8664881	so final	-0.01328961
-1.0269834	final chose	-0.01328961
-1.0238262	chose winner	-0.01328961
-1.0238262	john winner	-0.01328961
-1.0238262	gocongratul winner	-0.01328961
-0.931793	work perfectli	-0.01328961
-1.3270762	perfectli schedul	-0.01328961
-2.2985184	<eos> happi	-0.01328961
-2.1265945	would happi	-0.01328961
-1.7092189	d happi	-0.01328961
-1.6262378	happi proud	-0.01328961
-1.0269834	proud announc	-0.01328961
-1.0269834	announc katherin	-0.01328961
-1.0269834	katherin john	-0.01328961
-1.5022322	winner tie	-0.01328961
-1.0269834	tie knot	-0.01328961
-1.0269834	knot kitsap	-0.01328961
-1.0269834	kitsap peninsula	-0.01328961
-1.8004686	littl island	-0.01328961
-1.0238262	island outsid	-0.01328961
-1.0238262	dog outsid	-0.01328961
-1.0238262	freez outsid	-0.01328961
-1.5022322	outsid seattl	-0.01328961
-1.0269834	seattl washington	-0.01328961
-2.9876978	<eos> side	-0.01328961
-1.0269834	side note	-0.01328961
-1.8664881	like talk	-0.01328961
-1.7502333	let us	-0.01328961
-1.86786	help us	-0.01328961
-1.9697201	want us	-0.01328961
-1.0175767	talk us	-0.01328961
-1.0175767	hate us	-0.01328961
-1.7222166	us shoot	-0.01328961
-1.4945754	offer discount	-0.01328961
-1.0244051	sort discount	-0.01328961
-1.6262378	know win	-0.01328961
-1.3270762	probabl hate	-0.01328961
-1.7222166	us hey	-0.01328961
-1.0269834	hey doesn	-0.01328961
-1.8004686	t hurt	-0.01328961
-1.9238402	thank again	-0.01328961
-1.0269834	again humbl	-0.01328961
-1.4945754	think move	-0.01328961
-1.0244051	humbl move	-0.01328961
-1.7222166	amaz respons	-0.01328961
-1.0269834	respons choos	-0.01328961
-1.0269834	choos difficult	-0.01328961
-1.6262378	ve doleav	-0.01328961
-1.0269834	doleav curtain	-0.01328961
-1.0269834	curtain close	-0.01328961
-1.8007551	let dog	-0.01328961
-1.7853831	never run	-0.01328961
-1.4945754	outsid run	-0.01328961
-1.8664881	like pete	-0.01328961
-2.3105428	s dragon	-0.01328961
-2.9876978	<eos> radline	-0.01328961
-1.9989191	poem the	-0.01328961
-1.0244051	radline the	-0.01328961
-1.3270762	the hobbit	-0.01328961
-1.0269834	hobbit sum	-0.01328961
-1.0269834	sum up	-0.01328961
-1.0269834	up he	-0.01328961
-2.3105428	s gentl	-0.01328961
-1.0269834	gentl soul	-0.01328961
-1.0269834	soul prefer	-0.01328961
-1.3270762	compani anim	-0.01328961
-1.0269834	anim otherhello	-0.01328961
-1.6262378	ve gotten	-0.01328961
-1.8664881	ask box	-0.01328961
-1.0269834	box figur	-0.01328961
-1.8664881	question vari	-0.01328961
-1.0269834	vari basic	-0.01328961
-1.6262378	someth along	-0.01328961
-1.6262378	follow line	-0.01328961
-1.0269834	line how	-0.01328961
-0.5768842	typewrit seri	-0.036776904
-2.9876978	<eos> app	-0.01328961
-2.0321047	use iphon	-0.01328961
-1.3219457	purchas iphon	-0.01328961
-2.8323848	<eos> comput	-0.01328961
-1.3219457	scan comput	-0.01328961
-1.3270762	comput program	-0.01328961
-1.8004686	make vintag	-0.01328961
-2.8323848	<eos> templat	-0.01328961
-1.0244051	vintag templat	-0.01328961
-2.9876978	<eos> font	-0.01328961
-1.8004686	answer all	-0.01328961
-2.3105428	s remington	-0.01328961
-1.0269834	remington rand	-0.01328961
-1.0269834	rand seventeen	-0.01328961
-1.7222166	old piec	-0.01328961
-1.4945754	found paper	-0.01328961
-1.0244051	piec paper	-0.01328961
-1.3219457	paper type	-0.01328961
-1.0244051	quickli type	-0.01328961
-2.8323848	<eos> scan	-0.01328961
-1.9989191	poem scan	-0.01328961
-1.3270762	comput save	-0.01328961
-1.3270762	templat photoshop	-0.01328961
-1.607724	<eos> hope	-0.01328961
-1.6262378	hope helphello	-0.01328961
-1.6262378	tumblr folk	-0.01328961
-1.0269834	folk thi	-0.01328961
-1.0269834	thi call	-0.01328961
-1.0269834	call arm	-0.01328961
-1.4928685	think of	-0.01328961
-1.6138235	look of	-0.01328961
-1.0238262	profil of	-0.01328961
-1.5022322	of displeas	-0.01328961
-1.0244051	displeas host	-0.01328961
-1.0244051	current host	-0.01328961
-1.7222166	us rebuild	-0.01328961
-1.6262378	look function	-0.01328961
-1.0269834	function same	-0.01328961
-1.0269834	same entir	-0.01328961
-1.0269834	entir html	-0.01328961
-2.4232557	digit instead	-0.01328961
-1.0269834	instead flash	-0.01328961
-1.0244051	flash better	-0.01328961
-1.0244051	allow better	-0.01328961
-1.3219457	better seo	-0.01328961
-1.0244051	organ seo	-0.01328961
-1.3270762	seo purpos	-0.01328961
-2.9876978	<eos> current	-0.01328961
-1.3270762	host bludomain	-0.01328961
-1.7222166	us down	-0.01328961
-1.8489753	re dig	-0.01328961
-1.6160799	hope dig	-0.01328961
-2.3105428	s don	-0.01328961
-1.8004686	t allow	-0.01328961
-1.3270762	better organ	-0.01328961
-1.3270762	move squarespac	-0.01328961
-2.9876978	<eos> cup	-0.01328961
-1.0269834	cup tea	-0.01328961
-1.0269834	tea pleas	-0.01328961
-2.8323848	<eos> contact	-0.01328961
-1.0244051	pleas contact	-0.01328961
-1.8018703	me discuss	-0.01328961
-1.0269834	discuss compens	-0.01328961
-2.1291835	love idea	-0.01328961
-1.0244051	compens idea	-0.01328961
-1.6265256	work youhello	-0.01328961
-1.6160799	interest purchas	-0.01328961
-1.4945754	peopl purchas	-0.01328961
-1.3270762	good condit	-0.01328961
-2.0590935	use verizon	-0.01328961
-1.0269834	verizon network	-0.01328961
-2.9876978	<eos> factori	-0.01328961
-1.0269834	factori reset	-0.01328961
-1.0269834	reset believ	-0.01328961
-2.3105428	s readi	-0.01328961
-1.0238262	readi go	-0.01328961
-1.0238262	ebay go	-0.01328961
-1.0238262	moment go	-0.01328961
-2.9876978	<eos> notic	-0.01328961
-1.0269834	notic ebay	-0.01328961
-1.5022322	go around	-0.01328961
-1.3270762	contact via	-0.01328961
-1.8664881	re interestanyon	-0.01328961
-1.3270762	anywher access	-0.01328961
-1.0269834	access sort	-0.01328961
-2.263503	s macbook	-0.01328961
-1.3219457	discount macbook	-0.01328961
-1.3270762	macbook pro	-0.01328961
-1.6262378	will trade	-0.01328961
-1.7820553	make art	-0.01328961
-1.0238262	trade art	-0.01328961
-1.0238262	technolog art	-0.01328961
-1.5022322	art lot	-0.01328961
-1.9249506	help regard	-0.01328961
-1.0269834	regard anyonhello	-0.01328961
-1.0269834	anyonhello tech	-0.01328961
-1.0269834	tech savvi	-0.01328961
-1.6160799	follow mine	-0.01328961
-1.0244051	resembl mine	-0.01328961
-1.7222166	best simplest	-0.01328961
-1.1075076	way set	-0.01328961
-1.3270762	set shop	-0.01328961
-1.0269834	shop cart	-0.01328961
-1.8489753	like them	-0.01328961
-1.7853831	order them	-0.01328961
-1.3270762	them paid	-0.01328961
-2.9876978	<eos> essenti	-0.01328961
-2.0331066	want take	-0.01328961
-1.6160799	everyon take	-0.01328961
-1.5022322	back forth	-0.01328961
-2.059377	want pay	-0.01328961
-1.0269834	pay paypal	-0.01328961
-1.0269834	paypal instantli	-0.01328961
-1.3270762	idea for	-0.01328961
-1.6262378	everyon say	-0.01328961
-1.0269834	say etsi	-0.01328961
-2.162743	would reupload	-0.01328961
-1.3270762	set quantiti	-0.01328961
-1.3270762	run out	-0.01328961
-2.9876978	<eos> realiz	-0.01328961
-1.0269834	realiz truli	-0.01328961
-1.0269834	truli might	-0.01328961
-1.0269834	might crazi	-0.01328961
-1.5022322	now freez	-0.01328961
-1.5022322	outsid sit	-0.01328961
-2.4232557	digit blanket	-0.01328961
-1.0269834	blanket window	-0.01328961
-1.0269834	window wide	-0.01328961
-1.0244051	wide open	-0.01328961
-1.0244051	spook open	-0.01328961
-1.3270762	open pregnant	-0.01328961
-1.4945754	back squirrel	-0.01328961
-1.0244051	pregnant squirrel	-0.01328961
-1.3270762	squirrel ramp	-0.01328961
-1.0269834	ramp built	-0.01328961
-1.0269834	built feeder	-0.01328961
-1.3270762	full bread	-0.01328961
-1.3270762	tri pet	-0.01328961
-1.0269834	pet without	-0.01328961
-1.0269834	without spook	-0.01328961
-1.3270762	open windowyou	-0.01328961
-2.8323848	<eos> feel	-0.01328961
-1.8489753	re feel	-0.01328961
-2.2421644	it give	-0.01328961
-1.3219457	chanc give	-0.01328961
-1.4488379	fun interview	-0.01328961
-1.7001095	littl interview	-0.01328961
-1.7001095	recent interview	-0.01328961
-1.0083679	thoughtcatalogrecent interview	-0.01328961
-1.0083679	fortun interview	-0.01328961
-1.4488379	radio interview	-0.01328961
-1.0083679	bit interview	-0.01328961
-1.0083679	postcheck interview	-0.01328961
-1.6262378	wonder montanapublicradio	-0.01328961
-1.8247538	question rad	-0.01328961
-1.8762683	interview rad	-0.01328961
-1.0206902	montanapublicradio rad	-0.01328961
-1.0206902	npr rad	-0.01328961
-1.4928685	link listen	-0.01328961
-1.845125	question listen	-0.01328961
-1.320798	give listen	-0.01328961
-2.675129	<eos> check	-0.01328961
-1.6918777	ll check	-0.01328961
-1.0206902	wander check	-0.01328961
-1.0206902	tomorrow check	-0.01328961
-2.4952216	<eos> recent	-0.01328961
-1.4659183	found recent	-0.01328961
-1.5823195	check recent	-0.01328961
-1.7901384	articl recent	-0.01328961
-1.3024813	helena recent	-0.01328961
-1.3024813	west recent	-0.01328961
-1.8004686	recent collabor	-0.01328961
-1.0269834	collabor thoughtcatalogrecent	-0.01328961
-1.9235548	interview npr	-0.01328961
-1.7222166	show to	-0.01328961
-1.7222166	best knowledg	-0.01328961
-1.7095827	show didn	-0.01328961
-1.0244051	knowledg didn	-0.01328961
-1.5022322	listen gocongratul	-0.01328961
-1.5022322	winner word	-0.01328961
-1.3270762	m thrill	-0.01328961
-1.9751769	you outpour	-0.01328961
-2.1291835	love creativ	-0.01328961
-2.263503	s creativ	-0.01328961
-1.3270762	creativ beyond	-0.01328961
-1.0269834	beyond inspircheck	-0.01328961
-0.9224951	check articl	-0.01328961
-1.0144854	inspircheck articl	-0.01328961
-1.3024813	am articl	-0.01328961
-1.0144854	meamaz articl	-0.01328961
-1.0144854	share articl	-0.01328961
-1.0144854	lightcheck articl	-0.01328961
-1.7853831	recent wrote	-0.01328961
-1.850008	articl wrote	-0.01328961
-0.63113993	wrote bookish	-0.01328961
-1.3270762	bookish nanowrimo	-0.01328961
-1.1075658	everi singl	-0.061607413
-1.8664881	re boreyou	-0.01328961
-1.8664881	re bore	-0.01328961
-1.6265256	read anyth	-0.01328961
-1.956478	you much	-0.01328961
-1.0244051	anyth much	-0.01328961
-1.3270762	much cooler	-0.01328961
-1.5022322	mayb wander	-0.01328961
-1.1742662	articl huffington	-0.01328961
-1.8004686	year taught	-0.01328961
-1.0269834	taught process	-0.01328961
-1.3270762	dig itgreat	-0.01328961
-1.0269834	itgreat fortun	-0.01328961
-1.9004567	thank cb	-0.01328961
-1.8992742	interview cb	-0.01328961
-1.320798	cerio cb	-0.01328961
-0.80704266	cb philli	-0.01328961
-1.8489753	ask fantast	-0.01328961
-1.3219457	philli fantast	-0.01328961
-1.6171371	rad michael	-0.01328961
-1.3219457	fantast michael	-0.01328961
-0.63113993	michael cerio	-0.01328961
-2.161364	book tour	-0.01328961
-1.6265256	rad chat	-0.01328961
-2.9876978	<eos> scroll	-0.01328961
-1.0269834	scroll click	-0.01328961
-2.1221926	love hear	-0.01328961
-1.4928685	link hear	-0.01328961
-1.320798	am hear	-0.01328961
-1.5022322	hear audio	-0.01328961
-1.3270762	philli onguest	-0.01328961
-1.0269834	onguest morn	-0.01328961
-1.0269834	morn wisconsin	-0.01328961
-1.0244051	wisconsin public	-0.01328961
-1.4945754	montana public	-0.01328961
-1.7853831	recent radio	-0.01328961
-0.63026184	public radio	-0.01328961
-1.5022322	radio joy	-0.01328961
-1.0269834	joy cardin	-0.01328961
-2.059377	want wake	-0.01328961
-2.3733132	digit am	-0.01328961
-1.0244051	flatter am	-0.01328961
-1.5022322	listen download	-0.01328961
-1.9238402	thank meamaz	-0.01328961
-1.5022322	art resembl	-0.01328961
-1.8004686	answer flatter	-0.01328961
-1.8667741	articl shine	-0.01328961
-1.4945754	light fascin	-0.01328961
-1.0244051	dive fascin	-0.01328961
-1.3270762	stay originhi	-0.01328961
-1.3270762	caus super	-0.01328961
-1.0269834	super near	-0.01328961
-1.0269834	near dear	-0.01328961
-1.0269834	dear heart	-0.01328961
-1.0269834	heart can	-0.01328961
-1.3270762	take brief	-0.01328961
-1.0269834	brief moment	-0.01328961
-1.6262378	page casa	-0.01328961
-1.0244051	casa helena	-0.01328961
-1.0244051	live helena	-0.01328961
-2.3105428	s court	-0.01328961
-1.0269834	court appoint	-0.01328961
-1.0269834	appoint special	-0.01328961
-1.0269834	special advoc	-0.01328961
-1.0269834	advoc children	-0.01328961
-1.0269834	children desper	-0.01328961
-1.9249506	help support	-0.01328961
-2.9876978	<eos> head	-0.01328961
-1.0269834	head over	-0.01328961
-1.3270762	leav kind	-0.01328961
-1.0269834	kind encourag	-0.01328961
-2.9876978	<eos> loveflatter	-0.01328961
-1.0269834	loveflatter part	-0.01328961
-1.8004686	year past	-0.01328961
-1.0269834	past magazin	-0.01328961
-1.0269834	magazin valentin	-0.01328961
-1.7225038	day gift	-0.01328961
-1.0269834	gift guid	-0.01328961
-2.9876978	<eos> radyear	-0.01328961
-2.13302	would tyler	-0.01328961
-1.3219457	ago tyler	-0.01328961
-0.63113993	tyler knott	-0.061607413
-1.3219457	method gregson	-0.01328961
-1.0244051	knott gregson	-0.01328961
-1.5022322	gregson stumbl	-0.01328961
-1.0269834	stumbl upon	-0.01328961
-2.0209343	typewrit chang	-0.01328961
-1.0269834	chang life	-0.01328961
-2.0590935	use loos	-0.01328961
-2.161364	book quickli	-0.01328961
-2.162743	would known	-0.01328961
-1.3270762	paper blackout	-0.01328961
-1.5022322	gregson written	-0.01328961
-1.0269834	written thousand	-0.01328961
-1.6262378	tumblr some	-0.01328961
-1.8004686	recent collect	-0.01328961
-2.1616461	love ya	-0.01328961
-1.5022322	fun dive	-0.01328961
-1.3270762	fascin relev	-0.01328961
-1.0269834	relev topic	-0.01328961
-1.5022322	hear feedback	-0.01328961
-1.8007551	thought technolog	-0.01328961
-1.5022322	art combin	-0.01328961
-1.0269834	combin todayit	-0.01328961
-2.3105428	s quit	-0.01328961
-1.0269834	quit possibl	-0.01328961
-1.8004686	never heard	-0.01328961
-1.7222166	one popular	-0.01328961
-1.0269834	popular author	-0.01328961
-1.0238262	author montana	-0.01328961
-1.0238262	newspap montana	-0.01328961
-1.0238262	scott montana	-0.01328961
-1.3270762	photograph live	-0.01328961
-2.8323848	<eos> wall	-0.01328961
-1.850008	articl wall	-0.01328961
-0.63113993	wall street	-0.061607413
-1.0269834	street journal	-0.01328961
-1.3270762	journal report	-0.01328961
-1.5022322	last week	-0.01328961
-1.0269834	week profil	-0.01328961
-1.9235548	interview independ	-0.01328961
-1.0269834	independ newspap	-0.01328961
-1.7222166	best news	-0.01328961
-1.8007551	let partstori	-0.01328961
-1.0269834	partstori rocki	-0.01328961
-1.7095827	show mountain	-0.01328961
-1.0244051	rocki mountain	-0.01328961
-0.63113993	mountain west	-0.01328961
-1.9235548	interview amazingli	-0.01328961
-1.0269834	amazingli talent	-0.01328961
-1.6262378	well spoken	-0.01328961
-1.0269834	spoken clay	-0.01328961
-1.0269834	clay scott	-0.01328961
-1.3219457	west voic	-0.01328961
-1.0244051	newsstandput voic	-0.01328961
-2.9876978	<eos> bit	-0.01328961
-1.9235548	interview great	-0.01328961
-1.0269834	great convers	-0.01328961
-1.6262378	abl togethwow	-0.01328961
-1.6262378	happi share	-0.01328961
-1.8004686	print edit	-0.01328961
-1.0269834	edit tomorrow	-0.01328961
-1.6265256	check local	-0.01328961
-1.0269834	local newsstandput	-0.01328961
-1.5025207	cb philadelphia	-0.01328961
-1.6262378	hope enjoyinterview	-0.01328961
-1.7222166	amaz andréa	-0.01328961
-1.0269834	andréa balt	-0.01328961
-1.6262378	wonder rebel	-0.01328961
-1.0269834	rebel societi	-0.01328961
-1.5025207	chaser lightcheck	-0.01328961
-1.3270762	huffington postcheck	-0.01328961
-2.020866	i blog	-0.01328961
-1.6262378	hope enjoyfollow	-0.01328961
-2.9876978	<eos> sometim	-0.01328961
-2.3105428	s easier	-0.01328961
-1.0269834	easier respond	-0.01328961
-1.4945754	see there	-0.01328961
-1.0244051	respond there	-0.01328961

\3-grams:
-1.1202887	see there </s>
-1.4126581	d will sell
-0.91383326	place onlin sell
-1.2077492	<s> sell almost
-1.3501136	get ask almost
-1.4052488	i ve almost
-1.2643933	poem post almost
-1.2751458	sell almost brand
-0.90911984	almost brand new
-1.2046789	see mani new
-1.3244543	it need new
-1.3244543	best way new
-0.90911984	rebel societi new
-1.3140498	brand new ipad
-0.914269	new ipad air
-1.1171906	s macbook air
-1.1194605	will sell digit
-1.1651144	post almost digit
-1.0404346	ipad air digit
-1.2196462	buy digit digit
-1.2196462	marri digit digit
-1.3642223	book <eos> digit
-1.1194605	season insid digit
-1.2718947	anyon want digit
-1.0404346	want buy digit
-1.0404346	<eos> receiv digit
-0.86460245	get marri digit
-1.0404346	roof stadium digit
-0.86460245	fight defeat digit
-0.86460245	<eos> kill digit
-0.86460245	fire hd digit
-0.86460245	ll throw digit
-0.86460245	it case digit
-1.320568	singl day digit
-1.0404346	stori probabl digit
-1.0404346	purchas iphon digit
-0.86460245	answer all digit
-0.86460245	entir html digit
-0.86460245	go around digit
-0.86460245	outsid sit digit
-0.86460245	want wake digit
-1.2155	knott gregson digit
-1.3212154	air digit gb
-1.3212154	hd digit gb
-0.8870611	macbook air <eos>
-0.76106775	sell digit <eos>
-0.76106775	<eos> digit <eos>
-0.76106775	want digit <eos>
-0.76106775	iphon digit <eos>
-0.58166677	digit gb <eos>
-1.048032	sign book <eos>
-0.51931214	<eos> taker <eos>
-0.51931214	choic taker <eos>
-0.9707666	messag interest <eos>
-1.0538558	haiku love <eos>
-0.75653255	someth hold <eos>
-0.8870611	even photograph <eos>
-1.0365645	ship it <eos>
-1.0365645	download it <eos>
-1.0022932	chaser light <eos>
-0.8041683	digit time <eos>
-0.8041683	time time <eos>
-0.75653255	ship minut <eos>
-0.75653255	a million <eos>
-0.8041683	soonhello friend <eos>
-0.8041683	otherhello friend <eos>
-0.56258917	<eos> help <eos>
-0.50208175	need help <eos>
-0.56258917	arm help <eos>
-1.0367107	upload tumblr <eos>
-0.94103575	new theme <eos>
-0.72313374	websit here <eos>
-0.72313374	address here <eos>
-0.96266687	origin content <eos>
-0.96266687	enjoyfollow instagram <eos>
-0.22935541	imag etc <eos>
-0.22935541	host etc <eos>
-0.22935541	idea etc <eos>
-0.75653255	theme ha <eos>
-1.098233	seventeen typewrit <eos>
-0.94069725	print choic <eos>
-0.98963386	<eos> anyon <eos>
-0.75653255	even harder <eos>
-1.0122504	support get <eos>
-0.75653255	scotland ireland <eos>
-0.9707666	alway will <eos>
-0.8870611	s what <eos>
-0.62732023	book poem <eos>
-0.6559904	type poem <eos>
-0.62732023	voic poem <eos>
-1.0026833	day year <eos>
-0.8041683	typewrit thought <eos>
-0.8041683	squarespac thought <eos>
-0.8870611	twitter too <eos>
-0.74293756	peanut butter <eos>
-0.47240588	eat me <eos>
-0.47240588	scare me <eos>
-0.47240588	journal me <eos>
-0.75653255	get percentag <eos>
-1.0040296	perfectli still <eos>
-0.75653255	littl return <eos>
-1.0338858	font use <eos>
-0.75653255	new home <eos>
-0.74889356	gmail com <eos>
-0.7136557	bookish com <eos>
-0.76567185	ago day <eos>
-0.76567185	everi day <eos>
-0.9707666	book well <eos>
-0.75653255	derrick brown <eos>
-0.9880534	artist work <eos>
-0.75653255	find offens <eos>
-0.51931214	begin with <eos>
-0.51931214	chat with <eos>
-0.9707666	originhi everyon <eos>
-0.94103575	enough enter <eos>
-0.94103575	haiku contest <eos>
-0.75653255	contest giveaway <eos>
-0.7136557	fascin read <eos>
-0.7136557	blog read <eos>
-0.75653255	perfectli schedul <eos>
-0.75653255	seattl washington <eos>
-0.98963386	want us <eos>
-0.75653255	s dragon <eos>
-0.8353843	typewrit seri <eos>
-0.8870611	use iphon <eos>
-0.8870611	vintag templat <eos>
-0.94103575	think of <eos>
-0.8870611	organ seo <eos>
-0.75653255	seo purpos <eos>
-0.75653255	verizon network <eos>
-0.94103575	readi go <eos>
-0.8870611	resembl mine <eos>
-0.75653255	paypal instantli <eos>
-0.75653255	run out <eos>
-0.94103575	question listen <eos>
-0.8870611	you much <eos>
-0.75653255	taught process <eos>
-0.75653255	book tour <eos>
-0.75653255	hear audio <eos>
-0.8870611	casa helena <eos>
-0.75653255	gift guid <eos>
-0.75653255	chang life <eos>
-0.75653255	relev topic <eos>
-0.94103575	author montana <eos>
-0.75653255	best news <eos>
-0.8870611	west voic <eos>
-0.75653255	abl togethwow <eos>
-0.75653255	cb philadelphia <eos>
-1.753414	gb <eos> sign
-1.4356452	print it sign
-1.4332451	peopl s sign
-1.2965455	penguin ship sign
-0.5873937	digit free sign
-0.5873937	two free sign
-1.2530413	societi new book
-1.7527562	help <eos> book
-1.6950421	poem <eos> book
-1.2566646	<eos> sign book
-1.4488399	would like book
-1.2765489	<eos> actual book
-1.1671256	sign bookplat book
-0.89076173	barn nobl book
-0.89076173	way display book
-1.2772826	whilst littl book
-1.3325609	poem you book
-1.3379959	page use book
-1.1676959	publish first book
-0.89076173	t alreadi book
-2.047647	digit <eos> taker
-1.2126702	print choic taker
-1.794086	taker <eos> messag
-0.9114701	<eos> messag interest
-1.1127334	wonder enough interest
-1.5263336	would anyon interest
-1.6565143	you re interest
-1.4623214	interest <eos> put
-1.4623214	typewrit <eos> put
-1.2165335	<eos> put feeler
-1.2345101	air <eos> would
-1.4181107	etc <eos> would
-1.2345101	anyon <eos> would
-1.2345101	montana <eos> would
-0.8975555	put feeler would
-1.293253	<eos> think would
-1.2964492	youhello friend would
-1.2964492	ever thought would
-0.8997887	digit still would
-0.8997887	enter still would
-1.2940155	ever never would
-1.1806408	the first would
-1.09082	offer discount would
-0.8975555	say etsi would
-1.1871206	feeler would like
-1.3016695	still would like
-1.4362602	it s like
-1.253898	run look like
-1.1985239	apparel shirt like
-1.1985239	moment go like
-0.9067822	head over like
-1.4338481	like book daili
-0.914269	book daili haiku
-0.914269	winner word haiku
-1.8167298	etc <eos> love
-1.3764321	alreadi book love
-1.7250652	<eos> would love
-1.09082	daili haiku love
-1.0101004	i d love
-0.8052727	we d love
-1.2964492	need need love
-1.09082	photographi websit love
-1.233639	know velociraptor love
-1.1806408	winner stori love
-0.8975555	you outpour love
-1.4569532	love <eos> actual
-1.4569532	ireland <eos> actual
-1.270727	re interest actual
-1.4338481	actual book form
-0.9114701	book form someth
-2.032404	it s someth
-1.3501136	basic ask someth
-1.4586064	like write someth
-1.2751458	form someth hold
-1.4569532	hold <eos> think
-1.4569532	seo <eos> think
-1.3372762	encourag thought think
-1.7801057	com <eos> fun
-1.4273224	think would fun
-1.2124366	profil of fun
-1.2171726	would fun handwritten
-0.914269	fun handwritten text
-1.270727	origin origin text
-1.1164956	handwritten text mayb
-0.91383326	box figur mayb
-0.91383326	much cooler mayb
-1.2077492	text mayb even
-0.9114701	know watch even
-0.9114701	closer root even
-1.2643933	chariti post even
-1.270727	mayb even photograph
-1.3742248	poet wed photograph
-1.4923304	photograph <eos> wonder
-1.1127334	now made wonder
-1.3662022	littl interview wonder
-0.9114701	andréa balt wonder
-1.270727	<eos> wonder enough
-1.3745183	cannot thank enough
-1.2751458	enough interest pursu
-1.5100423	digit <eos> it
-1.4152821	gb <eos> it
-1.2716243	helena <eos> it
-1.2328509	it sign it
-0.87966996	interest pursu it
-1.371323	pursu it it
-1.22791	it ship it
-1.250752	someon order it
-1.250752	print print it
-1.3076208	never use it
-0.87966996	<eos> bought it
-1.1957532	huffington post it
-0.87966996	host bludomain it
-0.87966996	reset believ it
-0.87966996	art lot it
-1.0632226	re feel it
-0.87966996	bookish nanowrimo it
-1.146943	am hear it
-0.87966996	listen download it
-0.87966996	<eos> sometim it
-1.4120917	all digit s
-0.49746835	<eos> it s
-0.47027755	it it s
-0.47027755	post it s
-0.47027755	bludomain it s
-0.47027755	believ it s
-0.47027755	nanowrimo it s
-0.47027755	sometim it s
-1.1762828	ask peopl s
-0.62287205	<eos> here s
-0.8277915	it here s
-1.0872728	see what s
-1.1762828	way url s
-0.89527905	like pete s
-0.89527905	up he s
-0.89527905	macbook pro s
-0.89527905	magazin valentin s
-0.89527905	combin todayit s
-1.4373451	case digit i
-1.1269186	light <eos> i
-1.224824	friend <eos> i
-1.224824	here <eos> i
-1.1269186	home <eos> i
-1.1269186	contest <eos> i
-1.1269186	topic <eos> i
-1.248744	s someth i
-1.7419306	here s i
-0.9044571	<eos> oh i
-1.2852541	interview amaz i
-1.2852541	month old i
-0.720106	digit i d
-0.71401346	<eos> i d
-0.720106	someth i d
-0.40071374	<eos> we d
-0.40071374	europ we d
-0.40071374	wed we d
-0.40071374	portfolio we d
-1.8165729	d love make
-1.253898	old page make
-0.9067822	thought may make
-1.1053054	decent chanc make
-1.3844409	program use make
-1.1053054	confus confus make
-1.9754908	it s let
-1.3173789	love make let
-1.6958666	<eos> thank let
-1.1979116	olymp team let
-1.3802941	seri poem let
-1.1985239	close whilst let
-1.4994845	us <eos> know
-0.9727057	make let know
-0.9727057	team let know
-1.3081383	dinosaur find know
-1.4140337	let know comment
-1.3372762	hundr email comment
-1.1202887	know comment pleasgotten
-0.9162081	comment pleasgotten hundr
-0.9067822	pleasgotten hundr email
-1.1985239	<eos> now email
-0.9067822	re seriou email
-0.9067822	actual serious email
-0.9067822	contact via email
-1.1053054	want take email
-1.471549	tour <eos> ask
-1.1016384	email comment ask
-1.4740702	mani time ask
-1.3311232	question get ask
-1.3311232	gotten question ask
-1.377494	com use ask
-0.9044571	vari basic ask
-1.3361824	poem let peopl
-1.356633	comment ask peopl
-0.91383326	back forth peopl
-0.9173583	s sign bookplat
-0.9173583	ship sign bookplat
-1.1990691	new book chaser
-1.1990691	bookplat book chaser
-0.914269	recent collect chaser
-0.77781504	book chaser light
-0.74025273	collect chaser light
-0.914269	articl shine light
-1.3412158	chaser light are
-0.9162081	light are avoid
-1.1985239	figur mayb answer
-0.9067822	are avoid answer
-1.482313	mani time answer
-1.6599973	<eos> so answer
-1.3703727	question you answer
-1.3165741	<eos> alway answer
-1.356633	question ask mani
-1.335765	avoid answer mani
-1.2124366	feel see mani
-1.4505447	probabl digit time
-0.7371511	ask mani time
-0.7371511	answer mani time
-1.3244543	internet time time
-0.90911984	occur internet time
-1.3254896	order everi time
-1.3420677	time answer penguin
-1.4356452	sign it ship
-0.90911984	answer penguin ship
-1.1090035	separ begin ship
-1.3234215	shirt print ship
-0.90911984	jump overboard ship
-1.2165335	sign bookplat separ
-0.914269	bookplat separ begin
-0.914269	never sink begin
-1.3140498	begin ship minut
-1.5008124	minut <eos> cannot
-1.3360754	everi stori cannot
-1.1202887	<eos> cannot packag
-0.91383326	cannot packag insid
-0.91383326	dream trap insid
-0.91383326	off season insid
-1.1985239	let peopl order
-1.1985239	packag insid order
-1.1985239	order come order
-1.1053054	time someon order
-1.4093655	typewrit seri order
-0.9067822	them paid order
-1.3420677	insid order amazon
-0.9162081	order amazon barn
-0.9162081	amazon barn nobl
-1.4338481	nobl book a
-0.9162081	book a million
-1.3095152	it <eos> thank
-1.1931347	million <eos> thank
-1.1931347	of <eos> thank
-1.1931347	audio <eos> thank
-1.1931347	news <eos> thank
-1.1127334	stori cannot thank
-1.2077492	hurt offer thank
-1.3331238	stood me thank
-1.7548559	<eos> thank patient
-0.914269	thank patient stay
-1.1171906	s creativ stay
-1.1202887	patient stay tune
-1.4140733	thought would find
-0.90911984	stay tune find
-1.3636653	end help find
-0.90911984	get macgyv find
-0.90911984	one dinosaur find
-1.3140498	tune find soonhello
-0.9067822	find soonhello friend
-1.2908632	wowhello amaz friend
-0.9067822	anim otherhello friend
-0.9067822	hope helphello friend
-0.9067822	work youhello friend
-1.1053054	pregnant squirrel friend
-1.6670866	friend <eos> need
-1.4366136	everyon <eos> need
-1.4303447	use it need
-1.318707	desper need need
-1.6599973	<eos> so need
-1.1979116	i m need
-0.9067822	children desper need
-1.471549	choic <eos> help
-1.3979278	need love help
-1.4251081	lot it help
-0.6928821	<eos> need help
-0.96253014	so need help
-1.248744	anyon abl help
-0.9044571	whoever end help
-0.9044571	call arm help
-1.6496043	<eos> book come
-1.335765	paid order come
-1.3361824	squirrel friend come
-1.2171726	book come soon
-0.914269	come soon publish
-1.336917	helena recent publish
-1.4453024	percentag <eos> want
-1.3070292	shirt like want
-1.0872728	soon publish want
-1.1762828	look theme want
-1.0872728	area grid want
-1.288366	purchas print want
-1.463193	would anyon want
-1.1757011	<eos> anyonanyon want
-1.4387679	didn t want
-1.2665683	would still want
-0.89527905	<eos> essenti want
-1.1416197	like want abl
-1.1416197	publish want abl
-1.5361525	would anyon abl
-0.91383326	great convers abl
-1.4303447	order it way
-1.2908632	macgyv find way
-1.3907989	want abl way
-1.2908632	page best way
-1.1053054	re dig way
-0.9067822	best simplest way
-1.3421644	abl way display
-1.4262453	display book link
-1.810933	here s link
-0.91383326	scroll click link
-1.4075593	anyonanyon want buy
-1.2133036	book link buy
-1.3361824	helphello friend tumblr
-1.1164956	link buy tumblr
-0.8409438	imag upload tumblr
-0.8409438	scan upload tumblr
-1.3501136	go like page
-1.2643933	buy tumblr page
-1.3023032	typewrit old page
-0.9114701	use loos page
-1.2591139	tumblr page best
-1.203112	montana last best
-1.3436909	mine question best
-0.90911984	answer leisur best
-0.90911984	show to best
-1.3081383	way new theme
-1.4126581	love look theme
-0.91383326	integr strand theme
-1.1967121	theme <eos> so
-1.1967121	will <eos> so
-1.1967121	use <eos> so
-1.314198	com <eos> so
-1.1967121	enter <eos> so
-0.91383326	start if so
-0.91383326	hell deal so
-1.888148	help <eos> here
-1.688844	read <eos> here
-1.4410113	hear it here
-1.1127334	littl websit here
-0.9114701	<eos> address here
-1.3251446	<eos> i m
-1.1214489	s i m
-1.3421644	m need fix
-0.914269	need fix sidebar
-1.1171906	feed integr sidebar
-1.1202887	fix sidebar left
-0.914269	sidebar left grid
-1.2126702	content area grid
-1.1202887	left grid layout
-1.4062419	theme want content
-0.91383326	grid layout content
-1.2697376	complet origin content
-0.74141693	want content area
-0.74141693	layout content area
-1.4062419	grid want instagram
-1.2118044	content area instagram
-0.91383326	hope enjoyfollow instagram
-0.74025273	want instagram twitter
-0.74025273	area instagram twitter
-1.1171906	respond there twitter
-1.3412158	instagram twitter feed
-1.3360754	instagram twitter integr
-0.914269	twitter feed integr
-1.1202887	integr sidebar custom
-0.9162081	sidebar custom option
-0.9162081	custom option color
-0.9162081	option color background
-0.914269	color background imag
-0.914269	comput save imag
-1.1164956	background imag etc
-1.1164956	displeas host etc
-1.1164956	compens idea etc
-1.1983788	<eos> love look
-1.1983788	websit love look
-1.1164956	rebuild site look
-1.1164956	outsid run look
-1.1202887	twitter integr strand
-1.2171726	strand theme ha
-1.5067549	ha <eos> whoever
-0.9162081	<eos> whoever end
-1.5008124	giveaway <eos> receiv
-1.3092192	help find receiv
-1.1202887	find receiv two
-1.4654307	throw digit free
-0.914269	receiv two free
-0.8148501	free sign typewrit
-1.2368183	cart upload typewrit
-1.2688491	photoshop old typewrit
-1.3572961	poet use typewrit
-0.8975555	so anyonseem typewrit
-0.8975555	line how typewrit
-0.8975555	rand seventeen typewrit
-0.8975555	would reupload typewrit
-0.8975555	stumbl upon typewrit
-0.8975555	would known typewrit
-1.8811874	me <eos> print
-1.3173789	come order print
-0.84677386	sign typewrit print
-1.3173789	order print print
-1.1985239	t shirt print
-1.1053054	peopl purchas print
-0.8356707	typewrit print choic
-2.0429878	help <eos> olymp
-1.3081383	wonder anyon olymp
-1.3081383	follow one olymp
-1.213844	<eos> olymp full
-0.914269	built feeder full
-1.1202887	olymp full swing
-1.4994845	brown <eos> now
-0.91383326	full swing now
-0.91383326	might crazi now
-1.2133036	swing now made
-1.2133036	year back made
-1.4994845	instantli <eos> anyon
-0.9121146	<eos> would anyon
-0.838536	friend would anyon
-0.88617843	still would anyon
-1.2697376	made wonder anyon
-0.74141693	anyon olymp team
-0.74141693	one olymp team
-1.2165335	olymp team randomli
-0.9114701	team randomli follow
-0.9114701	regardless happen follow
-0.9114701	someth along follow
-0.9114701	tech savvi follow
-1.3173789	chanc make littl
-1.253898	randomli follow littl
-0.9067822	book usfound littl
-1.1985239	cerio whilst littl
-0.9067822	kitsap peninsula littl
-1.1053054	it give littl
-1.336917	follow littl websit
-1.5386665	treehous photographi websit
-1.0613348	<eos> i ll
-1.1185682	oh i ll
-1.3596921	today we ll
-0.91383326	love ya ll
-1.5461935	i ll cheer
-0.9162081	ll cheer regardless
-0.9162081	cheer regardless happen
-1.2591139	happen follow one
-1.203112	will offer one
-1.1090035	butter leav one
-0.90911984	digit rd one
-0.90911984	never heard one
-1.4201921	let know watch
-1.2751458	watch even closer
-0.9162081	even closer root
-1.2751458	root even harder
-1.4623214	harder <eos> anyonanyon
-1.4623214	return <eos> anyonanyon
-1.8641541	me <eos> get
-1.1933777	<eos> anyonanyon get
-0.9044571	photographi itchin get
-1.3311232	articl question get
-1.4717314	didn t get
-0.9044571	ship everyth get
-0.9044571	help support get
-1.3632482	anyonanyon get marri
-1.7275021	digit digit scotland
-0.9162081	digit scotland ireland
-1.3360754	<eos> actual anywher
-0.914269	re interestanyon anywher
-1.1202887	actual anywher europ
-1.8641541	etc <eos> we
-0.9044571	anywher europ we
-1.3465111	shoot wed we
-0.9044571	wed portfolio we
-1.1939836	email today we
-1.1016384	difficult thing we
-0.9044571	us down we
-1.8957919	d love scottish
-0.9162081	love scottish irish
-1.7162211	time <eos> wed
-1.3249733	if so wed
-1.3249733	itchin get wed
-0.9021443	scottish irish wed
-1.4926153	treehous photographi wed
-1.2797166	total write wed
-1.1894902	old poet wed
-0.9021443	us shoot wed
-1.3798404	irish wed start
-0.9162081	wed start if
-2.0429878	help <eos> photographi
-1.3729695	so wed photographi
-0.4741218	compani treehous photographi
-0.58928776	annual treehous photographi
-0.9155338	<eos> photographi compani
-0.9155338	wed photographi compani
-0.914269	soul prefer compani
-0.7604469	photographi compani treehous
-0.914269	first annual treehous
-1.5463792	treehous photographi itchin
-1.3798404	get wed portfolio
-0.99542964	i d will
-1.026334	we d will
-1.2124366	have alway will
-1.2697376	would happi will
-1.4126581	d will offer
-1.2697376	d happi offer
-0.91383326	t hurt offer
-1.3140498	offer one hell
-0.9162081	one hell deal
-1.8227235	digit <eos> you
-1.4243072	year <eos> you
-1.3249733	use ask you
-1.1758527	<eos> thank you
-1.0418525	me thank you
-1.3249733	deal so you
-1.3686702	wed poem you
-1.3249733	friend question you
-0.9021443	m thrill you
-0.9021443	quit possibl you
-1.3554676	down we re
-0.53423774	<eos> you re
-0.67992187	ask you re
-0.67992187	so you re
-0.9114701	open windowyou re
-0.9114701	re boreyou re
-1.6835355	you re seriou
-1.3361824	seriou email today
-1.3983349	typewrit poem today
-0.91383326	accus constantli today
-1.4994845	too <eos> see
-1.3081383	we ll see
-1.1164956	<eos> feel see
-1.4507027	what s what
-1.2133036	ll see what
-1.5067549	what <eos> oh
-1.5461935	i ll total
-0.83789897	s like write
-1.3295494	usfound littl write
-0.9114701	ll total write
-1.4586064	rad show write
-1.7044991	time <eos> poem
-1.3832079	first book poem
-1.0943962	origin text poem
-1.3678627	anyonseem typewrit poem
-1.3338629	write wed poem
-1.3887832	typewrit seri poem
-0.5836302	paper type poem
-0.5836302	quickli type poem
-0.8998438	written thousand poem
-1.0943962	newsstandput voic poem
-1.4338481	you book usfound
-1.3092192	littl write dream
-0.914269	last night dream
-1.0321957	almost digit year
-1.0321957	day digit year
-1.0321957	gregson digit year
-1.1127334	write dream year
-1.4597851	singl day year
-0.9114701	loveflatter part year
-1.3361824	take email back
-1.2124366	friend come back
-1.335765	dream year back
-1.336917	may make laugh
-1.1171906	back made laugh
-1.3832837	old typewrit thought
-1.1053054	made laugh thought
-1.253898	feedback well thought
-1.1053054	would ever thought
-0.9067822	move squarespac thought
-0.9067822	kind encourag thought
-1.3421644	laugh thought may
-1.2133036	there twitter too
-1.1171906	make laugh too
-1.457298	insid digit velociraptor
-1.2643933	find know velociraptor
-1.1127334	laugh too velociraptor
-0.9114701	digit th velociraptor
-1.4264656	velociraptor love peanut
-1.2697376	too velociraptor peanut
-0.91383326	adhes jar peanut
-0.24955997	love peanut butter
-0.24955997	velociraptor peanut butter
-0.24955997	jar peanut butter
-1.7801057	butter <eos> last
-1.2124366	newspap montana last
-0.91383326	journal report last
-1.2171726	<eos> last night
-1.1202887	night dream trap
-1.2171726	trap insid basebal
-0.914269	insid basebal stadium
-0.914269	retreat roof stadium
-1.1202887	basebal stadium off
-0.9162081	stadium off season
-1.270727	digit velociraptor tri
-0.914269	full bread tri
-1.1202887	velociraptor tri eat
-0.9067822	tri eat me
-1.1985239	velociraptor found me
-0.9067822	apolog scare me
-0.9067822	so stood me
-1.1053054	pleas contact me
-1.1979116	street journal me
-1.3632482	<eos> get macgyv
-1.3421644	find way fight
-0.9162081	way fight defeat
-1.4711246	defeat digit ingeni
-0.914269	digit ingeni method
-0.914269	paper blackout method
-1.1202887	ingeni method includ
-0.9162081	method includ mix
-0.9162081	includ mix strong
-0.9162081	mix strong adhes
-0.9162081	strong adhes jar
-1.2756023	peanut butter leav
-1.1171906	like them leav
-1.3140498	leav one dinosaur
-1.794086	butter <eos> kill
-1.4711246	kill digit rd
-1.3140498	rd one retreat
-0.9162081	one retreat roof
-1.4711246	stadium digit th
-1.2697376	th velociraptor found
-1.7172537	<eos> use found
-0.91383326	tumblr some found
-1.3425403	found me whereupon
-0.9162081	me whereupon turn
-0.9162081	whereupon turn angelina
-0.9162081	turn angelina joli
-0.9162081	angelina joli apolog
-0.9162081	joli apolog scare
-1.9568974	me <eos> wowhello
-0.90911984	<eos> wowhello amaz
-0.90911984	music random amaz
-1.1090035	humbl move amaz
-1.3595388	postcheck interview amaz
-0.90911984	hope enjoyinterview amaz
-1.3114191	mayb answer question
-1.3130347	amaz friend question
-1.2852541	show write question
-0.9044571	ve gotten question
-1.1016384	follow mine question
-1.332572	meamaz articl question
-1.1016384	ask fantast question
-1.3420677	you answer leisur
-1.3140498	leisur best place
-0.9162081	best place onlin
-1.203112	onlin sell t
-0.90911984	wed couldn t
-0.90911984	hey doesn t
-0.90911984	s don t
-0.5873937	show didn t
-0.5873937	knowledg didn t
-1.335765	sell t shirt
-1.1164956	want good shirt
-0.91383326	american apparel shirt
-1.3140498	print ship everyth
-1.3632482	everyth get percentag
-1.4075593	<eos> want good
-1.407329	s use good
-1.2171726	good shirt american
-0.9162081	shirt american apparel
-1.4052488	want abl upload
-1.1127334	save imag upload
-1.1127334	poem scan upload
-0.9114701	shop cart upload
-1.2752702	abl upload design
-0.91383326	upload design whilst
-0.91383326	curtain close whilst
-1.2118044	michael cerio whilst
-1.4505447	around digit still
-1.4140733	discount would still
-1.203112	design whilst still
-1.203112	note enter still
-1.2024933	work perfectli still
-1.3141587	whilst still halfway
-0.9162081	still halfway decent
-1.3578418	t get chanc
-0.914269	halfway decent chanc
-1.3420677	make littl return
-1.7275021	digit digit kindl
-0.9162081	digit kindl fire
-0.9162081	kindl fire hd
-2.0978992	it s month
-1.2024933	<eos> put old
-1.3885483	use typewrit old
-1.5623115	digit year old
-0.90911984	s month old
-0.90911984	templat photoshop old
-1.32087	<eos> i ve
-1.1185682	old i ve
-1.3596921	thing we ve
-1.3876429	possibl you ve
-1.253898	ve almost never
-1.4783664	work <eos> never
-1.2908632	overboard ship never
-1.253898	you ve never
-1.1053054	never ever never
-0.9067822	set quantiti never
-1.3118476	still <eos> use
-1.4723513	seri <eos> use
-1.3118476	life <eos> use
-1.9020525	it s use
-1.2386159	loos page use
-1.2997396	almost never use
-1.3738177	gmail com use
-1.185043	new poet use
-0.8998438	<eos> app use
-0.8998438	comput program use
-0.8998438	<eos> font use
-1.3140498	need new home
-1.5461935	i ll throw
-1.794086	taker <eos> bought
-1.4519439	bought it case
-1.2171726	interest actual serious
-0.975286	serious email thetypewriterpoet
-0.975286	via email thetypewriterpoet
-0.66998965	email thetypewriterpoet gmail
-0.6687828	thetypewriterpoet gmail com
-0.91383326	somehow goodread com
-1.2118044	wrote bookish com
-1.7163209	<eos> so anyonseem
-1.6741942	need help caus
-1.2133036	poem today caus
-1.1171906	today caus confus
-1.1171906	caus confus confus
-1.3420677	confus make sad
-0.9114701	make sad show
-0.83909893	montanapublicradio rad show
-0.83909893	npr rad show
-1.3287218	public radio show
-0.9114701	joy cardin show
-1.3140498	sad show natur
-0.914269	show natur thing
-0.914269	choos difficult thing
-1.1202887	natur thing occur
-0.9162081	thing occur internet
-1.7665548	day <eos> origin
-1.3922377	<eos> poem origin
-1.2643933	poem origin origin
-0.9114701	keep complet origin
-1.3922377	text poem post
-1.2643933	<eos> origin post
-0.9114701	quotat chariti post
-1.2071239	articl huffington post
-1.585978	digit year ago
-0.914269	<eos> radyear ago
-1.4411522	valentin s day
-1.1127334	year ago day
-1.3310094	almost everi day
-0.6675786	everi singl day
-1.3361824	dig way url
-1.2697376	origin post url
-0.91383326	tweet went url
-1.6371728	<eos> book well
-1.2077492	post url well
-0.9114701	hear feedback well
-0.9114701	amazingli talent well
-1.2751458	url well correspond
-0.9162081	well correspond tweet
-0.9162081	correspond tweet went
-1.2171726	went url somehow
-0.9162081	url somehow goodread
-1.3372762	everi time someon
-1.2711897	goodread com someon
-1.1202887	com someon misquot
-0.9162081	someon misquot belong
-1.3081383	mani new poet
-1.3081383	year old poet
-0.91383326	misquot belong poet
-1.2171726	belong poet derrick
-0.9162081	poet derrick brown
-1.3372762	now email accus
-1.5885582	thank you accus
-1.1202887	email accus constantli
-1.2133036	constantli today artist
-0.914269	artist steal artist
-1.1202887	today artist steal
-1.4064691	d love work
-1.1983788	stori love work
-1.1164956	steal artist work
-0.91383326	good condit work
-1.4285605	never would ever
-1.336917	<eos> never ever
-1.3140498	would find offens
-1.5067549	offens <eos> except
-0.9162081	<eos> except music
-0.9162081	except music random
-1.3140498	random amaz quotat
-0.9162081	amaz quotat chariti
-1.2751458	post even reblog
-0.914269	even reblog site
-0.914269	us rebuild site
-1.1202887	reblog site attempt
-0.9162081	site attempt keep
-0.9162081	attempt keep complet
-1.4569532	content <eos> alway
-1.4569532	mine <eos> alway
-0.914269	alway have alway
-1.3412158	<eos> alway have
-1.7163209	<eos> so stood
-1.1202887	you accus attack
-0.9162081	accus attack sorri
-0.9162081	attack sorri quick
-0.9162081	sorri quick jump
-0.9162081	quick jump overboard
-1.3420677	ship never sink
-1.1171906	sink begin with
-0.914269	rad chat with
-1.794086	with <eos> address
-1.794086	here <eos> ideahello
-0.9114701	<eos> ideahello everyon
-0.9114701	idea for everyon
-0.9114701	stay originhi everyon
-0.9114701	heart can everyon
-1.1164956	thank enough enter
-1.2697376	ideahello everyon enter
-0.91383326	side note enter
-1.1164956	recent publish first
-1.2124366	everyon enter first
-1.1164956	poem the first
-1.2171726	enter first annual
-1.1164956	word haiku contest
-1.3729695	photographi wed contest
-0.91383326	know win contest
-1.2171726	wed contest giveaway
-1.4711246	receiv digit entri
-0.9162081	digit entri world
-0.9114701	entri world read
-0.9114701	re bore read
-1.1127334	light fascin read
-0.9114701	i blog read
-1.253898	ask almost everi
-1.4048884	book love everi
-1.253898	write someth everi
-1.3173789	seri order everi
-1.4423026	like write everi
-1.25562	world read everi
-0.97333443	love everi stori
-0.97333443	read everi stori
-1.2133036	chose winner stori
-1.2133036	win contest probabl
-1.3360754	everi stori probabl
-1.3798404	<eos> wed couldn
-1.3420677	couldn t alreadi
-1.7163209	<eos> so final
-0.9162081	so final chose
-0.91383326	final chose winner
-0.91383326	katherin john winner
-0.91383326	listen gocongratul winner
-0.8909347	love work perfectli
-0.84279567	condit work perfectli
-1.2165335	work perfectli schedul
-1.4557527	schedul <eos> happi
-1.4557527	togethwow <eos> happi
-1.8303096	<eos> would happi
-1.5937705	we d happi
-1.4201921	<eos> happi proud
-0.9162081	happi proud announc
-0.9162081	proud announc katherin
-0.9162081	announc katherin john
-1.2171726	john winner tie
-0.9162081	winner tie knot
-0.9162081	tie knot kitsap
-0.9162081	knot kitsap peninsula
-1.3420677	peninsula littl island
-0.91383326	littl island outsid
-0.91383326	let dog outsid
-0.91383326	now freez outsid
-1.2171726	island outsid seattl
-0.9162081	outsid seattl washington
-1.5067549	washington <eos> side
-0.9162081	<eos> side note
-1.5488614	would like talk
-1.3244543	s let us
-1.3636653	abl help us
-1.3921595	still want us
-0.90911984	like talk us
-0.90911984	probabl hate us
-1.3140498	talk us shoot
-1.2133036	happi offer discount
-0.914269	access sort discount
-1.2751458	<eos> know win
-1.1202887	contest probabl hate
-1.3140498	hate us hey
-0.9162081	us hey doesn
-1.3420677	doesn t hurt
-1.3799194	offer thank again
-0.9162081	thank again humbl
-1.3360754	<eos> think move
-0.914269	again humbl move
-1.3140498	move amaz respons
-0.9162081	amaz respons choos
-0.9162081	respons choos difficult
-1.2751458	we ve doleav
-0.9162081	ve doleav curtain
-0.9162081	doleav curtain close
-1.3421644	whilst let dog
-1.336917	quantiti never run
-1.2133036	dog outsid run
-1.3632482	look like pete
-1.457408	pete s dragon
-1.5067549	dragon <eos> radline
-1.6057007	type poem the
-0.914269	<eos> radline the
-1.1202887	radline the hobbit
-0.9162081	the hobbit sum
-0.9162081	hobbit sum up
-0.9162081	sum up he
-1.457408	he s gentl
-0.9162081	s gentl soul
-0.9162081	gentl soul prefer
-1.1202887	prefer compani anim
-0.9162081	compani anim otherhello
-1.4201921	i ve gotten
-1.3632482	time ask box
-0.9162081	ask box figur
-1.3632482	answer question vari
-0.9162081	question vari basic
-1.2751458	ask someth along
-1.2751458	along follow line
-0.9162081	follow line how
-0.54200655	upload typewrit seri
-0.54200655	how typewrit seri
-0.54200655	reupload typewrit seri
-0.54200655	known typewrit seri
-1.794086	seri <eos> app
-1.407329	app use iphon
-1.1171906	interest purchas iphon
-1.5008124	iphon <eos> comput
-1.1171906	<eos> scan comput
-1.1202887	<eos> comput program
-1.3420677	use make vintag
-1.5008124	tumblr <eos> templat
-0.914269	make vintag templat
-1.5067549	templat <eos> font
-1.3420677	so answer all
-1.457408	digit s remington
-0.9162081	s remington rand
-0.9162081	remington rand seventeen
-1.3140498	put old piec
-1.2133036	use found paper
-0.914269	old piec paper
-1.1171906	piec paper type
-0.914269	book quickli type
-1.9403478	poem <eos> scan
-1.3994648	thousand poem scan
-1.1202887	scan comput save
-1.1202887	<eos> templat photoshop
-1.4089253	thought <eos> hope
-1.4089253	read <eos> hope
-1.2670484	process <eos> hope
-1.2670484	philadelphia <eos> hope
-1.5161579	<eos> hope helphello
-1.2751458	friend tumblr folk
-0.9162081	tumblr folk thi
-0.9162081	folk thi call
-0.9162081	thi call arm
-1.2124366	thought think of
-1.4126581	love look of
-0.91383326	week profil of
-1.2171726	look of displeas
-0.914269	of displeas host
-0.914269	<eos> current host
-1.3140498	help us rebuild
-1.2751458	site look function
-0.9162081	look function same
-0.9162081	function same entir
-0.9162081	same entir html
-1.4711246	html digit instead
-0.9162081	digit instead flash
-0.914269	instead flash better
-0.914269	t allow better
-1.1171906	flash better seo
-0.914269	better organ seo
-1.1202887	better seo purpos
-1.5067549	purpos <eos> current
-1.1202887	current host bludomain
-1.3140498	let us down
-1.3578418	we re dig
-1.5084898	<eos> hope dig
-1.457408	url s don
-1.3420677	don t allow
-1.1202887	allow better organ
-1.1202887	think move squarespac
-1.794086	thought <eos> cup
-0.9162081	<eos> cup tea
-0.9162081	cup tea pleas
-2.047647	digit <eos> contact
-0.914269	tea pleas contact
-1.3425403	contact me discuss
-0.9162081	me discuss compens
-1.4278231	would love idea
-0.914269	discuss compens idea
-1.4203658	love work youhello
-1.270727	anyon interest purchas
-1.2133036	forth peopl purchas
-1.1202887	use good condit
-1.7325824	<eos> use verizon
-0.9162081	use verizon network
-1.5067549	network <eos> factori
-0.9162081	<eos> factori reset
-0.9162081	factori reset believ
-2.0978992	it s readi
-0.91383326	s readi go
-0.91383326	notic ebay go
-0.91383326	brief moment go
-1.5067549	go <eos> notic
-0.9162081	<eos> notic ebay
-1.2171726	ebay go around
-1.1202887	<eos> contact via
-1.6835355	you re interestanyon
-1.1202887	interestanyon anywher access
-0.9162081	anywher access sort
-1.4507027	pro s macbook
-1.1171906	sort discount macbook
-1.1202887	discount macbook pro
-1.2751458	happi will trade
-1.335765	page make art
-0.91383326	will trade art
-0.91383326	thought technolog art
-1.2171726	trade art lot
-1.380227	it help regard
-0.9162081	help regard anyonhello
-0.9162081	regard anyonhello tech
-0.9162081	anyonhello tech savvi
-1.270727	savvi follow mine
-0.914269	art resembl mine
-1.3140498	question best simplest
-0.975286	it way set
-0.975286	simplest way set
-1.2165335	way set shop
-0.9162081	set shop cart
-1.3578418	over like them
-1.336917	peopl order them
-1.1202887	order them paid
-1.794086	it <eos> essenti
-1.4075593	essenti want take
-1.270727	can everyon take
-1.2171726	email back forth
-1.4134545	print want pay
-0.9162081	want pay paypal
-0.9162081	pay paypal instantli
-1.1202887	love idea for
-1.2751458	for everyon say
-0.9162081	everyon say etsi
-1.4340982	etsi would reupload
-1.2165335	way set quantiti
-1.1202887	never run out
-1.5067549	out <eos> realiz
-0.9162081	<eos> realiz truli
-0.9162081	realiz truli might
