\data\
ngram 1=4154
ngram 2=14165
ngram 3=16699

\1-grams:
-0.60628897	<unk>
-inf	<s>	-0.04900255
-4.618746	</s>
-4.618746	cdbg	-0.04900255
-2.6342387	program	-0.08579166
-2.8987641	may	-0.061932992
-2.8527238	fund	-0.088112295
-2.5614514	servic	-0.096047826
-2.6757853	like	-0.04900255
-4.1777043	emerg	-0.04900255
-3.254498	hous	-0.07827829
-1.9393395	amp	-0.107434474
-4.618746	meal	-0.04900255
-4.618746	wheel	-0.04900255
-2.4446397	support	-0.19919866
-2.6212285	pwd	-0.06981156
-3.0762725	local	-0.20032102
-2.5396686	commun	-0.10780616
-3.561994	urltell	-0.30673483
-2.7731187	congress	-0.103333674
-3.561994	handsoff	-0.07077227
-3.462486	hcb	-0.04900255
-2.174026	medicaid	-0.12355442
-3.8762527	more	-0.04900255
-1.4933164	<eos>	-0.18341096
-2.8314135	share	-0.08521639
-3.041183	stori	-0.0983114
-3.3134077	urlasan	-0.10320838
-4.618746	prais	-0.04900255
-4.1777043	introduct	-0.04900255
-3.462486	rais	-0.04900255
-3.561994	wage	-0.04900255
-3.0087178	act	-0.0707723
-3.202633	urlit	-0.41259772
-1.9612114	s	-0.10562967
-3.6912978	earli	-0.04900255
-4.618746	prepar	-0.04900255
-4.618746	gotv	-0.04900255
-3.202633	check	-0.0663302
-3.6912978	unit	-0.11788711
-2.8111	way	-0.07302982
-3.561994	voter	-0.16515777
-3.3815813	engag	-0.04900255
-3.3815813	guid	-0.1096711
-2.6614902	pdf	-0.062269695
-4.618746	urlcgsbioethic	-0.04900255
-1.7248949	disabl	-0.21853404
-3.462486	justic	-0.12777038
-3.0762725	human	-0.13352057
-3.8762527	genet	-0.14351115
-4.1777043	engin	-0.04900255
-4.1777043	bioethic	-0.04900255
-3.462486	urlaction	-0.5811259
-4.618746	alert	-0.04900255
-2.9502707	member	-0.41429642
-3.1144483	come	-0.06905841
-2.8527238	home	-0.15085472
-2.419761	make	-0.11805833
-3.3815813	sure	-0.07415416
-3.3134077	hear	-0.06905841
-2.8527238	you	-0.36658242
-4.618746	urlmassachusett	-0.04900255
-3.6912978	launch	-0.04900255
-3.041183	abl	-0.32541084
-4.618746	urlpromot	-0.04900255
-3.462486	academ	-0.09369114
-3.6912978	environ	-0.04900255
-3.8762527	faculti	-0.04900255
-2.8527238	mental	-0.71568215
-3.561994	ill	-0.04900255
-2.9502707	resourc	-0.0663302
-4.618746	urlarchaeologist	-0.04900255
-2.8527238	find	-0.058543507
-4.618746	grave	-0.04900255
-4.618746	mississippi	-0.04900255
-3.0762725	first	-0.0663302
-3.0762725	institut	-0.06905841
-1.7216524	digit	-0.2632539
-4.1777043	urlwho	-0.04900255
-3.3815813	decid	-0.04900255
-2.9237542	feder	-0.19242516
-2.9785118	budget	-0.14237288
-3.1563063	govern	-0.04900258
-3.1144483	creat	-0.07077227
-2.7553053	learn	-0.091668025
-2.8987641	here	-0.12439171
-4.1777043	urlcm	-0.04900255
-3.254498	standard	-0.04900255
-3.0087178	requir	-0.09961492
-2.5089154	state	-0.070918016
-4.618746	deliv	-0.04900255
-2.6212285	care	-0.10258558
-3.202633	patient	-0.04900255
-2.7381938	take	-0.14391507
-3.202633	effect	-0.07280655
-3.8762527	urlstill	-0.04900255
-3.561994	littl	-0.04900255
-3.6912978	confus	-0.04900255
-4.618746	chart	-0.04900255
-2.6905668	help	-0.09761523
-2.6085966	url	-0.18462555
-4.618746	handsoffadapt	-0.04900255
-4.1777043	shut	-0.04900255
-3.1144483	differ	-0.07077227
-2.7731187	part	-0.09429362
-3.6912978	dc	-0.04900255
-3.462486	last	-0.04900255
-4.1777043	monday	-0.11788711
-4.618746	adaptandresist	-0.04900255
-3.6912978	urlshare	-0.04900255
-2.5396686	would	-0.0975996
-3.8762527	disastr	-0.04900255
-4.618746	handsoffautisticoldst	-0.04900255
-3.202633	thank	-0.09628718
-4.618746	supporthandsoff	-0.04900255
-3.6912978	snap	-0.11788711
-3.8762527	fed	-0.04900255
-3.8762527	urlfight	-0.04900255
-3.3815813	protectourcar	-0.19151254
-3.041183	isn	-0.9491027
-2.7381938	t	-0.09363641
-3.561994	yet	-0.04900255
-2.6085966	use	-0.114726655
-3.561994	postcard	-0.04900255
-3.0762725	join	-0.09646872
-3.0087178	fight	-0.082080536
-3.0087178	urlthe	-0.04900255
-4.1777043	passag	-0.19979589
-2.8751342	ahca	-0.08539249
-3.6912978	real	-0.04900255
-2.7916942	life	-0.08809127
-3.462486	consequ	-0.09369114
-2.1786273	peopl	-0.20544064
-4.618746	urlhand	-0.04900255
-4.618746	urllindsay_baran	-0.04900255
-3.8762527	mention	-0.04900255
-2.5291736	cut	-0.15792052
-3.8762527	medicar	-0.04900255
-2.9502707	mean	-0.08660318
-4.1777043	dual	-0.19979589
-3.8762527	elig	-0.04900255
-3.1563063	ppl	-0.18557611
-4.618746	hav	-0.04900255
-4.618746	urlalso	-0.04900255
-2.6614902	includ	-0.10012781
-4.1777043	qualifi	-0.04900255
-4.618746	candidatw	-0.04900255
-2.5504234	get	-0.0854633
-3.6912978	hire	-0.04900255
-4.618746	approx	-0.04900255
-2.4801967	work	-0.12953167
-4.1777043	urlshe	-0.04900255
-4.618746	took	-0.04900255
-3.8762527	belong	-0.14351115
-4.1777043	him	-0.19979589
-3.561994	kind	-0.04900255
-4.618746	theft	-0.04900255
-3.254498	independ	-0.09799125
-2.8527238	self	-0.35944748
-4.618746	esteem	-0.04900255
-4.618746	urlsarah	-0.04900255
-4.618746	paleg	-0.04900255
-4.618746	ci	-0.04900255
-4.1777043	ladi	-0.04900255
-4.618746	drag	-0.04900255
-3.202633	wheelchair	-0.09246142
-4.1777043	prop	-0.04900255
-2.8987641	keep	-0.12063244
-3.462486	base	-0.04900255
-4.618746	budgetknow	-0.04900255
-2.49913	us	-0.077342734
-4.618746	amazon	-0.04900255
-4.618746	smile	-0.04900255
-3.1563063	set	-0.07280655
-2.2433567	autist	-0.16117117
-2.9237542	advocaci	-0.095742404
-3.462486	network	-0.049002524
-4.1777043	chariti	-0.04900255
-3.254498	urldon	-0.75721717
-4.1777043	penal	-0.04900255
-2.6614902	want	-0.102663405
-3.8762527	enabl	-0.04900255
-4.1777043	so	-0.04900255
-4.618746	supportthey	-0.04900255
-4.618746	neurotyp	-0.04900255
-2.8111	children	-0.082080536
-3.8762527	urlhandsoff	-0.04900255
-3.1144483	let	-0.10533007
-4.618746	insteadtax	-0.04900255
-4.618746	wealthi	-0.04900255
-4.618746	justifi	-0.04900255
-3.202633	put	-0.0752603
-4.1777043	chop	-0.19979589
-3.1563063	block	-0.5527547
-4.618746	handsoffi	-0.04900255
-3.462486	ve	-0.07077227
-3.3815813	alway	-0.04900255
-3.8762527	known	-0.04900255
-3.202633	pre	-0.47357345
-3.1144483	exist	-0.109647475
-3.462486	condit	-0.06425536
-3.1144483	fact	-0.114682965
-2.9502707	inform	-0.04900255
-2.9237542	mani	-0.08357747
-3.1144483	choic	-0.04900255
-3.8762527	urlkeep	-0.04900255
-4.1777043	thrive	-0.04900255
-4.618746	communthe	-0.04900255
-3.254498	trump	-0.13864106
-3.561994	releas	-0.04900255
-4.1777043	tuesday	-0.04900255
-4.618746	trillion	-0.04900255
-3.3815813	major	-0.04900255
-2.8111	social	-0.3173639
-3.1144483	insur	-0.061308455
-3.041183	assist	-0.08437794
-4.618746	urlstay	-0.04900255
-4.618746	warm	-0.04900255
-4.1777043	winter	-0.04900255
-3.561994	basic	-0.04900255
-2.3390825	need	-0.09637433
-2.7731187	thing	-0.06905841
-4.618746	liheap	-0.04900255
-3.561994	doesn	-0.50194466
-2.8314135	tell	-0.17361479
-3.0762725	presid	-0.17620966
-4.618746	heatfor	-0.04900255
-2.4532597	health	-0.32307997
-2.6476507	live	-0.075326204
-2.6757853	could	-0.07449955
-3.561994	dramat	-0.10320838
-4.618746	worsen	-0.04900255
-3.202633	administr	-0.07077227
-2.8527238	propos	-0.082080536
-3.8762527	becam	-0.04900255
-3.6912978	realiti	-0.04900255
-3.8762527	urlhous	-0.04900255
-3.0087178	essenti	-0.18263806
-3.254498	lead	-0.049002524
-4.618746	hous_mmonotrem	-0.04900255
-3.6912978	fill	-0.04900255
-4.1777043	registr	-0.04900255
-3.3134077	form	-0.04900255
-4.618746	select	-0.04900255
-3.8762527	parti	-0.04900255
-3.561994	switch	-0.10320838
-4.618746	cha	-0.04900255
-3.6912978	urltrump	-0.04900255
-4.1777043	gut	-0.04900255
-4.618746	handsoffssi	-0.04900255
-3.8762527	ssdi	-0.04900255
-3.8762527	secur	-0.049002524
-4.618746	basicncld	-0.04900255
-3.3134077	statement	-0.04900255
-4.1777043	detail	-0.04900255
-4.618746	fy	-0.04900255
-4.618746	handsoffcome	-0.04900255
-2.9237542	someon	-0.063393794
-3.3134077	coordin	-0.07077227
-3.041183	job	-0.10320834
-2.8314135	impact	-0.0963936
-2.8314135	famili	-0.080602325
-4.618746	livehere	-0.04900255
-3.8762527	harm	-0.04900255
-4.618746	presidenti	-0.04900255
-4.618746	handsofftax	-0.04900255
-3.8762527	cannot	-0.04900255
-3.6912978	paid	-0.04900255
-3.561994	expens	-0.04900255
-4.618746	protectourcaradvoc	-0.04900255
-3.3815813	elect	-0.31867146
-3.561994	offici	-0.04900255
-3.8762527	listen	-0.04900255
-3.202633	toolkit	-0.20025101
-3.3815813	that	-0.19151254
-3.3815813	what	-0.4528629
-4.618746	stake	-0.04900255
-4.618746	handsoffautisticb	-0.04900255
-4.618746	mmr	-0.04900255
-4.618746	trisometim	-0.04900255
-3.3134077	worri	-0.04900255
-3.202633	me	-0.15902391
-2.9502707	go	-0.04900255
-3.0087178	day	-0.16370253
-3.0087178	without	-0.04900255
-3.041183	see	-0.04900255
-3.6912978	anoth	-0.04900255
-3.6912978	user	-0.04900255
-3.6912978	break	-0.04900255
-3.6912978	promis	-0.04900255
-2.9237542	protect	-0.076687254
-2.8987641	law	-0.07675138
-3.462486	actual	-0.04900255
-3.3815813	implement	-0.04900255
-2.8751342	polici	-0.059315924
-4.618746	urltrumpbudget	-0.04900255
-4.618746	hint	-0.04900255
-4.1777043	probabl	-0.04900255
-3.254498	respect	-0.04900255
-3.462486	tag	-0.14935629
-4.618746	handsofftell	-0.04900255
-4.618746	realdonaldtrump	-0.04900255
-4.618746	urlparent	-0.04900255
-4.1777043	sick	-0.04900255
-4.1777043	fear	-0.04900255
-3.8762527	trap	-0.04900255
-2.8111	say	-0.05975102
-4.1777043	preexist	-0.19979589
-2.7731187	educ	-0.07595491
-2.6614902	student	-0.18516365
-3.3134077	instead	-0.04900255
-4.1777043	invest	-0.04900255
-4.618746	childreni	-0.04900255
-3.561994	m	-0.04900255
-3.8762527	depend	-0.04900255
-3.561994	on	-0.10320838
-4.618746	urlautisticoctopu	-0.04900255
-4.1777043	whi	-0.04900255
-2.6212285	it	-0.7166115
-4.1777043	cb	-0.04900255
-2.721731	don	-1.0549228
-3.561994	pay	-0.04900255
-4.618746	wallhandsoff	-0.04900255
-4.618746	nocapsnocut	-0.04900255
-4.618746	shortchang	-0.04900255
-3.254498	deni	-0.07827829
-2.2223933	access	-0.1327295
-4.618746	communchri	-0.04900255
-4.618746	pratt	-0.04900255
-4.1777043	apolog	-0.04900255
-3.3134077	deaf	-0.04900255
-4.1777043	fan	-0.04900255
-2.9785118	video	-0.06074147
-4.618746	chide	-0.04900255
-3.254498	folk	-0.07827829
-3.462486	watch	-0.04900255
-4.1777043	mute	-0.04900255
-3.561994	caption	-0.10320838
-3.8762527	urlpresid	-0.2800959
-4.618746	massiv	-0.04900255
-4.618746	urllaud	-0.04900255
-3.6912978	inspir	-0.04900255
-3.3815813	leav	-0.04900255
-4.618746	unnecessarili	-0.04900255
-3.462486	low	-0.20645604
-3.8762527	expect	-0.04900255
-4.1777043	request	-0.04900255
-3.8762527	entitl	-0.04900255
-3.6912978	urlif	-0.04900255
-2.9785118	american	-0.15241873
-3.1563063	becom	-0.04900255
-3.3134077	death	-0.0752603
-4.618746	sentenc	-0.04900255
-3.041183	urlmedicaid	-0.09122084
-3.3815813	lose	-0.04900255
-4.618746	billion	-0.04900255
-3.462486	urlwhat	-0.09369114
-3.0087178	colleg	-0.15460934
-2.6342387	look	-0.056344174
-3.561994	intellectu	-0.50194466
-2.7553053	one	-0.058543507
-3.3134077	approach	-0.04900255
-4.618746	sweep	-0.04900255
-3.3815813	urlarc	-0.11788711
-3.041183	can	-0.61970145
-3.0087178	afford	-0.3950129
-3.8762527	tax	-0.04900255
-4.618746	urlmaxim	-0.04900255
-3.8762527	financi	-0.14351115
-4.618746	stabil	-0.04900255
-2.9502707	employ	-0.09799125
-4.1777043	outcom	-0.04900255
-3.8762527	urltuesday	-0.04900255
-4.618746	blueprint	-0.04900255
-3.0087178	face	-0.04900255
-4.618746	skeptic	-0.04900255
-4.618746	recept	-0.04900255
-4.618746	urlhero	-0.04900255
-3.0762725	senat	-0.0652267
-3.561994	send	-0.14351115
-3.8762527	pictur	-0.04900255
-4.618746	gt	-0.04900255
-3.561994	urladapt	-0.04900255
-3.8762527	frame	-0.04900255
-2.7381938	right	-0.102819644
-4.618746	constitut	-0.04900255
-3.561994	urlhere	-0.30673483
-2.9502707	know	-0.07619467
-4.1777043	chair	-0.04900255
-4.618746	urlsummari	-0.04900255
-3.462486	paper	-0.04900255
-3.561994	asan	-0.18015693
-4.1777043	invit	-0.04900255
-3.3815813	summit	-0.13352057
-3.6912978	decis	-0.04900255
-3.462486	transit	-0.04900255
-4.1777043	urlcriplit	-0.04900255
-3.3134077	chat	-0.04900255
-3.3815813	onlin	-0.04900255
-3.8762527	publish	-0.04900255
-4.1777043	poet	-0.04900255
-3.462486	societi	-0.04900255
-3.561994	urlcanada	-0.04900255
-4.1777043	bar	-0.04900255
-4.1777043	passport	-0.19979589
-3.1144483	offic	-0.06905841
-3.1144483	applic	-0.114682965
-3.254498	review	-0.049002524
-4.618746	urlrow	-0.04900255
-3.8762527	actor	-0.04900255
-3.3815813	play	-0.04900255
-3.3815813	charact	-0.04900255
-3.6912978	profession	-0.04900255
-3.8762527	stage	-0.04900255
-2.9785118	urlcheck	-0.061308455
-4.1777043	iamapreexistingcondit	-0.14351115
-3.1563063	project	-0.09246142
-4.618746	urlauthor	-0.04900255
-3.8762527	upgrad	-0.04900255
-3.3134077	charg	-0.04900255
-3.6912978	polic	-0.04900255
-4.1777043	accus	-0.04900255
-4.618746	illeg	-0.04900255
-4.1777043	shoot	-0.19979589
-4.618746	charl	-0.04900255
-4.618746	kinsey	-0.04900255
-3.1144483	urli	-0.09369114
-3.8762527	anyon	-0.04900255
-4.618746	fix	-0.04900255
-3.0762725	kid	-0.04900255
-4.618746	lay	-0.04900255
-3.3815813	hand	-0.04900255
-4.618746	presum	-0.04900255
-3.0762725	less	-0.06905841
-4.1777043	than	-0.04900255
-4.618746	urlola	-0.04900255
-4.1777043	ojewumi	-0.14351115
-2.403933	talk	-0.08155206
-4.618746	beyoncé	-0.04900255
-3.8762527	music	-0.04900255
-3.3134077	workplac	-0.049002524
-4.1777043	urlwant	-0.04900255
-2.8527238	savemedicaid	-0.10645398
-3.1563063	understand	-0.04900255
-3.6912978	boost	-0.04900255
-4.1777043	knowledg	-0.04900255
-4.618746	urlthing	-0.04900255
-4.618746	bank	-0.04900255
-3.8762527	urljoin	-0.04900255
-4.618746	votevet	-0.04900255
-3.6912978	usa	-0.04900255
-3.8762527	expert	-0.04900255
-3.1563063	discuss	-0.04900255
-3.0762725	cap	-0.15808463
-4.618746	veteran	-0.04900255
-3.1144483	urlpeopl	-0.18757921
-3.8762527	biggest	-0.04900255
-4.1777043	minor	-0.04900255
-3.8762527	urlto	-0.04900255
-3.3134077	great	-0.049002524
-4.1777043	shame	-0.04900255
-4.618746	pois	-0.04900255
-4.1777043	revers	-0.04900255
-4.1777043	victori	-0.04900255
-3.254498	activist	-0.04900255
-3.8762527	achiev	-0.04900255
-3.6912978	urlpittsburgh	-0.11788711
-3.3134077	post	-0.07827829
-4.618746	gazett	-0.04900255
-3.3134077	profil	-0.274295
-4.618746	ablegam	-0.04900255
-3.254498	bring	-0.049002524
-3.202633	game	-0.07280655
-3.8762527	told	-0.04900255
-4.618746	motherhood	-0.04900255
-4.1777043	attitud	-0.04900255
-4.1777043	bottom	-0.04900255
-4.1777043	line	-0.04900255
-4.1777043	broken	-0.04900255
-4.618746	least	-0.04900255
-3.8762527	privat	-0.04900255
-3.3134077	is	-0.19151254
-3.3815813	urlthink	-0.04900255
-4.618746	blue	-0.04900255
-2.8751342	save	-0.13740261
-2.5396686	aca	-0.19131681
-4.1777043	fast	-0.04900255
-3.462486	re	-0.07280655
-3.0087178	still	-0.049002524
-3.202633	risk	-0.0752603
-4.618746	urlimfar	-0.04900255
-3.8762527	bridg	-0.04900255
-2.9785118	research	-0.0752603
-4.1777043	gap	-0.04900255
-4.1777043	incorpor	-0.04900255
-4.618746	intellect	-0.04900255
-3.462486	design	-0.04900255
-4.618746	evalu	-0.04900255
-4.1777043	urlthi	-0.04900255
-3.561994	coupl	-0.04900255
-3.462486	legal	-0.04900255
-3.254498	barrier	-0.04900255
-4.618746	threaten	-0.04900255
-3.041183	parent	-0.0675947
-4.618746	urlvilissathompson	-0.04900255
-4.618746	vilissalet	-0.04900255
-3.6912978	count	-0.04900255
-3.6912978	the	-0.04900255
-3.561994	hurt	-0.04900255
-4.618746	urlboy	-0.04900255
-2.8111	time	-0.04900258
-3.8762527	girl	-0.04900255
-3.6912978	refer	-0.04900255
-3.6912978	treatment	-0.04900255
-3.0762725	matter	-0.06905841
-3.6912978	screen	-0.04900255
-2.4801967	autism	-0.26423353
-4.1777043	urltempl	-0.04900255
-3.3134077	univers	-0.049002524
-3.561994	togeth	-0.04900255
-4.618746	album	-0.04900255
-3.254498	celebr	-0.04900255
-3.8762527	mom	-0.04900255
-3.202633	believ	-0.04900255
-3.8762527	wrong	-0.04900255
-3.6912978	urlautism	-0.11788711
-3.8762527	suicid	-0.04900255
-3.1144483	convers	-0.12063244
-3.6912978	urlhow	-0.04900255
-4.618746	shape	-0.04900255
-3.462486	ident	-0.04900255
-3.462486	woman	-0.11326643
-3.8762527	urlkaiser	-0.04900255
-3.8762527	gather	-0.04900255
-4.618746	reaction	-0.04900255
-3.6912978	around	-0.04900255
-2.8987641	nation	-0.09284939
-3.561994	articl	-0.04900255
-4.618746	urlinclus	-0.04900255
-4.1777043	class	-0.04900255
-3.561994	best	-0.04900255
-2.9785118	option	-0.076687254
-4.1777043	urldo	-0.04900255
-3.1563063	seek	-0.04900255
-4.1777043	valid	-0.04900255
-3.202633	child	-0.15902391
-3.8762527	wish	-0.04900255
-4.1777043	eye	-0.04900255
-3.462486	contact	-0.04900255
-3.1144483	forc	-0.09369114
-3.6912978	urleyeslikeeel	-0.04900255
-2.7381938	ed	-0.14876056
-3.3815813	limit	-0.04900255
-3.3815813	enforc	-0.1096711
-3.1563063	power	-0.04900255
-4.618746	primarili	-0.04900255
-2.8314135	issu	-0.08517954
-3.8762527	guidanc	-0.04900255
-4.618746	referr	-0.04900255
-3.1563063	might	-0.06905841
-4.618746	tie	-0.04900255
-3.8762527	strategi	-0.04900255
-4.618746	distincteyeslikeeel	-0.04900255
-3.202633	direct	-0.0752603
-3.561994	depart	-0.04900255
-3.254498	level	-0.0752603
-4.618746	leverag	-0.04900255
-4.618746	howev	-0.04900255
-4.618746	chooseyeslikeeel	-0.04900255
-2.9502707	case	-0.04900255
-3.8762527	sit	-0.04900255
-4.1777043	file	-0.04900255
-3.8762527	prioriti	-0.04900255
-4.618746	changeyeslikeeel	-0.04900255
-4.1777043	categori	-0.04900255
-3.1144483	higher	-0.36760378
-3.1144483	up	-0.2382052
-4.618746	discourag	-0.04900255
-4.1777043	from	-0.04900255
-4.618746	priorit	-0.04900255
-3.6912978	capac	-0.04900255
-4.618746	extrem	-0.04900255
-4.618746	variabl	-0.04900255
-3.3815813	interest	-0.04900255
-4.618746	o	-0.04900255
-3.6912978	abil	-0.04900255
-4.618746	pic	-0.04900255
-3.3815813	we	-0.21630307
-3.8762527	ll	-0.04900255
-2.8111	i	-0.33363774
-3.8762527	walk	-0.04900255
-3.3134077	away	-0.082080536
-3.6912978	left	-0.04900255
-4.1777043	born	-0.04900255
-4.1777043	nobodi	-0.04900255
-4.618746	askanc	-0.04900255
-4.618746	urlelect	-0.04900255
-3.3815813	urlautist	-0.04900255
-3.1563063	women	-0.09246142
-3.041183	year	-0.11512576
-3.6912978	diagnosi	-0.04900255
-3.202633	struggl	-0.04900255
-3.3815813	result	-0.04900255
-3.041183	urlpadsa	-0.9491027
-3.8762527	forget	-0.04900255
-4.1777043	danger	-0.04900255
-3.3134077	remind	-0.04900255
-3.462486	mother	-0.09369114
-4.1777043	sister	-0.04900255
-3.8762527	daughter	-0.04900255
-4.1777043	urlcomic	-0.04900255
-3.1563063	book	-0.07077227
-4.618746	lion	-0.04900255
-4.618746	forg	-0.04900255
-3.3815813	said	-0.04900255
-3.8762527	introduc	-0.04900255
-3.6912978	name	-0.04900255
-4.618746	jonah	-0.04900255
-3.3134077	syndrom	-0.04900255
-2.7058694	urldigit	-0.2899087
-3.6912978	hope	-0.04900255
-4.618746	revamp	-0.04900255
-4.1777043	era	-0.04900255
-4.618746	urlcontroversi	-0.04900255
-3.1144483	special	-0.35458118
-4.1777043	ban	-0.04900255
-3.3815813	texa	-0.04900255
-3.8762527	lawmak	-0.04900255
-3.6912978	greater	-0.04900255
-4.618746	boston	-0.04900255
-3.0762725	report	-0.04900258
-2.6476507	person	-0.07894496
-3.3815813	perspect	-0.04900255
-3.6912978	behavior	-0.04900255
-4.1777043	intervent	-0.04900255
-3.1144483	w	-0.1310493
-3.6912978	dd	-0.04900255
-4.618746	odpc	-0.04900255
-3.6912978	urlwebinar	-0.04900255
-3.3815813	integr	-0.082080536
-4.618746	urlaucd	-0.04900255
-3.3134077	virtual	-0.04900255
-4.618746	traine	-0.04900255
-3.462486	aucd	-0.09369114
-2.8111	confer	-0.17888951
-3.561994	sign	-0.14935629
-3.462486	urlpeat	-0.38591608
-4.618746	jobseek	-0.04900255
-4.1777043	brand	-0.04900255
-4.618746	investor	-0.04900255
-3.561994	account	-0.0752603
-4.618746	owner	-0.04900255
-4.1777043	cbo	-0.04900255
-3.6912978	manag	-0.11788711
-3.3815813	long	-0.04900255
-4.618746	term	-0.04900255
-4.618746	mltss	-0.04900255
-4.618746	nonpartisan	-0.04900255
-3.6912978	do	-0.11788711
-4.618746	ts	-0.04900255
-3.3815813	c	-0.049002524
-4.618746	nonprofit	-0.04900255
-4.618746	urlcrip	-0.04900255
-3.8762527	con	-0.04900255
-2.6757853	chang	-0.122756414
-4.1777043	geek	-0.04900255
-3.462486	comic	-0.04900255
-4.1777043	convent	-0.04900255
-4.618746	urlburnout	-0.04900255
-3.3815813	happen	-0.04900255
-3.6912978	entir	-0.04900255
-3.8762527	they	-0.2800959
-3.1144483	allow	-0.07077227
-3.462486	no	-0.09369114
-4.618746	urlroot	-0.04900255
-3.0762725	cover	-0.08701852
-3.3815813	urlaca	-0.07280655
-2.8314135	import	-0.07938996
-4.1777043	answer	-0.04900255
-3.254498	question	-0.07827829
-4.618746	teen	-0.04900255
-4.618746	niko	-0.04900255
-4.618746	boskov	-0.04900255
-4.1777043	trip	-0.04900255
-4.618746	un	-0.04900255
-3.3134077	urlaccess	-0.049002524
-3.462486	critic	-0.09369114
-3.6912978	all	-0.04900255
-4.618746	moc	-0.04900255
-3.3815813	role	-0.08701852
-3.3815813	art	-0.04900255
-3.561994	present	-0.04900255
-3.0087178	world	-0.04900255
-3.8762527	urlconcern	-0.04900255
-3.8762527	caus	-0.04900255
-4.618746	hero	-0.04900255
-3.6912978	urljodyyarborough	-0.40503463
-4.1777043	rebelwheelsnyc	-0.19979589
-4.618746	greggberatan	-0.04900255
-3.1144483	there	-0.6869461
-3.6912978	websit	-0.04900255
-3.3815813	date	-0.04900255
-3.041183	back	-0.0675947
-3.6912978	search	-0.04900255
-4.1777043	judg	-0.04900255
-4.618746	rotenberg	-0.04900255
-4.618746	centerjodyyarborough	-0.04900255
-3.1563063	seri	-0.06905841
-3.6912978	vs	-0.04900255
-3.8762527	jrc	-0.14351115
-3.3134077	link	-0.049002524
-4.618746	aprais	-0.04900255
-3.8762527	letter	-0.04900255
-4.1777043	object	-0.04900255
-3.8762527	fda	-0.04900255
-4.1777043	grab	-0.04900255
-4.618746	younoemi	-0.04900255
-4.618746	martinez	-0.04900255
-4.618746	parallel	-0.04900255
-4.618746	disenfranchis	-0.04900255
-4.618746	handmaiden	-0.04900255
-4.618746	tale	-0.04900255
-4.618746	urlamid	-0.04900255
-4.1777043	louisiana	-0.04900255
-3.3815813	nurs	-0.4528629
-3.561994	seen	-0.04900255
-3.3134077	rate	-0.04900255
-3.1144483	increas	-0.04900255
-3.462486	everi	-0.04900255
-4.1777043	singl	-0.04900255
-3.462486	decad	-0.04900255
-4.618746	news	-0.04900255
-3.3815813	point	-0.04900255
-3.1563063	move	-0.07280655
-4.618746	urlplaylist	-0.04900255
-4.1777043	wioa	-0.04900255
-4.1777043	practition	-0.04900255
-4.618746	urlgeorgetown	-0.04900255
-3.8762527	offer	-0.04900255
-2.7553053	new	-0.09818566
-3.1563063	studi	-0.08006345
-3.3815813	fall	-0.04900255
-4.618746	urlthompson	-0.04900255
-3.8762527	foster	-0.04900255
-4.618746	overdu	-0.04900255
-3.462486	race	-0.14351115
-3.462486	intersect	-0.14351115
-4.1777043	alarm	-0.04900255
-2.7058694	advoc	-0.06783322
-4.618746	ncld	-0.04900255
-3.6912978	edit	-0.04900255
-4.618746	urlurl	-0.04900255
-4.618746	longstand	-0.04900255
-3.8762527	tradit	-0.04900255
-4.1777043	physic	-0.04900255
-4.618746	athlet	-0.04900255
-3.8762527	compet	-0.04900255
-4.1777043	paralymp	-0.04900255
-4.618746	gameniaoverstreet	-0.04900255
-3.8762527	actuallyautist	-0.04900255
-3.561994	attend	-0.04900255
-4.1777043	fundament	-0.04900255
-3.561994	freedom	-0.04900255
-3.041183	bodi	-0.06262433
-3.3815813	often	-0.04900255
-3.462486	grant	-0.076687254
-4.618746	urlnurs	-0.04900255
-3.6912978	leader	-0.04900255
-4.618746	donat	-0.04900255
-3.202633	million	-0.1729424
-4.1777043	documentari	-0.04900255
-4.1777043	chronicl	-0.04900255
-3.561994	effort	-0.04900255
-4.618746	bolivian	-0.04900255
-3.1144483	protest	-0.0675947
-4.1777043	daili	-0.04900255
-4.618746	task	-0.04900255
-3.8762527	babi	-0.04900255
-4.1777043	recognis	-0.04900255
-3.6912978	wa	-0.04900255
-3.3815813	urla	-0.32544753
-3.202633	group	-0.04900255
-4.618746	asu	-0.04900255
-3.8762527	welcom	-0.04900255
-3.1563063	high	-0.15646756
-2.8527238	school	-0.07719806
-3.8762527	campu	-0.04900255
-3.1563063	urlwe	-0.19753127
-4.618746	templat	-0.04900255
-2.8751342	ask	-0.07280655
-3.1144483	realli	-0.04900258
-4.618746	maintain	-0.04900255
-4.618746	pride	-0.04900255
-2.8987641	disabledyoutub	-0.057300586
-3.0762725	idea	-0.04900255
-3.3815813	medic	-0.13352057
-4.618746	throw	-0.04900255
-4.618746	paroxysm	-0.04900255
-4.618746	paralysi	-0.04900255
-4.618746	urlgraduat	-0.04900255
-4.1777043	dispar	-0.04900255
-4.618746	compound	-0.04900255
-4.618746	urlimpact	-0.04900255
-4.1777043	urlfashion	-0.04900255
-4.1777043	sfsu	-0.04900255
-4.1777043	piec	-0.04900255
-4.1777043	commiss	-0.04900255
-3.6912978	senior	-0.04900255
-3.0087178	show	-0.04900255
-4.1777043	urlpotenti	-0.04900255
-3.6912978	georgia	-0.04900255
-4.618746	urlclombin	-0.04900255
-4.1777043	yeah	-0.04900255
-4.1777043	sorri	-0.04900255
-4.1777043	technic	-0.04900255
-4.618746	snafu	-0.04900255
-4.618746	rikkipoynt	-0.04900255
-4.618746	gotten	-0.04900255
-4.618746	pretti	-0.04900255
-4.618746	urllouisiana	-0.04900255
-3.3815813	legisl	-0.04900255
-4.1777043	choos	-0.04900255
-3.462486	full	-0.04900255
-4.618746	jan	-0.04900255
-3.8762527	second	-0.04900255
-4.1777043	quarter	-0.04900255
-3.6912978	newslett	-0.04900255
-4.618746	urlalexi	-0.04900255
-4.618746	toliv	-0.04900255
-3.3815813	activ	-0.04900255
-2.8751342	black	-0.2544565
-4.618746	urlof	-0.04900255
-4.618746	sr	-0.04900255
-3.3815813	repres	-0.04900255
-4.1777043	friendli	-0.04900255
-4.1777043	urlprofil	-0.04900255
-4.618746	priya	-0.04900255
-4.618746	penner	-0.04900255
-4.618746	she	-0.04900255
-4.618746	urlno	-0.04900255
-3.561994	ever	-0.04900255
-4.618746	graduat	-0.04900255
-3.561994	appear	-0.04900255
-3.561994	behind	-0.04900255
-4.1777043	sat	-0.04900255
-3.0087178	start	-0.0663302
-4.1777043	cri	-0.04900255
-3.3815813	place	-0.04900255
-3.1563063	meet	-0.12777038
-4.618746	urlat	-0.04900255
-3.6912978	reli	-0.20982483
-4.1777043	fashion	-0.04900255
-3.8762527	strong	-0.04900255
-4.618746	urlridekc	-0.04900255
-3.462486	demand	-0.04900255
-4.618746	kcata	-0.04900255
-4.1777043	mobil	-0.04900255
-3.561994	agenc	-0.04900255
-4.1777043	mode	-0.04900255
-3.3134077	compani	-0.04900255
-3.6912978	earn	-0.04900255
-3.561994	urlliz	-0.30673483
-2.9237542	interview	-0.04900255
-4.618746	congressman	-0.04900255
-4.1777043	jim	-0.04900255
-4.618746	langevin	-0.04900255
-4.618746	lifespan	-0.04900255
-4.618746	respit	-0.04900255
-4.618746	bipartisan	-0.04900255
-4.618746	caucu	-0.04900255
-3.561994	asl	-0.10320838
-2.8987641	public	-0.18725064
-4.618746	disabledyoutubinterview	-0.04900255
-4.618746	khairani	-0.04900255
-4.618746	barokka	-0.04900255
-4.618746	indonesian	-0.04900255
-3.6912978	writer	-0.04900255
-3.3134077	artist	-0.082080536
-3.8762527	chronic	-0.14351115
-4.618746	urlc	-0.04900255
-4.618746	p	-0.04900255
-3.0762725	leadership	-0.114682965
-2.8987641	inclus	-0.09122084
-3.1144483	non	-0.14642388
-2.8314135	webinar	-0.15250953
-4.618746	archiv	-0.04900255
-3.6912978	urlget	-0.20982483
-3.3815813	involv	-0.07280655
-4.1777043	urlsyracus	-0.19979589
-4.1777043	cycl	-0.04900255
-3.6912978	ad	-0.04900255
-3.254498	adapt	-0.049002524
-4.618746	bike	-0.04900255
-3.6912978	expand	-0.20982483
-4.618746	spectacl	-0.04900255
-3.561994	host	-0.04900255
-3.561994	represent	-0.04900255
-3.254498	media	-0.109647475
-4.618746	urlmark	-0.04900255
-2.9502707	benefit	-0.09794068
-4.618746	urlinvoluntari	-0.04900255
-4.618746	servitud	-0.04900255
-3.8762527	development	-0.2800959
-4.1777043	dr	-0.04900255
-4.618746	anita	-0.04900255
-4.618746	silver	-0.04900255
-4.1777043	professor	-0.04900255
-4.1777043	philosophi	-0.04900255
-4.1777043	urlabl	-0.04900255
-3.1563063	avail	-0.13864106
-4.618746	missouri	-0.04900255
-4.618746	applaud	-0.04900255
-3.3134077	other	-0.04900255
-4.618746	insist	-0.04900255
-4.618746	urlmaggi	-0.04900255
-4.618746	winston	-0.04900255
-3.3134077	liz	-0.16142768
-3.561994	urlinterview	-0.04900255
-4.618746	joanna	-0.04900255
-4.618746	haigood	-0.04900255
-4.618746	antoin	-0.04900255
-4.618746	hunter	-0.04900255
-3.3134077	die	-0.04900255
-3.561994	brown	-0.04900255
-3.462486	urlthere	-0.25172472
-4.618746	sex	-0.04900255
-3.1563063	feel	-0.10085248
-3.8762527	posit	-0.04900255
-2.8314135	love	-0.07174405
-3.3134077	relationship	-0.049002524
-3.6912978	far	-0.04900255
-3.561994	complex	-0.04900255
-4.618746	nuanc	-0.04900255
-2.9785118	think	-0.04900255
-4.618746	urltoward	-0.04900255
-3.202633	end	-0.07280655
-3.3134077	someth	-0.082080536
-3.6912978	shift	-0.04900255
-4.1777043	mirror	-0.04900255
-4.1777043	felt	-0.04900255
-4.1777043	cute	-0.04900255
-3.8762527	key	-0.04900255
-4.618746	fundrais	-0.04900255
-2.8314135	urluk	-0.07719806
-4.618746	cripthevoteuk	-0.04900255
-4.618746	thunderclap	-0.04900255
-3.202633	vote	-0.07280655
-3.6912978	urlblack	-0.10320838
-3.3134077	intern	-0.19151254
-4.1777043	hip	-0.19979589
-4.618746	hop	-0.04900255
-3.6912978	urllet	-0.17254345
-4.618746	unpack	-0.04900255
-3.6912978	damag	-0.04900255
-3.3815813	label	-0.04900255
-3.462486	function	-0.12868428
-3.8762527	urlautimfar	-0.04900255
-3.202633	cultur	-0.04900255
-4.618746	funder	-0.04900255
-4.618746	urlthank	-0.04900255
-3.3815813	everyon	-0.04900255
-3.6912978	free	-0.04900255
-4.1777043	convo	-0.04900255
-3.561994	tonight	-0.50194466
-4.618746	autimfaramcdphd	-0.04900255
-4.618746	autchatmod	-0.04900255
-3.8762527	if	-0.04900255
-3.8762527	loop	-0.04900255
-4.618746	nicocoautimfar	-0.04900255
-4.618746	urlarea	-0.04900255
-4.1777043	esp	-0.04900255
-4.618746	context	-0.04900255
-3.561994	excit	-0.04900255
-4.1777043	autimfara	-0.19979589
-3.462486	well	-0.04900255
-3.3134077	appli	-0.14739917
-4.618746	clinic	-0.04900255
-3.8762527	area	-0.04900255
-4.618746	wld	-0.04900255
-4.618746	autimfarcodeman	-0.04900255
-4.618746	dianejwright	-0.04900255
-3.3815813	good	-0.04900255
-3.3134077	tip	-0.04900255
-4.618746	twitterchatsuereview	-0.04900255
-3.202633	id	-0.07077227
-4.1777043	pet	-0.04900255
-3.041183	accept	-0.06988021
-3.8762527	plain	-0.2800959
-3.561994	languag	-0.049002524
-3.6912978	a	-0.04900255
-4.618746	urlsuereview	-0.04900255
-3.8762527	comment	-0.04900255
-3.6912978	hate	-0.20982483
-3.561994	treat	-0.04900255
-3.8762527	okay	-0.04900255
-4.618746	horribl	-0.04900255
-4.618746	abt	-0.04900255
-4.618746	urlautisticb	-0.04900255
-3.561994	autimfar	-0.17254345
-3.202633	also	-0.04900255
-3.1563063	open	-0.12063244
-3.462486	close	-0.04900255
-4.618746	bothkimel	-0.04900255
-4.618746	pigeonhol	-0.04900255
-4.618746	stu	-0.04900255
-4.618746	urltimgordonjr	-0.04900255
-3.8762527	thinkingaut	-0.04900255
-4.618746	elaboreyeslikeeel	-0.04900255
-4.618746	ye	-0.04900255
-4.1777043	absolut	-0.04900255
-3.462486	huge	-0.04900255
-4.618746	diff	-0.04900255
-3.561994	rememb	-0.10320838
-4.1777043	yr	-0.04900255
-4.1777043	ago	-0.04900255
-4.618746	st	-0.04900255
-4.618746	aaspir	-0.04900255
-4.618746	blown	-0.04900255
-3.6912978	field	-0.04900255
-4.1777043	tho	-0.04900255
-4.618746	autimfarautchatmod	-0.04900255
-4.618746	amcdphd	-0.04900255
-4.618746	sound	-0.04900255
-3.561994	nice	-0.04900255
-3.561994	be	-0.04900255
-3.6912978	signal	-0.20982483
-4.1777043	recogn	-0.04900255
-3.1144483	read	-0.07077227
-4.618746	autimfarimport	-0.04900255
-4.618746	note	-0.04900255
-4.618746	urlendeverstar	-0.04900255
-4.618746	joincnicolaidi	-0.04900255
-4.618746	twittospherautimfar	-0.04900255
-2.9785118	provid	-0.06425536
-3.8762527	aac	-0.04900255
-4.618746	healthcara	-0.04900255
-3.6912978	determin	-0.04900255
-3.462486	especi	-0.04900255
-3.6912978	segreg	-0.04900255
-3.0762725	divers	-0.04900255
-4.618746	racial	-0.04900255
-4.618746	ethnic	-0.04900255
-4.1777043	gender	-0.04900255
-3.6912978	tran	-0.11788711
-4.618746	lgbq	-0.04900255
-4.618746	autimfardrdebah	-0.04900255
-4.618746	hi	-0.04900255
-4.618746	steven	-0.04900255
-4.618746	theni	-0.04900255
-3.6912978	savannah	-0.04900255
-4.618746	autimfarexcit	-0.04900255
-4.618746	dig	-0.04900255
-4.618746	usautimfar	-0.04900255
-3.8762527	minut	-0.04900255
-3.8762527	twitterchat	-0.04900255
-4.618746	importknow	-0.04900255
-4.1777043	beyond	-0.04900255
-3.6912978	nomin	-0.04900255
-4.1777043	hearn	-0.04900255
-3.462486	award	-0.04900255
-3.8762527	hour	-0.14351115
-3.3134077	follow	-0.082080536
-3.1563063	particip	-0.04900255
-4.618746	urlpresent	-0.04900255
-4.1777043	intersection	-0.04900255
-4.618746	portland	-0.04900255
-3.0762725	urlknow	-0.16323398
-3.1563063	futur	-0.04900255
-4.618746	urlb	-0.04900255
-3.561994	tech	-0.04900255
-4.618746	studio	-0.04900255
-3.3815813	miss	-0.04900255
-4.1777043	ajstream	-0.04900255
-4.618746	thnx	-0.04900255
-3.8762527	snarkbat	-0.04900255
-4.618746	vilissathompson	-0.04900255
-4.618746	andrewpulrang	-0.04900255
-4.618746	perspectajstream	-0.04900255
-4.618746	gmt	-0.04900255
-3.6912978	polit	-0.04900255
-4.618746	cripthevotajstream	-0.04900255
-4.618746	disbl	-0.04900255
-4.1777043	trumpcar	-0.04900255
-3.561994	potenti	-0.04900255
-3.3134077	affect	-0.04900255
-4.618746	liveajstream	-0.04900255
-2.9502707	healthcar	-0.09284939
-3.561994	reform	-0.04900255
-3.6912978	debat	-0.04900255
-4.618746	iamapreexistingconditajstream	-0.04900255
-4.1777043	urldot	-0.19979589
-3.6912978	civil	-0.40503463
-3.8762527	symposium	-0.14351115
-3.6912978	urluse	-0.04900255
-2.7731187	urldisabl	-0.16826461
-4.618746	pace	-0.04900255
-4.618746	tutori	-0.04900255
-3.561994	julia	-0.16515777
-4.618746	bascom	-0.04900255
-4.618746	al	-0.04900255
-4.618746	jazeera	-0.04900255
-3.6912978	stream	-0.10320838
-4.1777043	pm	-0.0752603
-4.1777043	et	-0.04900255
-3.6912978	industri	-0.04900255
-4.1777043	shortag	-0.04900255
-3.462486	worker	-0.08701852
-4.1777043	marketplac	-0.04900255
-4.618746	urlemploy	-0.04900255
-4.618746	spharc	-0.04900255
-4.618746	itac	-0.04900255
-4.618746	coffe	-0.04900255
-3.561994	director	-0.04900255
-3.6912978	oper	-0.04900255
-4.1777043	zoe	-0.19979589
-4.1777043	gross	-0.04900255
-3.041183	tri	-0.082080536
-3.561994	difficult	-0.04900255
-3.3134077	toward	-0.11326643
-4.618746	urllolo	-0.04900255
-3.561994	stand	-0.04900255
-3.6912978	script	-0.11788711
-4.618746	toronto	-0.04900255
-4.1777043	man	-0.04900255
-3.6912978	urltomorrow	-0.04900255
-4.1777043	tpga	-0.04900255
-3.8762527	autchat	-0.04900255
-3.8762527	awn	-0.04900255
-4.1777043	built	-0.04900255
-3.6912978	too	-0.11788711
-4.618746	doe	-0.04900255
-4.1777043	star	-0.04900255
-3.561994	u	-0.17254345
-4.618746	narr	-0.04900255
-3.254498	featur	-0.049002524
-3.561994	competit	-0.17254345
-4.618746	tribeca	-0.04900255
-4.618746	dwp	-0.04900255
-3.6912978	attempt	-0.04900255
-3.3134077	stop	-0.04900255
-3.3815813	press	-0.12201164
-4.618746	bedroom	-0.04900255
-4.618746	shot	-0.04900255
-3.202633	court	-0.09246142
-3.3815813	urlnew	-0.07827829
-4.618746	york	-0.04900255
-4.618746	citi	-0.04900255
-4.1777043	su	-0.04900255
-3.6912978	inaccess	-0.04900255
-4.618746	subway	-0.04900255
-4.618746	karin	-0.04900255
-2.9785118	experi	-0.049002524
-4.1777043	nyc	-0.19979589
-3.561994	urltoday	-0.16515777
-3.202633	deadlin	-0.33751896
-3.6912978	submit	-0.20982483
-3.6912978	root	-0.40503463
-4.1777043	ncil	-0.04900255
-3.3815813	shouldn	-0.64807266
-3.6912978	minimum	-0.20982483
-3.462486	step	-0.09369114
-4.618746	backward	-0.04900255
-3.6912978	urlyou	-0.20982483
-4.1777043	stuff	-0.04900255
-4.1777043	besid	-0.04900255
-4.1777043	float	-0.04900255
-4.1777043	space	-0.04900255
-4.618746	resembl	-0.04900255
-4.1777043	version	-0.04900255
-3.6912978	latinx	-0.082080536
-3.8762527	urlwhi	-0.04900255
-3.6912978	cours	-0.04900255
-3.8762527	shock	-0.04900255
-4.1777043	devic	-0.04900255
-2.9502707	center	-0.08521639
-3.202633	ada	-0.04900255
-3.8762527	suit	-0.04900255
-3.6912978	urlso	-0.04900255
-3.3815813	enough	-0.08701852
-4.618746	urloff	-0.04900255
-4.618746	duti	-0.04900255
-4.618746	instructor	-0.04900255
-4.618746	pepper	-0.04900255
-4.618746	spray	-0.04900255
-3.3134077	eat	-0.23814888
-4.618746	cooki	-0.04900255
-4.1777043	urlnot	-0.04900255
-3.3815813	opportun	-0.08701852
-3.8762527	done	-0.04900255
-4.618746	urlreview	-0.04900255
-4.618746	ranger	-0.04900255
-3.8762527	movi	-0.04900255
-3.561994	focus	-0.04900255
-3.1563063	neurodivers	-0.09628718
-3.6912978	though	-0.04900255
-4.618746	meat	-0.04900255
-3.561994	market	-0.04900255
-4.618746	urlfemm	-0.04900255
-3.561994	explicitli	-0.04900255
-3.462486	visibl	-0.04900255
-3.462486	claim	-0.04900255
-4.618746	womanhood	-0.04900255
-3.561994	healthi	-0.10320838
-3.8762527	order	-0.04900255
-3.8762527	happi	-0.04900255
-4.1777043	fulfil	-0.04900255
-4.618746	urlahca	-0.04900255
-3.202633	bill	-0.04900255
-2.7731187	call	-0.08963068
-3.3815813	visit	-0.08701852
-4.618746	urlbetter	-0.04900255
-4.1777043	lesson	-0.04900255
-3.561994	sexual	-0.04900255
-4.618746	consent	-0.04900255
-4.1777043	urlstori	-0.04900255
-3.462486	reflect	-0.09369114
-4.1777043	urlpre	-0.19979589
-3.8762527	wasn	-0.2800959
-3.6912978	written	-0.04900255
-4.618746	parrot	-0.04900255
-4.618746	ear	-0.04900255
-3.8762527	own	-0.04900255
-4.1777043	authent	-0.04900255
-3.041183	voic	-0.109647475
-4.618746	suppos	-0.04900255
-3.6912978	how	-0.04900255
-3.462486	boy	-0.09369114
-3.6912978	am	-0.04900255
-4.618746	eager	-0.04900255
-4.618746	intellig	-0.04900255
-3.254498	heard	-0.04900255
-3.6912978	and	-0.04900255
-4.618746	worth	-0.04900255
-3.8762527	are	-0.04900255
-4.618746	shall	-0.04900255
-4.618746	urlmikayla	-0.04900255
-4.618746	holmgren	-0.04900255
-3.6912978	run	-0.04900255
-4.618746	minnesota	-0.04900255
-4.1777043	urlad	-0.04900255
-3.3815813	big	-0.04900255
-3.3134077	build	-0.082080536
-3.6912978	innov	-0.04900255
-4.618746	team	-0.04900255
-4.618746	urlrole	-0.04900255
-4.1777043	rural	-0.04900255
-3.8762527	america	-0.04900255
-4.618746	urlregist	-0.04900255
-3.8762527	arc	-0.14351115
-3.6912978	pa	-0.11788711
-3.8762527	investig	-0.04900255
-3.1563063	discrimin	-0.04900255
-4.1777043	african	-0.04900255
-4.618746	richmond	-0.04900255
-4.618746	urllifetim	-0.04900255
-3.561994	annual	-0.10085248
-2.8527238	repeal	-0.17981839
-3.6912978	urlgeorgia	-0.11788711
-3.561994	encourag	-0.04900255
-3.8762527	gnet	-0.04900255
-3.6912978	rule	-0.04900255
-3.462486	urlmake	-0.4528629
-3.8762527	wednesday	-0.04900255
-4.618746	ideal	-0.04900255
-4.618746	versu	-0.04900255
-3.462486	data	-0.04900255
-3.8762527	drive	-0.04900255
-3.8762527	practic	-0.04900255
-4.618746	judgment	-0.04900255
-3.462486	number	-0.04900255
-4.1777043	degre	-0.04900255
-3.462486	grow	-0.04900255
-4.618746	urlimplement	-0.04900255
-4.618746	urlstrategi	-0.04900255
-4.618746	urlamend	-0.04900255
-4.618746	urlfunction	-0.04900255
-4.1777043	box	-0.04900255
-4.1777043	definit	-0.04900255
-3.8762527	simpli	-0.04900255
-4.1777043	narrow	-0.04900255
-3.6912978	view	-0.04900255
-3.8762527	airlin	-0.04900255
-4.1777043	passeng	-0.04900255
-4.618746	numer	-0.04900255
-4.618746	injuri	-0.04900255
-4.618746	ensu	-0.04900255
-4.618746	evan	-0.04900255
-4.618746	nodvin	-0.04900255
-4.1777043	urlelizabeth	-0.04900255
-4.618746	bartmess	-0.04900255
-4.1777043	urlstart	-0.04900255
-4.1777043	return	-0.04900255
-4.618746	urlford	-0.04900255
-3.202633	foundat	-0.07077227
-4.1777043	commit	-0.19979589
-4.618746	urlthey	-0.04900255
-3.202633	d	-0.04900255
-4.1777043	urlunuhinuii	-0.04900255
-2.8987641	even	-0.04900255
-4.618746	hateachronichop	-0.04900255
-4.618746	futurjonathan	-0.04900255
-4.1777043	martini	-0.04900255
-3.8762527	highlight	-0.04900255
-4.1777043	everyday	-0.04900255
-4.618746	urlsui	-0.04900255
-4.618746	ling	-0.04900255
-4.618746	tang	-0.04900255
-4.1777043	condemn	-0.04900255
-3.561994	incom	-0.04900255
-4.618746	avalanch	-0.04900255
-3.8762527	adult	-0.04900255
-3.462486	short	-0.04900255
-4.618746	matrix	-0.04900255
-4.618746	bunk	-0.04900255
-3.3134077	urlcall	-0.04900255
-3.6912978	today	-0.11788711
-3.202633	speak	-0.04900255
-4.618746	urlparticip	-0.04900255
-3.8762527	explor	-0.04900255
-4.618746	percept	-0.04900255
-4.618746	weather	-0.04900255
-4.618746	urlassistivewar	-0.04900255
-4.1777043	paula	-0.04900255
-4.1777043	durbin	-0.19979589
-4.618746	westbi	-0.04900255
-4.618746	founder	-0.04900255
-3.254498	month	-0.0663302
-4.618746	urlacut	-0.04900255
-4.1777043	aid	-0.04900255
-4.618746	crop	-0.04900255
-3.561994	across	-0.10320838
-3.6912978	countri	-0.09369114
-4.618746	urlkanter	-0.04900255
-4.618746	stress	-0.04900255
-3.462486	latest	-0.04900255
-3.202633	replac	-0.18757921
-4.618746	urlashton	-0.04900255
-4.618746	gelfand	-0.04900255
-3.6912978	arrest	-0.04900255
-4.618746	outburst	-0.04900255
-4.1777043	motiv	-0.04900255
-3.041183	urllearn	-0.04900255
-4.1777043	jenni	-0.19979589
-4.618746	hatch	-0.04900255
-4.618746	landmark	-0.04900255
-4.618746	urlnice	-0.04900255
-4.618746	subservi	-0.04900255
-4.618746	manipul	-0.04900255
-4.618746	boundari	-0.04900255
-4.1777043	eras	-0.04900255
-4.1777043	urlmeet	-0.04900255
-4.1777043	portray	-0.04900255
-4.618746	mashabl	-0.04900255
-4.618746	urlrevis	-0.04900255
-4.1777043	uninsur	-0.04900255
-3.254498	cost	-0.049002524
-3.3815813	accommod	-0.04900255
-3.8762527	remov	-0.14351115
-4.618746	dread	-0.04900255
-4.1777043	promot	-0.04900255
-4.1777043	urlrobyn	-0.19979589
-4.618746	lambird	-0.04900255
-3.8762527	top	-0.04900255
-3.8762527	your	-0.14351115
-4.1777043	urlactuallyautist	-0.04900255
-3.8762527	goal	-0.04900255
-4.1777043	drug	-0.04900255
-3.202633	develop	-0.0752603
-4.618746	asap	-0.04900255
-4.1777043	of	-0.04900255
-3.8762527	old	-0.04900255
-4.618746	isol	-0.04900255
-4.1777043	incid	-0.04900255
-4.1777043	urlnow	-0.04900255
-4.618746	tammi	-0.04900255
-4.618746	duckworth	-0.04900255
-3.6912978	travel	-0.10320838
-4.618746	urlspeak	-0.04900255
-3.6912978	young	-0.11788711
-4.1777043	guardianship	-0.04900255
-4.618746	urlwhen	-0.04900255
-3.8762527	voucher	-0.04900255
-3.561994	money	-0.10320838
-4.618746	fanci	-0.04900255
-4.1777043	verbal	-0.04900255
-4.618746	etc	-0.04900255
-4.618746	my	-0.04900255
-4.618746	loveabl	-0.04900255
-4.1777043	alreadi	-0.04900255
-3.8762527	connect	-0.04900255
-3.6912978	upcom	-0.04900255
-4.618746	noseditori	-0.04900255
-4.618746	autism_women	-0.04900255
-4.1777043	urlsummerspoodl	-0.04900255
-4.618746	thankguid	-0.04900255
-3.6912978	proud	-0.04900255
-3.3815813	announc	-0.04900255
-4.618746	asert_paaut	-0.04900255
-3.8762527	click	-0.04900255
-4.1777043	through	-0.04900255
-3.8762527	out	-0.14351115
-3.6912978	imag	-0.11788711
-3.462486	fals	-0.04900255
-3.6912978	messag	-0.10320838
-4.618746	disproportion	-0.04900255
-4.1777043	urlwould	-0.04900255
-3.462486	much	-0.04900255
-4.618746	analyst	-0.04900255
-4.1777043	sarah	-0.04900255
-4.618746	lueck	-0.04900255
-4.618746	urlident	-0.04900255
-4.618746	urltatharnuar	-0.04900255
-4.618746	incorrect	-0.04900255
-3.3815813	current	-0.04900255
-3.6912978	examin	-0.04900255
-4.618746	speechthe	-0.04900255
-3.8762527	argument	-0.04900255
-4.1777043	fuel	-0.04900255
-4.1777043	homicid	-0.04900255
-4.618746	logic	-0.04900255
-3.6912978	urlsave	-0.10320838
-3.8762527	h	-0.2800959
-3.8762527	r	-0.04900255
-3.6912978	normal	-0.11788711
-4.1777043	urljonathan	-0.19979589
-3.3815813	explain	-0.04900255
-4.618746	vari	-0.04900255
-3.8762527	prison	-0.04900255
-3.254498	uk	-0.04900255
-3.1144483	individu	-0.090085424
-3.6912978	b	-0.20982483
-3.462486	tomorrow	-0.13352057
-4.618746	urlmandi	-0.04900255
-4.618746	sorrow	-0.04900255
-4.618746	expans	-0.04900255
-3.254498	lot	-0.04900255
-4.618746	urlchicago	-0.04900255
-4.618746	hundr	-0.04900255
-3.6912978	poll	-0.11788711
-4.618746	modif	-0.04900255
-4.618746	correct	-0.04900255
-3.8762527	problem	-0.04900255
-4.1777043	central	-0.04900255
-4.618746	thesi	-0.04900255
-3.6912978	mourn	-0.04900255
-3.8762527	pass	-0.04900255
-4.618746	polli	-0.04900255
-4.618746	samuel	-0.04900255
-4.618746	aka	-0.04900255
-4.1777043	donna	-0.04900255
-4.618746	william	-0.04900255
-4.618746	urlalthough	-0.04900255
-3.8762527	address	-0.04900255
-3.8762527	urlvilissa	-0.14351115
-4.618746	thompson	-0.04900255
-4.1777043	spoke	-0.04900255
-4.618746	disabilitytoowhit	-0.04900255
-3.561994	associ	-0.04900255
-3.6912978	chanc	-0.04900255
-4.618746	purchas	-0.04900255
-3.462486	thinkgeek	-0.14935629
-4.618746	tee	-0.04900255
-3.462486	premium	-0.04900255
-3.6912978	elimin	-0.04900255
-3.6912978	down	-0.11788711
-4.618746	urljoe	-0.04900255
-3.8762527	unisex	-0.2800959
-4.618746	size	-0.04900255
-4.1777043	urlmy	-0.04900255
-3.8762527	laura	-0.04900255
-3.6912978	subject	-0.04900255
-3.8762527	urlnoth	-0.14351115
-3.1144483	word	-0.06905841
-3.8762527	pledg	-0.04900255
-4.1777043	urlessenti	-0.04900255
-4.1777043	taken	-0.04900255
-3.8762527	urlintern	-0.04900255
-4.1777043	racism	-0.04900255
-3.6912978	ableism	-0.04900255
-4.1777043	urlface	-0.04900255
-2.7916942	plan	-0.11111683
-4.1777043	toolbox	-0.04900255
-3.3815813	them	-0.64807266
-3.6912978	sinc	-0.04900255
-3.202633	busi	-0.0752603
-4.618746	urleach	-0.04900255
-3.8762527	turn	-0.04900255
-3.6912978	brain	-0.04900255
-4.618746	bog	-0.04900255
-3.6912978	refus	-0.04900255
-3.3815813	consid	-0.08701852
-4.1777043	refuge	-0.04900255
-4.618746	dizzi	-0.04900255
-3.462486	deep	-0.04900255
-4.1777043	misunderstand	-0.04900255
-3.561994	target	-0.04900255
-3.561994	vulner	-0.10320838
-4.1777043	institution	-0.04900255
-3.8762527	urlhelp	-0.11788711
-4.618746	urlstream	-0.04900255
-4.1777043	sin	-0.19979589
-3.8762527	invalid	-0.04900255
-3.8762527	birth	-0.04900255
-3.462486	crip	-0.09369114
-4.618746	wisdom	-0.04900255
-4.1777043	th	-0.07827829
-4.618746	anniversari	-0.04900255
-3.6912978	perform	-0.04900255
-4.618746	urldecad	-0.04900255
-3.8762527	hasn	-0.2800959
-4.1777043	ratifi	-0.19979589
-3.8762527	crpd	-0.04900255
-4.618746	gotowebinar	-0.04900255
-4.1777043	renew	-0.19979589
-4.618746	timotheu	-0.04900255
-4.618746	gordon	-0.04900255
-4.618746	lend	-0.04900255
-4.1777043	fellow	-0.04900255
-4.1777043	illinoi	-0.04900255
-4.618746	urlfinish	-0.04900255
-4.618746	ribbon	-0.04900255
-4.618746	cbc	-0.04900255
-4.1777043	reelabl	-0.04900255
-4.618746	screenwrit	-0.04900255
-4.618746	conjunct	-0.04900255
-3.3815813	film	-0.082080536
-4.618746	fest	-0.04900255
-4.618746	urloverview	-0.04900255
-4.618746	dredf	-0.04900255
-3.6912978	concern	-0.04900255
-4.618746	prevail	-0.04900255
-3.3134077	myth	-0.07827829
-3.8762527	creativ	-0.04900255
-4.618746	urlgrade	-0.04900255
-4.618746	filmmak	-0.04900255
-4.1777043	global	-0.04900255
-4.1777043	showcas	-0.04900255
-4.618746	urltear	-0.04900255
-4.618746	wall	-0.04900255
-3.462486	movement	-0.04900255
-3.8762527	cool	-0.2800959
-3.462486	shirt	-0.13352057
-3.561994	buy	-0.10320838
-3.3815813	april	-0.12868428
-4.618746	urlblog	-0.04900255
-4.618746	urlprotest	-0.04900255
-4.618746	pasadena	-0.04900255
-4.618746	rose	-0.04900255
-4.618746	bowl	-0.04900255
-4.1777043	urlcelebr	-0.04900255
-4.1777043	pittsburgh	-0.04900255
-4.618746	urlattend	-0.04900255
-4.618746	pan	-0.04900255
-4.618746	canadian	-0.04900255
-4.618746	acumen	-0.04900255
-3.561994	hold	-0.04900255
-4.618746	monthli	-0.04900255
-4.1777043	basi	-0.04900255
-4.618746	divid	-0.04900255
-3.8762527	remain	-0.04900255
-3.462486	larg	-0.04900255
-4.1777043	rev	-0.04900255
-4.1777043	coalit	-0.04900255
-4.618746	urljust	-0.04900255
-4.618746	shi	-0.04900255
-4.618746	birthday	-0.04900255
-4.1777043	began	-0.04900255
-4.1777043	ipad	-0.04900255
-4.618746	item	-0.04900255
-4.618746	lazi	-0.04900255
-4.618746	disabledylatinx	-0.04900255
-4.618746	spent	-0.04900255
-3.8762527	night	-0.04900255
-4.618746	sidewalk	-0.04900255
-4.1777043	front	-0.04900255
-3.6912978	capitol	-0.04900255
-3.254498	give	-0.04900255
-3.561994	fail	-0.10320838
-4.618746	urlmichel	-0.04900255
-3.6912978	process	-0.04900255
-4.618746	michel	-0.04900255
-3.3815813	organ	-0.04900255
-4.618746	simpl	-0.04900255
-4.618746	analysi	-0.04900255
-3.462486	washington	-0.09369114
-4.618746	ssi	-0.04900255
-4.618746	di	-0.04900255
-3.561994	counti	-0.04900255
-3.561994	bad	-0.04900255
-4.1777043	regist	-0.04900255
-4.1777043	indiana	-0.04900255
-4.618746	interpret	-0.04900255
-3.462486	urllead	-0.5811259
-3.254498	tool	-0.04900255
-4.618746	urltelevis	-0.04900255
-4.1777043	academi	-0.04900255
-4.618746	honore	-0.04900255
-4.1777043	speechless	-0.04900255
-3.3134077	signific	-0.049002524
-3.6912978	flexibl	-0.04900255
-4.618746	aam	-0.04900255
-4.618746	urlguardianship	-0.04900255
-3.1563063	histori	-0.04900255
-4.1777043	urlsay	-0.04900255
-4.618746	relax	-0.04900255
-4.1777043	weaken	-0.19979589
-4.1777043	urlflorida	-0.04900255
-4.1777043	advanc	-0.04900255
-4.1777043	enrolle	-0.04900255
-4.1777043	urlerin	-0.04900255
-4.618746	clark	-0.04900255
-4.618746	sid	-0.04900255
-4.618746	marco	-0.04900255
-4.618746	urlsex	-0.04900255
-4.1777043	histor	-0.04900255
-4.618746	urlindiana	-0.04900255
-4.1777043	complet	-0.04900255
-3.6912978	modern	-0.04900255
-3.561994	cross	-0.10320838
-4.618746	commonwealth	-0.04900255
-4.618746	urlfriend	-0.04900255
-4.618746	mcie	-0.04900255
-4.618746	instagram	-0.04900255
-4.618746	urlintroduct	-0.04900255
-4.618746	urlsome	-0.04900255
-4.618746	red	-0.04900255
-3.8762527	legislatur	-0.04900255
-4.618746	newfound	-0.04900255
-3.6912978	embrac	-0.04900255
-4.618746	urlnorth	-0.04900255
-4.1777043	miami	-0.04900255
-4.618746	cop	-0.04900255
-4.618746	unarm	-0.04900255
-4.618746	therapist	-0.04900255
-4.618746	arnaldo	-0.04900255
-4.618746	rio	-0.04900255
-4.1777043	urlhumor	-0.04900255
-4.618746	nfb	-0.04900255
-3.8762527	materi	-0.04900255
-4.618746	ok	-0.04900255
-4.618746	destroy	-0.04900255
-3.3815813	recess	-0.07827829
-3.462486	now	-0.5811259
-4.618746	urlclerk	-0.04900255
-4.618746	lantz	-0.04900255
-4.618746	urlahip	-0.04900255
-4.1777043	sent	-0.19979589
-4.1777043	reduct	-0.04900255
-4.618746	subsidi	-0.04900255
-4.1777043	urlneurodivers	-0.19979589
-4.618746	urlmarle	-0.04900255
-3.8762527	matlin	-0.04900255
-4.618746	changer	-0.04900255
-4.618746	thespian	-0.04900255
-4.1777043	urltalk	-0.04900255
-3.8762527	tabl	-0.14351115
-4.618746	urlgood	-0.04900255
-4.618746	coerciv	-0.04900255
-4.1777043	margin	-0.19979589
-4.618746	shain	-0.04900255
-4.618746	neumeier	-0.04900255
-4.618746	prospect	-0.04900255
-4.618746	leighton	-0.04900255
-4.618746	ku	-0.04900255
-4.618746	erin	-0.04900255
-4.618746	brantley	-0.04900255
-4.618746	calcul	-0.04900255
-4.1777043	urlresearch	-0.04900255
-4.618746	literaci	-0.04900255
-4.618746	skill	-0.04900255
-3.561994	age	-0.04900255
-4.618746	urldisabledyoutub	-0.04900255
-4.1777043	andrea	-0.19979589
-4.618746	lausel	-0.04900255
-3.8762527	descript	-0.04900255
-4.1777043	tash	-0.04900255
-4.1777043	kit	-0.04900255
-3.202633	recent	-0.04900255
-4.618746	urlsamantha	-0.04900255
-4.618746	bold	-0.04900255
-3.6912978	four	-0.04900255
-3.462486	suggest	-0.04900255
-3.254498	improv	-0.07827829
-4.618746	concertgo	-0.04900255
-4.618746	gawk	-0.04900255
-4.618746	noth	-0.04900255
-4.618746	trickier	-0.04900255
-4.1777043	urldylan	-0.04900255
-4.1777043	matthew	-0.04900255
-4.1777043	journalist	-0.04900255
-4.618746	sesam	-0.04900255
-3.6912978	street	-0.04900255
-4.618746	small	-0.04900255
-3.3815813	aren	-0.64807266
-3.561994	friend	-0.09369114
-4.618746	cring	-0.04900255
-4.618746	worthi	-0.04900255
-3.3815813	awar	-0.04900255
-3.462486	product	-0.04900255
-4.618746	sale	-0.04900255
-4.618746	urlthinkgeek	-0.04900255
-4.618746	whatev	-0.04900255
-4.618746	configur	-0.04900255
-3.202633	in	-0.09799125
-3.6912978	urllive	-0.11788711
-4.1777043	led	-0.04900255
-4.1777043	worthwhil	-0.04900255
-3.8762527	urlfind	-0.04900255
-4.618746	inward	-0.04900255
-4.618746	path	-0.04900255
-4.618746	urldr_mctherr	-0.04900255
-4.618746	isaac_aac	-0.04900255
-4.618746	praacticalaac	-0.04900255
-4.618746	aacinstitut	-0.04900255
-4.618746	comm_matt	-0.04900255
-4.618746	aacchick	-0.04900255
-3.3815813	email	-0.12201164
-3.8762527	sbreakston	-0.19979589
-4.618746	at	-0.04900255
-4.618746	urljusticar	-0.04900255
-4.1777043	impli	-0.04900255
-4.618746	se	-0.04900255
-4.618746	urltgabe	-0.04900255
-4.618746	digitraandaal	-0.04900255
-4.1777043	k	-0.04900255
-4.618746	highland	-0.04900255
-4.618746	argh	-0.04900255
-4.618746	partnerdigit	-0.04900255
-4.618746	storycorp	-0.04900255
-4.1777043	anim	-0.04900255
-4.618746	pleasur	-0.04900255
-3.6912978	blogger	-0.04900255
-4.618746	linkup	-0.04900255
-3.3815813	urlneed	-0.04900255
-3.3815813	urlsupport	-0.26097733
-4.618746	thunderclapit	-0.04900255
-4.618746	savemycar	-0.04900255
-4.618746	urlsamuel	-0.04900255
-4.618746	habib	-0.04900255
-4.618746	judi	-0.04900255
-4.1777043	heumann	-0.04900255
-4.618746	hawley	-0.04900255
-4.618746	julio	-0.04900255
-4.618746	vazquez	-0.04900255
-4.618746	print	-0.04900255
-4.618746	nitendo	-0.04900255
-3.8762527	describ	-0.04900255
-4.618746	urlspring	-0.04900255
-4.618746	draw	-0.04900255
-4.1777043	went	-0.04900255
-4.618746	abe	-0.04900255
-3.3134077	found	-0.04900255
-4.618746	mine	-0.04900255
-4.1777043	sponsor	-0.04900255
-4.1777043	dia	-0.04900255
-4.618746	diatoday	-0.04900255
-4.618746	nationaladapt	-0.04900255
-4.618746	ahcainterview	-0.04900255
-3.8762527	l	-0.04900255
-4.618746	urlwithout	-0.04900255
-4.618746	savemedicaidfeder	-0.04900255
-3.6912978	warn	-0.04900255
-4.1777043	consum	-0.04900255
-4.618746	bewar	-0.04900255
-4.1777043	unproven	-0.04900255
-3.561994	urlhr	-0.50194466
-4.618746	notif	-0.04900255
-4.618746	delay	-0.04900255
-4.618746	protectadauk	-0.04900255
-4.1777043	exclus	-0.04900255
-4.1777043	suddenli	-0.04900255
-4.618746	easi	-0.04900255
-3.6912978	urlpwd	-0.11788711
-4.1777043	most	-0.19979589
-4.618746	savemedicaidcap	-0.04900255
-4.618746	strangl	-0.04900255
-3.3134077	coverag	-0.04900255
-4.618746	elderli	-0.04900255
-4.618746	medicaidmattpadsa	-0.04900255
-3.8762527	urlone	-0.04900255
-3.3134077	relat	-0.04900255
-3.8762527	strength	-0.04900255
-3.6912978	employe	-0.04900255
-4.618746	weak	-0.04900255
-4.618746	urlper	-0.04900255
-4.1777043	capita	-0.11788711
-3.462486	next	-0.09369114
-4.618746	centeronbudget	-0.04900255
-4.618746	savemedicaidautist	-0.04900255
-3.561994	spectrum	-0.04900255
-4.1777043	urlmember	-0.19979589
-3.561994	town	-0.30673483
-4.618746	hall	-0.04900255
-4.618746	fool	-0.04900255
-4.1777043	lifelin	-0.19979589
-4.1777043	medicaidmatt	-0.04900255
-4.618746	robin	-0.04900255
-4.618746	hood	-0.04900255
-4.618746	savemedicaidit	-0.04900255
-4.618746	ruin	-0.04900255
-4.618746	whole	-0.04900255
-4.1777043	urlflexibl	-0.19979589
-3.8762527	fewer	-0.04900255
-4.618746	lower	-0.04900255
-3.6912978	qualiti	-0.11788711
-4.618746	medicaidmattaclu	-0.04900255
-3.8762527	white	-0.2800959
-3.8762527	argu	-0.04900255
-3.561994	crimin	-0.30673483
-4.618746	adolesc	-0.04900255
-3.6912978	color	-0.04900255
-4.618746	urltom	-0.04900255
-4.618746	olin	-0.04900255
-4.1777043	photograph	-0.04900255
-4.618746	tension	-0.04900255
-4.618746	environment	-0.04900255
-4.1777043	consumer	-0.04900255
-4.618746	urlnotic	-0.04900255
-3.6912978	notic	-0.04900255
-3.561994	kill	-0.04900255
-4.618746	ahcalook	-0.04900255
-4.618746	mattel	-0.04900255
-3.8762527	handl	-0.04900255
-4.618746	barbi	-0.04900255
-4.618746	discontinu	-0.04900255
-4.618746	becki	-0.04900255
-4.618746	ahcaactuallyautist	-0.04900255
-4.618746	skinni	-0.04900255
-3.3815813	campaign	-0.049002524
-4.618746	genuin	-0.04900255
-4.1777043	urllove	-0.04900255
-4.618746	simul	-0.04900255
-4.618746	apprehens	-0.04900255
-3.8762527	piti	-0.04900255
-3.3134077	event	-0.082080536
-4.618746	protectadamedicaid	-0.04900255
-4.618746	ahcatake	-0.04900255
-4.618746	vilifi	-0.04900255
-4.618746	urlact	-0.04900255
-3.462486	action	-0.049002524
-4.618746	congression	-0.04900255
-4.1777043	urlcap	-0.04900255
-3.6912978	undermin	-0.04900255
-4.618746	mattergeek	-0.04900255
-4.1777043	club	-0.04900255
-4.618746	knew	-0.04900255
-4.618746	economi	-0.04900255
-3.561994	staff	-0.04900255
-3.8762527	stay	-0.04900255
-4.618746	ahcais	-0.04900255
-4.618746	spanish	-0.04900255
-4.618746	jobby	-0.04900255
-4.618746	unknowingli	-0.04900255
-4.1777043	anonym	-0.04900255
-4.1777043	contribut	-0.04900255
-3.3134077	survey	-0.04900255
-4.618746	urlremind	-0.04900255
-4.618746	stimtast	-0.04900255
-4.1777043	giveaway	-0.04900255
-4.1777043	urlntide	-0.19979589
-4.1777043	lunch	-0.19979589
-4.618746	mic	-0.04900255
-4.1777043	urlcongression	-0.19979589
-4.618746	urlmaryland	-0.04900255
-4.618746	ddc	-0.04900255
-3.6912978	initi	-0.11788711
-4.618746	urlcfp	-0.04900255
-3.561994	collect	-0.04900255
-4.618746	urlensur	-0.04900255
-4.1777043	medicaidwork	-0.19979589
-4.618746	urlpennsylvanian	-0.04900255
-4.1777043	contest	-0.04900255
-3.8762527	urlmillion	-0.04900255
-3.8762527	gain	-0.04900255
-4.618746	medicaidattend	-0.04900255
-3.8762527	appoint	-0.04900255
-3.561994	blog	-0.10320838
-4.618746	pitch	-0.04900255
-4.618746	protectadasupport	-0.04900255
-4.618746	ahcajudg	-0.04900255
-4.1777043	david	-0.04900255
-4.1777043	bazelon	-0.19979589
-4.618746	urltash	-0.04900255
-4.618746	urlalexandria	-0.04900255
-4.618746	taylor	-0.04900255
-3.561994	submiss	-0.17254345
-4.618746	inadvert	-0.04900255
-3.6912978	harder	-0.04900255
-4.1777043	pleas	-0.04900255
-4.1777043	advic	-0.04900255
-4.618746	bsl	-0.04900255
-3.8762527	audio	-0.2800959
-4.1777043	fresh	-0.04900255
-4.618746	insight	-0.04900255
-4.618746	who	-0.04900255
-4.618746	tommi	-0.04900255
-3.6912978	urlscotu	-0.04900255
-4.618746	fape	-0.04900255
-4.1777043	minim	-0.04900255
-4.618746	shake	-0.04900255
-3.6912978	seem	-0.11788711
-4.1777043	assimil	-0.04900255
-4.618746	everybodi	-0.04900255
-4.618746	six	-0.04900255
-4.618746	fashionista	-0.04900255
-4.1777043	urlvote	-0.04900255
-4.1777043	hr	-0.19979589
-4.618746	shld	-0.04900255
-4.618746	protectadait	-0.04900255
-4.1777043	clear	-0.04900255
-4.618746	whether	-0.04900255
-4.618746	camera	-0.04900255
-4.618746	savemedicaidperfect	-0.04900255
-4.618746	womanist	-0.04900255
-4.1777043	urlsponsor	-0.04900255
-4.618746	ahcaget	-0.04900255
-4.618746	urlguid	-0.04900255
-4.1777043	content	-0.04900255
-4.618746	microsoft	-0.04900255
-4.618746	savemedicaidindia	-0.04900255
-4.1777043	due	-0.04900255
-4.618746	infrastructur	-0.04900255
-4.618746	medicaidtuesday	-0.04900255
-4.1777043	nutrit	-0.04900255
-4.1777043	ambassador	-0.04900255
-4.618746	megan	-0.04900255
-4.618746	kramp	-0.04900255
-4.618746	urllot	-0.04900255
-3.8762527	room	-0.04900255
-4.1777043	couch	-0.04900255
-4.618746	urlpennsylvania	-0.04900255
-4.1777043	urltpga	-0.04900255
-3.6912978	app	-0.04900255
-4.618746	appl	-0.04900255
-4.618746	urlbonni	-0.04900255
-4.618746	lewkowicz	-0.04900255
-4.1777043	judith	-0.04900255
-4.618746	smith	-0.04900255
-4.618746	axi	-0.04900255
-4.618746	danc	-0.04900255
-4.1777043	mayb	-0.04900255
-4.618746	protectadamember	-0.04900255
-3.6912978	district	-0.04900255
-4.618746	unusu	-0.04900255
-4.618746	afraid	-0.04900255
-3.6912978	urlcongress	-0.11788711
-3.8762527	continu	-0.04900255
-3.202633	must	-0.04900255
-3.8762527	waitlist	-0.14351115
-4.618746	cutstand	-0.04900255
-4.618746	autisticsne	-0.04900255
-4.1777043	urlwomen	-0.04900255
-4.1777043	invis	-0.04900255
-4.618746	forgotten	-0.04900255
-4.1777043	exclud	-0.04900255
-4.1777043	sometim	-0.04900255
-3.6912978	exploit	-0.04900255
-4.618746	urlhcb	-0.04900255
-3.254498	waiver	-0.11326643
-3.561994	hard	-0.04900255
-4.618746	longer	-0.04900255
-4.618746	savemedicaidautism	-0.04900255
-4.618746	ahcaappli	-0.04900255
-4.618746	urlless	-0.04900255
-4.618746	savemedicaidtuesday	-0.04900255
-4.618746	lauren	-0.04900255
-4.618746	griffith	-0.04900255
-3.561994	write	-0.04900255
-3.8762527	avoid	-0.04900255
-4.618746	pitfal	-0.04900255
-3.0087178	march	-0.36314392
-4.618746	slogan	-0.04900255
-4.618746	defend	-0.04900255
-4.618746	urldisart	-0.04900255
-4.618746	deconstruct	-0.04900255
-3.8762527	never	-0.04900255
-4.618746	should	-0.04900255
-4.618746	urlmedicaidwork	-0.04900255
-3.8762527	nationwid	-0.04900255
-4.618746	urlnujeen	-0.04900255
-4.618746	mustafa	-0.04900255
-4.1777043	flee	-0.04900255
-4.1777043	syria	-0.04900255
-4.618746	teenag	-0.04900255
-4.618746	chocohol	-0.04900255
-4.618746	rejoic	-0.04900255
-4.618746	lindt	-0.04900255
-4.1777043	drop	-0.04900255
-4.618746	urlwhite	-0.04900255
-4.618746	roadmap	-0.04900255
-4.1777043	web	-0.04900255
-4.618746	lee	-0.04900255
-4.618746	wallac	-0.04900255
-4.1777043	urlpropos	-0.04900255
-4.618746	reviv	-0.04900255
-4.618746	urltroymain	-0.04900255
-4.1777043	johnson	-0.04900255
-4.1777043	wood	-0.04900255
-4.618746	girlfriend	-0.04900255
-4.618746	urlbrain	-0.04900255
-4.618746	wire	-0.04900255
-3.8762527	uniqu	-0.04900255
-4.618746	clampdown	-0.04900255
-3.8762527	pip	-0.04900255
-4.1777043	finish	-0.04900255
-4.618746	urlhistori	-0.04900255
-4.1777043	heart	-0.04900255
-4.618746	highest	-0.04900255
-4.1777043	win	-0.04900255
-4.618746	urlchang	-0.04900255
-3.8762527	via	-0.04900255
-4.618746	garner	-0.04900255
-4.618746	attent	-0.04900255
-4.618746	urldeath	-0.04900255
-4.618746	seclus	-0.04900255
-4.618746	restraint	-0.04900255
-4.618746	chalk	-0.04900255
-4.618746	rip	-0.04900255
-4.618746	anthoni	-0.04900255
-4.618746	corona	-0.04900255
-4.1777043	urlrememb	-0.04900255
-3.6912978	urldidn	-0.40503463
-4.618746	unfeel	-0.04900255
-4.618746	urlonlin	-0.04900255
-4.618746	exhibit	-0.04900255
-4.618746	duke	-0.04900255
-3.462486	week	-0.13352057
-4.618746	mandi	-0.04900255
-4.618746	klein	-0.04900255
-4.1777043	urltexa	-0.14351115
-4.1777043	slash	-0.04900255
-4.1777043	dollar	-0.04900255
-3.8762527	over	-0.04900255
-4.618746	urljane	-0.04900255
-4.618746	perkin	-0.04900255
-4.618746	ian	-0.04900255
-4.618746	mcdonald	-0.04900255
-4.1777043	suspect	-0.04900255
-3.561994	urltake	-0.10320838
-4.618746	urlstate	-0.04900255
-4.618746	tracker	-0.04900255
-4.618746	nasuad	-0.04900255
-4.1777043	safe	-0.04900255
-4.618746	healthidisabl	-0.04900255
-3.8762527	demonstr	-0.04900255
-4.1777043	usual	-0.04900255
-3.8762527	reach	-0.04900255
-4.618746	tier	-0.04900255
-4.618746	headlin	-0.04900255
-4.618746	ahcaadvoc	-0.04900255
-4.1777043	pca	-0.04900255
-4.1777043	readi	-0.04900255
-4.618746	gold	-0.04900255
-4.1777043	epsdt	-0.04900255
-4.618746	savemedicaidrespit	-0.04900255
-4.618746	savemedicaidbackground	-0.04900255
-3.6912978	section	-0.20982483
-3.8762527	largest	-0.14351115
-4.618746	saveourkidproud	-0.04900255
-4.618746	savemedicaidjoin	-0.04900255
-4.618746	chooseworkssa	-0.04900255
-4.618746	tickettowork	-0.04900255
-4.618746	contractor	-0.04900255
-4.1777043	sam	-0.04900255
-4.1777043	perri	-0.04900255
-3.8762527	savemedicaidmedicaid	-0.09369114
-4.618746	sourc	-0.04900255
-4.618746	matern	-0.04900255
-4.618746	savemedicaidmr	-0.04900255
-4.618746	moreno	-0.04900255
-4.618746	ecuador	-0.04900255
-4.1777043	head	-0.19979589
-4.1777043	urldyk	-0.19979589
-3.3815813	transport	-0.04900255
-3.8762527	speech	-0.14351115
-3.8762527	therapi	-0.04900255
-4.618746	savemedicaidkid	-0.04900255
-4.618746	savemedicaidthink	-0.04900255
-3.561994	model	-0.04900255
-4.618746	glimmer	-0.04900255
-4.1777043	medicaidmattdigit	-0.04900255
-4.1777043	disord	-0.04900255
-4.1777043	recoveri	-0.04900255
-4.1777043	urlclose	-0.04900255
-4.618746	riker	-0.04900255
-4.618746	amplifi	-0.04900255
-4.618746	newli	-0.04900255
-3.8762527	awesom	-0.04900255
-4.618746	crucial	-0.04900255
-4.1777043	n	-0.04900255
-4.618746	psyd	-0.04900255
-3.8762527	prefer	-0.04900255
-4.618746	urlin	-0.04900255
-4.618746	urldue	-0.04900255
-4.1777043	popular	-0.04900255
-3.8762527	add	-0.04900255
-3.3134077	per	-0.51085484
-4.618746	capthe	-0.04900255
-3.6912978	push	-0.04900255
-4.618746	mislead	-0.04900255
-4.618746	character	-0.04900255
-4.618746	ahcaaca	-0.04900255
-3.8762527	gave	-0.14351115
-4.1777043	caregiv	-0.04900255
-4.1777043	keepamericacov	-0.04900255
-4.618746	savemedicaid_mmonotrem	-0.04900255
-4.1777043	either	-0.04900255
-4.618746	staffneurodivers	-0.04900255
-4.618746	urlwhose	-0.04900255
-4.618746	expertis	-0.04900255
-4.1777043	evid	-0.04900255
-4.618746	ahcadirect	-0.04900255
-4.618746	boss	-0.04900255
-4.618746	passiv	-0.04900255
-4.618746	ten	-0.04900255
-3.6912978	thousand	-0.11788711
-4.618746	ahcaurl	-0.04900255
-4.1777043	rise	-0.04900255
-4.618746	usbln	-0.04900255
-3.8762527	august	-0.2800959
-4.618746	thattend	-0.04900255
-4.618746	ahcasamhsa	-0.04900255
-4.618746	succeed	-0.04900255
-3.6912978	technolog	-0.04900255
-4.1777043	urltransit	-0.04900255
-4.1777043	dialogu	-0.04900255
-4.618746	taleo	-0.04900255
-4.618746	urlprenat	-0.04900255
-4.1777043	natal	-0.04900255
-4.618746	newborn	-0.04900255
-4.618746	ahcadigit	-0.04900255
-3.6912978	rehab	-0.04900255
-4.1777043	equip	-0.04900255
-4.618746	lift	-0.04900255
-4.618746	novemb	-0.04900255
-4.618746	urlspeech	-0.04900255
-3.8762527	vital	-0.04900255
-4.1777043	extra	-0.04900255
-4.618746	ahcacheck	-0.04900255
-4.618746	crdni	-0.04900255
-4.618746	protectadaoccup	-0.04900255
-4.618746	ehb	-0.04900255
-4.618746	ahcamember	-0.04900255
-4.618746	urlinstitution	-0.04900255
-4.1777043	liber	-0.04900255
-4.1777043	seattl	-0.04900255
-4.1777043	urltime	-0.04900255
-4.618746	er	-0.04900255
-4.618746	ahcasartac	-0.04900255
-4.1777043	recruit	-0.19979589
-3.8762527	fellowship	-0.04900255
-4.618746	ahcaessenti	-0.04900255
-4.618746	ahcacompar	-0.04900255
-3.8762527	fiction	-0.04900255
-4.618746	ridicul	-0.04900255
-4.1777043	scotu	-0.04900255
-4.618746	agre	-0.04900255
-4.618746	violat	-0.04900255
-4.618746	urlamanda	-0.04900255
-4.618746	hind	-0.04900255
-4.618746	ahcalatinx	-0.04900255
-3.202633	twitter	-0.21892165
-4.618746	curat	-0.04900255
-4.618746	urlindepend	-0.04900255
-3.3134077	made	-0.04900255
-3.3134077	possibl	-0.04900255
-4.618746	savemedicaidthinkgeek	-0.04900255
-4.618746	urlgrow	-0.04900255
-4.618746	slow	-0.04900255
-4.618746	urlsalon	-0.04900255
-4.1777043	morénik	-0.04900255
-4.618746	giwa	-0.04900255
-4.1777043	onaiwu	-0.04900255
-4.618746	urlmoney	-0.04900255
-3.561994	republican	-0.04900255
-4.1777043	extend	-0.04900255
-4.618746	ahcavote	-0.04900255
-4.618746	protectadaamerican	-0.04900255
-4.618746	personnel	-0.04900255
-4.618746	cheaper	-0.04900255
-4.618746	hcbappar	-0.04900255
-4.1777043	surpris	-0.04900255
-3.8762527	urlsartac	-0.2800959
-4.618746	urlactual	-0.04900255
-3.8762527	spoken	-0.14351115
-3.462486	abus	-0.04900255
-4.618746	medicaidmattnaomi	-0.04900255
-4.618746	ortiz	-0.04900255
-4.618746	janic	-0.04900255
-4.618746	fialka	-0.04900255
-4.618746	urltiernt	-0.04900255
-4.1777043	chapter	-0.04900255
-4.618746	arghmexican	-0.04900255
-4.618746	tortur	-0.04900255
-4.618746	urltechnolog	-0.04900255
-3.8762527	type	-0.04900255
-3.3134077	progress	-0.04900255
-4.618746	lab	-0.04900255
-3.561994	food	-0.04900255
-3.254498	aapd	-0.114682965
-4.618746	recipi	-0.04900255
-4.618746	katherin	-0.04900255
-4.618746	perez	-0.04900255
-4.618746	ahcascotu	-0.04900255
-4.618746	struck	-0.04900255
-3.8762527	test	-0.04900255
-3.8762527	inmat	-0.04900255
-3.8762527	routin	-0.04900255
-4.618746	savemedicaidwe	-0.04900255
-3.6912978	updat	-0.04900255
-4.618746	flyer	-0.04900255
-4.618746	pdfhr	-0.04900255
-4.618746	protectadaautist	-0.04900255
-4.618746	decent	-0.04900255
-4.618746	urlncfpp	-0.04900255
-4.1777043	purpos	-0.04900255
-4.1777043	reid	-0.04900255
-4.618746	savemedicaidhillaryhaldan	-0.04900255
-4.618746	vtgmsa	-0.04900255
-3.3815813	thi	-0.13352057
-4.618746	uber	-0.04900255
-4.618746	el	-0.04900255
-4.618746	pasoan	-0.04900255
-3.0762725	system	-0.04900255
-4.618746	protectourcarcan	-0.04900255
-4.618746	urlbuy	-0.04900255
-4.618746	protectourcarpeer	-0.04900255
-3.6912978	peer	-0.04900255
-4.618746	domest	-0.04900255
-4.1777043	violenc	-0.04900255
-4.618746	green	-0.04900255
-4.1777043	mountain	-0.04900255
-4.618746	urlcommun	-0.04900255
-4.618746	protectourcarcome	-0.04900255
-4.618746	urlentir	-0.04900255
-4.618746	neurodiverg	-0.04900255
-4.618746	urlyvett	-0.04900255
-4.618746	fang	-0.04900255
-4.618746	suzann	-0.04900255
-4.618746	levin	-0.04900255
-4.618746	urlcommit	-0.04900255
-3.6912978	info	-0.04900255
-4.1777043	prohibit	-0.04900255
-4.618746	paul	-0.04900255
-4.618746	g	-0.04900255
-4.1777043	ola	-0.19979589
-4.618746	ascend	-0.04900255
-4.618746	deafblind	-0.04900255
-4.618746	lavonnya	-0.04900255
-4.618746	gardner	-0.04900255
-4.1777043	late	-0.04900255
-4.618746	urlrealli	-0.04900255
-4.618746	overcom	-0.04900255
-4.618746	urllose	-0.04900255
-4.618746	expos	-0.04900255
-4.618746	truth	-0.04900255
-4.618746	pain	-0.04900255
-4.1777043	urlcan	-0.19979589
-3.561994	reason	-0.04900255
-4.618746	sane	-0.04900255
-4.1777043	given	-0.04900255
-4.618746	digniti	-0.04900255
-4.618746	urlborn	-0.04900255
-3.254498	didn	-0.75721717
-4.618746	keathley	-0.04900255
-4.618746	arkansa	-0.04900255
-3.6912978	urlkeah	-0.20982483
-4.618746	empow	-0.04900255
-4.618746	embark	-0.04900255
-3.6912978	acknowledg	-0.04900255
-4.618746	nina	-0.04900255
-4.618746	simon	-0.04900255
-4.618746	bipolar	-0.04900255
-4.618746	urlproud	-0.04900255
-4.618746	meltzer	-0.04900255
-3.6912978	execut	-0.20982483
-4.1777043	nacdd	-0.04900255
-3.8762527	ruderman	-0.04900255
-4.618746	urlrikki	-0.04900255
-4.618746	poynter	-0.04900255
-4.1777043	uc	-0.19979589
-4.618746	berkeley	-0.04900255
-4.618746	urlturkish	-0.04900255
-4.618746	rapper	-0.04900255
-4.618746	fuat	-0.04900255
-4.618746	ergin	-0.04900255
-3.6912978	aim	-0.04900255
-4.618746	mould	-0.04900255
-4.618746	genr	-0.04900255
-4.618746	concept	-0.04900255
-4.618746	equat	-0.04900255
-3.3134077	lack	-0.04900255
-4.1777043	welfar	-0.04900255
-4.618746	modifi	-0.04900255
-4.618746	behaviour	-0.04900255
-4.618746	urlkirsten	-0.04900255
-4.618746	schultz	-0.04900255
-4.1777043	roundup	-0.04900255
-3.561994	urlstorifi	-0.04900255
-4.618746	criptax	-0.04900255
-4.618746	emot	-0.04900255
-4.618746	urllack	-0.04900255
-3.8762527	depict	-0.14351115
-4.618746	nudg	-0.04900255
-4.618746	urlluanatf	-0.04900255
-4.618746	youget	-0.04900255
-4.618746	coloss	-0.04900255
-4.618746	urlgaelynn	-0.04900255
-4.1777043	lea	-0.04900255
-4.618746	speaker	-0.04900255
-3.6912978	org	-0.04900255
-4.618746	urlstair	-0.04900255
-4.618746	whisper	-0.04900255
-4.618746	antholog	-0.04900255
-4.1777043	poetri	-0.04900255
-4.618746	essay	-0.04900255
-4.1777043	irish	-0.04900255
-4.618746	urlye	-0.04900255
-3.1563063	youth	-0.07280655
-3.8762527	urlccd	-0.14351115
-4.618746	urlcrimin	-0.04900255
-4.618746	brought	-0.04900255
-4.618746	guard	-0.04900255
-4.618746	darren	-0.04900255
-4.1777043	rainey	-0.04900255
-4.618746	urlcolumn	-0.04900255
-4.618746	disturb	-0.04900255
-4.618746	preschool	-0.04900255
-4.1777043	suspens	-0.04900255
-4.618746	expuls	-0.04900255
-4.618746	urleffect	-0.04900255
-4.618746	altruism	-0.04900255
-4.618746	incompat	-0.04900255
-4.1777043	peter	-0.19979589
-4.618746	singer	-0.04900255
-3.8762527	florida	-0.14351115
-3.6912978	guidelin	-0.04900255
-3.6912978	honor	-0.04900255
-4.618746	south	-0.04900255
-3.8762527	neglect	-0.04900255
-4.1777043	soon	-0.04900255
-4.618746	urlmislead	-0.04900255
-4.618746	familiar	-0.04900255
-4.618746	urlvera	-0.04900255
-3.6912978	survivor	-0.04900255
-4.618746	urlsensori	-0.04900255
-4.618746	disco	-0.04900255
-4.618746	urlsin	-0.04900255
-4.1777043	chicago	-0.04900255
-4.618746	urlyodisabledproud	-0.04900255
-3.8762527	glad	-0.04900255
-4.618746	boostjohn	-0.04900255
-4.618746	hudson	-0.04900255
-4.1777043	internship	-0.04900255
-4.618746	fairfax	-0.04900255
-4.618746	va	-0.04900255
-3.561994	summer	-0.04900255
-4.1777043	urlyouth	-0.04900255
-3.6912978	for	-0.11788711
-4.618746	yo	-0.04900255
-4.618746	urljwhitetorr	-0.04900255
-4.618746	gorgeou	-0.04900255
-4.618746	kiddo	-0.04900255
-4.618746	supportstimtast	-0.04900255
-4.618746	kidlit	-0.04900255
-4.618746	alterconf	-0.04900255
-4.618746	urlnever	-0.04900255
-3.8762527	thought	-0.04900255
-4.618746	urlshutdown	-0.04900255
-4.618746	meltdown	-0.04900255
-4.618746	urlbecam	-0.04900255
-4.618746	comfort	-0.04900255
-4.618746	urlharshada	-0.04900255
-4.1777043	style	-0.04900255
-4.1777043	misconcept	-0.04900255
-4.618746	yep	-0.04900255
-3.462486	author	-0.04900255
-4.618746	pitchfork	-0.04900255
-4.618746	handbook	-0.04900255
-4.618746	urlgender	-0.04900255
-4.1777043	feebl	-0.19979589
-3.8762527	mind	-0.04900255
-4.1777043	steril	-0.04900255
-4.1777043	eugen	-0.04900255
-3.8762527	postsecondari	-0.2800959
-4.618746	urlsaid	-0.04900255
-4.618746	caution	-0.04900255
-3.6912978	tweet	-0.04900255
-3.8762527	trigger	-0.04900255
-4.618746	nedachathit	-0.04900255
-3.561994	nedachat	-0.04900255
-4.618746	earlier	-0.04900255
-4.618746	oop	-0.04900255
-4.618746	rthaleymossart	-0.04900255
-4.618746	netflix	-0.04900255
-4.618746	absolutruralteacak	-0.04900255
-3.8762527	immun	-0.04900255
-4.618746	eithera	-0.04900255
-4.618746	nicoco	-0.04900255
-4.618746	unaffili	-0.04900255
-4.618746	digita	-0.04900255
-4.1777043	length	-0.04900255
-4.618746	to	-0.04900255
-4.618746	stim	-0.04900255
-3.561994	sensori	-0.30673483
-3.8762527	¾a	-0.2800959
-4.618746	energi	-0.04900255
-3.8762527	otherwis	-0.04900255
-4.618746	obsess	-0.04900255
-4.618746	cloth	-0.04900255
-4.1777043	mod	-0.19979589
-4.618746	sav	-0.04900255
-4.618746	bath	-0.04900255
-4.1777043	shower	-0.04900255
-4.1777043	dark	-0.19979589
-4.618746	fruit	-0.04900255
-4.618746	makeup	-0.04900255
-4.1777043	scale	-0.04900255
-4.618746	digitedbit	-0.04900255
-3.8762527	nedastaff	-0.04900255
-4.618746	yetimgordonjr	-0.04900255
-4.618746	thihaleymossart	-0.04900255
-4.618746	supportkatfitzpatrick	-0.04900255
-4.618746	shinydhxandernaut	-0.04900255
-4.618746	yea	-0.04900255
-4.618746	thrown	-0.04900255
-4.618746	window	-0.04900255
-3.6912978	excus	-0.04900255
-4.1777043	unless	-0.04900255
-4.1777043	similar	-0.04900255
-4.618746	religi	-0.04900255
-4.618746	dietari	-0.04900255
-4.618746	restrict	-0.04900255
-4.618746	trait	-0.04900255
-3.6912978	⅔a	-0.40503463
-4.618746	assum	-0.04900255
-4.618746	vice	-0.04900255
-4.618746	versa	-0.04900255
-3.8762527	panelist	-0.04900255
-4.618746	wantchrysanthetan	-0.04900255
-4.618746	thia	-0.04900255
-4.618746	picki	-0.04900255
-4.618746	impuls	-0.04900255
-3.6912978	control	-0.04900255
-3.6912978	ignor	-0.04900255
-4.618746	disbelief	-0.04900255
-4.618746	digitpost	-0.04900255
-4.618746	skip	-0.04900255
-4.618746	nedachatcase	-0.04900255
-4.618746	houra	-0.04900255
-3.8762527	wrote	-0.04900255
-4.1777043	specif	-0.04900255
-4.618746	textur	-0.04900255
-4.618746	tast	-0.04900255
-4.618746	villain	-0.04900255
-4.618746	react	-0.04900255
-3.6912978	sens	-0.04900255
-4.618746	thru	-0.04900255
-4.1777043	certain	-0.04900255
-4.618746	thin	-0.04900255
-4.618746	fat	-0.04900255
-4.618746	sort	-0.04900255
-4.1777043	despit	-0.04900255
-4.618746	⅘a	-0.04900255
-4.1777043	neg	-0.19979589
-3.8762527	els	-0.04900255
-4.618746	⅗a	-0.04900255
-4.618746	discount	-0.04900255
-4.618746	somehow	-0.04900255
-4.1777043	toxic	-0.04900255
-4.618746	digitblainsmith	-0.04900255
-4.618746	alainaskey	-0.04900255
-4.618746	damaga	-0.04900255
-4.618746	empathi	-0.04900255
-4.618746	debunk	-0.04900255
-4.618746	vaccin	-0.04900255
-4.618746	causat	-0.04900255
-4.618746	contagi	-0.04900255
-4.1777043	diseas	-0.04900255
-4.618746	perpetu	-0.04900255
-4.618746	⅓excit	-0.04900255
-4.618746	nedachatfutur	-0.04900255
-3.462486	gener	-0.04900255
-4.618746	kerima	-0.04900255
-4.618746	cevik	-0.04900255
-4.1777043	blackdisabledgirlmag	-0.04900255
-4.618746	urlacosta	-0.04900255
-4.1777043	indic	-0.04900255
-3.561994	confirm	-0.17254345
-4.1777043	subminimum	-0.19979589
-4.618746	urlvex_vocalord	-0.04900255
-3.8762527	thu	-0.04900255
-4.618746	shade	-0.04900255
-4.618746	pixel	-0.04900255
-4.618746	rainbow	-0.04900255
-4.618746	wide	-0.04900255
-4.618746	neurologlook	-0.04900255
-3.8762527	forward	-0.04900255
-3.6912978	urlopen	-0.30673483
-4.618746	urlassist	-0.04900255
-4.618746	incred	-0.04900255
-4.618746	combin	-0.04900255
-4.1777043	factor	-0.04900255
-4.618746	urlfacebook	-0.04900255
-3.561994	site	-0.082080536
-4.618746	stupid	-0.04900255
-4.618746	virgin	-0.04900255
-4.618746	spin	-0.04900255
-3.3815813	success	-0.04900255
-4.618746	urlcannot	-0.04900255
-4.618746	easili	-0.04900255
-4.1777043	phone	-0.04900255
-3.561994	teach	-0.04900255
-4.1777043	vastli	-0.04900255
-3.8762527	urlfeder	-0.14351115
-4.618746	ca	-0.04900255
-3.8762527	monitor	-0.04900255
-4.618746	urlberkeley	-0.04900255
-4.618746	urltehexil	-0.04900255
-4.618746	realsesmith	-0.04900255
-4.618746	blazingski	-0.04900255
-4.618746	afaik	-0.04900255
-3.8762527	will	-0.04900255
-4.618746	urlpartner	-0.04900255
-4.1777043	peat	-0.04900255
-4.1777043	peattalk	-0.04900255
-4.1777043	workforc	-0.04900255
-4.618746	storifi	-0.04900255
-4.618746	honest	-0.04900255
-3.8762527	urljenniferbulandr	-0.04900255
-3.8762527	symbol	-0.04900255
-4.618746	minu	-0.04900255
-4.618746	spacejenniferbulandr	-0.04900255
-4.618746	ugh	-0.04900255
-4.618746	mess	-0.04900255
-4.618746	need_mmonotrem	-0.04900255
-4.618746	guess	-0.04900255
-4.618746	wise_mmonotrem	-0.04900255
-4.618746	exactli	-0.04900255
-4.618746	want_mmonotrem	-0.04900255
-3.462486	url_mmonotrem	-0.09369114
-4.618746	insti	-0.04900255
-4.618746	met_mmonotrem	-0.04900255
-4.618746	bare	-0.04900255
-4.618746	tha	-0.04900255
-3.6912978	better	-0.04900255
-4.618746	member_mmonotrem	-0.04900255
-3.8762527	ny	-0.04900255
-4.618746	exact	-0.04900255
-4.618746	waiver_mmonotrem	-0.04900255
-4.618746	roommat_mmonotrem	-0.04900255
-4.618746	shareconcern	-0.04900255
-3.462486	gorsuch	-0.14935629
-4.618746	judici	-0.04900255
-3.8762527	record	-0.04900255
-4.618746	urlcarliep	-0.04900255
-4.618746	sheet	-0.04900255
-3.6912978	not	-0.04900255
-4.1777043	deal	-0.04900255
-4.618746	surf	-0.04900255
-4.618746	fo	-0.04900255
-4.618746	urltimwatsonof	-0.04900255
-3.8762527	past	-0.04900255
-4.618746	urlsuprem	-0.04900255
-4.618746	crisi	-0.04900255
-4.618746	strand	-0.04900255
-4.618746	unsuit	-0.04900255
-3.8762527	urlschool	-0.04900255
-3.8762527	meaning	-0.04900255
-3.8762527	urlcould	-0.04900255
-3.8762527	deserv	-0.04900255
-4.618746	battl	-0.04900255
-4.618746	again	-0.04900255
-4.1777043	frustrat	-0.04900255
-4.1777043	spotti	-0.04900255
-4.618746	overlap	-0.04900255
-4.618746	urldirector	-0.04900255
-4.618746	houston	-0.04900255
-4.618746	resign	-0.04900255
-4.618746	denial	-0.04900255
-4.618746	reveal	-0.04900255
-4.618746	alli	-0.04900255
-4.618746	roll	-0.04900255
-3.8762527	provis	-0.04900255
-4.618746	strongli	-0.04900255
-4.618746	regress	-0.04900255
-4.618746	proclam	-0.04900255
-4.1777043	appropri	-0.04900255
-4.618746	ambiti	-0.04900255
-4.1777043	light	-0.04900255
-4.618746	circumst	-0.04900255
-4.618746	nd	-0.04900255
-4.618746	mead	-0.04900255
-4.1777043	anyth	-0.04900255
-4.618746	urlpep	-0.04900255
-4.1777043	guest	-0.04900255
-4.618746	editor	-0.04900255
-3.8762527	de	-0.04900255
-4.618746	leve	-0.04900255
-4.618746	urlfutur	-0.04900255
-4.618746	sdm	-0.04900255
-3.6912978	urllook	-0.04900255
-4.618746	wake	-0.04900255
-4.618746	urlableism	-0.04900255
-4.618746	pipelin	-0.04900255
-4.618746	plight	-0.04900255
-4.1777043	urlu	-0.19979589
-4.1777043	suprem	-0.19979589
-3.8762527	urlnation	-0.04900255
-4.618746	rotunda	-0.04900255
-4.618746	smart	-0.04900255
-4.618746	urlreluct	-0.04900255
-4.618746	urlcoalit	-0.04900255
-3.6912978	altern	-0.04900255
-4.618746	ontario	-0.04900255
-3.8762527	reject	-0.04900255
-4.618746	urlfavorit	-0.04900255
-4.618746	meriah	-0.04900255
-4.1777043	nichol	-0.04900255
-3.462486	list	-0.04900255
-4.618746	urlcniambi	-0.04900255
-4.618746	syracus	-0.04900255
-4.618746	librarian	-0.04900255
-4.618746	onli	-0.04900255
-3.561994	cripthevot	-0.08701852
-4.618746	urllisten	-0.04900255
-4.618746	fiddl	-0.04900255
-4.618746	player	-0.04900255
-4.1777043	gaelynn	-0.19979589
-3.6912978	san	-0.20982483
-4.618746	francisco	-0.04900255
-4.1777043	urlalannarwhitney	-0.04900255
-3.8762527	primari	-0.14351115
-4.618746	doctor	-0.04900255
-4.618746	butspecial	-0.04900255
-4.1777043	have	-0.04900255
-4.1777043	notspecialne	-0.04900255
-4.618746	wdsd	-0.04900255
-4.618746	downsyndrom	-0.04900255
-4.618746	urldarren	-0.04900255
-4.618746	boil	-0.04900255
-4.618746	dade	-0.04900255
-3.6912978	attorney	-0.20982483
-3.8762527	appeal	-0.04900255
-4.1777043	assess	-0.04900255
-3.8762527	equal	-0.04900255
-4.618746	sxsw	-0.04900255
-4.618746	attende	-0.04900255
-4.618746	jackson	-0.04900255
-4.1777043	sever	-0.04900255
-4.618746	urllawsuit	-0.04900255
-4.618746	hamilton	-0.04900255
-4.618746	broadway	-0.04900255
-3.8762527	track	-0.14351115
-3.3815813	serv	-0.04900255
-4.618746	audienc	-0.04900255
-4.618746	urlperson	-0.04900255
-4.618746	costli	-0.04900255
-4.618746	urlstage	-0.04900255
-4.1777043	festiv	-0.04900255
-4.618746	playwright	-0.04900255
-4.618746	urlhilari	-0.04900255
-4.1777043	psa	-0.04900255
-4.1777043	euphem	-0.04900255
-4.1777043	assessor	-0.04900255
-4.618746	contrari	-0.04900255
-4.618746	stuck	-0.04900255
-4.618746	itfarmstead	-0.04900255
-4.618746	databas	-0.04900255
-4.1777043	nccsd	-0.04900255
-4.618746	urlbut	-0.04900255
-3.3134077	murder	-0.04900255
-4.618746	urltexan	-0.04900255
-4.618746	urlandroid	-0.04900255
-4.618746	motor	-0.04900255
-4.618746	circul	-0.04900255
-4.618746	urloverwatch	-0.04900255
-3.8762527	jeff	-0.14351115
-4.618746	kaplan	-0.04900255
-4.618746	playabl	-0.04900255
-4.618746	symmetra	-0.04900255
-4.1777043	urldiffer	-0.04900255
-4.618746	urlformer	-0.04900255
-3.6912978	board	-0.11788711
-4.618746	carol	-0.04900255
-4.618746	quirk	-0.04900255
-3.8762527	urlmeriah	-0.14351115
-4.618746	claimant	-0.04900255
-4.618746	main	-0.04900255
-4.618746	urlleadership	-0.04900255
-4.618746	navig	-0.04900255
-4.1777043	park	-0.04900255
-4.618746	franklin	-0.04900255
-4.618746	roosevelt	-0.04900255
-3.8762527	fulli	-0.04900255
-4.618746	accord	-0.04900255
-4.618746	februari	-0.04900255
-4.618746	urlmajor	-0.04900255
-4.1777043	devast	-0.04900255
-4.618746	blind	-0.04900255
-4.618746	gamer	-0.04900255
-3.6912978	mainstream	-0.04900255
-4.618746	urlnea	-0.04900255
-4.618746	jeopardi	-0.04900255
-4.618746	profound	-0.04900255
-4.618746	urlheed	-0.04900255
-4.1777043	urlgovern	-0.04900255
-4.618746	squeez	-0.04900255
-4.618746	depress	-0.04900255
-4.618746	urldredf	-0.04900255
-3.8762527	perfect	-0.04900255
-4.618746	storm	-0.04900255
-4.618746	escap	-0.04900255
-4.1777043	poverti	-0.04900255
-4.618746	urlrepublican	-0.04900255
-4.618746	quick	-0.04900255
-4.618746	urldepart	-0.04900255
-4.618746	fare	-0.04900255
-3.6912978	betsi	-0.40503463
-3.3134077	devo	-0.09799125
-4.618746	urlbasic	-0.04900255
-4.1777043	urlaustralia	-0.04900255
-4.618746	indigen	-0.04900255
-4.618746	urlrzasghar	-0.04900255
-4.618746	studitop	-0.04900255
-4.618746	urlblackdisabledgirlmag	-0.04900255
-4.618746	heather	-0.04900255
-4.618746	watkin	-0.04900255
-3.6912978	urldevo	-0.04900255
-4.1777043	serious	-0.04900255
-4.618746	diminish	-0.04900255
-4.618746	urlemploye	-0.04900255
-4.618746	declin	-0.04900255
-3.561994	penalti	-0.04900255
-4.618746	purim	-0.04900255
-4.1777043	psychiatr	-0.04900255
-4.618746	urlpsych	-0.04900255
-4.618746	ward	-0.04900255
-4.618746	firsthand	-0.04900255
-4.1777043	urleduc	-0.04900255
-3.8762527	secretari	-0.04900255
-4.618746	urlseema	-0.04900255
-3.8762527	verma	-0.04900255
-4.1777043	cm	-0.04900255
-4.618746	urlconnect	-0.04900255
-4.1777043	urlsubmit	-0.04900255
-4.618746	urlrev	-0.04900255
-4.1777043	juli	-0.19979589
-3.561994	urlsign	-0.14351115
-4.1777043	volunt	-0.04900255
-3.561994	mentor	-0.10320838
-4.618746	almost	-0.04900255
-4.618746	imposs	-0.04900255
-4.618746	properti	-0.04900255
-4.618746	rent	-0.04900255
-4.618746	canberra	-0.04900255
-4.1777043	australia	-0.04900255
-4.618746	urlvoic	-0.04900255
-4.618746	burlington	-0.04900255
-4.618746	vt	-0.04900255
-4.1777043	facilit	-0.04900255
-4.618746	urlvictori	-0.04900255
-4.618746	jay	-0.04900255
-4.618746	rockefel	-0.04900255
-4.1777043	lectur	-0.04900255
-4.618746	urlsocial	-0.04900255
-4.618746	urlnext	-0.04900255
-4.618746	ideasuperfest	-0.04900255
-3.8762527	season	-0.04900255
-4.1777043	episod	-0.04900255
-4.618746	urlada	-0.04900255
-3.8762527	transform	-0.04900255
-4.1777043	scienc	-0.04900255
-4.618746	fantasi	-0.04900255
-4.618746	urlrecount	-0.04900255
-3.8762527	la	-0.04900255
-4.618746	vega	-0.04900255
-4.618746	octob	-0.04900255
-4.1777043	urlinterest	-0.04900255
-4.1777043	text	-0.04900255
-4.618746	urlcodeman	-0.04900255
-4.618746	autisticadvocaci	-0.04900255
-4.618746	staffer	-0.04900255
-4.618746	seevote	-0.04900255
-4.618746	postpon	-0.04900255
-4.618746	hollywood	-0.04900255
-4.1777043	multipl	-0.04900255
-3.6912978	urlcripthevot	-0.11788711
-4.618746	medicaidstori	-0.04900255
-4.618746	comedi	-0.04900255
-4.1777043	cdrni	-0.04900255
-3.3815813	challeng	-0.04900255
-4.1777043	urlappli	-0.04900255
-4.618746	miusa	-0.04900255
-4.618746	wild	-0.04900255
-4.618746	savemedicaidrepublican	-0.04900255
-4.1777043	obamacar	-0.04900255
-4.618746	oscar	-0.04900255
-4.618746	repair	-0.04900255
-3.8762527	librari	-0.04900255
-4.1777043	box_mmonotrem	-0.19979589
-3.6912978	photo	-0.04900255
-4.618746	id_mmonotrem	-0.04900255
-4.618746	sitepuzzl	-0.04900255
-4.618746	mandat	-0.04900255
-4.618746	cartoon	-0.04900255
-4.618746	urlindia	-0.04900255
-4.618746	dictionari	-0.04900255
-4.618746	julidisabl	-0.04900255
-4.618746	urlmaysoonzayid_mmonotrem	-0.04900255
-4.618746	retweet	-0.04900255
-4.618746	hey	-0.04900255
-4.618746	thingfeel	-0.04900255
-4.618746	typist	-0.04900255
-3.6912978	final	-0.04900255
-4.1777043	prove	-0.04900255
-4.618746	oneautistichoya	-0.04900255
-4.618746	permit	-0.04900255
-3.3134077	train	-0.04900255
-3.6912978	period	-0.04900255
-4.618746	appearorganis	-0.04900255
-4.1777043	perman	-0.04900255
-4.618746	urlunivers	-0.04900255
-4.618746	alberta	-0.04900255
-4.618746	pro	-0.04900255
-4.618746	urlself	-0.04900255
-4.618746	urlrebelspeduc	-0.04900255
-4.1777043	befor	-0.04900255
-4.618746	welcomrebelspeduc	-0.04900255
-3.6912978	oh	-0.04900255
-4.618746	neuro	-0.04900255
-4.618746	epilepsiknow	-0.04900255
-4.1777043	urlpart	-0.14351115
-4.618746	oanh	-0.04900255
-4.618746	bui	-0.04900255
-4.618746	broker	-0.04900255
-4.618746	vietnames	-0.04900255
-4.618746	urleuropean	-0.04900255
-4.618746	europ	-0.04900255
-4.618746	urlama	-0.04900255
-4.618746	urlconsortium	-0.04900255
-4.618746	citizen	-0.04900255
-4.1777043	respond	-0.04900255
-4.618746	score	-0.04900255
-4.618746	urluvic	-0.04900255
-3.041183	ddom	-0.29482812
-3.462486	vigil	-0.09246142
-4.618746	subsequ	-0.04900255
-4.618746	min	-0.04900255
-4.618746	urlmyth	-0.04900255
-4.618746	bear	-0.04900255
-4.618746	confront	-0.04900255
-4.618746	urltrio	-0.04900255
-3.6912978	gop	-0.04900255
-4.618746	overhaul	-0.04900255
-4.618746	debug	-0.04900255
-4.618746	unnot	-0.04900255
-4.618746	broaden	-0.04900255
-4.618746	peattalkpeattalk	-0.04900255
-4.618746	themespeci	-0.04900255
-4.618746	internet	-0.04900255
-4.618746	paternalist	-0.04900255
-4.618746	urlpeattalk	-0.04900255
-3.8762527	usdatarget	-0.04900255
-4.1777043	platform	-0.04900255
-4.618746	opportunpeattalk	-0.04900255
-4.618746	cognit	-0.04900255
-4.618746	accesspeattalkss	-0.04900255
-4.618746	interacta	-0.04900255
-4.618746	flourish	-0.04900255
-4.618746	peattalkyouth	-0.04900255
-3.8762527	advisori	-0.14351115
-4.618746	nite	-0.04900255
-4.618746	juststim	-0.04900255
-4.618746	wari	-0.04900255
-4.1777043	peattalka	-0.19979589
-4.1777043	peattalklindsay_odel	-0.04900255
-3.8762527	focu	-0.04900255
-4.1777043	principl	-0.04900255
-4.1777043	sunshin	-0.04900255
-4.618746	thougha	-0.04900255
-4.618746	sterotyp	-0.04900255
-4.618746	desir	-0.04900255
-3.8762527	recognit	-0.04900255
-4.618746	rinterview	-0.04900255
-4.618746	sophia	-0.04900255
-4.618746	chester	-0.04900255
-4.618746	cosmic	-0.04900255
-4.618746	callisto	-0.04900255
-4.618746	caprica	-0.04900255
-4.618746	ring	-0.04900255
-4.618746	saturn	-0.04900255
-4.618746	neurolog	-0.04900255
-4.618746	diverg	-0.04900255
-4.618746	umbrella	-0.04900255
-4.618746	peattalkautist	-0.04900255
-4.618746	profit	-0.04900255
-4.618746	peattalkdc	-0.04900255
-4.618746	ericka	-0.04900255
-4.618746	jone	-0.04900255
-4.618746	ejon	-0.04900255
-4.618746	orgwork	-0.04900255
-4.618746	unnecessari	-0.04900255
-4.618746	counterproduct	-0.04900255
-3.8762527	urldc	-0.04900255
-4.618746	booker	-0.04900255
-4.1777043	eastern	-0.19979589
-4.618746	digitmarle	-0.04900255
-3.8762527	tv	-0.04900255
-4.618746	english	-0.04900255
-4.618746	narrat	-0.04900255
-4.618746	pelosi	-0.04900255
-4.618746	biden	-0.04900255
-4.618746	east	-0.04900255
-4.618746	stepwithout	-0.04900255
-4.618746	wouldn	-0.04900255
-4.618746	urltonight	-0.04900255
-4.618746	slowli	-0.04900255
-4.1777043	peatwork	-0.04900255
-4.1777043	ceo	-0.04900255
-4.618746	marca	-0.04900255
-4.618746	bristo	-0.04900255
-4.618746	lie	-0.04900255
-4.618746	urlcompar	-0.04900255
-3.6912978	interact	-0.11788711
-4.618746	urlleast	-0.04900255
-4.1777043	two	-0.04900255
-4.618746	third	-0.04900255
-4.618746	when	-0.04900255
-3.1563063	receiv	-0.04900255
-4.1777043	partner	-0.04900255
-4.618746	urlautostraddl	-0.04900255
-4.618746	roundtabl	-0.04900255
-4.1777043	urlncd	-0.04900255
-4.1777043	recommend	-0.04900255
-4.618746	clock	-0.04900255
-4.618746	tick	-0.04900255
-4.618746	ambival	-0.04900255
-4.618746	ivar	-0.04900255
-4.618746	urlseldom	-0.04900255
-4.618746	urlsesam	-0.04900255
-4.618746	muppet	-0.04900255
-4.618746	urlyi	-0.04900255
-4.618746	uninspir	-0.04900255
-4.618746	prosthet	-0.04900255
-4.618746	orthot	-0.04900255
-4.618746	tailor	-0.04900255
-4.618746	creation	-0.04900255
-3.8762527	urldespit	-0.04900255
-4.1777043	opposit	-0.04900255
-4.618746	humili	-0.04900255
-4.618746	british	-0.04900255
-3.8762527	resist	-0.04900255
-4.618746	which	-0.04900255
-3.6912978	committe	-0.04900255
-3.561994	ensur	-0.04900255
-4.618746	beneficiari	-0.04900255
-4.618746	urlhair	-0.04900255
-3.8762527	urlstudi	-0.04900255
-4.1777043	urlfilmdi	-0.19979589
-4.618746	filmdi	-0.04900255
-4.618746	lawn	-0.04900255
-4.1777043	casey	-0.04900255
-4.1777043	hassan	-0.04900255
-4.1777043	harkin	-0.04900255
-4.618746	conferorgan	-0.04900255
-4.618746	transplant	-0.04900255
-4.618746	bia	-0.04900255
-3.8762527	begin	-0.04900255
-4.618746	urlever	-0.04900255
-4.618746	urlreach	-0.04900255
-4.618746	urlstare	-0.04900255
-4.1777043	distress	-0.04900255
-4.618746	urlshouldn	-0.04900255
-4.618746	slight	-0.04900255
-4.618746	emphasi	-0.04900255
-4.618746	labl	-0.04900255
-4.618746	influenc	-0.04900255
-4.618746	oppress	-0.04900255
-3.8762527	urlcontact	-0.2800959
-4.618746	urlkathi	-0.04900255
-4.618746	establish	-0.04900255
-4.618746	passcod	-0.04900255
-4.618746	communinterview	-0.04900255
-4.618746	keri	-0.04900255
-4.1777043	gray	-0.04900255
-4.618746	prime	-0.04900255
-4.618746	exampl	-0.04900255
-4.618746	urlshift	-0.04900255
-4.618746	threat	-0.04900255
-4.618746	mission	-0.04900255
-4.618746	urlseek	-0.04900255
-4.1777043	urlcartoon	-0.04900255
-4.618746	punish	-0.04900255
-4.618746	poor	-0.04900255
-4.618746	urlidea	-0.04900255
-4.618746	clickabl	-0.04900255
-3.561994	australian	-0.04900255
-4.618746	searchabl	-0.04900255
-4.1777043	minist	-0.04900255
-4.618746	sector	-0.04900255
-4.618746	champion	-0.04900255
-4.618746	savemedicaidright	-0.04900255
-4.618746	saw	-0.04900255
-4.618746	raw	-0.04900255
-4.1777043	urlimport	-0.04900255
-4.618746	saveourservicpadsa	-0.04900255
-4.618746	companion	-0.04900255
-4.618746	sydney	-0.04900255
-4.618746	gay	-0.04900255
-4.618746	lesbian	-0.04900255
-4.618746	mardi	-0.04900255
-4.618746	gra	-0.04900255
-4.618746	parad	-0.04900255
-4.618746	keepamericacovsavemedicaid	-0.04900255
-4.618746	livenobodi	-0.04900255
-4.1777043	savemedicaidaca	-0.04900255
-4.618746	savemedicaidadvoc	-0.04900255
-4.618746	annihil	-0.04900255
-4.618746	spiral	-0.04900255
-4.618746	urlallow	-0.04900255
-4.618746	restructur	-0.04900255
-4.618746	savemedicaidsavemedicaid	-0.04900255
-4.618746	livedidn	-0.04900255
-4.618746	savemedicaidcan	-0.04900255
-4.1777043	urlbill	-0.04900255
-4.618746	credenti	-0.04900255
-4.618746	urlubisoft	-0.04900255
-4.618746	urlsee	-0.04900255
-4.618746	televis	-0.04900255
-3.8762527	ccd	-0.2800959
-4.618746	pwdmedicaid	-0.04900255
-4.1777043	spend	-0.04900255
-4.618746	commerci	-0.04900255
-4.618746	savejobhelp	-0.04900255
-4.1777043	drastic	-0.04900255
-4.618746	horn	-0.04900255
-3.8762527	grew	-0.14351115
-4.618746	avg	-0.04900255
-4.618746	expenditur	-0.04900255
-4.618746	savemedicaidwithout	-0.04900255
-4.618746	savemedicaidless	-0.04900255
-4.618746	savemedicaidaltern	-0.04900255
-4.618746	medicaidmattmedicaid	-0.04900255
-4.618746	pwdhcb	-0.04900255
-4.618746	savemedicaidneed	-0.04900255
-4.618746	medicaidmattfeder	-0.04900255
-4.1777043	rest	-0.04900255
-4.618746	keepamericacovcaldis	-0.04900255
-4.618746	fb	-0.04900255
-4.618746	pdtlive	-0.04900255
-4.618746	dignifi	-0.04900255
-4.618746	saveourdign	-0.04900255
-4.618746	hcbcripthevot	-0.04900255
-4.618746	medicaidmattrespit	-0.04900255
-4.618746	savemedicaidstate	-0.04900255
-4.618746	savemedicaidtime	-0.04900255
-4.618746	savemedicaiddyk	-0.04900255
-4.618746	savemedicaidmark	-0.04900255
-4.618746	wietecha	-0.04900255
-3.8762527	valu	-0.04900255
-4.618746	shed	-0.04900255
-4.618746	near	-0.04900255
-4.618746	milkeninstitut	-0.04900255
-4.618746	hcbper	-0.04900255
-4.618746	capit	-0.04900255
-4.618746	savemedicaiddon	-0.04900255
-4.618746	pwdwhat	-0.04900255
-4.618746	tuesdaywithliz	-0.04900255
-3.8762527	urlbicki	-0.2800959
-4.618746	pt	-0.04900255
-4.618746	jobdidn	-0.04900255
-4.618746	savemedicaidtax	-0.04900255
-4.1777043	credit	-0.04900255
-3.6912978	map	-0.04900255
-4.618746	urlprotect	-0.04900255
-4.618746	interag	-0.04900255
-4.618746	won	-0.04900255
-4.1777043	lobbi	-0.04900255
-4.618746	savemedicaidplan	-0.04900255
-4.618746	shred	-0.04900255
-4.1777043	safeti	-0.19979589
-4.618746	net	-0.04900255
-4.1777043	familiesusa	-0.04900255
-4.618746	savemedicaidtransform	-0.04900255
-4.618746	messi	-0.04900255
-4.618746	middl	-0.04900255
-4.618746	urlkid	-0.04900255
-4.618746	savemedicaiddidn	-0.04900255
-4.618746	savemedicaidwhat	-0.04900255
-4.618746	savemedicaidpwd	-0.04900255
-4.618746	jobgiphi	-0.04900255
-4.1777043	extens	-0.04900255
-4.1777043	gif	-0.04900255
-4.618746	phrase	-0.04900255
-3.8762527	side	-0.04900255
-4.1777043	ehlena	-0.04900255
-4.1777043	fri	-0.04900255
-4.618746	sought	-0.04900255
-4.618746	dog	-0.04900255
-4.618746	urlcompani	-0.04900255
-4.618746	peddl	-0.04900255
-4.618746	urlhigher	-0.04900255
-4.618746	urlkarin	-0.04900255
-4.618746	hasemann	-0.04900255
-4.618746	joey	-0.04900255
-4.618746	watley	-0.04900255
-4.618746	fought	-0.04900255
-4.618746	urlray	-0.04900255
-4.618746	chumbler	-0.04900255
-4.618746	iv	-0.04900255
-3.8762527	scholarship	-0.04900255
-4.618746	murray	-0.04900255
-4.618746	bobbi	-0.04900255
-4.618746	coward	-0.04900255
-4.618746	adulthood	-0.04900255
-4.618746	urlanni	-0.04900255
-4.618746	elainey	-0.04900255
-4.618746	urlrabia	-0.04900255
-4.618746	belt	-0.04900255
-4.618746	sufferag	-0.04900255
-4.618746	classism	-0.04900255
-4.618746	hcbhcb	-0.04900255
-4.618746	savemedicaidstudent	-0.04900255
-4.618746	urlrespit	-0.04900255
-4.618746	savemedicaidtoward	-0.04900255
-4.618746	tunisia	-0.04900255
-4.618746	arbi	-0.04900255
-4.618746	chouikh	-0.04900255
-4.618746	savejobwestern	-0.04900255
-3.6912978	pennsylvania	-0.04900255
-4.618746	consortium	-0.04900255
-4.1777043	preserv	-0.04900255
-4.618746	hcbtime	-0.04900255
-4.618746	savemedicaiddisabl	-0.04900255
-4.618746	sruvey	-0.04900255
-4.618746	conclus	-0.04900255
-4.618746	urlmind	-0.04900255
-4.618746	same	-0.04900255
-3.8762527	beauti	-0.04900255
-4.618746	urlbring	-0.04900255
-4.1777043	radic	-0.04900255
-4.618746	rebelli	-0.04900255
-4.618746	lawyer	-0.04900255
-4.618746	urlbeliev	-0.04900255
-4.1777043	reduc	-0.04900255
-3.8762527	realiz	-0.04900255
-4.618746	jerk	-0.04900255
-4.618746	urlstruggl	-0.04900255
-4.618746	urlprepar	-0.04900255
-4.618746	prep	-0.04900255
-4.618746	dave	-0.04900255
-3.3815813	urlmani	-0.04900255
-4.618746	hook	-0.04900255
-4.618746	alcohol	-0.04900255
-4.618746	est	-0.04900255
-4.618746	urlhowev	-0.04900255
-4.1777043	urlexpert	-0.04900255
-3.6912978	troubl	-0.04900255
-4.618746	scari	-0.04900255
-4.618746	unsexi	-0.04900255
-4.618746	stigmat	-0.04900255
-4.618746	urlday	-0.04900255
-4.618746	discov	-0.04900255
-4.618746	urlcolumbia	-0.04900255
-4.1777043	tragedi	-0.04900255
-4.618746	urldanc	-0.04900255
-4.618746	trust	-0.04900255
-4.618746	bit	-0.04900255
-4.618746	yayoi	-0.04900255
-4.618746	kusama	-0.04900255
-4.618746	whose	-0.04900255
-4.618746	polka	-0.04900255
-4.1777043	dot	-0.04900255
-4.1777043	urlquick	-0.04900255
-4.618746	nash	-0.04900255
-4.618746	nc	-0.04900255
-4.1777043	instruct	-0.04900255
-4.1777043	kept	-0.04900255
-4.1777043	popul	-0.04900255
-4.1777043	held	-0.04900255
-4.618746	urlndnrc	-0.04900255
-4.618746	eighteen	-0.04900255
-4.618746	outreach	-0.04900255
-4.618746	collabor	-0.04900255
-4.618746	coc	-0.04900255
-3.8762527	urlruderman	-0.14351115
-4.618746	urlcontribut	-0.04900255
-4.618746	urlspecif	-0.04900255
-4.618746	urlignor	-0.04900255
-4.618746	separ	-0.04900255
-4.618746	urlnadia	-0.04900255
-4.618746	urlmariablaeu	-0.04900255
-4.618746	onebi	-0.04900255
-4.618746	inc	-0.04900255
-4.618746	bazeloncent	-0.04900255
-4.618746	accesslivkawulf	-0.04900255
-4.618746	kojoshow	-0.04900255
-4.618746	williamandmari	-0.04900255
-4.618746	mentionmsappel	-0.04900255
-4.618746	disabilityscoopliz	-0.04900255
-4.618746	mara	-0.04900255
-4.618746	youdelman	-0.04900255
-4.618746	traffick	-0.04900255
-4.618746	urldisabledandcut	-0.04900255
-4.618746	plow	-0.04900255
-3.8762527	ahead	-0.04900255
-4.618746	urlreep	-0.04900255
-4.618746	pennsylvanian	-0.04900255
-3.8762527	urleven	-0.04900255
-4.618746	pool	-0.04900255
-4.618746	enrol	-0.04900255
-4.618746	sunday	-0.04900255
-4.618746	urldenial	-0.04900255
-4.618746	sumaya	-0.04900255
-4.618746	bhuiyan	-0.04900255
-4.618746	nasrin	-0.04900255
-4.618746	haqu	-0.04900255
-4.618746	reciev	-0.04900255
-4.1777043	resid	-0.04900255
-4.618746	visa	-0.04900255
-4.618746	urldanni	-0.04900255
-4.618746	woodburn	-0.04900255
-4.1777043	urlblock	-0.19979589
-4.618746	under	-0.04900255
-4.618746	particularli	-0.04900255
-4.618746	urlspeechless	-0.04900255
-3.8762527	hit	-0.04900255
-4.618746	sweet	-0.04900255
-4.618746	spot	-0.04900255
-4.1777043	humor	-0.04900255
-4.618746	premis	-0.04900255
-4.618746	honesti	-0.04900255
-4.1777043	urlmodern	-0.19979589
-4.618746	urlrayat	-0.04900255
-4.618746	bahra	-0.04900255
-4.618746	urlinaccess	-0.04900255
-4.618746	diagnost	-0.04900255
-4.618746	breast	-0.04900255
-4.618746	cancer	-0.04900255
-4.618746	undiagnos	-0.04900255
-4.618746	nonconsensu	-0.04900255
-4.618746	pervas	-0.04900255
-4.1777043	lit	-0.04900255
-4.618746	urlsoutheast	-0.04900255
-4.1777043	region	-0.04900255
-4.618746	urlintellectu	-0.04900255
-4.618746	alzheim	-0.04900255
-4.618746	theolog	-0.04900255
-4.618746	azusa	-0.04900255
-3.6912978	california	-0.04900255
-4.618746	june	-0.04900255
-4.618746	urlcanadian	-0.04900255
-4.1777043	opinion	-0.04900255
-4.618746	protocol	-0.04900255
-4.1777043	urlmental	-0.04900255
-4.618746	urldream	-0.04900255
-3.8762527	session	-0.04900255
-4.618746	disclosur	-0.04900255
-4.618746	urlteresa	-0.04900255
-4.618746	urlequiti	-0.04900255
-4.618746	urlupcom	-0.04900255
-4.618746	ntide	-0.04900255
-4.618746	urlattitud	-0.04900255
-4.618746	urlanti	-0.04900255
-4.1777043	bulli	-0.04900255
-4.618746	urllateef	-0.04900255
-4.618746	mcleod	-0.04900255
-4.618746	aqueila	-0.04900255
-4.618746	lewi	-0.04900255
-3.8762527	urlbazelon	-0.2800959
-4.618746	neil	-0.04900255
-4.618746	recap	-0.04900255
-4.618746	mere	-0.04900255
-4.618746	worldli	-0.04900255
-4.1777043	career	-0.04900255
-4.618746	violinist	-0.04900255
-4.618746	urlwalgreen	-0.04900255
-4.618746	kindergartn	-0.04900255
-4.618746	easter	-0.04900255
-4.618746	urlmadelin	-0.04900255
-4.1777043	stuart	-0.04900255
-4.618746	madelin	-0.04900255
-4.618746	urldonald	-0.04900255
-4.618746	galloway	-0.04900255
-4.1777043	autonom	-0.04900255
-4.618746	vehicl	-0.04900255
-4.618746	air	-0.04900255
-4.1777043	complaint	-0.04900255
-4.618746	urlomniserv	-0.04900255
-4.1777043	fire	-0.04900255
-4.618746	improperli	-0.04900255
-4.618746	airport	-0.04900255
-4.1777043	contract	-0.04900255
-4.618746	damn	-0.04900255
-4.618746	urlpiec	-0.04900255
-4.618746	gawker	-0.04900255
-4.618746	urleuphem	-0.04900255
-4.618746	spread	-0.04900255
-4.1777043	stigma	-0.04900255
-4.618746	scope	-0.04900255
-4.618746	impair	-0.04900255
-4.618746	urlprogress	-0.04900255
-4.618746	japan	-0.04900255
-4.1777043	common	-0.04900255
-4.618746	erecruit	-0.04900255
-4.618746	urlpreliminari	-0.04900255
-4.618746	dine	-0.04900255
-4.618746	shop	-0.04900255
-4.1777043	reluct	-0.04900255
-4.618746	wave	-0.04900255
-4.618746	urlsister	-0.04900255
-4.618746	frida	-0.04900255
