\data\
ngram 1=697
ngram 2=1829
ngram 3=2616

\1-grams:
-0.47276157	<unk>
-inf	<s>	-0.08519865
-3.7296188	</s>
-3.7296188	favorit	-0.08519865
-1.8892542	cw	-0.4532896
-3.0573943	show	-0.08519862
-2.2798257	stream	-0.24804288
-2.7056003	free	-0.37419716
-3.7296188	app	-0.08519865
-1.0510863	<eos>	-0.47991493
-1.2030193	riverdal	-0.29914963
-3.3116329	urlarchi	-0.08519862
-3.3116329	gang	-0.08519862
-3.7296188	thin	-0.08519865
-3.7296188	ice	-0.08519865
-2.1976593	season	-0.7891705
-3.7296188	final	-0.08519862
-1.7908841	url	-0.19644532
-3.7296188	urlserpent	-0.08519865
-2.8468099	never	-0.08519865
-2.7056003	look	-0.08519865
-2.8468099	good	-0.17451423
-3.3116329	urlhurri	-0.20004068
-2.3812528	watch	-0.19867477
-2.5138257	urlsee	-0.16409166
-1.9699005	archi	-0.30444476
-2.2798257	get	-0.09799952
-3.7296188	happili	-0.08519865
-3.0573943	ever	-0.08519862
-3.7296188	urlcould	-0.08519865
-3.7296188	resist	-0.08519865
-2.1285925	now	-0.42564595
-3.7296188	urldrama	-0.08519865
-3.3116329	isn	-0.20004068
-2.3812528	t	-0.11235526
-3.7296188	yet	-0.08519865
-3.3116329	urlwatch	-0.08519862
-3.7296188	chill	-0.08519865
-3.7296188	urlshare	-0.08519865
-3.0573943	love	-0.08519862
-3.3116329	avail	-0.13883467
-3.7296188	urlsquadgoal	-0.08519865
-3.0573943	sing	-0.15829378
-3.7296188	urlsavecheryl	-0.08519865
-3.7296188	urlmama	-0.08519865
-3.3116329	lodg	-0.08519865
-3.7296188	shadi	-0.08519865
-3.0573943	busi	-0.15829378
-2.5138257	urlriverdal	-0.13992985
-3.0573943	urli	-0.13883467
-3.3116329	m	-0.13883467
-2.097784	jughead	-0.24301602
-3.3116329	urlwest	-0.20004068
-3.3116329	coast	-0.11118915
-2.327585	start	-0.21821976
-2.8468099	readi	-0.08519862
-2.1976593	one	-0.41374633
-3.3116329	hour	-0.1504052
-3.7296188	urlshannonpurs	-0.08519865
-3.7296188	urlcheer	-0.08519865
-3.0573943	urljosi	-0.36635742
-2.8468099	pussycat	-0.11118915
-3.7296188	urlrealli	-0.08519865
-3.7296188	urlwe	-0.08519865
-3.7296188	ve	-0.08519865
-3.7296188	kiss	-0.08519865
-3.7296188	coupl	-0.08519865
-2.5992124	time	-0.15829378
-1.7624911	s	-0.1639238
-3.3116329	best	-0.08519865
-3.7296188	brightest	-0.08519865
-3.7296188	urlgrab	-0.08519865
-2.7056003	friend	-0.08519865
-3.0573943	urlone	-0.08519865
-3.7296188	urlface	-0.08519865
-3.0573943	dark	-0.15829378
-3.7296188	danger	-0.08519865
-2.8468099	truth	-0.12756442
-1.9926406	tonight	-0.81057334
-1.9926406	digit	-0.33919963
-3.3116329	c	-0.08519865
-3.7296188	urleveryth	-0.08519865
-3.0573943	come	-0.08519862
-3.7296188	crash	-0.08519865
-2.4425	tomorrow	-0.62946963
-2.236802	latest	-0.6046461
-2.5138257	first	-0.2703589
-3.0573943	urlsecret	-0.08519865
-3.7296188	better	-0.08519865
-3.7296188	left	-0.08519865
-3.7296188	untold	-0.08519865
-2.5992124	don	-0.6673874
-3.0573943	miss	-0.08519865
-2.2798257	thursday	-0.3968652
-2.5138257	urlget	-0.10822333
-3.7296188	last	-0.08519865
-3.3116329	perform	-0.08519865
-2.8468099	urlgo	-0.49129614
-3.3116329	behind	-0.08519862
-3.3116329	scene	-0.08519865
-3.3116329	covergirl	-0.08519865
-3.0573943	uncov	-0.08519862
-2.097784	secret	-0.23683985
-2.7056003	josi	-0.17451423
-3.7296188	mccoy	-0.08519865
-3.3116329	yourself	-0.08519865
-3.3116329	urllearn	-0.08519862
-3.7296188	sticki	-0.08519865
-3.3116329	murder	-0.08519865
-2.8468099	mysteri	-0.08519865
-3.7296188	urldie	-0.08519865
-2.8468099	know	-0.08519865
-3.7296188	nightmar	-0.08519865
-3.7296188	far	-0.08519865
-3.0573943	over	-0.36635742
-2.5138257	episod	-0.21020234
-3.7296188	urlfreefp	-0.08519865
-3.3116329	urlmoment	-0.08519865
-3.3116329	talk	-0.08519862
-3.3116329	boyfriend	-0.08519865
-3.7296188	i	-0.08519865
-3.7296188	sheriff	-0.08519865
-3.7296188	son	-0.08519865
-3.7296188	urlclapback	-0.08519865
-2.5992124	queen	-0.24998297
-3.7296188	urlexplain	-0.08519865
-3.3116329	urltruth	-0.08519862
-2.7056003	out	-0.37419716
-3.7296188	urljackpot	-0.08519865
-2.4425	go	-0.08519865
-2.1617544	you	-0.24564272
-3.7296188	preppi	-0.08519865
-3.7296188	urlboyfriend	-0.08519865
-3.7296188	lay	-0.08519865
-3.7296188	law	-0.08519865
-2.8468099	urleveryon	-0.120210215
-2.7056003	right	-0.12756442
-3.7296188	urlsavejughead	-0.08519865
-3.7296188	urllike	-0.08519865
-3.3116329	without	-0.08519865
-3.7296188	beani	-0.08519865
-3.7296188	rt	-0.08519865
-2.8468099	like	-0.08519865
-2.5138257	it	-0.27728716
-3.7296188	urlcant	-0.08519865
-3.7296188	unse	-0.08519865
-1.9482921	new	-0.41760474
-3.3116329	urlchat	-0.20004068
-2.1976593	live	-0.19526923
-2.4425	madelainepetsch	-0.1764184
-2.7056003	lilireinhart	-0.08519865
-3.7296188	urlbetter	-0.08519865
-3.7296188	hurri	-0.08519865
-2.8468099	minut	-0.08519862
-3.3116329	urlquestion	-0.08519862
-2.7056003	big	-0.12756442
-2.8468099	reveal	-0.17451423
-3.7296188	chat	-0.08519865
-2.8468099	urlwant	-0.12756442
-3.7296188	kill	-0.08519865
-3.0573943	jason	-0.08519862
-3.3116329	alreadi	-0.08519865
-3.0573943	urlkill	-0.36635742
-2.5138257	blossom	-0.10586516
-3.0573943	follow	-0.15829378
-3.7296188	case	-0.08519865
-3.3116329	find	-0.15829378
-3.7296188	chang	-0.08519865
-3.3116329	everyth	-0.08519865
-3.7296188	urlinnoc	-0.08519865
-3.0573943	catch	-0.08519865
-2.5138257	iamamurray	-0.115032405
-2.7056003	transform	-0.5882062
-3.3116329	icon	-0.08519865
-2.8468099	present	-0.49129614
-3.7296188	at	-0.08519865
-3.0573943	urlspend	-0.08519862
-3.7296188	sunday	-0.08519865
-3.7296188	funday	-0.08519865
-3.0573943	urljughead	-0.08519862
-2.5992124	begin	-0.15829374
-3.3116329	urlrock	-0.08519865
-3.7296188	kid	-0.08519865
-3.3116329	see	-0.13883467
-2.2798257	veronica	-0.29533777
-3.7296188	end	-0.08519865
-3.7296188	well	-0.08519865
-3.3116329	urlcan	-0.20004068
-3.7296188	stop	-0.08519865
-3.3116329	think	-0.08519862
-3.7296188	need	-0.08519865
-3.0573943	on	-0.08519862
-2.7056003	say	-0.08519862
-3.3116329	more	-0.08519865
-3.0573943	urlthere	-0.36635742
-3.3116329	danc	-0.08519865
-2.5992124	urlthank	-0.6673874
-2.7056003	west	-0.5882062
-3.3116329	urloh	-0.08519865
-3.7296188	no	-0.08519865
-3.7296188	juggi	-0.08519865
-3.7296188	urlnice	-0.08519865
-3.3116329	move	-0.08519865
-3.0573943	urllie	-0.08519862
-3.7296188	urlwhat	-0.08519865
-3.7296188	mind	-0.08519865
-3.7296188	urlye	-0.08519865
-3.3116329	urlcome	-0.08519865
-2.7056003	way	-0.12756442
-3.7296188	urltfw	-0.08519862
-3.7296188	rememb	-0.08519865
-3.7296188	urlbye	-0.08519865
-3.3116329	thank	-0.20004068
-3.7296188	they	-0.08519865
-2.8468099	re	-0.08519865
-3.7296188	conspir	-0.08519865
-3.7296188	urlels	-0.08519865
-3.0573943	polli	-0.08519862
-3.7296188	urlmajor	-0.08519865
-3.0573943	famili	-0.08519865
-3.3116329	what	-0.20004068
-3.7296188	bee	-0.08519862
-3.7296188	also	-0.08519865
-3.7296188	homecom	-0.08519865
-3.7296188	urltune	-0.08519865
-3.0573943	urldon	-0.36635742
-3.7296188	date	-0.08519865
-2.5992124	cast	-0.19359902
-3.7296188	paleycent	-0.08519865
-3.7296188	pm	-0.08519865
-3.7296188	pt	-0.08519862
-3.3116329	urlyou	-0.13883467
-3.7296188	rude	-0.08519865
-3.7296188	awaken	-0.08519865
-2.8468099	a	-0.11118915
-3.3116329	urlthing	-0.08519865
-3.7296188	fast	-0.08519865
-3.7296188	enough	-0.08519865
-3.7296188	urlreliv	-0.08519865
-3.0573943	birthday	-0.08519862
-2.4425	camilamend	-0.28024966
-3.7296188	april	-0.08519865
-2.5138257	parti	-0.18442376
-3.0573943	urlit	-0.36635742
-2.327585	cheryl	-0.27070463
-3.7296188	showdown	-0.08519865
-2.8468099	weekend	-0.08519865
-3.0573943	urljoin	-0.11118915
-3.7296188	urlthat	-0.08519865
-3.7296188	throw	-0.08519865
-3.3116329	urlgame	-0.08519865
-3.7296188	sin	-0.08519865
-3.7296188	urlwouldn	-0.08519865
-3.7296188	urlthi	-0.08519865
-3.7296188	battl	-0.08519865
-3.7296188	he	-0.08519865
-3.7296188	ll	-0.08519865
-3.7296188	eat	-0.08519865
-2.8468099	want	-0.08519865
-3.7296188	to	-0.08519865
-3.7296188	urlspi	-0.08519865
-3.3116329	week	-0.08519865
-3.7296188	podcast	-0.08519865
-3.7296188	urlmommi	-0.08519865
-3.7296188	home	-0.08519865
-3.7296188	urlmeanwhil	-0.08519865
-3.3116329	urlhappi	-0.08519865
-3.7296188	urldestruct	-0.08519865
-3.3116329	special	-0.20004068
-3.7296188	urlmaddest	-0.08519865
-3.7296188	skill	-0.08519865
-3.7296188	squad	-0.08519865
-3.7296188	epic	-0.08519865
-3.7296188	celebr	-0.08519865
-3.7296188	urlparti	-0.08519865
-3.3116329	invit	-0.08519865
-3.7296188	question	-0.08519865
-2.7056003	facebook	-0.37419716
-3.7296188	page	-0.08519865
-2.8468099	today	-0.120210215
-3.7296188	et	-0.08519865
-3.3116329	urlreadi	-0.08519865
-3.3116329	caught	-0.08519862
-2.2798257	betti	-0.213458
-3.0573943	cooper	-0.08519862
-3.7296188	urlred	-0.08519865
-3.7296188	hair	-0.08519865
-3.7296188	care	-0.08519865
-3.7296188	urlcare	-0.08519865
-3.7296188	ask	-0.08519865
-3.3116329	for	-0.08519865
-3.7296188	urlexperi	-0.08519865
-3.3116329	wondercon	-0.08519865
-3.0573943	urllong	-0.08519862
-2.8468099	night	-0.13883467
-3.7296188	await	-0.08519865
-2.8468099	urlwelcom	-0.18442376
-3.0573943	red	-0.15829378
-3.7296188	side	-0.08519865
-3.3116329	urlgood	-0.08519865
-3.3116329	urlcheryl	-0.08519865
-2.8468099	small	-0.27728716
-3.7296188	hous	-0.08519865
-3.7296188	urlalway	-0.08519865
-3.7296188	classi	-0.08519865
-3.7296188	set	-0.08519865
-3.7296188	pearl	-0.08519865
-3.7296188	urlwell	-0.08519865
-3.7296188	aren	-0.08519865
-3.7296188	cute	-0.08519865
-3.3116329	takeov	-0.08519865
-3.3116329	urlnew	-0.08519865
-3.3116329	urlhear	-0.20004068
-3.7296188	marisolnichol	-0.08519865
-3.7296188	urlmapl	-0.08519865
-3.7296188	lipstick	-0.08519865
-3.7296188	urlbughead	-0.08519865
-3.7296188	hug	-0.08519865
-3.0573943	make	-0.08519862
-3.7296188	face	-0.08519865
-3.3116329	run	-0.08519865
-3.7296188	said	-0.08519865
-3.7296188	mr	-0.08519865
-3.0573943	andrew	-0.15829378
-3.7296188	urlveronica	-0.08519865
-3.3116329	doesn	-0.20004068
-3.7296188	sound	-0.08519865
-3.3116329	thi	-0.08519865
-3.7296188	not	-0.08519865
-3.7296188	bit	-0.08519865
-3.3116329	kevin	-0.08519862
-3.0573943	reggi	-0.08519862
-3.3116329	urlfar	-0.08519865
-2.8468099	drama	-0.13883467
-3.3116329	tast	-0.08519865
-3.7296188	blood	-0.08519865
-3.7296188	seduc	-0.08519865
-3.3116329	sweet	-0.08519865
-3.7296188	urlhey	-0.08519865
-3.7296188	pleas	-0.08519865
-3.7296188	urlbabi	-0.08519865
-3.3116329	shower	-0.08519865
-3.7296188	blowup	-0.08519865
-3.3116329	all	-0.15829378
-3.3116329	urlrealiz	-0.08519862
-3.7296188	put	-0.08519865
-3.3116329	work	-0.08519865
-3.0573943	madchenamick	-0.08519862
-2.8468099	take	-0.08519865
-2.7056003	instagram	-0.2314728
-3.7296188	urlpolli	-0.08519865
-3.7296188	choic	-0.08519865
-3.7296188	urlheard	-0.08519865
-3.7296188	nana	-0.08519865
-3.3116329	rose	-0.08519865
-3.3116329	urllet	-0.15829378
-3.7296188	let	-0.08519865
-3.7296188	boy	-0.08519865
-2.8468099	welcom	-0.27728716
-3.3116329	urlsomeon	-0.08519865
-3.7296188	urlchin	-0.08519865
-3.3116329	up	-0.08519865
-3.7296188	urlyup	-0.08519865
-3.7296188	listen	-0.08519865
-3.7296188	director	-0.08519865
-3.7296188	rapaportcast	-0.08519865
-3.7296188	urlcontinu	-0.08519865
-3.7296188	believ	-0.08519865
-3.7296188	urlsweet	-0.08519865
-3.7296188	urlyour	-0.08519865
-3.3116329	crew	-0.08519865
-3.3116329	report	-0.08519865
-3.7296188	duti	-0.08519865
-3.7296188	babi	-0.08519865
-3.7296188	recap	-0.08519865
-3.3116329	treat	-0.08519865
-3.7296188	worri	-0.08519865
-3.7296188	wait	-0.08519865
-3.3116329	almost	-0.20004068
-3.7296188	url_itizwhatitiz	-0.08519865
-3.7296188	join	-0.08519865
-3.7296188	urlboy	-0.08519865
-3.7296188	back	-0.08519865
-3.3116329	return	-0.08519865
-3.7296188	sure	-0.08519865
-3.7296188	urltown	-0.08519865
-3.7296188	everi	-0.08519865
-3.7296188	feud	-0.08519865
-3.7296188	heaven	-0.08519865
-3.7296188	full	-0.08519865
-3.0573943	urlenter	-0.15829378
-3.7296188	world	-0.08519865
-3.7296188	becom	-0.08519865
-3.7296188	charact	-0.08519865
-3.7296188	alongsid	-0.08519865
-3.0573943	next	-0.15829378
-3.7296188	mar	-0.08519865
-3.7296188	urlrumor	-0.08519865
-3.3116329	innoc	-0.08519865
-3.7296188	urlcatch	-0.08519865
-3.7296188	urlbecom	-0.08519865
-3.3116329	obsess	-0.08519865
-3.3116329	revel	-0.08519865
-3.7296188	urllatest	-0.08519865
-3.7296188	march	-0.08519865
-3.7296188	digitblossom	-0.08519865
-3.7296188	fake	-0.08519865
-3.7296188	news	-0.08519865
-3.7296188	urlpollycooperkilledmybroth	-0.08519865
-3.7296188	nowheretohid	-0.08519865
-3.7296188	sharpenyourpitchfork	-0.08519865
-3.7296188	urlmean	-0.08519865
-3.7296188	learn	-0.08519865
-3.3116329	stori	-0.08519862
-3.7296188	natboltt	-0.08519865
-3.7296188	digiturl	-0.08519865
-3.7296188	true	-0.08519865
-3.7296188	gentleman	-0.08519865
-3.7296188	urlfamili	-0.08519865
-3.0573943	slay	-0.08519862
-3.3116329	togeth	-0.08519865
-3.3116329	stay	-0.08519865
-2.8468099	caseycott	-0.13883467
-3.3116329	urllive	-0.20004068
-3.3116329	tweet	-0.20004068
-3.7296188	urlurlit	-0.08519865
-3.7296188	fun	-0.08519865
-3.3116329	game	-0.08519865
-3.7296188	until	-0.08519865
-2.8468099	someon	-0.08519865
-3.7296188	hurt	-0.08519865
-3.7296188	urlpay	-0.08519865
-3.7296188	price	-0.08519865
-3.7296188	renew	-0.08519865
-3.7296188	camila	-0.08519865
-3.7296188	mend	-0.08519865
-3.7296188	thursda	-0.08519865
-3.7296188	urlhandl	-0.08519865
-3.7296188	either	-0.08519865
-3.7296188	them	-0.08519865
-3.7296188	urlnewest	-0.08519865
-3.3116329	guilti	-0.20004068
-3.7296188	pleasur	-0.08519865
-3.7296188	urleye	-0.08519865
-3.3116329	alway	-0.08519865
-3.7296188	entranc	-0.08519865
-3.3116329	urladventur	-0.08519865
-3.3116329	continu	-0.08519865
-3.7296188	urlnot	-0.08519865
-3.7296188	have	-0.08519865
-3.7296188	urlbe	-0.08519865
-3.7296188	jay	-0.08519865
-3.7296188	bey	-0.08519865
-3.7296188	urltbhseptiic	-0.08519865
-3.7296188	skovbyetierahear	-0.08519865
-3.7296188	urlfavorit	-0.08519865
-3.7296188	performhermion	-0.08519865
-3.7296188	whatev	-0.08519865
-3.7296188	urlawkward	-0.08519865
-3.7296188	dinner	-0.08519865
-3.7296188	urlbetti	-0.08519865
-3.7296188	tri	-0.08519865
-3.7296188	understand	-0.08519865
-3.0573943	wrong	-0.08519862
-3.0573943	place	-0.08519862
-3.7296188	writer	-0.08519865
-3.7296188	breakfast	-0.08519865
-3.7296188	urlclaw	-0.08519865
-3.7296188	meow	-0.08519865
-3.7296188	prowl	-0.08519865
-3.7296188	urlforev	-0.08519865
-3.7296188	tie	-0.08519865
-3.7296188	urlromanc	-0.08519865
-3.7296188	rivalri	-0.08519865
-3.7296188	urldelici	-0.08519865
-3.7296188	serv	-0.08519865
-3.7296188	mmm	-0.08519865
-3.7296188	bing	-0.08519865
-3.7296188	y	-0.08519865
-3.7296188	round	-0.08519865
-3.7296188	wrap	-0.08519865
-3.7296188	freak	-0.08519865
-3.0573943	the	-0.08519865
-3.3116329	urlfirst	-0.20004068
-2.8468099	colesprous	-0.27728716
-2.8468099	urlworld	-0.49129614
-3.7296188	archiecom	-0.08519865
-3.7296188	rossbutl	-0.08519865
-2.1976593	seri	-0.7891705
-3.7296188	urlriverdalestrong	-0.08519865
-3.7296188	urltrust	-0.08519865
-2.8468099	lie	-0.13883467
-3.7296188	urlnana	-0.08519865
-3.7296188	vault	-0.08519865
-3.7296188	urlreal	-0.08519865
-3.7296188	subtl	-0.08519865
-3.3116329	fred	-0.08519865
-3.7296188	squadgoal	-0.08519865
-3.3116329	urlfriend	-0.08519865
-3.7296188	urlopen	-0.08519865
-3.0573943	eye	-0.08519862
-3.7296188	open	-0.08519865
-3.7296188	urlinvit	-0.08519865
-3.7296188	spend	-0.08519865
-3.3116329	urlwho	-0.20004068
-3.7296188	enjoy	-0.08519865
-3.7296188	regret	-0.08519865
-3.7296188	urlcaptain	-0.08519865
-3.7296188	riverdalback	-0.08519865
-3.7296188	got	-0.08519865
-3.7296188	urldate	-0.08519865
-3.3116329	with	-0.08519865
-3.7296188	shed	-0.08519865
-3.7296188	light	-0.08519865
-3.7296188	urlhead	-0.08519865
-3.7296188	can	-0.08519865
-3.7296188	buri	-0.08519865
-3.7296188	urlsmall	-0.08519865
-2.5992124	town	-0.115032405
-3.7296188	lot	-0.08519865
-3.7296188	histori	-0.08519865
-3.7296188	refus	-0.08519865
-3.7296188	die	-0.08519865
-3.3116329	hide	-0.08519865
-3.7296188	hook	-0.08519865
-3.0573943	adventur	-0.08519862
-3.0573943	urluncov	-0.15829378
-3.7296188	darkest	-0.08519865
-3.7296188	urlscandal	-0.08519865
-3.3116329	here	-0.20004068
-3.7296188	drive	-0.08519865
-3.7296188	in	-0.08519865
-3.7296188	hit	-0.08519865
-3.7296188	ultim	-0.08519865
-3.7296188	tfti	-0.08519865
-3.7296188	urlbrace	-0.08519865
-3.7296188	ladi	-0.08519865
-3.3116329	mess	-0.08519865
-3.7296188	urlshade	-0.08519865
-3.7296188	chao	-0.08519865
-3.7296188	man	-0.08519865
-3.3116329	els	-0.08519865
-3.7296188	dive	-0.08519865
-3.3116329	deep	-0.08519865
-3.0573943	away	-0.13883467
-3.3116329	heart	-0.20004068
-3.7296188	ach	-0.08519865
-3.7296188	our	-0.08519865
-3.7296188	real	-0.08519865
-3.7296188	b	-0.08519865
-3.0573943	amp	-0.15829378
-3.7296188	v	-0.08519865
-3.7296188	urlwork	-0.08519865
-3.7296188	done	-0.08519865
-3.7296188	urlum	-0.08519865
-3.7296188	yeah	-0.08519865
-3.7296188	went	-0.08519865
-3.7296188	there	-0.08519865
-3.7296188	mamalodg	-0.08519865
-3.0573943	seem	-0.20004068
-3.0573943	urlmysteri	-0.08519862
-3.3116329	scandal	-0.08519865
-3.7296188	lurk	-0.08519865
-3.7296188	pull	-0.08519865
-3.7296188	protect	-0.08519865
-3.7296188	chanc	-0.08519865
-3.7296188	win	-0.08519865
-3.7296188	roku	-0.08519865
-3.7296188	express	-0.08519865
-3.7296188	player	-0.08519865
-3.7296188	screen	-0.08519865
-2.8468099	kj_apa	-0.12756442
-3.7296188	valentin	-0.08519865
-3.3116329	day	-0.08519865
-3.7296188	trust	-0.08519865
-3.7296188	break	-0.08519865
-3.7296188	rule	-0.08519865
-3.7296188	give	-0.08519865
-2.7056003	girl	-0.120210215
-3.7296188	gone	-0.08519865
-3.7296188	bad	-0.08519865
-3.7296188	urlethel	-0.08519865
-3.7296188	didn	-0.08519865
-3.7296188	urlhe	-0.08519865
-3.7296188	hottest	-0.08519865
-3.7296188	hot	-0.08519865
-3.7296188	troubl	-0.08519865
-3.7296188	hear	-0.08519865
-3.7296188	download	-0.08519865
-3.7296188	urlnext	-0.08519865
-3.7296188	urlslay	-0.08519865
-3.7296188	urldigit	-0.08519865
-3.7296188	urlforget	-0.08519865
-3.7296188	urlshhh	-0.08519865
-3.3116329	soon	-0.08519862
-3.7296188	urlway	-0.08519865
-3.7296188	differ	-0.08519865
-3.7296188	thought	-0.08519865
-3.7296188	d	-0.08519865
-3.7296188	be	-0.08519865
-3.7296188	blue	-0.08519865
-3.7296188	gold	-0.08519865
-3.7296188	urlfact	-0.08519865
-3.7296188	q	-0.08519865
-3.7296188	urlhappen	-0.08519865
-3.7296188	sweetwat	-0.08519865
-3.7296188	river	-0.08519865
-3.7296188	stranger	-0.08519865
-3.7296188	shannonpurs	-0.08519865
-3.3116329	beneath	-0.08519865
-3.7296188	urlbest	-0.08519865
-3.7296188	worst	-0.08519865
-3.7296188	enemi	-0.08519865
-3.7296188	thur	-0.08519865
-3.7296188	keep	-0.08519865
-3.3116329	urlstream	-0.08519865
-3.7296188	great	-0.08519865
-3.7296188	urlforbidden	-0.08519865
-3.7296188	urlrun	-0.08519865
-3.7296188	urlmood	-0.08519865
-3.7296188	urlplay	-0.08519865
-3.7296188	guitar	-0.08519865
-3.7296188	urlgot	-0.08519865
-3.7296188	urlcupcak	-0.08519865
-3.7296188	flower	-0.08519865
-3.7296188	that	-0.08519865
-3.7296188	rebel	-0.08519865
-3.7296188	hidden	-0.08519865
-3.3116329	shortli	-0.08519865
-3.7296188	unfold	-0.08519865
-2.5138257	premier	-0.14522466
-3.7296188	urlfollow	-0.08519865
-3.7296188	pep	-0.08519865
-3.7296188	deadli	-0.08519865
-3.0573943	urlmeet	-0.08519865
-3.7296188	newest	-0.08519865
-3.7296188	arriv	-0.08519865
-3.7296188	who	-0.08519865
-3.7296188	excit	-0.08519865
-3.7296188	urlcelebr	-0.08519865
-3.7296188	send	-0.08519865
-3.7296188	snap	-0.08519865
-3.7296188	cwnow	-0.08519865
-3.7296188	snapchat	-0.08519865
-3.7296188	use	-0.08519865
-3.7296188	filter	-0.08519865
-3.7296188	urlb	-0.08519865
-3.7296188	bestfriendgo	-0.08519865
-3.7296188	riverdalnote	-0.08519865
-3.7296188	urlmake	-0.08519865
-3.7296188	urlanyon	-0.08519865
-3.7296188	feel	-0.08519865
-3.7296188	urlwait	-0.08519865
-3.7296188	urldiscov	-0.08519865
-3.3116329	urldeeper	-0.20004068
-3.7296188	darker	-0.08519865
-3.7296188	urlluke	-0.08519865
-3.7296188	perri	-0.08519865
-3.3116329	preview	-0.20004068
-3.7296188	role	-0.08519865
-3.7296188	heartthrob	-0.08519865
-3.7296188	own	-0.08519865
-3.3116329	urleveri	-0.20004068
-3.7296188	purr	-0.08519865
-3.7296188	fect	-0.08519865
-3.7296188	rise	-0.08519865
-3.7296188	star	-0.08519865
-3.7296188	cover	-0.08519865
-3.7296188	citi	-0.08519865
-3.7296188	life	-0.08519865
-3.7296188	call	-0.08519865
-3.0573943	januari	-0.36635742
-3.7296188	offer	-0.08519865
-3.7296188	alic	-0.08519865
-3.7296188	door	-0.08519865
-3.7296188	longtim	-0.08519865
-3.7296188	jone	-0.08519865
-3.3116329	meet	-0.08519865
-3.7296188	shadow	-0.08519865
-3.3116329	perfect	-0.08519865
-3.7296188	stage	-0.08519865
-3.7296188	urlleav	-0.08519865
-3.7296188	noth	-0.08519865
-3.7296188	glimps	-0.08519865
-3.7296188	surfac	-0.08519865
-3.7296188	offici	-0.08519865
-3.7296188	ext	-0.08519865
-3.7296188	urlnetwork	-0.08519865
-3.7296188	brought	-0.08519865
-3.7296188	vampir	-0.08519865
-3.7296188	diari	-0.08519865
-3.7296188	gossip	-0.08519865
-3.7296188	aboard	-0.08519865
-3.7296188	yacht	-0.08519865
-3.7296188	comic	-0.08519865
-3.7296188	con	-0.08519865
-3.7296188	thecw	-0.08519865

\2-grams:
-2.7293293	url </s>
-0.74888146	<s> favorit	-0.07631852
-0.7241378	favorit cw	-0.07631852
-0.84538215	stream cw	-0.88102204
-0.26173612	free cw	-0.93901396
-1.5460725	riverdal cw	-0.96534294
-1.3947512	gang cw	-0.07631852
-1.5943065	final cw	-0.07631852
-1.7982728	watch cw	-1.035924
-0.7123672	avail cw	-0.637984
-0.5329063	start cw	-1.3146776
-1.5695927	hour cw	-0.07631852
-1.5485322	digit cw	-1.1151053
-1.4430524	c cw	-0.8049982
-1.5182273	episod cw	-0.637984
-1.3947512	minut cw	-0.73489404
-1.541278	begin cw	-0.07631852
-1.1550032	think cw	-0.07631852
-1.335052	weekend cw	-0.07631852
-1.0014243	week cw	-0.07631852
-1.1550032	kevin cw	-0.07631852
-1.1550032	reggi cw	-0.07631852
-1.0014243	treat cw	-0.07631852
-1.0014243	day cw	-0.07631852
-1.1550032	soon cw	-0.07631852
-1.718215	premier cw	-0.07631852
-0.7241378	aboard cw	-0.07631852
-2.2309766	cw show	-0.07631852
-1.9269218	get show	-0.07631852
-2.299064	new show	-0.07631852
-1.1959101	show stream	-0.07631852
-1.0224985	<eos> stream	-0.7056602
-1.8841377	riverdal stream	-0.23762207
-1.7176182	final stream	-0.07631852
-1.1959101	love stream	-0.07631852
-1.3156307	avail stream	-0.07631852
-1.8257259	urlriverdal stream	-0.07631852
-1.7726505	start stream	-0.07631852
-2.0638027	episod stream	-0.07631852
-1.5393844	parti stream	-0.07631852
-1.3985744	weekend stream	-0.07631852
-0.86459136	stream free	-0.73489404
-2.7761793	riverdal free	-0.07631852
-1.7834837	final free	-0.07631852
-2.0461667	watch free	-0.07631852
-1.3375813	avail free	-0.07631852
-0.61800647	cw app	-0.557135
-0.5178741	cw <eos>	-0.25680947
-1.0746915	app <eos>	-0.27043045
-1.5225533	<eos> <eos>	-0.07631852
-0.7308738	riverdal <eos>	-0.3624411
-0.9881976	gang <eos>	-0.23762207
-1.0559597	final <eos>	-0.07631852
-0.9883194	url <eos>	-0.07631849
-0.9637999	look <eos>	-0.5997198
-0.6837683	good <eos>	-0.23762207
-0.3714168	urlhurri <eos>	-0.07631852
-1.193752	watch <eos>	-0.4535918
-0.500336	archi <eos>	-0.38021314
-0.8779685	ever <eos>	-0.07631852
-0.4128574	now <eos>	-0.22521466
-1.1170092	t <eos>	-0.07631852
-0.5999815	yet <eos>	-0.07631852
-0.8779685	love <eos>	-0.07631852
-0.91676486	sing <eos>	-0.07631852
-0.92959523	lodg <eos>	-0.07631852
-0.91676486	busi <eos>	-0.07631852
-0.7135248	jughead <eos>	-0.35668176
-0.7929125	coast <eos>	-0.20259176
-1.1707501	start <eos>	-0.07631852
-0.9881976	readi <eos>	-0.07631852
-0.86423224	hour <eos>	-0.15128703
-0.5999815	urlcheer <eos>	-0.07631852
-0.5999815	urlrealli <eos>	-0.07631852
-0.7333415	time <eos>	-0.07631852
-0.9637999	friend <eos>	-0.07631852
-0.99181896	truth <eos>	-0.07631852
-1.660585	tonight <eos>	-0.07631852
-1.3362124	digit <eos>	-0.07631852
-0.5999815	untold <eos>	-0.07631852
-1.0065039	miss <eos>	-0.07631852
-0.79012954	perform <eos>	-0.07631852
-0.8779685	behind <eos>	-0.07631852
-0.79012954	covergirl <eos>	-0.88102204
-0.8779685	uncov <eos>	-0.07631852
-0.47236267	secret <eos>	-0.2920191
-0.79012954	murder <eos>	-0.07631852
-0.9637999	mysteri <eos>	-0.07631852
-0.92959523	know <eos>	-0.07631852
-0.21604574	over <eos>	-0.07631852
-1.1126016	episod <eos>	-0.30890027
-0.5999815	son <eos>	-0.07631852
-1.0986269	queen <eos>	-0.07631852
-0.23697974	out <eos>	-0.14952412
-0.5999815	urljackpot <eos>	-0.07631852
-1.032178	go <eos>	-0.07631852
-0.986209	you <eos>	-0.07631852
-0.5999815	preppi <eos>	-0.07631852
-0.58396834	it <eos>	-0.51304525
-1.0207584	lilireinhart <eos>	-0.07631852
-0.9881976	minut <eos>	-0.07631852
-0.6837683	reveal <eos>	-0.07631852
-0.79012954	alreadi <eos>	-0.07631852
-1.0580724	blossom <eos>	-0.07631852
-0.79012954	everyth <eos>	-0.07631852
-1.0284326	iamamurray <eos>	-0.07631852
-0.8423311	begin <eos>	-0.07631852
-0.7985942	veronica <eos>	-0.14952412
-0.5999815	well <eos>	-0.07631852
-0.8779685	on <eos>	-0.07631852
-0.9881976	say <eos>	-0.07631852
-0.79012954	more <eos>	-0.07631852
-0.8779685	urllie <eos>	-0.07631852
-0.79012954	urlwhat <eos>	-0.07631852
-0.6697574	way <eos>	-0.07631852
-0.5999815	urlbye <eos>	-0.07631852
-0.92959523	famili <eos>	-0.07631852
-0.3714168	what <eos>	-0.23762207
-0.5999815	date <eos>	-0.07631852
-1.135961	cast <eos>	-0.07631852
-0.8779685	pt <eos>	-0.07631852
-0.5999815	awaken <eos>	-0.07631852
-0.79012954	enough <eos>	-0.07631852
-0.9881976	birthday <eos>	-0.07631852
-0.5194846	parti <eos>	-0.07631852
-0.940151	cheryl <eos>	-0.07631852
-0.9637999	weekend <eos>	-0.07631852
-0.9637999	want <eos>	-0.07631852
-0.5999815	to <eos>	-0.07631852
-1.0065039	podcast <eos>	-0.07631852
-0.5999815	home <eos>	-0.07631852
-0.3714168	special <eos>	-0.23762207
-0.5999815	squad <eos>	-0.07631852
-0.5999815	epic <eos>	-0.07631852
-0.9637999	page <eos>	-0.07631852
-1.0128001	today <eos>	-0.07631852
-0.9881976	cooper <eos>	-0.07631852
-0.5999815	care <eos>	-0.07631852
-0.79012954	for <eos>	-0.07631852
-0.79012954	wondercon <eos>	-0.07631852
-0.96213335	night <eos>	-0.07631852
-0.5999815	side <eos>	-0.07631852
-0.5999815	cute <eos>	-0.07631852
-0.79012954	run <eos>	-0.07631852
-0.5999815	mr <eos>	-0.07631852
-0.51170963	andrew <eos>	-0.07631852
-0.5999815	bit <eos>	-0.07631852
-0.8779685	kevin <eos>	-0.07631852
-0.8779685	reggi <eos>	-0.07631852
-0.96213335	drama <eos>	-0.07631852
-0.5999815	pleas <eos>	-0.07631852
-0.79012954	shower <eos>	-0.07631852
-0.5999815	blowup <eos>	-0.07631852
-0.51170963	all <eos>	-0.07631852
-0.92959523	take <eos>	-0.07631852
-0.5999815	choic <eos>	-0.07631852
-1.0386626	welcom <eos>	-0.07631852
-0.5999815	urlyup <eos>	-0.07631852
-0.5999815	duti <eos>	-0.07631852
-0.79012954	treat <eos>	-0.07631852
-0.5999815	back <eos>	-0.07631852
-0.5999815	news <eos>	-0.07631852
-0.8779685	slay <eos>	-0.07631852
-0.79012954	togeth <eos>	-0.07631852
-0.96213335	caseycott <eos>	-0.07631852
-0.92959523	someon <eos>	-0.07631852
-0.5999815	hurt <eos>	-0.07631852
-0.5999815	price <eos>	-0.07631852
-0.5999815	them <eos>	-0.07631852
-0.5999815	pleasur <eos>	-0.07631852
-0.5999815	entranc <eos>	-0.07631852
-0.79012954	continu <eos>	-0.07631852
-0.5999815	bey <eos>	-0.07631852
-0.5999815	urlriverdalestrong <eos>	-0.07631852
-0.6035774	lie <eos>	-0.07631852
-0.5999815	vault <eos>	-0.07631852
-0.79012954	fred <eos>	-0.07631852
-0.8779685	eye <eos>	-0.07631852
-0.5999815	urlcaptain <eos>	-0.07631852
-0.5999815	buri <eos>	-0.07631852
-0.760268	town <eos>	-0.07631852
-0.5999815	histori <eos>	-0.07631852
-0.5999815	die <eos>	-0.07631852
-0.79012954	hide <eos>	-0.07631852
-0.3714168	here <eos>	-0.07631852
-0.5999815	in <eos>	-0.07631852
-0.5999815	chao <eos>	-0.07631852
-0.79012954	ach <eos>	-0.07631852
-0.5999815	there <eos>	-0.07631852
-0.61863345	seem <eos>	-0.23762207
-0.79012954	scandal <eos>	-0.07631852
-0.5999815	rule <eos>	-0.07631852
-0.5999815	bad <eos>	-0.07631852
-0.5999815	hot <eos>	-0.07631852
-0.5999815	troubl <eos>	-0.07631852
-0.8779685	soon <eos>	-0.07631852
-0.5999815	urlway <eos>	-0.07631852
-0.5999815	be <eos>	-0.07631852
-0.5999815	river <eos>	-0.07631852
-0.79012954	beneath <eos>	-0.07631852
-0.5999815	enemi <eos>	-0.07631852
-0.5999815	that <eos>	-0.07631852
-0.5999815	rebel <eos>	-0.07631852
-0.5999815	pep <eos>	-0.07631852
-0.5999815	arriv <eos>	-0.07631852
-0.5999815	excit <eos>	-0.07631852
-0.5999815	filter <eos>	-0.07631852
-0.5999815	own <eos>	-0.07631852
-0.5999815	star <eos>	-0.07631852
-0.5999815	jone <eos>	-0.07631852
-0.5999815	thecw <eos>	-0.07631852
-0.9551671	show riverdal	-0.07631852
-1.1408325	stream riverdal	-0.25821143
-0.5290267	<eos> riverdal	-0.27818382
-1.178215	final riverdal	-0.07631852
-1.3808416	url riverdal	-0.07631852
-0.6969388	watch riverdal	-0.3335943
-1.2722871	urlsee riverdal	-0.07631852
-1.4026726	archi riverdal	-0.07631852
-0.9551671	ever riverdal	-0.07631852
-1.2050433	now riverdal	-0.1769513
-0.6389707	urlshare riverdal	-0.07631852
-0.6389707	urlsquadgoal riverdal	-0.07631852
-0.53822	sing riverdal	-0.07631852
-0.6389707	urlsavecheryl riverdal	-0.07631852
-0.53822	busi riverdal	-0.07631852
-1.1269146	jughead riverdal	-0.1769513
-1.2872393	start riverdal	-0.07631852
-1.4330741	one riverdal	-0.07631852
-1.2066926	hour riverdal	-0.07631852
-0.6389707	urlshannonpurs riverdal	-0.07631852
-0.8514559	pussycat riverdal	-0.07631852
-0.77844566	time riverdal	-0.07631852
-1.1488421	s riverdal	-0.62670344
-1.0598638	friend riverdal	-0.07631852
-0.7114124	truth riverdal	-0.07631852
-1.4673562	digit riverdal	-0.07631852
-0.45416912	latest riverdal	-0.33076212
-1.1138216	miss riverdal	-0.07631852
-0.85212684	scene riverdal	-0.07631852
-1.1353124	secret riverdal	-0.07631852
-1.1104124	josi riverdal	-0.07631852
-1.0598638	mysteri riverdal	-0.07631852
-0.67441946	episod riverdal	-0.43872496
-0.6389707	urlfreefp riverdal	-0.07631852
-0.9551671	talk riverdal	-0.07631852
-0.80059916	queen riverdal	-0.07631852
-0.6389707	urlexplain riverdal	-0.07631852
-0.8021773	you riverdal	-0.07631852
-0.6389707	law riverdal	-0.07631852
-1.084403	right riverdal	-0.07631852
-0.6389707	urlsavejughead riverdal	-0.07631852
-0.69784397	new riverdal	-0.42262337
-0.6389707	hurri riverdal	-0.07631852
-0.85212684	alreadi riverdal	-0.07631852
-1.1744623	blossom riverdal	-0.07631852
-0.6389707	urlinnoc riverdal	-0.07631852
-0.6389707	funday riverdal	-0.07631852
-1.1985112	begin riverdal	-0.07631852
-0.6389707	kid riverdal	-0.07631852
-0.8365162	veronica riverdal	-0.07631852
-0.6389707	juggi riverdal	-0.07631852
-0.9551671	urllie riverdal	-0.07631852
-0.9551671	urltfw riverdal	-0.07631852
-0.6389707	rememb riverdal	-0.07631852
-0.9551671	bee riverdal	-0.07631852
-0.5429686	cast riverdal	-0.07631852
-0.6389707	fast riverdal	-0.07631852
-0.99695104	cheryl riverdal	-0.07631852
-1.0598638	weekend riverdal	-0.07631852
-0.8514559	urljoin riverdal	-0.637984
-0.6389707	sin riverdal	-0.07631852
-0.6389707	battl riverdal	-0.07631852
-0.6389707	urlmeanwhil riverdal	-0.07631852
-0.85212684	invit riverdal	-0.07631852
-1.1123979	today riverdal	-0.07631852
-0.9551671	caught riverdal	-0.07631852
-1.2837366	betti riverdal	-0.07631852
-0.63814944	night riverdal	-0.07631852
-0.5448651	urlwelcom riverdal	-0.35668176
-0.6389707	hous riverdal	-0.07631852
-0.6389707	pearl riverdal	-0.07631852
-1.0175915	urlnew riverdal	-0.07631852
-0.6389707	lipstick riverdal	-0.07631852
-0.6389707	hug riverdal	-0.07631852
-0.9875948	andrew riverdal	-0.07631852
-0.63814944	drama riverdal	-0.07631852
-0.85212684	tast riverdal	-0.07631852
-0.85212684	rose riverdal	-0.07631852
-0.3368077	welcom riverdal	-0.1769513
-0.6389707	urlsweet riverdal	-0.07631852
-0.6389707	recap riverdal	-0.07631852
-0.6389707	world riverdal	-0.23762207
-0.6389707	urlrumor riverdal	-0.07631852
-0.85212684	innoc riverdal	-0.07631852
-0.6389707	urlcatch riverdal	-0.07631852
-0.85212684	obsess riverdal	-0.07631852
-0.85212684	revel riverdal	-0.07631852
-0.6389707	gentleman riverdal	-0.07631852
-0.85212684	continu riverdal	-0.07631852
-0.6389707	urlfavorit riverdal	-0.07631852
-0.6389707	dinner riverdal	-0.07631852
-0.6389707	tie riverdal	-0.07631852
-1.6218923	seri riverdal	-0.1769513
-0.85212684	with riverdal	-0.07631852
-0.85212684	hide riverdal	-0.07631852
-0.6389707	hook riverdal	-0.07631852
-0.6389707	tfti riverdal	-0.07631852
-0.85212684	els riverdal	-0.07631852
-0.85212684	deep riverdal	-0.07631852
-0.63814944	away riverdal	-0.07631852
-0.6389707	mamalodg riverdal	-0.07631852
-0.6495929	seem riverdal	-0.23762207
-0.9551671	urlmysteri riverdal	-0.07631852
-0.6389707	lurk riverdal	-0.07631852
-0.85212684	day riverdal	-0.07631852
-0.6389707	trust riverdal	-0.07631852
-1.1123979	girl riverdal	-0.07631852
-0.6389707	gold riverdal	-0.07631852
-0.6389707	urlfact riverdal	-0.07631852
-0.6389707	stranger riverdal	-0.07631852
-0.85212684	urlstream riverdal	-0.07631852
-0.6389707	urlmood riverdal	-0.07631852
-0.6389707	hidden riverdal	-0.07631852
-1.0662059	premier riverdal	-0.23217326
-0.6389707	use riverdal	-0.07631852
-0.6389707	call riverdal	-0.07631852
-2.2432215	<eos> urlarchi	-0.07631852
-2.166218	riverdal urlarchi	-0.07631852
-1.521579	urlarchi gang	-0.07631852
-0.8885189	archi gang	-0.12372662
-1.525171	gang thin	-0.07631852
-0.74888146	thin ice	-0.07631852
-1.9034344	stream season	-0.07631852
-1.8662477	riverdal season	-0.637984
-0.73672616	ice season	-0.07631852
-1.9296019	watch season	-0.23762207
-0.73672616	resist season	-0.07631852
-0.73672616	chill season	-0.07631852
-1.565791	coast season	-0.07631852
-1.4571428	readi season	-0.07631852
-1.6516927	hour season	-0.07631852
-2.1384957	s season	-0.07631852
-0.73672616	crash season	-0.07631852
-1.5134097	miss season	-0.07631852
-0.73672616	renew season	-0.07631852
-0.084158905	season final	-0.17131558
-1.9482291	cw url	-0.07631852
-1.7435387	stream url	-0.07631852
-1.3719739	free url	-0.07631852
-1.6119815	app url	-0.09600617
-1.3965147	<eos> url	-0.09600617
-1.469373	riverdal url	-0.07631852
-1.5505762	final url	-0.07631852
-1.919285	url url	-0.07631852
-1.745011	watch url	-0.07631852
-0.6961349	now url	-0.10734213
-1.6290222	start url	-0.07631852
-1.8924626	digit url	-0.07631852
-0.9898329	perform url	-0.07631852
-0.9898329	yourself url	-0.07631852
-1.3104365	mysteri url	-0.07631852
-1.2091695	episod url	-0.07631849
-1.3666234	minut url	-0.07631852
-1.4217445	iamamurray url	-0.07631852
-1.0302857	begin url	-0.07631852
-1.1385863	pt url	-0.07631852
-1.3666234	birthday url	-0.07631852
-1.4117324	podcast url	-0.07631852
-1.3104365	page url	-0.07631852
-1.3771582	today url	-0.07631852
-1.2495693	drama url	-0.07631852
-1.151077	all url	-0.07631852
-0.9898329	up url	-0.07631852
-0.71797776	rapaportcast url	-0.07631852
-0.71797776	y url	-0.07631852
-1.3104365	the url	-0.07631852
-1.667942	premier url	-0.07631852
-2.7293293	url urlserpent	-0.07631852
-0.7464128	urlserpent never	-0.07631852
-2.4094026	s never	-0.07631852
-1.4341977	friend never	-0.07631852
-0.7464128	riverdalnote never	-0.07631852
-1.3358079	never look	-0.07631852
-2.033125	t look	-0.23762207
-1.3394362	s look	-0.88102204
-1.5060912	urleveryon look	-0.07631852
-1.0424621	alway look	-0.07631852
-1.4341977	look good	-0.07631852
-1.2179054	love good	-0.07631852
-1.8834825	s good	-0.1769513
-1.7603648	re good	-0.07631852
-1.9380066	app urlhurri	-0.07631852
-3.1307921	<eos> urlhurri	-0.07631852
-1.1435007	<eos> watch	-0.6016707
-1.9604236	t watch	-0.07631852
-1.7900159	start watch	-0.07631852
-0.10468364	urlthank watch	-0.4951595
-0.42977914	thank watch	-0.532773
-1.7075183	re watch	-0.07631852
-1.5502735	parti watch	-0.07631852
-1.322825	night watch	-0.07631852
-0.7410047	player watch	-0.07631852
-2.1774836	cw urlsee	-0.07631852
-2.4670825	<eos> urlsee	-0.07631852
-2.3587751	riverdal urlsee	-0.07631852
-1.3176742	url urlsee	-0.07631852
-1.6239245	digit urlsee	-0.07631852
-1.3274323	at urlsee	-0.07631852
-0.74315983	thur urlsee	-0.07631852
-1.8377949	watch archi	-0.07631852
-1.2944013	urlsee archi	-0.23762207
-1.7953516	t archi	-0.07631852
-1.0093275	yourself archi	-0.07631852
-1.3522733	icon archi	-0.07631852
-1.4145689	urljughead archi	-0.07631852
-1.2813451	see archi	-0.07631852
-1.0093275	move archi	-0.07631852
-1.2813451	urlyou archi	-0.07631852
-1.0093275	enough archi	-0.07631852
-1.5147974	urljoin archi	-0.07631852
-1.6933905	betti archi	-0.07631852
-1.0093275	thi archi	-0.07631852
-1.0093275	urlfar archi	-0.07631852
-0.7282935	heaven archi	-0.07631852
-0.7282935	alongsid archi	-0.23762207
-0.7282935	urleye archi	-0.07631852
-1.0093275	urladventur archi	-0.07631852
-1.166303	adventur archi	-0.07631852
-0.8079053	kj_apa archi	-0.23762207
-1.3522733	urlmeet archi	-0.07631852
-1.97733	<eos> get	-0.1338625
-1.468472	urlarchi get	-0.07631852
-1.468472	gang get	-0.07631852
-1.3111507	never get	-0.07631852
-1.9551831	archi get	-0.07631852
-1.9281796	t get	-0.23762207
-1.5795332	coast get	-0.07631852
-2.1857665	s get	-0.07631852
-1.0297385	urlthing get	-0.07631852
-1.3111507	someon get	-0.07631852
-1.1959101	place get	-0.51304525
-1.9476116	get happili	-0.07631852
-2.9487965	riverdal ever	-0.07631852
-0.74750257	happili ever	-0.07631852
-2.0746155	t ever	-0.07631852
-2.7293293	url urlcould	-0.07631852
-0.74888146	urlcould resist	-0.07631852
-1.3860389	stream now	-0.73489404
-1.7446803	riverdal now	-0.46380225
-1.9047676	watch now	-0.23762207
-1.8656486	jughead now	-0.07631852
-1.7398735	start now	-0.07631852
-2.0958688	s now	-0.07631852
-2.0008013	episod now	-0.23762207
-0.8147839	right now	-0.1769513
-1.3605459	live now	-0.51304525
-1.5470024	lilireinhart now	-0.07631852
-1.0595427	begin now	-0.23762207
-1.6786884	cast now	-0.07631852
-1.5524704	a now	-0.07631852
-1.0214586	for now	-0.07631852
-0.7346026	writer now	-0.07631852
-2.7293293	url urldrama	-0.07631852
-0.74827814	urldrama isn	-0.07631852
-1.3474214	someon isn	-0.07631852
-0.42977914	isn t	-0.07631852
-0.10468364	don t	-0.49528852
-0.42977914	urlcan t	-0.23762207
-0.2428959	urldon t	-0.14952412
-0.7410047	urlwouldn t	-0.07631852
-0.7410047	aren t	-0.07631852
-0.42977914	doesn t	-0.07631852
-0.7410047	can t	-0.07631852
-0.7410047	didn t	-0.07631852
-2.102988	t yet	-0.07631852
-3.1307921	<eos> urlwatch	-0.07631852
-2.122186	url urlwatch	-0.07631852
-1.225257	urlwatch chill	-0.07631852
-2.7293293	url urlshare	-0.07631852
-2.9487965	riverdal love	-0.07631852
-1.517795	urleveryon love	-0.07631852
-0.74750257	urlforbidden love	-0.07631852
-2.510847	riverdal avail	-0.28428078
-1.8168592	final avail	-0.07631852
-2.7293293	url urlsquadgoal	-0.07631852
-1.5169976	urlarchi sing	-0.07631852
-1.6393126	pussycat sing	-0.07631852
-0.74750257	guitar sing	-0.07631852
-3.1086195	riverdal urlsavecheryl	-0.07631852
-2.1759703	riverdal urlmama	-0.1769513
-1.0483338	urlmama lodg	-0.07631852
-0.742611	veronica lodg	-0.23762207
-1.3498235	lodg shadi	-0.07631852
-1.9269218	get busi	-0.07631852
-0.74750257	shadi busi	-0.07631852
-1.0467875	urlfriend busi	-0.07631852
-1.8648396	app urlriverdal	-0.07631852
-2.7978191	<eos> urlriverdal	-0.07631852
-1.8011923	riverdal urlriverdal	-0.19425854
-2.0368774	url urlriverdal	-0.07631852
-2.0127425	thursday urlriverdal	-0.07631852
-2.1375198	episod urlriverdal	-0.07631852
-0.74315983	digiturl urlriverdal	-0.07631852
-3.061205	<eos> urli	-0.07631852
-2.9487965	riverdal urli	-0.1769513
-1.9292903	urlriverdal urli	-0.07631852
-0.7330506	urli m	-0.07631852
-0.74827814	i m	-0.07631852
-1.4406847	urlarchi jughead	-0.07631852
-1.3748071	look jughead	-0.07631852
-1.9050667	archi jughead	-0.07631852
-1.2981496	m jughead	-0.07631852
-1.1808543	urllearn jughead	-0.07631852
-1.7629902	you jughead	-0.07631852
-0.73354465	urllike jughead	-0.07631852
-1.798052	veronica jughead	-0.07631852
-0.73354465	urlreliv jughead	-0.07631852
-1.0194131	invit jughead	-0.07631852
-1.7308055	betti jughead	-0.07631852
-0.73354465	learn jughead	-0.07631852
-1.0194131	urladventur jughead	-0.07631852
-0.73354465	breakfast jughead	-0.07631852
-0.3649317	colesprous jughead	-0.1338625
-1.0194131	role jughead	-0.07631852
-2.2432215	<eos> urlwest	-0.637984
-1.9719937	riverdal urlwest	-0.81407523
-0.43249184	urlwest coast	-0.20259176
-0.12958296	west coast	-0.88102204
-2.148251	<eos> start	-0.1769513
-2.0488153	riverdal start	-0.91098523
-1.7279252	final start	-0.23762207
-1.8272029	get start	-0.07631852
-1.4820697	time start	-0.07631852
-2.0810924	episod start	-0.35668176
-1.5447948	parti start	-0.07631852
-0.73993105	celebr start	-0.07631852
-0.73993105	urlparti start	-0.07631852
-1.8773619	premier start	-0.07631852
-1.3253847	get readi	-0.07631852
-1.0802333	urlget readi	-0.1769513
-1.510627	urljughead readi	-0.07631852
-0.7464128	question readi	-0.07631852
-2.5719697	<eos> one	-0.07631852
-2.0105264	riverdal one	-0.81407523
-1.6977102	final one	-0.07631852
-1.565791	coast one	-0.23762207
-1.7559528	start one	-0.07631852
-1.4571428	readi one	-0.07631852
-2.0311606	episod one	-0.23762207
-2.147956	new one	-0.23762207
-1.3940946	way one	-0.07631852
-0.73672616	not one	-0.07631852
-1.0255789	urlfar one	-0.23762207
-0.73672616	urltrust one	-0.07631852
-1.8405252	premier one	-0.07631852
-0.2589544	one hour	-0.49539423
-1.3474214	urlone hour	-0.1338625
-3.1086195	riverdal urlshannonpurs	-0.07631852
-3.1086195	riverdal urlcheer	-0.07631852
-1.9261549	app urljosi	-0.07631852
-2.5707388	<eos> urljosi	-0.23762207
-2.9487965	riverdal urljosi	-0.07631852
-0.24379025	urljosi pussycat	-0.07631852
-0.8280023	josi pussycat	-0.07631852
-0.7464128	urlye pussycat	-0.07631852
-0.7464128	either pussycat	-0.07631852
-3.1086195	riverdal urlrealli	-0.07631852
-3.1086195	riverdal urlwe	-0.07631852
-1.0495385	urlwe ve	-0.07631852
-0.74888146	ve kiss	-0.07631852
-0.74888146	kiss coupl	-0.07631852
-0.7442415	coupl time	-0.07631852
-2.332966	s time	-0.07631852
-2.183736	digit time	-0.07631852
-1.0403154	sweet time	-0.07631852
-1.2115066	wrong time	-0.07631852
-0.7442415	urlnext time	-0.07631852
-1.0421258	cw s	-0.637984
-1.5137631	riverdal s	-0.104138136
-1.3576382	urlarchi s	-0.07631852
-1.768169	archi s	-0.07631852
-1.23111	lodg s	-0.23762207
-0.92313415	urlriverdal s	-0.07631855
-0.81679183	jughead s	-0.35668176
-0.203543	tonight s	-0.9060139
-1.6225471	tomorrow s	-0.07631852
-0.86661583	thursday s	-0.637984
-0.9860368	mccoy s	-0.07631852
-0.71594375	sheriff s	-0.07631852
-0.6520651	it s	-0.14952412
-1.5037055	blossom s	-0.23762207
-1.3576382	urljughead s	-0.07631852
-1.2368202	veronica s	-0.07631852
-0.2386283	urlthere s	-0.07631852
-0.9860368	urlwhat s	-0.07631852
-1.133249	polli s	-0.07631852
-1.23111	famili s	-0.07631852
-0.2386283	urlit s	-0.07631855
-1.5941746	cheryl s	-0.07631852
-0.71594375	urlthat s	-0.07631852
-0.9860368	week s	-0.07631852
-0.71594375	urlmommi s	-0.07631852
-1.3576382	cooper s	-0.23762207
-0.71594375	urlpolli s	-0.07631852
-0.5882645	urllet s	-0.35668176
-0.71594375	urlurlit s	-0.07631852
-0.4202132	urlwho s	-0.07631852
-0.71594375	valentin s	-0.07631852
-0.71594375	urlhe s	-0.07631852
-0.71594375	who s	-0.07631852
-2.4874816	s best	-0.07631852
-0.74827814	longtim best	-0.07631852
-1.0495385	best brightest	-0.07631852
-0.74888146	brightest urlgrab	-0.07631852
-1.0424621	best friend	-0.07631852
-0.7453258	urlgrab friend	-0.07631852
-1.3358079	urlsecret friend	-0.07631852
-1.2146943	urlrealiz friend	-0.07631852
-0.7453258	urlbest friend	-0.07631852
-2.5707388	<eos> urlone	-0.532773
-2.6375558	url urlone	-0.07631852
-1.5822337	c urlone	-0.07631852
-3.1086195	riverdal urlface	-0.07631852
-0.74750257	urlface dark	-0.07631852
-0.74750257	sticki dark	-0.07631852
-1.0467875	urldiscov dark	-0.07631852
-0.6087167	dark danger	-0.07631852
-1.2192068	dark truth	-0.07631852
-1.0446194	danger truth	-0.07631852
-1.0446194	urlmoment truth	-0.07631852
-0.6072043	find truth	-0.07631852
-1.6341207	riverdal tonight	-0.58531076
-1.6344452	final tonight	-0.07631852
-1.4141692	watch tonight	-0.99016654
-1.419668	readi tonight	-0.07631852
-1.3644271	truth tonight	-0.07631852
-1.1691746	urllearn tonight	-0.07631852
-1.9330636	episod tonight	-0.07631852
-2.0667164	new tonight	-0.637984
-1.7996111	live tonight	-0.07631852
-1.5139127	lilireinhart tonight	-0.07631852
-0.72933865	urltune tonight	-0.07631852
-1.6438472	cast tonight	-0.23762207
-1.3566875	page tonight	-0.23762207
-0.4253686	urlhear tonight	-0.637984
-1.011326	crew tonight	-0.23762207
-0.72933865	skovbyetierahear tonight	-0.07631852
-0.72933865	enjoy tonight	-0.07631852
-0.72933865	hear tonight	-0.07631852
-1.765069	premier tonight	-0.07631852
-0.72933865	urlcelebr tonight	-0.07631852
-2.237123	riverdal digit	-0.07631852
-1.8137432	season digit	-0.07631852
-1.7021013	start digit	-0.51304525
-0.6662695	tonight digit	-1.240044
-0.5709243	digit digit	-1.0333754
-0.12616502	tomorrow digit	-1.1498674
-0.40613097	first digit	-1.035924
-0.49002153	thursday digit	-0.9587418
-1.5572053	urlget digit	-0.07631852
-1.9330636	episod digit	-0.07631852
-2.0667164	new digit	-0.23762207
-1.7996111	live digit	-0.07631852
-0.72933865	april digit	-0.07631852
-0.8835729	today digit	-0.07631852
-1.011326	et digit	-0.1769513
-0.72933865	serv digit	-0.07631852
-0.4253686	urlfirst digit	-0.23762207
-0.72933865	urldigit digit	-0.07631852
-1.3161305	premier digit	-0.07631852
-0.24093471	januari digit	-0.59118617
-1.6460214	digit c	-0.93749326
-1.5875622	c c	-0.07631852
-3.1937652	<eos> urleveryth	-0.07631852
-2.9487965	riverdal come	-0.07631852
-1.3300087	urlriverdal come	-0.23762207
-0.74750257	urleveryth come	-0.07631852
-1.225257	come crash	-0.07631852
-2.6024196	riverdal tomorrow	-0.23762207
-1.7493035	final tomorrow	-0.07631852
-1.4165994	truth tomorrow	-0.07631852
-1.6091596	episod tomorrow	-0.35668176
-2.2169707	new tomorrow	-0.23762207
-0.7420809	paleycent tomorrow	-0.07631852
-1.4134852	return tomorrow	-0.07631852
-1.3605613	premier tomorrow	-0.23762207
-1.3959388	stream latest	-0.68579787
-2.60236	<eos> latest	-0.07631852
-1.4465467	watch latest	-0.35668176
-1.1928569	urlwatch latest	-0.07631852
-1.896602	jughead latest	-0.07631852
-1.5198216	miss latest	-0.07631852
-2.047175	episod latest	-0.35668176
-0.8195318	reveal latest	-0.07631852
-0.73779184	showdown latest	-0.07631852
-0.73779184	marisolnichol latest	-0.07631852
-1.0276537	work latest	-0.07631852
-0.73779184	listen latest	-0.07631852
-1.9731805	stream first	-0.81407523
-2.013964	watch first	-0.23762207
-1.9492458	latest first	-0.07631852
-1.3274323	catch first	-0.07631852
-0.74315983	wrap first	-0.07631852
-1.4185714	the first	-0.07631852
-1.917615	premier first	-0.07631852
-2.2309766	cw urlsecret	-0.07631852
-2.1082017	url urlsecret	-0.07631852
-1.586402	first urlsecret	-0.07631852
-1.3498235	urlsecret better	-0.07631852
-0.74888146	better left	-0.07631852
-0.74888146	left untold	-0.07631852
-1.645556	<eos> don	-1.0773166
-1.3338449	urli don	-0.07631852
-1.627169	it don	-0.07631852
-1.4981594	say don	-0.07631852
-0.7442415	hair don	-0.07631852
-1.0403154	urlfriend don	-0.07631852
-1.4844934	t miss	-0.47468057
-1.6879767	go miss	-0.07631852
-1.771752	re miss	-0.07631852
-1.609135	riverdal thursday	-0.52670693
-1.7176182	final thursday	-0.07631852
-2.0638027	episod thursday	-0.23762207
-2.1742609	new thursday	-0.1338625
-1.4073845	reveal thursday	-0.07631852
-1.6590058	blossom thursday	-0.07631852
-1.3111507	catch thursday	-0.07631852
-1.1959101	caught thursday	-0.07631852
-1.3985744	return thursday	-0.07631852
-0.60255647	next thursday	-0.07631852
-1.3490202	premier thursday	-0.57185453
-1.8648396	app urlget	-0.07631852
-2.4670825	<eos> urlget	-0.1769513
-2.6529882	riverdal urlget	-0.07631852
-2.4323816	url urlget	-0.07631852
-1.6239245	digit urlget	-0.07631852
-2.0127425	thursday urlget	-0.07631852
-0.74315983	url_itizwhatitiz urlget	-0.07631852
-1.8929361	one last	-0.07631852
-2.4874816	s perform	-0.07631852
-0.74827814	last perform	-0.07631852
-1.9099956	app urlgo	-0.07631852
-2.9789634	<eos> urlgo	-0.51304525
-1.7528905	url urlgo	-0.51304525
-1.5815138	first urlgo	-0.07631852
-0.1690727	urlgo behind	-0.65771174
-1.0483338	innoc behind	-0.07631852
-1.2234527	behind scene	-0.88102204
-1.4433635	the scene	-0.07631852
-1.0483338	scene covergirl	-0.88102204
-0.1690727	present covergirl	-0.88102204
-1.0467875	covergirl uncov	-0.88102204
-1.2211406	polli uncov	-0.07631852
-1.0467875	urlreadi uncov	-0.07631852
-2.491794	<eos> secret	-0.07631852
-2.076028	s secret	-0.07631852
-1.1808543	uncov secret	-0.2105764
-0.8891161	urleveryon secret	-0.07631852
-1.381131	big secret	-0.23762207
-1.2916211	famili secret	-0.07631852
-1.0194131	urlgame secret	-0.07631852
-1.1808543	urllong secret	-0.07631852
-1.1808543	place secret	-0.07631852
-0.5992667	urluncov secret	-0.23762207
-0.73354465	darkest secret	-0.07631852
-0.73354465	protect secret	-0.07631852
-0.73354465	keep secret	-0.07631852
-0.73354465	deadli secret	-0.07631852
-0.73354465	darker secret	-0.23762207
-0.73354465	heartthrob secret	-0.07631852
-1.9979036	secret josi	-0.07631852
-0.97074205	iamamurray josi	-0.23762207
-1.4289262	icon josi	-0.07631852
-1.0424621	urlrock josi	-0.07631852
-0.7453258	urlshhh josi	-0.07631852
-0.8304272	josi mccoy	-0.07631852
-1.9660602	urlsee yourself	-0.07631852
-0.74827814	urlbrace yourself	-0.07631852
-3.1307921	<eos> urllearn	-0.07631852
-2.122186	url urllearn	-0.07631852
-1.225257	urllearn sticki	-0.07631852
-1.9053111	s murder	-0.23762207
-0.74827814	unse murder	-0.07631852
-1.2179054	uncov mysteri	-0.07631852
-1.0446194	murder mysteri	-0.07631852
-1.0446194	deep mysteri	-0.07631852
-0.7464128	newest mysteri	-0.07631852
-2.7293293	url urldie	-0.07631852
-1.6798186	urlget know	-0.07631852
-0.7464128	urldie know	-0.07631852
-1.4354825	urlwant know	-0.07631852
-1.0446194	alway know	-0.07631852
-2.5159855	s nightmar	-0.07631852
-0.74888146	nightmar far	-0.07631852
-0.74750257	far over	-0.07631852
-0.43220392	almost over	-0.23762207
-0.74750257	urlwait over	-0.07631852
-2.2992642	s episod	-0.3284224
-1.6239245	digit episod	-0.43184516
-0.40292302	latest episod	-0.51280004
-0.44135517	new episod	-0.5256299
-1.3274323	urlnew episod	-0.07631852
-0.74315983	full episod	-0.23762207
-0.74315983	urllatest episod	-0.07631852
-2.7293293	url urlfreefp	-0.07631852
-3.1307921	<eos> urlmoment	-0.07631852
-3.0314436	riverdal urlmoment	-0.07631852
-1.2234527	ever talk	-0.07631852
-0.7330506	m talk	-0.07631852
-1.2234527	talk boyfriend	-0.07631852
-1.0483338	shower boyfriend	-0.07631852
-1.0495385	boyfriend i	-0.07631852
-1.225257	talk sheriff	-0.07631852
-2.5159855	s son	-0.07631852
-3.1086195	riverdal urlclapback	-0.07631852
-2.332966	s queen	-0.07631852
-1.3315998	urlone queen	-0.07631852
-0.7442415	urlclapback queen	-0.07631852
-0.7442415	homecom queen	-0.07631852
-0.7442415	urlshade queen	-0.07631852
-1.4237179	urlmeet queen	-0.07631852
-3.1086195	riverdal urlexplain	-0.07631852
-2.122186	url urltruth	-0.07631852
-1.9397981	urlriverdal urltruth	-0.07631852
-1.3358079	urlsecret out	-0.07631852
-1.2146943	urltruth out	-0.07631852
-1.0424621	work out	-0.07631852
-0.7453258	urlclaw out	-0.07631852
-0.7453258	freak out	-0.07631852
-3.1086195	riverdal urljackpot	-0.07631852
-1.2052007	show go	-0.07631852
-1.9882869	archi go	-0.07631852
-1.3264673	m go	-0.07631852
-1.8502829	one go	-0.07631852
-2.2679906	s go	-0.07631852
-1.6942586	madelainepetsch go	-0.07631852
-1.3264673	see go	-0.07631852
-0.43018237	urldeeper go	-0.23762207
-1.8181354	urlsee you	-0.07631852
-1.5070912	miss you	-0.07631852
-1.1868142	urltfw you	-0.07631852
-0.73566306	conspir you	-0.07631852
-1.4515872	birthday you	-0.07631852
-1.3841585	want you	-0.07631852
-0.73566306	await you	-0.07631852
-0.73566306	face you	-0.07631852
-0.73566306	urlhey you	-0.07631852
-1.1868142	urlrealiz you	-0.07631852
-0.73566306	believ you	-0.07631852
-0.73566306	sure you	-0.07631852
-0.73566306	urlmean you	-0.07631852
-0.73566306	thought you	-0.07631852
-1.8917844	you preppi	-0.07631852
-3.1086195	riverdal urlboyfriend	-0.07631852
-0.74888146	urlboyfriend lay	-0.07631852
-0.74888146	lay law	-0.07631852
-2.9789634	<eos> urleveryon	-0.07631852
-2.1373024	riverdal urleveryon	-0.07631852
-2.2182736	digit urleveryon	-0.07631852
-1.340057	at urleveryon	-0.07631852
-2.7761793	riverdal right	-0.07631852
-1.5060912	urleveryon right	-0.07631852
-1.0424621	urlcome right	-0.07631852
-1.2366487	betti right	-0.23762207
-1.2146943	stori right	-0.07631852
-3.1086195	riverdal urlsavejughead	-0.07631852
-3.1086195	riverdal urllike	-0.07631852
-2.0152802	jughead without	-0.07631852
-1.5889406	parti without	-0.07631852
-1.0495385	without beani	-0.07631852
-0.74888146	beani rt	-0.07631852
-1.4789352	t like	-0.07631852
-1.7253857	hour like	-0.07631852
-0.7464128	rt like	-0.07631852
-1.0446194	rose like	-0.07631852
-2.1774836	cw it	-0.07631852
-0.82480645	good it	-0.1769513
-1.4185714	like it	-0.07631852
-1.4185714	urloh it	-0.07631852
-1.2083422	slay it	-0.07631852
-0.74315983	have it	-0.07631852
-0.74315983	urlgot it	-0.07631852
-3.1086195	riverdal urlcant	-0.07631852
-0.74888146	urlcant unse	-0.07631852
-1.452779	<eos> new	-0.91098523
-1.7006261	riverdal new	-0.34743702
-1.4095291	gang new	-0.07631852
-1.4064384	watch new	-0.23762207
-1.5088245	coast new	-0.07631852
-1.4095291	readi new	-0.07631852
-1.087313	hour new	-0.35668176
-1.1640929	s new	-0.47468057
-1.4596022	miss new	-0.51304525
-1.8114655	secret new	-0.07631852
-1.9086738	episod new	-0.07631852
-1.1726209	find new	-0.07631852
-1.1634505	think new	-0.07631852
-1.35631	way new	-0.07631852
-0.99569803	a new	-0.07631852
-0.7272508	blood new	-0.07631852
-0.7272508	urlyour new	-0.07631852
-1.1634505	stori new	-0.07631852
-0.7272508	prowl new	-0.07631852
-0.7272508	urlscandal new	-0.07631852
-0.7272508	pull new	-0.07631852
-0.7272508	unfold new	-0.07631852
-2.592037	<eos> urlchat	-0.23762207
-3.0314436	riverdal urlchat	-0.07631852
-2.1078773	cw live	-0.07631852
-2.3470035	<eos> live	-0.51304525
-1.6019515	go live	-0.07631852
-0.4281701	urlchat live	-0.07631852
-0.75652987	madelainepetsch live	-0.23762207
-1.5609782	lilireinhart live	-0.07631852
-0.73672616	chat live	-0.07631852
-1.6934471	cast live	-0.07631852
-1.4167249	facebook live	-0.07631852
-1.189825	urllong live	-0.07631852
-0.73672616	join live	-0.07631852
-1.3085536	caseycott live	-0.07631852
-1.3940946	kj_apa live	-0.07631852
-2.1709623	<eos> madelainepetsch	-0.1769513
-1.3382083	urlsee madelainepetsch	-0.23762207
-2.2679906	s madelainepetsch	-0.07631852
-1.3855723	live madelainepetsch	-0.23762207
-1.5980215	lilireinhart madelainepetsch	-0.07631852
-0.7277566	see madelainepetsch	-0.07631852
-1.6009979	urljoin madelainepetsch	-0.07631852
-1.5980215	archiecom madelainepetsch	-0.07631852
-1.3489774	urlsee lilireinhart	-0.23762207
-1.7183876	madelainepetsch lilireinhart	-0.07631852
-0.46888086	camilamend lilireinhart	-0.14952412
-1.5675687	podcast lilireinhart	-0.07631852
-1.6218656	archiecom lilireinhart	-0.07631852
-3.1937652	<eos> urlbetter	-0.07631852
-0.74888146	urlbetter hurri	-0.07631852
-1.340057	urlone minut	-0.07631852
-1.0821944	digit minut	-0.43040878
-1.6301137	lilireinhart minut	-0.07631852
-1.4341977	page minut	-0.07631852
-2.592037	<eos> urlquestion	-0.07631852
-3.0314436	riverdal urlquestion	-0.07631852
-2.369505	s big	-0.07631852
-1.4306842	right big	-0.07631852
-1.2146943	urlquestion big	-0.07631852
-1.0424621	danc big	-0.07631852
-1.5692965	town big	-0.23762207
-2.9789634	<eos> reveal	-0.07631852
-2.0118215	secret reveal	-0.07631852
-0.8276847	big reveal	-0.07631852
-1.0446194	revel reveal	-0.07631852
-2.6093314	<eos> chat	-0.23762207
-2.9789634	<eos> urlwant	-0.07631852
-2.8539677	riverdal urlwant	-0.07631852
-2.5764909	url urlwant	-0.07631852
-1.510627	minut urlwant	-0.07631852
-1.3498235	know kill	-0.07631852
-0.74750257	kill jason	-0.07631852
-0.24396937	urlkill jason	-0.637984
-1.2211406	polli jason	-0.07631852
-3.0314436	riverdal alreadi	-0.07631852
-1.2234527	jason alreadi	-0.07631852
-3.061205	<eos> urlkill	-0.07631852
-2.1082017	url urlkill	-0.23762207
-1.586402	first urlkill	-0.07631852
-1.4920574	readi blossom	-0.07631852
-1.2083422	jason blossom	-0.637984
-0.74315983	urlmajor blossom	-0.07631852
-0.60562015	cheryl blossom	-0.1769513
-1.3274323	urlcheryl blossom	-0.07631852
-1.0381794	tast blossom	-0.07631852
-0.74315983	light blossom	-0.07631852
-1.9261549	app follow	-0.07631852
-3.061205	<eos> follow	-0.07631852
-1.4395338	weekend follow	-0.07631852
-0.6087167	follow case	-0.07631852
-2.592037	<eos> find	-0.07631852
-1.0483338	case find	-0.07631852
-1.225257	urltruth chang	-0.07631852
-0.74827814	chang everyth	-0.07631852
-1.5880097	town everyth	-0.07631852
-3.1937652	<eos> urlinnoc	-0.07631852
-2.5707388	<eos> catch	-0.07631852
-0.74750257	need catch	-0.07631852
-1.2211406	eye catch	-0.07631852
-1.9003962	urlsee iamamurray	-0.07631852
-2.2992642	s iamamurray	-0.07631852
-1.9457949	live iamamurray	-0.07631852
-1.2083422	urlquestion iamamurray	-0.07631852
-1.5533826	podcast iamamurray	-0.07631852
-1.605825	archiecom iamamurray	-0.07631852
-1.4185714	urlmeet iamamurray	-0.07631852
-1.7183876	madelainepetsch transform	-0.23762207
-1.6218656	lilireinhart transform	-0.23762207
-1.5692965	iamamurray transform	-0.07631852
-1.632648	camilamend transform	-0.07631852
-0.7453258	mend transform	-0.07631852
-0.12958296	transform icon	-0.2105764
-1.4438131	kj_apa icon	-0.07631852
-1.340057	lodg present	-0.23762207
-1.0446194	mccoy present	-0.07631852
-1.7228847	blossom present	-0.23762207
-1.510627	cooper present	-0.23762207
-1.0889561	thursday at	-0.07631852
-2.6375558	url urlspend	-0.07631852
-2.053848	thursday urlspend	-0.07631852
-1.3443482	at urlspend	-0.07631852
-1.225257	urlspend sunday	-0.07631852
-0.74888146	sunday funday	-0.07631852
-2.9487965	riverdal urljughead	-0.1769513
-1.7615267	url urljughead	-0.07631852
-1.9292903	urlriverdal urljughead	-0.07631852
-1.985977	stream begin	-0.07631852
-2.3869061	riverdal begin	-0.07631852
-1.9660344	jughead begin	-0.07631852
-2.2479718	new begin	-0.07631852
-0.7442415	feud begin	-0.07631852
-1.0403154	v begin	-0.07631852
-2.6868067	url urlrock	-0.07631852
-1.2234527	on urlrock	-0.07631852
-1.0495385	urlrock kid	-0.07631852
-2.592037	<eos> see	-0.07631852
-1.444748	instagram see	-0.07631852
-1.9551831	archi veronica	-0.07631852
-1.9226359	secret veronica	-0.23762207
-1.0297385	urlmoment veronica	-0.07631852
-1.3985744	icon veronica	-0.23762207
-1.3985744	urloh veronica	-0.07631852
-0.73886013	mind veronica	-0.07631852
-1.022143	camilamend veronica	-0.07631852
-1.1553715	cheryl veronica	-0.07631852
-0.87059945	betti veronica	-0.14952412
-1.4727616	girl veronica	-0.07631852
-1.0297385	meet veronica	-0.07631852
-1.3498235	never end	-0.07631852
-0.74888146	end well	-0.07631852
-3.0314436	riverdal urlcan	-0.07631852
-1.7677656	url urlcan	-0.51304525
-2.102988	t stop	-0.23762207
-0.74827814	stop think	-0.07631852
-1.521579	say think	-0.07631852
-3.1086195	riverdal need	-0.07631852
-1.5822337	c on	-0.07631852
-1.0467875	case on	-0.07631852
-1.3443482	catch on	-0.07631852
-2.9098437	<eos> say	-0.07631852
-1.3358079	urlcheryl say	-0.07631852
-1.0424621	urlveronica say	-0.07631852
-1.0424621	urlsomeon say	-0.07631852
-0.7453258	flower say	-0.07631852
-0.8297252	urlwant more	-0.23762207
-1.521579	say more	-0.07631852
-3.061205	<eos> urlthere	-0.07631852
-1.5822337	c urlthere	-0.07631852
-1.0467875	more urlthere	-0.07631852
-1.4438131	big danc	-0.07631852
-0.74827814	urlthi danc	-0.07631852
-1.8793762	app urlthank	-0.07631852
-2.4907703	<eos> urlthank	-0.23762207
-1.5502999	url urlthank	-0.81407523
-1.7101947	madelainepetsch urlthank	-0.07631852
-1.5604178	podcast urlthank	-0.07631852
-1.2115066	madchenamick urlthank	-0.07631852
-2.4169865	riverdal west	-0.51304525
-1.9950501	now west	-0.07631852
-2.1796722	episod west	-0.07631852
-1.0424621	up west	-0.07631852
-1.3375813	away west	-0.07631852
-3.1307921	<eos> urloh	-0.07631852
-2.510847	riverdal urloh	-0.07631852
-1.4463615	urloh no	-0.07631852
-0.74888146	no juggi	-0.07631852
-3.1086195	riverdal urlnice	-0.07631852
-0.74827814	urlnice move	-0.07631852
-1.0483338	urlthing move	-0.07631852
-1.9261549	app urllie	-0.07631852
-2.9487965	riverdal urllie	-0.07631852
-0.74750257	shannonpurs urllie	-0.07631852
-2.5327125	riverdal urlwhat	-0.07631852
-2.5159855	s mind	-0.07631852
-3.1086195	riverdal urlye	-0.07631852
-3.1307921	<eos> urlcome	-0.07631852
-3.0314436	riverdal urlcome	-0.07631852
-2.369505	s way	-0.07631852
-1.2146943	come way	-0.07631852
-1.4306842	right way	-0.07631852
-0.7453258	urlmake way	-0.07631852
-0.7453258	feel way	-0.07631852
-2.6093314	<eos> urltfw	-0.07631852
-1.8917844	you rememb	-0.07631852
-3.1937652	<eos> urlbye	-0.07631852
-1.9134487	<eos> thank	-0.73489404
-0.74827814	urlcontinu thank	-0.07631852
-1.225257	urltfw they	-0.07631852
-1.0446194	urlwe re	-0.07631852
-0.7114317	you re	-0.07631852
-0.7464128	they re	-0.07631852
-0.7314583	urlyou re	-0.07631855
-1.7865589	re conspir	-0.07631852
-3.1086195	riverdal urlels	-0.07631852
-1.6887647	urlget polli	-0.07631852
-0.74750257	urlels polli	-0.07631852
-0.74750257	understand polli	-0.07631852
-3.1086195	riverdal urlmajor	-0.07631852
-1.1278028	blossom famili	-0.07631852
-1.6903449	begin famili	-0.07631852
-0.74750257	cover famili	-0.07631852
-1.4438131	urlwant what	-0.07631852
-0.74827814	urlum what	-0.07631852
-0.5451268	queen bee	-0.07631852
-1.225257	bee also	-0.07631852
-0.74888146	also homecom	-0.07631852
-3.1937652	<eos> urltune	-0.07631852
-2.2335527	<eos> urldon	-0.637984
-2.9487965	riverdal urldon	-0.23762207
-2.1082017	url urldon	-0.23762207
-2.5159855	s date	-0.07631852
-2.7102304	riverdal cast	-0.07631852
-1.6159207	urljoin cast	-0.07631852
-1.5604178	podcast cast	-0.07631852
-1.0403154	wondercon cast	-0.07631852
-0.43098983	tweet cast	-0.14952412
-0.7442415	con cast	-0.07631852
-2.022536	live paleycent	-0.07631852
-1.2849343	digit pm	-0.637984
-1.0495385	pm pt	-0.14952412
-2.510847	riverdal urlyou	-0.28428078
-2.122186	url urlyou	-0.23762207
-1.7865589	re rude	-0.07631852
-0.74888146	rude awaken	-0.07631852
-2.0432012	thursday a	-0.07631852
-0.7464128	urlspi a	-0.07631852
-1.0446194	takeov a	-0.07631852
-1.2192068	amp a	-0.07631852
-1.2234527	pt urlthing	-0.07631852
-1.6450392	a urlthing	-0.07631852
-1.0495385	move fast	-0.07631852
-1.9476116	get enough	-0.07631852
-2.7293293	url urlreliv	-0.07631852
-1.3443482	never birthday	-0.07631852
-1.5432539	s birthday	-0.1338625
-1.0467875	urlhappi birthday	-0.07631852
-2.751058	<eos> camilamend	-0.07631852
-2.6024196	riverdal camilamend	-0.07631852
-1.887647	urlsee camilamend	-0.07631852
-2.2679906	s camilamend	-0.07631852
-2.1178846	episod camilamend	-0.07631852
-1.9326276	live camilamend	-0.07631852
-1.6009979	urljoin camilamend	-0.07631852
-1.5980215	archiecom camilamend	-0.07631852
-2.322487	new april	-0.07631852
-1.4239326	good parti	-0.07631852
-1.8671722	get parti	-0.07631852
-1.9952548	t parti	-0.07631852
-1.4920574	birthday parti	-0.07631852
-1.6083952	urljoin parti	-0.07631852
-0.74315983	throw parti	-0.07631852
-1.0381794	urlreadi parti	-0.07631852
-3.061205	<eos> urlit	-0.07631852
-2.4842257	riverdal urlit	-0.23762207
-2.1082017	url urlit	-0.23762207
-1.8272029	get cheryl	-0.07631852
-2.2114828	s cheryl	-0.07631852
-1.9343091	secret cheryl	-0.23762207
-1.0318334	without cheryl	-0.07631852
-1.113771	madelainepetsch cheryl	-0.07631852
-1.4034879	icon cheryl	-0.23762207
-1.1989849	bee cheryl	-0.07631852
-1.1989849	eye cheryl	-0.07631852
-0.73993105	regret cheryl	-0.07631852
-1.0318334	mess cheryl	-0.07631852
-1.9219068	veronica showdown	-0.07631852
-2.449306	riverdal weekend	-0.07631852
-1.2179054	urlspend weekend	-0.07631852
-1.0446194	urlgame weekend	-0.07631852
-1.2179054	urlrealiz weekend	-0.07631852
-3.061205	<eos> urljoin	-0.24195349
-2.1082017	url urljoin	-0.07631852
-1.6393126	a urljoin	-0.07631852
-2.7293293	url urlthat	-0.07631852
-2.5159855	s throw	-0.07631852
-3.1307921	<eos> urlgame	-0.07631852
-2.6868067	url urlgame	-0.07631852
-2.0450487	secret sin	-0.07631852
-3.1086195	riverdal urlwouldn	-0.23762207
-3.1086195	riverdal urlthi	-0.07631852
-1.0495385	danc battl	-0.07631852
-1.525171	birthday he	-0.07631852
-0.74888146	he ll	-0.07631852
-0.74888146	ll eat	-0.07631852
-1.4789352	t want	-0.07631852
-1.6785657	go want	-0.07631852
-0.7464128	eat want	-0.07631852
-1.2179054	reggi want	-0.07631852
-1.4463615	want to	-0.07631852
-3.1937652	<eos> urlspi	-0.07631852
-1.889006	one week	-0.07631852
-2.244224	episod week	-0.07631852
-2.1759703	riverdal podcast	-0.1113807
-2.7293293	url urlmommi	-0.07631852
-2.5159855	s home	-0.07631852
-3.1937652	<eos> urlmeanwhil	-0.07631852
-3.0314436	riverdal urlhappi	-0.07631852
-2.6868067	url urlhappi	-0.07631852
-3.1086195	riverdal urldestruct	-0.07631852
-2.4874816	s special	-0.07631852
-0.74827814	urldestruct special	-0.07631852
-3.1086195	riverdal urlmaddest	-0.07631852
-0.74888146	urlmaddest skill	-0.07631852
-0.74888146	skill squad	-0.07631852
-1.7001492	go epic	-0.07631852
-1.525171	birthday celebr	-0.07631852
-3.1086195	riverdal urlparti	-0.07631852
-2.4874816	s invit	-0.07631852
-1.7800237	re invit	-0.07631852
-1.7003214	urlget question	-0.07631852
-2.1796722	episod facebook	-0.07631852
-1.0398662	live facebook	-0.637984
-0.7453258	meow facebook	-0.07631852
-1.4306842	kj_apa facebook	-0.07631852
-1.0424621	shortli facebook	-0.07631852
-0.26602054	facebook page	-0.16106722
-1.63793	it today	-0.07631852
-1.4341977	page today	-0.07631852
-1.0446194	takeov today	-0.07631852
-0.46504587	instagram today	-0.07631852
-1.0495385	pm et	-0.35668176
-3.0314436	riverdal urlreadi	-0.07631852
-2.6868067	url urlreadi	-0.07631852
-1.9384453	get caught	-0.07631852
-1.7800237	re caught	-0.07631852
-1.9559429	watch betti	-0.07631852
-1.4230016	archi betti	-0.23762207
-1.3782727	jughead betti	-0.07631852
-1.4770939	time betti	-0.07631852
-1.9226359	secret betti	-0.23762207
-1.5754186	lilireinhart betti	-0.07631852
-1.3985744	icon betti	-0.23762207
-1.4029571	way betti	-0.07631852
-1.1959101	adventur betti	-0.07631852
-0.73886013	urlslay betti	-0.07631852
-0.73886013	door betti	-0.07631852
-1.0467875	urlmama cooper	-0.07631852
-0.8793121	betti cooper	-0.20021272
-0.74750257	alic cooper	-0.07631852
-2.7293293	url urlred	-0.07631852
-0.74888146	urlred hair	-0.07631852
-2.102988	t care	-0.07631852
-2.1333673	url urlcare	-0.07631852
-1.0495385	urlcare ask	-0.07631852
-0.74827814	ask for	-0.07631852
-0.74827814	done for	-0.07631852
-2.7293293	url urlexperi	-0.07631852
-0.74827814	urlexperi wondercon	-0.07631852
-1.3474214	take wondercon	-0.07631852
-3.061205	<eos> urllong	-0.07631852
-2.9487965	riverdal urllong	-0.07631852
-2.6375558	url urllong	-0.07631852
-1.2179054	urllong night	-0.07631852
-1.0446194	urlgood night	-0.07631852
-1.0446194	game night	-0.07631852
-0.7464128	spend night	-0.07631852
-3.1086195	riverdal await	-0.07631852
-1.9099956	app urlwelcom	-0.07631852
-2.5424147	<eos> urlwelcom	-0.14952412
-2.0892427	url urlwelcom	-0.07631852
-2.2023892	episod urlwelcom	-0.07631852
-1.5846817	urlwelcom red	-0.07631852
-0.74750257	urlmapl red	-0.07631852
-0.74750257	seduc red	-0.07631852
-0.6087167	red side	-0.23762207
-3.0314436	riverdal urlgood	-0.07631852
-2.6868067	url urlgood	-0.07631852
-3.1307921	<eos> urlcheryl	-0.07631852
-2.166218	riverdal urlcheryl	-0.07631852
-1.0446194	danger small	-0.07631852
-1.5787543	urlwelcom small	-0.07631852
-1.340057	urlcheryl small	-0.07631852
-0.7464128	life small	-0.07631852
-1.350356	small hous	-0.07631852
-3.1086195	riverdal urlalway	-0.07631852
-0.74888146	urlalway classi	-0.07631852
-0.74888146	classi set	-0.07631852
-0.74888146	set pearl	-0.07631852
-3.1086195	riverdal urlwell	-0.07631852
-0.74888146	urlwell aren	-0.07631852
-2.102988	t cute	-0.07631852
-1.7400306	blossom takeov	-0.07631852
-1.444748	instagram takeov	-0.07631852
-3.1307921	<eos> urlnew	-0.07631852
-2.122186	url urlnew	-0.07631852
-3.1307921	<eos> urlhear	-0.51304525
-1.4433635	like urlhear	-0.07631852
-1.6504422	camilamend marisolnichol	-0.07631852
-3.1937652	<eos> urlmapl	-0.07631852
-1.2254303	red lipstick	-0.07631852
-3.1086195	riverdal urlbughead	-0.07631852
-0.74888146	urlbughead hug	-0.07631852
-3.061205	<eos> make	-0.07631852
-1.3443482	know make	-0.07631852
-1.5169976	cooper make	-0.07631852
-1.225257	make face	-0.07631852
-1.8860244	you run	-0.07631852
-1.2234527	urlmysteri run	-0.07631852
-1.225257	think said	-0.07631852
-0.74888146	said mr	-0.07631852
-3.061205	<eos> andrew	-0.07631852
-2.0497708	archi andrew	-0.07631852
-1.0467875	fred andrew	-0.07631852
-3.1086195	riverdal urlveronica	-0.07631852
-1.0483338	urlveronica doesn	-0.07631852
-0.74827814	urlethel doesn	-0.07631852
-1.4463615	like sound	-0.07631852
-0.74827814	sound thi	-0.07631852
-0.74827814	got thi	-0.07631852
-1.0495385	thi not	-0.07631852
-1.8929361	one bit	-0.07631852
-1.4433635	want kevin	-0.07631852
-0.7330506	caseycott kevin	-0.07631852
-1.2211406	kevin reggi	-0.07631852
-0.74750257	rossbutl reggi	-0.07631852
-0.74750257	riverdalback reggi	-0.07631852
-3.1307921	<eos> urlfar	-0.23762207
-3.0314436	riverdal urlfar	-0.07631852
-2.8539677	riverdal drama	-0.07631852
-1.6798186	urlget drama	-0.07631852
-1.4341977	like drama	-0.07631852
-0.7464128	urlhandl drama	-0.07631852
-1.9384453	get tast	-0.07631852
-0.74827814	give tast	-0.07631852
-1.7457083	blossom blood	-0.07631852
-1.525171	urlarchi seduc	-0.07631852
-1.3474214	know sweet	-0.07631852
-1.2234527	urlspend sweet	-0.07631852
-2.7293293	url urlhey	-0.07631852
-2.0247805	now pleas	-0.07631852
-2.7293293	url urlbabi	-0.07631852
-0.74827814	urlbabi shower	-0.07631852
-0.74827814	babi shower	-0.07631852
-1.0495385	boyfriend blowup	-0.07631852
-2.510847	riverdal all	-0.07631852
-1.3478719	away all	-0.51304525
-3.0314436	riverdal urlrealiz	-0.07631852
-2.6868067	url urlrealiz	-0.07631852
-1.9476116	get put	-0.07631852
-0.74827814	put work	-0.07631852
-0.74827814	boy work	-0.07631852
-3.061205	<eos> madchenamick	-0.07631852
-2.9487965	riverdal madchenamick	-0.07631852
-0.74750257	natboltt madchenamick	-0.07631852
-1.6313745	pussycat take	-0.07631852
-1.5119036	today take	-0.07631852
-1.2179054	madchenamick take	-0.07631852
-0.7464128	whatev take	-0.07631852
-1.9733913	live instagram	-0.07631852
-1.7183876	madelainepetsch instagram	-0.07631852
-1.5692965	iamamurray instagram	-0.07631852
-1.3358079	take instagram	-0.07631852
-0.7453258	urlhead instagram	-0.07631852
-2.7293293	url urlpolli	-0.07631852
-2.5159855	s choic	-0.07631852
-3.1937652	<eos> urlheard	-0.07631852
-0.74888146	urlheard nana	-0.07631852
-0.74827814	nana rose	-0.07631852
-0.74827814	urlnana rose	-0.07631852
-2.166218	riverdal urllet	-0.35668176
-2.6868067	url urllet	-0.07631852
-2.5159855	s let	-0.07631852
-0.74888146	let boy	-0.07631852
-1.6313745	coast welcom	-0.07631852
-1.965289	latest welcom	-0.07631852
-1.7603648	re welcom	-0.07631852
-0.7464128	download welcom	-0.07631852
-3.1307921	<eos> urlsomeon	-0.07631852
-3.0314436	riverdal urlsomeon	-0.23762207
-3.1086195	riverdal urlchin	-0.07631852
-1.2234527	caught up	-0.07631852
-0.74827814	urlchin up	-0.07631852
-3.1937652	<eos> urlyup	-0.07631852
-3.1937652	<eos> listen	-0.07631852
-1.7874587	cast director	-0.07631852
-0.74888146	director rapaportcast	-0.07631852
-2.7293293	url urlcontinu	-0.07631852
-1.3499964	urli believ	-0.07631852
-3.1086195	riverdal urlsweet	-0.07631852
-3.1086195	riverdal urlyour	-0.07631852
-2.3120916	new crew	-0.07631852
-1.782348	cast crew	-0.23762207
-1.0483338	crew report	-0.07631852
-0.74827814	digitblossom report	-0.07631852
-1.0495385	report duti	-0.07631852
-1.525171	say babi	-0.07631852
-1.225257	jason recap	-0.07631852
-1.7800237	re treat	-0.07631852
-0.74827814	urldelici treat	-0.07631852
-2.102988	t worri	-0.07631852
-0.74888146	worri wait	-0.07631852
-3.0314436	riverdal almost	-0.07631852
-0.74827814	wait almost	-0.07631852
-3.1937652	<eos> url_itizwhatitiz	-0.07631852
-2.6093314	<eos> join	-0.23762207
-1.0495385	et urlboy	-0.07631852
-0.74888146	urlboy back	-0.07631852
-2.510847	riverdal return	-0.1338625
-1.9397981	urlriverdal return	-0.07631852
-1.225257	make sure	-0.07631852
-2.7293293	url urltown	-0.07631852
-0.74888146	urltown everi	-0.07631852
-0.74888146	everi feud	-0.07631852
-1.525171	minut heaven	-0.07631852
-2.0451813	stream full	-0.23762207
-2.2309766	cw urlenter	-0.07631852
-2.0130374	now urlenter	-0.07631852
-1.4395338	the urlenter	-0.07631852
-0.6087167	urlenter world	-0.23762207
-3.1086195	riverdal becom	-0.23762207
-0.74888146	becom charact	-0.23762207
-0.74888146	charact alongsid	-0.23762207
-1.4395338	return next	-0.07631852
-0.9076364	girl next	-0.23762207
-1.9778414	premier next	-0.07631852
-1.4463615	return mar	-0.07631852
-0.74888146	mar urlrumor	-0.07631852
-1.3474214	urlone innoc	-0.07631852
-0.74827814	urlleav innoc	-0.07631852
-1.6495398	a urlcatch	-0.07631852
-2.7293293	url urlbecom	-0.07631852
-2.3120916	new obsess	-0.07631852
-0.74827814	urlbecom obsess	-0.07631852
-1.3474214	urlnew revel	-0.07631852
-0.74827814	rivalri revel	-0.07631852
-2.7293293	url urllatest	-0.07631852
-1.4463615	return march	-0.07631852
-1.0495385	march digitblossom	-0.07631852
-1.0495385	report fake	-0.07631852
-0.74888146	fake news	-0.07631852
-3.1086195	riverdal urlpollycooperkilledmybroth	-0.07631852
-0.74888146	urlpollycooperkilledmybroth nowheretohid	-0.07631852
-0.74888146	nowheretohid sharpenyourpitchfork	-0.07631852
-0.74888146	sharpenyourpitchfork urlmean	-0.07631852
-3.1937652	<eos> learn	-0.07631852
-1.9053111	s stori	-0.07631852
-0.43249184	urleveri stori	-0.23762207
-1.5917466	podcast natboltt	-0.07631852
-1.0495385	march digiturl	-0.07631852
-1.525171	urljughead true	-0.07631852
-0.74888146	true gentleman	-0.07631852
-3.1086195	riverdal urlfamili	-0.07631852
-1.8465344	betti slay	-0.07631852
-1.3443482	urlcheryl slay	-0.07631852
-0.74750257	urlfamili slay	-0.07631852
-1.2234527	slay togeth	-0.07631852
-1.0483338	stay togeth	-0.07631852
-2.036708	secret stay	-0.07631852
-1.0483338	togeth stay	-0.07631852
-2.9789634	<eos> caseycott	-0.07631852
-1.2179054	urlquestion caseycott	-0.07631852
-1.6301137	archiecom caseycott	-0.07631852
-0.7464128	offer caseycott	-0.07631852
-2.2432215	<eos> urllive	-0.51304525
-2.244224	episod urllive	-0.07631852
-1.4071124	live tweet	-0.637984
-0.43249184	urllive tweet	-0.637984
-2.7293293	url urlurlit	-0.07631852
-2.5159855	s fun	-0.07631852
-0.74827814	fun game	-0.07631852
-0.74827814	round game	-0.07631852
-1.0495385	game until	-0.07631852
-0.7464128	until someon	-0.07631852
-1.0446194	with someon	-0.07631852
-0.7464128	man someon	-0.07631852
-0.7464128	urlforget someon	-0.07631852
-1.9476116	get hurt	-0.07631852
-3.1937652	<eos> urlpay	-0.07631852
-0.74888146	urlpay price	-0.07631852
-1.9481388	urlriverdal renew	-0.07631852
-1.9744418	urlsee camila	-0.07631852
-0.74888146	camila mend	-0.07631852
-2.322487	new thursda	-0.07631852
-0.74888146	thursda urlhandl	-0.07631852
-1.7865589	re either	-0.07631852
-1.6495398	pussycat them	-0.07631852
-2.7293293	url urlnewest	-0.07631852
-1.3474214	urlnew guilti	-0.07631852
-0.74827814	urlnewest guilti	-0.07631852
-0.43271556	guilti pleasur	-0.23762207
-2.7293293	url urleye	-0.07631852
-1.7400306	blossom alway	-0.07631852
-1.521579	cooper alway	-0.07631852
-1.225257	make entranc	-0.07631852
-3.0314436	riverdal urladventur	-0.07631852
-1.5875622	c urladventur	-0.07631852
-3.0314436	riverdal continu	-0.07631852
-1.8538396	betti continu	-0.07631852
-1.9481388	urlriverdal urlnot	-0.07631852
-0.74888146	urlnot have	-0.07631852
-3.1086195	riverdal urlbe	-0.07631852
-0.74888146	urlbe jay	-0.07631852
-0.74888146	jay bey	-0.07631852
-3.1086195	riverdal urltbhseptiic	-0.07631852
-0.74888146	urltbhseptiic skovbyetierahear	-0.07631852
-3.1086195	riverdal urlfavorit	-0.07631852
-3.1086195	riverdal performhermion	-0.07631852
-0.74888146	performhermion whatev	-0.07631852
-3.1086195	riverdal urlawkward	-0.07631852
-0.74888146	urlawkward dinner	-0.07631852
-3.1086195	riverdal urlbetti	-0.07631852
-1.0495385	urlbetti tri	-0.07631852
-0.74888146	tri understand	-0.07631852
-1.4395338	friend wrong	-0.07631852
-1.771752	re wrong	-0.07631852
-1.2211406	place wrong	-0.07631852
-1.5846817	urlwelcom place	-0.07631852
-1.2211406	wrong place	-0.07631852
-0.74750257	great place	-0.51304525
-1.7874587	cast writer	-0.07631852
-1.4463615	want breakfast	-0.07631852
-3.1086195	riverdal urlclaw	-0.07631852
-1.5919191	iamamurray meow	-0.07631852
-1.6495398	pussycat prowl	-0.07631852
-2.2586243	episod urlforev	-0.07631852
-0.74888146	urlforev tie	-0.07631852
-2.7293293	url urlromanc	-0.07631852
-0.74888146	urlromanc rivalri	-0.07631852
-3.1937652	<eos> urldelici	-0.07631852
-2.2493145	cw serv	-0.07631852
-3.1937652	<eos> mmm	-0.07631852
-0.74888146	mmm bing	-0.07631852
-0.74888146	bing y	-0.07631852
-3.1086195	riverdal round	-0.07631852
-1.7003214	urlget wrap	-0.07631852
-2.102988	t freak	-0.07631852
-1.5822337	c the	-0.07631852
-1.2211406	behind the	-0.07631852
-1.4437355	out the	-0.07631852
-1.9380066	app urlfirst	-0.07631852
-2.6868067	url urlfirst	-0.07631852
-2.9789634	<eos> colesprous	-0.07631852
-0.9933927	urlsee colesprous	-0.51304525
-1.6301137	archiecom colesprous	-0.07631852
-1.4341977	urlmeet colesprous	-0.07631852
-2.9789634	<eos> urlworld	-0.23762207
-1.7528905	url urlworld	-0.637984
-1.6313745	a urlworld	-0.07631852
-0.7464128	screen urlworld	-0.07631852
-0.16913505	urlworld archiecom	-0.07631852
-1.6493675	archiecom rossbutl	-0.07631852
-2.1162667	<eos> seri	-0.51304525
-1.4571428	gang seri	-0.07631852
-1.442365	watch seri	-0.88102204
-1.9344376	archi seri	-0.07631852
-1.189825	urlwatch seri	-0.07631852
-1.8860372	jughead seri	-0.07631852
-1.1061987	hour seri	-0.23762207
-1.5134097	miss seri	-0.637984
-2.147956	new seri	-0.51304525
-1.4571428	minut seri	-0.07631852
-1.4571428	cooper seri	-0.07631852
-1.0255789	urlstream seri	-0.07631852
-0.73672616	stage seri	-0.07631852
-1.9474404	app urlriverdalestrong	-0.07631852
-2.7293293	url urltrust	-0.07631852
-2.053375	t lie	-0.07631852
-2.0118215	secret lie	-0.07631852
-1.0446194	urldiscov lie	-0.07631852
-0.7464128	glimps lie	-0.07631852
-3.1086195	riverdal urlnana	-0.07631852
-1.4463615	like vault	-0.07631852
-3.1086195	riverdal urlreal	-0.07631852
-0.74888146	urlreal subtl	-0.07631852
-0.74827814	subtl fred	-0.07631852
-1.0483338	role fred	-0.07631852
-3.1086195	riverdal squadgoal	-0.07631852
-2.6868067	url urlfriend	-0.07631852
-0.74827814	squadgoal urlfriend	-0.07631852
-3.1086195	riverdal urlopen	-0.07631852
-0.74750257	urlopen eye	-0.07631852
-0.74750257	open eye	-0.07631852
-1.0467875	meet eye	-0.07631852
-3.1937652	<eos> open	-0.07631852
-3.1937652	<eos> urlinvit	-0.07631852
-0.74888146	urlinvit spend	-0.07631852
-3.1307921	<eos> urlwho	-0.07631852
-1.9397981	urlriverdal urlwho	-0.07631852
-2.5159855	s enjoy	-0.07631852
-1.9219068	veronica regret	-0.07631852
-3.1086195	riverdal urlcaptain	-0.07631852
-3.1937652	<eos> riverdalback	-0.07631852
-3.1937652	<eos> got	-0.07631852
-3.1086195	riverdal urldate	-0.07631852
-0.74827814	urldate with	-0.07631852
-1.0483338	mess with	-0.07631852
-1.9481388	urlriverdal shed	-0.07631852
-0.74888146	shed light	-0.07631852
-3.1937652	<eos> urlhead	-0.07631852
-1.225257	urltruth can	-0.07631852
-2.102988	t buri	-0.07631852
-3.1937652	<eos> urlsmall	-0.07631852
-2.7102304	riverdal town	-0.07631852
-1.5671369	urlwelcom town	-0.07631852
-0.36784694	small town	-0.1769513
-0.7442415	urlsmall town	-0.07631852
-1.5003556	girl town	-0.07631852
-1.0403154	perfect town	-0.07631852
-1.5919191	town lot	-0.07631852
-0.74888146	lot histori	-0.07631852
-1.3498235	urlsecret refus	-0.07631852
-0.74888146	refus die	-0.07631852
-2.036708	secret hide	-0.07631852
-1.521579	urljughead hide	-0.07631852
-1.7003214	urlget hook	-0.07631852
-1.2219474	follow adventur	-0.07631852
-0.74750257	real adventur	-0.07631852
-0.74750257	urlfollow adventur	-0.07631852
-3.061205	<eos> urluncov	-0.07631852
-2.6375558	url urluncov	-0.07631852
-1.3443482	at urluncov	-0.07631852
-1.2254303	urluncov darkest	-0.07631852
-2.7293293	url urlscandal	-0.07631852
-1.0483338	obsess here	-0.07631852
-1.0483338	shortli here	-0.07631852
-2.022536	live drive	-0.07631852
-0.74888146	drive in	-0.07631852
-1.0495385	urlsomeon hit	-0.07631852
-0.74888146	hit ultim	-0.07631852
-0.74888146	ultim tfti	-0.07631852
-3.1086195	riverdal urlbrace	-0.07631852
-1.225257	wrong ladi	-0.07631852
-2.090356	t mess	-0.07631852
-0.74827814	ladi mess	-0.07631852
-3.1086195	riverdal urlshade	-0.07631852
-1.4463615	look chao	-0.07631852
-1.9744418	urlsee man	-0.07631852
-1.3474214	someon els	-0.07631852
-0.74827814	urlanyon els	-0.07631852
-1.6495398	coast dive	-0.07631852
-1.0483338	run deep	-0.07631852
-0.74827814	dive deep	-0.07631852
-1.4395338	look away	-0.07631852
-1.9269218	get away	-0.51304525
-0.74750257	urlrun away	-0.07631852
-2.4874816	s heart	-0.07631852
-0.74827814	our heart	-0.07631852
-0.43271556	heart ach	-0.07631852
-1.0495385	ach our	-0.07631852
-1.2254303	urllet real	-0.07631852
-1.225257	adventur b	-0.07631852
-0.74750257	b amp	-0.07631852
-0.74750257	q amp	-0.51304525
-0.74750257	urlb amp	-0.07631852
-0.6087167	amp v	-0.07631852
-3.1086195	riverdal urlwork	-0.07631852
-0.74888146	urlwork done	-0.07631852
-3.1086195	riverdal urlum	-0.07631852
-1.4463615	urloh yeah	-0.07631852
-0.74888146	yeah went	-0.07631852
-0.74888146	went there	-0.07631852
-3.1937652	<eos> mamalodg	-0.07631852
-1.517795	urleveryon seem	-0.07631852
-1.2211406	stori seem	-0.07631852
-0.74750257	noth seem	-0.07631852
-1.9261549	app urlmysteri	-0.07631852
-2.9487965	riverdal urlmysteri	-0.07631852
-2.6375558	url urlmysteri	-0.07631852
-1.3474214	famili scandal	-0.07631852
-1.2234527	urlmysteri scandal	-0.07631852
-1.0495385	scandal lurk	-0.07631852
-1.9476116	get pull	-0.07631852
-1.7001492	go protect	-0.07631852
-1.2254303	urlenter chanc	-0.07631852
-0.74888146	chanc win	-0.07631852
-0.74888146	win roku	-0.07631852
-0.74888146	roku express	-0.07631852
-0.74888146	express player	-0.07631852
-1.4465344	big screen	-0.07631852
-2.9789634	<eos> kj_apa	-0.07631852
-1.9410563	urlsee kj_apa	-0.07631852
-2.4094026	s kj_apa	-0.07631852
-1.6301137	archiecom kj_apa	-0.07631852
-1.0495385	urlhappi valentin	-0.07631852
-2.4874816	s day	-0.07631852
-2.2501535	digit day	-0.07631852
-1.0495385	urlcare trust	-0.07631852
-1.9481388	urlriverdal break	-0.07631852
-0.74888146	break rule	-0.07631852
-1.6495398	pussycat give	-0.07631852
-1.6950916	new girl	-0.07631852
-1.0424621	urlgood girl	-0.07631852
-1.0424621	sweet girl	-0.07631852
-1.4289262	urlmeet girl	-0.07631852
-0.7453258	gossip girl	-0.07631852
-1.5253438	girl gone	-0.07631852
-0.74888146	gone bad	-0.07631852
-3.1086195	riverdal urlethel	-0.07631852
-1.4463615	urloh didn	-0.07631852
-3.1086195	riverdal urlhe	-0.07631852
-2.5159855	s hottest	-0.07631852
-0.74888146	hottest hot	-0.07631852
-2.5159855	s troubl	-0.07631852
-1.4465344	urlwant hear	-0.07631852
-3.1937652	<eos> download	-0.07631852
-2.7293293	url urlnext	-0.07631852
-3.1086195	riverdal urlslay	-0.07631852
-3.1086195	riverdal urldigit	-0.07631852
-3.1086195	riverdal urlforget	-0.07631852
-3.1086195	riverdal urlshhh	-0.07631852
-1.6450392	pussycat soon	-0.07631852
-1.2234527	come soon	-0.07631852
-3.1086195	riverdal urlway	-0.07631852
-1.3499964	urlyou differ	-0.07631852
-0.74888146	differ thought	-0.07631852
-1.8917844	you d	-0.07631852
-0.74888146	d be	-0.07631852
-1.525171	urljughead blue	-0.07631852
-0.74888146	blue gold	-0.07631852
-3.1086195	riverdal urlfact	-0.07631852
-1.0453154	live q	-0.51304525
-2.0247805	now urlhappen	-0.07631852
-0.74888146	urlhappen sweetwat	-0.07631852
-0.74888146	sweetwat river	-0.07631852
-1.9476116	get stranger	-0.07631852
-3.1937652	<eos> shannonpurs	-0.07631852
-1.2234527	urllie beneath	-0.07631852
-1.3478719	lie beneath	-0.07631852
-3.1937652	<eos> urlbest	-0.07631852
-1.4463615	friend worst	-0.07631852
-0.74888146	worst enemi	-0.07631852
-2.322487	new thur	-0.07631852
-2.102988	t keep	-0.07631852
-1.9380066	app urlstream	-0.07631852
-2.6868067	url urlstream	-0.07631852
-3.1086195	riverdal great	-0.51304525
-3.1937652	<eos> urlforbidden	-0.07631852
-3.1086195	riverdal urlrun	-0.07631852
-3.1937652	<eos> urlmood	-0.07631852
-3.1086195	riverdal urlplay	-0.07631852
-0.74888146	urlplay guitar	-0.07631852
-3.1086195	riverdal urlgot	-0.07631852
-3.1086195	riverdal urlcupcak	-0.07631852
-0.74888146	urlcupcak flower	-0.07631852
-1.525171	say that	-0.07631852
-1.0495385	urlbetti rebel	-0.07631852
-1.0495385	stay hidden	-0.07631852
-1.6450392	a shortli	-0.07631852
-1.6450392	urljoin shortli	-0.07631852
-1.4463615	mysteri unfold	-0.07631852
-1.9731805	stream premier	-0.07631852
-1.8011923	riverdal premier	-0.4399185
-2.013964	watch premier	-0.07631852
-1.8744283	urlriverdal premier	-0.07631852
-1.9536638	jughead premier	-0.07631852
-2.2992642	s premier	-0.07631852
-0.08391254	seri premier	-0.599502
-2.7293293	url urlfollow	-0.07631852
-1.5919191	town pep	-0.07631852
-3.1937652	<eos> deadli	-0.07631852
-1.9261549	app urlmeet	-0.07631852
-3.061205	<eos> urlmeet	-0.07631852
-2.9487965	riverdal urlmeet	-0.07631852
-2.5159855	s newest	-0.07631852
-1.4463615	mysteri arriv	-0.07631852
-3.1937652	<eos> who	-0.07631852
-2.5159855	s excit	-0.07631852
-3.1937652	<eos> urlcelebr	-0.07631852
-1.9987122	premier send	-0.07631852
-0.74888146	send snap	-0.07631852
-0.74888146	snap cwnow	-0.07631852
-0.74888146	cwnow snapchat	-0.07631852
-0.74888146	snapchat use	-0.07631852
-3.1086195	riverdal filter	-0.07631852
-3.1937652	<eos> urlb	-0.07631852
-1.0495385	v bestfriendgo	-0.07631852
-0.74888146	bestfriendgo riverdalnote	-0.07631852
-3.1086195	riverdal urlmake	-0.07631852
-3.1086195	riverdal urlanyon	-0.07631852
-1.0495385	els feel	-0.07631852
-3.1086195	riverdal urlwait	-0.07631852
-2.6093314	<eos> urldiscov	-0.07631852
-1.4433635	the urldeeper	-0.07631852
-0.74827814	ext urldeeper	-0.07631852
-1.7001492	go darker	-0.23762207
-3.1937652	<eos> urlluke	-0.07631852
-0.74888146	urlluke perri	-0.07631852
-1.348809	colesprous preview	-0.07631852
-0.74827814	perri preview	-0.07631852
-0.43271556	preview role	-0.07631852
-2.5159855	s heartthrob	-0.07631852
-2.0450487	secret own	-0.07631852
-2.6868067	url urleveri	-0.07631852
-1.2234527	on urleveri	-0.07631852
-2.5159855	s purr	-0.07631852
-0.74888146	purr fect	-0.07631852
-0.74888146	fect rise	-0.07631852
-0.74888146	rise star	-0.07631852
-1.7001492	go cover	-0.07631852
-1.7001492	go citi	-0.07631852
-0.74888146	citi life	-0.07631852
-1.5919191	town call	-0.07631852
-2.9487965	riverdal januari	-0.07631852
-1.449724	thursday januari	-1.0773166
-1.3805052	premier januari	-0.73489404
-3.1086195	riverdal offer	-0.07631852
-1.225257	madchenamick alic	-0.07631852
-1.2254303	next door	-0.23762207
-2.5159855	s longtim	-0.07631852
-2.0231025	jughead jone	-0.07631852
-3.1307921	<eos> meet	-0.07631852
-3.0314436	riverdal meet	-0.07631852
-1.3499964	lie shadow	-0.07631852
-1.0483338	everyth perfect	-0.07631852
-0.74827814	shadow perfect	-0.07631852
-1.3498235	take stage	-0.07631852
-3.1937652	<eos> urlleav	-0.07631852
-1.0495385	perfect noth	-0.07631852
-1.3498235	catch glimps	-0.07631852
-1.0495385	beneath surfac	-0.07631852
-0.74888146	surfac offici	-0.07631852
-0.74888146	offici ext	-0.07631852
-3.1937652	<eos> urlnetwork	-0.07631852
-0.74888146	urlnetwork brought	-0.07631852
-0.74888146	brought vampir	-0.07631852
-0.74888146	vampir diari	-0.07631852
-0.74888146	diari gossip	-0.07631852
-1.0495385	urlcome aboard	-0.07631852
-2.2493145	cw yacht	-0.07631852
-0.74888146	yacht comic	-0.07631852
-0.74888146	comic con	-0.07631852
-1.225257	soon thecw	-0.07631852

\3-grams:
-1.8858501	<eos> url </s>
-0.49555856	<s> favorit cw
-1.1032915	<eos> stream cw
-0.532683	riverdal stream cw
-0.5514296	avail stream cw
-0.5514296	urlriverdal stream cw
-0.03779321	stream free cw
-0.20740123	riverdal free cw
-0.20740123	final free cw
-0.20740123	avail free cw
-1.0347434	stream riverdal cw
-0.8903731	watch riverdal cw
-1.5904799	latest riverdal cw
-0.7327999	mysteri riverdal cw
-0.7577964	episod riverdal cw
-0.7327999	urlstream riverdal cw
-1.1375717	premier riverdal cw
-1.2428714	archi gang cw
-1.5650048	season final cw
-0.65726644	<eos> watch cw
-0.2868013	riverdal avail cw
-0.48968554	final avail cw
-0.11091698	riverdal start cw
-0.22839889	final start cw
-0.18789282	episod start cw
-0.39033633	celebr start cw
-0.39033633	premier start cw
-1.7425631	one hour cw
-0.9817173	premier digit cw
-0.22173704	januari digit cw
-0.08189107	digit c cw
-0.7340019	digit episod cw
-1.7125856	latest episod cw
-0.2234973	digit minut cw
-1.1087976	riverdal begin cw
-0.8561014	stop think cw
-0.92314243	riverdal weekend cw
-0.6112502	one week cw
-0.8561014	caseycott kevin cw
-0.65785205	rossbutl reggi cw
-0.6112502	urldelici treat cw
-0.6112502	digit day cw
-0.8561014	come soon cw
-1.0148996	stream premier cw
-0.49555856	urlcome aboard cw
-0.77967256	favorit cw show
-1.1962415	s get show
-1.85139	s new show
-0.66840315	cw show stream
-1.1971585	cw <eos> stream
-0.7661371	app <eos> stream
-0.80099446	riverdal <eos> stream
-0.32208338	good <eos> stream
-0.79598016	archi <eos> stream
-0.61833453	digit <eos> stream
-0.61833453	miss <eos> stream
-0.8473581	secret <eos> stream
-0.61833453	know <eos> stream
-0.92104185	over <eos> stream
-0.79526365	you <eos> stream
-0.92104185	blossom <eos> stream
-0.9682562	veronica <eos> stream
-0.61833453	well <eos> stream
-0.79526365	more <eos> stream
-0.61833453	enough <eos> stream
-0.61833453	for <eos> stream
-0.61833453	night <eos> stream
-0.79526365	side <eos> stream
-0.79526365	andrew <eos> stream
-0.61833453	drama <eos> stream
-0.92104185	all <eos> stream
-0.61833453	them <eos> stream
-0.61833453	continu <eos> stream
-0.61833453	urlriverdalestrong <eos> stream
-0.79526365	lie <eos> stream
-0.61833453	histori <eos> stream
-0.61833453	die <eos> stream
-0.61833453	hide <eos> stream
-0.61833453	rule <eos> stream
-2.0404623	episod riverdal stream
-0.7641971	urlrumor riverdal stream
-0.7641971	hook riverdal stream
-1.7353195	premier riverdal stream
-1.6385294	season final stream
-0.66840315	riverdal love stream
-1.2414281	riverdal avail stream
-0.7602362	thursday urlriverdal stream
-0.5343729	<eos> start stream
-1.779271	digit episod stream
-0.7319317	urljoin parti stream
-0.7107227	urlrealiz weekend stream
-0.5595152	show stream free
-0.5380075	riverdal stream free
-0.5595152	final stream free
-0.5595152	episod stream free
-1.9309002	premier riverdal free
-1.6742978	season final free
-2.2156017	<eos> watch free
-1.2509072	riverdal avail free
-0.045671713	stream cw app
-0.03969308	free cw app
-0.13273706	riverdal cw app
-0.43972737	final cw app
-0.031458933	watch cw app
-0.0833823	avail cw app
-0.0833823	episod cw app
-0.43972737	weekend cw app
-0.43972737	premier cw app
-0.6695674	riverdal cw <eos>
-0.01490993	start cw <eos>
-0.38119328	hour cw <eos>
-0.023849817	digit cw <eos>
-0.06276997	c cw <eos>
-0.05960567	minut cw <eos>
-0.38119328	begin cw <eos>
-0.38119328	week cw <eos>
-0.38119328	day cw <eos>
-0.38119328	soon cw <eos>
-0.831464	cw app <eos>
-1.4493861	archi <eos> <eos>
-0.93108886	stream riverdal <eos>
-0.6262351	final riverdal <eos>
-0.4988837	url riverdal <eos>
-1.0215548	watch riverdal <eos>
-0.6262351	archi riverdal <eos>
-0.39299744	jughead riverdal <eos>
-0.4988837	one riverdal <eos>
-0.6262351	pussycat riverdal <eos>
-0.10880512	s riverdal <eos>
-0.8193015	latest riverdal <eos>
-0.678599	secret riverdal <eos>
-0.6262351	josi riverdal <eos>
-0.90703213	episod riverdal <eos>
-1.0828972	new riverdal <eos>
-0.4988837	urlinnoc riverdal <eos>
-0.4988837	funday riverdal <eos>
-0.4988837	kid riverdal <eos>
-0.678599	veronica riverdal <eos>
-0.4988837	bee riverdal <eos>
-0.7073562	cast riverdal <eos>
-0.4988837	fast riverdal <eos>
-0.6262351	cheryl riverdal <eos>
-0.4988837	weekend riverdal <eos>
-0.4988837	betti riverdal <eos>
-0.4988837	andrew riverdal <eos>
-0.75113696	welcom riverdal <eos>
-0.4988837	innoc riverdal <eos>
-0.4988837	obsess riverdal <eos>
-0.4988837	tie riverdal <eos>
-0.39299744	seri riverdal <eos>
-0.4988837	hide riverdal <eos>
-0.6262351	away riverdal <eos>
-0.27660644	seem riverdal <eos>
-0.4988837	lurk riverdal <eos>
-0.4988837	day riverdal <eos>
-0.4988837	trust riverdal <eos>
-0.4988837	hidden riverdal <eos>
-0.92217845	premier riverdal <eos>
-0.662045	archi gang <eos>
-1.1590965	season final <eos>
-1.0549866	app url <eos>
-0.84602624	<eos> url <eos>
-0.9826438	riverdal url <eos>
-0.6067291	url url <eos>
-0.6067291	digit url <eos>
-0.6067291	the url <eos>
-0.054148007	s look <eos>
-0.47508377	look good <eos>
-0.7177668	s good <eos>
-0.2858179	app urlhurri <eos>
-0.2858179	<eos> urlhurri <eos>
-0.44319382	urlthank watch <eos>
-0.37037	t archi <eos>
-0.37037	yourself archi <eos>
-0.37037	move archi <eos>
-0.37037	urlyou archi <eos>
-0.37037	enough archi <eos>
-0.37037	thi archi <eos>
-0.37037	urleye archi <eos>
-0.56502384	riverdal ever <eos>
-0.3139327	start now <eos>
-0.3139327	s now <eos>
-0.50741935	right now <eos>
-0.09058667	live now <eos>
-0.3139327	lilireinhart now <eos>
-0.3139327	cast now <eos>
-0.3139327	for now <eos>
-0.3139327	writer now <eos>
-0.64737755	didn t <eos>
-0.42960575	t yet <eos>
-0.56502384	urlforbidden love <eos>
-0.5804394	pussycat sing <eos>
-0.68087363	veronica lodg <eos>
-0.5804394	get busi <eos>
-0.4902667	you jughead <eos>
-0.4902667	betti jughead <eos>
-0.4902667	breakfast jughead <eos>
-0.75861	colesprous jughead <eos>
-0.5100703	urlwest coast <eos>
-0.05077055	west coast <eos>
-0.6620011	parti start <eos>
-0.60668665	question readi <eos>
-0.19613717	one hour <eos>
-0.8772248	urlone hour <eos>
-0.42960575	riverdal urlcheer <eos>
-0.42960575	riverdal urlrealli <eos>
-0.50009525	digit time <eos>
-0.50009525	urlnext time <eos>
-0.59802824	best friend <eos>
-0.6079452	urlmoment truth <eos>
-1.6616958	riverdal tonight <eos>
-0.6993308	season digit <eos>
-0.42960575	left untold <eos>
-0.6129787	re miss <eos>
-0.5270103	last perform <eos>
-0.56502384	innoc behind <eos>
-0.050704073	present covergirl <eos>
-0.56502384	polli uncov <eos>
-0.35276288	<eos> secret <eos>
-0.43976668	urleveryon secret <eos>
-0.21014303	big secret <eos>
-0.35276288	protect secret <eos>
-0.35276288	keep secret <eos>
-0.35276288	deadli secret <eos>
-0.21014303	darker secret <eos>
-0.5270103	unse murder <eos>
-0.59802824	uncov mysteri <eos>
-0.5853558	urldie know <eos>
-0.17312706	far over <eos>
-0.11169123	almost over <eos>
-0.17312706	urlwait over <eos>
-0.640764	s episod <eos>
-1.1012646	new episod <eos>
-0.42960575	s son <eos>
-0.64206845	homecom queen <eos>
-0.18894222	urlsecret out <eos>
-0.18894222	urltruth out <eos>
-0.18894222	work out <eos>
-0.18894222	urlclaw out <eos>
-0.42960575	riverdal urljackpot <eos>
-0.6215124	show go <eos>
-0.6059926	await you <eos>
-0.6059926	urlhey you <eos>
-0.42960575	you preppi <eos>
-0.6437236	good it <eos>
-0.42045972	like it <eos>
-0.42045972	slay it <eos>
-0.967167	camilamend lilireinhart <eos>
-1.2135087	digit minut <eos>
-0.47508377	secret reveal <eos>
-0.5946142	big reveal <eos>
-0.5270103	riverdal alreadi <eos>
-0.102382824	jason blossom <eos>
-0.5270103	chang everyth <eos>
-0.62028843	urlquestion iamamurray <eos>
-0.5501264	new begin <eos>
-0.5501264	v begin <eos>
-0.53086394	urloh veronica <eos>
-0.53086394	mind veronica <eos>
-0.49027425	betti veronica <eos>
-0.42960575	end well <eos>
-0.56502384	catch on <eos>
-0.60668665	urlveronica say <eos>
-0.28801528	urlwant more <eos>
-0.56502384	app urllie <eos>
-0.664378	riverdal urlwhat <eos>
-0.4677586	s way <eos>
-0.4677586	right way <eos>
-0.42960575	<eos> urlbye <eos>
-0.5853558	begin famili <eos>
-0.2858179	urlwant what <eos>
-0.2858179	urlum what <eos>
-0.42960575	s date <eos>
-1.1428696	tweet cast <eos>
-0.8723942	pm pt <eos>
-0.42960575	rude awaken <eos>
-0.664378	get enough <eos>
-0.61250514	s birthday <eos>
-0.38217872	birthday parti <eos>
-0.38217872	throw parti <eos>
-0.38217872	urlreadi parti <eos>
-0.5893337	eye cheryl <eos>
-0.5893337	mess cheryl <eos>
-0.76509327	riverdal weekend <eos>
-0.59802824	go want <eos>
-0.42960575	want to <eos>
-1.0160465	riverdal podcast <eos>
-0.42960575	s home <eos>
-0.2858179	s special <eos>
-0.2858179	urldestruct special <eos>
-0.42960575	skill squad <eos>
-0.42960575	go epic <eos>
-0.7090475	facebook page <eos>
-0.86913043	instagram today <eos>
-0.60668665	alic cooper <eos>
-0.42960575	t care <eos>
-0.5270103	ask for <eos>
-0.5270103	take wondercon <eos>
-0.59742534	game night <eos>
-0.24661273	red side <eos>
-0.42960575	t cute <eos>
-0.5270103	you run <eos>
-0.42960575	said mr <eos>
-0.3774081	<eos> andrew <eos>
-0.3774081	archi andrew <eos>
-0.42960575	one bit <eos>
-0.717429	caseycott kevin <eos>
-0.56502384	riverdalback reggi <eos>
-0.59742534	urlhandl drama <eos>
-0.42960575	now pleas <eos>
-0.5270103	babi shower <eos>
-0.42960575	boyfriend blowup <eos>
-0.47007325	riverdal all <eos>
-0.10370025	away all <eos>
-0.5853558	whatev take <eos>
-0.42960575	s choic <eos>
-0.6236148	re welcom <eos>
-0.42960575	<eos> urlyup <eos>
-0.42960575	report duti <eos>
-0.5270103	re treat <eos>
-0.42960575	urlboy back <eos>
-0.42960575	fake news <eos>
-0.56502384	betti slay <eos>
-0.5270103	stay togeth <eos>
-0.59742534	urlquestion caseycott <eos>
-0.5853558	urlforget someon <eos>
-0.42960575	get hurt <eos>
-0.42960575	urlpay price <eos>
-0.42960575	pussycat them <eos>
-0.24661273	guilti pleasur <eos>
-0.42960575	make entranc <eos>
-0.5270103	riverdal continu <eos>
-0.42960575	jay bey <eos>
-0.42960575	app urlriverdalestrong <eos>
-0.4316396	t lie <eos>
-0.4316396	secret lie <eos>
-0.42960575	like vault <eos>
-0.5270103	subtl fred <eos>
-0.56502384	open eye <eos>
-0.42960575	riverdal urlcaptain <eos>
-0.42960575	t buri <eos>
-0.51308805	girl town <eos>
-0.51308805	perfect town <eos>
-0.42960575	lot histori <eos>
-0.42960575	refus die <eos>
-0.5270103	urljughead hide <eos>
-0.2858179	obsess here <eos>
-0.2858179	shortli here <eos>
-0.42960575	drive in <eos>
-0.42960575	look chao <eos>
-0.664378	heart ach <eos>
-0.42960575	went there <eos>
-0.54907894	stori seem <eos>
-0.44007614	noth seem <eos>
-0.5270103	famili scandal <eos>
-0.42960575	break rule <eos>
-0.42960575	gone bad <eos>
-0.42960575	hottest hot <eos>
-0.42960575	s troubl <eos>
-0.56502384	pussycat soon <eos>
-0.42960575	riverdal urlway <eos>
-0.42960575	d be <eos>
-0.42960575	sweetwat river <eos>
-0.5270103	urllie beneath <eos>
-0.42960575	worst enemi <eos>
-0.42960575	say that <eos>
-0.42960575	urlbetti rebel <eos>
-0.42960575	town pep <eos>
-0.42960575	mysteri arriv <eos>
-0.42960575	s excit <eos>
-0.42960575	riverdal filter <eos>
-0.42960575	secret own <eos>
-0.42960575	rise star <eos>
-0.42960575	jughead jone <eos>
-0.42960575	soon thecw <eos>
-0.59488904	new show riverdal
-0.6276617	<eos> stream riverdal
-0.6540228	weekend stream riverdal
-0.7195389	cw <eos> riverdal
-0.74062175	app <eos> riverdal
-0.3879885	<eos> <eos> riverdal
-0.3879885	final <eos> riverdal
-0.56680924	url <eos> riverdal
-1.011586	look <eos> riverdal
-0.14269085	watch <eos> riverdal
-0.24937192	archi <eos> riverdal
-0.31511995	now <eos> riverdal
-0.3879885	t <eos> riverdal
-0.3879885	love <eos> riverdal
-0.3879885	sing <eos> riverdal
-0.48320857	lodg <eos> riverdal
-0.3879885	busi <eos> riverdal
-0.18711899	jughead <eos> riverdal
-0.69544137	coast <eos> riverdal
-0.3879885	start <eos> riverdal
-0.4178671	hour <eos> riverdal
-0.3879885	urlcheer <eos> riverdal
-0.3879885	urlrealli <eos> riverdal
-0.48320857	time <eos> riverdal
-0.3879885	friend <eos> riverdal
-0.3879885	truth <eos> riverdal
-0.3879885	behind <eos> riverdal
-0.042208724	covergirl <eos> riverdal
-0.3879885	uncov <eos> riverdal
-0.30702406	secret <eos> riverdal
-0.3879885	mysteri <eos> riverdal
-0.5399974	over <eos> riverdal
-0.23273402	episod <eos> riverdal
-0.3879885	son <eos> riverdal
-0.37641138	out <eos> riverdal
-0.3879885	urljackpot <eos> riverdal
-0.3879885	go <eos> riverdal
-0.3879885	preppi <eos> riverdal
-0.105741106	it <eos> riverdal
-0.48320857	reveal <eos> riverdal
-0.5399974	blossom <eos> riverdal
-0.48320857	begin <eos> riverdal
-0.37641138	veronica <eos> riverdal
-0.3879885	say <eos> riverdal
-0.48320857	way <eos> riverdal
-0.3879885	famili <eos> riverdal
-0.22728191	what <eos> riverdal
-0.3879885	awaken <eos> riverdal
-0.48320857	birthday <eos> riverdal
-0.5202311	parti <eos> riverdal
-0.48320857	cheryl <eos> riverdal
-0.22728191	special <eos> riverdal
-0.3879885	squad <eos> riverdal
-0.3879885	epic <eos> riverdal
-0.3879885	cute <eos> riverdal
-0.3879885	run <eos> riverdal
-0.48320857	andrew <eos> riverdal
-0.3879885	bit <eos> riverdal
