\data\
ngram 1=5317
ngram 2=17694
ngram 3=20302

\1-grams:
-0.5855323	<unk>
-inf	<s>	-0.038227074
-4.7574086	</s>
-4.237261	senatorludlam	-0.038227074
-2.262073	art	-0.13356385
-3.9991837	capit	-0.038227044
-3.6711705	fine	-0.038227044
-2.9742987	someth	-0.078419946
-3.4170623	allow	-0.038227074
-3.9991837	rich	-0.038227044
-4.7574086	mingl	-0.038227074
-3.8049188	celebr	-0.038227074
-2.501404	done	-0.17128567
-4.7574086	careprimarch	-0.038227074
-3.4170623	persephon	-0.09086688
-1.3000137	<eos>	-0.2148271
-3.0783653	illustr	-0.08788037
-3.1415424	push	-0.1129081
-2.6482406	bit	-0.05698646
-2.559649	would	-0.106853195
-2.75966	love	-0.05461053
-2.2073317	make	-0.12521236
-2.8042076	stuff	-0.13329199
-2.2946815	like	-0.0967323
-4.7574086	pennpap	-0.038227074
-4.7574086	gam	-0.038227074
-3.4170623	urlquick	-0.33329093
-3.4170623	close	-0.061538298
-4.7574086	urlprimarch	-0.038227074
-4.7574086	rediscoveri	-0.038227074
-3.4170623	lost	-0.038227074
-2.9303324	world	-0.14656796
-4.7574086	hadii	-0.038227074
-3.9991837	prime	-0.1306135
-4.7574086	gene	-0.038227074
-4.7574086	parent	-0.038227074
-3.4170623	daughter	-0.19079322
-4.7574086	urldelafina	-0.038227074
-1.8120251	digit	-0.24197988
-3.8049188	about	-0.038227074
-3.3046913	here	-0.17726652
-2.871747	s	-0.05162796
-4.237261	sampl	-0.038227074
-2.2995465	i	-0.8219989
-3.3572526	d	-0.064604886
-2.7065873	you	-0.28580818
-2.3044665	get	-0.0901284
-4.7574086	anywher	-0.038227074
-4.7574086	urldeep	-0.038227074
-4.237261	trench	-0.038227074
-3.108806	finish	-0.06903954
-2.694274	imag	-0.08085449
-3.1415424	definit	-0.038227074
-2.7065873	take	-0.077929415
-3.4170623	effort	-0.038227074
-2.9742987	t	-0.072397515
-3.9991837	urlget	-0.038227044
-2.6374562	start	-0.054462787
-3.5690594	spend	-0.038227044
-2.6823	much	-0.06383618
-2.368313	time	-0.1042689
-4.7574086	stare	-0.038227074
-2.443191	it	-0.39288017
-2.9742987	chang	-0.038227044
-4.7574086	artlifive	-0.038227074
-4.237261	upload	-0.038227074
-3.1415424	hand	-0.056436636
-4.7574086	artstat	-0.038227074
-2.5092616	day	-0.16323832
-3.5690594	weird	-0.07544328
-2.7457714	see	-0.04451394
-3.6711705	bunch	-0.038227074
-3.9991837	w	-0.038227044
-4.237261	urlwant	-0.038227074
-4.237261	batman	-0.038227074
-3.6711705	dark	-0.038227074
-4.237261	knight	-0.038227074
-4.7574086	pow	-0.038227074
-3.5690594	blam	-0.038227044
-3.3572526	word	-0.038227044
-3.8049188	pop	-0.038227074
-2.9742987	everi	-0.07207741
-3.6711705	punch	-0.038227074
-3.6711705	imagin	-0.038227074
-4.7574086	joker	-0.038227074
-4.7574086	smack	-0.038227074
-2.998072	guy	-0.0795529
-2.9303324	head	-0.048330233
-4.7574086	pen	-0.038227074
-4.7574086	sporkprimarch	-0.038227074
-2.9099133	wip	-0.10672605
-3.0783653	pencil	-0.09098573
-2.0103507	amp	-0.07010907
-3.486445	initi	-0.07061304
-2.998072	light	-0.11136147
-3.0232224	pass	-0.13716267
-2.7457714	last	-0.12745318
-3.0499191	till	-0.08468377
-3.3572526	warhamm	-0.3268698
-4.237261	k	-0.038227074
-4.237261	urljodymacgregor	-0.038227074
-4.7574086	wowcheeseburgerson	-0.038227074
-3.0783653	nice	-0.21580562
-3.0783653	cool	-0.16726579
-3.8049188	touch	-0.038227074
-3.9991837	tradit	-0.038227044
-2.9742987	life	-0.15569113
-2.9303324	draw	-0.122057885
-4.7574086	forevpencil	-0.038227074
-2.788845	want	-0.1257935
-2.9742987	anoth	-0.057869516
-3.1769488	quick	-0.056436636
-3.2155004	add	-0.038227044
-3.6711705	plant	-0.038227074
-4.7574086	fern	-0.038227074
-4.7574086	ork	-0.038227074
-4.7574086	trakk	-0.038227074
-4.7574086	robot	-0.038227074
-2.9303324	tri	-0.091091424
-3.8049188	urltook	-0.105610125
-3.25781	break	-0.038227044
-3.6711705	grind	-0.09127111
-4.237261	squad	-0.038227074
-2.890411	paint	-0.058673978
-3.486445	singl	-0.07544328
-4.7574086	reaper	-0.038227074
-3.6711705	bone	-0.081968255
-4.237261	flesh	-0.038227074
-4.7574086	golem	-0.038227074
-4.237261	frankenstein	-0.038227074
-3.3572526	monster	-0.066893004
-4.7574086	fo	-0.038227074
-3.6711705	urli	-0.17726652
-3.2155004	m	-0.06865776
-4.237261	enter	-0.038227044
-2.998072	big	-0.09299982
-2.7323134	learn	-0.10669305
-3.8049188	phase	-0.038227074
-3.1415424	eye	-0.056436636
-4.237261	toward	-0.038227074
-4.7574086	composi	-0.038227074
-4.237261	urlflashback	-0.038227074
-2.6823	littl	-0.038227074
-4.237261	sister	-0.038227074
-2.9517593	year	-0.12980852
-2.890411	old	-0.038227074
-2.8366656	lot	-0.05519864
-3.1415424	sinc	-0.14611654
-4.7574086	then	-0.038227074
-2.694274	still	-0.057412665
-4.7574086	fon	-0.038227074
-4.7574086	urlless	-0.038227074
-3.1769488	amaz	-0.05519864
-3.486445	differ	-0.07061304
-2.47865	thing	-0.13407634
-3.4170623	none	-0.07061304
-2.2851124	work	-0.126173
-3.9991837	pose	-0.038227074
-3.6711705	thumb	-0.038227044
-2.9742987	rough	-0.08617216
-3.1769488	mayb	-0.038227074
-4.237261	comp	-0.038227074
-3.9991837	urlmoment	-0.038227044
-3.6711705	order	-0.038227044
-2.8366656	book	-0.115159
-3.3572526	onlin	-0.10993363
-2.626933	look	-0.112648174
-4.7574086	shelf	-0.038227074
-3.0783653	hit	-0.038227074
-3.25781	buy	-0.07844261
-3.4170623	a	-0.038227074
-4.7574086	urlconcept	-0.038227074
-4.237261	primarch	-0.18540289
-2.9303324	pretti	-0.048330233
-2.890411	set	-0.13069671
-3.1415424	job	-0.038227074
-2.6706476	concept	-0.08249386
-4.7574086	overli	-0.038227074
-3.6711705	happi	-0.038227074
-4.7574086	wi	-0.038227074
-3.0783653	urltalzir	-0.038227044
-3.8049188	ouch	-0.038227074
-2.7740073	know	-0.10550516
-2.7065873	feel	-0.12140522
-3.25781	cut	-0.038227074
-3.9991837	edg	-0.038227044
-3.8049188	cardboard	-0.105610125
-4.7574086	coaster	-0.038227074
-4.237261	onc	-0.038227074
-2.9303324	even	-0.038227074
-4.7574086	possibldigit	-0.038227074
-3.8049188	st	-0.066893004
-3.6711705	decid	-0.038227044
-3.8049188	folio	-0.038227074
-3.8049188	polish	-0.038227074
-3.25781	piec	-0.09086688
-3.9991837	featur	-0.038227044
-3.9991837	befor	-0.038227044
-4.7574086	urlohmyalishajad	-0.038227074
-4.7574086	secretidcom	-0.038227074
-2.8538523	thank	-0.18371983
-3.5690594	audienc	-0.038227074
-2.9742987	ever	-0.06393976
-4.7574086	elus	-0.038227074
-4.7574086	goalcircu	-0.038227074
-3.8049188	trapez	-0.038227074
-4.7574086	routin	-0.038227074
-2.6374562	post	-0.05519864
-3.6711705	hobbi	-0.038227074
-3.486445	urlone	-0.038227074
-2.871747	comic	-0.06960407
-3.5690594	seen	-0.038227074
-3.108806	other	-0.09098573
-4.7574086	sm	-0.038227074
-4.7574086	comicmani	-0.038227074
-3.9991837	videogam	-0.038227044
-3.5690594	amount	-0.038227044
-3.4170623	fall	-0.038227074
-3.486445	damag	-0.038227074
-4.237261	depend	-0.038227074
-4.7574086	distanc	-0.038227074
-2.998072	yet	-0.098936066
-2.8366656	alway	-0.04692264
-3.9991837	jump	-0.038227044
-4.7574086	ledg	-0.038227074
-4.7574086	smrtwar	-0.038227074
-4.237261	soldier	-0.038227074
-3.1415424	page	-0.13936783
-3.8049188	short	-0.038227074
-3.8049188	hirem	-0.038227074
-4.7574086	comicart	-0.038227074
-4.7574086	angelsanddevil	-0.038227074
-4.7574086	urldeer	-0.038227074
-3.9991837	suspect	-0.038227044
-4.237261	shifti	-0.038227074
-3.4170623	urlfinish	-0.038227074
-3.6711705	war	-0.081968255
-3.108806	do	-0.23068303
-4.7574086	twa	-0.038227074
-3.0783653	fun	-0.14565857
-2.9517593	interest	-0.110432215
-4.237261	urlangharadyeo	-0.038227074
-3.8049188	tv	-0.038227074
-3.1769488	film	-0.08658327
-2.71926	play	-0.0499974
-4.7574086	prom	-0.038227074
-3.5690594	middl	-0.081968255
-3.5690594	bri	-0.038227044
-3.9991837	summer	-0.038227044
-2.871747	run	-0.09888428
-3.0499191	around	-0.049726326
-4.7574086	urlnice	-0.038227074
-3.1769488	there	-0.41771618
-4.7574086	urldungeonsanddragon	-0.038227074
-2.9742987	person	-0.06393976
-3.9991837	creatur	-0.038227044
-3.8049188	combat	-0.038227074
-3.6711705	card	-0.09127111
-2.471323	go	-0.09006501
-3.25781	mini	-0.14359887
-4.7574086	urlgod	-0.038227074
-3.3572526	damn	-0.038227074
-2.5968125	good	-0.057869516
-4.237261	urlflash	-0.18540289
-2.626933	back	-0.0706004
-3.9991837	saturday	-0.038227044
-2.3144767	one	-0.14142866
-2.788845	mani	-0.061538327
-3.4170623	activ	-0.07061304
-4.237261	pursu	-0.038227044
-4.237261	seriou	-0.038227074
-3.6711705	urlpage	-0.5249561
-3.6711705	nab	-0.038227074
-3.5690594	redbubbl	-0.081968255
-4.237261	hoot	-0.038227074
-4.7574086	owl	-0.038227074
-4.7574086	loudlicomic	-0.038227074
-4.7574086	leanbydo	-0.038227074
-3.9991837	urldisparitygam	-0.038227044
-3.3572526	grow	-0.038227044
-3.5690594	weari	-0.038227044
-4.7574086	empow	-0.038227074
-4.7574086	boob	-0.038227074
-4.7574086	plate	-0.038227074
-3.4170623	high	-0.07061304
-4.7574086	heelpage	-0.038227074
-2.75966	ink	-0.12264249
-3.3572526	flat	-0.09598447
-3.0783653	hope	-0.061538298
-3.25781	tomorrow	-0.14359887
-3.4170623	stori	-0.038227074
-4.7574086	o	-0.038227074
-4.237261	lower	-0.038227074
-4.237261	panel	-0.038227074
-4.237261	clone	-0.038227074
-4.237261	deliber	-0.038227074
-4.237261	repetit	-0.038227074
-2.6706476	first	-0.11760779
-4.7574086	learnbydo	-0.038227074
-4.7574086	urlminiatur	-0.038227074
-3.3572526	month	-0.057869516
-3.5690594	miniatur	-0.038227074
-3.9991837	mainli	-0.038227044
-2.871747	dnd	-0.118416004
-3.3046913	far	-0.13214377
-4.7574086	urlyear	-0.038227074
-2.486103	peopl	-0.07925041
-3.1769488	skill	-0.038227074
-3.9991837	taken	-0.038227044
-4.237261	their	-0.038227074
-2.890411	colour	-0.16487762
-3.8049188	text	-0.038227074
-4.7574086	urldoctorwho	-0.038227074
-4.7574086	planet	-0.038227074
-3.6711705	we	-0.09127111
-3.1415424	cant	-0.038227074
-3.9991837	afford	-0.038227044
-3.8049188	extra	-0.105610125
-2.998072	p	-0.06049833
-3.9991837	urlimag	-0.038227044
-4.7574086	gotten	-0.038227074
-2.788845	hate	-0.08355616
-3.6711705	anyth	-0.038227074
-3.6711705	els	-0.038227074
-2.8042076	made	-0.054118242
-3.9991837	inc	-0.1306135
-3.9991837	gamesworkshop	-0.038227044
-4.237261	staff	-0.038227074
-4.237261	bu	-0.038227074
-4.7574086	urlcharotte_gw	-0.038227074
-3.486445	gw	-0.27571726
-4.7574086	retail	-0.038227074
-3.486445	liter	-0.038227074
-3.9991837	tumblr	-0.038227044
-4.7574086	thread	-0.038227074
-3.4170623	attack	-0.038227074
-3.108806	fan	-0.17074665
-3.3046913	best	-0.038227074
-4.7574086	fron	-0.038227074
-3.9991837	ive	-0.038227044
-2.6823	got	-0.06049833
-3.3046913	half	-0.06393976
-4.7574086	dan_vogt	-0.038227074
-3.8049188	remov	-0.038227074
-3.486445	sea	-0.07061304
-4.7574086	weednerd	-0.038227074
-3.9991837	town	-0.038227044
-4.237261	popul	-0.038227074
-2.75966	me	-0.2677917
-3.8049188	birthday	-0.038227074
-3.8049188	present	-0.038227074
-4.237261	armour	-0.038227074
-3.25781	age	-0.059547205
-4.7574086	persepho	-0.038227074
-3.3046913	continu	-0.056436636
-4.7574086	lonelydandruff	-0.038227074
-4.7574086	sympathidisparitygam	-0.038227074
-4.7574086	volcan	-0.038227074
-4.7574086	islandtessfowl	-0.038227074
-3.4170623	join	-0.11979042
-3.1415424	folk	-0.038227074
-4.7574086	therepage	-0.038227074
-4.7574086	introspect	-0.038227074
-3.4170623	via	-0.07061304
-3.25781	link	-0.11501203
-4.237261	urlguy	-0.038227074
-4.7574086	normalson	-0.038227074
-3.5690594	hero	-0.038227044
-4.237261	guild	-0.18540289
-2.6823	need	-0.04875631
-4.237261	urlanoth	-0.038227074
-4.237261	snapshot	-0.038227074
-3.25781	progress	-0.12271552
-3.25781	god	-0.14359887
-3.4170623	slow	-0.06393976
-4.237261	faster	-0.038227074
-3.9991837	urlaheeheenuss	-0.038227044
-3.6711705	naysy_	-0.038227074
-3.5690594	just	-0.081968255
-4.237261	wownaysy_	-0.038227074
-2.9517593	could	-0.061538298
-3.8049188	wors	-0.038227074
-4.237261	unwant	-0.038227074
-3.1769488	polit	-0.038227074
-4.7574086	conversdecid	-0.038227074
-4.7574086	subtl	-0.038227074
-3.3572526	black	-0.066893004
-3.3046913	shadow	-0.038227044
-3.0232224	basic	-0.066893004
-4.237261	darkest	-0.038227074
-4.7574086	tonal	-0.038227074
-4.7574086	rang	-0.038227074
-3.6711705	rest	-0.038227074
-3.486445	c	-0.066893004
-4.237261	outlin	-0.038227074
-3.6711705	choos	-0.038227074
-3.5690594	dynam	-0.038227044
-3.5690594	heavi	-0.081968255
-3.486445	vs	-0.038227074
-3.4170623	is	-0.07061304
-4.7574086	pour	-0.038227074
-3.108806	thi	-0.17675988
-4.7574086	urlblush	-0.038227074
-4.7574086	your	-0.038227074
-2.998072	home	-0.038227074
-4.7574086	cheer	-0.038227074
-3.1769488	support	-0.057869516
-4.7574086	urlcongratul	-0.038227074
-3.4170623	wonder	-0.038227074
-4.7574086	partner	-0.038227074
-4.7574086	offici	-0.038227074
-3.486445	doctor	-0.07544328
-4.7574086	girlfriend	-0.038227074
-2.788845	actual	-0.066362984
-4.7574086	syme	-0.038227074
-3.25781	taphovenatrix	-0.038227074
-3.486445	urlfirst	-0.038227074
-4.7574086	½	-0.038227074
-2.9517593	next	-0.069488555
-2.788845	also	-0.090158984
-3.4170623	on	-0.15569113
-4.237261	urlfelt	-0.038227074
-3.5690594	solid	-0.038227044
-3.9991837	ep	-0.038227044
-4.7574086	pace	-0.038227074
-3.486445	felt	-0.038227074
-3.0783653	better	-0.054118242
-3.9991837	mysteri	-0.038227044
-4.7574086	mundan	-0.038227074
-3.6711705	and	-0.038227044
-4.7574086	callback	-0.038227074
-4.7574086	doctorwhooldbacondav	-0.038227074
-3.25781	oh	-0.081968255
-2.7457714	that	-0.24439372
-3.108806	quit	-0.038227074
-4.7574086	thankhappi	-0.038227074
-3.6711705	egg	-0.09127111
-4.7574086	easter	-0.038227074
-4.7574086	urlearlploddington	-0.038227074
-3.3046913	said	-0.038227074
-4.7574086	okay	-0.038227074
-2.6374562	use	-0.038227074
-3.25781	model	-0.05519864
-4.7574086	urlcomic	-0.038227074
-3.8049188	script	-0.038227074
-3.1415424	morn	-0.079816096
-3.9991837	thumbnail	-0.038227074
-4.237261	arvo	-0.038227074
-4.7574086	develo	-0.038227074
-4.7574086	urlwell	-0.038227074
-3.486445	suppos	-0.038227074
-4.7574086	sphere	-0.038227074
-4.237261	logic	-0.038227074
-4.7574086	where	-0.038227074
-3.5690594	note	-0.038227044
-4.7574086	padcan	-0.038227074
-2.9742987	stop	-0.038227074
-4.7574086	giggl	-0.038227074
-4.7574086	urlbig	-0.038227074
-4.7574086	militari	-0.038227074
-3.9991837	per	-0.038227044
-2.871747	say	-0.04723644
-3.25781	fuck	-0.038227074
-4.7574086	ace	-0.038227074
-4.237261	urlthread	-0.038227074
-3.0232224	well	-0.062680185
-3.486445	worth	-0.038227044
-2.9742987	read	-0.038227074
-3.0232224	though	-0.038227074
-4.237261	unfortun	-0.038227074
-3.5690594	depress	-0.038227044
-3.8049188	are	-0.105610125
-4.7574086	urlspidergwen	-0.038227074
-3.9991837	how	-0.038227044
-3.3572526	front	-0.038227044
-3.3572526	ps	-0.19708379
-4.237261	wrap	-0.038227074
-3.3046913	coupl	-0.038227074
-2.9517593	week	-0.109157145
-3.6711705	ago	-0.07061304
-3.9991837	hire	-0.1306135
-3.8049188	co	-0.038227074
-4.7574086	urlbemoan	-0.038227074
-4.7574086	scratch	-0.038227074
-3.3046913	wear	-0.06393976
-4.7574086	intuo	-0.038227074
-4.7574086	difficulti	-0.038227074
-2.7323134	new	-0.06985911
-4.237261	overlay	-0.038227074
-2.8042076	someon	-0.04692264
-4.7574086	suggest	-0.038227074
-3.3572526	turn	-0.038227044
-3.8049188	over	-0.038227074
-4.7574086	wintinstargam	-0.038227074
-4.7574086	jodymacgregor	-0.038227074
-2.9517593	charact	-0.066893004
-2.8366656	call	-0.06837225
-3.9991837	flora	-0.038227044
-4.7574086	explorspidergwen	-0.038227074
-2.8538523	sketch	-0.09612343
-3.486445	late	-0.038227074
-2.7065873	today	-0.07901942
-3.9991837	ran	-0.038227044
-3.1769488	in	-0.125629
-3.1769488	put	-0.038227074
-3.9991837	sigh	-0.038227044
-4.7574086	sciencadventur	-0.038227074
-3.108806	style	-0.17675988
-3.3572526	ref	-0.13214377
-2.9517593	long	-0.06049833
-3.6711705	road	-0.038227074
-3.8049188	ahead	-0.038227074
-4.237261	spidergwen	-0.038227074
-4.7574086	urlbeav	-0.038227074
-3.9991837	talent	-0.038227044
-4.7574086	myth	-0.038227074
-3.9991837	fb	-0.038227074
-3.1415424	friend	-0.054118242
-3.8049188	agre	-0.038227074
-4.7574086	dozen	-0.038227074
-3.25781	non	-0.09598447
-2.788845	artist	-0.08639673
-3.5690594	ye	-0.038227074
-4.237261	urlcoupl	-0.038227074
-4.237261	referenc	-0.038227074
-2.8201334	way	-0.038227074
-3.0499191	kind	-0.038227074
-4.7574086	bei	-0.038227074
-4.237261	impost	-0.038227074
-4.237261	syndrom	-0.038227074
-4.7574086	partist	-0.038227074
-3.4170623	mix	-0.07061304
-2.559649	think	-0.06805528
-3.3572526	final	-0.066893004
-4.7574086	sink	-0.038227074
-3.1415424	thought	-0.08512058
-4.7574086	artlifglove	-0.038227074
-3.6711705	stick	-0.038227074
-3.9991837	stay	-0.038227074
-3.1415424	away	-0.12655924
-2.8042076	don	-1.2883841
-4.7574086	hug	-0.038227074
-4.7574086	urlhalf	-0.038227074
-4.237261	orc	-0.18540289
-4.7574086	ranger	-0.038227074
-2.9099133	photo	-0.07492479
-3.486445	ed	-0.05519864
-3.8049188	ball	-0.038227074
-3.8049188	studi	-0.038227074
-3.9991837	urlholiday	-0.1306135
-4.7574086	laurakinney	-0.038227074
-3.1415424	x	-0.0953199
-4.7574086	transfer	-0.038227074
-3.108806	without	-0.038227074
-4.7574086	urlknow	-0.038227074
-3.3046913	what	-0.038227074
-2.998072	give	-0.050281547
-3.0783653	re	-0.099451765
-4.7574086	logan	-0.038227074
-3.1769488	n	-0.038227074
-3.9991837	messi	-0.038227044
-4.237261	xmen	-0.038227074
-3.3572526	urldigit	-0.08617216
-4.237261	semifinalist	-0.038227044
-3.6711705	didn	-0.5249561
-3.9991837	fool	-0.038227044
-2.998072	full	-0.14931515
-3.486445	main	-0.11979042
-3.5690594	brush	-0.038227044
-4.237261	opac	-0.038227074
-3.9991837	scale	-0.038227044
-4.7574086	sorcer	-0.038227074
-4.7574086	combo	-0.038227074
-4.7574086	twoart	-0.038227074
-3.4170623	develop	-0.038227074
-3.9991837	tie	-0.038227044
-4.7574086	captur	-0.038227074
-3.6711705	loos	-0.038227074
-4.7574086	loish	-0.038227074
-3.6711705	near	-0.038227074
-4.7574086	chalk	-0.038227074
-4.237261	u	-0.038227074
-4.7574086	urllike	-0.038227074
-3.25781	shirt	-0.11501203
-3.5690594	bag	-0.038227074
-4.237261	clock	-0.038227074
-3.9991837	case	-0.038227044
-4.237261	poster	-0.038227074
-3.1769488	print	-0.056436636
-4.7574086	urllittl	-0.038227074
-3.4170623	holiday	-0.038227044
-3.6711705	doodl	-0.038227074
-3.3572526	action	-0.10993363
-3.486445	dungeonsanddragon	-0.09598447
-3.6711705	urlthewah	-0.038227074
-3.9991837	safeti	-0.1306135
-3.8049188	net	-0.038227074
-4.7574086	edgelordlanesainti	-0.038227074
-4.7574086	ici	-0.038227074
-4.7574086	pole	-0.038227074
-3.8049188	ll	-0.038227074
-2.871747	show	-0.058673978
-4.7574086	outizzie_jellyfish	-0.038227074
-4.7574086	oldbacondav	-0.038227074
-4.7574086	nesvand	-0.038227074
-3.2155004	mine	-0.13377303
-4.7574086	unlicens	-0.038227074
-4.237261	nuclear	-0.038227074
-4.7574086	acceler	-0.038227074
-4.237261	strap	-0.038227074
-4.7574086	backanoth	-0.038227074
-2.9742987	dungeon	-0.14347707
-3.8049188	dragon	-0.07061304
-2.2531888	game	-0.14690524
-3.9991837	goblin	-0.038227044
-4.7574086	archetyp	-0.038227074
-3.9991837	low	-0.038227044
-3.5690594	urlgaohme	-0.038227074
-4.237261	fellow	-0.038227074
-3.1769488	human	-0.057869516
-3.2155004	im	-0.059547205
-4.7574086	alienwitch	-0.038227074
-3.6711705	cult	-0.038227074
-2.9303324	kickstart	-0.04921994
-2.9517593	fail	-0.050281547
-3.8049188	meet	-0.038227074
-3.8049188	goal	-0.038227074
-3.486445	wrote	-0.06393976
-4.237261	lengthi	-0.038227074
-4.237261	postmortem	-0.038227074
-3.3572526	indiegamedev	-0.09391718
-4.7574086	urldamp	-0.038227074
-3.1769488	atm	-0.16853513
-3.4170623	usual	-0.038227074
-4.237261	cycl	-0.038227074
-3.8049188	bridg	-0.038227074
-3.6711705	water	-0.038227074
-3.8049188	path	-0.038227074
-4.7574086	urlfolk	-0.038227074
-3.9991837	brought	-0.038227044
-4.237261	gem	-0.038227074
-3.9991837	snowflak	-0.038227044
-4.237261	feminazi	-0.038227074
-4.7574086	tumbrina	-0.038227074
-3.9991837	safe	-0.038227044
-3.2155004	space	-0.21132502
-2.71926	come	-0.09406747
-4.7574086	urlmarkdistef	-0.038227074
-4.7574086	lanesainti	-0.038227074
-4.7574086	awesomwrite	-0.038227074
-4.7574086	mortem	-0.038227074
-4.7574086	harrow	-0.038227074
-3.3572526	experi	-0.038227044
-3.9991837	plenti	-0.038227044
-4.7574086	guilt	-0.038227074
-3.3572526	wait	-0.038227044
-3.486445	solo	-0.038227074
-3.5690594	project	-0.07544328
-4.7574086	pbrkeogh	-0.038227074
-3.6711705	gba	-0.081968255
-3.9991837	titl	-0.038227044
-3.8049188	averag	-0.038227074
-4.7574086	optim	-0.038227074
-3.9991837	indoor	-0.1306135
-2.8366656	tile	-0.16889396
-3.9991837	plan	-0.038227044
-3.3572526	futur	-0.17094295
-3.9991837	urlcool	-0.038227044
-3.5690594	news	-0.07544328
-3.9991837	lab	-0.038227044
-3.8049188	gf	-0.038227074
-2.8201334	part	-0.058523957
-3.5690594	of	-0.081968255
-4.237261	urlbendrost	-0.038227074
-4.7574086	angharadyeo	-0.038227074
-3.0232224	hard	-0.038227044
-4.7574086	headway	-0.038227074
-3.3572526	nerd	-0.066893004
-4.7574086	headwaybendrost	-0.038227074
-4.7574086	thenbreak	-0.038227074
-3.25781	process	-0.038227044
-3.8049188	cleric	-0.038227074
-4.7574086	assassin	-0.038227074
-4.7574086	darkelf	-0.038227074
-4.7574086	warband	-0.038227074
-3.4170623	win	-0.24194571
-4.7574086	urlend	-0.038227074
-4.7574086	justiceleagu	-0.038227074
-3.8049188	trailer	-0.038227074
-3.486445	favorit	-0.038227074
-4.7574086	jason	-0.038227074
-4.7574086	momoa	-0.038227074
-4.7574086	manallysonhorn	-0.038227074
-4.7574086	abcnew	-0.038227074
-4.7574086	desper	-0.038227074
-3.1415424	enough	-0.077096805
-4.7574086	vac	-0.038227074
-4.237261	seal	-0.038227074
-4.7574086	gluten	-0.038227074
-3.1769488	free	-0.072860464
-3.5690594	sure	-0.038227074
-3.486445	wont	-0.038227074
-4.7574086	starv	-0.038227074
-3.4170623	but	-0.066893004
-4.237261	urlcolestark	-0.038227074
-2.7740073	yeah	-0.053628065
-4.237261	did	-0.18540289
-3.8049188	rush	-0.038227074
-3.486445	poor	-0.038227074
-4.7574086	rental	-0.038227074
-3.3572526	becom	-0.038227044
-3.8049188	challeng	-0.038227074
-4.7574086	pyear	-0.038227074
-3.9991837	warp	-0.038227044
-3.8049188	return	-0.105610125
-2.7457714	women	-0.07881955
-3.108806	line	-0.05519864
-3.108806	includ	-0.038227074
-3.25781	noth	-0.038227074
-3.5690594	etc	-0.081968255
-4.7574086	pi	-0.038227074
-3.4170623	angri	-0.038227074
-3.3572526	cri	-0.066893004
-4.7574086	stranger	-0.038227074
-3.1769488	fight	-0.056436636
-4.7574086	inclusstill	-0.038227074
-4.237261	inclus	-0.038227074
-3.2155004	the	-0.056436636
-3.486445	horror	-0.07061304
-2.9517593	block	-0.06049833
-4.7574086	buttonkateleth	-0.038227074
-3.6711705	subject	-0.09127111
-4.237261	highschool	-0.038227074
-4.7574086	profession	-0.038227074
-3.9991837	pclementine_ford	-0.038227044
-4.7574086	pray	-0.038227074
-4.237261	chant	-0.038227074
-3.9991837	summon	-0.038227044
-4.7574086	daemon	-0.038227074
-4.7574086	pact	-0.038227074
-3.2155004	gone	-0.09086688
-4.7574086	pgaohme	-0.038227074
-4.7574086	coolanoth	-0.038227074
-3.9991837	sorri	-0.038227044
-4.7574086	daili	-0.038227074
-3.8049188	shot	-0.038227074
-4.237261	sharp	-0.038227074
-3.9991837	corner	-0.105610125
-3.8049188	second	-0.038227074
-4.7574086	colo	-0.038227074
-4.7574086	urlunburntwitch	-0.038227074
-4.7574086	ty	-0.038227074
-3.8049188	school	-0.038227074
-2.8538523	sprite	-0.08723166
-3.9991837	un	-0.038227044
-4.7574086	hip	-0.038227074
-4.237261	urlartist	-0.038227074
-3.8049188	creator	-0.038227074
-3.9991837	directli	-0.038227074
-3.3572526	engag	-0.038227044
-3.486445	troll	-0.038227074
-3.1415424	them	-0.18749693
-4.7574086	blockbuttonheyjenbartel	-0.038227074
-4.7574086	cop	-0.038227074
-3.8049188	massiv	-0.038227074
-3.8049188	complaint	-0.038227074
-3.8049188	dare	-0.09127111
-3.2155004	woman	-0.038227044
-4.7574086	marin	-0.038227044
-3.3046913	not	-0.038227074
-4.237261	canon	-0.038227074
-4.7574086	urlthank	-0.038227074
-4.7574086	imgur	-0.038227074
-4.7574086	urlglacier	-0.038227074
-3.108806	base	-0.072860464
-3.5690594	wall	-0.038227044
-4.237261	floor	-0.038227074
-4.237261	partit	-0.038227074
-3.9991837	friday	-0.038227044
-4.7574086	urldidn	-0.038227074
-3.5690594	version	-0.038227074
-3.8049188	releas	-0.038227074
-3.2155004	fact	-0.057869516
-4.7574086	urlprofessor_d	-0.038227074
-3.3572526	twitter	-0.066893004
-3.3572526	seem	-0.10220618
-4.237261	unabl	-0.038227074
-3.9991837	regist	-0.038227044
-3.8049188	phone	-0.038227074
-4.237261	despit	-0.038227074
-3.486445	sever	-0.038227074
-4.7574086	issuchriswarcraft	-0.038227074
-3.0783653	problem	-0.107844815
-3.6711705	australia	-0.09127111
-4.7574086	feudallove	-0.038227074
-3.0232224	dont	-0.111226805
-3.9991837	especi	-0.038227044
-3.486445	attempt	-0.038227074
-4.7574086	minetoday	-0.038227074
-4.7574086	persep	-0.038227074
-4.237261	urlperson	-0.038227074
-4.237261	yesterday	-0.038227074
-4.7574086	reddit	-0.038227074
-3.5690594	more	-0.21772532
-3.1769488	abus	-0.038227074
-4.237261	garbag	-0.038227074
-3.9991837	esp	-0.038227074
-3.108806	type	-0.038227074
-4.237261	defend	-0.038227074
-3.3046913	social	-0.06393976
-4.7574086	criticwhenev	-0.038227074
-3.4170623	sick	-0.038227074
-3.4170623	food	-0.07061304
-4.237261	relat	-0.038227044
-4.7574086	willpow	-0.038227074
-3.4170623	eat	-0.07061304
-3.8049188	junk	-0.038227074
-4.7574086	cookiacrimem	-0.038227074
-3.8049188	anger	-0.038227074
-3.0783653	shit	-0.07471146
-4.7574086	rd	-0.038227074
-3.6711705	realis	-0.038227074
-4.237261	meme	-0.038227074
-4.7574086	beginsick	-0.038227074
-2.8042076	realli	-0.113621116
-4.7574086	surg	-0.038227074
-3.5690594	manag	-0.038227044
-3.8049188	knock	-0.038227074
-3.2155004	build	-0.057869516
-4.7574086	interior	-0.038227074
-3.9991837	transit	-0.038227044
-3.5690594	cave	-0.09758567
-4.7574086	urlwrite	-0.038227074
-3.8049188	these	-0.038227074
-3.5690594	intro	-0.038227044
-4.237261	doesn	-0.18540289
-4.7574086	email	-0.038227074
-3.3572526	current	-0.038227074
-4.7574086	thesedungeon	-0.038227074
-3.8049188	tileset	-0.038227074
-4.237261	onto	-0.038227074
-3.6711705	intern	-0.038227074
-2.788845	gameart	-0.20735645
-4.7574086	urlscienc	-0.038227074
-3.9991837	fiction	-0.038227044
-4.237261	hoop	-0.038227074
-3.8049188	justifi	-0.038227074
-4.237261	wield	-0.038227074
-4.237261	sword	-0.038227074
-4.237261	energi	-0.038227074
-4.237261	weapon	-0.038227074
-4.7574086	warrio	-0.038227074
-4.7574086	urleveryday	-0.038227074
-4.237261	politician	-0.038227074
-4.7574086	blatantli	-0.038227074
-3.25781	lie	-0.038227074
-3.8049188	evid	-0.038227074
-4.237261	shown	-0.038227074
-3.3572526	happen	-0.066893004
-4.7574086	zero	-0.038227074
-4.237261	account	-0.038227074
-3.9991837	lead	-0.038227044
-4.7574086	voter	-0.038227074
-4.237261	ennui	-0.038227074
-4.7574086	apathi	-0.038227074
-3.9991837	hack	-0.038227044
-4.237261	chunk	-0.038227074
-3.6711705	thin	-0.038227074
-3.8049188	section	-0.038227074
-3.5690594	excit	-0.038227074
-4.7574086	pwork	-0.038227074
-4.237261	storm	-0.038227074
-2.9303324	point	-0.06374992
-3.25781	power	-0.061538298
-3.486445	product	-0.07544328
-4.7574086	timehexsteph	-0.038227074
-4.7574086	perma	-0.038227074
-3.6711705	death	-0.038227074
-3.0499191	end	-0.08788037
-4.7574086	inwork	-0.038227074
-4.7574086	verit	-0.038227074
-4.237261	reclus	-0.18540289
-3.0499191	due	-0.038227044
-3.8049188	hell	-0.038227074
-4.237261	from	-0.038227074
-4.7574086	blerg	-0.038227074
-4.7574086	illfinish	-0.038227074
-3.9991837	tunnel	-0.038227074
-3.6711705	room	-0.038227074
-4.237261	divid	-0.038227074
-4.7574086	urlside	-0.038227074
-3.5690594	benefit	-0.038227044
-3.5690594	asset	-0.07061304
-3.3572526	easi	-0.038227074
-3.0499191	map	-0.06393976
-3.4170623	tonight	-0.038227074
-3.8049188	took	-0.038227074
-3.4170623	place	-0.038227074
-4.7574086	dwarven	-0.038227074
-4.7574086	urldebat	-0.038227074
-3.1415424	ad	-0.068639666
-3.9991837	bullet	-0.038227044
-4.237261	urlthe	-0.038227074
-3.6711705	australian	-0.038227074
-3.8049188	racist	-0.038227074
-3.108806	bigot	-0.07061304
-4.7574086	trash	-0.038227074
-3.9991837	fire	-0.038227044
-4.7574086	cartoon	-0.038227074
-2.9517593	now	-0.29485917
-4.7574086	eulogkateleth	-0.038227074
-4.7574086	heyjenbartel	-0.038227074
-3.3572526	rage	-0.06393976
-4.7574086	orwellian	-0.038227074
-4.237261	glamor	-0.18540289
-3.8049188	deal	-0.038227074
-3.8049188	complain	-0.038227074
-3.9991837	spin	-0.038227074
-3.5690594	exploit	-0.038227044
-4.7574086	nobl	-0.038227074
-4.7574086	grrfemalespacemarin	-0.038227074
-4.7574086	rework	-0.038227074
-2.559649	url	-0.092422865
-3.6711705	fund	-0.09127111
-2.9517593	no	-0.2994707
-4.7574086	urlfantasi	-0.038227074
-3.486445	surviv	-0.066893004
-4.7574086	indiegam	-0.038227074
-3.1415424	group	-0.038227074
-4.7574086	flee	-0.038227074
-4.7574086	refuge	-0.038227074
-4.7574086	obliqu	-0.038227074
-3.3572526	view	-0.038227074
-4.7574086	dungeoncrawl	-0.038227074
-4.237261	hint	-0.038227074
-4.7574086	roguelik	-0.038227074
-4.7574086	urltunnel	-0.038227074
-4.7574086	stall	-0.038227074
-3.9991837	pleas	-0.038227074
-4.237261	consid	-0.038227074
-2.8201334	keep	-0.04635634
-3.486445	creat	-0.038227074
-3.9991837	colestark	-0.038227074
-4.7574086	magnifi	-0.038227074
-3.3046913	glass	-0.09127111
-3.9991837	focus	-0.038227044
-4.7574086	scatter	-0.038227074
-3.9991837	horribl	-0.038227044
-4.7574086	pinpoint	-0.038227074
-3.6711705	bare	-0.09127111
-4.7574086	brkeogh	-0.038227044
-3.8049188	total	-0.038227074
-4.7574086	beyond	-0.038227074
-4.237261	air	-0.038227074
-3.9991837	demonstr	-0.038227044
-4.7574086	wrongnaysy_	-0.038227074
-4.237261	wardner	-0.038227074
-4.7574086	introduct	-0.038227074
-4.237261	brutal	-0.038227074
-3.6711705	platform	-0.038227074
-4.237261	coin	-0.038227074
-3.6711705	urltoday	-0.038227074
-3.1415424	updat	-0.082944885
-4.7574086	urlwitch	-0.038227074
-4.7574086	projectwelov	-0.038227074
-4.237261	success	-0.038227074
-4.237261	lil	-0.038227074
-3.6711705	indiedev	-0.038227074
-3.4170623	sunday	-0.19079322
-3.4170623	sometim	-0.066893004
-3.8049188	chibi	-0.09127111
-4.237261	neilhimself	-0.038227074
-4.237261	urlfix	-0.038227074
-3.5690594	background	-0.07544328
-4.237261	dirt	-0.038227074
-4.237261	cosmet	-0.038227074
-3.3046913	prop	-0.038227074
-3.9991837	deco	-0.038227044
-4.7574086	urlnew_wast	-0.038227074
-4.7574086	thankspent	-0.038227074
-3.8049188	fix	-0.038227074
-4.7574086	master	-0.038227074
-3.5690594	smart	-0.25644776
-3.8049188	object	-0.038227074
-3.4170623	roll	-0.07061304
-4.7574086	painless	-0.038227074
-3.9991837	possibl	-0.038227044
-4.7574086	urlmegglatron	-0.038227074
-3.9991837	hey	-0.038227044
-4.7574086	michael	-0.038227074
-3.6711705	brisban	-0.038227074
-3.3046913	drop	-0.038227074
-3.1415424	let	-0.053167224
-4.7574086	urlsilli	-0.038227074
-3.8049188	expect	-0.038227074
-3.8049188	promot	-0.038227074
-4.7574086	compos	-0.038227074
-4.237261	spam	-0.038227074
-4.7574086	surprisbajop	-0.038227074
-4.7574086	goosemangu	-0.038227074
-3.5690594	indi	-0.038227044
-3.486445	dev	-0.038227074
-3.8049188	ks	-0.038227074
-3.1769488	witch	-0.21614952
-3.0783653	live	-0.038227044
-4.237261	share	-0.038227074
-4.237261	urlkickstart	-0.105610125
-3.9991837	goe	-0.038227044
-3.3572526	photoshop	-0.038227044
-4.7574086	batter	-0.038227074
-4.7574086	theredang	-0.038227074
-3.486445	video	-0.13280126
-3.9991837	audio	-0.038227044
-3.9991837	edit	-0.038227044
-3.486445	can	-0.2538747
-3.1415424	watch	-0.038227074
-3.8049188	regular	-0.038227074
-4.7574086	artmani	-0.038227074
-4.237261	gdc	-0.038227074
-3.5690594	event	-0.038227044
-4.237261	apart	-0.038227074
-3.8049188	industri	-0.038227074
-4.237261	stuck	-0.038227074
-4.7574086	lonesomanoth	-0.038227074
-3.9991837	small	-0.038227044
-3.1769488	collect	-0.08658327
-3.9991837	forward	-0.038227074
-3.8049188	soon	-0.038227074
-4.7574086	urlpay	-0.038227074
-4.237261	licens	-0.038227074
-3.8049188	music	-0.038227074
-4.7574086	donestart	-0.038227074
-3.8049188	togeth	-0.038227044
-3.3572526	sound	-0.17094295
-3.0232224	less	-0.06393976
-3.0783653	thewitchcult	-0.08157339
-4.7574086	urlvideo	-0.038227074
-3.8049188	tank	-0.038227074
-4.7574086	shark	-0.038227074
-4.7574086	nibbl	-0.038227074
-4.7574086	feetbootstrap	-0.038227074
-4.7574086	meritocraci	-0.038227074
-3.108806	self	-0.05519864
-3.3046913	man	-0.059547205
-4.7574086	aggrand	-0.038227074
-3.5690594	privileg	-0.038227044
-4.7574086	powerproper	-0.038227074
-3.486445	earli	-0.038227074
-3.486445	reason	-0.038227074
-3.6711705	urlclementine_ford	-0.038227074
-4.7574086	west	-0.038227074
-3.3572526	wow	-0.038227044
-3.6711705	hat	-0.038227074
-4.7574086	youiamchriscont	-0.038227074
-4.7574086	nichboy	-0.038227074
-4.7574086	lowest	-0.038227074
-4.237261	common	-0.038227074
-4.7574086	denomin	-0.038227074
-4.7574086	abc	-0.038227074
-2.998072	us	-0.08147866
-3.108806	real	-0.068639666
-4.7574086	goodanoth	-0.038227074
-2.998072	write	-0.05089315
-4.7574086	snippet	-0.038227074
-4.237261	draft	-0.038227074
-3.8049188	born	-0.038227074
-3.3572526	money	-0.038227044
-4.7574086	polici	-0.038227074
-3.6711705	maker	-0.081968255
-4.7574086	youday	-0.038227074
-3.2155004	almost	-0.059547205
-3.8049188	entir	-0.038227074
-4.7574086	slip	-0.038227074
-4.7574086	urldaughter	-0.038227074
-3.8049188	chapter	-0.09127111
-3.108806	pic	-0.079816096
-3.8049188	ve	-0.049726326
-4.237261	urlmooseplain	-0.038227074
-3.3046913	figur	-0.038227074
-3.4170623	believ	-0.038227044
-3.6711705	report	-0.038227074
-2.7457714	right	-0.106542766
-3.25781	out	-0.24833424
-4.7574086	otherwisspent	-0.038227074
-4.7574086	slide	-0.038227074
-3.486445	readi	-0.038227074
-4.237261	vid	-0.038227074
-4.7574086	urlin	-0.038227074
-3.8049188	visual	-0.038227074
-3.9991837	mock	-0.038227044
-3.1769488	up	-0.33064377
-4.7574086	approx	-0.038227074
-3.9991837	circl	-0.038227044
-4.237261	stress	-0.038227074
-4.7574086	urlapplaud	-0.038227074
-3.6711705	rise	-0.09127111
-3.5690594	term	-0.038227044
-4.237261	fake	-0.038227074
-3.8049188	instantli	-0.038227074
-3.6711705	id	-0.038227074
-3.5690594	pretend	-0.038227044
-3.6711705	argu	-0.038227044
-3.8049188	faith	-0.038227074
-4.237261	invok	-0.038227074
-4.7574086	banish	-0.038227074
-4.7574086	factbusi	-0.038227074
-3.9991837	busi	-0.038227044
-3.8049188	spent	-0.038227074
-3.3572526	level	-0.10220618
-4.237261	mockup	-0.038227074
-3.3572526	bard	-0.15569113
-4.7574086	urltackl	-0.038227074
-4.237261	hidden	-0.038227074
-3.9991837	task	-0.038227044
-4.7574086	verif	-0.038227074
-4.7574086	thingballpark	-0.038227074
-3.8049188	reward	-0.038227074
-3.9991837	feedback	-0.038227044
-3.486445	moment	-0.11979042
-4.7574086	grate	-0.038227074
-4.7574086	thewitchcultre	-0.038227074
-3.9991837	mob	-0.038227044
-3.9991837	proud	-0.038227044
-3.9991837	memori	-0.038227044
-4.7574086	astart	-0.038227074
-4.7574086	womenmarin	-0.038227074
-4.237261	urlthewitchcult	-0.038227074
-4.237261	serious	-0.038227074
-3.9991837	intimid	-0.038227044
-4.7574086	chal	-0.038227074
-4.237261	urlsocial	-0.18540289
-3.25781	media	-0.061538298
-3.486445	feed	-0.07061304
-4.7574086	dire	-0.038227074
-4.7574086	offwent	-0.038227074
-3.4170623	detail	-0.07061304
-3.6711705	area	-0.15170725
-3.8049188	urlwork	-0.038227074
-4.7574086	unpreced	-0.038227074
-3.8049188	undo	-0.038227044
-3.5690594	correct	-0.038227074
-4.7574086	error	-0.038227074
-3.4170623	oft	-0.038227074
-3.0499191	find	-0.053167224
-3.486445	risk	-0.038227074
-4.7574086	advers	-0.038227074
-4.7574086	artlifcomic	-0.038227074
-3.3572526	simpl	-0.038227044
-3.25781	test	-0.038227074
-4.7574086	indecis	-0.038227074
-4.7574086	urlpencil	-0.038227074
-3.5690594	remain	-0.081968255
-2.9303324	tell	-0.061538298
-3.3572526	import	-0.038227044
-4.7574086	urlad	-0.038227074
-4.7574086	led	-0.038227074
-4.7574086	strip	-0.038227074
-4.7574086	bookshelf	-0.038227074
-3.5690594	child	-0.038227044
-3.8049188	so	-0.038227074
-4.7574086	urlreward	-0.038227074
-4.237261	tier	-0.038227074
-4.7574086	digitalcom	-0.038227074
-3.8049188	backstori	-0.038227074
-4.237261	urltri	-0.038227074
-4.7574086	oblivion	-0.038227074
-3.486445	pc	-0.038227074
-3.5690594	found	-0.038227044
-3.3572526	control	-0.066893004
-4.237261	lock	-0.038227074
-3.3572526	pick	-0.038227044
-4.7574086	mous	-0.038227074
-4.7574086	happenpencil	-0.038227074
-3.9991837	spacemarin	-0.1306135
-4.7574086	urlknock	-0.038227074
-4.237261	exampl	-0.038227074
-4.7574086	portrait	-0.038227074
-4.237261	higher	-0.038227074
-4.7574086	urllink	-0.038227074
-4.7574086	abov	-0.038227074
-4.237261	urlfemal	-0.18540289
-4.7574086	workshop	-0.038227074
-4.7574086	spineless	-0.038227074
-4.7574086	pander	-0.038227074
-4.7574086	audiencwrite	-0.038227074
-4.7574086	urlnon	-0.038227074
-3.8049188	cheap	-0.038227074
-4.7574086	urllil	-0.038227074
-3.5690594	help	-0.038227044
-4.7574086	pref	-0.038227074
-3.0783653	given	-0.038227074
-3.6711705	parti	-0.038227044
-4.7574086	indiegamedevidiot	-0.038227074
-4.7574086	everywher	-0.038227074
-3.3046913	throw	-0.038227074
-4.237261	dart	-0.18540289
-3.8049188	crowd	-0.038227074
-4.237261	threw	-0.038227074
-4.7574086	roomgood	-0.038227074
-4.7574086	sadden	-0.038227074
-4.237261	ala	-0.038227074
-4.7574086	dre	-0.038227074
-3.8049188	urlhexsteph	-0.038227074
-3.9991837	commun	-0.038227044
-4.237261	poorer	-0.038227074
-3.2155004	lack	-0.038227044
-3.25781	voic	-0.038227074
-3.0499191	may	-0.050281547
-4.7574086	onemorn	-0.038227074
-3.3572526	tweet	-0.038227044
-4.7574086	port	-0.038227074
-3.9991837	covenhaugr	-0.1306135
-4.237261	flight	-0.038227074
-4.7574086	icaru	-0.038227074
-4.7574086	urlport	-0.038227074
-3.9991837	scene	-0.038227044
-4.7574086	closeup	-0.038227074
-4.237261	urlwip	-0.038227074
-4.237261	hardest	-0.038227074
-3.8049188	environ	-0.038227074
-4.237261	tighten	-0.038227074
-3.8049188	crap	-0.038227074
-4.237261	urlblock	-0.038227074
-4.237261	sourc	-0.038227044
-3.3572526	zone	-0.10859875
-3.9991837	constantli	-0.038227044
-3.8049188	true	-0.038227074
-4.7574086	anymorvoid	-0.038227074
-4.237261	bloom	-0.038227074
-4.7574086	pollen	-0.038227074
-3.9991837	titan	-0.038227044
-4.7574086	blot	-0.038227074
-4.237261	veri	-0.038227074
-4.7574086	urlguess	-0.038227074
-4.7574086	luck	-0.038227074
-4.7574086	harlequin	-0.038227074
-3.486445	fair	-0.21772532
-4.7574086	chao	-0.038227074
-4.7574086	trilog	-0.038227074
-4.7574086	urlsize	-0.038227074
-3.9991837	march	-0.038227044
-4.7574086	glimmer	-0.038227074
-3.6711705	sad	-0.038227074
-3.486445	soul	-0.038227074
-3.8049188	troubl	-0.038227074
-4.7574086	turnout	-0.038227074
-4.7574086	nazi	-0.038227074
-4.7574086	alsobit	-0.038227074
-4.237261	coffin	-0.038227074
-4.237261	boat	-0.038227074
-4.7574086	thewitchcultalmost	-0.038227074
-2.788845	idea	-0.1850123
-4.237261	element	-0.038227074
-3.486445	appear	-0.13280126
-3.6711705	whole	-0.038227074
-4.7574086	situat	-0.038227074
-3.8049188	core	-0.038227074
-3.6711705	stem	-0.038227074
-4.237261	utterli	-0.038227074
-3.4170623	effect	-0.038227044
-4.237261	cinemat	-0.038227074
-4.237261	urlrealli	-0.038227074
-4.7574086	formatfirst	-0.038227074
-4.7574086	storyboard	-0.038227074
-3.9991837	addit	-0.038227044
-3.4170623	exist	-0.07061304
-4.7574086	urlgotten	-0.038227074
-3.486445	hot	-0.13280126
-3.9991837	forc	-0.038227044
-3.9991837	jean	-0.1306135
-4.7574086	gothspent	-0.038227074
-3.6711705	told	-0.038227044
-3.6711705	layer	-0.038227074
-4.7574086	neverwint	-0.038227074
-4.7574086	urlhobbi	-0.038227074
-3.9991837	drow	-0.038227044
-4.7574086	lotr	-0.038227074
-4.7574086	smaller	-0.038227074
-3.9991837	overal	-0.038227044
-3.3572526	face	-0.10993363
-4.237261	q	-0.038227074
-4.7574086	urldead	-0.038227074
-4.237261	restless	-0.038227074
-4.237261	spirit	-0.038227074
-3.0783653	anim	-0.09098573
-4.237261	corps	-0.038227074
-4.237261	craft	-0.038227074
-4.7574086	insect	-0.038227074
-3.5690594	conceptart	-0.061538298
-4.7574086	thewitchcultscream	-0.038227074
-4.7574086	stone	-0.038227074
-4.237261	void	-0.038227074
-4.237261	tick	-0.038227074
-3.5690594	two	-0.038227044
-4.7574086	critter	-0.038227074
-3.5690594	dead	-0.15077852
-3.486445	they	-0.32339457
-4.7574086	equat	-0.038227074
-3.8049188	counter	-0.038227074
-4.7574086	arg	-0.038227074
-3.8049188	finger	-0.038227074
-4.7574086	ear	-0.038227074
-3.25781	bs	-0.061538298
-4.237261	refut	-0.038227074
-4.237261	owe	-0.038227074
-4.7574086	nothorder	-0.038227074
-3.8049188	cost	-0.038227074
-4.7574086	whilelight	-0.038227074
-4.7574086	behold	-0.038227074
-4.7574086	scarab	-0.038227074
-4.237261	peek	-0.038227074
-3.1769488	design	-0.057869516
-4.237261	intract	-0.038227074
-4.7574086	requir	-0.038227074
-4.7574086	urlgov	-0.038227074
-4.7574086	tax	-0.038227074
-4.7574086	payer	-0.038227074
-4.7574086	dinner	-0.038227074
-4.7574086	sport	-0.038227074
-4.7574086	pleasur	-0.038227074
-4.7574086	trip	-0.038227074
-4.7574086	chase	-0.038227074
-4.7574086	debt	-0.038227074
-4.237261	powerless	-0.038227074
-4.7574086	auspolday	-0.038227074
-4.237261	research	-0.038227044
-4.7574086	rigor	-0.038227074
-4.237261	bug	-0.038227074
-4.237261	grasp	-0.038227074
-4.237261	iron	-0.038227074
-4.7574086	maiden	-0.038227074
-4.7574086	urlheyjenbartel	-0.038227074
-3.5690594	struggl	-0.038227044
-4.7574086	hopesoul	-0.038227074
-4.7574086	vault	-0.038227074
-4.7574086	shriek	-0.038227074
-4.237261	sentinel	-0.038227074
-4.237261	pile	-0.038227074
-4.7574086	urlelev	-0.038227074
-3.9991837	pitch	-0.038227044
-3.6711705	fli	-0.038227074
-4.7574086	lay	-0.038227074
-4.7574086	induc	-0.038227074
-4.7574086	fanboy	-0.038227074
-3.6711705	tear	-0.038227074
-4.7574086	parodi	-0.038227074
-3.8049188	protect	-0.038227074
-4.7574086	kpassion	-0.038227074
-3.2155004	fear	-0.105610125
-4.7574086	kipl	-0.038227074
-4.237261	longer	-0.038227074
-3.8049188	kick	-0.038227074
-4.237261	urlnew	-0.038227074
-3.8049188	prefer	-0.038227074
-3.9991837	grant	-0.038227044
-4.7574086	steadi	-0.038227074
-4.7574086	paydigit	-0.038227074
-3.5690594	enjoy	-0.038227074
-3.4170623	rather	-0.038227074
-4.7574086	prepar	-0.038227074
-4.237261	itdigit	-0.038227074
-4.7574086	permit	-0.038227074
-4.7574086	judgementdigit	-0.038227074
-4.237261	knuckl	-0.038227074
-4.7574086	candigit	-0.038227074
-3.5690594	perform	-0.038227044
-4.7574086	bonu	-0.038227074
-4.7574086	physicnew	-0.038227074
-3.2155004	list	-0.057869516
-3.6711705	tm	-0.09127111
-4.7574086	nyl	-0.038227074
-3.6711705	train	-0.038227044
-3.4170623	rememb	-0.038227074
-4.7574086	cardio	-0.038227074
-4.7574086	exchang	-0.038227074
-4.7574086	kg	-0.038227074
-3.9991837	fat	-0.038227044
-4.7574086	musclhappi	-0.038227074
-4.7574086	flue	-0.038227074
-4.7574086	beerdigit	-0.038227074
-3.9991837	relationship	-0.038227044
-3.0232224	bad	-0.038227074
-3.8049188	mental	-0.22029826
-4.7574086	heath	-0.038227074
-3.6711705	improv	-0.038227074
-4.7574086	digitusual	-0.038227074
-3.3572526	xma	-0.038227044
-4.7574086	preset	-0.038227074
-3.6711705	heart	-0.09127111
-3.0783653	fill	-0.053167224
-4.237261	urleveri	-0.038227074
-4.237261	file	-0.038227044
-4.237261	pilot	-0.038227074
-3.6711705	laugh	-0.038227074
-4.7574086	lothand	-0.038227074
-4.7574086	somewhat	-0.038227074
-4.237261	rusti	-0.038227074
-4.7574086	graphit	-0.038227074
-4.7574086	tracer	-0.038227074
-4.7574086	jingl	-0.038227074
-3.5690594	skin	-0.15077852
-4.7574086	loot	-0.038227074
-3.6711705	box	-0.081968255
-4.7574086	urlbox	-0.038227074
-4.7574086	analog	-0.038227074
-4.7574086	warm	-0.038227074
-3.8049188	silk	-0.038227074
-3.6711705	insight	-0.038227074
-4.7574086	nerdi	-0.038227074
-3.8049188	skyrim	-0.038227074
-3.9991837	urlizzie_jellyfish	-0.038227044
-4.237261	gift	-0.038227074
-4.7574086	pooriamchriscont	-0.038227074
-4.237261	pstart	-0.038227074
-4.237261	physic	-0.038227074
-4.237261	gonna	-0.038227044
-4.7574086	nom	-0.038227074
-3.9991837	settl	-0.038227044
-4.7574086	inlittl	-0.038227074
-3.8049188	keen	-0.038227074
-3.4170623	sale	-0.038227074
-4.7574086	volo	-0.038227074
-3.9991837	guid	-0.038227044
-4.237261	calm	-0.038227074
-4.7574086	pfantasi	-0.038227074
-3.9991837	disappoint	-0.038227044
-3.8049188	behind	-0.038227074
-4.7574086	waterfal	-0.038227074
-4.7574086	cavemerri	-0.038227074
-4.7574086	whooooo	-0.038227074
-3.8049188	unless	-0.038227074
-4.237261	east	-0.038227074
-4.7574086	nzcheeseburgerson	-0.038227074
-3.9991837	spider	-0.1306135
-4.7574086	gwen	-0.038227074
-4.7574086	appropri	-0.038227074
-3.6711705	least	-0.038227074
-4.7574086	inapproprigener	-0.038227074
-3.486445	advic	-0.32339457
-4.7574086	backlanesainti	-0.038227074
-4.7574086	urltahinikil	-0.038227074
-4.7574086	pfft	-0.038227074
-3.8049188	bar	-0.038227074
-4.7574086	pfine	-0.038227074
-3.6711705	canva	-0.038227044
-3.9991837	photograph	-0.038227044
-3.108806	side	-0.05519864
-3.3046913	hour	-0.07061304
-4.237261	sculpt	-0.038227074
-4.7574086	nopemay	-0.038227074
-4.7574086	elabor	-0.038227074
-4.237261	journal	-0.038227074
-4.7574086	journey	-0.038227074
-4.7574086	pla	-0.038227074
-4.7574086	urlkon__k	-0.038227074
-4.7574086	shanju	-0.038227074
-4.7574086	scarier	-0.038227074
-4.7574086	tale	-0.038227074
-3.9991837	who	-0.038227044
-4.237261	regardless	-0.038227074
-4.7574086	enoughmarriag	-0.038227074
-3.8049188	equal	-0.038227074
-2.8042076	never	-0.045632895
-3.5690594	understand	-0.038227044
-4.7574086	democrat	-0.038227074
-3.3046913	ok	-0.038227074
-3.3046913	ignor	-0.06393976
-4.7574086	major	-0.038227074
-4.7574086	jobhome	-0.038227074
-3.9991837	alon	-0.038227044
-4.237261	stir	-0.18540289
-4.237261	crazi	-0.038227044
-3.8049188	famili	-0.038227074
-4.7574086	timei	-0.038227074
-4.237261	refresh	-0.038227074
-4.7574086	randomidl	-0.038227074
-3.8049188	breath	-0.038227074
-4.7574086	boot	-0.038227074
-4.7574086	tap	-0.038227074
-3.9991837	nd	-0.038227074
-4.7574086	urlwomen	-0.038227074
-3.8049188	urlmani	-0.038227074
-4.7574086	gentl	-0.038227074
-3.9991837	complet	-0.038227044
-4.7574086	unrel	-0.038227074
-3.9991837	pride	-0.038227074
-4.237261	gear	-0.038227074
-4.237261	weather	-0.038227074
-3.3046913	adventur	-0.07544328
-4.7574086	sweatcorimariedraw	-0.038227074
-3.8049188	cours	-0.038227074
-3.6711705	assum	-0.038227074
-4.237261	consent	-0.038227074
-3.25781	origin	-0.061538298
-4.237261	gang	-0.038227074
-4.7574086	bustercorimariedraw	-0.038227074
-3.9991837	to	-0.038227044
-3.9991837	known	-0.038227044
-3.5690594	ip	-0.081968255
-4.7574086	recognit	-0.038227074
-3.4170623	rare	-0.038227074
-4.7574086	worksteenium	-0.038227074
-4.7574086	worssteenium	-0.038227074
-3.0232224	gener	-0.11580934
-4.237261	trust	-0.18540289
-4.7574086	trope	-0.038227074
-4.7574086	plantoday	-0.038227074
-4.237261	sneak	-0.038227074
-3.8049188	debat	-0.038227074
-3.3572526	walk	-0.038227044
-4.7574086	urlunsubtl	-0.038227074
-4.7574086	idl	-0.038227074
-4.237261	weakest	-0.038227074
-4.7574086	urlok	-0.038227074
-4.237261	diorama	-0.038227074
-4.7574086	flock	-0.038227074
-4.7574086	foam	-0.038227074
-4.7574086	clay	-0.038227074
-4.7574086	eras	-0.038227074
-4.7574086	heap	-0.038227074
-3.108806	issu	-0.077096805
-3.6711705	size	-0.038227044
-4.237261	dirti	-0.038227074
-4.7574086	urlbetter	-0.038227074
-3.9991837	realiz	-0.038227044
-3.9991837	flip	-0.038227044
-4.237261	rig	-0.038227074
-3.486445	protag	-0.07544328
-3.8049188	camera	-0.038227074
-3.6711705	angl	-0.038227074
-4.7574086	urlinterest	-0.038227074
-4.237261	instead	-0.038227074
-4.7574086	daught	-0.038227074
-3.486445	super	-0.038227074
-4.7574086	jellitook	-0.038227074
-4.7574086	health	-0.038227074
-4.237261	urlwhenev	-0.038227074
-3.5690594	stage	-0.081968255
-4.7574086	stump	-0.038227074
-3.5690594	direct	-0.038227044
-4.237261	da	-0.038227074
-4.7574086	urlive	-0.038227074
-4.7574086	vermintid	-0.038227074
-3.3046913	left	-0.06393976
-3.9991837	plu	-0.038227044
-4.237261	mele	-0.038227074
-3.2155004	great	-0.038227074
-4.7574086	funfinish	-0.038227074
-3.486445	textur	-0.038227074
-4.7574086	unknow	-0.038227074
-4.7574086	chunki	-0.038227074
-4.237261	urlart	-0.038227074
-4.7574086	wank	-0.038227044
-4.7574086	peddl	-0.038227074
-4.7574086	compet	-0.038227074
-4.237261	commerci	-0.038227074
-4.7574086	looki	-0.038227074
-4.237261	urldiscostu	-0.18540289
-4.237261	candi	-0.038227074
-4.7574086	store	-0.038227074
-4.7574086	owner	-0.038227074
-4.237261	inevit	-0.038227074
-3.6711705	doubl	-0.038227074
-4.7574086	gonewip	-0.038227074
-3.4170623	must	-0.038227074
-4.237261	maintain	-0.038227074
-4.237261	thick	-0.038227074
-4.7574086	width	-0.038227074
-4.7574086	readabl	-0.038227074
-3.8049188	urldan_vogt	-0.038227074
-3.9991837	bookmark	-0.038227044
-3.5690594	later	-0.038227044
-4.7574086	strike	-0.038227074
-4.7574086	nervcheeseburgerson	-0.038227074
-4.7574086	tanon	-0.038227074
-3.9991837	my	-0.038227044
-4.237261	prob	-0.038227074
-4.7574086	styliz	-0.038227074
-3.6711705	femal	-0.09127111
-4.7574086	urlremap	-0.038227074
-4.7574086	pelt	-0.038227074
-3.8049188	urlcheeseburgerson	-0.105610125
-3.8049188	difficult	-0.038227074
-4.237261	balanc	-0.038227074
-4.7574086	actcheeseburgerson	-0.038227074
-4.7574086	twitchi	-0.038227074
-4.7574086	conscienc	-0.038227074
-4.7574086	atrophi	-0.038227074
-3.25781	dang	-0.09598447
-4.237261	pcheeseburgerson	-0.038227074
-3.3572526	again	-0.57248074
-4.7574086	yaycheeseburgerson	-0.038227074
-3.1415424	tini	-0.23068303
-3.5690594	probabl	-0.038227044
-3.9991837	tweak	-0.1306135
-4.7574086	tomorrowcheeseburgerson	-0.038227074
-3.9991837	poli	-0.038227044
-4.7574086	program	-0.038227074
-3.5690594	date	-0.081968255
-4.7574086	archaicunwrap	-0.038227074
-4.7574086	ao	-0.038227074
-4.7574086	bake	-0.038227074
-3.4170623	anti	-0.11979042
-3.9991837	worst	-0.1306135
-4.7574086	hobbiolder	-0.038227074
-4.7574086	repeat	-0.038227074
-4.237261	cynic	-0.038227074
-4.7574086	disillusion	-0.038227074
-4.237261	avoidalmost	-0.038227074
-4.7574086	unpaid	-0.038227074
-4.7574086	underpaid	-0.038227074
-4.237261	gig	-0.038227074
-4.7574086	boil	-0.038227074
-4.7574086	labormesh	-0.038227074
-4.237261	unwrap	-0.038227074
-3.8049188	remind	-0.038227074
-4.7574086	urlgot	-0.038227074
-4.7574086	deu	-0.038227074
-4.237261	ex	-0.038227074
-4.7574086	unchart	-0.038227074
-3.8049188	target	-0.038227074
-4.7574086	thingnaysy_	-0.038227074
-3.8049188	creation	-0.038227074
-4.7574086	urleffort	-0.038227074
-3.5690594	suck	-0.038227044
-4.7574086	joint	-0.038227074
-4.7574086	urlwow	-0.038227074
-4.237261	sanchurro	-0.038227074
-4.7574086	june	-0.038227074
-3.8049188	servic	-0.038227074
-4.7574086	wtfpolycountpir	-0.038227074
-3.8049188	cheeseburgerson	-0.038227074
-3.9991837	easier	-0.038227044
-3.9991837	chicken	-0.1306135
-4.7574086	leg	-0.038227074
-3.9991837	urlnaysy_	-0.038227074
-3.6711705	certain	-0.038227074
-3.6711705	all	-0.09127111
-4.7574086	dnddescript	-0.038227074
-4.237261	hut	-0.038227074
-4.237261	heard	-0.038227074
-4.7574086	baba	-0.038227074
-4.7574086	yaga	-0.038227074
-4.7574086	timefail	-0.038227074
-4.237261	forgotten	-0.038227074
-3.8049188	connect	-0.038227074
-4.7574086	shoulder	-0.038227074
-4.7574086	torso	-0.038227074
-4.7574086	grrr	-0.038227074
-4.7574086	complic	-0.038227074
-3.9991837	onli	-0.1306135
-4.237261	urllast	-0.038227074
-4.237261	while	-0.038227074
-4.7574086	inarriv	-0.038227074
-4.7574086	iteven	-0.038227074
-4.237261	pressur	-0.038227074
-4.237261	career	-0.038227074
-4.7574086	alchemist	-0.038227074
-4.237261	rear	-0.038227074
-3.9991837	children	-0.038227044
-4.7574086	adventurerwhowantsital	-0.038227074
-3.9991837	urlwatch	-0.038227044
-4.237261	independ	-0.038227074
-4.237261	silli	-0.038227074
-4.7574086	romp	-0.038227074
-3.9991837	descript	-0.038227044
-4.7574086	wordvein	-0.038227074
-4.7574086	crossyroad	-0.038227074
-4.7574086	failybrak	-0.038227074
-4.237261	remast	-0.038227074
-4.7574086	shouti	-0.038227074
-4.7574086	wordcheeseburgerson	-0.038227074
-4.7574086	wigginprotag	-0.038227074
-4.7574086	ortho	-0.038227074
-3.5690594	save	-0.081968255
-3.486445	yay	-0.07061304
-4.7574086	responsbit	-0.038227074
-3.3046913	question	-0.038227074
-4.7574086	aris	-0.038227074
-4.7574086	bipe	-0.038227074
-4.7574086	hrmmmm	-0.038227074
-3.9991837	wee	-0.038227044
-4.237261	skeleton	-0.038227074
-3.9991837	hi	-0.038227044
-3.9991837	although	-0.038227044
-4.237261	nowaday	-0.038227074
-4.7574086	urlkind	-0.038227074
-3.6711705	awesom	-0.038227074
-4.7574086	urlsprite	-0.038227074
-3.9991837	construct	-0.038227044
-3.6711705	speed	-0.09127111
-4.7574086	subsequ	-0.038227074
-4.237261	frame	-0.038227074
-4.7574086	gain	-0.038227074
-3.9991837	logo	-0.038227044
-4.237261	sigil	-0.038227044
-3.8049188	brand	-0.038227074
-4.7574086	urlmovi	-0.038227074
-3.5690594	au	-0.038227044
-3.9991837	nation	-0.038227044
-4.7574086	anthem	-0.038227074
-4.7574086	sung	-0.038227074
-4.7574086	tortuous	-0.038227074
-3.486445	emot	-0.038227074
-3.2155004	everyon	-0.038227044
-3.2155004	white	-0.072860464
-3.4170623	wtf	-0.17094295
-4.7574086	australiaattend	-0.038227074
-4.7574086	protest	-0.038227074
-4.7574086	rent	-0.038227074
-4.237261	lefti	-0.038227074
-4.7574086	dole	-0.038227074
-4.7574086	bludger	-0.038227074
-3.0499191	care	-0.07072343
-4.7574086	causfind	-0.038227074
-4.7574086	armi	-0.038227074
-4.7574086	poorli	-0.038227074
-3.5690594	written	-0.038227044
-3.486445	girl	-0.038227074
-4.7574086	cannon	-0.038227074
-4.7574086	damnendoperez	-0.038227074
-3.1415424	inspir	-0.079816096
-4.237261	goth	-0.038227074
-3.8049188	cultur	-0.038227074
-4.237261	alchemi	-0.18540289
-3.9991837	hang	-0.038227044
-4.7574086	translat	-0.038227074
-4.7574086	tarrot	-0.038227074
-4.7574086	nameshort	-0.038227074
-4.7574086	convey	-0.038227074
-3.9991837	natur	-0.038227044
-3.6711705	magic	-0.038227074
-3.9991837	urllook	-0.038227044
-4.7574086	witchi	-0.038227074
-3.6711705	mark	-0.038227074
-3.3572526	sit	-0.066893004
-4.7574086	logore	-0.038227074
-4.7574086	urlpromo	-0.038227074
-4.237261	urlsadden	-0.038227074
-4.7574086	result	-0.038227074
-3.8049188	bigotri	-0.038227074
-4.7574086	misogyni	-0.038227074
-3.5690594	scienc	-0.15077852
-4.7574086	iti	-0.038227074
-4.7574086	admir	-0.038227074
-4.237261	elect	-0.038227044
-4.7574086	urlnichboy	-0.038227074
-3.9991837	scare	-0.038227044
-4.7574086	sickchang	-0.038227074
-3.8049188	pain	-0.038227074
-3.9991837	demon	-0.038227074
-3.9991837	sooth	-0.038227044
-4.7574086	surpristweet	-0.038227074
-4.237261	halfbrick	-0.038227074
-4.7574086	rlan	-0.038227074
-4.7574086	gazunta	-0.038227074
-4.7574086	ign	-0.038227074
-4.7574086	brief	-0.038227074
-4.7574086	kotakuau	-0.038227074
-4.7574086	serv	-0.038227074
-4.7574086	setkotaku	-0.038227074
-3.8049188	compani	-0.038227074
-3.9991837	prior	-0.038227044
-4.237261	fruitninja	-0.038227074
-4.7574086	urllost	-0.038227074
-4.7574086	su	-0.038227074
-4.7574086	originsometim	-0.038227074
-3.3046913	weekend	-0.038227074
-2.871747	gcap	-0.29948843
-4.7574086	urlback	-0.038227074
-4.7574086	invoic	-0.038227074
-3.486445	promo	-0.116150066
-3.3572526	name	-0.038227044
-4.7574086	cafe	-0.038227074
-3.8049188	matter	-0.038227074
-3.486445	pictur	-0.038227074
-4.7574086	surprispantmong	-0.038227074
-4.7574086	printdigit	-0.038227074
-4.237261	seek	-0.038227074
-3.8049188	threat	-0.038227074
-4.7574086	starvatnaysy_	-0.038227074
-4.7574086	poriippu	-0.038227074
-4.7574086	buster	-0.038227074
-4.7574086	coolpeopl	-0.038227074
-3.8049188	sjw	-0.038227074
-4.237261	femin	-0.038227074
-3.486445	profil	-0.07544328
-3.1769488	follow	-0.07544328
-4.7574086	blockhome	-0.038227074
-4.7574086	sleptweird	-0.038227074
-4.7574086	krone	-0.038227074
-4.7574086	exhibit	-0.038227074
-4.7574086	acmi	-0.038227074
-3.9991837	migw	-0.049726326
-4.7574086	digitfeel	-0.038227074
-4.7574086	renew	-0.038227074
-4.237261	peer	-0.038227074
-4.7574086	digitthu	-0.038227074
-4.237261	messag	-0.038227074
-4.7574086	supportfind	-0.038227074
-4.7574086	signific	-0.038227074
-4.237261	identifi	-0.038227074
-4.237261	fame	-0.038227074
-4.7574086	digitdon	-0.038227074
-4.7574086	unnecessari	-0.038227074
-4.237261	battl	-0.038227074
-4.7574086	digitkickstart	-0.038227074
-3.9991837	realist	-0.038227044
-4.237261	desir	-0.038227074
-4.7574086	stretch	-0.038227074
-4.7574086	evangelis	-0.038227074
-4.7574086	digitadd	-0.038227074
-4.237261	doabl	-0.038227074
-3.8049188	wise	-0.038227074
-4.7574086	digitplayabl	-0.038227074
-4.237261	demo	-0.038227074
-4.237261	favour	-0.038227074
-4.237261	host	-0.038227074
-4.7574086	somewher	-0.038227074
-3.8049188	fast	-0.105610125
-4.7574086	reliablkickstart	-0.038227074
-3.9991837	feb	-0.1306135
-4.7574086	digitkick	-0.038227074
-4.7574086	starter	-0.038227074
-4.7574086	restart	-0.038227074
-4.7574086	retain	-0.038227074
-3.9991837	previou	-0.038227044
-4.7574086	digitperson	-0.038227074
-3.9991837	clear	-0.038227044
-4.237261	split	-0.038227074
-4.7574086	digitstart	-0.038227074
-3.1415424	player	-0.038227074
-4.237261	press	-0.038227074
-3.8049188	leav	-0.038227074
-3.9991837	pre	-0.038227044
-4.7574086	digitprepar	-0.038227074
-3.8049188	alter	-0.038227074
-3.9991837	receiv	-0.038227044
-4.7574086	digiteveryon	-0.038227074
-4.7574086	urlslide	-0.038227074
-4.7574086	emphasi	-0.038227074
-3.9991837	green	-0.038227044
-4.237261	fit	-0.038227074
-3.8049188	market	-0.038227074
-4.7574086	integr	-0.038227074
-3.8049188	team	-0.038227074
-3.6711705	awar	-0.038227074
-3.9991837	tone	-0.038227044
-4.7574086	digitmarket	-0.038227074
-4.237261	gestalt	-0.038227074
-3.486445	everyth	-0.038227074
-3.6711705	posit	-0.038227074
-4.7574086	digitsession	-0.038227074
-4.7574086	strategi	-0.038227074
-4.7574086	spellbook	-0.038227074
-4.7574086	digitday	-0.038227074
-4.7574086	seedi	-0.038227074
-3.6711705	forgot	-0.038227074
-4.7574086	resembl	-0.038227074
-4.7574086	noterememb	-0.038227074
-3.6711705	valu	-0.038227074
-3.9991837	budget	-0.038227044
-4.237261	sake	-0.038227074
-4.7574086	digitnext	-0.038227074
-4.7574086	digitrealis	-0.038227074
-4.7574086	drift	-0.038227074
-3.8049188	pipelin	-0.038227074
-4.7574086	digitrememb	-0.038227074
-3.8049188	yourself	-0.105610125
-4.7574086	digitkeep	-0.038227074
-3.5690594	count	-0.038227044
-4.7574086	larger	-0.038227074
-4.7574086	uv	-0.038227074
-3.8049188	focu	-0.105610125
-4.237261	feet	-0.038227074
-4.237261	digitfirst	-0.038227074
-3.4170623	thu	-0.066893004
-3.9991837	render	-0.1306135
-4.7574086	suffic	-0.038227074
-4.7574086	digitmake	-0.038227074
-4.237261	effici	-0.038227074
-4.7574086	digitcement	-0.038227074
-4.7574086	forth	-0.038227074
-4.7574086	adher	-0.038227074
-4.7574086	digitstudi	-0.038227074
-3.8049188	inform	-0.038227074
-4.237261	abstract	-0.038227074
-4.7574086	fate	-0.038227074
-4.237261	fed	-0.038227074
-4.7574086	digitnever	-0.038227074
-3.9991837	nose	-0.038227044
-3.5690594	tool	-0.038227044
-4.7574086	sooner	-0.038227074
-4.7574086	digitagain	-0.038227074
-4.237261	defin	-0.038227044
-3.8049188	limit	-0.038227074
-4.7574086	digitlean	-0.038227074
-4.7574086	strength	-0.038227074
-4.7574086	digitaim	-0.038227074
-3.3572526	mean	-0.038227044
-4.7574086	digittone	-0.038227074
-4.7574086	foundationthat	-0.038227074
-4.7574086	built	-0.038227074
-4.7574086	digitnow	-0.038227074
-4.7574086	digitlimit	-0.038227074
-3.6711705	within	-0.09127111
-3.4170623	often	-0.038227074
-4.7574086	strengthen	-0.038227074
-4.7574086	digitgave	-0.038227074
-4.7574086	commit	-0.038227074
-4.7574086	digitgcap	-0.038227074
-3.9991837	urlnever	-0.038227044
-4.7574086	dilut	-0.038227074
-4.237261	theme	-0.038227074
-4.7574086	digitclear	-0.038227074
-4.7574086	hook	-0.038227074
-4.237261	quickli	-0.038227074
-3.5690594	with	-0.15077852
-4.7574086	digittime	-0.038227074
-4.237261	climb	-0.038227074
-4.7574086	beanstalk	-0.038227074
-3.3046913	talk	-0.038227074
-3.9991837	saw	-0.038227044
-4.7574086	goodgam	-0.038227074
-4.7574086	digitcool	-0.038227074
-4.237261	vision	-0.038227074
-4.7574086	bewar	-0.038227074
-4.7574086	quicksand	-0.038227074
-4.7574086	digitconfer	-0.038227074
-3.486445	off	-0.13280126
-3.4170623	alreadi	-0.038227074
-4.7574086	gopack	-0.038227074
-4.7574086	irregular	-0.038227074
-4.7574086	gcapiamchriscont	-0.038227074
-4.7574086	linger	-0.038227074
-4.7574086	pax	-0.038227074
-4.7574086	parttell	-0.038227074
-4.7574086	rabbit	-0.038227074
-4.7574086	hole	-0.038227074
-4.7574086	fork	-0.038227074
-4.7574086	tuft	-0.038227074
-4.237261	grass	-0.038227074
-4.7574086	pamp	-0.038227074
-4.237261	modern	-0.038227074
-4.237261	remak	-0.038227074
-3.9991837	warrior	-0.038227044
-3.6711705	letter	-0.038227074
-4.237261	spawn	-0.038227074
-4.237261	liquid	-0.038227074
-3.8049188	gold	-0.105610125
-4.7574086	recreat	-0.038227074
-3.9991837	drew	-0.038227044
-3.4170623	motiv	-0.07061304
-4.7574086	thingleilzahra	-0.038227074
-3.9991837	discuss	-0.038227044
-3.9991837	own	-0.038227044
-4.7574086	outleilzahra	-0.038227074
-4.237261	properti	-0.038227044
-3.4170623	opinion	-0.038227074
-4.7574086	falsleilzahra	-0.038227074
-3.6711705	laureningram	-0.038227074
-3.5690594	law	-0.038227044
-4.7574086	urlleilzahra	-0.038227074
-4.7574086	belong	-0.038227074
-4.7574086	subjectdan_vogt	-0.038227074
-3.8049188	sort	-0.038227074
-3.5690594	appar	-0.07061304
-3.5690594	screen	-0.07544328
-3.9991837	queensland	-0.105610125
-3.8049188	paid	-0.038227074
-4.237261	ticket	-0.038227074
-4.7574086	refund	-0.038227074
-3.3046913	surpris	-0.06393976
-4.7574086	pdetail	-0.038227074
-3.9991837	protagonist	-0.1306135
-4.7574086	urlahh	-0.038227074
-4.7574086	lizard	-0.038227074
-4.7574086	garru	-0.038227074
-3.8049188	tip	-0.038227074
-4.7574086	arguabl	-0.038227074
-3.9991837	arttip	-0.038227044
-4.7574086	digitalarttip	-0.038227074
-4.237261	locat	-0.038227074
-4.7574086	urlyay	-0.038227074
-4.7574086	urlgoodgametv	-0.038227074
-4.7574086	coverag	-0.038227074
-4.7574086	gcapconfdecid	-0.038227074
-3.8049188	dislik	-0.038227074
-3.5690594	explor	-0.038227044
-4.237261	urlthumbnail	-0.18540289
-4.7574086	urlnerd	-0.038227074
-3.6711705	abil	-0.038227074
-4.237261	intend	-0.038227074
-4.7574086	scenic	-0.038227074
-3.5690594	failur	-0.038227074
-4.7574086	footpath	-0.038227074
-3.9991837	exit	-0.038227044
-4.7574086	shopthewitchcult	-0.038227074
-2.871747	code	-0.057869516
-3.486445	move	-0.038227074
-4.7574086	collid	-0.038227074
-4.7574086	drag	-0.038227074
-4.7574086	placeholdtini	-0.038227074
-3.5690594	fantasi	-0.15077852
-4.237261	cute	-0.18540289
-3.4170623	class	-0.038227074
-4.7574086	urlkidsequ	-0.038227074
-4.7574086	archaic	-0.038227074
-4.7574086	speaknaysy_	-0.038227074
-4.7574086	awargot	-0.038227074
-4.7574086	yaygive	-0.038227074
-4.7574086	reblog	-0.038227074
-3.9991837	annoy	-0.038227044
-4.237261	wast	-0.038227074
-4.7574086	recap	-0.038227074
-4.7574086	summarbajop	-0.038227074
-4.7574086	cart	-0.038227074
-4.7574086	dint	-0.038227074
-4.237261	aspect	-0.038227074
-4.7574086	supporttfa	-0.038227074
-3.8049188	paladin	-0.105610125
-3.9991837	pathfind	-0.08617216
-3.8049188	reach	-0.038227074
-4.7574086	livegaohme	-0.038227074
-4.237261	retro	-0.038227074
-4.7574086	blocki	-0.038227074
-4.7574086	goodquick	-0.038227074
-4.7574086	wednesday	-0.038227074
-4.7574086	digitalart	-0.038227074
-4.7574086	urlwould	-0.038227074
-4.7574086	unitigoogl	-0.038227074
-4.237261	ma	-0.038227074
-4.7574086	urlink	-0.038227074
-3.4170623	tfa	-0.07061304
-4.7574086	urlsmall	-0.038227074
-3.9991837	victori	-0.1306135
-4.7574086	math	-0.038227074
-3.9991837	rel	-0.038227044
-4.7574086	deg	-0.038227074
-3.9991837	rotat	-0.038227044
-4.7574086	g	-0.038227074
-3.9991837	urlgo	-0.038227044
-4.7574086	confer	-0.038227074
-4.7574086	melbourn	-0.038227074
-4.7574086	contactit	-0.038227074
-3.4170623	wrong	-0.19079322
-3.9991837	articl	-0.038227044
-4.7574086	australiandan_vogt	-0.038227074
-4.7574086	ineffici	-0.038227074
-4.7574086	ppaladin	-0.038227074
-4.7574086	urlprobabl	-0.038227074
-4.7574086	visibl	-0.038227074
-4.7574086	conditturn	-0.038227074
-3.5690594	check	-0.038227044
-4.7574086	updatpaint	-0.038227074
-4.7574086	gnoll	-0.038227074
-4.7574086	toee	-0.038227074
-3.486445	qualiti	-0.07544328
-4.7574086	plastic	-0.038227074
-4.7574086	skele	-0.038227074
-3.3572526	urlecksma	-0.05519864
-4.7574086	outrag	-0.038227074
-3.9991837	hurt	-0.038227044
-4.7574086	rando	-0.038227074
-3.9991837	cuck	-0.038227044
-3.9991837	insecur	-0.038227044
-3.9991837	deep	-0.038227044
-4.7574086	pavoid	-0.038227074
-4.7574086	urgh	-0.038227074
-4.7574086	changleeshahannigan	-0.038227074
-3.9991837	cheat	-0.038227044
-3.486445	funni	-0.07061304
-4.7574086	photographi	-0.038227074
-3.486445	form	-0.038227074
-4.7574086	itself	-0.038227074
-4.7574086	itlaureningram	-0.038227074
-3.8049188	shut	-0.038227074
-3.3046913	feminist	-0.038227044
-3.9991837	christian	-0.038227044
-4.237261	woe	-0.038227074
-4.7574086	facepalmhexsteph	-0.038227074
-4.237261	sign	-0.038227074
-3.5690594	pointless	-0.081968255
-4.7574086	equival	-0.038227074
-4.7574086	loyalti	-0.038227074
-4.7574086	bloatcheeseburgerson	-0.038227074
-4.7574086	muchpeopl	-0.038227074
-4.7574086	reinterpret	-0.038227074
-4.7574086	statement	-0.038227074
-4.7574086	against	-0.038227074
-4.7574086	malici	-0.038227074
-4.7574086	stupidgaohme	-0.038227074
-3.8049188	sell	-0.038227074
-4.7574086	foreign	-0.038227074
-4.7574086	stuffnext	-0.038227074
-3.8049188	ground	-0.038227074
-4.7574086	forgiv	-0.038227074
-4.7574086	postfinish	-0.038227074
-3.9991837	mega	-0.30310738
-3.6711705	sheet	-0.081968255
-4.7574086	urlhome	-0.038227074
-4.7574086	pexplor	-0.038227074
-4.7574086	urlcouldn	-0.038227074
-3.486445	tire	-0.27571726
-4.7574086	becau	-0.038227074
-4.7574086	urlinspir	-0.038227074
-4.237261	dragonag	-0.038227074
-4.7574086	attitud	-0.038227074
-4.7574086	ju	-0.038227074
-4.7574086	troglodyt	-0.038227074
-4.7574086	cm	-0.038227074
-4.7574086	urlshot	-0.038227074
-4.237261	submiss	-0.038227074
-3.9991837	freelanc	-0.038227044
-4.7574086	wotc	-0.038227074
-4.7574086	attemptfinish	-0.038227074
-4.7574086	goodli	-0.038227074
-3.4170623	number	-0.038227074
-3.2155004	round	-0.1129081
-3.8049188	myself	-0.038227074
-3.3572526	will	-0.10993363
-4.7574086	railroad	-0.038227074
-3.5690594	fallout	-0.60413736
-4.237261	log	-0.038227074
-3.8049188	crash	-0.038227074
-3.9991837	xbox	-0.1306135
-4.7574086	releasno	-0.038227074
-4.7574086	unlimit	-0.038227074
-4.7574086	practic	-0.038227074
-3.9991837	pay	-0.038227044
-4.7574086	squatthing	-0.038227074
-4.7574086	produc	-0.038227074
-4.7574086	strict	-0.038227074
-4.7574086	deadlinmonday	-0.038227074
-3.9991837	decor	-0.30310738
-3.6711705	consist	-0.038227074
-4.7574086	buckit	-0.038227074
-4.237261	parcel	-0.038227074
-3.6711705	mail	-0.038227044
-3.6711705	song	-0.038227074
-4.7574086	ebay	-0.038227074
-4.7574086	purchassprite	-0.038227074
-4.7574086	bog	-0.038227074
-4.7574086	urltea	-0.038227074
-3.486445	coffe	-0.038227074
-4.7574086	broth	-0.038227074
-4.7574086	nightthoughtnew	-0.038227074
-3.6711705	bought	-0.038227044
-4.7574086	joy	-0.038227074
-3.8049188	abl	-0.038227074
-3.9991837	pquick	-0.30310738
-4.237261	urlbit	-0.038227074
-4.7574086	urlgreat	-0.038227074
-4.7574086	spriten	-0.038227074
-4.7574086	urlilsemul	-0.038227074
-4.7574086	thankbutcher__	-0.038227074
-4.7574086	thankless	-0.038227074
-4.7574086	urlprogress	-0.038227074
-4.7574086	horrend	-0.038227074
-4.7574086	baneyesterday	-0.038227074
-4.7574086	wooden	-0.038227074
-4.7574086	skirt	-0.038227074
-4.7574086	board	-0.038227074
-4.7574086	portabl	-0.038227074
-4.237261	urlbought	-0.038227074
-4.7574086	citadel	-0.038227074
-4.7574086	skink	-0.038227074
-4.7574086	kobold	-0.038227074
-4.7574086	nerdamassingham	-0.038227074
-4.7574086	whoa	-0.038227074
-4.7574086	congratul	-0.038227074
-4.7574086	daygaohme	-0.038227074
-4.7574086	perceiv	-0.038227074
-4.7574086	romantstart	-0.038227074
-3.9991837	color	-0.038227044
-4.7574086	slowli	-0.038227074
-3.9991837	red	-0.105610125
-3.9991837	bubbl	-0.038227044
-4.237261	urlrashinat	-0.038227074
-4.7574086	imo	-0.038227074
-4.7574086	urlelon	-0.038227074
-4.7574086	musk	-0.038227074
-4.237261	reveal	-0.038227074
-4.7574086	reduc	-0.038227074
-3.8049188	asshol	-0.038227074
-3.8049188	earth	-0.038227074
-3.9991837	shoot	-0.038227044
-4.7574086	marscolonikateleth	-0.038227074
-4.7574086	heather	-0.038227074
-4.7574086	semin	-0.038227074
-4.7574086	highschoolquick	-0.038227074
-3.6711705	ill	-0.038227074
-4.7574086	urlmini	-0.038227074
-3.9991837	eas	-0.038227044
-4.237261	transpar	-0.038227074
-4.7574086	urlanatomi	-0.038227074
-3.4170623	refer	-0.038227074
-4.7574086	statu	-0.038227074
-3.9991837	arriv	-0.038227044
-4.237261	uk	-0.038227074
-4.7574086	artistaid	-0.038227074
-4.7574086	urltessfowl	-0.038227074
-4.237261	th	-0.038227074
-4.7574086	urldescribeyourselfin	-0.038227074
-4.7574086	fictionalcharact	-0.038227074
-4.237261	ie	-0.038227044
-4.7574086	dabbl	-0.038227074
-4.7574086	thoughlast	-0.038227074
-3.9991837	proper	-0.038227044
-3.8049188	ass	-0.038227074
-3.8049188	regret	-0.038227074
-4.7574086	nothmade	-0.038227074
-4.7574086	aliv	-0.038227074
-4.237261	utter	-0.038227074
-4.7574086	cesspit	-0.038227074
-3.9991837	miss	-0.038227044
-4.7574086	blehshort	-0.038227074
-4.7574086	brain	-0.038227074
-4.7574086	roadtrip	-0.038227074
-4.237261	urlahhh	-0.038227074
-4.237261	mode	-0.038227074
-4.7574086	displeas	-0.038227074
-4.7574086	playerave	-0.038227074
-4.7574086	con	-0.038227074
-4.7574086	sore	-0.038227074
-4.7574086	thingstill	-0.038227074
-4.7574086	fiddl	-0.038227074
-4.7574086	urlre	-0.038227074
-4.237261	oversea	-0.038227074
-3.9991837	avail	-0.038227074
-4.7574086	dissatisfi	-0.038227074
-3.9991837	dull	-0.1306135
-4.7574086	urlstartrek	-0.038227074
-4.7574086	nextgen	-0.038227074
-3.486445	picard	-0.038227044
-4.7574086	fairer	-0.038227074
-4.7574086	amfinish	-0.038227074
-3.9991837	dress	-0.038227044
-3.2155004	gamedev	-0.0904291
-3.486445	hear	-0.038227074
-4.7574086	greyhound	-0.038227074
-3.8049188	trap	-0.105610125
-4.7574086	urlchip	-0.038227074
-3.8049188	chip	-0.22029826
-4.237261	urlkateleth	-0.038227044
-4.7574086	propheci	-0.038227074
-4.7574086	cement	-0.038227074
-4.7574086	inca	-0.038227074
-4.7574086	mummi	-0.038227074
-4.7574086	sympathet	-0.038227074
-4.7574086	villein	-0.038227074
-4.7574086	yeahnoth	-0.038227074
-4.7574086	urlsketch	-0.038227074
-4.7574086	artmonkey	-0.038227074
-4.7574086	urlmade	-0.038227074
-4.7574086	glue	-0.038227074
-4.7574086	index	-0.038227074
-4.7574086	thedit	-0.038227074
-4.237261	itch	-0.038227074
-4.7574086	yearli	-0.038227074
-4.7574086	itsketch	-0.038227074
-4.7574086	urlhyvemynd	-0.038227074
-3.6711705	countri	-0.038227074
-4.7574086	infring	-0.038227074
-4.7574086	urlthink	-0.038227074
-4.237261	decent	-0.038227074
-4.7574086	languish	-0.038227074
-4.7574086	obscur	-0.038227074
-4.7574086	fromhit	-0.038227074
-4.237261	discov	-0.038227074
-3.5690594	sleep	-0.038227044
-4.7574086	cancel	-0.038227074
-4.7574086	savequick	-0.038227074
-4.7574086	urlsleepi	-0.038227074
-3.5690594	open	-0.038227044
-4.7574086	nightwinnersusedrug	-0.038227074
-4.237261	radio	-0.038227074
-3.9991837	pull	-0.038227044
-4.7574086	playlistdnd	-0.038227074
-3.486445	clean	-0.038227074
-3.6711705	whi	-0.17726652
-3.5690594	hair	-0.07544328
-4.7574086	jellilook	-0.038227074
-4.7574086	distribut	-0.038227074
-3.5690594	pack	-0.038227044
-4.7574086	donat	-0.038227074
-4.7574086	button	-0.038227074
-3.5690594	anyon	-0.038227074
-4.7574086	recommendgeorgmir	-0.038227074
-4.7574086	yebunch	-0.038227074
-4.7574086	urllive	-0.038227074
-4.7574086	crack	-0.038227074
-3.9991837	grab	-0.038227044
-4.237261	materi	-0.038227074
-4.7574086	haha	-0.038227074
-4.7574086	thankwant	-0.038227074
-4.7574086	outdoor	-0.038227074
-4.7574086	urlrust	-0.038227074
-3.9991837	turret	-0.038227044
-3.8049188	uniti	-0.038227074
-4.7574086	urlim	-0.038227074
-4.237261	dc	-0.038227074
-4.7574086	swamp	-0.038227074
-4.7574086	enchantress	-0.038227074
-4.237261	absolut	-0.038227074
-3.6711705	bomb	-0.09127111
-4.237261	forese	-0.038227074
-3.8049188	fanart	-0.038227074
-4.7574086	suicidesquadre	-0.038227074
-4.237261	multi	-0.038227074
-4.237261	gut	-0.038227074
-4.7574086	employ	-0.038227074
-4.237261	affect	-0.038227074
-4.237261	urlrememb	-0.038227074
-3.9991837	soundtrack	-0.038227044
-4.7574086	ideatalzir	-0.038227074
-4.7574086	stalker	-0.038227074
-4.7574086	geordi	-0.038227074
-3.6711705	cherri	-0.17726652
-4.237261	cake	-0.038227074
-3.9991837	yell	-0.038227044
-4.7574086	findbehindtheston	-0.038227074
-4.7574086	apprecifrostedart	-0.038227074
-4.7574086	yougrass	-0.038227074
-4.7574086	tree	-0.038227074
-4.237261	goodgametv	-0.038227074
-4.7574086	objectsgam	-0.038227074
-3.8049188	jelli	-0.09127111
-4.7574086	roundhmmmm	-0.038227074
-3.6711705	urlbajop	-0.038227074
-3.9991837	supa	-0.038227044
-3.486445	top	-0.038227074
-3.8049188	weight	-0.038227074
-4.237261	catch	-0.038227074
-4.7574086	stationari	-0.038227074
-4.7574086	impactbajop	-0.038227074
-4.7574086	howev	-0.038227074
-4.237261	caveat	-0.038227074
-4.237261	rack	-0.038227074
-4.7574086	luggag	-0.038227074
-4.237261	huge	-0.038227074
-4.7574086	factorplay	-0.038227074
-3.3572526	overwatch	-0.066893004
-4.7574086	quitter	-0.038227074
-4.237261	strong	-0.038227074
-4.7574086	snipe	-0.038227074
-3.3046913	comment	-0.06393976
-3.8049188	sketchi	-0.038227074
-4.237261	resolut	-0.038227074
-4.237261	deepli	-0.038227074
-4.237261	satisfi	-0.038227074
-3.6711705	outsid	-0.038227074
-4.237261	urladdit	-0.038227074
-4.7574086	pside	-0.038227074
-4.7574086	voyag	-0.038227074
-4.237261	impress	-0.038227074
-3.8049188	captain	-0.038227074
-4.7574086	janeway	-0.038227074
-3.8049188	suffer	-0.038227074
-3.8049188	obviou	-0.038227074
-4.7574086	nighttalzir	-0.038227074
-3.9991837	neither	-0.038227044
-4.7574086	fetish	-0.038227074
-4.7574086	thingfinal	-0.038227074
-3.4170623	choic	-0.038227074
-4.7574086	urlreason	-0.038227074
-4.237261	member	-0.038227074
-4.237261	scientist	-0.038227074
-3.9991837	fabric	-0.038227044
-4.7574086	qandaeatingbraingam	-0.038227074
-4.7574086	thankhead	-0.038227074
-4.237261	bottom	-0.038227074
-4.7574086	damedev	-0.038227074
-4.237261	urlhalloraneld	-0.038227074
-3.6711705	ta	-0.09127111
-4.7574086	peruscode	-0.038227074
-4.237261	smooth	-0.038227074
-4.7574086	cam	-0.038227074
-4.237261	spit	-0.18540289
-4.7574086	helm	-0.038227074
-4.237261	urlcode	-0.038227074
-4.237261	lag	-0.038227074
-4.237261	slightli	-0.038227074
-4.7574086	smoothli	-0.038227074
-4.237261	bloat	-0.038227074
-4.7574086	whittli	-0.038227074
-4.237261	entri	-0.038227074
-4.7574086	prophet	-0.038227074
-4.237261	dream	-0.038227074
-4.237261	lvl	-0.18540289
-4.7574086	deathknow	-0.038227074
-4.7574086	an	-0.038227074
-4.7574086	gogot	-0.038227074
-4.7574086	key	-0.038227074
-3.9991837	for	-0.038227044
-4.7574086	delay	-0.038227074
-4.7574086	followdigit	-0.038227074
-3.8049188	decis	-0.105610125
-4.7574086	abe	-0.038227074
-4.7574086	oddyse	-0.038227074
-4.7574086	rot	-0.038227074
-4.7574086	forwarddigit	-0.038227074
-4.237261	merg	-0.038227074
-3.486445	random	-0.038227074
-4.237261	refin	-0.038227074
-4.7574086	favegam	-0.038227074
-4.237261	vampir	-0.038227074
-4.237261	bloodlin	-0.038227074
-3.8049188	mass	-0.22029826
-4.7574086	tower	-0.038227074
-3.9991837	doom	-0.038227044
-4.7574086	urlsure	-0.038227074
-4.237261	censu	-0.038227074
-3.9991837	site	-0.038227044
-4.7574086	ddo	-0.038227074
-4.237261	access	-0.038227074
-4.7574086	whittl	-0.038227074
-3.9991837	down	-0.1306135
-4.7574086	urlswap	-0.038227074
-4.7574086	rejig	-0.038227074
-3.9991837	betta	-0.038227044
-3.9991837	urlmake	-0.038227044
-4.7574086	sens	-0.038227074
-4.7574086	obfusc	-0.038227074
-4.7574086	ward	-0.038227074
-4.7574086	lest	-0.038227074
-4.7574086	scri	-0.038227074
-4.7574086	themcurrent	-0.038227074
-4.7574086	androgyn	-0.038227074
-4.237261	cloth	-0.038227074
-4.237261	whatev	-0.038227074
-3.9991837	gender	-0.038227044
-4.7574086	assetfinish	-0.038227074
-4.237261	laid	-0.038227074
-4.7574086	urlspider	-0.038227074
-3.8049188	spiderwomen	-0.038227074
-4.7574086	spidergewn	-0.038227074
-4.7574086	marvel	-0.038227074
-4.7574086	urltile	-0.038227074
-4.7574086	surround	-0.038227074
-3.8049188	bajop	-0.038227074
-4.7574086	urliamchriscont	-0.038227074
-4.7574086	etcgot	-0.038227074
-3.8049188	lego	-0.038227074
-4.7574086	prefab	-0.038227074
-4.237261	collis	-0.038227074
-4.237261	swap	-0.038227074
-4.7574086	urllego	-0.038227074
-3.9991837	minimum	-0.038227044
-3.8049188	gnome	-0.038227074
-4.7574086	illusionist	-0.038227074
-4.7574086	quill	-0.038227074
-4.7574086	geek	-0.038227074
-3.9991837	mileston	-0.038227044
-4.7574086	primer	-0.038227074
-3.4170623	prototyp	-0.038227074
-4.237261	monday	-0.18540289
-4.7574086	writeup	-0.038227074
-4.7574086	cram	-0.038227074
-3.8049188	lesson	-0.038227074
-4.7574086	intens	-0.038227074
-4.7574086	monthgaohme	-0.038227074
-4.7574086	gamethewah	-0.038227074
-3.9991837	rain	-0.038227044
-4.7574086	arrowdan_vogt	-0.038227074
-4.7574086	thankdrum	-0.038227074
-4.7574086	auto	-0.038227074
-4.7574086	ballista	-0.038227074
-3.9991837	urg	-0.038227044
-3.6711705	kinda	-0.038227074
-3.9991837	urluse	-0.038227044
-4.7574086	bitwis	-0.038227074
-4.7574086	oper	-0.038227074
-4.7574086	array	-0.038227074
-4.7574086	flag	-0.038227074
-4.7574086	aroundwork	-0.038227074
-4.237261	lite	-0.038227074
-4.237261	window	-0.038227074
-4.7574086	wonderwoman	-0.038227074
-4.7574086	urlexplor	-0.038227074
-4.7574086	urlno	-0.038227074
-4.237261	secur	-0.038227074
-4.7574086	timelin	-0.038227074
-4.7574086	closer	-0.038227074
-4.237261	machin	-0.038227074
-4.7574086	vulnerturret	-0.038227074
-3.486445	rust	-0.13280126
-4.237261	witchcult	-0.038227074
-4.7574086	urlsweet	-0.038227074
-3.9991837	mother	-0.038227044
-4.7574086	cring	-0.038227074
-3.9991837	lol	-0.038227044
-4.7574086	mebrainybeard	-0.038227074
-4.7574086	thankrough	-0.038227074
-4.237261	po	-0.038227074
-4.7574086	segment	-0.038227074
-4.7574086	travel	-0.038227074
-4.7574086	wreck	-0.038227074
-4.7574086	freedom	-0.038227074
-4.237261	doc	-0.038227074
-4.7574086	gamedevlifplay	-0.038227074
-4.237261	competit	-0.038227074
-4.7574086	placement	-0.038227074
-3.9991837	rank	-0.038227044
-4.237261	channel	-0.038227074
-4.7574086	causal	-0.038227074
-4.237261	scrub	-0.038227074
-4.7574086	thatiheartmuseum	-0.038227074
-3.486445	histor	-0.038227074
-3.8049188	prep	-0.038227074
-4.237261	golden	-0.038227074
-3.5690594	bring	-0.038227074
-4.7574086	betteryey	-0.038227074
-4.237261	beer	-0.038227074
-4.237261	pretzel	-0.038227074
-4.7574086	wipe	-0.038227074
-3.9991837	lucki	-0.038227044
-4.7574086	salvag	-0.038227074
-4.7574086	dispatch	-0.038227074
-4.237261	wing	-0.038227074
-4.7574086	funbeer	-0.038227074
-3.6711705	night	-0.07544328
-4.237261	modul	-0.038227074
-4.237261	minim	-0.038227074
-4.237261	dice	-0.038227074
-4.7574086	maydollar	-0.038227074
-4.7574086	dvd	-0.038227074
-3.9991837	forget	-0.038227044
-4.7574086	workappar	-0.038227074
-3.5690594	afraid	-0.038227044
-3.9991837	judgment	-0.038227044
-4.7574086	manliyou	-0.038227074
-3.486445	method	-0.116150066
-4.7574086	overrid	-0.038227074
-4.237261	virtual	-0.038227074
-4.7574086	righttime	-0.038227074
-4.7574086	optimist	-0.038227074
-4.237261	either	-0.038227074
-4.7574086	artday	-0.038227074
-4.7574086	nowher	-0.038227074
-4.7574086	wisealchemist	-0.038227074
-4.7574086	forg	-0.038227074
-4.7574086	simulacra	-0.038227074
-3.8049188	defens	-0.038227074
-4.7574086	easili	-0.038227074
-4.7574086	lethal	-0.038227074
-3.9991837	subvert	-0.038227044
-3.9991837	urllaureningram	-0.038227044
-3.9991837	except	-0.038227044
-4.7574086	elit	-0.038227074
-3.8049188	toxic	-0.038227074
-4.237261	masculin	-0.038227074
-3.6711705	badg	-0.038227074
-4.7574086	prideartsal	-0.038227074
-4.7574086	artlif	-0.038227074
-4.7574086	urlseen	-0.038227074
-4.7574086	squeak	-0.038227074
-4.237261	leftov	-0.038227074
-4.7574086	pasta	-0.038227074
-4.7574086	messinspir	-0.038227074
-4.7574086	emblemat	-0.038227074
-3.8049188	structur	-0.038227074
-4.7574086	retrogam	-0.038227074
-4.237261	urledenthecat	-0.038227074
-3.8049188	sci	-0.22029826
-4.7574086	fi	-0.038227044
-4.7574086	alchem	-0.038227074
-4.7574086	emitt	-0.038227074
-4.237261	float	-0.038227074
-4.237261	urlstart	-0.038227074
-4.237261	advanc	-0.038227074
-4.7574086	closeim	-0.038227074
-4.237261	uplift	-0.038227074
-4.7574086	trite	-0.038227074
-4.7574086	banalthink	-0.038227074
-3.3572526	hous	-0.038227044
-4.237261	oven	-0.038227074
-4.7574086	kitchen	-0.038227074
-3.8049188	winter	-0.038227074
-4.7574086	chairthumbnail	-0.038227074
-4.7574086	urlgood	-0.038227074
-4.7574086	urlinspro	-0.038227074
-4.7574086	unus	-0.038227074
-3.8049188	odd	-0.038227074
-3.9991837	sentenc	-0.038227044
-4.7574086	fragment	-0.038227074
-3.5690594	involv	-0.038227044
-3.9991837	neg	-0.038227044
-4.7574086	nullabl	-0.038227074
-4.7574086	typerust	-0.038227074
-4.7574086	sacrif	-0.038227074
-4.7574086	reanim	-0.038227074
-4.237261	season	-0.038227074
-4.7574086	seasonenemi	-0.038227074
-4.237261	cold	-0.038227074
-4.237261	overwhelm	-0.038227074
-4.237261	futil	-0.038227074
-4.7574086	ennuiamassingham	-0.038227074
-4.7574086	eyec	-0.038227074
-4.7574086	deleg	-0.038227074
-4.7574086	cog	-0.038227074
-4.7574086	codeivyshoot	-0.038227074
-4.7574086	litter	-0.038227074
-4.7574086	cap	-0.038227074
-3.9991837	him	-0.038227044
-4.7574086	measurunpauseasia	-0.038227074
-4.237261	aprendergamedev	-0.18540289
-3.9991837	appreci	-0.038227044
-4.237261	tiss	-0.038227074
-4.7574086	bay	-0.038227074
-4.237261	blood	-0.038227074
-4.7574086	sacrific	-0.038227074
-4.7574086	itregularli	-0.038227074
-4.237261	threaten	-0.038227074
-3.9991837	violenc	-0.038227044
-3.6711705	male	-0.038227074
-4.7574086	piss	-0.038227074
-3.9991837	weak	-0.038227044
-4.7574086	otherserious	-0.038227074
-4.7574086	insanpaulin	-0.038227074
-4.7574086	hanson	-0.038227074
-4.237261	vote	-0.038227074
-3.6711705	came	-0.038227074
-4.7574086	gympi	-0.038227074
-4.7574086	maryborough	-0.038227074
-4.7574086	bundaberg	-0.038227074
-3.9991837	knew	-0.038227044
-4.7574086	reasontalzir	-0.038227074
-3.6711705	hexsteph	-0.038227074
-3.6711705	stun	-0.038227074
-3.9991837	selfish	-0.038227044
-4.7574086	theretime	-0.038227074
-3.9991837	swing	-0.038227044
-3.8049188	hold	-0.038227074
-4.7574086	dicerust	-0.038227074
-3.9991837	villag	-0.105610125
-4.7574086	urlcannibalk	-0.038227074
-4.7574086	improvent	-0.038227074
-4.7574086	roundrisk	-0.038227074
-4.7574086	blith	-0.038227074
-4.237261	pithi	-0.038227074
-3.9991837	beat	-0.038227044
-3.9991837	past	-0.038227044
-4.7574086	bettertell	-0.038227074
-4.7574086	cole	-0.038227074
-4.7574086	cadburi	-0.038227074
-4.7574086	chocol	-0.038227074
-4.7574086	varieti	-0.038227074
-3.9991837	fruit	-0.038227044
-4.7574086	nutwip	-0.038227074
-4.7574086	urlvillag	-0.038227074
-4.237261	disney	-0.038227074
-4.237261	longest	-0.18540289
-3.9991837	grey	-0.038227044
-4.7574086	gray	-0.038227074
-3.9991837	idiot	-0.038227044
-4.7574086	pconcept	-0.038227074
-4.7574086	ironclad	-0.038227074
-4.7574086	urlblack	-0.038227074
-3.6711705	dog	-0.038227044
-4.237261	church	-0.038227074
-4.7574086	prof	-0.038227074
-4.7574086	snuff	-0.038227074
-4.7574086	urlgap	-0.038227074
-3.6711705	teach	-0.038227074
-4.7574086	terminolog	-0.038227074
-4.7574086	ingrain	-0.038227074
-3.5690594	convers	-0.038227044
-4.7574086	coderstateoforigin	-0.038227074
-4.7574086	qld	-0.038227074
-4.7574086	soc	-0.038227074
-4.7574086	med	-0.038227074
-4.7574086	presenc	-0.038227074
-4.7574086	spencerhowson	-0.038227074
-3.9991837	forev	-0.038227044
-4.7574086	toilet	-0.038227074
-4.7574086	pplayoverwatch	-0.038227074
-4.237261	rape	-0.038227074
-4.7574086	profan	-0.038227074
-4.7574086	filter	-0.038227074
-4.7574086	chatamassingham	-0.038227074
-3.6711705	might	-0.038227044
-4.237261	hammer	-0.038227074
-4.7574086	transgress	-0.038227074
-4.7574086	onteereez	-0.038227074
-4.7574086	amassingham	-0.038227074
-3.8049188	be	-0.038227074
-3.6711705	terribl	-0.038227074
-4.7574086	track	-0.038227074
-4.7574086	thingamassingham	-0.038227074
-4.237261	casual	-0.038227074
-4.7574086	filepeopl	-0.038227074
-3.9991837	mate	-0.038227044
-4.7574086	ridicul	-0.038227074
-4.7574086	lose	-0.038227074
-3.8049188	larg	-0.038227074
-4.7574086	reinstanc	-0.038227074
-4.7574086	outlast	-0.038227074
-3.8049188	encount	-0.038227074
-4.7574086	combin	-0.038227074
-3.9991837	shine	-0.038227044
-4.7574086	appl	-0.038227074
-4.237261	statist	-0.038227074
-4.7574086	outlierwant	-0.038227074
-3.9991837	exactli	-0.038227044
-3.9991837	loss	-0.1306135
-4.7574086	ratio	-0.038227074
-4.7574086	urlboss	-0.038227074
-4.7574086	assfeel	-0.038227074
-4.7574086	monologu	-0.038227074
-4.7574086	offwould	-0.038227074
-4.7574086	hardlittl	-0.038227074
-3.9991837	muck	-0.30310738
-4.7574086	lazi	-0.038227074
-4.7574086	raini	-0.038227074
-4.7574086	urlgold	-0.038227074
-4.7574086	urlan	-0.038227074
-4.7574086	passiv	-0.038227074
-4.7574086	aggress	-0.038227074
-4.7574086	rant	-0.038227074
-4.7574086	directlicheeseburgerson	-0.038227074
-4.7574086	thankdungeon	-0.038227074
-4.237261	entranc	-0.038227074
-4.7574086	assembl	-0.038227074
-4.7574086	skinabl	-0.038227074
-4.7574086	psd	-0.038227074
-4.7574086	urlpic	-0.038227074
-4.237261	tech	-0.038227074
-4.7574086	etcdigit	-0.038227074
-4.237261	pw	-0.038227074
-4.7574086	recharg	-0.038227074
-4.7574086	urlbasic	-0.038227074
-4.237261	begin	-0.038227074
-3.9991837	chew	-0.038227044
-3.8049188	giant	-0.038227074
-4.7574086	bland	-0.038227074
-4.7574086	cakethink	-0.038227074
-4.7574086	keyword	-0.038227074
-4.7574086	stapldon	-0.038227074
-4.237261	moder	-0.038227074
-4.7574086	altern	-0.038227074
-4.7574086	mono	-0.038227074
-4.7574086	pityou	-0.038227074
-4.7574086	forum	-0.038227074
-4.237261	chat	-0.038227074
-4.7574086	conduct	-0.038227074
-4.237261	silenc	-0.038227074
-4.7574086	elsi	-0.038227074
-3.4170623	argument	-0.038227074
-4.7574086	waywork	-0.038227074
-3.8049188	smoke	-0.105610125
-4.237261	mirror	-0.038227074
-4.7574086	trend	-0.038227074
-4.7574086	notichealer	-0.038227074
-4.237261	heal	-0.038227074
-4.7574086	commend	-0.038227074
-4.7574086	overwatchcurrent	-0.038227074
-4.7574086	mood	-0.038227074
-4.7574086	password	-0.038227074
-4.237261	twice	-0.038227074
-4.7574086	backspac	-0.038227074
-4.7574086	againkateleth	-0.038227074
-4.7574086	grat	-0.038227074
-4.7574086	enviou	-0.038227074
-4.7574086	south	-0.038227074
-4.237261	min	-0.038227074
-3.9991837	offer	-0.038227044
-4.7574086	recompens	-0.038227074
-4.7574086	backthu	-0.038227074
-4.7574086	protocol	-0.038227074
-4.7574086	overwatchpictur	-0.038227074
-4.7574086	tileabl	-0.038227074
-4.7574086	urlunless	-0.038227074
-4.7574086	capabl	-0.038227074
-3.9991837	system	-0.038227044
-4.7574086	merit	-0.038227074
-4.7574086	pariti	-0.038227074
-4.7574086	biahey	-0.038227074
-4.7574086	lookin	-0.038227074
-4.7574086	huh	-0.038227074
-4.7574086	tracksuit	-0.038227074
-3.9991837	pant	-0.038227044
-4.7574086	pmooseplain	-0.038227074
-4.7574086	mustardseedish	-0.038227074
-4.237261	fallaci	-0.038227074
-3.3046913	victim	-0.038227074
-4.237261	fault	-0.038227074
-4.7574086	safetoday	-0.038227074
-4.7574086	urlweird	-0.038227074
-3.8049188	step	-0.038227074
-4.7574086	scribbl	-0.038227074
-4.7574086	scribbliamchriscont	-0.038227074
-4.7574086	lousi	-0.038227074
-4.237261	spell	-0.038227074
-4.7574086	pathdnabeast	-0.038227074
-4.7574086	muchliink	-0.038227074
-4.7574086	wishfulthink	-0.038227074
-4.237261	urlgrow	-0.038227074
-4.237261	urllearn	-0.038227074
-4.7574086	taught	-0.038227074
-4.7574086	american	-0.038227074
-4.7574086	spell_m_egg	-0.038227074
-4.7574086	clarifi	-0.038227074
-4.237261	uncomfort	-0.038227074
-3.8049188	impli	-0.038227074
-4.7574086	containartofwootha	-0.038227074
-4.7574086	nbsparth	-0.038227074
-4.7574086	jellirealis	-0.038227074
-4.7574086	minutia	-0.038227074
-4.7574086	gritpencil	-0.038227074
-3.9991837	underground	-0.1306135
-4.7574086	urlexcit	-0.038227074
-4.7574086	afternoon	-0.038227074
-3.9991837	necessari	-0.038227044
-4.7574086	laughnoth	-0.038227074
-3.4170623	ride	-0.038227044
-4.237261	mid	-0.038227074
-4.237261	skip	-0.038227074
-4.7574086	rope	-0.038227074
-4.7574086	session	-0.038227074
-4.7574086	errgh	-0.038227074
-4.7574086	ropelaureningram	-0.038227074
-4.7574086	chain	-0.038227074
-4.7574086	disregard	-0.038227074
-3.486445	kid	-0.038227074
-4.7574086	father	-0.038227074
-4.7574086	ragebrkeogh	-0.038227074
-3.9991837	le	-0.038227074
-4.7574086	sighweekend	-0.038227074
-4.7574086	inki	-0.038227074
-4.7574086	urlfeel	-0.038227074
-4.7574086	demand	-0.038227074
-4.7574086	healer	-0.038227074
-3.9991837	refus	-0.038227044
-4.7574086	themselv	-0.038227074
-4.7574086	kfcaustralia	-0.038227074
-4.7574086	kfc	-0.038227074
-4.7574086	greenslop	-0.038227074
-4.237261	burnt	-0.038227074
-4.7574086	hn	-0.038227074
-4.7574086	ffoverwatch	-0.038227074
-3.9991837	insproshoutout	-0.1306135
-4.7574086	aspir	-0.038227074
-4.7574086	urllight	-0.038227074
-3.25781	fungu	-0.059547205
-4.7574086	riddl	-0.038227074
-4.7574086	unwholesom	-0.038227074
-4.7574086	urlstudent	-0.038227074
-4.7574086	perspect	-0.038227074
-3.9991837	uniqu	-0.038227044
-4.7574086	neat	-0.038227074
-4.7574086	cleanthi	-0.038227074
-3.8049188	consum	-0.038227074
-4.7574086	urlamassingham	-0.038227074
-4.7574086	monodevelop	-0.038227074
-4.7574086	coolcode	-0.038227074
-4.237261	tough	-0.038227074
-4.237261	spot	-0.038227074
-4.7574086	chewwip	-0.038227074
-4.7574086	infest	-0.038227074
-4.7574086	function	-0.038227074
-4.7574086	overgrown	-0.038227074
-4.7574086	urlhonestli	-0.038227074
-4.7574086	apocalyps	-0.038227074
-4.7574086	pfeed	-0.038227074
-3.9991837	fish	-0.038227044
-3.6711705	listen	-0.09127111
-4.7574086	crunch	-0.038227074
-4.7574086	rapidli	-0.038227074
-4.7574086	pellet	-0.038227074
-4.237261	crush	-0.038227074
-4.237261	rice	-0.038227074
-4.7574086	bubblnaysy_	-0.038227074
-3.6711705	pantmong	-0.038227074
-4.7574086	digitamassingham	-0.038227074
-4.7574086	digitgaohme	-0.038227074
-3.8049188	rais	-0.038227074
-4.7574086	handnaysy_	-0.038227074
-4.7574086	newbi	-0.038227074
-4.7574086	formatnaysy_	-0.038227074
-4.7574086	gamefirst	-0.038227074
-4.7574086	adrenalin	-0.038227074
-4.7574086	thoughgif	-0.038227074
-4.7574086	glow	-0.038227074
-4.7574086	urlmushroom	-0.038227074
-3.9991837	drink	-0.1306135
-4.237261	programm	-0.038227074
-4.7574086	timeim	-0.038227074
-3.6711705	citi	-0.038227074
-4.7574086	lessen	-0.038227074
-4.237261	isol	-0.038227074
-4.7574086	intimidlearn	-0.038227074
-4.7574086	editorbook	-0.038227074
-4.7574086	cont	-0.038227074
-4.237261	summeri	-0.038227074
-3.3046913	went	-0.06393976
-4.237261	immedi	-0.038227074
-4.7574086	learntoday	-0.038227074
-4.7574086	constructor	-0.038227074
-4.7574086	ccroissant	-0.038227074
-4.7574086	pastri	-0.038227074
-4.7574086	crab	-0.038227074
-4.7574086	itinsproshoutout	-0.038227074
-4.237261	sunless	-0.18540289
-4.7574086	failbettergam	-0.038227074
-4.237261	biggest	-0.038227074
-3.2155004	drive	-0.038227074
-4.237261	urlps	-0.038227074
-4.7574086	humeru	-0.038227074
-3.6711705	internet	-0.038227074
-4.7574086	themselvtroubl	-0.038227074
-4.7574086	googl	-0.038227074
-4.7574086	womb	-0.038227074
-4.7574086	knowledgput	-0.038227074
-3.6711705	circu	-0.09127111
-3.6711705	burn	-0.038227074
-4.237261	impact	-0.038227074
-4.237261	favor	-0.038227074
-4.7574086	trapcan	-0.038227074
-4.7574086	tohardest	-0.038227074
-4.237261	sisyphean	-0.038227074
-4.7574086	timenice	-0.038227074
-4.7574086	inde	-0.038227074
-4.237261	urldmeez	-0.038227074
-3.6711705	click	-0.038227074
-4.7574086	onartist	-0.038227074
-4.7574086	princess	-0.038227074
-3.9991837	as	-0.038227044
-4.7574086	timenote	-0.038227074
-4.237261	textbook	-0.038227074
-4.7574086	margin	-0.038227074
-3.9991837	constant	-0.038227044
-4.7574086	reset	-0.038227074
-4.7574086	degrad	-0.038227074
-4.7574086	unread	-0.038227074
-4.7574086	sludg	-0.038227074
-4.7574086	momentamassingham	-0.038227074
-4.7574086	applic	-0.038227074
-4.7574086	fluid	-0.038227074
-4.7574086	crosstwo	-0.038227074
-4.237261	mansplain	-0.038227074
-4.7574086	themnote	-0.038227074
-3.8049188	famou	-0.038227074
-4.7574086	mookcours	-0.038227074
-4.7574086	merri	-0.038227074
-4.237261	danc	-0.038227074
-3.9991837	notic	-0.038227044
-4.7574086	mesocial	-0.038227074
-4.237261	bane	-0.18540289
-3.9991837	disagre	-0.038227044
-4.7574086	mook	-0.038227074
-4.7574086	scream	-0.038227074
-3.9991837	he	-0.1306135
-4.7574086	cock	-0.038227074
-4.7574086	goblincode	-0.038227074
-4.7574086	num	-0.038227074
-4.237261	author	-0.038227074
-4.237261	introduc	-0.038227074
-4.7574086	summari	-0.038227074
-4.7574086	learnlaureningram	-0.038227074
-4.237261	phrase	-0.038227074
-4.7574086	pat	-0.038227074
-4.7574086	maleumyeahexceptno	-0.038227074
-4.7574086	platestmuslc	-0.038227074
-4.7574086	umyeahexceptno	-0.038227074
-3.3572526	clementine_ford	-0.038227074
-4.237261	amus	-0.038227074
-4.237261	mockeri	-0.038227074
-4.7574086	nutumyeahexceptno	-0.038227074
-4.7574086	latestmuslc	-0.038227074
-3.9991837	salad	-0.038227044
-4.7574086	facepalmfigur	-0.038227074
-4.7574086	latetotheparti	-0.038227074
-4.7574086	howdidinotknow	-0.038227074
-4.7574086	photoshopttazn	-0.038227074
-4.7574086	executwork	-0.038227074
-4.7574086	urlmele	-0.038227074
-3.6711705	flash	-0.17726652
-4.7574086	corrupt	-0.038227074
-4.7574086	pahhh	-0.038227074
-3.8049188	ego	-0.038227074
-4.7574086	artvsartist	-0.038227074
-4.7574086	urloften	-0.038227074
-4.7574086	urllanesainti	-0.038227074
-3.9991837	state	-0.038227044
-4.7574086	straight	-0.038227074
-4.7574086	advantag	-0.038227074
-4.7574086	had	-0.038227074
-4.7574086	facepalmmorn	-0.038227074
-4.7574086	cashconvert	-0.038227074
-4.237261	poverti	-0.038227074
-4.7574086	struck	-0.038227074
-4.7574086	increasewelfarespendiheartmuseum	-0.038227074
-4.7574086	digitdefunctduck	-0.038227074
-4.7574086	coincid	-0.038227074
-4.7574086	underdark	-0.038227074
-4.7574086	mushroom	-0.038227074
-4.7574086	ahoyinsproshoutout	-0.038227074
-4.237261	weekli	-0.18540289
-4.7574086	urlactual	-0.038227074
-4.7574086	levelcheeseburgerson	-0.038227074
-4.7574086	barrel	-0.038227074
-4.7574086	rollgiant	-0.038227074
-4.7574086	moth	-0.038227074
-4.7574086	assimil	-0.038227074
-4.7574086	facsimil	-0.038227074
-4.7574086	urldesign	-0.038227074
-4.237261	trim	-0.038227074
-4.7574086	overwhelmlearn	-0.038227074
-4.7574086	unitiwoolf	-0.038227074
-4.7574086	woolf	-0.038227074
-4.7574086	seventh	-0.038227074
-4.237261	or	-0.038227074
-4.7574086	urlbeerdrop	-0.038227074
-4.237261	promis	-0.038227074
-3.9991837	bottl	-0.038227044
-4.7574086	charm	-0.038227074
-4.7574086	urlnote	-0.038227074
-3.6711705	deriv	-0.15077852
-4.237261	eyebal	-0.038227074
-4.7574086	grabconcept	-0.038227074
-3.9991837	speedpaint	-0.038227044
-4.237261	republ	-0.038227074
-4.7574086	kotor	-0.038227074
-4.7574086	urlbetta	-0.038227074
-4.7574086	snatch	-0.038227074
-4.7574086	fingerfungu	-0.038227074
-4.237261	three	-0.038227074
-4.7574086	pacifist	-0.038227074
-4.7574086	otherwisthe	-0.038227074
-4.7574086	urlthumb	-0.038227074
-4.237261	urlinsproshoutout	-0.038227074
-4.7574086	ratqueen	-0.038227074
-4.7574086	urlfungu	-0.038227074
-4.7574086	explos	-0.038227074
-4.7574086	urlteach	-0.038227074
-4.237261	uni	-0.038227074
-4.7574086	olderloop	-0.038227074
-4.237261	alli	-0.038227074
-4.7574086	urlput	-0.038227074
-4.7574086	urldefunctduck	-0.038227074
-4.7574086	kindtoday	-0.038227074
-4.7574086	projectil	-0.038227074
-4.7574086	lobber	-0.038227074
-4.7574086	betaecksma	-0.038227074
-4.7574086	coolconcept	-0.038227074
-4.237261	fresh	-0.038227074
-4.237261	monitor	-0.038227074
-4.237261	interact	-0.038227074
-4.7574086	urlinspirationshoutout	-0.038227074
-4.7574086	doff	-0.038227074
-4.7574086	bioshockinfinit	-0.038227074
-4.237261	through	-0.038227074
-4.7574086	checker	-0.038227074
-4.7574086	pcovenhaugr	-0.038227074
-4.7574086	stride	-0.038227074
-4.237261	eaten	-0.038227074
-3.9991837	crew	-0.038227044
-4.7574086	shrimpdigit	-0.038227074
-4.7574086	urldon	-0.038227074
-4.7574086	have	-0.038227074
-4.7574086	sonoth	-0.038227074
-4.237261	amateur	-0.038227074
-4.7574086	gahbiowar	-0.038227074
-3.9991837	option	-0.038227044
-4.7574086	guess	-0.038227074
-4.7574086	sayerinrileyau	-0.038227074
-3.9991837	accept	-0.038227044
-3.9991837	bia	-0.038227044
-3.6711705	sexist	-0.038227074
-4.7574086	rightjean	-0.038227074
-3.8049188	luc	-0.105610125
-4.7574086	refurbish	-0.038227074
-4.237261	wood	-0.038227074
-3.9991837	caus	-0.038227044
-4.7574086	alga	-0.038227074
-3.9991837	blue	-0.038227044
-4.7574086	urlomg	-0.038227074
-4.7574086	easanessasilksong	-0.038227074
-4.7574086	donequick	-0.038227074
-3.9991837	shop	-0.038227044
-4.237261	racism	-0.038227074
-4.7574086	troika	-0.038227074
-4.237261	same	-0.18540289
-4.7574086	satellitereign	-0.038227074
-4.7574086	urlunknown	-0.038227074
-3.9991837	load	-0.038227044
-3.9991837	doubt	-0.038227044
-4.7574086	exposur	-0.038227074
-4.7574086	insproshoutoutgame	-0.038227074
-4.237261	stat	-0.038227074
-4.7574086	reflex	-0.038227074
-4.7574086	betternaysy_	-0.038227074
-4.237261	cosplay	-0.038227074
-4.237261	minor	-0.18540289
-4.7574086	urlcosplay	-0.038227074
-4.7574086	urlswear	-0.038227074
-4.7574086	photoshopproblemcosplay	-0.038227074
-4.237261	commiss	-0.038227074
-4.7574086	urlfishi	-0.038227074
-4.237261	epic	-0.038227074
-4.7574086	seiz	-0.038227074
-4.7574086	preciou	-0.038227074
-4.7574086	againdigit	-0.038227074
-3.9991837	april	-0.1306135
-4.7574086	urlpaint	-0.038227074
-4.7574086	artlifbetta	-0.038227074
-4.7574086	swim	-0.038227074
-3.9991837	command	-0.1306135
-4.7574086	tomorrowmonday	-0.038227074
-4.237261	episod	-0.038227074
-4.7574086	yearnaysy_	-0.038227074
-4.7574086	gratzmade	-0.038227074
-4.7574086	ambival	-0.038227074
-4.7574086	whatwouldpicarddostop	-0.038227074
-4.237261	cg	-0.038227074
-4.237261	editor	-0.038227074
-4.7574086	shini	-0.038227074
-4.7574086	futurnaysy_	-0.038227074
-4.7574086	jellincmontagu	-0.038227074
-4.7574086	orang	-0.038227074
-4.7574086	urlncmontagu	-0.038227074
-3.9991837	cc	-0.038227044
-3.5690594	scooter	-0.081968255
-4.7574086	z	-0.038227074
-4.7574086	sl	-0.038227074
-4.7574086	nicencmontagu	-0.038227074
-3.8049188	wheel	-0.038227074
-4.7574086	clubwork	-0.038227074
-4.7574086	blow	-0.038227074
-4.7574086	coder	-0.038227074
-2.8366656	special	-0.06461952
-4.7574086	sighconcept	-0.038227074
-4.7574086	npc	-0.038227074
-4.237261	avatar	-0.038227074
-4.7574086	greebl	-0.038227074
-4.7574086	bulk	-0.038227074
-4.7574086	roundwhat	-0.038227074
-4.7574086	maketrial	-0.038227074
-4.237261	separ	-0.038227074
-4.7574086	officrealli	-0.038227074
-3.5690594	wish	-0.038227074
-4.7574086	kill	-0.038227074
-4.7574086	stimul	-0.038227074
-4.7574086	rightrode	-0.038227074
-3.6711705	bike	-0.07061304
-4.7574086	todaylove	-0.038227074
-4.7574086	scifi	-0.038227074
-3.6711705	field	-0.038227074
-4.7574086	coat	-0.038227074
-4.7574086	theoret	-0.038227074
-4.7574086	physicist	-0.038227074
-4.7574086	youedenthecat	-0.038227074
-4.237261	mention	-0.038227074
-4.7574086	gate	-0.038227074
-4.7574086	inher	-0.038227074
-3.2155004	ask	-0.038227074
-4.7574086	establish	-0.038227074
-4.7574086	credentipyramidhead	-0.038227074
-4.237261	silenthil	-0.038227074
-4.7574086	context	-0.038227074
-4.7574086	urlmay	-0.038227074
-4.237261	movi	-0.038227074
-3.9991837	triptych	-0.038227074
-4.237261	fave	-0.038227074
-4.7574086	nouveau	-0.038227074
-3.8049188	urlsundayspeci	-0.038227044
-4.7574086	portfolio	-0.038227074
-4.7574086	urlwelcom	-0.038227074
-4.7574086	heisenberg	-0.038227074
-4.237261	carousel	-0.038227074
-4.7574086	kmph	-0.038227074
-4.237261	nobodi	-0.038227074
-4.7574086	knowecksma	-0.038227074
-4.7574086	whip	-0.038227074
-4.7574086	headdeskspent	-0.038227074
-4.7574086	web	-0.038227074
-3.9991837	tutori	-0.038227044
-4.7574086	dumb	-0.038227074
-4.237261	meclementine_ford	-0.038227074
-4.7574086	enforc	-0.038227074
-4.7574086	patern	-0.038227074
-4.237261	wife	-0.038227074
-4.7574086	bsowlwithaguitar	-0.038227074
-4.7574086	mrmattoleari	-0.038227074
-4.7574086	noah_keho	-0.038227074
-4.237261	freez	-0.18540289
-4.7574086	peach	-0.038227074
-4.7574086	censorsheep	-0.038227074
-4.237261	ahh	-0.038227074
-4.7574086	whistl	-0.038227074
-4.7574086	whing	-0.038227074
-4.7574086	termin	-0.038227074
-4.7574086	pouti	-0.038227074
-4.7574086	ineffecturememb	-0.038227074
-4.7574086	gandalf	-0.038227074
-4.7574086	slate	-0.038227074
-4.237261	harri	-0.038227074
-4.7574086	wesley	-0.038227074
-4.7574086	gatekeep	-0.038227074
-4.7574086	alwaybrkeogh	-0.038227074
-4.7574086	lewi	-0.038227074
-4.7574086	urldrive	-0.038227074
-3.8049188	car	-0.038227074
-4.7574086	minpantmong	-0.038227074
-4.7574086	stock	-0.038227044
-3.9991837	shitti	-0.038227044
-3.486445	joke	-0.038227074
