\data\
ngram 1=9374
ngram 2=13858
ngram 3=14422

\1-grams:
-0.22417836	<unk>
-inf	<s>	-0.0142000895
-4.981491	</s>
-3.6415157	함께한	-0.0142000895
-3.022325	모든	-0.014200063
-4.2603755	스텝분들	-0.0142000895
-2.9905262	감사합니다	-0.19169913
-4.981491	공개됐네요	-0.0142000895
-3.6415157	한번씩	-0.0142000895
-4.981491	들어주시면	-0.0142000895
-4.981491	감사하겠습니다	-0.0142000895
-4.981491	태연	-0.0142000895
-3.6415157	선배님	-0.0142001165
-3.2298176	감사해요	-0.038010344
-4.981491	내버려	-0.0142000895
-4.2603755	둘	-0.0142000895
-3.0938954	수	-0.0142000895
-3.8065188	없는	-0.0142000895
-3.522229	목소리	-0.0142001165
-4.981491	url스포하나	-0.0142000895
-4.2603755	할게요	-0.0142000895
-4.981491	에세이	-0.0142000895
-4.981491	버전에	-0.0142000895
-3.134652	곡	-0.038010344
-4.2603755	마다	-0.0142000895
-4.981491	딸림	-0.0142000895
-4.2603755	글이	-0.0142000895
-3.8065188	있어요	-0.0142000895
-4.2603755	총	-0.0142000895
-1.9739001	digit	-0.13103683
-4.981491	개고	-0.0142000895
-2.9905262	제가	-0.0142000895
-4.981491	썻어요	-0.0142000895
-3.428746	곡을	-0.0142000895
-4.981491	이해하는데	-0.0142000895
-4.981491	도움이	-0.0142000895
-4.981491	될	-0.0142000895
-4.981491	감정들이	-0.0142000895
-4.981491	담겨있어요	-0.0142000895
-4.981491	음악도	-0.0142000895
-4.981491	음악이지만	-0.0142000895
-3.0938954	이	-0.0142000895
-4.981491	글들이	-0.0142000895
-3.6415157	어떻게	-0.0142000895
-4.981491	보여질까	-0.0142000895
-4.981491	여러생각들을	-0.0142000895
-3.8065188	하게	-0.0142000895
-4.981491	돼	-0.0142000895
-3.522229	그래도	-0.0142001165
-4.981491	기대해주길모니터하며	-0.0142000895
-3.6415157	한국	-0.089945614
-4.981491	돌아가는	-0.0142000895
-4.981491	길	-0.0142000895
-1.0986671	<eos>	-0.069355644
-4.981491	타이틀곡은	-0.0142000895
-4.981491	번트랙	-0.0142000895
-4.981491	lone	-0.0142000895
-4.981491	대선배님	-0.0142000895
-4.2603755	소녀시대의	-0.0142000895
-4.981491	태연님과	-0.0142000895
-3.0566375	함께	-0.0142000895
-4.981491	불렀습니다	-0.0142000895
-2.3481643	너무	-0.031106018
-4.981491	잘하셔서	-0.0142000895
-4.981491	브릿지의	-0.0142000895
-3.022325	날	-0.014200063
-4.981491	내버려둬	-0.0142000895
-3.6415157	라는	-0.0142000895
-4.981491	가사늘	-0.0142000895
-4.981491	속삭일때	-0.0142000895
-4.981491	부스밖	-0.0142000895
-3.428746	모두가	-0.0142000895
-4.981491	캬	-0.0142000895
-4.981491	했어요	-0.0142000895
-2.707713	오늘	-0.048207056
-4.981491	url귀	-0.0142000895
-3.522229	귀여워	-0.0142000895
-4.981491	url새친구를	-0.0142000895
-4.981491	사귀었어요	-0.0142000895
-4.981491	사은품으로	-0.0142000895
-3.6415157	받은	-0.0142000895
-4.981491	친구랍니다	-0.0142000895
-4.981491	url시작부터	-0.0142000895
-4.981491	정해진	-0.0142000895
-4.981491	이별이었어	-0.0142000895
-3.3518643	넌	-0.0142000895
-4.981491	처음부터	-0.0142000895
-4.981491	회식	-0.0142000895
-4.981491	빙고경품일	-0.0142000895
-4.2603755	뿐이었다	-0.18175247
-3.8065188	하지만	-0.0142001165
-4.981491	사랑했다	-0.0142000895
-4.981491	진심으로	-0.0142000895
-4.981491	url바람폈어	-0.0142000895
-3.3518643	url오늘	-0.014200063
-3.8065188	고생했어	-0.0142000895
-4.981491	뭐라도좀	-0.0142000895
-4.981491	먹어봐	-0.0142000895
-4.981491	url회식에	-0.0142000895
-4.981491	마사지가	-0.0142000895
-4.981491	빠질	-0.0142000895
-4.981491	없지	-0.0142000895
-4.981491	url마싸지	-0.0142000895
-4.981491	다이스키	-0.0142000895
-4.981491	url마사지	-0.0142000895
-3.3518643	최고	-0.083495766
-4.981491	urltype	-0.0142000895
-4.981491	graphic	-0.0142000895
-3.1796334	와	-0.04293314
-3.522229	트위터	-0.0142000895
-3.0938954	많이	-0.014200063
-4.981491	좋아졌네	-0.0142000895
-4.981491	이런것도있꾸헤드마사지기	-0.0142000895
-4.981491	시원해	-0.0142000895
-4.981491	url소예씨	-0.0142000895
-4.981491	화이팅입니다	-0.0142000895
-3.022325	푸른밤	-0.050423604
-4.981491	막방때	-0.0142000895
-3.8065188	들으면서	-0.0142000895
-3.6415157	엄청	-0.0142000895
-4.981491	감동받았었는데	-0.0142000895
-4.981491	발매됐네요	-0.0142000895
-4.981491	감사하고	-0.0142000895
-4.981491	url멤버들과	-0.0142000895
-4.981491	스텝들의	-0.0142000895
-4.981491	야간습격	-0.0142000895
-2.9905262	고마워요	-0.0774305
-3.6415157	모두들	-0.0142000895
-4.981491	urlurl다시	-0.0142000895
-4.981491	보아요	-0.0142000895
-4.981491	url나두	-0.0142000895
-4.981491	받고싶어요	-0.0142000895
-3.2298176	어떤	-0.04293314
-4.981491	조건을	-0.0142000895
-4.981491	갖추면	-0.0142000895
-4.981491	받을	-0.0142000895
-4.981491	있죠	-0.0142000895
-4.981491	urlpaint_it_rock	-0.0142000895
-4.981491	olleh_mus골든디스크에서	-0.0142000895
-3.6415157	샤이니가	-0.0142000895
-4.981491	태민솔로포함	-0.0142000895
-4.981491	상을	-0.0142000895
-4.981491	세개나	-0.0142000895
-4.2603755	받았어요	-0.18175247
-4.2603755	너무너무	-0.0142000895
-4.2603755	비록	-0.0142000895
-4.981491	멤버전원이	-0.0142000895
-4.981491	올라가진	-0.0142000895
-3.8065188	못했지만	-0.0142000895
-4.2603755	감사한	-0.0142000895
-4.2603755	저희	-0.0142000895
-4.2603755	마음을	-0.0142000895
-4.981491	전해드리고	-0.0142000895
-4.981491	싶네요	-0.0142000895
-3.0938954	다	-0.050135065
-2.9608974	여러분	-0.0142000895
-4.981491	덕분이에요	-0.0142000895
-4.981491	url세상에	-0.0142000895
-4.981491	통이	-0.0142000895
-4.981491	이뻐서산게	-0.0142000895
-4.981491	몇개야	-0.0142000895
-4.2603755	url며칠전에	-0.0142000895
-4.981491	해먹은	-0.0142000895
-4.981491	거	-0.0142000895
-4.981491	파스타는	-0.0142000895
-4.981491	사드세요	-0.0142000895
-3.6415157	세상에	-0.0142000895
-4.981491	저거만든다고	-0.0142000895
-4.981491	장보러	-0.0142000895
-4.981491	마트갔다가	-0.0142000895
-4.981491	이거저거	-0.0142000895
-4.981491	충동구매하고	-0.0142000895
-4.981491	가산탕진했지뭐야	-0.0142000895
-4.981491	파스타가	-0.0142000895
-3.0566375	이렇게	-0.0142000895
-4.981491	무섭습니다	-0.0142000895
-4.981491	url고른다	-0.0142000895
-4.981491	토마토	-0.0142000895
-4.981491	url노루	-0.0142000895
-4.981491	궁뎅이	-0.0142000895
-4.981491	url국내산	-0.0142000895
-4.981491	이탈리안	-0.0142000895
-4.981491	파슬리	-0.0142000895
-3.8065188	url나의	-0.0142000895
-4.981491	방은	-0.0142000895
-3.428746	지금	-0.0142000895
-4.981491	충격의	-0.0142000895
-4.981491	도가니	-0.0142000895
-4.981491	url와	-0.0142000895
-4.981491	이거대체	-0.0142000895
-4.981491	누굽니까	-0.0142000895
-4.981491	나지금	-0.0142000895
-4.981491	이시람	-0.0142000895
-4.981491	ep	-0.0142000895
-4.981491	듣다가	-0.0142000895
-3.8065188	소름	-0.0142000895
-4.981491	몇번	-0.0142000895
-4.981491	돋았는지	-0.0142000895
-4.981491	누구지	-0.0142000895
-3.3518643	대체	-0.014200063
-4.2603755	뭐지	-0.0142000895
-3.6415157	들어보세요	-0.0142000895
-2.9070916	진짜	-0.028329076
-3.428746	이건	-0.014200063
-4.981491	url엄정화선배님께서	-0.0142000895
-4.981491	컴백하셔요	-0.0142000895
-4.981491	영광스럽게	-0.0142000895
-4.981491	콜라보할	-0.0142000895
-4.981491	기회가	-0.0142000895
-4.2603755	생겼습니다	-0.18175247
-4.981491	작업할때	-0.0142000895
-4.981491	떨렸어요	-0.0142000895
-3.022325	ㅎ	-0.014200063
-3.134652	사진	-0.0142000895
-4.981491	찍을때	-0.0142000895
-4.981491	더떨렸음	-0.0142000895
-3.134652	다들	-0.0142000895
-4.981491	기대해주세용	-0.0142000895
-4.2603755	응원합니다	-0.0142000895
-4.981491	url아니근데동생콘서트끝나구왔는뎅	-0.0142000895
-4.981491	섭서비선배님들	-0.0142000895
-3.3518643	저도	-0.014200063
-4.981491	힘내겠습니다이걸	-0.0142000895
-4.981491	자랑했다	-0.0142000895
-3.8065188	url콘서트	-0.0142000895
-3.8065188	끝나고	-0.0142000895
-4.981491	집왔더니	-0.0142000895
-3.3518643	누나가	-0.014200063
-4.981491	고생했다며	-0.0142000895
-4.981491	신화콘서트도	-0.0142000895
-4.981491	끝났다며	-0.0142000895
-3.6415157	신화	-0.0142000895
-4.981491	굿즈자랑을	-0.0142000895
-3.428746	한다	-0.0142000895
-4.981491	맥주잔이라고	-0.0142000895
-4.981491	넌아직	-0.0142000895
-4.981491	이런거못만들지	-0.0142000895
-4.2603755	라며	-0.0142000895
-3.134652	나도	-0.0142000895
-4.981491	년후엔	-0.0142000895
-4.981491	맥주잔을아름다운트리얌	-0.0142000895
-3.3518643	url난	-0.014200063
-4.981491	이노래가	-0.0142000895
-3.0566375	참	-0.0142000895
-3.428746	좋다	-0.063202076
-3.134652	내	-0.0142000895
-4.981491	친구들	-0.0142000895
-4.981491	모여있다는데	-0.0142000895
-3.2298176	같이	-0.0142000895
-4.981491	수다떨고	-0.0142000895
-4.2603755	싶다	-0.0142000895
-4.981491	url촬영때	-0.0142000895
-3.428746	짱	-0.0142000895
-4.981491	고생한ㅜㅡㅠ	-0.0142000895
-4.981491	그만큼	-0.0142000895
-4.981491	재밌었던기여어	-0.0142000895
-4.981491	url사랑해요	-0.0142000895
-4.2603755	즐거운	-0.0142000895
-4.981491	시간이었어	-0.0142000895
-4.981491	고기먹고	-0.0142000895
-4.981491	푹자야지	-0.0142000895
-4.981491	그대들도	-0.0142000895
-3.6415157	어서	-0.0142000895
-4.2603755	들어가	-0.0142000895
-4.981491	쉬어요다른	-0.0142000895
-3.6415157	생각은	-0.0142000895
-4.981491	잊고	-0.0142000895
-4.981491	공연에	-0.0142000895
-4.981491	빠져서	-0.0142000895
-4.981491	두세시간이	-0.0142000895
-4.981491	순식간에	-0.0142000895
-4.981491	사라질수	-0.0142000895
-4.981491	있었으면	-0.0142000895
-3.522229	해요	-0.11463824
-4.981491	늦었는데	-0.0142000895
-4.981491	어서자요	-0.0142000895
-2.8161106	우리	-0.037032425
-2.9905262	내일	-0.03193426
-2.837132	더	-0.025466256
-3.2298176	좋은	-0.0142000895
-4.981491	컨디션으로	-0.0142000895
-4.981491	만나요많은	-0.0142000895
-3.3518643	분들이	-0.0142000895
-4.2603755	공연을	-0.0142000895
-4.981491	기대하고	-0.0142000895
-4.981491	계셨을텐데	-0.0142000895
-4.981491	걱정을	-0.0142000895
-4.2603755	안고	-0.0142000895
-4.981491	오게한	-0.0142000895
-2.9070916	것	-0.092020914
-4.981491	같아서	-0.0142000895
-4.981491	죄송하네요	-0.0142000895
-4.981491	부족해서	-0.0142000895
-4.2603755	이런일이	-0.0142000895
-4.981491	생겼지만	-0.0142000895
-4.981491	빠르게	-0.0142000895
-4.981491	잘못한	-0.0142000895
-4.2603755	부분을	-0.0142000895
-4.981491	사과	-0.0142000895
-4.981491	수정한	-0.0142000895
-3.6415157	건	-0.0142000895
-4.981491	있을공연을	-0.0142000895
-4.981491	완벽하게	-0.0142000895
-4.981491	만들고	-0.0142000895
-4.981491	싶어서랍니다	-0.0142000895
-4.981491	오시는	-0.0142000895
-3.2298176	분들	-0.0142000895
-4.981491	소리질러주세요혹시나	-0.0142000895
-3.2298176	저	-0.0142000895
-4.981491	단어들을	-0.0142000895
-4.981491	사용하지	-0.0142000895
-4.981491	않았다면	-0.0142000895
-4.981491	머릿속에서	-0.0142000895
-4.981491	성향은	-0.0142000895
-4.981491	존중하지만	-0.0142000895
-3.2865677	전	-0.0142000895
-4.981491	그쪽은	-0.0142000895
-4.981491	아니니까요	-0.0142000895
-4.981491	문장을	-0.0142000895
-4.2603755	생각한	-0.0142000895
-3.428746	후	-0.0142000895
-4.981491	이야기하는	-0.0142000895
-4.981491	과정에서	-0.0142000895
-4.2603755	다르게	-0.0142000895
-4.2603755	말이	-0.0142000895
-4.981491	나간걸거에요	-0.0142000895
-4.2603755	어느쪽이	-0.0142000895
-4.981491	되었든	-0.0142000895
-4.2603755	의미는	-0.0142000895
-3.6415157	크게	-0.0142000895
-4.981491	다르지	-0.0142000895
-4.981491	않다고	-0.0142000895
-4.981491	봅니다	-0.0142000895
-3.2865677	저의	-0.0142000895
-4.981491	같습니다기재된	-0.0142000895
-4.981491	글은	-0.0142000895
-4.981491	회의를	-0.0142000895
-4.981491	거치지	-0.0142000895
-4.2603755	않은	-0.0142000895
-4.981491	전적으로	-0.0142000895
-4.981491	의견이	-0.0142000895
-4.981491	담겨있는	-0.0142000895
-4.981491	글입니다	-0.0142000895
-3.428746	이름을	-0.0142000895
-4.981491	걸고	-0.0142000895
-4.981491	진행한	-0.0142000895
-4.981491	콘서트이기때문에	-0.0142000895
-4.981491	가장먼저	-0.0142000895
-4.981491	피드백해야	-0.0142000895
-4.2603755	한다고	-0.0142000895
-4.981491	생각했고	-0.0142000895
-4.981491	남은	-0.0142000895
-4.981491	공연에선	-0.0142000895
-4.981491	문제를	-0.0142000895
-4.981491	일으키지	-0.0142000895
-4.981491	않도록	-0.0142000895
-3.6415157	더욱	-0.0142000895
-4.981491	신중하겠습니다urlurlurl마마를	-0.0142000895
-4.981491	봐야한다고	-0.0142000895
-4.981491	서둘러	-0.0142000895
-4.981491	왔더니	-0.0142000895
-4.981491	ㅋㅋ기여운	-0.0142000895
-4.981491	울가족	-0.0142000895
-4.981491	url상이	-0.0142000895
-4.981491	전부는	-0.0142000895
-4.2603755	아니지만	-0.0142000895
-4.2603755	태민이가	-0.0142000895
-4.981491	노력하고	-0.0142000895
-4.981491	보여주려고	-0.0142000895
-3.8065188	것들이	-0.0142000895
-4.981491	사람들에게도	-0.0142000895
-4.981491	전해졌다는	-0.0142000895
-4.981491	의미일에요	-0.0142000895
-3.6415157	앞으로도	-0.0142000895
-4.981491	치열하게	-0.0142000895
-4.981491	움직일	-0.0142000895
-4.981491	태민이를	-0.0142000895
-3.3518643	위해	-0.0142000895
-4.981491	박수를	-0.0142000895
-4.981491	멋쪄	-0.0142000895
-3.522229	짝짝짝	-0.11463824
-4.981491	ᆞ태민아	-0.0142000895
-4.2603755	축하해	-0.0142000895
-4.981491	리허설하느라	-0.0142000895
-4.981491	못봤지만	-0.0142000895
-4.981491	자랑스럽네요ㅠㅜ	-0.0142000895
-3.3518643	빨리	-0.014200063
-4.2603755	집가서	-0.0142000895
-4.2603755	다시보기로	-0.0142000895
-4.2603755	봐야지	-0.0142000895
-4.981491	영상촬영	-0.0142000895
-3.6415157	전부	-0.0142000895
-4.981491	종료	-0.0142000895
-3.8065188	이제부터	-0.0142000895
-4.2603755	퍼포먼스	-0.0142000895
-4.981491	준비를	-0.0142000895
-4.981491	알차게	-0.0142000895
-3.522229	url아	-0.0142000895
-3.8065188	맞아	-0.0142000895
-4.981491	세공연이에요	-0.0142000895
-3.0566375	왜	-0.0142000895
-3.0938954	그	-0.0142000895
-4.981491	럴	-0.0142000895
-4.981491	까그냥	-0.0142000895
-4.981491	가긴	-0.0142000895
-4.981491	아쉬우니	-0.0142000895
-4.981491	살짝	-0.0142000895
-4.981491	스포하고	-0.0142000895
-4.981491	갈게요	-0.0142000895
-3.522229	url여러분	-0.0142001165
-3.522229	콘서트	-0.0142001165
-4.2603755	소근소근	-0.0142000895
-4.981491	오랫동안	-0.0142000895
-4.981491	고민한	-0.0142000895
-4.981491	컨셉들이	-0.0142000895
-4.981491	응축된	-0.0142000895
-4.981491	공연일거에요	-0.0142000895
-4.2603755	기대해	-0.0142000895
-4.981491	주시길	-0.0142000895
-4.981491	url찾았답니다	-0.0142000895
-4.981491	아이디와	-0.0142000895
-4.981491	비밀번호	-0.0142000895
-2.3922455	url	-0.036122166
-4.981491	잘하는	-0.0142000895
-4.981491	임레이씨	-0.0142000895
-3.8065188	정규	-0.118444666
-4.981491	쇼케이스때도	-0.0142000895
-4.981491	리믹스로	-0.0142000895
-4.981491	공연했었죠	-0.0142000895
-4.981491	최근	-0.0142000895
-4.2603755	작업한	-0.0142000895
-4.2603755	멍하니	-0.0142000895
-3.6415157	있어	-0.0142000895
-3.8065188	도	-0.0142000895
-4.981491	이친구랑	-0.0142000895
-4.981491	같이한	-0.0142000895
-4.981491	곡이에요	-0.0142000895
-4.981491	좋은곡	-0.0142000895
-4.981491	써주길	-0.0142000895
-4.981491	키가큰	-0.0142000895
-3.0566375	형	-0.014200063
-4.2603755	재밌는	-0.0142000895
-3.8065188	따뜻한	-0.0142000895
-4.981491	날챙긴	-0.0142000895
-4.981491	장훈이	-0.0142000895
-3.3518643	urldigit	-0.055854127
-3.428746	분	-0.0142000895
-4.981491	구요잠시후	-0.0142000895
-4.981491	시에	-0.0142000895
-3.1796334	제	-0.073702715
-4.2603755	첫번째	-0.0142000895
-4.981491	정규앨범이	-0.0142000895
-4.2603755	발매되요	-0.0142000895
-4.981491	만감교차	-0.0142000895
-4.981491	한곡한곡	-0.0142000895
-4.981491	만들면서	-0.0142000895
-4.981491	즐거웠습니다	-0.0142000895
-4.2603755	즐겁게	-0.0142000895
-3.6415157	들어주세요	-0.089945614
-3.2865677	좋아	-0.0142000895
-3.2298176	가	-0.04293314
-4.981491	타이틀이야	-0.0142000895
-4.981491	url고마워요옹	-0.0142000895
-4.981491	에쓰엠	-0.0142000895
-4.981491	url매일이	-0.0142000895
-4.981491	하루뿐인	-0.0142000895
-4.981491	일년인데	-0.0142000895
-3.6415157	생일이	-0.0142000895
-4.2603755	뭐	-0.0142000895
-4.981491	별거라구	-0.0142000895
-4.981491	이렇게나	-0.0142000895
-4.981491	주시나요	-0.0142000895
-3.522229	부끄	-0.0142001165
-3.8065188	많은걸	-0.0142000895
-4.2603755	나눠요	-0.0142000895
-4.981491	새로운걸	-0.0142000895
-2.9608974	나의	-0.0142000895
-3.3518643	당신의	-0.1327792
-4.981491	기쁨이	-0.0142000895
-4.981491	된다니	-0.0142000895
-2.6480527	내가	-0.0142001165
-4.981491	숨만	-0.0142000895
-4.981491	쉬어도	-0.0142000895
-3.2865677	얼마나	-0.0142000895
-4.2603755	복받은	-0.0142000895
-4.981491	인생인가	-0.0142000895
-3.1796334	다시	-0.0142001165
-3.428746	한번	-0.063202076
-4.981491	감사합니다digit	-0.0142000895
-4.981491	키스타그램	-0.0142000895
-4.981491	뿌셔뿌셔	-0.0142000895
-4.981491	ㅋㅋㅋㅋ아이게몬데ㅋㄲhttp	-0.0142000895
-4.981491	youtub	-0.0142000895
-3.8065188	님이	-0.0142000895
-4.981491	공유똑똑루	-0.0142000895
-4.981491	url루야	-0.0142000895
-3.8065188	무슨일이야	-0.118444666
-4.981491	누가널	-0.0142000895
-4.981491	찌그러트린거야	-0.0142000895
-3.8065188	urlblobyblo	-0.0142000895
-4.981491	ㅋㅋㅋㅋ편견타파한다	-0.0142000895
-4.981491	ㅋㅋㅋㅋblobyblo	-0.0142000895
-4.981491	이하이씨	-0.0142000895
-4.2603755	최고에요	-0.0142000895
-4.981491	블로형	-0.0142000895
-4.981491	나중엔	-0.0142000895
-4.981491	둘의	-0.0142000895
-4.981491	목소리로	-0.0142000895
-4.981491	만나여블로형한테	-0.0142000895
-4.981491	곡써봐줄수	-0.0142000895
-4.981491	있겠냐고	-0.0142000895
-4.981491	연락	-0.0142000895
-4.981491	받았을때	-0.0142000895
-4.981491	신기했는데	-0.0142000895
-3.6415157	드디어	-0.0142000895
-4.981491	나오네요	-0.0142000895
-4.981491	의뢰만으로도	-0.0142000895
-4.2603755	고마워서	-0.0142000895
-4.2603755	몇곡이나	-0.0142000895
-4.981491	썼는지	-0.0142000895
-3.8065188	ㅜㅡㅠ	-0.0142000895
-4.981491	퇴짜를	-0.0142000895
-4.981491	맞았는지	-0.0142000895
-3.2298176	ㅋㅋㅋ	-0.0142000895
-4.2603755	신기한	-0.0142000895
-4.2603755	조합	-0.0142000895
-3.022325	ㅋㅋ	-0.0142000895
-4.981491	blobyblo	-0.0142000895
-4.981491	url혹시몰라서	-0.0142000895
-3.522229	활동	-0.0142001165
-4.981491	명으로	-0.0142000895
-4.2603755	꼬꼬꼬	-0.18175247
-4.981491	url이태민	-0.0142000895
-4.981491	울아들램	-0.0142000895
-4.981491	투표하쎄용	-0.0142000895
-4.981491	인정할건	-0.0142000895
-4.981491	인정하세요	-0.0142000895
-3.8065188	저는	-0.0142000895
-4.2603755	연습생때부터	-0.0142000895
-4.981491	태민맘이었습니다	-0.0142000895
-3.8065188	아무리	-0.0142000895
-4.981491	빨라도	-0.0142000895
-4.981491	저보다	-0.0142000895
-4.981491	년은	-0.0142000895
-4.981491	느리실거에요	-0.0142000895
-4.2603755	태민맘	-0.0142000895
-4.981491	호는	-0.0142000895
-4.981491	접니다	-0.0142000895
-4.981491	년차	-0.0142000895
-2.9070916	종현	-0.037216857
-3.8065188	올림	-0.0142000895
-3.2865677	자	-0.0142000895
-3.6415157	부	-0.0142001165
-4.981491	심호호호	-0.0142000895
-4.981491	그렇죠	-0.0142000895
-4.981491	댄스가	-0.0142000895
-4.981491	격렬만지	-0.0142000895
-3.6415157	울	-0.14384934
-4.2603755	아들램	-0.0142000895
-4.981491	다리부러질까	-0.0142000895
-4.981491	노심초사했는지요	-0.0142000895
-4.2603755	멋지게	-0.0142000895
-4.981491	무댈	-0.0142000895
-4.981491	장악한	-0.0142000895
-4.981491	프로다운	-0.0142000895
-4.981491	모습에	-0.0142000895
-3.522229	눈물이	-0.0142001165
-4.981491	찔끔	-0.0142000895
-4.981491	다컷다니까요	-0.0142000895
-4.981491	울탬니	-0.0142000895
-4.981491	url울아들램	-0.0142000895
-4.981491	심기일전하여	-0.0142000895
-4.981491	힘내요	-0.0142000895
-4.981491	이태민	-0.0142000895
-3.8065188	파이팅	-0.0142000895
-4.981491	집	-0.0142000895
-4.981491	한건	-0.0142000895
-4.981491	하세요	-0.0142000895
-4.981491	아들램url	-0.0142000895
-4.2603755	어머	-0.0142000895
-4.981491	태민맘들	-0.0142000895
-3.522229	뮤비	-0.0142001165
-4.981491	보셨죠	-0.0142000895
-3.2865677	항상	-0.0142000895
-4.981491	넘나	-0.0142000895
-4.981491	멋지죠	-0.0142000895
-4.981491	잠시후	-0.0142000895
-4.981491	전곡이	-0.0142000895
-4.981491	공개된다고	-0.0142000895
-4.2603755	하네요	-0.0142000895
-4.981491	조금만더	-0.0142000895
-4.981491	기다려	-0.0142000895
-4.981491	봐요	-0.0142000895
-4.981491	자랑스런	-0.0142000895
-3.6415157	빠이팅	-0.14384934
-4.981491	post	-0.0142000895
-4.981491	photo	-0.0142000895
-4.981491	url쫑예림	-0.0142000895
-4.981491	김예림김종현	-0.0142000895
-4.981491	url짱이지	-0.0142000895
-4.981491	url이노래	-0.0142000895
-4.981491	짱좋아	-0.0142000895
-4.2603755	url근데	-0.0142000895
-4.981491	헤시테그저렇게하는거	-0.0142000895
-4.981491	맞아시로	-0.0142000895
-4.2603755	사랑을	-0.0142000895
-4.981491	고백하는	-0.0142000895
-3.6415157	남자는	-0.0142000895
-3.8065188	별로	-0.0142000895
-4.981491	안좋아	-0.0142000895
-3.8065188	하나	-0.0142000895
-4.981491	좋아하는_산하엽_페이지를_올려보자	-0.0142000895
-4.981491	url내일이에요	-0.0142000895
-3.134652	모두	-0.0142000895
-4.981491	수고많았어요	-0.0142000895
-4.981491	푹자고	-0.0142000895
-4.2603755	개운하게	-0.0142000895
-3.428746	눈을	-0.0142000895
-4.981491	뜨길바래요	-0.0142000895
-3.8065188	내일은	-0.0142000895
-3.6415157	세상에서	-0.0142000895
-3.428746	가장	-0.0142000895
-4.981491	컨디션일거야ㅋㅋ아니	-0.0142000895
-4.981491	새곡을	-0.0142000895
-4.981491	쓰는걸	-0.0142000895
-4.2603755	그건	-0.0142000895
-4.981491	당연히	-0.0142000895
-4.981491	편곡이랑	-0.0142000895
-4.981491	마무리따로해야지요	-0.0142000895
-4.981491	url이곡들만	-0.0142000895
-4.981491	완성하고	-0.0142000895
-4.981491	이번년도	-0.0142000895
-4.2603755	새로운	-0.0142000895
-4.981491	쓰는건	-0.0142000895
-3.8065188	잠깐	-0.0142000895
-4.981491	쉴거야	-0.0142000895
-4.981491	쉬는게	-0.0142000895
-4.981491	가능할까	-0.0142000895
-4.981491	이번년도에	-0.0142000895
-4.2603755	만든	-0.0142000895
-4.981491	데모	-0.0142000895
-3.522229	개	-0.0142001165
-4.981491	url일끝나고	-0.0142000895
-3.3518643	집에	-0.014200063
-4.2603755	왔는데	-0.0142000895
-4.981491	텅빈	-0.0142000895
-4.981491	곳에	-0.0142000895
-4.981491	들어오니까	-0.0142000895
-4.981491	집에온	-0.0142000895
-4.981491	기분이아니다	-0.0142000895
-3.428746	나에게	-0.0142000895
-4.981491	집은	-0.0142000895
-4.981491	누나와	-0.0142000895
-3.3518643	엄마	-0.0142000895
-2.882498	그리고	-0.046989147
-4.981491	루가있는	-0.0142000895
-4.981491	곳인가보다	-0.0142000895
-4.981491	보고싶어쏟아진	-0.0142000895
-4.981491	아드레날린을	-0.0142000895
-4.981491	진정시킬	-0.0142000895
-3.8065188	시간을	-0.0142000895
-4.981491	줘요	-0.0142000895
-4.981491	몸에게도ㅋㅋ	-0.0142000895
-4.981491	url이누야샤코스튬이없어서	-0.0142000895
-4.2603755	따로	-0.0142000895
-4.981491	옷사고	-0.0142000895
-4.981491	가발사고	-0.0142000895
-4.981491	섞다보니	-0.0142000895
-4.981491	셋쇼마루도	-0.0142000895
-4.981491	모티브가되버렸지	-0.0142000895
-4.981491	내년엔	-0.0142000895
-4.981491	싱크로율을	-0.0142000895
-4.981491	높여서	-0.0142000895
-4.981491	라디오를	-0.0142000895
-4.981491	이렇게갈순없어서	-0.0142000895
-4.981491	퇴근	-0.0142000895
-4.981491	웃겼다이번도	-0.0142000895
-4.981491	url엔디워홀버림	-0.0142000895
-4.981491	url헤르미온느랑	-0.0142000895
-4.981491	세상에서젤예쁜예림이랑	-0.0142000895
-4.981491	url그릉그릉	-0.0142000895
-4.981491	url낄낄	-0.0142000895
-4.981491	url잭스페로우	-0.0142000895
-4.981491	이누야샤	-0.0142000895
-4.981491	케이에프씨할배	-0.0142000895
-4.981491	url함수들	-0.0142000895
-3.8065188	노래가	-0.0142000895
-4.981491	멈추질않아	-0.0142000895
-3.3518643	이거	-0.014200063
-4.981491	끄는법	-0.0142000895
-4.981491	아시는분뮤비를	-0.0142000895
-4.981491	봐야되는거였구나	-0.0142000895
-4.981491	워우워우워우워우ㅜㅡㅅㄷᆞㄷㅅㅊㅅ	-0.0142000895
-4.981491	똥똥또로로도롱	-0.0142000895
-4.981491	딥하우스	-0.0142000895
-4.981491	짱이야	-0.0142000895
-4.981491	url워우워우워우워우	-0.0142000895
-4.981491	짱조아이어ᆞ어ᆞ이앙	-0.0142000895
-4.981491	urlㅋㅋ산하엽에	-0.0142000895
-4.981491	나오죠누나	-0.0142000895
-4.981491	영화를보겠다는	-0.0142000895
-4.981491	그녀의	-0.0142000895
-4.981491	계획은	-0.0142000895
-4.981491	애초에	-0.0142000895
-3.8065188	무리	-0.0142000895
-4.981491	url출산	-0.0142000895
-4.981491	유도를	-0.0142000895
-4.2603755	초	-0.0142000895
-3.3518643	중	-0.014200063
-3.3518643	고	-0.083495766
-4.981491	학제를	-0.0142000895
-4.981491	단축	-0.0142000895
-4.2603755	한다라	-0.0142000895
-4.981491	국정	-0.0142000895
-4.981491	교과서를	-0.0142000895
-4.981491	제작	-0.0142000895
-3.428746	이런	-0.0142000895
-4.981491	정책	-0.0142000895
-4.981491	속에서	-0.0142000895
-3.6415157	아이를	-0.0142001165
-4.2603755	낳고	-0.0142000895
-4.981491	정신과	-0.0142000895
-4.981491	신체가	-0.0142000895
-3.522229	건강한	-0.0142001165
-4.981491	인간으로	-0.0142000895
-4.981491	자랄수	-0.0142000895
-4.981491	있게	-0.0142000895
-4.981491	도울	-0.0142000895
-4.981491	자신이	-0.0142000895
-4.981491	없어질	-0.0142000895
-3.8065188	뿐이다	-0.118444666
-4.981491	낳지않으려는게	-0.0142000895
-3.6415157	아니라	-0.0142001165
-4.981491	낳는게	-0.0142000895
-4.981491	두렵다다들	-0.0142000895
-4.2603755	이미	-0.0142000895
-4.981491	들으셨겠지만	-0.0142000895
-3.2865677	정말	-0.0142000895
-4.981491	이번앨범은요	-0.0142000895
-4.981491	가사도	-0.0142000895
-4.981491	잘쓰고	-0.0142000895
-4.981491	곡도	-0.0142000895
-4.981491	트랙넘어갈때마다	-0.0142000895
-4.981491	감탄과	-0.0142000895
-4.981491	놀람의	-0.0142000895
-4.981491	연속	-0.0142000895
-4.981491	url나왔다	-0.0142000895
-4.981491	촬영하느라	-0.0142000895
-4.981491	이제듣네	-0.0142000895
-4.981491	영배형	-0.0142000895
-4.2603755	재밌었어요	-0.0142000895
-4.981491	콜라보는	-0.0142000895
-4.981491	즐거워	-0.0142000895
-4.981491	url몇시간	-0.0142000895
-4.981491	안남았네요	-0.0142000895
-4.2603755	시	-0.0142000895
-4.981491	엠넷에서	-0.0142000895
-4.981491	방송하는	-0.0142000895
-4.981491	월간	-0.0142000895
-3.428746	라이브	-0.0142000895
-4.981491	커넥션	-0.0142000895
-3.428746	오늘은	-0.0142000895
-4.2603755	소란	-0.0142000895
-4.981491	고영배씨와의	-0.0142000895
-4.981491	커넥션을	-0.0142000895
-4.981491	보실	-0.0142000895
-3.6415157	있습니다	-0.089945614
-3.8065188	방송	-0.0142000895
-4.981491	끝나면	-0.0142000895
-4.981491	음원공개되구요	-0.0142000895
-4.981491	url난장판ㅋㅎ	-0.0142000895
-4.981491	url사랑하는	-0.0142000895
-4.981491	이들아	-0.0142000895
-4.981491	당신들이	-0.0142000895
-4.981491	잠들었대도	-0.0142000895
-2.5488176	난	-0.025699254
-4.981491	멈추지않는다	-0.0142000895
-4.981491	자대깨도	-0.0142000895
-3.2865677	아직	-0.0142001165
-4.981491	취중이거든	-0.0142000895
-3.8065188	하하하	-0.118444666
-4.981491	회	-0.0142000895
-4.981491	전부ㅈ너무너무	-0.0142000895
-4.981491	url샤베트	-0.0142000895
-4.981491	당신들	-0.0142000895
-3.8065188	덕분에	-0.0142000895
-4.981491	숨수엇ᆞㄷᆞㄷ요ㅡ	-0.0142000895
-4.981491	url사랑해ㅢ	-0.0142000895
-4.981491	url집이다	-0.0142000895
-3.022325	이제	-0.034527894
-4.981491	커넥션보고자야지오늘	-0.0142000895
-4.981491	커넥션에서	-0.0142000895
-4.981491	새	-0.0142000895
-4.981491	엘리베이터	-0.0142000895
-4.2603755	공개되요	-0.18175247
-4.981491	음원도	-0.0142000895
-4.981491	오픈합니다	-0.0142000895
-4.981491	복잡미묘한	-0.0142000895
-4.981491	기분이네요못하는게없어	-0.0142000895
-4.981491	태연누나최고에요	-0.0142000895
-4.2603755	url루	-0.0142000895
-4.981491	못생기게나온거야	-0.0142000895
-4.981491	너이쁘잖아	-0.0142000895
-4.981491	사진찍을때만이래	-0.0142000895
-4.981491	이번공연	-0.0142000895
-4.981491	일등공신	-0.0142000895
-3.428746	루	-0.0142000895
-4.981491	url울누나랑	-0.0142000895
-3.428746	루가	-0.0142000895
-4.981491	날환영해줬찌	-0.0142000895
-4.981491	url첫콘	-0.0142000895
-3.428746	끝	-0.0962015
-3.6415157	고맙고	-0.0142000895
-3.522229	고마워	-0.0142000895
-4.981491	url아이구	-0.0142000895
-4.981491	엄마가또	-0.0142000895
-4.981491	서프라이즈를	-0.0142000895
-4.981491	url화이티이이이잉	-0.0142000895
-4.981491	url문열자마자	-0.0142000895
-3.522229	딱	-0.0142000895
-3.428746	ㅎㅎ	-0.0142000895
-4.981491	엄마누나사랑해요	-0.0142000895
-4.981491	url엄마가	-0.0142000895
-4.981491	내방에서프라이즈	-0.0142000895
-4.981491	해줬어ㅜㅡㅠ	-0.0142000895
-4.981491	내일공연잘하라구	-0.0142000895
-4.981491	잘해야지	-0.0142000895
-3.2865677	urlurl	-0.0142001165
-4.981491	트랙리스트	-0.0142000895
-4.981491	누가짯어요	-0.0142000895
-4.981491	누굴까	-0.0142000895
-4.981491	누구게	-0.0142000895
-4.981491	누구겠어	-0.0142000895
-4.981491	ㅋㅋㅋ뭐	-0.0142000895
-4.981491	내트랙리스튼데	-0.0142000895
-4.981491	ㅋㅋ오	-0.0142000895
-4.981491	디렉	-0.0142000895
-4.981491	오랜만	-0.0142000895
-4.981491	url헤르미온느	-0.0142000895
-4.981491	시계가	-0.0142000895
-4.981491	필요하다	-0.0142000895
-3.522229	시간이	-0.0142001165
-4.981491	필요해	-0.0142000895
-4.981491	아니이게무슨소리에요	-0.0142000895
-4.981491	월입니다	-0.0142000895
-4.981491	전전혀안어색하다구요	-0.0142000895
-4.981491	url아직	-0.0142000895
-4.981491	못사엽	-0.0142000895
-4.981491	월되야	-0.0142000895
-4.981491	파라엽	-0.0142000895
-4.981491	url고마엉	-0.0142000895
-3.6415157	헤헤	-0.0142000895
-4.2603755	url드디어	-0.0142000895
-3.8065188	나왔다	-0.0142000895
-4.981491	읽어봐야지	-0.0142000895
-4.2603755	url세번째	-0.0142000895
-4.2603755	서프라이즈	-0.18175247
-4.2603755	책을	-0.0142000895
-4.981491	쓸줄은	-0.0142000895
-4.981491	몰랐지	-0.0142000895
-4.981491	만져보고싶다	-0.0142000895
-4.981491	초판누구게ㅋㅋㅋㅋ	-0.0142000895
-4.981491	url예리는	-0.0142000895
-4.981491	예뻐서	-0.0142000895
-4.981491	예리니	-0.0142000895
-4.981491	url카주카주카주카주	-0.0142000895
-4.981491	url요기오디	-0.0142000895
-3.2298176	ㅅ	-0.49603188
-4.981491	url안전안전	-0.0142000895
-4.981491	url가사의	-0.0142000895
-4.2603755	주인공	-0.0142000895
-4.981491	별루로	-0.0142000895
-3.8065188	마무리	-0.0142000895
-4.981491	url오타니	-0.0142000895
-4.981491	료헤이님은	-0.0142000895
-4.981491	에스엔에스를	-0.0142000895
-4.981491	못찾아서ㅜㅜㅡ	-0.0142000895
-4.981491	영상몰입이	-0.0142000895
-4.981491	잘됬어요ㅡㅜ	-0.0142000895
-4.981491	뮤비함께해주신	-0.0142000895
-4.2603755	모든분들	-0.0142000895
-4.981491	감사해요ㅡㅜ정말	-0.0142000895
-4.981491	배우님	-0.0142000895
-4.981491	엔딩에서	-0.0142000895
-4.981491	쫌울뻔	-0.0142000895
-4.981491	ㅜㅜㅠ	-0.0142000895
-3.522229	url진짜	-0.0142001165
-4.981491	너무감사해요	-0.0142000895
-3.6415157	멋진	-0.0142000895
-4.981491	비디오에요	-0.0142000895
-4.981491	감동했어요	-0.0142000895
-4.981491	url고마워엠버	-0.0142000895
-3.8065188	url우리	-0.0142000895
-4.2603755	어디서	-0.0142000895
-4.981491	볼까	-0.0142000895
-4.981491	너무고마워요	-0.0142000895
-4.981491	공개됬던곡이기도했고	-0.0142000895
-4.981491	소품집이라서	-0.0142000895
-3.2298176	많은	-0.046246275
-4.981491	들어줄줄은	-0.0142000895
-4.981491	상상도못했는데	-0.0142000895
-3.6415157	덕분이야	-0.089945614
-4.2603755	앞으로	-0.0142000895
-4.981491	열심히할게요	-0.0142000895
-4.981491	지치고	-0.0142000895
-4.981491	힘들었는데	-0.0142000895
-4.981491	제노래들어주신	-0.0142000895
-4.981491	절토닥여주신겁니다	-0.0142000895
-4.981491	감사해요곧	-0.0142000895
-4.981491	공개되는	-0.0142000895
-4.981491	소품집	-0.0142000895
-4.981491	위로받으셨으면	-0.0142000895
-4.981491	좋겠어요	-0.0142000895
-4.981491	urlpost	-0.0142000895
-3.428746	video	-0.31994063
-4.981491	url일위축하해	-0.0142000895
-4.981491	레벨아	-0.0142000895
-4.981491	녹음실에서	-0.0142000895
-4.2603755	만난	-0.0142000895
-4.981491	꼬부기랑	-0.0142000895
-4.981491	배추ㅋㅋ	-0.0142000895
-4.981491	예리짱	-0.0142000895
-4.981491	예림이짱	-0.0142000895
-4.981491	배추짱	-0.0142000895
-4.981491	주현이짱	-0.0142000895
-4.981491	url종현이	-0.0142000895
-4.981491	명	-0.0142000895
-4.981491	허나	-0.0142000895
-4.981491	빙산의	-0.0142000895
-4.981491	일각	-0.0142000895
-4.2603755	url헉	-0.0142000895
-4.981491	ㅜㅜㅜㅜ신난	-0.0142000895
-4.2603755	나머지	-0.0142000895
-4.981491	스포했어요	-0.0142000895
-4.2603755	ㅜㅜㅜ	-0.0142000895
-4.981491	네이버웹툰	-0.0142000895
-4.981491	꼭보세요	-0.0142000895
-4.981491	반전쩔	-0.0142000895
-4.981491	어요	-0.0142000895
-4.981491	두작가님	-0.0142000895
-4.981491	절용서해주세요ㅜㅜㅜ	-0.0142000895
-4.981491	url네이버	-0.0142000895
-4.981491	웹툰	-0.0142000895
-4.981491	다이어트편입니다	-0.0142000895
-4.981491	ㅋㅋㅋㅋㅋㅋㄱㅋ나이제퇴근	-0.0142000895
-3.022325	ㅋ	-0.030870797
-4.981491	url합주중	-0.0142000895
-4.981491	url두번째	-0.0142000895
-4.981491	며칠밤을	-0.0142000895
-4.981491	새도	-0.0142000895
-4.981491	힘하나	-0.0142000895
-4.981491	안들고	-0.0142000895
-4.981491	행복했던	-0.0142000895
-2.9070916	앨범	-0.039851237
-4.981491	모든게	-0.0142000895
-4.2603755	urlred	-0.18175247
-4.981491	velvet	-0.0142000895
-4.981491	레드벨벳_dumb	-0.0142000895
-4.981491	dumb_mus	-0.0142000895
-4.981491	씀	-0.0142000895
-4.981491	우아아어ㅡㅇ촙ㅈㅅᆞㅅㄷ수ㅡ브읃ᆞㅈ그쉬	-0.0142000895
-4.981491	레드벨벳보고	-0.0142000895
-4.981491	귀여워쥬금믹싱	-0.0142000895
-4.981491	모니터도	-0.0142000895
-4.981491	우앙	-0.0142000895
-4.981491	떨린다위프리끼랑ㅋㅎ	-0.0142000895
-4.981491	url믹스본	-0.0142000895
-4.981491	듣는중	-0.0142000895
-4.981491	첩첩산중이지만	-0.0142000895
-4.981491	넘어가고있어	-0.0142000895
-4.981491	할수있어난	-0.0142000895
-4.981491	ㅜㅜㅜgucn	-0.0142000895
-4.981491	땅따먹기	-0.0142000895
-4.981491	예술혼ㅋㅋ	-0.0142000895
-4.981491	믹스	-0.0142000895
-4.981491	감샤	-0.0142000895
-4.981491	시부터	-0.0142000895
-4.981491	사투를	-0.0142000895
-4.981491	벌인	-0.0142000895
-4.981491	영웅들의	-0.0142000895
-4.981491	흔적	-0.0142000895
-3.8065188	수고하셨습니다	-0.0142000895
-4.981491	에	-0.0142000895
-4.981491	끝날줄	-0.0142000895
-4.981491	알았어	-0.0142000895
-4.981491	url해떳으니까	-0.0142000895
-4.981491	끝내도	-0.0142000895
-4.981491	되지않아	-0.0142000895
-4.981491	url뭘까	-0.0142000895
-4.981491	url가장	-0.0142000895
-4.2603755	설레고	-0.0142000895
-4.2603755	떨리고	-0.0142000895
-4.2603755	행복한	-0.0142000895
-4.981491	공간	-0.0142000895
-4.981491	결혼식장	-0.0142000895
-4.981491	인거같다	-0.0142000895
-4.981491	행복하길	-0.0142000895
-4.981491	닭발	-0.0142000895
-4.981491	누구얌	-0.0142000895
-4.981491	urlㅜㅜㅜㅜㅜ	-0.0142000895
-4.2603755	엉엉	-0.0142000895
-4.981491	이앨범진짜	-0.0142000895
-4.981491	너무좋아ㅜㅜㅜㅜ	-0.0142000895
-4.981491	url깜짝	-0.0142000895
-4.981491	놀랐지	-0.0142000895
-3.6415157	ㅋㅋㅋㅋㅋ	-0.0142000895
-3.8065188	준비한	-0.0142000895
-4.981491	서프라이즈는	-0.0142000895
-3.8065188	두개	-0.0142000895
-4.981491	남았다	-0.0142000895
-4.981491	url빠이팅	-0.0142000895
-4.981491	ㅋㅋㅋ싸이먼	-0.0142000895
-4.981491	ㅜㅜㅜㅜ	-0.0142000895
-4.981491	뮤비를보면서	-0.0142000895
-4.981491	오타낸	-0.0142000895
-4.981491	자신을	-0.0142000895
-4.981491	책망했습니다ㅜㅠ아니	-0.0142000895
-4.981491	오타리니ㅜㅜㅜㅡㅜ아니이이우ㅜㅜㅜㅜ죄송합니다	-0.0142000895
-4.981491	선배님드루ㅜㅡㅜㅜ	-0.0142000895
-4.981491	소녀시다가	-0.0142000895
-4.2603755	나왔어요	-0.0142000895
-4.981491	꺅	-0.0142000895
-4.981491	빨리들어요	-0.0142000895
-4.981491	url네네네네네네네	-0.0142000895
-4.981491	모험하러갈래요	-0.0142000895
-4.981491	url꾸르릉꾸르릉	-0.0142000895
-4.981491	하늘이	-0.0142000895
-4.981491	배탈났나봐url	-0.0142000895
-4.981491	ㅋㄱㄲ오늘	-0.0142000895
-4.981491	피크닉	-0.0142000895
-4.981491	요약	-0.0142000895
-4.981491	url날이	-0.0142000895
-4.981491	맑으면	-0.0142000895
-4.2603755	좋은건	-0.0142000895
-4.981491	셀카찍기	-0.0142000895
-4.981491	좋다는	-0.0142000895
-4.981491	그거말고는	-0.0142000895
-3.6415157	딱히	-0.0142000895
-4.981491	없엉	-0.0142000895
-4.981491	url꼭하겠습니다	-0.0142000895
-4.981491	다들추천하던데요	-0.0142000895
-4.981491	url디오더	-0.0142000895
-4.981491	엔딩봤다	-0.0142000895
-4.981491	이것도	-0.0142000895
-4.981491	대박이네	-0.0142000895
-4.981491	플스게임	-0.0142000895
-4.981491	추천	-0.0142000895
-4.2603755	받습니다	-0.0142000895
-4.981491	와ㅋㅋㅋㄱㅋㅋㅋㄱ봇중에	-0.0142000895
-4.981491	엔디워홀봇이	-0.0142000895
-3.134652	제일	-0.0142000895
-4.2603755	재밌어	-0.0142000895
-4.981491	네이버	-0.0142000895
-4.981491	v앱	-0.0142000895
-4.981491	생중계	-0.0142000895
-4.981491	삼시세방	-0.0142000895
-4.981491	작정하고	-0.0142000895
-4.981491	요상하게	-0.0142000895
-4.981491	만들어보자	-0.0142000895
-3.8065188	하면	-0.0142000895
-4.981491	요래되요	-0.0142000895
-4.981491	ㅋㅋㅋㄱㅋㅋㅋㅋㄱ촬영하면서도	-0.0142000895
-4.981491	즐거웠어ㅋㅋㅋㅋㄱㅋ	-0.0142000895
-4.981491	감독님과	-0.0142000895
-4.981491	민누나를	-0.0142000895
-4.981491	비롯한	-0.0142000895
-4.981491	스텝들	-0.0142000895
-4.981491	사랑훼요방송하다	-0.0142000895
-4.981491	드시면	-0.0142000895
-4.981491	안됩니다	-0.0142000895
-3.6415157	urlsoran_kyb	-0.089945614
-4.981491	이분이하십니다	-0.0142000895
-4.981491	urlyounhahol	-0.0142000895
-3.3518643	오	-0.047467265
-4.981491	안자는군	-0.0142000895
-3.8065188	지금부터	-0.0142000895
-4.981491	작업한다	-0.0142000895
-4.981491	기대해도좋아레츠꼬운동하구	-0.0142000895
-4.981491	집왔는데	-0.0142000895
-4.981491	문앞에	-0.0142000895
-4.981491	떡하니	-0.0142000895
-4.2603755	누나랑	-0.0142000895
-4.981491	둘이서	-0.0142000895
-4.981491	나빼놓고	-0.0142000895
-4.981491	커플장화	-0.0142000895
-4.981491	신음	-0.0142000895
-4.981491	흥	-0.0142000895
-4.981491	url이제	-0.0142000895
-4.981491	갓오브워해야징징베트맨	-0.0142000895
-4.981491	아캄나이트	-0.0142000895
-4.981491	진엔딩봤다	-0.0142000895
-4.981491	조금	-0.0142000895
-4.981491	허무준영이형한테	-0.0142000895
-4.981491	또낚였다	-0.0142000895
-4.981491	부들부들인사이드아웃	-0.0142000895
-4.981491	그리구	-0.0142000895
-4.981491	이걸타고싶었어	-0.0142000895
-4.2603755	늦어서	-0.0142000895
-4.981491	못탓지만	-0.0142000895
-4.981491	url청자켓은	-0.0142000895
-4.981491	안보야쥼한시간뒤	-0.0142000895
-3.522229	푸른밤을	-0.0142001165
-4.981491	들으세효	-0.0142000895
-4.981491	푸른밤은	-0.0142000895
-3.8065188	보이는	-0.0142000895
-4.981491	라디오라죠	-0.0142000895
-4.981491	푸른밤에선	-0.0142000895
-4.2603755	자주	-0.0142000895
-4.981491	하지않는	-0.0142000895
-4.981491	라디오	-0.0142000895
-4.981491	바쁘셔도	-0.0142000895
-4.981491	와주시죠	-0.0142000895
-4.981491	나이쁘게하고갈껀데	-0.0142000895
-4.981491	어제산	-0.0142000895
-4.981491	청자켓	-0.0142000895
-4.981491	입을껀데	-0.0142000895
-4.981491	꼭듣고	-0.0142000895
-4.981491	봐용블로형과	-0.0142000895
-4.981491	유닛이라니	-0.0142000895
-4.981491	꿀이겠다	-0.0142000895
-4.2603755	거기다	-0.0142000895
-4.981491	수지씨라뇨	-0.0142000895
-4.981491	성공한	-0.0142000895
-4.2603755	인생의	-0.0142000895
-4.981491	표본이되겠군	-0.0142000895
-4.981491	믹스가	-0.0142000895
-4.981491	끝났어요	-0.0142000895
-4.981491	가제는	-0.0142000895
-4.981491	퐈인	-0.0142000895
-4.2603755	제목은	-0.0142000895
-4.981491	뭐게	-0.0142000895
-3.6415157	다음	-0.0142000895
-4.981491	주	-0.0142000895
-4.981491	청취하신다면	-0.0142000895
-4.981491	알수있습니다	-0.0142000895
-4.2603755	mbc	-0.0142000895
-3.6415157	fm	-0.3223152
-4.981491	u	-0.0142000895
-4.981491	에요	-0.0142000895
-4.981491	외쳐	-0.0142000895
-4.981491	들어	-0.0142000895
-4.2603755	urlvibeangel	-0.0142000895
-3.8065188	그보다	-0.0142000895
-4.981491	푸작그작	-0.0142000895
-4.981491	믹스본	-0.0142000895
-4.2603755	듣는데	-0.0142000895
-2.9905262	역시	-0.0142000895
-4.2603755	누난	-0.0142000895
-4.2603755	최곱니다	-0.0142000895
-4.981491	다음주	-0.0142000895
-4.981491	공개곡	-0.0142000895
-4.981491	기대감	-0.0142000895
-4.981491	상승url	-0.0142000895
-4.981491	다같이	-0.0142000895
-4.981491	푹쉬었으면	-0.0142000895
-4.981491	밤은	-0.0142000895
-4.981491	깊어졌고	-0.0142000895
-3.2865677	우린	-0.0142000895
-4.981491	오늘하루도	-0.0142000895
-3.522229	수고했어요	-0.073702715
-4.981491	일단은	-0.0142000895
-4.2603755	잠들고	-0.0142000895
-4.981491	빗소리에	-0.0142000895
-4.981491	뜨게되길	-0.0142000895
-4.981491	기대해봅시다	-0.0142000895
-4.981491	안녕여성을	-0.0142000895
-4.2603755	창작을	-0.18175247
-3.6415157	위한	-0.0142001165
-4.981491	도구로	-0.0142000895
-3.8065188	보는	-0.0142000895
-4.981491	것이냐는	-0.0142000895
-3.522229	이야기를	-0.0142001165
-4.2603755	하시는데	-0.0142000895
-4.981491	도구로써	-0.0142000895
-4.981491	쓰이는	-0.0142000895
-3.6415157	것은	-0.0142001165
-3.6415157	세상	-0.0142000895
-4.981491	어디에도	-0.0142000895
-4.981491	없습니다	-0.0142000895
-4.2603755	존재하는	-0.0142000895
-4.981491	무언가를	-0.0142000895
-4.981491	예술로	-0.0142000895
-4.981491	표현할	-0.0142000895
-4.981491	뿐입니다축복을	-0.0142000895
-4.981491	존재이고	-0.0142000895
-4.2603755	영감을	-0.0142000895
-4.2603755	주는	-0.0142000895
-4.981491	존재라는	-0.0142000895
-3.6415157	나보다	-0.0142000895
-4.981491	아래에있다는	-0.0142000895
-4.2603755	의미가	-0.0142000895
-3.8065188	아닙니다	-0.118444666
-4.981491	영감의	-0.0142000895
-4.981491	대상은	-0.0142000895
-4.981491	상하를	-0.0142000895
-4.981491	막론하고	-0.0142000895
-4.2603755	존재	-0.0142000895
-4.981491	합니다url작은일에	-0.0142000895
-4.981491	반응하지	-0.0142000895
-4.981491	말아야한다고	-0.0142000895
-3.8065188	생각하고	-0.0142000895
-4.981491	살고있습니다	-0.0142000895
-4.2603755	잘못을	-0.0142000895
-4.981491	지적하는	-0.0142000895
-4.2603755	사람들의	-0.0142000895
-4.981491	시선이나	-0.0142000895
-4.981491	생각들을	-0.0142000895
-3.8065188	정확히	-0.0142000895
-4.981491	이해하고	-0.0142000895
-4.981491	틀린	-0.0142000895
-4.2603755	생각을	-0.0142000895
-4.981491	고쳐나가는게	-0.0142000895
-4.981491	배우는	-0.0142000895
-4.2603755	삶의	-0.0142000895
-4.981491	기본이라고	-0.0142000895
-4.981491	urlㅋㄱㅋㅋㄱㄱㄱ저건	-0.0142000895
-4.981491	기프티콘이	-0.0142000895
-4.2603755	아니었다	-0.0142000895
-4.981491	클릭하자	-0.0142000895
-4.981491	귀신사진이	-0.0142000895
-4.2603755	떳다	-0.0142000895
-4.981491	ㅋㅋㅋㄱㅋㄱㄱㄱㅋㅋㄱㄱ	-0.0142000895
-4.981491	실성직전ㅋㅋㅋ	-0.0142000895
-4.2603755	다시생각해도	-0.0142000895
-4.981491	짧은시간	-0.0142000895
-4.981491	파닥거린	-0.0142000895
-4.981491	안쓰럽다	-0.0142000895
-4.981491	애플에서	-0.0142000895
-4.981491	찍기는	-0.0142000895
-4.981491	뭘	-0.0142000895
-4.981491	사과로	-0.0142000895
-4.981491	찍어주고싶은	-0.0142000895
-4.981491	기분재밌으신분	-0.0142000895
-4.981491	url휘파람에	-0.0142000895
-4.2603755	이어	-0.0142000895
-4.981491	잔치기	-0.0142000895
-4.981491	세션맨으로	-0.0142000895
-4.981491	까지	-0.0142000895
-4.981491	시작	-0.0142000895
-4.981491	녹음은	-0.0142000895
-4.981491	유쾌의	-0.0142000895
-4.981491	끝이었다	-0.0142000895
-4.981491	url인테리어	-0.0142000895
-4.981491	완료	-0.0142000895
-4.981491	힘들었어	-0.0142000895
-4.981491	장전축과	-0.0142000895
-4.981491	오르골	-0.0142000895
-4.981491	빼고는	-0.0142000895
-4.981491	작동	-0.0142000895
-4.2603755	안하는	-0.0142000895
-4.981491	인테리어용소품들	-0.0142000895
-4.981491	url블러드본	-0.0142000895
-4.981491	세가지	-0.0142000895
-4.981491	엔딩과	-0.0142000895
-4.981491	라스트	-0.0142000895
-4.981491	오브	-0.0142000895
-4.981491	어스	-0.0142000895
-4.981491	엔딩을	-0.0142000895
-3.8065188	봤다	-0.0142000895
-4.2603755	둘다	-0.0142000895
-4.981491	쩌는	-0.0142000895
-4.2603755	게임이다	-0.0142000895
-4.981491	음악이도	-0.0142000895
-4.981491	너무좋고	-0.0142000895
-4.981491	심장쫄깃함이	-0.0142000895
-4.981491	장난아니야민호든	-0.0142000895
-4.981491	기범든	-0.0142000895
-4.981491	누군가	-0.0142000895
-4.981491	올리기전에	-0.0142000895
-4.981491	선빵친다	-0.0142000895
-2.9070916	근데	-0.0142000895
-4.981491	맞는건	-0.0142000895
-4.981491	나인가딸기는	-0.0142000895
-3.8065188	빛을	-0.0142000895
-4.981491	완벽히	-0.0142000895
-4.981491	차단해줬지이러구	-0.0142000895
-4.981491	자다가	-0.0142000895
-4.981491	올려서	-0.0142000895
-4.981491	헤롱헤롱	-0.0142000895
-4.2603755	오타가	-0.0142000895
-4.2603755	푸른	-0.18175247
-3.8065188	밤	-0.089945614
-3.6415157	작사	-0.089945614
-4.2603755	남자	-0.0142000895
-4.981491	작곡의	-0.0142000895
-4.981491	시즌	-0.0142000895
-4.981491	첫공개	-0.0142000895
-4.981491	기대해줘요	-0.0142000895
-4.981491	url푸른	-0.0142000895
-3.8065188	작곡	-0.0142001165
-4.981491	이번시즌	-0.0142000895
-4.981491	청공개느	-0.0142000895
-4.981491	언제일까요	-0.0142000895
-4.981491	본방송을	-0.0142000895
-4.981491	놓치지마세용푸작그작	-0.0142000895
-4.981491	가사수정	-0.0142000895
-4.981491	술땡기는	-0.0142000895
-3.8065188	가사	-0.0142000895
-4.981491	소영배씨ㅎ담주에또soran_kyb	-0.0142000895
-4.981491	잘가요	-0.0142000895
-4.981491	카우제로쉽younhahol	-0.0142000895
-4.981491	잠이안오면	-0.0142000895
-4.981491	푸른밤으로	-0.0142000895
-4.2603755	오세요	-0.0142000895
-4.981491	ㅎ오	-0.0142000895
-4.981491	이거누가봐도	-0.0142000895
-4.981491	맥날이네	-0.0142000895
-4.981491	url내일도	-0.0142000895
-4.981491	쉬러와요	-0.0142000895
-4.981491	url아우귀여웡우리미노오구오구	-0.0142000895
-4.2603755	이걸로	-0.0142000895
-4.981491	리벤지매치는	-0.0142000895
-4.981491	종료한다	-0.0142000895
-4.981491	url뭐라는데	-0.0142000895
-4.981491	눈빛이	-0.0142000895
-4.981491	url너라고	-0.0142000895
-4.981491	안전할줄알았니	-0.0142000895
-4.981491	url어휴	-0.0142000895
-4.981491	에세넬	-0.0142000895
-4.981491	금광이네	-0.0142000895
-4.981491	캐도캐도	-0.0142000895
-4.981491	끝이없네	-0.0142000895
-4.981491	세윤이형	-0.0142000895
-4.981491	머리에	-0.0142000895
-4.981491	붓인가	-0.0142000895
-4.981491	url리벤지	-0.0142000895
-4.981491	url이게뭐람	-0.0142000895
-4.981491	url전	-0.0142000895
-4.981491	혀	-0.0142000895
-4.2603755	모	-0.0142000895
-4.981491	르	-0.0142000895
-4.981491	겠	-0.0142000895
-3.8065188	하	-0.0142000895
-4.981491	낫	-0.0142000895
-3.0566375	또	-0.0142000895
-4.981491	감	-0.0142000895
-4.2603755	안	-0.0142000895
-4.2603755	옴	-0.0142000895
-4.981491	레	-0.0142000895
-4.2603755	데	-0.0142000895
-4.981491	까대체누구	-0.0142000895
-4.981491	url민호는	-0.0142000895
-4.2603755	평소엔	-0.0142000895
-4.981491	먹는다네	-0.0142000895
-4.981491	사람이아닌듯합친숫자에용	-0.0142000895
-3.522229	사람이	-0.0142001165
-4.981491	어떠케	-0.0142000895
-4.981491	접시를	-0.0142000895
-4.981491	먹어요	-0.0142000895
-4.981491	한접시시켜서	-0.0142000895
-4.981491	나눠먹은거두잇지롱민호보다	-0.0142000895
-4.981491	두접시	-0.0142000895
-4.981491	덜먹었다	-0.0142000895
-4.981491	꽤늘었죠ㅎ	-0.0142000895
-4.981491	url후식이	-0.0142000895
-3.8065188	나오는	-0.0142000895
-4.981491	타이밍에	-0.0142000895
-4.981491	가게에서	-0.0142000895
-4.981491	줄리엣이	-0.0142000895
-4.981491	흘러나왔다	-0.0142000895
-4.981491	예뻐나	-0.0142000895
-4.981491	뷰를	-0.0142000895
-4.981491	틀면	-0.0142000895
-4.981491	티나고	-0.0142000895
-4.981491	링딩동이나	-0.0142000895
-4.981491	루시퍼는	-0.0142000895
-4.981491	초밥과	-0.0142000895
-4.981491	어울리지않았겠지	-0.0142000895
-4.981491	이거로마무리	-0.0142000895
-3.8065188	하려는데	-0.0142000895
-4.2603755	민호가	-0.0142000895
-4.981491	거스	-0.0142000895
-4.981491	히딩크	-0.0142000895
-4.981491	라고	-0.0142001165
-4.981491	외쳤다	-0.0142000895
-4.2603755	여기서	-0.0142000895
-4.2603755	문제	-0.0142000895
-3.2865677	무슨	-0.0142000895
-4.981491	의도의	-0.0142000895
-4.981491	멘트였을까요	-0.0142000895
-4.981491	url야심작	-0.0142000895
-4.981491	보리새우	-0.0142000895
-4.981491	튀김	-0.0142000895
-4.981491	새우수염이	-0.0142000895
-4.981491	보리같이생겨서	-0.0142000895
-4.981491	보리새우랍니다	-0.0142000895
-4.981491	쌀보리게임을	-0.0142000895
-4.981491	부르는	-0.0142000895
-4.981491	맛	-0.0142000895
-4.981491	url이것은	-0.0142000895
-4.981491	참치	-0.0142000895
-4.981491	뱃살과	-0.0142000895
-4.981491	연어	-0.0142000895
-4.2603755	뱃살	-0.0142000895
-4.981491	접시는	-0.0142000895
-3.428746	너의	-0.0142000895
-3.8065188	url민호	-0.19737644
-4.2603755	평	-0.0142000895
-3.522229	음	-0.063202076
-4.981491	할말없음	-0.0142000895
-4.981491	한접시만	-0.0142000895
-4.981491	시키길	-0.0142000895
-4.981491	잘함	-0.0142000895
-4.2603755	고향의	-0.0142000895
-4.2603755	참맛이	-0.18175247
-4.981491	느껴진다	-0.0142000895
-4.981491	광어	-0.0142000895
-4.981491	위에	-0.0142000895
-4.981491	올라간게	-0.0142000895
-4.981491	무언지	-0.0142000895
-4.981491	설마	-0.0142000895
-4.981491	묵은지	-0.0142000895
-4.981491	바디의	-0.0142000895
-4.2603755	그간	-0.0142000895
-4.2603755	너만	-0.0142000895
-4.981491	즐겼냐	-0.0142000895
-3.8065188	이걸	-0.0142000895
-4.981491	이기주의자	-0.0142000895
-4.981491	포세이돈	-0.0142000895
-4.981491	url장어	-0.0142000895
-4.981491	스테미나	-0.0142000895
-4.981491	바바리안	-0.0142000895
-4.981491	휘린드	-0.0142000895
-4.981491	url와규를	-0.0142000895
-4.981491	와규와규	-0.0142000895
-4.2603755	url오오	-0.0142000895
-4.981491	냠냠냠	-0.0142000895
-4.981491	url민호와	-0.0142000895
-4.981491	누가누가	-0.0142000895
-4.981491	초밥	-0.0142000895
-4.981491	먹나	-0.0142000895
-4.981491	내기	-0.0142000895
-4.981491	시작url	-0.0142000895
-4.2603755	음악의	-0.0142000895
-4.981491	삼요소는	-0.0142000895
-4.981491	멜로디	-0.0142000895
-4.981491	하모니	-0.0142000895
-3.8065188	리듬	-0.089945614
-4.981491	아니요	-0.0142000895
-3.2298176	입니다	-0.27229276
-3.1796334	잘	-0.0142001165
-4.981491	없	-0.0142000895
-3.522229	어	-0.073702715
-3.1796334	이게	-0.04293314
-4.2603755	뭡니까	-0.0142000895
-4.981491	음악이	-0.0142000895
-3.6415157	최고다	-0.0142001165
-4.981491	모든것	-0.0142000895
-4.981491	으뜸이야이분	-0.0142000895
-4.981491	이러시는	-0.0142000895
-4.981491	거죠	-0.0142000895
-4.981491	방송중에	-0.0142000895
-4.2603755	머리를	-0.0142000895
-4.981491	감지	-0.0142000895
-4.2603755	뭐야	-0.0142000895
-4.2603755	뭔데	-0.0142000895
-4.981491	보셨	-0.0142000895
-4.981491	습니까	-0.0142000895
-3.0566375	아	-0.0142000895
-4.981491	봤단	-0.0142000895
-4.981491	말이지	-0.0142000895
-3.8065188	어쩌지	-0.0142000895
-4.981491	한발	-0.0142000895
-3.8065188	늦은	-0.0142000895
-4.981491	창피함이	-0.0142000895
-4.981491	밀려온다	-0.0142000895
-4.981491	url야레야레	-0.0142000895
-4.981491	불꽃카리스마	-0.0142000895
-3.522229	민호	-0.0142001165
-4.981491	snl은	-0.0142000895
-4.981491	완	-0.0142000895
-4.981491	벽	-0.0142000895
-3.6415157	한	-0.089945614
-4.981491	ㄴㅓ의	-0.0142000895
-4.981491	승리다	-0.0142000895
-4.981491	인정하지	-0.0142000895
-4.2603755	짝	-0.118444666
-4.981491	방심은	-0.0142000895
-4.981491	금물	-0.0142000895
-4.981491	ㄴr	-0.0142000895
-4.981491	님도	-0.0142000895
-4.981491	분발	-0.0142000895
-3.8065188	할	-0.0142000895
-4.981491	거라구부산에서	-0.0142000895
-4.981491	만났던	-0.0142000895
-4.2603755	멍뭉이	-0.0142000895
-4.981491	url졸립니다	-0.0142000895
-4.2603755	urlㅋㅋㅋㅋ	-0.0142000895
-4.981491	샤뱅기	-0.0142000895
-4.2603755	urldearcloud_nin	-0.18175247
-2.9905262	realjonghyun	-0.89634645
-4.2603755	너무나	-0.0142000895
-4.981491	세련됐어	-0.0142000895
-3.2865677	ㅠㅠ	-0.0142000895
-4.981491	천사들	-0.0142000895
-4.981491	고마워용younhahol	-0.0142000895
-3.134652	누나	-0.038010344
-4.2603755	ㅋㅋㅋㅋㅋㅋ	-0.0142000895
-4.981491	루랑도	-0.0142000895
-4.981491	빨리만나야되는데	-0.0142000895
-4.981491	누나네	-0.0142000895
-4.981491	아가들이랑ㅋㅋurl	-0.0142000895
-2.7960598	샤이니	-0.040949434
-4.981491	뷰	-0.0142000895
-3.522229	공개	-0.073702715
-4.981491	두근두근ㅋㅋㄱㅋㅋㄱㄱ눈을뜨니	-0.0142000895
-4.981491	한시라니	-0.0142000895
-4.981491	콘서트와	-0.0142000895
-4.981491	회식으로	-0.0142000895
-4.981491	달려	-0.0142000895
-4.981491	몸이움직이질	-0.0142000895
-3.6415157	않는다	-0.089945614
-4.981491	나같은	-0.0142000895
-3.8065188	사람	-0.0142000895
-4.981491	손	-0.0142000895
-4.981491	callmegray	-0.0142000895
-4.981491	오드	-0.0142000895
-4.981491	ㅋㅋㄱㅋㅋㄱ샤릉해	-0.0142000895
-4.981491	작업하자형ㅋㅋㄱㅋ진짜	-0.0142000895
-4.981491	일간	-0.0142000895
-4.981491	너무고생했어요	-0.0142000895
-4.2603755	팬분들	-0.0142000895
-4.2603755	시작입니다	-0.18175247
-4.981491	아자뵤	-0.0142000895
-3.8065188	신나게	-0.0142000895
-4.981491	갑시다공개	-0.0142000895
-4.981491	오드vibeangel	-0.0142000895
-4.981491	ㅋㅋㅋㅋㅋ그러게요	-0.0142000895
-4.981491	나온답니다한시간남았어요	-0.0142000895
-4.2603755	한시간	-0.0142000895
-4.981491	사십분	-0.0142000895
-4.981491	남았습니당	-0.0142000895
-4.981491	어린데	-0.0142000895
-4.981491	나이	-0.0142000895
-4.981491	많아보임	-0.0142000895
-4.981491	동안가족들	-0.0142000895
-4.981491	이뿌닝	-0.0142000895
-3.6415157	아이돌	-0.0142000895
-4.981491	염색했네	-0.0142000895
-4.981491	url잠시	-0.0142000895
-4.2603755	열두시에	-0.0142000895
-4.981491	odd전곡이	-0.0142000895
-4.2603755	공개됩니다	-0.0142000895
-4.981491	기대해주세요운동화	-0.0142000895
-4.981491	신고오세요회의	-0.0142000895
-4.981491	내일봅시다드라이브하고싶당	-0.0142000895
-4.981491	이노래들으면	-0.0142000895
-4.981491	url이상형	-0.0142000895
-3.6415157	나랑	-0.0142000895
-4.981491	겹치시네	-0.0142000895
-4.981491	url그럼	-0.0142000895
-4.981491	지금보다	-0.0142000895
-4.2603755	행복할	-0.18175247
-4.981491	거래	-0.0142000895
-4.981491	url보아누나	-0.0142000895
-4.981491	가성진짜	-0.0142000895
-3.6415157	좋아요	-0.0142000895
-4.981491	너무좋아좋아요	-0.0142000895
-4.981491	url유니세프는	-0.0142000895
-3.522229	이번	-0.073702715
-4.981491	지진으로	-0.0142000895
-3.2298176	큰	-0.0142000895
-4.981491	고통에	-0.0142000895
-4.981491	놓인	-0.0142000895
-4.981491	네팔	-0.0142000895
-4.981491	어린이들을	-0.0142000895
-4.981491	돕고	-0.0142000895
-4.2603755	여러분도	-0.0142000895
-4.981491	함께해주세요	-0.0142000895
-4.981491	helpnepalchildren	-0.0142000895
-3.428746	꼭	-0.0142000895
-4.981491	유니세프가	-0.0142000895
-4.981491	아니어도	-0.0142000895
-4.981491	좋습니다	-0.0142000895
-4.981491	기부가	-0.0142000895
-4.981491	아니더라도	-0.0142000895
-4.2603755	눈길을	-0.0142000895
-4.981491	돌리지말아주세요브라질을	-0.0142000895
-4.981491	오다면서	-0.0142000895
-4.981491	에반게리온	-0.0142000895
-4.981491	티브이판을	-0.0142000895
-4.981491	dvd로	-0.0142000895
-4.981491	정주행했다	-0.0142000895
-4.981491	보면서	-0.0142000895
-4.981491	자존감	-0.0142000895
-4.981491	회복	-0.0142000895
-3.2298176	그래	-0.12535712
-4.981491	신지같은	-0.0142000895
-4.981491	놈도	-0.0142000895
-3.6415157	세상을	-0.0142000895
-4.981491	구하는데	-0.0142000895
-4.981491	나라고	-0.0142000895
-4.981491	못할쏘냐	-0.0142000895
-4.981491	답답	-0.0142000895
-4.981491	자존감은	-0.0142000895
-4.981491	회복했는데	-0.0142000895
-4.981491	얘	-0.0142000895
-3.3518643	때문에	-0.0142000895
-4.981491	수명	-0.0142000895
-3.6415157	준	-0.0142000895
-4.981491	같아예림씨는	-0.0142000895
-3.8065188	목소리가	-0.0142000895
-4.981491	최고네요	-0.0142000895
-3.8065188	수록곡	-0.0142000895
-3.8065188	했습니다	-0.118444666
-4.981491	들어봐주세요	-0.0142000895
-4.981491	url며칠째	-0.0142000895
-4.981491	이곡을	-0.0142000895
-3.3518643	계속	-0.014200063
-4.981491	듣고있다	-0.0142000895
-4.2603755	가사가	-0.0142000895
-4.981491	제주방언	-0.0142000895
-4.981491	이라는데	-0.0142000895
-4.981491	제주도의	-0.0142000895
-4.2603755	판타지를	-0.0142000895
-4.981491	키워줬다	-0.0142000895
-4.981491	발음을	-0.0142000895
-4.981491	잘표현한	-0.0142000895
-4.981491	루아라는	-0.0142000895
-4.981491	가수도	-0.0142000895
-4.981491	궁금해졌다	-0.0142000895
-4.981491	물음표	-0.0142000895
-4.981491	투성이인	-0.0142000895
-4.981491	매력적이다	-0.0142000895
-4.981491	url떳네떳어	-0.0142000895
-4.981491	타이틀도	-0.0142000895
-4.2603755	기대중	-0.0142000895
-4.981491	쓴곡은	-0.0142000895
-4.981491	번	-0.0142000895
-4.981491	more에요	-0.0142000895
-4.981491	urlmelodymonthli	-0.0142000895
-4.981491	작업과정이	-0.0142000895
-4.2603755	예림씨	-0.0142000895
-4.981491	melodymonthli	-0.0142000895
-4.2603755	아우	-0.0142000895
-3.8065188	rt	-0.0142000895
-4.981491	mystic_	-0.0142000895
-4.981491	김예림	-0.0142000895
-4.2603755	일	-0.0142000895
-3.428746	첫	-0.083495766
-4.981491	번째	-0.0142000895
-4.2603755	타이틀	-0.0142000895
-4.981491	awoo	-0.0142000895
-3.428746	gt	-0.063202076
-4.2603755	기다리던	-0.0142000895
-4.981491	두근두근kimbotong	-0.0142000895
-4.981491	리	-0.0142000895
-4.981491	세훈의	-0.0142000895
-4.981491	얼빠지만	-0.0142000895
-4.2603755	종현의	-0.0142000895
-4.981491	팬이기도	-0.0142000895
-3.8065188	함	-0.0142000895
-4.2603755	작가님	-0.0142000895
-4.981491	팬이에요지인과	-0.0142000895
-4.981491	나눈이야기들	-0.0142000895
-4.981491	비유해서	-0.0142000895
-4.981491	여러분께	-0.0142000895
-4.981491	전하지만	-0.0142000895
-3.522229	모두에게	-0.0142001165
-4.981491	전달되길잠들어야	-0.0142000895
-3.3518643	좀더	-0.014200063
-4.981491	깊고	-0.0142000895
-4.981491	확실한	-0.0142000895
-3.8065188	꿈을	-0.0142000895
-4.981491	꿔야	-0.0142000895
-4.981491	떳을때	-0.0142000895
-4.981491	흔들리는	-0.0142000895
-4.981491	붙들기	-0.0142000895
-3.8065188	위해서	-0.0142000895
-4.981491	나를	-0.0142000895
-4.981491	현실과	-0.0142000895
-4.981491	대결시키기	-0.0142000895
-3.6415157	현실로	-0.0142000895
-4.981491	착각하지	-0.0142000895
-4.981491	않기	-0.0142000895
-3.022325	좀	-0.047467265
-4.2603755	확실히	-0.0142000895
-4.981491	꿔야한다	-0.0142000895
-3.8065188	우리는	-0.0142000895
-4.981491	몽상가들이	-0.0142000895
-4.981491	필요하다함께	-0.0142000895
-3.6415157	다시한번	-0.0142001165
-3.522229	같은	-0.0142001165
-4.981491	감정과	-0.0142000895
-4.981491	나눌겁니다	-0.0142000895
-4.981491	url가사가	-0.0142000895
-4.981491	너무좋네요	-0.0142000895
-4.981491	url눈썹도	-0.0142000895
-4.981491	염색은	-0.0142000895
-4.981491	안하고	-0.0142000895
-4.2603755	다듬은	-0.18175247
-4.981491	뿌리가	-0.0142000895
-4.981491	저만치	-0.0142000895
-4.981491	자랐는데	-0.0142000895
-4.981491	눈썹도	-0.0142000895
-4.981491	자란	-0.0142000895
-4.981491	염색한	-0.0142000895
-4.981491	눈썹은	-0.0142000895
-4.2603755	낄낄	-0.0142000895
-2.9905262	ㅋㅎ	-0.0142000895
-4.981491	현실을	-0.0142000895
-4.981491	부정하지말아요	-0.0142000895
-4.981491	흑발이아니라구	-0.0142000895
-4.981491	ㅜㅡㅠ뿌염을	-0.0142000895
-4.981491	안한것	-0.0142000895
-4.981491	염색한거아님ㅋㅎ여드름	-0.0142000895
-4.981491	패치가	-0.0142000895
-4.981491	몇개인지	-0.0142000895
-4.981491	찾아보시오	-0.0142000895
-4.981491	url비가오네요	-0.0142000895
-4.981491	비가	-0.0142000895
-4.981491	보고싶었어음	-0.0142000895
-4.981491	기분이란	-0.0142000895
-4.981491	url아저거	-0.0142000895
-4.981491	첫번째라고	-0.0142000895
-4.981491	일위는	-0.0142000895
-4.981491	아닌건가	-0.0142000895
-4.981491	무지하여	-0.0142000895
-4.981491	ㅋㅋㅋㄱㅋㅋ어쨋든	-0.0142000895
-4.2603755	실시간	-0.0142000895
-4.981491	트렌드아니	-0.0142000895
-4.981491	공개곡이	-0.0142000895
-4.981491	트렌드	-0.0142000895
-4.981491	일위라니	-0.0142000895
-4.981491	많이들찾아들으세요	-0.0142000895
-4.981491	음원공개를	-0.0142000895
-4.981491	물으시는데	-0.0142000895
-4.981491	이곡	-0.0142000895
-4.981491	들모아서	-0.0142000895
-4.981491	앨범나와야하지않겠어요	-0.0142000895
-4.981491	아직은	-0.0142000895
-4.981491	나혼자하는	-0.0142000895
-4.981491	생각이긴하지만	-0.0142000895
-4.981491	url말한마디	-0.0142000895
-4.981491	나누지	-0.0142000895
-4.981491	못했고	-0.0142000895
-4.981491	눈한번	-0.0142000895
-4.981491	바라보지	-0.0142000895
-4.2603755	못한	-0.0142000895
-4.981491	아이들이지만	-0.0142000895
-4.981491	가슴께가	-0.0142000895
-3.6415157	아직도	-0.0142000895
-4.981491	저리고	-0.0142000895
-4.981491	허합니다	-0.0142000895
-4.981491	우리와	-0.0142000895
-4.981491	숨을	-0.0142000895
-4.981491	쉬었던	-0.0142000895
-4.981491	아이들입니다	-0.0142000895
-4.981491	잊지말아야	-0.0142000895
-4.2603755	합니다	-0.0142000895
-4.981491	그아이들을	-0.0142000895
-4.2603755	위해서라도	-0.18175247
-4.981491	남겨진	-0.0142000895
-4.981491	이들을	-0.0142000895
-4.2603755	미래를	-0.0142000895
-4.981491	위해서라도박지윤양	-0.0142000895
-4.981491	김건우군의	-0.0142000895
-4.981491	월	-0.0142000895
-4.2603755	하루가	-0.0142000895
-4.981491	지나긴	-0.0142000895
-4.981491	했지만	-0.0142000895
-3.6415157	로	-0.0142000895
-4.981491	무료	-0.0142000895
-4.981491	문자를	-0.0142000895
-4.2603755	보내주시면	-0.0142000895
-4.981491	안산합동분향소	-0.0142000895
-4.981491	전광판으로	-0.0142000895
-4.981491	표시됩니다	-0.0142000895
-4.981491	아이들을	-0.0142000895
-4.981491	기억해	-0.0142000895
-4.981491	주십시오많은분들에게	-0.0142000895
-4.981491	생일	-0.0142000895
-4.981491	축하를	-0.0142000895
-4.981491	받았습니다	-0.0142000895
-4.981491	어떠한	-0.0142000895
-4.2603755	일을	-0.0142000895
-4.981491	나눈다는건	-0.0142000895
-4.981491	고마운일인거같아요	-0.0142000895
-3.522229	그런	-0.0142001165
-4.2603755	의미에서	-0.0142000895
-4.981491	전해드리고싶은	-0.0142000895
-4.981491	이야기가있습니다	-0.0142000895
-4.981491	세월호	-0.0142000895
-4.981491	참사를	-0.0142000895
-4.981491	잊지않으셨을겁니다	-0.0142000895
-4.981491	단원고학생중에도	-0.0142000895
-4.981491	저와	-0.0142000895
-4.2603755	친구들이	-0.0142000895
-4.981491	있었습니다열정의	-0.0142000895
-4.981491	청춘들은	-0.0142000895
-4.981491	들으시오	-0.0142000895
-4.981491	url이번주는	-0.0142000895
-4.981491	푸밤	-0.0142000895
-4.981491	본방으로	-0.0142000895
-4.981491	들으셔야죠	-0.0142000895
-4.981491	ㅎ푸른밤을	-0.0142000895
-4.981491	들으셔야되요	-0.0142000895
-4.2603755	오늘부터	-0.0142000895
-4.981491	왤까url일이없는	-0.0142000895
-4.981491	날엔	-0.0142000895
-4.981491	불안함과	-0.0142000895
-4.981491	안락함이	-0.0142000895
-4.981491	공존하네요	-0.0142000895
-4.981491	비율이	-0.0142000895
-4.981491	극적이라	-0.0142000895
-4.981491	그렇지	-0.0142000895
-4.981491	늘려야겠어요오	-0.0142000895
-4.981491	트랙죽이네요	-0.0142000895
-4.981491	누구신지	-0.0142000895
-4.981491	수소문해봐야겠다	-0.0142000895
-4.981491	작업해보고싶어	-0.0142000895
-3.8065188	urlskinnyr	-0.0142000895
-4.981491	작업	-0.0142000895
-3.2865677	하고	-0.07420461
-2.859223	그냥	-0.04557234
-4.981491	그렇다구여	-0.0142000895
-4.2603755	왠	-0.0142000895
-4.981491	희소식소수는	-0.0142000895
-4.2603755	모여	-0.0142000895
-4.981491	다수를	-0.0142000895
-4.981491	이룬다	-0.0142000895
-4.981491	이미테이션	-0.0142000895
-4.981491	게임	-0.0142000895
-3.6415157	보다가	-0.0142000895
-4.981491	펑펑세기의	-0.0142000895
-4.981491	관종	-0.0142000895
-4.981491	urlurlurlurl안녕히	-0.0142000895
-4.981491	가시고	-0.0142000895
-4.2603755	안녕히	-0.0142000895
-4.981491	오십시오	-0.0142000895
-3.8065188	내일도	-0.0142000895
-4.2603755	만날	-0.0142000895
-4.981491	겁니다	-0.0142000895
-4.981491	물리적인	-0.0142000895
-4.981491	만남을	-0.0142000895
-4.981491	관통하고	-0.0142000895
-4.981491	하겠죠	-0.0142000895
-4.981491	철영피디님회식끝	-0.0142000895
-4.981491	여러모로	-0.0142000895
-4.981491	생각이	-0.0142000895
-4.981491	많아지는	-0.0142000895
-4.981491	순간	-0.0142000895
-4.981491	식구들	-0.0142000895
-4.981491	수고했고	-0.0142000895
-4.2603755	수고합시다	-0.0142000895
-4.981491	제작진뿐만	-0.0142000895
-4.981491	우리청취자분들	-0.0142000895
-4.981491	말이에요	-0.0142000895
-4.981491	시작하고	-0.0142000895
-4.981491	아이러니하게도	-0.0142000895
-4.981491	외적으로는	-0.0142000895
-4.981491	외로워진	-0.0142000895
-4.981491	반면에	-0.0142000895
-4.981491	내적으로	-0.0142000895
-4.981491	북적거릴	-0.0142000895
-4.2603755	있네요	-0.0142000895
-4.981491	사람역시	-0.0142000895
-4.981491	월간윤종신	-0.0142000895
-4.981491	짱이네요	-0.0142000895
-4.981491	url이	-0.0142000895
-4.981491	엑	-0.0142000895
-4.981491	쏘	-0.0142000895
-4.981491	리쓴	-0.0142000895
-4.2603755	뻬비	-0.0142000895
-4.981491	쎔아네아잉잠이안오는군요	-0.0142000895
-4.981491	콜미베이비를	-0.0142000895
-4.981491	들어야겠습니다	-0.0142000895
-4.981491	어짜피	-0.0142000895
-4.981491	못잘거라면	-0.0142000895
-3.6415157	듣고	-0.0142000895
-4.981491	각성하겠어이쁜조명이군	-0.0142000895
-4.981491	url엑소	-0.0142000895
-3.6415157	전곡	-0.0142000895
-3.8065188	쓴	-0.0142000895
-4.2603755	플레이	-0.0142000895
-4.981491	보이도	-0.0142000895
-4.981491	수록	-0.0142000895
-4.2603755	되었습니다	-0.0142000895
-4.981491	들어봐주쎼용	-0.0142000895
-4.981491	url땀을	-0.0142000895
-4.981491	흘릴정도로	-0.0142000895
-4.981491	움직였으니	-0.0142000895
-4.981491	씻어야해	-0.0142000895
-4.981491	말레이시아	-0.0142000895
-4.981491	재밌었어	-0.0142000895
-4.981491	url열두시인가요	-0.0142000895
-4.981491	언제지	-0.0142000895
-4.2603755	엑소	-0.0142000895
-4.981491	공개죠	-0.0142000895
-4.981491	정오지요	-0.0142000895
-4.981491	좋군	-0.0142000895
-4.2603755	빛나는	-0.0142000895
-4.981491	것들은	-0.0142000895
-4.981491	많아	-0.0142000895
-4.981491	그안에	-0.0142000895
-4.981491	진짜를	-0.0142000895
-4.981491	봐봐	-0.0142000895
-4.981491	어두운	-0.0142000895
-4.981491	미로	-0.0142000895
-4.981491	속	-0.0142000895
-4.981491	갇혔던	-0.0142000895
-2.9905262	나	-0.0142000895
-4.981491	껍데기뿐인	-0.0142000895
-4.981491	컨셉이	-0.0142000895
-4.2603755	아니다	-0.0142000895
-4.981491	노래에	-0.0142000895
-4.981491	세계관	-0.0142000895
-4.981491	대입	-0.0142000895
-4.981491	멋져아니	-0.0142000895
-3.8065188	이리	-0.0142000895
-3.6415157	갑자기	-0.0142000895
-4.981491	공개하기	-0.0142000895
-4.981491	좋아좋아	-0.0142000895
-4.981491	urlteaser	-0.0142000895
-4.981491	iron	-0.0142000895
-4.2603755	아이언	-0.0142000895
-4.981491	blu	-0.0142000895
-4.981491	블루	-0.0142000895
-4.981491	헌철이	-0.0142000895
-4.981491	떳쓰	-0.0142000895
-4.2603755	아이스크림	-0.0142000895
-4.981491	케이크	-0.0142000895
-4.981491	리액션	-0.0142000895
-4.981491	비디오	-0.0142000895
-4.981491	초부터	-0.0142000895
-4.981491	jpg메이슨더소울	-0.0142000895
-4.981491	mason	-0.0142000895
-4.981491	soul	-0.0142000895
-4.981491	good	-0.0142000895
-4.981491	night	-0.0142000895
-3.8065188	feat	-0.19737644
-4.981491	verbal	-0.0142000895
-4.981491	jint	-0.0142000895
-4.2603755	offici	-0.0142000895
-3.6415157	m	-0.3223152
-3.6415157	v	-0.0142001165
-4.981491	좋군요여자들이	-0.0142000895
-4.981491	싫어하는	-0.0142000895
-4.981491	모양의	-0.0142000895
-4.981491	민소매	-0.0142000895
-4.981491	url온몸으로	-0.0142000895
-4.981491	부비작대서	-0.0142000895
-4.981491	찍지도못하게하네	-0.0142000895
-4.981491	혼자있느라	-0.0142000895
-4.981491	외로웠던	-0.0142000895
-3.8065188	토닥토닥	-0.0142000895
-4.981491	오빠	-0.0142000895
-3.8065188	옆에서	-0.0142000895
-4.981491	자자	-0.0142000895
-4.981491	url아이언	-0.0142000895
-4.981491	짱이얌헌철쓰에게	-0.0142000895
-4.2603755	전화가	-0.0142000895
-4.981491	왔다	-0.0142000895
-4.981491	일날	-0.0142000895
-4.981491	쇼케이스	-0.0142000895
-4.981491	곡나온다던데	-0.0142000895
-4.981491	씹어드시겠지	-0.0142000895
-4.981491	피자먹으러	-0.0142000895
-4.2603755	가자	-0.0142000895
-4.981491	헌철아	-0.0142000895
-3.8065188	이번엔	-0.0142000895
-4.981491	니가쏴에스엠이라서	-0.0142000895
-4.981491	점	-0.0142000895
-4.981491	소녀시대가	-0.0142000895
-4.981491	선배다	-0.0142000895
-4.2603755	에프엑스가	-0.0142000895
-4.2603755	후배다	-0.0142000895
-4.981491	레드벨벳이	-0.0142000895
-4.981491	url뭐지	-0.0142000895
-4.2603755	못잣어	-0.0142000895
-4.2603755	결국	-0.0142000895
-3.6415157	오랜만에	-0.0142000895
-4.981491	산소너라	-0.0142000895
-4.981491	두근대서인가	-0.0142000895
-4.981491	응응	-0.0142000895
-4.981491	니얘기	-0.0142000895
-4.981491	잘들어볼게	-0.0142000895
-4.981491	꿀이네	-0.0142000895
-3.6415157	이노래	-0.0142000895
-4.981491	url제발	-0.0142000895
-4.2603755	아는	-0.0142000895
-3.6415157	사람들은	-0.0142000895
-3.0566375	보고	-0.0142000895
-4.981491	찔리지	-0.0142000895
-4.981491	않길	-0.0142000895
-4.981491	url시선강탈이진기씨올리래서	-0.0142000895
-4.981491	레드벨벳_ice	-0.0142000895
-4.981491	cream	-0.0142000895
-4.981491	cake_mus	-0.0142000895
-3.8065188	아이	-0.0142000895
-4.2603755	스크림	-0.18175247
-4.981491	유	-0.0142000895
-4.2603755	깁미뎃	-0.0142000895
-4.981491	베스킨	-0.0142000895
-4.981491	라빈스	-0.0142000895
-4.981491	떨이원	-0.0142000895
-4.981491	우유에빠진	-0.0142000895
-4.981491	딸기	-0.0142000895
-4.981491	사랑해주세요	-0.0142000895
-4.981491	셀카로	-0.0142000895
-4.981491	url야광	-0.0142000895
-4.981491	팔찌까지	-0.0142000895
-4.981491	차신	-0.0142000895
-3.8065188	귀요미	-0.0142000895
-4.2603755	선생님	-0.0142000895
-4.981491	샤릉해효	-0.0142000895
-4.981491	에스에무센세	-0.0142000895
-4.981491	urlbot_shakespear	-0.0142000895
-4.981491	결백함을	-0.0142000895
-4.981491	믿기때문에	-0.0142000895
-3.522229	나는	-0.0142000895
-4.981491	용감하고	-0.0142000895
-4.981491	결단력있다	-0.0142000895
-4.981491	의문을	-0.0142000895
-4.981491	풀어	-0.0142000895
-4.981491	냈을때	-0.0142000895
-4.981491	눈으로	-0.0142000895
-3.8065188	피부로	-0.0142000895
-4.981491	귀로	-0.0142000895
-4.981491	확인했을때	-0.0142000895
-4.981491	두려움에	-0.0142000895
-4.981491	비례하는	-0.0142000895
-4.981491	얻는다	-0.0142000895
-4.981491	시작이지요	-0.0142000895
-4.981491	결단력을	-0.0142000895
-4.981491	보여줘야	-0.0142000895
-4.2603755	할때	-0.0142000895
-4.981491	준비합시다	-0.0142000895
-4.981491	발자국fresh_bizzi	-0.0142000895
-4.981491	떵라이프	-0.0142000895
-4.981491	조언편	-0.0142000895
-4.981491	w	-0.0142000895
-4.981491	최승원	-0.0142000895
-4.981491	명언누나한텐비밀이야	-0.0142000895
-4.981491	말안하고	-0.0142000895
-4.981491	올린거니까	-0.0142000895
-4.981491	쉿오이잉	-0.0142000895
-4.981491	url똑같이생김ㅋㅋㅋㅋㅋㅋㅋ	-0.0142000895
-4.981491	urlcherryzzibot_shakespear	-0.0142000895
-4.2603755	슬퍼하는	-0.18175247
-4.981491	애정이	-0.0142000895
-4.981491	깊다는	-0.0142000895
-3.8065188	것을	-0.0142000895
-4.981491	증명하지만	-0.0142000895
-4.981491	지나치게	-0.0142000895
-3.522229	언제나	-0.0142001165
-4.981491	지혜가	-0.0142000895
-4.981491	부족하다는	-0.0142000895
-4.981491	증거이다	-0.0142000895
-4.981491	난멍청한것같다	-0.0142000895
-4.981491	슬프다블루베리의	-0.0142000895
-4.981491	속은	-0.0142000895
-4.981491	연두색이었어	-0.0142000895
-4.981491	헐빈지노당	-0.0142000895
-3.8065188	url오	-0.0142001165
-4.981491	플레닛쉬버	-0.0142000895
-4.981491	크러쉬쟈나심지어	-0.0142000895
-4.981491	들어야해이건	-0.0142000895
-4.981491	url셀카투척	-0.0142000895
-3.1796334	urldf	-0.7202552
-4.981491	b	-0.0142000895
-4.981491	ee	-0.0142000895
-4.981491	a	-0.0142000895
-4.981491	오늘한것	-0.0142000895
-4.2603755	일어나기	-0.18175247
-4.981491	숨쉬기	-0.0142000895
-4.981491	치킨먹기	-0.0142000895
-4.981491	오케이	-0.0142000895
-4.981491	보람차게	-0.0142000895
-4.981491	살았어	-0.0142000895
-4.981491	by	-0.0142000895
-4.981491	상대성	-0.0142000895
-4.981491	이론	-0.0142000895
-4.981491	치킨을먹었는데도오늘한것	-0.0142000895
-4.981491	끝younhahol	-0.0142000895
-4.981491	강아지들	-0.0142000895
-4.981491	저러나봐	-0.0142000895
-4.981491	나한테도	-0.0142000895
-3.428746	그럼	-0.0142000895
-4.981491	이녀석들은	-0.0142000895
-4.981491	가만둘수가없어	-0.0142000895
-3.522229	아주	-0.0142001165
-4.981491	그릉그릉멀티정리하는데	-0.0142000895
-4.981491	못하게하네	-0.0142000895
-4.981491	우리루	-0.0142000895
-4.2603755	오빠가	-0.0142000895
-4.981491	혼내줘야겠어	-0.0142000895
-4.981491	이리왓	-0.0142000895
-4.2603755	url내가	-0.0142000895
-3.6415157	사랑하는	-0.0142000895
-4.981491	이피진행	-0.0142000895
-4.2603755	좋네요	-0.0142000895
-4.981491	url조타	-0.0142000895
-4.981491	형들	-0.0142000895
-4.981491	첫방도	-0.0142000895
-4.981491	기대할게용ㅎㅎ	-0.0142000895
-3.428746	루는	-0.0142000895
-4.981491	허리조심	-0.0142000895
-4.981491	개나	-0.0142000895
-4.981491	사람이나	-0.0142000895
-4.981491	남자맞지	-0.0142000895
-4.981491	루한테	-0.0142000895
-4.981491	상처줬어	-0.0142000895
-4.981491	루여자거든요vibeangel	-0.0142000895
-4.981491	슬개골	-0.0142000895
-4.981491	탈구	-0.0142000895
-4.981491	수술후	-0.0142000895
-4.981491	회복중	-0.0142000895
-4.981491	돌아와서	-0.0142000895
-4.981491	기뻐	-0.0142000895
-4.981491	아구아구	-0.0142000895
-4.981491	어서나으렴티	-0.0142000895
-4.981491	마니무	-0.0142000895
-4.2603755	루머	-0.0142000895
-4.981491	쿠마	-0.0142000895
-4.981491	패디투th	-0.0142000895
-4.2603755	니	-0.0142000895
-4.981491	패도	-0.0142000895
-4.981491	뭐게thesaem	-0.0142000895
-4.981491	화장이	-0.0142000895
-4.2603755	마르질	-0.0142000895
-4.981491	않아	-0.0142000895
-4.981491	않는다구	-0.0142000895
-4.981491	어흥	-0.0142000895
-4.981491	url인터스텔라	-0.0142000895
-4.981491	url삼각김밥	-0.0142000895
-4.981491	먹을랭	-0.0142000895
-4.981491	urlurl미노가날이상하게본다	-0.0142000895
-4.981491	url사진을	-0.0142000895
-4.981491	너무늦게찍었어	-0.0142000895
-4.981491	다들먹어치웠어	-0.0142000895
-4.981491	url여고생인척	-0.0142000895
-4.981491	굽다가	-0.0142000895
-4.981491	타기	-0.0142000895
-4.981491	직전의	-0.0142000895
-4.981491	김	-0.0142000895
-4.981491	색	-0.0142000895
-4.981491	기냥빛받은걸로	-0.0142000895
-4.981491	ㅋㅋㅋㅋㅋsoran_kyb	-0.0142000895
-4.981491	실물	-0.0142000895
-3.6415157	보다	-0.0142000895
-4.981491	못나온	-0.0142000895
-3.8065188	자꾸	-0.0142000895
-4.981491	올릴꺼야	-0.0142000895
-4.981491	형지금	-0.0142000895
-4.981491	그게중요한게	-0.0142000895
-4.2603755	아니구	-0.0142000895
-4.981491	코트	-0.0142000895
-4.981491	무슨색으로보여요갈색이	-0.0142000895
-4.981491	아니라고	-0.0142000895
-4.981491	입은	-0.0142000895
-4.981491	코트랑	-0.0142000895
-4.981491	모자	-0.0142000895
-4.981491	색으로	-0.0142000895
-4.981491	보여	-0.0142000895
-4.981491	urlshinee_cpp	-0.0142000895
-4.2603755	키	-0.18175247
-3.6415157	은	-0.0142000895
-4.2603755	ㅂ	-0.0142000895
-3.6415157	귀	-0.089945614
-4.981491	귀싸대기	-0.0142000895
-4.981491	웃다죽음ㅋㅋㄱㅋㅋㅋ삼관왕	-0.0142000895
-4.2603755	url나	-0.0142000895
-4.981491	일등함	-0.0142000895
-4.981491	url바보루	-0.0142000895
-4.981491	url이번	-0.0142000895
-3.6415157	솔로	-0.0142000895
-4.981491	활동때	-0.0142000895
-4.981491	트로피	-0.0142000895
-4.2603755	미노가	-0.0142000895
-4.981491	찍어줬지요	-0.0142000895
-4.981491	루도출연	-0.0142000895
-4.981491	url앉아	-0.0142000895
-4.981491	계신분	-0.0142000895
-4.981491	복받으신	-0.0142000895
-4.981491	분mbcfmdate	-0.0142000895
-4.981491	퇴근하던	-0.0142000895
-4.981491	백디의	-0.0142000895
-4.981491	발걸음을	-0.0142000895
-4.981491	얼음	-0.0142000895
-3.522229	사람은	-0.0142001165
-4.981491	누굴까영	-0.0142000895
-4.981491	쉽드아	-0.0142000895
-4.981491	정답자	-0.0142000895
-4.981491	다섯분	-0.0142000895
-4.981491	추첨해서	-0.0142000895
-4.981491	의류상품권	-0.0142000895
-4.981491	쏠게요	-0.0142000895
-4.2603755	누구죠	-0.18175247
-4.981491	흰골이라구	-0.0142000895
-4.981491	파검	-0.0142000895
-4.981491	urlgo	-0.0142000895
-4.981491	고양	-0.0142000895
-4.981491	뮤직비디오	-0.0142000895
-4.981491	고양시	-0.0142000895
-4.981491	홍보송	-0.0142000895
-4.981491	ㅋㅋㅋㄱㅋㅋㅋㅋㅋㅋㄱㅋㅋㅋㄱㅋㄱㅋㅋㅋ	-0.0142000895
-4.981491	신박하게	-0.0142000895
-4.981491	본인	-0.0142000895
-4.981491	슬로건을	-0.0142000895
-4.981491	만들어봅시다fresh_bizzi	-0.0142000895
-4.981491	분발하겠습니다	-0.0142000895
-4.981491	바지를벗으며	-0.0142000895
-3.522229	아니야	-0.0142001165
-4.981491	그런분발	-0.0142000895
-4.981491	도리도리	-0.0142000895
-3.8065188	그거	-0.0142000895
-4.981491	손을	-0.0142000895
-4.981491	저으며litl_k	-0.0142000895
-4.2603755	드라마	-0.0142000895
-3.6415157	lt	-0.0142001165
-4.981491	호구의	-0.0142000895
-4.981491	사랑	-0.0142000895
-4.981491	ost인	-0.0142000895
-4.981491	라이너스의	-0.0142000895
-4.981491	담요	-0.0142000895
-4.981491	kangaroo	-0.0142000895
-4.981491	영어	-0.0142000895
-4.981491	버젼을	-0.0142000895
-4.981491	녹음하러	-0.0142000895
-4.981491	갑니다	-0.0142000895
-4.2603755	그렇고	-0.0142000895
-4.981491	종현이	-0.0142000895
-4.2603755	보고싶다	-0.0142000895
-4.981491	ㅋㅋㅋㅋ푸른밤커몬요	-0.0142000895
-4.981491	fresh_bizzi	-0.0142000895
-4.981491	이분	-0.0142000895
-4.981491	재밌으신데	-0.0142000895
-4.2603755	나만	-0.0142000895
-4.981491	웃어야함	-0.0142000895
-4.981491	리트윗할수있는	-0.0142000895
-3.428746	트윗	-0.0142000895
-4.981491	내용이	-0.0142000895
-4.981491	한정적이야ㅋㅋㄲㄱㄱㄱㅋㅋㅋㄱㅋㅋㅋㄱㅋㅋㄱㅋㄱㅋㄱㄱㅋㅋㄱㄱㅋvibeangel	-0.0142000895
-4.981491	내주변여자들은	-0.0142000895
-4.981491	착해잠들고싶돠내	-0.0142000895
-4.981491	폰의	-0.0142000895
-4.981491	재생목록	-0.0142000895
-4.981491	목록	-0.0142000895
-4.981491	곡은	-0.0142000895
-4.981491	완성되었고	-0.0142000895
-3.8065188	가사를	-0.0142000895
-4.981491	써야하는데	-0.0142000895
-4.2603755	슬슬	-0.0142000895
-4.981491	가족분들	-0.0142000895
-4.981491	자세히	-0.0142000895
-4.981491	살펴봐야겠네요	-0.0142000895
-4.981491	가족분들도	-0.0142000895
-4.2603755	사연	-0.0142000895
-4.981491	장전하세요	-0.0142000895
-4.981491	url외	-0.0142000895
-4.981491	로움과	-0.0142000895
-4.981491	괴	-0.0142000895
-4.981491	로움	-0.0142000895
-4.981491	차이는	-0.0142000895
-4.981491	기억	-0.0142000895
-4.981491	하나인데	-0.0142000895
-4.981491	읽히죠노라조	-0.0142000895
-4.981491	니팔자야	-0.0142000895
-4.981491	역대최강	-0.0142000895
-4.981491	약빨고	-0.0142000895
-4.981491	만들었다	-0.0142000895
-4.2603755	놉	-0.0142000895
-4.981491	이분들은	-0.0142000895
-4.981491	자체가	-0.0142000895
-4.981491	약이됨	-0.0142000895
-4.981491	이영상을	-0.0142000895
-4.981491	수전증이	-0.0142000895
-4.981491	나았읍니다df	-0.0142000895
-4.2603755	요즘	-0.0142000895
-4.981491	매력이	-0.0142000895
-4.981491	하늘을	-0.0142000895
-4.981491	찌르시는	-0.0142000895
-4.981491	현민쓰가	-0.0142000895
-4.981491	연락이없던이유병약해보일거야	-0.0142000895
-4.981491	병약매력	-0.0142000895
-4.981491	urlㅋㄱㅋㄱㅋㄱㅋㄱㅋㄱㄱㄱ짱귀	-0.0142000895
-4.2603755	url지금	-0.0142000895
-4.981491	이시간	-0.0142000895
-4.981491	정리된	-0.0142000895
-4.981491	브릿지나오면	-0.0142000895
-4.981491	끝나는	-0.0142000895
-4.2603755	명절	-0.0142000895
-4.981491	이틀을	-0.0142000895
-4.981491	하얗게	-0.0142000895
-4.981491	불태웠다	-0.0142000895
-4.981491	어디에	-0.0142000895
-4.981491	쓰이려나	-0.0142000895
-4.981491	이번곡들은오빠	-0.0142000895
-4.981491	작업해	-0.0142000895
-4.981491	그만하구	-0.0142000895
-4.981491	놀아	-0.0142000895
-4.2603755	요새	-0.0142000895
-4.2603755	나한테	-0.0142000895
-4.981491	소홀한	-0.0142000895
-4.981491	거같아	-0.0142000895
-4.981491	url많이	-0.0142000895
-4.2603755	받으세요	-0.0142000895
-4.981491	url복	-0.0142000895
-4.981491	다시봤을때	-0.0142000895
-4.981491	좋았던건	-0.0142000895
-3.8065188	언젠가	-0.0142000895
-4.981491	영웅이	-0.0142000895
-4.981491	말했다	-0.0142000895
-4.981491	싸움이	-0.0142000895
-4.981491	끝날거야	-0.0142000895
-4.981491	였다	-0.0142000895
-4.981491	언젠가는	-0.0142000895
-4.981491	언제요어라	-0.0142000895
-4.981491	똑같은거	-0.0142000895
-4.981491	세개올라갔네	-0.0142000895
-4.981491	이두개였어요	-0.0142000895
-4.981491	블로노트	-0.0142000895
-4.981491	url준비했던	-0.0142000895
-4.981491	블로노트들	-0.0142000895
-4.981491	방송엔	-0.0142000895
-4.981491	다하진	-0.0142000895
-4.981491	고민할수있게해준	-0.0142000895
-4.981491	꿈꾸라	-0.0142000895
-3.6415157	짱짱	-0.0142000895
-4.981491	url근래에	-0.0142000895
-3.522229	본	-0.0142001165
-4.981491	가사중	-0.0142000895
-4.981491	최고있	-0.0142000895
-3.522229	듯	-0.0142001165
-4.981491	하고픈	-0.0142000895
-3.8065188	이야기	-0.0142000895
-4.981491	많았는데	-0.0142000895
-4.2603755	나혼자	-0.0142000895
-4.981491	나혼자서	-0.0142000895
-4.981491	어쩌구막방팸	-0.0142000895
-4.981491	에디킴씌오디가쒀ㅜㅜㅜ	-0.0142000895
-4.981491	즐거운활동이었어	-0.0142000895
-4.981491	효섭아미안	-0.0142000895
-4.981491	url손가락마저닮음	-0.0142000895
-4.981491	url수고했어	-0.0142000895
-4.981491	엠버두	-0.0142000895
-4.981491	잘해	-0.0142000895
-4.981491	도플갱어	-0.0142000895
-4.981491	내가엠번건지니가엠번건지	-0.0142000895
-4.981491	엠버더럽	-0.0142000895
-4.981491	the	-0.0142000895
-3.522229	love	-0.073702715
-4.981491	너신고	-0.0142000895
-4.981491	내마음에입주신고	-0.0142000895
-4.981491	url소오름	-0.0142000895
-4.981491	닮았다	-0.0142000895
-4.981491	url엠버	-0.0142000895
-4.981491	고마우이이	-0.0142000895
-4.981491	사랑스러운	-0.0142000895
-3.6415157	동생	-0.0142000895
-4.981491	영상은	-0.0142000895
-3.522229	곧	-0.0142001165
-4.981491	공개해드리지요	-0.0142000895
-4.981491	엠버도빠이팅	-0.0142000895
-4.981491	url아이디를	-0.0142000895
-4.981491	팔껄	-0.0142000895
-3.522229	막	-0.0142001165
-4.981491	그런거있잖아	-0.0142000895
-4.981491	범접할수없는	-0.0142000895
-4.981491	감싸해요	-0.0142000895
-4.981491	하트	-0.0142000895
-4.981491	뭐죠	-0.0142000895
-4.981491	갤럭시	-0.0142000895
-4.981491	솔로들을	-0.0142000895
-4.981491	등돌리나	-0.0142000895
-4.981491	url뮤뱅	-0.0142000895
-4.981491	막방쓰	-0.0142000895
-4.981491	자이언틔	-0.0142000895
-4.981491	크뤄씌	-0.0142000895
-4.981491	urlcho_	-0.0142000895
-3.6415157	_	-0.089945614
-4.981491	코리아에서	-0.0142000895
-4.2603755	올해의	-0.0142000895
-4.981491	트잉여	-0.0142000895
-4.981491	초에게	-0.0142000895
-4.981491	선물을보내주셨어요	-0.0142000895
-4.981491	으앙아	-0.0142000895
-3.3518643	아니	-0.0142000895
-4.2603755	나에겐	-0.0142000895
-4.981491	안주는가	-0.0142000895
-4.981491	이러기야	-0.0142000895
-4.981491	llama_ajol	-0.0142000895
-4.981491	엠버야	-0.0142000895
-4.981491	이십분남았네	-0.0142000895
-4.981491	엄청떨릴텐데	-0.0142000895
-4.981491	원하는	-0.0142000895
-3.522229	걸	-0.0142001165
-4.981491	얻길	-0.0142000895
-4.981491	이번활동에서	-0.0142000895
-4.981491	얻고	-0.0142000895
-4.981491	싶은게	-0.0142000895
-4.981491	뭐니	-0.0142000895
-4.981491	부먹	-0.0142000895
-4.981491	찍먹	-0.0142000895
-3.3518643	했는데	-0.014200063
-4.981491	부먹으루나옴	-0.0142000895
-4.981491	배달아니고	-0.0142000895
-4.981491	따뜻할땐	-0.0142000895
-4.981491	부먹이징	-0.0142000895
-4.981491	위	-0.0142000895
-3.134652	사랑해요	-0.0142000895
-4.981491	축하해꺄	-0.0142000895
-4.981491	부산경찰	-0.0142000895
-4.981491	보내주신	-0.0142000895
-4.981491	물병	-0.0142000895
-4.981491	잘쓰겠습니다	-0.0142000895
-4.981491	방송국에서	-0.0142000895
-4.981491	돈트힡젓쓰헠	-0.0142000895
-4.981491	홍보중	-0.0142000895
-4.981491	url꿀	-0.0142000895
-4.981491	앉아줘	-0.0142000895
-4.981491	url짱짱귀	-0.0142000895
-4.981491	뽀뽀공격	-0.0142000895
-4.981491	쩔어	-0.0142000895
-4.981491	urlmightyironi	-0.0142000895
-4.981491	헬퍼를	-0.0142000895
-4.981491	드는	-0.0142000895
-4.981491	생각이기도	-0.0142000895
-3.8065188	세상은	-0.0142000895
-4.981491	암의	-0.0142000895
-4.981491	정의에	-0.0142000895
-4.2603755	가까운	-0.0142000895
-3.428746	같다	-0.055854127
-4.981491	순수한	-0.0142000895
-4.981491	멍청이가	-0.0142000895
-4.981491	되고	-0.0142000895
-4.981491	영	-0.0142000895
-4.981491	악	-0.0142000895
-4.981491	엘리트로	-0.0142000895
-4.981491	추앙	-0.0142000895
-3.8065188	받는	-0.0142000895
-4.981491	시대	-0.0142000895
-4.981491	그러기	-0.0142000895
-4.981491	위해선	-0.0142000895
-4.981491	똑똑해져야하기	-0.0142000895
-4.981491	구몬학습을	-0.0142000895
-4.981491	풀거다	-0.0142000895
-4.981491	천잰데soran_kyb	-0.0142000895
-4.981491	아이폰에서	-0.0142000895
-4.981491	대용량메일로	-0.0142000895
-4.981491	wav파일은	-0.0142000895
-3.8065188	절대	-0.0142000895
-4.2603755	들을	-0.18175247
-4.981491	없는건가요	-0.0142000895
-4.2603755	혹시	-0.0142000895
-4.2603755	방법	-0.0142000895
-4.2603755	아시는분	-0.0142000895
-4.981491	무언가	-0.0142000895
-3.8065188	모니터를	-0.0142000895
-4.981491	받으셨군	-0.0142000895
-4.981491	새앨범	-0.0142000895
-3.6415157	혹은	-0.0142000895
-4.981491	공연용	-0.0142000895
-4.981491	질문엔	-0.0142000895
-4.981491	대답안하고	-0.0142000895
-4.981491	괜한거	-0.0142000895
-4.981491	추리하기ㅋㅋㅋㅋ	-0.0142000895
-4.981491	싸인회하는데	-0.0142000895
-3.6415157	누가	-0.0142000895
-4.981491	붙여줬어	-0.0142000895
-3.8065188	응	-0.0142000895
-4.2603755	이젠	-0.0142000895
-4.981491	가망이	-0.0142000895
-3.522229	없어	-0.0142001165
-4.981491	필요없어	-0.0142000895
-4.2603755	ㅋㅋㅋㅋ	-0.0142000895
-4.981491	털썩	-0.0142000895
-4.981491	팬들은	-0.0142000895
-4.981491	이제와서	-0.0142000895
-3.6415157	종현씨	-0.0142000895
-4.981491	결혼해요	-0.0142000895
-4.981491	이러구	-0.0142000895
-4.981491	축하	-0.0142000895
-4.981491	urllive	-0.0142000895
-4.2603755	키썸	-0.0142000895
-4.981491	kisum	-0.0142000895
-4.981491	like	-0.0142000895
-4.981491	버스안에서	-0.0142000895
-4.981491	risso	-0.0142000895
-4.981491	쌰이니의	-0.0142000895
-4.981491	미	-0.0142000895
-4.981491	ㅋㅋㅋdigit	-0.0142000895
-4.2603755	p	-0.18175247
-4.981491	gfriend	-0.0142000895
-4.981491	yerin	-0.0142000895
-4.981491	예린	-0.0142000895
-4.2603755	amp	-0.0142000895
-3.6415157	jonghyun	-0.073702715
-4.981491	예린씨와	-0.0142000895
-4.981491	크러쉬의	-0.0142000895
-4.981491	귀여움	-0.0142000895
-4.981491	대결	-0.0142000895
-4.981491	언	-0.0142000895
-4.981491	티	-0.0142000895
-4.2603755	씨	-0.0142000895
-3.8065188	말	-0.0142000895
-4.2603755	종	-0.0142000895
-4.981491	현	-0.0142000895
-4.981491	께	-0.0142000895
-4.981491	작	-0.0142000895
-4.981491	업	-0.0142000895
-4.981491	떠	-0.0142000895
-4.981491	셨	-0.0142000895
-4.981491	씁	-0.0142000895
-4.981491	까맥케이	-0.0142000895
-4.981491	mckay	-0.0142000895
-4.981491	angel	-0.0142000895
-4.981491	duet	-0.0142000895
-4.981491	jeff	-0.0142000895
-4.981491	bernat	-0.0142000895
-4.2603755	mv	-0.18175247
-4.981491	노래좋은데imagin	-0.0142000895
-4.981491	와쏘씨	-0.0142000895
-4.981491	안나와서	-0.0142000895
-4.981491	연성만	-0.0142000895
-4.981491	종현기범만화도있ㄴ음ㅋㅋㅋㅋㅌㅋㅋㅋㅋㅋㅋㅋㅋㅋ	-0.0142000895
-3.8065188	야	-0.0142000895
-4.2603755	통화를	-0.0142000895
-4.981491	해본적이	-0.0142000895
-4.981491	몇번없음ㅋㅋ	-0.0142000895
-4.981491	운전중	-0.0142000895
-4.981491	통화는	-0.0142000895
-4.981491	자제하세요ㅋㅋcrush	-0.0142000895
-4.981491	이따방	-0.0142000895
-4.981491	효서방mv_zion	-0.0142000895
-3.8065188	t	-0.0142000895
-4.981491	crush_그냥	-0.0142000895
-4.981491	just	-0.0142000895
-4.981491	본적없다면	-0.0142000895
-4.981491	보라규아	-0.0142000895
-4.2603755	제품좀	-0.0142000895
-4.981491	싸게	-0.0142000895
-4.981491	주세요	-0.0142000895
-4.981491	공짜로	-0.0142000895
-4.981491	구해봅시다	-0.0142000895
-4.981491	전자제품	-0.0142000895
-4.981491	두려는데	-0.0142000895
-4.981491	돈내라고	-0.0142000895
-4.981491	닥달해	-0.0142000895
-4.2603755	마케팅	-0.0142000895
-4.981491	의도가	-0.0142000895
-4.981491	불쾌하게	-0.0142000895
-4.981491	다가오는	-0.0142000895
-4.981491	선전	-0.0142000895
-4.981491	문구	-0.0142000895
-3.8065188	망했어요	-0.0142000895
-4.981491	url세상의	-0.0142000895
-4.2603755	폭력은	-0.0142000895
-3.428746	다른	-0.0142000895
-4.981491	폭력을	-0.0142000895
-3.8065188	결국엔	-0.0142000895
-4.981491	자식된	-0.0142000895
-4.981491	폭력이	-0.0142000895
-4.981491	어미를	-0.0142000895
-4.981491	죽이죠	-0.0142000895
-4.981491	방관과	-0.0142000895
-4.981491	묵인의	-0.0142000895
-4.981491	동조	-0.0142000895
-4.981491	만화나	-0.0142000895
-4.2603755	영화	-0.0142000895
-4.981491	소설	-0.0142000895
-4.2603755	속의	-0.0142000895
-4.2603755	이야기가	-0.0142000895
-4.2603755	아닌	-0.0142000895
-3.8065188	우리가	-0.0142000895
-4.981491	사는	-0.0142000895
-3.522229	세상의	-0.0142001165
-4.981491	안아주세요	-0.0142000895
-4.981491	따뜻하게	-0.0142000895
-4.981491	urlpolbusan	-0.0142000895
-4.2603755	마음으로	-0.0142000895
-4.981491	공유합니다	-0.0142000895
-4.981491	취지의	-0.0142000895
-4.981491	캠페인	-0.0142000895
-4.981491	알려주셔서	-0.0142000895
-4.2603755	리스테린으로	-0.0142000895
-4.981491	반신욕해도	-0.0142000895
-4.981491	될정도로	-0.0142000895
-4.981491	보내주셨어	-0.0142000895
-4.981491	고마움을	-0.0142000895
-4.981491	넘어	-0.0142000895
-4.981491	대단하신	-0.0142000895
-4.981491	마케팅좀	-0.0142000895
-4.2603755	아시는	-0.0142000895
-4.981491	url앞으로도	-0.0142000895
-4.2603755	쭉쭉	-0.0142000895
-4.981491	url리스테린	-0.0142000895
-4.981491	마케팅부에서	-0.0142000895
-4.981491	보내줌ㅋㅋㄱㅋㅋㅋㅋㄱㅋㅋㅋㄱㅋㅋㅋㄱㄱㅋㄱㅋㄱㅋㄱㅋㄱㄱㄱㅋㄱㄱㄱㅋㄱㄱㄱㅋㅋㄱㅋ	-0.0142000895
-4.981491	양치생활	-0.0142000895
-4.981491	ㄱㅋㄱㄱㅋㄱㅋ	-0.0142000895
-4.981491	url악필	-0.0142000895
-4.981491	제거	-0.0142000895
-4.2603755	생각하면서	-0.0142000895
-4.981491	새글이	-0.0142000895
-4.981491	등록되었습니다	-0.0142000895
-4.2603755	매일이	-0.0142000895
-4.981491	똑같던	-0.0142000895
-4.981491	하나뿐인	-0.0142000895
-4.981491	되었어요	-0.0142000895
-4.2603755	고맙고맙	-0.0142000895
-4.981491	urlㅋㅋ콧구멍	-0.0142000895
-4.981491	url그냥	-0.0142000895
-4.981491	지나가면	-0.0142000895
-4.981491	돼요	-0.0142000895
-4.981491	url엑소더스와	-0.0142000895
-4.981491	이집트	-0.0142000895
-4.981491	왕자	-0.0142000895
-3.428746	헐	-0.19381946
-3.8065188	의	-0.0142000895
-4.981491	연속이었어	-0.0142000895
-4.981491	어휴	-0.0142000895
-4.981491	감정	-0.0142000895
-4.981491	롤러코스터	-0.0142000895
-4.2603755	쩐다	-0.0142000895
-4.981491	종현형	-0.0142000895
-3.8065188	인기가요	-0.0142000895
-4.981491	기원	-0.0142000895
-4.981491	짱구엉덩이춤	-0.0142000895
-4.981491	ㅋㅋㅋㅋㅋㄱㅋㅋㅋㅋㅋ	-0.0142000895
-4.981491	귀여운현미니ㅋㅋㅋㅋㅋ	-0.0142000895
-4.981491	순위	-0.0142000895
-4.981491	위인데	-0.0142000895
-4.981491	정색언프리티	-0.0142000895
-4.981491	랩스타	-0.0142000895
-4.981491	꿀잼ㅋㅋ	-0.0142000895
-3.8065188	멋져	-0.0142000895
-4.981491	귀엽고ㅋㅋㅋ	-0.0142000895
-4.981491	밀땅이즈백	-0.0142000895
-4.981491	도기대	-0.0142000895
-4.981491	노래기대즁iamkmk	-0.0142000895
-3.8065188	일위	-0.0142000895
-4.981491	물려주셔서	-0.0142000895
-4.981491	감사해혀	-0.0142000895
-4.981491	김존횬님	-0.0142000895
-4.981491	아이쿠	-0.0142000895
-4.981491	말씀이세요	-0.0142000895
-4.981491	고생하셨으니	-0.0142000895
-4.981491	당연하지요	-0.0142000895
-4.981491	축하해잉오늘	-0.0142000895
-4.981491	후보올라가있는데	-0.0142000895
-3.8065188	기분이	-0.0142000895
-4.981491	좋았다	-0.0142000895
-4.981491	후보였던	-0.0142000895
-4.2603755	세팀	-0.0142000895
-3.6415157	앨범을	-0.063202076
-4.981491	고민으로	-0.0142000895
-4.2603755	가득	-0.0142000895
-4.981491	채웠는지	-0.0142000895
-4.981491	느꼈기	-0.0142000895
-4.981491	가수뿐만아니라	-0.0142000895
-4.981491	팬분들도	-0.0142000895
-4.981491	축하해요	-0.0142000895
-4.981491	잘될거에요	-0.0142000895
-4.981491	iamkmk	-0.0142000895
-4.981491	호들갑스럽지만	-0.0142000895
-4.2603755	오늘의	-0.0142000895
-4.981491	수상은	-0.0142000895
-4.981491	언제보다	-0.0142000895
-4.981491	값지고	-0.0142000895
-4.981491	소중하게	-0.0142000895
-4.981491	받을게요	-0.0142000895
-4.981491	준비하면서	-0.0142000895
-4.981491	음악적인	-0.0142000895
-4.981491	고민과	-0.0142000895
-4.981491	변화에	-0.0142000895
-4.2603755	대한	-0.0142000895
-4.981491	불안한	-0.0142000895
-3.8065188	마음	-0.0142000895
-4.981491	낯선	-0.0142000895
-4.981491	환경	-0.0142000895
-4.981491	속에서의	-0.0142000895
-4.981491	걱정으로	-0.0142000895
-4.2603755	가득했던	-0.0142000895
-3.8065188	ㅜㅜㅜㅜㅜㅜㅜㅜㅜㅜㅜㅜㅜ	-0.0142000895
-4.2603755	운다	-0.0142000895
-4.2603755	엉덩이춤을	-0.0142000895
-4.981491	기다리겠어	-0.0142000895
-4.981491	다비치	-0.0142000895
-3.8065188	일등	-0.0142000895
-4.981491	짱축하근데	-0.0142000895
-4.981491	신난다	-0.0142000895
-4.981491	친한사람들이랑	-0.0142000895
-4.981491	일등후보라니	-0.0142000895
-4.981491	중복	-0.0142000895
-4.2603755	투표	-0.0142000895
-4.981491	불가능한	-0.0142000895
-4.981491	알고있음	-0.0142000895
-4.981491	미터를	-0.0142000895
-4.981491	초에	-0.0142000895
-4.981491	달리는	-0.0142000895
-4.981491	생명의	-0.0142000895
-4.981491	위협을	-0.0142000895
-4.981491	느낄땐	-0.0142000895
-4.981491	우사인볼트보다	-0.0142000895
-4.981491	빠르곤해	-0.0142000895
-4.981491	시작했어	-0.0142000895
-4.2603755	현민아	-0.0142000895
-4.981491	투표하고	-0.0142000895
-4.981491	인증해	-0.0142000895
-4.981491	꼭씨끼를	-0.0142000895
-4.981491	오해하실까봐	-0.0142000895
-4.981491	현민이	-0.0142000895
-4.981491	스타일이	-0.0142000895
-4.981491	좋더라구	-0.0142000895
-4.981491	씨끼	-0.0142000895
-4.2603755	정도의	-0.0142000895
-4.981491	엽사면	-0.0142000895
-4.981491	되	-0.0142000895
-4.2603755	될까요	-0.0142000895
-4.2603755	못생긴	-0.0142000895
-4.981491	오현민을	-0.0142000895
-4.981491	드리겠습니다	-0.0142000895
-3.6415157	거의	-0.0142000895
-4.981491	양아치	-0.0142000895
-3.522229	ㅜㅜ	-0.0142001165
-4.2603755	진짜가	-0.0142000895
-4.981491	뭔지	-0.0142000895
-4.981491	보여주마	-0.0142000895
-4.981491	축하로는	-0.0142000895
-4.981491	뭘할꺼냐	-0.0142000895
-4.2603755	앙	-0.0142000895
-4.981491	뭐줄꺼냐고	-0.0142000895
-4.981491	어이	-0.0142000895
-4.981491	뭐라도	-0.0142000895
-4.981491	내놔	-0.0142000895
-4.2603755	df	-0.18175247
-4.2603755	못	-0.0142000895
-4.2603755	받으면	-0.0142000895
-4.981491	랄랄라에	-0.0142000895
-4.981491	맞춰서	-0.0142000895
-4.981491	영상을	-0.0142000895
-3.2865677	ㄷㄷ	-0.0142000895
-4.981491	뭐해줄건데	-0.0142000895
-4.981491	당연한듯df	-0.0142000895
-4.981491	샤월님들	-0.0142000895
-4.981491	저희가	-0.0142000895
-4.2603755	힘을	-0.0142000895
-4.981491	모아	-0.0142000895
-4.981491	공약을	-0.0142000895
-4.981491	받아내봅시다	-0.0142000895
-4.981491	이러다	-0.0142000895
-4.981491	못받으면	-0.0142000895
-3.6415157	네가	-0.0142000895
-4.2603755	위로	-0.0142000895
-4.981491	해라df	-0.0142000895
-4.981491	위하시면	-0.0142000895
-4.981491	퍼포먼스를	-0.0142000895
-4.981491	보여주실	-0.0142000895
-4.981491	생각이신가요	-0.0142000895
-4.981491	mc인척	-0.0142000895
-4.981491	퍼포먼스요	-0.0142000895
-4.981491	당황	-0.0142000895
-4.981491	랄랄라	-0.0142000895
-4.981491	부분에서	-0.0142000895
-4.981491	추겠습니다df	-0.0142000895
-4.2603755	미안	-0.0142000895
-4.981491	미생보느라	-0.0142000895
-4.981491	뜸했었지	-0.0142000895
-4.981491	맞춰왔구나	-0.0142000895
-4.981491	음중	-0.0142000895
-4.981491	투표하렴skinnyr	-0.0142000895
-4.981491	들어야해다시는	-0.0142000895
-4.2603755	널	-0.0142000895
-4.981491	못보는	-0.0142000895
-4.2603755	줄	-0.0142000895
-4.981491	알았단다	-0.0142000895
-4.981491	땅콩아	-0.0142000895
-4.981491	url잘먹겠습니다	-0.0142000895
-4.981491	urldon	-0.0142000895
-4.981491	wanna	-0.0142000895
-4.981491	cri	-0.0142000895
-4.981491	never	-0.0142000895
-4.981491	mass	-0.0142000895
-4.981491	nb	-0.0142000895
-4.981491	answer	-0.0142000895
-4.981491	막시밀리언	-0.0142000895
-4.981491	해커는	-0.0142000895
-4.981491	갱남	-0.0142000895
-4.981491	클럽에서	-0.0142000895
-3.522229	뭔가	-0.0142001165
-4.981491	상처를	-0.0142000895
-4.981491	받은게	-0.0142000895
-4.981491	분명하다	-0.0142000895
-4.981491	ʖ	-0.0142000895
-4.981491	넝담	-0.0142000895
-4.981491	어우야	-0.0142000895
-4.981491	ㅋㅎ퍽퍽퍽	-0.0142000895
-4.2603755	자이언티	-0.0142000895
-3.6415157	좋은데	-0.089945614
-4.981491	어떡하죠	-0.0142000895
-4.981491	민망쓰ㅋ	-0.0142000895
-4.981491	화요일이다	-0.0142000895
-4.981491	덕질	-0.0142000895
-4.981491	그정도로	-0.0142000895
-4.2603755	괜찮아	-0.0142000895
-4.981491	그만해	-0.0142000895
-4.981491	url목소리	-0.0142000895
-4.2603755	짱이다	-0.0142000895
-4.981491	url이와중에	-0.0142000895
-4.981491	프사	-0.0142000895
-4.981491	신화형들ㅋㅋㅋㅋㅋ누나와	-0.0142000895
-4.981491	사이좋은걸	-0.0142000895
-4.981491	믿지	-0.0142000895
-4.981491	못하시는	-0.0142000895
-4.2603755	분들을	-0.18175247
-4.981491	증거자료	-0.0142000895
-4.981491	재출합니다	-0.0142000895
-4.981491	살가우니	-0.0142000895
-4.981491	사이가	-0.0142000895
-4.981491	좋을	-0.0142000895
-4.981491	수밖에	-0.0142000895
-4.981491	카톡할때마다	-0.0142000895
-4.2603755	심쿵	-0.0142000895
-4.981491	urlbuzzbean	-0.0142000895
-4.2603755	대도서관	-0.0142000895
-3.8065188	수다방	-0.0142000895
-4.981491	대도	-0.0142000895
-4.2603755	종현을	-0.0142000895
-4.981491	만나다	-0.0142000895
-3.8065188	편집	-0.118444666
-4.981491	swag	-0.0142000895
-4.981491	수액	-0.0142000895
-4.981491	에피소드를	-0.0142000895
-4.981491	만들어야한다는	-0.0142000895
-4.981491	강박과	-0.0142000895
-4.981491	대도서관님	-0.0142000895
-4.981491	방송분량지분을생각한	-0.0142000895
-4.981491	노림수	-0.0142000895
-4.981491	찌르기	-0.0142000895
-4.981491	였을지도	-0.0142000895
-4.981491	치밀한	-0.0142000895
-4.981491	사람이거든요아이언켓	-0.0142000895
-4.981491	urlkt_ollehtv	-0.0142000895
-4.981491	이래서	-0.0142000895
-4.981491	올레티비는	-0.0142000895
-4.981491	덕후들의	-0.0142000895
-4.981491	성지인	-0.0142000895
-3.8065188	것입니다	-0.19737644
-4.981491	탈덕금지	-0.0142000895
-3.8065188	올레티비	-0.0142000895
-4.981491	짱짱맨아냐	-0.0142000895
-4.981491	미리보기만	-0.0142000895
-4.981491	그런거야	-0.0142000895
-4.981491	들어가면	-0.0142000895
-4.981491	바뀌었어아	-0.0142000895
-4.981491	안올릴	-0.0142000895
-4.981491	래요	-0.0142000895
-4.981491	컴맹인가봐	-0.0142000895
-4.981491	왜자꾸	-0.0142000895
-4.981491	털썩이니그게	-0.0142000895
-4.981491	영상제목을	-0.0142000895
-4.981491	확인을	-0.0142000895
-4.2603755	못하고	-0.0142000895
-4.981491	고의는	-0.0142000895
-4.981491	아닌데	-0.0142000895
-4.981491	다시올려야지	-0.0142000895
-4.981491	안절부절휴덕은	-0.0142000895
-4.2603755	있어도	-0.0142000895
-4.981491	탈덕은	-0.0142000895
-4.981491	없다더니	-0.0142000895
-4.981491	재입덕ㅋㅋㅋㅋㅋㅋㅋㅋㅋ	-0.0142000895
-4.981491	줄리엣	-0.0142000895
-4.981491	영혼을	-0.0142000895
-4.981491	바칠게요	-0.0142000895
-4.981491	url첫번째	-0.0142000895
-4.981491	영감	-0.0142000895
-4.981491	뭐긴	-0.0142000895
-4.981491	올리비아의	-0.0142000895
-4.981491	미모지	-0.0142000895
-4.981491	죄를	-0.0142000895
-4.981491	주고받는	-0.0142000895
-4.981491	키스씬	-0.0142000895
-4.981491	url줄리엣	-0.0142000895
-4.981491	쓸때	-0.0142000895
-4.2603755	두번째	-0.0142000895
-4.981491	장면	-0.0142000895
-3.8065188	url헐	-0.0142000895
-4.981491	샤이니다	-0.0142000895
-4.981491	url하아	-0.0142000895
-4.981491	귀엽우리누나는	-0.0142000895
-4.981491	wa가	-0.0142000895
-4.981491	솔로로	-0.0142000895
-4.2603755	나와서	-0.0142000895
-4.981491	자신만의	-0.0142000895
-4.981491	꿈과	-0.0142000895
-4.2603755	무대를	-0.0142000895
-4.981491	펼치는게	-0.0142000895
-3.8065188	어려운	-0.0142000895
-4.2603755	일인데	-0.18175247
-4.981491	진이오빠	-0.0142000895
-4.981491	최곤데	-0.0142000895
-4.981491	울부짖고	-0.0142000895
-4.981491	있었다엄마한테	-0.0142000895
-4.2603755	엄만	-0.0142000895
-4.981491	누가좋아	-0.0142000895
-4.981491	했더니	-0.0142000895
-4.981491	쎄씨봉	-0.0142000895
-4.981491	끄덕끄덕	-0.0142000895
-3.8065188	그치	-0.0142000895
-4.981491	엄마였지	-0.0142000895
-4.981491	년생	-0.0142000895
-4.981491	이셨지죄송해요	-0.0142000895
-4.981491	필교형	-0.0142000895
-4.981491	저희누나는	-0.0142000895
-4.981491	올팬이에요	-0.0142000895
-4.981491	순간당황해서	-0.0142000895
-4.981491	잘못말한거에요	-0.0142000895
-4.981491	신화창조	-0.0142000895
-4.981491	기에도	-0.0142000895
-4.981491	가입했답니당	-0.0142000895
-4.981491	씨디를	-0.0142000895
-4.981491	드리러갔는데	-0.0142000895
-4.981491	복도에서	-0.0142000895
-4.981491	민우형	-0.0142000895
-4.981491	혜성형을	-0.0142000895
-3.6415157	먼저	-0.0142000895
-3.8065188	만났다	-0.0142000895
-4.981491	그러자	-0.0142000895
-4.981491	민우형이	-0.0142000895
-4.981491	너희	-0.0142000895
-4.981491	혜성이	-0.0142000895
-4.981491	팬이던가	-0.0142000895
-4.2603755	하셨는데	-0.0142000895
-4.2603755	우리누나는	-0.0142000895
-4.981491	진이형	-0.0142000895
-4.981491	팬이요	-0.0142000895
-4.981491	라고했더니	-0.0142000895
-4.981491	하시더니	-0.0142000895
-4.981491	두분	-0.0142000895
-4.981491	사라지셨다문사이두고	-0.0142000895
-4.981491	투닥대는	-0.0142000895
-4.981491	모녀를	-0.0142000895
-4.981491	보고있자니	-0.0142000895
-4.981491	귀여워서	-0.0142000895
-4.981491	신화형들한테	-0.0142000895
-4.981491	씨디주면서	-0.0142000895
-4.981491	누나얘기했다고	-0.0142000895
-4.981491	하니까	-0.0142000895
-4.2603755	신나서	-0.0142000895
-4.981491	문을	-0.0142000895
-4.981491	염	-0.0142000895
-4.2603755	엄마랑	-0.0142000895
-4.981491	싸우다	-0.0142000895
-4.981491	억울했는지	-0.0142000895
-4.981491	글썽글썽	-0.0142000895
-4.2603755	이뻐서	-0.0142000895
-4.981491	꼭안고	-0.0142000895
-4.981491	뽀뽀해주고	-0.0142000895
-4.981491	씨디전달	-0.0142000895
-4.981491	후기를	-0.0142000895
-4.981491	촤라락	-0.0142000895
-4.981491	펼쳤다오랜만에	-0.0142000895
-4.981491	일찍집에	-0.0142000895
-4.981491	냉전중	-0.0142000895
-4.981491	그러지	-0.0142000895
-4.981491	슬쩍	-0.0142000895
-4.2603755	물어보니까	-0.0142000895
-4.981491	인기가요보고	-0.0142000895
-4.981491	멋지지않아	-0.0142000895
-4.981491	랬는데	-0.0142000895
-4.2603755	대답이	-0.0142000895
-4.981491	시큰둥해서	-0.0142000895
-4.981491	삐져서	-0.0142000895
-4.981491	방에들어가서	-0.0142000895
-4.2603755	문	-0.0142000895
-4.981491	걸어잠굼ㅋㅋㅋreal_mad_clown	-0.0142000895
-4.981491	real_mad_clown	-0.0142000895
-3.6415157	짱짱맨	-0.0142000895
-3.8065188	종현아	-0.0142000895
-4.981491	고마워잉	-0.0142000895
-4.981491	샤월분들도	-0.0142000895
-4.981491	모창	-0.0142000895
-4.981491	연습중	-0.0142000895
-4.981491	ㅋㅋㅋㅋreal_mad_clown	-0.0142000895
-4.981491	짱짱맨df	-0.0142000895
-4.981491	인기가요나보렴	-0.0142000895
-4.981491	곧나온단다df	-0.0142000895
-4.981491	금방드립	-0.0142000895
-4.981491	왜이러시는	-0.0142000895
-4.981491	서울	-0.0142000895
-4.981491	사람이셔서	-0.0142000895
-4.981491	사투리를	-0.0142000895
-4.981491	외계어처럼	-0.0142000895
-4.981491	쓰시네여	-0.0142000895
-4.981491	촌놈아	-0.0142000895
-4.981491	주어없음df	-0.0142000895
-4.981491	맘	-0.0142000895
-4.981491	알죠	-0.0142000895
-4.2603755	맘이	-0.0142000895
-4.981491	퐈악	-0.0142000895
-4.981491	상해부렀쓰ㅜㅠ	-0.0142000895
-4.981491	동상이	-0.0142000895
-4.981491	낭낭하게	-0.0142000895
-4.981491	챙겨줄줄	-0.0142000895
-4.981491	알았는데df	-0.0142000895
-4.2603755	가려서	-0.18175247
-3.8065188	잘생겼다	-0.0142000895
-4.2603755	만	-0.0142000895
-4.981491	안티가	-0.0142000895
-4.981491	생기나	-0.0142000895
-4.981491	생기나df	-0.0142000895
-4.2603755	선글라스에	-0.18175247
-4.981491	다가렸는데	-0.0142000895
-4.2603755	어라	-0.0142000895
-4.981491	두번씩써지네	-0.0142000895
-4.981491	두번씩써지네df	-0.0142000895
-4.2603755	그렇다고	-0.18175247
-4.2603755	신기하다	-0.0142000895
-4.981491	신기하다어제가찌롱	-0.0142000895
-4.981491	롯데월드	-0.0142000895
-3.8065188	안녕	-0.0142000895
-4.981491	너굴앙	-0.0142000895
-3.6415157	urljonghyun	-0.089945614
-4.981491	listerin	-0.0142000895
-4.981491	cf	-0.0142000895
-4.981491	웃다죽을뻔	-0.0142000895
-4.981491	편집자	-0.0142000895
-4.981491	귀염쓰민망쓰digit	-0.0142000895
-4.981491	였어요ㅋㅋㅋㅋㅋㅋㅋㅋㄱㅋㄱ	-0.0142000895
-4.981491	하아ㅋㅋㅋㄱㅋㄱㅋㄱ	-0.0142000895
-4.981491	ㄱㅋㄱㅋ번호를틀렸엌ㅋㅋㅋㄱㅋㄱㄲ엘프	-0.0142000895
-4.981491	해냈습니다	-0.0142000895
-4.981491	종현_데자	-0.0142000895
-4.981491	déjà	-0.0142000895
-4.2603755	boo	-0.0142000895
-4.981491	zion	-0.0142000895
-4.2603755	music	-0.0142000895
-3.428746	데자부	-0.0142000895
-4.981491	자야지유스케가	-0.0142000895
-4.981491	방송이	-0.0142000895
-4.981491	좋았다던데	-0.0142000895
-4.2603755	현장에서	-0.0142000895
-3.6415157	혹시나	-0.0142000895
-4.2603755	녹음	-0.0142000895
-4.981491	촬영하신	-0.0142000895
-4.2603755	분들은	-0.0142000895
-4.981491	편집된	-0.0142000895
-4.981491	혼자서	-0.0142000895
-4.981491	즐겨주세요	-0.0142000895
-4.981491	부탁드려용df	-0.0142000895
-4.981491	양치가	-0.0142000895
-4.981491	뭐어때서요	-0.0142000895
-4.981491	우리모두	-0.0142000895
-4.981491	양치습관을	-0.0142000895
-4.981491	길러요	-0.0142000895
-4.981491	양치요정이	-0.0142000895
-4.981491	되야지	-0.0142000895
-3.8065188	입에	-0.0142000895
-3.8065188	리스테린을	-0.0142000895
-4.981491	넣고	-0.0142000895
-4.981491	흔들고	-0.0142000895
-4.981491	거품내고	-0.0142000895
-4.981491	격정적으로	-0.0142000895
-4.981491	반복하다가	-0.0142000895
-4.981491	쏟어내겠네요df	-0.0142000895
-4.981491	서로의	-0.0142000895
-4.981491	만족을	-0.0142000895
-4.981491	합의	-0.0142000895
-4.981491	볼까요	-0.0142000895
-4.981491	이거얌	-0.0142000895
-4.981491	악수	-0.0142000895
-4.981491	척	-0.0142000895
-4.981491	흔들흔들df	-0.0142000895
-3.522229	미안해요	-0.0142001165
-4.981491	본인도	-0.0142000895
-4.2603755	이쯤되면	-0.0142000895
-4.981491	알았지	-0.0142000895
-4.981491	강아지상이라그ㅡㅜㅜㅜㅜㅜㅡ	-0.0142000895
-4.981491	현실부정중아	-0.0142000895
-4.981491	재채기	-0.0142000895
-4.981491	크	-0.0142000895
-4.981491	본방사수했는데	-0.0142000895
-4.981491	공룡같닼ㅋㅋㅋㅋㅋㅋ	-0.0142000895
-4.981491	뜨끔	-0.0142000895
-4.981491	동우	-0.0142000895
-4.981491	얘긴거죠	-0.0142000895
-4.981491	난가	-0.0142000895
-4.981491	아니지	-0.0142000895
-4.981491	담주	-0.0142000895
-4.981491	컴백인	-0.0142000895
-4.981491	인피닛	-0.0142000895
-4.981491	재체기	-0.0142000895
-4.981491	동우말하는거지화질이별로인건	-0.0142000895
-4.981491	촬영현장에서	-0.0142000895
-4.981491	찍었기때문이지	-0.0142000895
-4.981491	훗우오오오오	-0.0142000895
-4.981491	누규몸	-0.0142000895
-4.981491	존횬몸ㅋㅎ	-0.0142000895
-4.981491	url나랑	-0.0142000895
-4.981491	잘맞는	-0.0142000895
-4.981491	형아	-0.0142000895
-4.981491	url희철이형이	-0.0142000895
-4.981491	축하한다며	-0.0142000895
-4.2603755	보내준	-0.0142000895
-4.981491	사진ㅋㅋㅋㅋㅋㅋㅋ	-0.0142000895
-4.981491	정모형과	-0.0142000895
-4.2603755	희철형	-0.0142000895
-4.981491	감싸해요ㅋㅋㅋ	-0.0142000895
-4.981491	손엔	-0.0142000895
-4.981491	다른아이돌	-0.0142000895
-4.981491	씨디드리러	-0.0142000895
-4.981491	찾아가겠습니다	-0.0142000895
-4.981491	머리길이에서	-0.0142000895
-4.981491	땅콩	-0.0142000895
-4.981491	리턴의	-0.0142000895
-4.981491	향기가	-0.0142000895
-4.981491	url흔들렸다능ㅜㅜㅜㅜㅜㅜㅜㅜ	-0.0142000895
-4.981491	일등감싸해요	-0.0142000895
-4.981491	url누나랑	-0.0142000895
-4.981491	엄마의	-0.0142000895
-4.981491	깜짝	-0.0142000895
-3.522229	선물	-0.0142001165
-4.981491	나뿐만	-0.0142000895
-4.981491	샤이니월드를	-0.0142000895
-4.981491	url오오오	-0.0142000895
-3.8065188	url이거	-0.0142000895
-3.8065188	같아	-0.0142001165
-4.981491	url이옷은	-0.0142000895
-4.981491	이쁜데	-0.0142000895
-4.981491	아무리봐도	-0.0142000895
-4.981491	url순대국밥먹으러	-0.0142000895
-4.981491	무대의상으로	-0.0142000895
-4.981491	고객님들	-0.0142000895
-4.981491	시선강탈	-0.0142000895
-4.981491	urlㄷㄷㄷㄷ입덕ㄷㄷㄷㄷ	-0.0142000895
-4.981491	헌철	-0.0142000895
-4.981491	귀엽다ㄷㄷㄷㄷ	-0.0142000895
-3.6415157	수고했어	-0.0142000895
-4.981491	url자아분열	-0.0142000895
-4.981491	셀프투표인증	-0.0142000895
-4.981491	url사랑합니다	-0.0142000895
-4.981491	일등이라니	-0.0142000895
-4.981491	믿기질않아요ㅜkt_ollehtv	-0.0142000895
-3.8065188	어제	-0.0142000895
-4.981491	올레티비에	-0.0142000895
-4.981491	씨의	-0.0142000895
-3.6415157	데자	-0.089945614
-4.981491	부와	-0.0142000895
-3.8065188	crazi	-0.118444666
-3.8065188	뮤비가	-0.0142000895
-4.981491	올라왔습니다	-0.0142000895
-4.2603755	존횬	-0.0142000895
-4.981491	클라스	-0.0142000895
-4.981491	추카추카아	-0.0142000895
-3.6415157	귀여운	-0.0142000895
-4.981491	올레티비오	-0.0142000895
-4.981491	매장에서보니까	-0.0142000895
-4.981491	오묘	-0.0142000895
-4.2603755	url언제나	-0.0142000895
-4.2603755	그렇듯	-0.18175247
-4.981491	당신이	-0.0142000895
-4.981491	필요해요hityaho	-0.0142000895
-4.981491	뭔들	-0.0142000895
-4.981491	아무리나라도	-0.0142000895
-4.981491	이건좀일번하겠습니다	-0.0142000895
-4.981491	다리라도	-0.0142000895
-4.981491	길어보이게일생	-0.0142000895
-4.981491	일대의	-0.0142000895
-4.981491	선택에	-0.0142000895
-4.981491	봉착	-0.0142000895
-4.981491	urlhashtag	-0.0142000895
-4.981491	해시태그	-0.0142000895
-4.981491	_crazi	-0.0142000895
-4.2603755	guilti	-0.18175247
-4.981491	pleasur	-0.0142000895
-4.981491	url율무차	-0.0142000895
-4.981491	시무룩	-0.0142000895
-4.2603755	url야호	-0.0142000895
-4.981491	핫초코	-0.0142000895
-4.981491	url대도서관	-0.0142000895
-4.981491	노후관리는	-0.0142000895
-4.981491	팬테크로	-0.0142000895
-4.2603755	준비	-0.0142000895
-4.981491	ㅋㄱㅋㅋㄱㅋㅋㄱㄱㄱㄱ샤릉df	-0.0142000895
-4.2603755	굳	-0.0142000895
-4.981491	당신을	-0.0142000895
-4.981491	좋아합니다	-0.0142000895
-3.8065188	지니어스	-0.118444666
-4.981491	정주행중이거든요ㅎㅎ쿠키트랙의	-0.0142000895
-4.2603755	의미를	-0.0142000895
-4.981491	물어보시는	-0.0142000895
-4.2603755	많네요	-0.0142000895
-4.981491	영화가	-0.0142000895
-4.981491	다끝나고	-0.0142000895
-4.981491	크레딧이	-0.0142000895
-4.981491	올라가다가	-0.0142000895
-3.6415157	영상	-0.0142000895
-3.8065188	그걸	-0.0142000895
-4.981491	쿠키영상이라고들	-0.0142000895
-4.981491	하잖아요	-0.0142000895
-4.981491	거기서	-0.0142000895
-4.981491	착안을	-0.0142000895
-3.6415157	앨범의	-0.0142000895
-4.981491	트랙이	-0.0142000895
-4.981491	끝났다고	-0.0142000895
-4.981491	생각하셨을	-0.0142000895
-3.522229	때	-0.0142001165
-4.981491	에필로그와	-0.0142000895
-4.981491	모놀로그를	-0.0142000895
-4.2603755	담은	-0.0142000895
-4.981491	한곡이	-0.0142000895
-4.981491	더나온답니다글을	-0.0142000895
-4.981491	쓰다보니	-0.0142000895
-3.8065188	마치	-0.0142000895
-4.981491	제앨범을	-0.0142000895
-4.981491	사주세요처럼	-0.0142000895
-4.981491	읽혀질수도	-0.0142000895
-4.981491	있을것	-0.0142000895
-4.2603755	같네요	-0.0142000895
-3.8065188	전혀	-0.0142000895
-4.981491	아니구요	-0.0142000895
-4.981491	여러분들의	-0.0142000895
-3.428746	마음에	-0.0142000895
-4.981491	들었던	-0.0142000895
-4.981491	가수가	-0.0142000895
-4.2603755	있다면	-0.0142000895
-4.981491	앨범도	-0.0142000895
-4.981491	사랑해주셨으면	-0.0142000895
-4.981491	한다는	-0.0142000895
-4.981491	이야기였습니다	-0.0142000895
-4.981491	앨범에도	-0.0142000895
-3.6415157	관심을	-0.0142000895
-4.981491	좋구요시간이	-0.0142000895
-4.981491	흐르면	-0.0142000895
-4.981491	cd라는	-0.0142000895
-4.981491	정말로	-0.0142000895
-4.981491	사라질지도	-0.0142000895
-4.981491	모르죠	-0.0142000895
-3.8065188	그것이	-0.0142000895
-4.981491	안타깝다면	-0.0142000895
-3.8065188	그저	-0.0142000895
-4.981491	수긍하지않고	-0.0142000895
-3.6415157	해주세요	-0.0142001165
-4.981491	사라져가는	-0.0142000895
-4.981491	음반시장을	-0.0142000895
-4.981491	되살리려는	-0.0142000895
-4.981491	노력을	-0.0142000895
-4.981491	알아주세요	-0.0142000895
-4.2603755	리뷰를	-0.0142000895
-4.981491	작성해주신	-0.0142000895
-4.2603755	모든분들께	-0.0142000895
-4.2603755	음악을	-0.0142000895
-4.2603755	들어주신	-0.0142000895
-4.981491	분들께	-0.0142000895
-4.981491	감사합니다그래서	-0.0142000895
-4.2603755	너무나도	-0.0142000895
-4.981491	마침표라고	-0.0142000895
-3.8065188	생각하는	-0.0142000895
-4.981491	온라인으로는	-0.0142000895
-4.981491	공개하지	-0.0142000895
-4.981491	않았습니다	-0.0142000895
-4.981491	공개된	-0.0142000895
-4.981491	곡들이	-0.0142000895
-4.981491	드셨다면	-0.0142000895
-4.981491	마침표도	-0.0142000895
-4.981491	함께해	-0.0142000895
-4.981491	주세요그런	-0.0142000895
-4.981491	cd에서만	-0.0142000895
-4.2603755	있는	-0.0142000895
-4.981491	쿠키트랙을	-0.0142000895
-4.2603755	만들었습니다	-0.18175247
-4.981491	변화했고	-0.0142000895
-4.981491	그것을	-0.0142000895
-4.981491	인정하기에	-0.0142000895
-4.981491	시장	-0.0142000895
-4.981491	상황에서	-0.0142000895
-4.981491	리스너들이	-0.0142000895
-4.981491	온라인	-0.0142000895
-4.981491	스트리밍과	-0.0142000895
-3.8065188	cd로	-0.118444666
-4.2603755	들었을	-0.0142000895
-4.981491	때의	-0.0142000895
-4.981491	차이점을	-0.0142000895
-3.6415157	만드는	-0.0142000895
-4.981491	이가	-0.0142000895
-4.981491	제시하지	-0.0142000895
-4.981491	않는다면	-0.0142000895
-4.981491	음반시장은	-0.0142000895
-4.981491	사라질것이라고	-0.0142000895
-4.981491	생각했고저	-0.0142000895
-4.981491	변화해가는	-0.0142000895
-4.981491	유통과정에	-0.0142000895
-4.981491	익숙해지면서	-0.0142000895
-3.8065188	듣는	-0.0142000895
-4.2603755	조금씩	-0.0142000895
-4.981491	잊어갔습니다	-0.0142000895
-4.981491	되새겼죠	-0.0142000895
-4.981491	리스너들에게	-0.0142000895
-4.981491	온라인인으로	-0.0142000895
-4.981491	음악과	-0.0142000895
-4.981491	다른점을	-0.0142000895
-4.981491	상기시키지	-0.0142000895
-4.981491	않으면	-0.0142000895
-4.981491	안되겠다	-0.0142000895
-4.981491	라고앨범	-0.0142000895
-4.981491	써주시는	-0.0142000895
-4.2603755	많은분들에게	-0.0142000895
-4.981491	제음악을	-0.0142000895
-4.981491	들어주시는	-0.0142000895
-4.2603755	분들에게	-0.0142000895
-4.981491	염치	-0.0142000895
-4.981491	불구하고	-0.0142000895
-4.981491	한가지	-0.0142000895
-4.2603755	부탁을	-0.0142000895
-4.981491	드리자면	-0.0142000895
-4.981491	음악사업에	-0.0142000895
-4.981491	몸담고있는	-0.0142000895
-4.981491	일원으로써	-0.0142000895
-4.981491	죽어가는	-0.0142000895
-4.981491	음반시장에	-0.0142000895
-4.981491	안타까움을	-0.0142000895
-4.981491	느끼고	-0.0142000895
-4.981491	있습니다나라도	-0.0142000895
-4.981491	살아야겠다	-0.0142000895
-4.981491	url안절부절어라	-0.0142000895
-4.981491	기사남	-0.0142000895
-3.8065188	일이	-0.0142000895
-4.981491	커졌iamkmk	-0.0142000895
-4.981491	기범이	-0.0142000895
-4.981491	천상	-0.0142000895
-4.981491	연예인이야	-0.0142000895
-4.2603755	뿌듯	-0.0142000895
-4.981491	자랑스럽다들	-0.0142000895
-4.981491	혼신의힘을	-0.0142000895
-4.981491	다한	-0.0142000895
-4.981491	다만	-0.0142000895
-4.981491	이상해보인다면	-0.0142000895
-4.981491	노력해도	-0.0142000895
-4.981491	못나보이질	-0.0142000895
-3.8065188	않는	-0.0142000895
-4.981491	촬영	-0.0142000895
-4.981491	당시	-0.0142000895
-4.2603755	멤버	-0.0142000895
-4.981491	치열했고	-0.0142000895
-4.2603755	어느때보다	-0.0142000895
-4.981491	진지했죠얘네둘	-0.0142000895
-4.981491	미친거같아	-0.0142000895
-4.981491	url최민호가	-0.0142000895
-4.981491	연기를	-0.0142000895
-3.428746	해서	-0.0142000895
-4.981491	그런지	-0.0142000895
-4.2603755	표정이	-0.0142000895
-4.981491	다르다	-0.0142000895
-4.981491	나도진짜	-0.0142000895
-3.8065188	열심히	-0.0142000895
-4.981491	한건데	-0.0142000895
-4.981491	걍	-0.0142000895
-4.981491	묻힘	-0.0142000895
-4.981491	안면근육	-0.0142000895
-4.981491	활용도가	-0.0142000895
-4.981491	다르네미	-0.0142000895
-4.2603755	민호야	-0.0142000895
-4.981491	url계속	-0.0142000895
-4.981491	이상한	-0.0142000895
-4.981491	표정짓다가	-0.0142000895
-4.981491	이쁜척하니까	-0.0142000895
-4.981491	몰아받은것도	-0.0142000895
-4.981491	이상하다비주얼	-0.0142000895
-4.981491	몰아주기	-0.0142000895
-4.981491	url내가받은사진	-0.0142000895
-4.981491	url마지막	-0.0142000895
-4.981491	트랙의	-0.0142000895
-3.8065188	는	-0.063202076
-4.981491	씨디에서만	-0.0142000895
-4.981491	만나보실수	-0.0142000895
-4.981491	url체육부장된	-0.0142000895
-4.2603755	기분	-0.0142000895
-4.2603755	얘들아	-0.0142000895
-4.981491	줄서	-0.0142000895
-4.981491	줄서어제	-0.0142000895
-4.981491	한시	-0.0142000895
-4.981491	경험해	-0.0142000895
-4.981491	보고싶다고	-0.0142000895
-4.981491	망상만했던것을	-0.0142000895
-4.981491	경험했습니다	-0.0142000895
-4.981491	감사해요ㅜㅜㅜ	-0.0142000895
-4.981491	큰절	-0.0142000895
-4.981491	넙죽	-0.0142000895
-4.981491	이것도있어	-0.0142000895
-4.981491	뷰끄	-0.0142000895
-4.981491	윤하누나	-0.0142000895
-4.981491	너무좋아서	-0.0142000895
-4.2603755	타이틀을	-0.0142000895
-4.981491	까잖아요	-0.0142000895
-4.981491	정도로	-0.0142000895
-4.981491	주실지	-0.0142000895
-4.981491	몰랐어요	-0.0142000895
-4.981491	더열심히	-0.0142000895
-4.981491	하겠습니다	-0.0142000895
-3.6415157	고맙다	-0.0142000895
-4.981491	샤이니자	-0.0142000895
-4.981491	입니다오분도	-0.0142000895
-4.981491	안남았네요자	-0.0142000895
-4.2603755	정도	-0.0142000895
-4.981491	남았네요이십분남았어요	-0.0142000895
-4.981491	ㄷㄷㄷㄷㄷㄷ앨범	-0.0142000895
-4.2603755	음원	-0.0142000895
-4.981491	반정도	-0.0142000895
-4.981491	남았군요	-0.0142000895
-4.981491	들었다구	-0.0142000895
-4.981491	잊어주세요	-0.0142000895
-4.981491	레드썬	-0.0142000895
-3.8065188	url자	-0.0142000895
-3.6415157	두시간	-0.0142000895
-4.981491	반	-0.0142000895
